~o
<STREAMINFO> 1 39
<VECSIZE> 39<NULLD><MFCC_D_A_0><DIAGC>
~h "dangnyobyung"
<BEGINHMM>
<NUMSTATES> 5
<STATE> 2
<MEAN> 39
 -1.801442e+001 1.070525e+000 -1.723945e+000 3.730500e-002 -7.964256e-001 -4.389132e-001 -4.882942e-001 -3.552979e-001 -1.314068e+000 3.082980e-001 -3.809674e-001 5.075759e-001 4.371325e+001 -7.603162e-002 -2.775907e-001 -1.900056e-001 -2.648737e-001 -1.521973e-002 -1.352020e-001 2.645555e-001 1.821054e-001 -6.382402e-002 -1.259019e-001 -1.243416e-001 -5.929214e-002 8.952052e-001 -2.153029e-002 -1.215703e-001 -9.811444e-002 -1.429507e-001 5.232504e-002 -1.323708e-001 -2.871405e-002 2.699129e-003 1.487032e-001 1.093966e-001 4.367853e-002 8.988519e-002 5.318348e-001
<VARIANCE> 39
 3.232219e+000 4.371646e+000 6.446908e+000 9.723776e+000 9.900192e+000 1.557145e+001 1.133613e+001 1.413180e+001 1.478378e+001 1.668037e+001 1.218870e+001 1.235074e+001 8.225349e+000 6.804736e-001 7.618536e-001 1.096324e+000 1.588466e+000 1.014454e+000 1.884491e+000 1.256523e+000 1.719571e+000 2.088699e+000 2.322341e+000 1.733178e+000 1.553161e+000 4.453267e+000 1.123590e-001 1.383002e-001 2.046953e-001 2.298366e-001 1.739052e-001 3.462285e-001 2.280400e-001 3.187649e-001 3.866343e-001 4.249735e-001 3.121593e-001 2.819705e-001 8.087839e-001
<GCONST> 8.948565e+001
<STATE> 3
<MEAN> 39
 -1.382508e+001 -4.801652e+000 -6.340203e+000 -5.252185e+000 3.074435e+000 -2.663317e+000 8.659860e-001 1.564231e+000 6.414747e-001 1.260426e+000 -3.694682e+000 -1.755648e+000 6.686079e+001 1.519123e+000 -9.260695e-002 -1.988285e-002 -5.139048e-001 2.704380e-001 -3.217373e-002 -4.581300e-001 1.007249e-002 -3.578024e-001 3.306343e-001 -5.583936e-001 -7.544099e-001 1.866531e+000 1.304552e-001 1.951714e-001 3.013813e-001 1.043586e-001 -2.865098e-001 9.841523e-002 -1.346809e-001 -1.558223e-001 -2.202252e-001 8.011044e-002 -4.598610e-002 -3.499377e-002 -5.326533e-001
<VARIANCE> 39
 5.680742e+001 2.394120e+001 1.887708e+001 3.692001e+001 3.790340e+001 4.811687e+001 3.468512e+001 3.715293e+001 3.949296e+001 2.062403e+001 4.128354e+001 5.049487e+001 7.576122e+001 3.185001e+000 3.400631e+000 3.326019e+000 3.967276e+000 4.836298e+000 5.177012e+000 3.807659e+000 4.205801e+000 4.833167e+000 3.058602e+000 4.814530e+000 4.402182e+000 9.736404e+000 6.861567e-001 6.226121e-001 5.826644e-001 9.250619e-001 1.023422e+000 1.018458e+000 6.400655e-001 8.849443e-001 8.006055e-001 6.527552e-001 1.020040e+000 9.083225e-001 1.377650e+000
<GCONST> 1.353605e+002
<STATE> 4
<MEAN> 39
 -7.255093e+000 4.599412e-001 7.250264e-001 -3.574244e+000 -5.467381e+000 -7.185212e-001 -4.409596e+000 -1.004624e+000 -4.148385e+000 -3.352315e-002 -2.614638e+000 -2.291112e+000 6.049763e+001 -1.937486e-001 4.135414e-002 1.044194e-002 1.030184e-001 -3.923775e-002 3.213777e-002 3.753265e-002 -1.557525e-002 4.284640e-002 -3.904355e-002 9.115925e-002 8.777890e-002 -3.592418e-001 -1.342425e-002 -1.077611e-002 -2.621470e-002 6.293535e-003 3.588520e-002 1.424775e-003 1.013264e-002 1.353051e-002 2.266125e-002 -1.111177e-002 6.762466e-003 -4.349555e-003 7.469584e-004
<VARIANCE> 39
 5.131048e+001 2.450493e+001 4.768970e+001 4.207537e+001 5.460696e+001 5.927795e+001 5.003512e+001 4.628665e+001 3.685923e+001 4.082647e+001 4.995021e+001 4.368355e+001 1.583068e+002 1.776856e+000 1.698587e+000 3.396330e+000 2.775286e+000 4.005722e+000 3.424557e+000 3.002935e+000 3.482544e+000 2.976086e+000 2.968151e+000 3.230646e+000 2.617219e+000 4.599511e+000 2.599735e-001 2.853546e-001 5.240095e-001 4.870153e-001 6.302469e-001 5.821309e-001 5.289215e-001 6.097590e-001 5.730838e-001 5.713732e-001 6.212686e-001 4.753191e-001 4.784656e-001
<GCONST> 1.272960e+002
<TRANSP> 5
 0.000000e+000 1.000000e+000 0.000000e+000 0.000000e+000 0.000000e+000
 0.000000e+000 9.004437e-001 9.955624e-002 0.000000e+000 0.000000e+000
 0.000000e+000 0.000000e+000 9.066339e-001 9.336604e-002 0.000000e+000
 0.000000e+000 0.000000e+000 0.000000e+000 9.874442e-001 1.255573e-002
 0.000000e+000 0.000000e+000 0.000000e+000 0.000000e+000 0.000000e+000
<ENDHMM>
~h "nuwoseo"
<BEGINHMM>
<NUMSTATES> 5
<STATE> 2
<MEAN> 39
 -1.761327e+001 1.750397e+000 -2.197313e-001 8.116502e-001 -1.285681e+000 -4.635346e-001 -1.585481e+000 -1.860054e+000 -2.275342e+000 2.420846e-001 -9.922523e-001 -4.213199e-001 4.427930e+001 5.259927e-002 2.014234e-001 4.373887e-001 3.434223e-001 -4.101887e-002 1.535707e-001 3.138443e-002 -1.536198e-001 -8.958959e-003 -1.062733e-001 -2.049861e-001 -3.407077e-001 1.948443e-001 1.363732e-001 1.209363e-001 1.381095e-001 1.232036e-002 1.372183e-002 7.689839e-002 -4.267377e-003 3.782716e-002 4.016955e-002 -2.676015e-002 -1.273640e-002 -2.313901e-002 1.613943e-001
<VARIANCE> 39
 3.995842e+000 4.841827e+000 6.973690e+000 9.288434e+000 1.438176e+001 1.126373e+001 1.513358e+001 1.484692e+001 1.356041e+001 1.453555e+001 1.783911e+001 1.219030e+001 8.248078e+000 7.660615e-001 9.234006e-001 7.610949e-001 1.286656e+000 1.278753e+000 1.357569e+000 1.787601e+000 1.654756e+000 1.668421e+000 1.535596e+000 1.935128e+000 1.466097e+000 1.949363e-001 1.615969e-001 1.724588e-001 1.441511e-001 2.663787e-001 2.558351e-001 2.347294e-001 3.615436e-001 2.414331e-001 3.040563e-001 3.046548e-001 3.928929e-001 2.714288e-001 1.062827e-001
<GCONST> 8.475605e+001
<STATE> 3
<MEAN> 39
 -9.953427e+000 4.924784e+000 5.018323e+000 -1.676770e+000 -2.006454e+000 -1.638585e+000 -6.315718e+000 -5.276052e+000 -4.458123e+000 -2.326673e-001 -1.081418e+000 -3.550147e+000 5.905686e+001 1.339711e+000 3.469695e-001 -1.599137e-001 -1.048653e+000 -2.154961e-001 1.409718e-001 -8.605515e-001 -9.182976e-001 -1.009662e+000 -1.764146e-001 7.846799e-001 -1.252396e-001 2.233677e+000 5.552802e-002 -8.246711e-003 -2.228902e-001 -1.876827e-001 -1.785510e-001 1.323781e-001 1.483300e-001 2.287787e-002 -1.648499e-001 -1.591798e-001 5.162004e-002 1.101572e-001 -1.463819e-001
<VARIANCE> 39
 5.400253e+001 4.033681e+001 2.852482e+001 4.831619e+001 3.667728e+001 4.927400e+001 5.500865e+001 5.044299e+001 4.163157e+001 2.634347e+001 3.912392e+001 2.759046e+001 1.192288e+002 4.829782e+000 4.418268e+000 4.392490e+000 4.884727e+000 5.352975e+000 6.133171e+000 6.245616e+000 4.726745e+000 3.766456e+000 3.965810e+000 4.686259e+000 2.894904e+000 7.033494e+000 9.855290e-001 8.469080e-001 7.040513e-001 9.631682e-001 1.097212e+000 1.158019e+000 1.339880e+000 1.129754e+000 6.725785e-001 8.416503e-001 9.364614e-001 5.294117e-001 1.433901e+000
<GCONST> 1.402250e+002
<STATE> 4
<MEAN> 39
 -7.460177e+000 2.247475e+000 -4.168194e+000 -1.146673e+001 -2.926183e+000 4.610353e+000 -3.760761e+000 -2.061784e+000 -4.273996e+000 2.165926e-001 1.391414e+000 -2.886282e+000 6.424945e+001 -2.136770e-001 -7.710073e-002 -2.855640e-002 1.341423e-001 4.532414e-002 -2.928198e-002 1.319451e-001 1.493540e-001 1.637931e-001 3.094582e-002 -8.595262e-002 5.820588e-002 -3.619547e-001 -1.770660e-002 -1.074374e-002 1.488295e-002 2.350062e-002 2.447306e-002 -2.465070e-002 -1.475940e-002 -2.619464e-003 2.427869e-002 2.758456e-002 -3.295768e-003 -1.073956e-002 3.233365e-003
<VARIANCE> 39
 9.918501e+001 2.722827e+001 2.251706e+001 8.730614e+001 6.210681e+001 6.615192e+001 6.028820e+001 3.967953e+001 5.242088e+001 5.208120e+001 5.900488e+001 4.073742e+001 1.451928e+002 4.175390e+000 1.295600e+000 1.334616e+000 3.115192e+000 2.593979e+000 3.196598e+000 3.323924e+000 2.307184e+000 2.269159e+000 2.582654e+000 2.683717e+000 2.043514e+000 9.778685e-001 4.860393e-001 2.150684e-001 2.265850e-001 3.812146e-001 3.573330e-001 4.487578e-001 5.563592e-001 4.026555e-001 3.805787e-001 3.986998e-001 4.670748e-001 3.399275e-001 9.504294e-002
<GCONST> 1.205382e+002
<TRANSP> 5
 0.000000e+000 1.000000e+000 0.000000e+000 0.000000e+000 0.000000e+000
 0.000000e+000 8.767025e-001 1.232975e-001 0.000000e+000 0.000000e+000
 0.000000e+000 0.000000e+000 9.081340e-001 9.186601e-002 0.000000e+000
 0.000000e+000 0.000000e+000 0.000000e+000 9.864414e-001 1.355856e-002
 0.000000e+000 0.000000e+000 0.000000e+000 0.000000e+000 0.000000e+000
<ENDHMM>
~h "teukyereul"
<BEGINHMM>
<NUMSTATES> 5
<STATE> 2
<MEAN> 39
 -1.831481e+001 7.362956e-001 -1.522712e+000 9.100122e-001 -3.603637e-002 6.285404e-001 -1.436859e-001 -3.928401e-001 -1.355712e+000 -4.986556e-001 -1.578063e-001 3.813032e-001 4.362959e+001 6.682632e-002 -5.024097e-003 -9.449932e-002 -3.205022e-001 -1.063272e-001 -2.343742e-001 -3.076303e-002 -3.227364e-002 -5.013897e-002 -1.975224e-001 -2.327561e-002 1.399537e-001 6.606899e-001 -7.892622e-003 -1.364074e-001 -7.028839e-002 -1.384198e-001 -1.640008e-002 -1.552638e-001 1.298517e-002 3.023019e-002 2.805481e-002 7.054487e-002 3.211937e-002 4.695290e-002 5.707089e-001
<VARIANCE> 39
 2.602102e+000 5.856159e+000 6.418138e+000 7.726326e+000 9.905232e+000 1.046611e+001 1.074610e+001 1.376248e+001 1.254821e+001 1.273977e+001 1.345068e+001 1.032157e+001 9.674190e+000 2.901187e-001 9.560848e-001 8.429211e-001 1.583143e+000 1.337939e+000 1.056938e+000 1.479563e+000 1.676689e+000 1.277539e+000 1.444620e+000 1.506387e+000 1.468945e+000 4.558636e+000 4.013202e-002 1.096651e-001 1.310477e-001 2.393543e-001 2.377900e-001 2.360548e-001 3.009715e-001 3.361099e-001 2.288438e-001 2.906952e-001 2.903512e-001 2.771807e-001 8.618077e-001
<GCONST> 8.396711e+001
<STATE> 3
<MEAN> 39
 -1.468339e+001 -9.182025e-001 3.644030e+000 -3.140132e+000 -6.187785e+000 -6.800573e+000 -2.511537e+000 -4.085947e-001 -3.455470e+000 2.168771e+000 -5.659730e-001 7.027766e-001 6.428532e+001 3.844522e-001 -1.313709e-001 3.394687e-001 -5.979426e-002 -4.575209e-001 -2.200369e-001 -2.116346e-001 3.026837e-002 -6.998692e-002 6.842133e-002 -4.970036e-003 -1.013988e-001 7.253598e-001 4.228134e-002 1.005064e-002 1.061503e-002 4.217529e-002 -2.780490e-002 2.507924e-002 -3.102921e-002 2.076299e-002 3.885739e-003 -2.250988e-003 2.997180e-003 -4.456218e-002 -1.322581e-001
<VARIANCE> 39
 5.544016e+001 2.902641e+001 4.250740e+001 3.876277e+001 5.792220e+001 5.093903e+001 4.365798e+001 4.225856e+001 3.954227e+001 3.137271e+001 2.972476e+001 2.998421e+001 1.660739e+002 4.195523e+000 3.393252e+000 2.991342e+000 4.142121e+000 3.649531e+000 4.677832e+000 4.096586e+000 4.317115e+000 4.080834e+000 3.685859e+000 2.938507e+000 3.097944e+000 1.689316e+001 7.035323e-001 6.546577e-001 6.068768e-001 8.130966e-001 6.779348e-001 7.744343e-001 7.669183e-001 7.938370e-001 8.013966e-001 7.111161e-001 5.659276e-001 6.051058e-001 2.664243e+000
<GCONST> 1.363592e+002
<STATE> 4
<MEAN> 39
 -7.953349e+000 -2.628496e+000 3.436479e+000 2.016245e-001 -8.904267e+000 -5.799089e+000 -5.208878e+000 1.025567e+000 7.474464e-001 -1.198747e+000 -2.766941e+000 6.814627e-002 6.078127e+001 -2.796320e-001 1.081756e-001 -2.192847e-001 9.231351e-002 3.080640e-001 1.441550e-001 1.426757e-001 -1.522206e-002 5.665229e-002 -7.541326e-003 5.954159e-003 6.028536e-002 -6.560456e-001 -3.265918e-002 1.015312e-002 7.024961e-003 6.654746e-003 2.898232e-002 5.638892e-003 2.322396e-002 -2.136162e-002 -9.047871e-003 6.712421e-003 -9.553942e-004 1.061973e-002 -1.514429e-002
<VARIANCE> 39
 5.297230e+001 2.476002e+001 3.815833e+001 3.323200e+001 6.045210e+001 4.306335e+001 6.024314e+001 4.216879e+001 3.686231e+001 2.986026e+001 3.915392e+001 2.429194e+001 1.727426e+002 9.511981e-001 1.140607e+000 1.339077e+000 1.960250e+000 1.863127e+000 1.653847e+000 2.752602e+000 2.265472e+000 2.088187e+000 2.018536e+000 1.713284e+000 1.604902e+000 9.925174e-001 1.547762e-001 2.120890e-001 2.131864e-001 3.385836e-001 3.592126e-001 2.997161e-001 4.764206e-001 3.955766e-001 3.651825e-001 3.831679e-001 2.975425e-001 2.870358e-001 1.310394e-001
<GCONST> 1.107622e+002
<TRANSP> 5
 0.000000e+000 1.000000e+000 0.000000e+000 0.000000e+000 0.000000e+000
 0.000000e+000 8.931637e-001 1.068363e-001 0.000000e+000 0.000000e+000
 0.000000e+000 0.000000e+000 9.709142e-001 2.908574e-002 0.000000e+000
 0.000000e+000 0.000000e+000 0.000000e+000 9.792569e-001 2.074311e-002
 0.000000e+000 0.000000e+000 0.000000e+000 0.000000e+000 0.000000e+000
<ENDHMM>
~h "uiyogeul"
<BEGINHMM>
<NUMSTATES> 5
<STATE> 2
<MEAN> 39
 -1.777817e+001 1.415046e+000 -2.341329e+000 -6.710778e-001 1.347288e-001 2.006519e-001 -1.615090e+000 1.950224e-001 -1.229222e+000 6.012396e-001 -4.954718e-002 -3.649120e-001 4.430759e+001 1.571439e-001 2.024363e-001 3.860990e-003 -1.479657e-001 1.735228e-001 -5.569964e-002 -3.321805e-001 -1.452087e-001 -3.984721e-001 3.301663e-001 3.754644e-002 -3.512897e-001 2.904625e-001 1.868083e-001 8.820912e-002 6.029924e-002 -2.864612e-002 -1.152552e-002 2.276976e-002 -1.566719e-001 -2.695725e-002 -1.251872e-001 9.032213e-002 1.608131e-002 -9.419015e-002 2.335726e-001
<VARIANCE> 39
 4.148765e+000 3.466268e+000 9.622192e+000 1.304091e+001 1.246422e+001 1.248147e+001 1.624199e+001 1.617375e+001 1.685374e+001 1.866726e+001 1.513831e+001 1.369501e+001 8.827205e+000 5.832223e-001 4.962792e-001 1.226635e+000 1.481560e+000 1.525428e+000 1.244362e+000 1.656208e+000 2.070223e+000 1.699106e+000 1.650354e+000 1.501575e+000 1.468129e+000 4.989111e-001 2.020012e-001 1.337949e-001 1.865086e-001 2.150154e-001 3.051249e-001 1.983368e-001 3.330732e-001 3.656534e-001 2.738059e-001 2.792243e-001 2.732166e-001 3.082048e-001 1.580342e-001
<GCONST> 8.678568e+001
<STATE> 3
<MEAN> 39
 -6.864448e+000 4.061345e+000 7.127725e-001 -3.138549e+000 -2.738592e+000 -1.513904e+000 -1.299105e+001 -3.068537e+000 -6.735240e+000 4.060687e+000 2.427648e+000 -6.498167e+000 5.924277e+001 1.570484e+000 -1.588275e-001 1.133769e+000 4.919457e-002 -1.307286e+000 -7.074799e-001 -1.754760e+000 -3.503686e-002 -7.870774e-001 -2.239230e-001 4.450402e-001 -8.466713e-001 3.033437e+000 -3.006765e-001 -1.694115e-001 2.754045e-001 1.127635e-001 -3.024380e-001 -9.342959e-002 3.199846e-001 1.267935e-001 -1.102762e-001 -3.012626e-001 3.204085e-002 1.650890e-001 -5.792421e-002
<VARIANCE> 39
 5.823067e+001 2.846087e+001 3.437685e+001 4.381436e+001 4.922754e+001 4.667776e+001 7.506905e+001 8.251665e+001 5.195082e+001 3.947013e+001 4.972073e+001 4.005305e+001 1.095050e+002 5.091874e+000 3.298253e+000 2.705524e+000 4.635374e+000 3.927272e+000 3.425633e+000 5.166040e+000 6.576037e+000 4.184928e+000 3.692977e+000 2.817737e+000 3.472460e+000 3.824672e+000 8.935792e-001 5.459078e-001 5.174542e-001 8.464872e-001 7.949399e-001 6.186604e-001 1.202831e+000 1.189029e+000 6.784233e-001 4.666797e-001 4.454124e-001 6.240066e-001 9.129633e-001
<GCONST> 1.362154e+002
<STATE> 4
<MEAN> 39
 -6.219441e+000 1.335132e+000 4.260504e+000 -2.376492e+000 -8.657034e+000 -2.820007e+000 -9.313273e+000 -1.405774e+000 -6.180637e+000 -2.333097e-001 6.075077e-001 -2.574607e+000 6.301080e+001 -1.893251e-001 8.800738e-003 -1.163325e-001 1.906528e-002 1.126030e-001 7.368736e-002 2.297362e-001 -9.064012e-003 1.053554e-001 -1.254326e-002 -5.364015e-002 1.230556e-001 -3.792989e-001 1.097897e-002 6.228272e-003 -3.478753e-002 -1.433161e-002 3.312330e-002 9.235159e-003 -1.738032e-002 -7.233544e-003 1.835699e-002 2.451543e-002 -4.275818e-003 -1.145671e-002 -2.019284e-002
<VARIANCE> 39
 4.459888e+001 3.599573e+001 8.305086e+001 5.990331e+001 6.833309e+001 5.270073e+001 8.569982e+001 4.883654e+001 1.033404e+002 5.026218e+001 6.198781e+001 4.169966e+001 1.413109e+002 9.331380e-001 1.600063e+000 3.225994e+000 2.744372e+000 3.058971e+000 2.550393e+000 3.732643e+000 2.582967e+000 3.638102e+000 2.702821e+000 2.827404e+000 2.231519e+000 2.162240e+000 1.173936e-001 2.190634e-001 3.814937e-001 4.442927e-001 4.519799e-001 4.265897e-001 5.619617e-001 4.870254e-001 5.885071e-001 4.383124e-001 4.826097e-001 4.039705e-001 2.506014e-001
<GCONST> 1.245123e+002
<TRANSP> 5
 0.000000e+000 1.000000e+000 0.000000e+000 0.000000e+000 0.000000e+000
 0.000000e+000 8.801519e-001 1.198481e-001 0.000000e+000 0.000000e+000
 0.000000e+000 0.000000e+000 8.819104e-001 1.180896e-001 0.000000e+000
 0.000000e+000 0.000000e+000 0.000000e+000 9.867792e-001 1.322088e-002
 0.000000e+000 0.000000e+000 0.000000e+000 0.000000e+000 0.000000e+000
<ENDHMM>
~h "software"
<BEGINHMM>
<NUMSTATES> 5
<STATE> 2
<MEAN> 39
 -1.816899e+001 2.465898e-001 -2.623987e+000 -5.648765e-001 -1.175645e+000 -1.750757e+000 -1.003208e+000 7.282786e-001 5.459622e-001 -1.486393e-001 -1.018573e+000 2.988439e-001 4.635476e+001 -9.194198e-002 -2.526717e-001 -6.761556e-002 -3.708555e-001 3.543321e-001 -2.066810e-001 -2.207014e-001 3.290918e-002 -7.367422e-002 8.488370e-002 -1.108818e-001 -1.494127e-001 5.424348e-001 -4.920227e-002 1.455733e-003 3.717773e-002 -2.014760e-001 4.703129e-002 -1.307137e-001 -4.720875e-002 7.443706e-002 -2.680724e-002 2.370896e-002 5.421162e-002 -2.366985e-002 2.193276e-001
<VARIANCE> 39
 1.239618e+001 1.010487e+001 8.917179e+000 9.630013e+000 1.112915e+001 1.687565e+001 1.531873e+001 1.547028e+001 1.672349e+001 1.462263e+001 1.292885e+001 1.085965e+001 3.690908e+001 6.707270e-001 7.862327e-001 6.239046e-001 1.454585e+000 1.405417e+000 1.416678e+000 1.828058e+000 1.544208e+000 1.656844e+000 1.654585e+000 1.041770e+000 1.159404e+000 1.207047e+000 2.089877e-001 1.274414e-001 1.125562e-001 2.782583e-001 2.370025e-001 2.383249e-001 3.425773e-001 2.419091e-001 3.145068e-001 3.106454e-001 1.852523e-001 1.862531e-001 2.180002e-001
<GCONST> 8.842208e+001
<STATE> 3
<MEAN> 39
 -1.438412e+001 1.582382e+000 -8.535311e-001 -6.293430e+000 -4.790072e-001 -3.129119e+000 -6.374887e+000 -5.895098e-001 -2.303987e+000 1.195789e+000 1.463629e-001 -5.108551e-001 6.166331e+001 3.497413e-001 3.613693e-002 1.431171e-001 -5.295758e-002 -1.715049e-001 8.003235e-003 -3.321965e-001 -6.779597e-002 -1.502461e-001 5.195039e-002 7.270835e-002 -1.020478e-001 4.734648e-001 3.020766e-002 -3.854395e-003 -6.413884e-003 2.744918e-002 -3.052536e-002 1.914649e-002 -4.699443e-003 -1.374597e-002 9.658824e-004 -3.581699e-003 1.168104e-002 3.047698e-004 -3.918590e-002
<VARIANCE> 39
 1.032182e+002 3.290196e+001 2.431588e+001 5.129792e+001 4.780448e+001 5.418721e+001 5.787973e+001 4.616117e+001 3.691415e+001 2.727287e+001 3.254728e+001 2.802103e+001 1.266079e+002 8.316978e+000 4.118565e+000 2.306030e+000 5.433434e+000 4.160458e+000 5.081542e+000 6.007435e+000 3.764411e+000 3.609708e+000 3.136128e+000 3.362811e+000 3.219230e+000 1.378190e+001 1.121176e+000 7.777452e-001 4.332725e-001 1.094077e+000 7.362257e-001 9.621821e-001 1.037218e+000 6.321707e-001 6.961956e-001 6.366468e-001 6.450932e-001 6.234296e-001 2.354548e+000
<GCONST> 1.384028e+002
<STATE> 4
<MEAN> 39
 -6.060897e+000 -1.420068e+000 -1.968093e+000 -7.117055e+000 -3.850448e+000 2.871491e-001 -5.909759e+000 1.833198e+000 -3.685523e+000 1.772135e+000 1.327159e+000 -3.790585e+000 6.239196e+001 -2.980401e-001 1.289626e-002 -1.061115e-001 1.121710e-001 1.245083e-001 5.397746e-002 3.259746e-001 1.940141e-002 9.654346e-002 -8.201815e-002 -5.358126e-002 1.175391e-001 -5.012640e-001 -1.329728e-002 8.640225e-003 6.008407e-004 1.191623e-002 6.511307e-003 3.659304e-003 1.885233e-002 1.470828e-002 1.518593e-002 1.057635e-003 -1.629603e-002 3.353282e-003 -2.204233e-003
<VARIANCE> 39
 5.450114e+001 1.999512e+001 5.114530e+001 6.298585e+001 5.759235e+001 1.013845e+002 8.316964e+001 5.905215e+001 4.572478e+001 4.812082e+001 5.546991e+001 4.801137e+001 1.719408e+002 5.489319e-001 8.192652e-001 1.352842e+000 1.848343e+000 1.790397e+000 2.425589e+000 2.314952e+000 2.358410e+000 2.044886e+000 1.669113e+000 1.782806e+000 1.554076e+000 7.578257e-001 5.260170e-002 1.291042e-001 1.773506e-001 2.600345e-001 2.632570e-001 2.940691e-001 3.787279e-001 3.609120e-001 3.369848e-001 2.723213e-001 3.095489e-001 2.479249e-001 4.558672e-002
<GCONST> 1.092423e+002
<TRANSP> 5
 0.000000e+000 1.000000e+000 0.000000e+000 0.000000e+000 0.000000e+000
 0.000000e+000 8.904735e-001 1.095265e-001 0.000000e+000 0.000000e+000
 0.000000e+000 0.000000e+000 9.792609e-001 2.073911e-002 0.000000e+000
 0.000000e+000 0.000000e+000 0.000000e+000 9.824104e-001 1.758962e-002
 0.000000e+000 0.000000e+000 0.000000e+000 0.000000e+000 0.000000e+000
<ENDHMM>
~h "juwiui"
<BEGINHMM>
<NUMSTATES> 5
<STATE> 2
<MEAN> 39
 -1.801558e+001 3.554505e-001 -1.394120e+000 -4.770323e-001 -1.278298e+000 -4.597693e-001 -1.889789e+000 -8.034798e-001 -1.725641e+000 1.599000e-001 -1.576241e-002 5.053362e-001 4.457688e+001 -1.613500e-001 -3.871094e-001 4.904987e-002 -3.541519e-001 -1.589294e-001 2.042636e-001 -4.829042e-002 -1.001310e-001 -2.101705e-002 -4.885318e-003 -9.785663e-002 -4.026629e-002 6.817231e-001 -1.691679e-001 -1.105598e-001 1.789598e-001 -1.668797e-001 -1.792826e-001 1.001976e-001 -1.427223e-001 -9.631661e-002 7.188375e-002 -4.513542e-002 -6.688289e-002 5.742303e-002 4.276926e-001
<VARIANCE> 39
 3.377599e+000 6.415920e+000 1.011172e+001 9.673250e+000 1.278317e+001 1.615376e+001 1.637172e+001 1.545568e+001 1.489824e+001 1.755402e+001 1.359507e+001 1.122862e+001 1.083507e+001 5.883753e-001 1.604836e+000 1.504072e+000 1.748409e+000 2.422072e+000 1.742146e+000 1.920911e+000 2.083861e+000 1.629781e+000 2.178863e+000 1.612974e+000 1.374316e+000 3.347243e+000 2.415296e-001 2.296032e-001 2.912353e-001 3.068165e-001 3.563403e-001 3.321163e-001 2.564558e-001 3.697623e-001 2.983094e-001 4.495917e-001 3.079846e-001 2.675007e-001 5.288134e-001
<GCONST> 9.524559e+001
<STATE> 3
<MEAN> 39
 -2.020042e+001 -1.981699e+000 2.944770e+000 -3.024052e+000 -7.851952e+000 -2.314610e+000 -6.601230e+000 -2.934776e+000 -1.914384e+000 -1.621088e+000 1.874539e-001 1.115636e-001 6.724367e+001 1.102599e+000 3.646876e-001 2.548879e-001 2.252185e-001 -2.276601e-001 -2.028518e-001 -9.236555e-001 -2.047792e-001 -7.395158e-001 -4.388377e-002 4.280059e-001 -4.726389e-001 1.246045e+000 1.680277e-001 7.788038e-002 -1.052217e-001 7.601423e-002 4.163307e-002 -1.544754e-002 2.438622e-002 5.672383e-002 -1.153874e-001 3.686962e-002 8.222238e-002 -5.241403e-002 -2.611614e-001
<VARIANCE> 39
 1.372299e+002 3.444980e+001 2.495417e+001 3.895387e+001 4.110806e+001 6.431170e+001 7.655099e+001 4.622807e+001 5.274711e+001 3.788353e+001 2.851902e+001 2.702120e+001 6.570875e+001 1.129887e+001 3.293705e+000 3.026673e+000 3.702584e+000 5.371624e+000 7.176997e+000 6.217572e+000 4.105352e+000 5.872155e+000 3.344343e+000 3.250183e+000 2.670423e+000 5.773780e+000 1.383819e+000 7.262208e-001 5.175312e-001 6.542792e-001 1.029585e+000 1.170781e+000 1.073168e+000 8.026588e-001 9.799696e-001 6.221579e-001 7.010672e-001 4.401674e-001 6.801934e-001
<GCONST> 1.382221e+002
<STATE> 4
<MEAN> 39
 -8.967261e+000 2.851057e+000 1.042961e+001 -1.033818e+000 -1.197618e+001 -2.646968e+000 -8.835658e+000 -7.686252e-001 -1.056435e+001 -1.140114e+000 2.135330e+000 -3.872269e+000 6.330051e+001 -2.378425e-001 -1.823626e-002 -7.607757e-002 1.787616e-002 8.491401e-002 2.144500e-002 2.497368e-001 5.429941e-002 1.628183e-001 3.231932e-003 -1.010280e-001 1.161627e-001 -3.940132e-001 -1.017400e-002 2.051523e-003 -9.219859e-004 4.493652e-003 5.819418e-003 -1.109294e-002 4.104960e-003 -7.201858e-003 2.575392e-002 -6.714441e-003 -1.224446e-002 1.053278e-002 -3.485393e-004
<VARIANCE> 39
 3.145027e+001 2.007934e+001 8.577985e+001 3.514540e+001 7.333697e+001 5.549488e+001 9.016267e+001 3.658448e+001 7.072173e+001 4.345119e+001 3.863686e+001 3.438916e+001 1.429539e+002 3.358377e-001 7.874265e-001 2.305242e+000 1.260729e+000 2.112661e+000 1.974871e+000 2.309611e+000 1.941335e+000 1.989669e+000 1.706755e+000 1.535587e+000 1.260092e+000 6.009378e-001 4.760441e-002 1.123435e-001 2.143308e-001 2.017878e-001 2.997697e-001 3.256727e-001 3.622036e-001 3.530380e-001 3.433149e-001 3.092606e-001 2.798898e-001 2.342991e-001 4.494875e-002
<GCONST> 1.059485e+002
<TRANSP> 5
 0.000000e+000 1.000000e+000 0.000000e+000 0.000000e+000 0.000000e+000
 0.000000e+000 8.945136e-001 1.054864e-001 0.000000e+000 0.000000e+000
 0.000000e+000 0.000000e+000 9.368923e-001 6.310775e-002 0.000000e+000
 0.000000e+000 0.000000e+000 0.000000e+000 9.854597e-001 1.454034e-002
 0.000000e+000 0.000000e+000 0.000000e+000 0.000000e+000 0.000000e+000
<ENDHMM>
~h "mwolago"
<BEGINHMM>
<NUMSTATES> 5
<STATE> 2
<MEAN> 39
 -1.721612e+001 1.158736e+000 -8.432565e-001 6.232954e-001 -1.335073e+000 3.463289e-001 -6.176665e-001 -2.521784e+000 -2.557834e+000 1.089318e+000 -1.034214e+000 -2.141720e-002 4.456500e+001 3.107798e-001 1.253442e-001 3.564044e-001 1.816396e-001 -1.953262e-001 2.391930e-001 3.096922e-002 -6.446626e-001 -6.016663e-001 3.511319e-001 -1.627104e-001 -2.561567e-001 3.455303e-001 1.765774e-001 1.612998e-001 1.928420e-001 9.277072e-002 -1.371897e-002 6.425788e-002 -1.906562e-003 -5.253096e-002 1.197874e-002 1.665036e-003 -6.542874e-002 -1.407490e-002 1.404649e-001
<VARIANCE> 39
 2.437360e+000 4.195032e+000 6.320048e+000 8.462060e+000 1.327829e+001 1.432759e+001 1.528643e+001 2.565652e+001 1.485303e+001 1.601207e+001 1.192060e+001 1.254401e+001 8.047298e+000 2.607222e-001 7.114053e-001 1.001829e+000 1.040845e+000 8.729484e-001 1.365789e+000 1.565993e+000 1.810255e+000 1.306127e+000 1.473677e+000 1.133574e+000 1.428588e+000 2.211119e-001 1.305635e-001 1.616106e-001 1.596288e-001 1.793968e-001 1.626820e-001 1.936594e-001 2.976197e-001 3.126807e-001 2.297113e-001 2.997068e-001 2.312380e-001 2.655897e-001 7.608023e-002
<GCONST> 7.968290e+001
<STATE> 3
<MEAN> 39
 -5.281202e+000 6.136341e+000 4.847245e+000 -3.567813e+000 -6.145818e+000 3.743928e+000 -2.259552e+000 -7.498248e+000 -8.141677e+000 7.666862e-002 -4.196207e+000 -1.680351e+000 5.782011e+001 2.196447e+000 2.843749e-001 -3.320642e-001 -3.120843e+000 -1.160707e+000 6.230612e-001 -6.736426e-001 5.233381e-001 -3.630648e-001 -8.379441e-001 5.026489e-001 5.417274e-002 2.962174e+000 -1.138458e-001 -3.018992e-001 -3.844500e-001 -5.378054e-001 -5.877944e-002 1.299631e-001 -6.232761e-002 1.966580e-001 1.052830e-001 2.140594e-002 3.572881e-001 4.347743e-002 8.098477e-002
<VARIANCE> 39
 4.361032e+001 2.038453e+001 2.882456e+001 1.235310e+002 4.816913e+001 3.601832e+001 3.093781e+001 6.024231e+001 3.402081e+001 3.146126e+001 3.856573e+001 2.753774e+001 7.765559e+001 2.937461e+000 3.088212e+000 4.338433e+000 1.026208e+001 4.064946e+000 4.098616e+000 2.514634e+000 5.938600e+000 4.765462e+000 3.110956e+000 6.401850e+000 2.956098e+000 2.908384e+000 7.422841e-001 4.122002e-001 5.388921e-001 1.860848e+000 9.106292e-001 8.129972e-001 5.107790e-001 9.895251e-001 7.112836e-001 6.158543e-001 7.797843e-001 5.132828e-001 7.738289e-001
<GCONST> 1.339902e+002
<STATE> 4
<MEAN> 39
 -3.643664e+000 2.722010e+000 -4.420512e+000 -1.282745e+001 -6.252744e+000 2.897378e+000 -3.345120e+000 1.040858e+000 -4.555635e+000 -3.410828e-001 -2.235745e-002 -3.783116e+000 6.276342e+001 -2.545987e-001 -4.629311e-002 -2.450855e-002 2.697692e-001 1.291006e-001 -9.433527e-002 5.796630e-002 2.498894e-002 9.200723e-002 3.177828e-002 -4.608064e-002 6.561300e-003 -3.366983e-001 -1.308591e-002 9.875968e-003 1.630315e-002 4.772101e-002 9.612170e-003 -1.822427e-002 4.302815e-003 -1.173670e-002 -3.238269e-003 -3.299275e-003 -3.161927e-002 2.251022e-003 -2.747700e-002
<VARIANCE> 39
 6.092431e+001 4.585344e+001 2.566691e+001 9.677284e+001 5.121915e+001 4.688636e+001 6.488467e+001 4.701231e+001 7.398123e+001 4.745013e+001 5.194878e+001 4.218977e+001 1.446397e+002 1.294542e+000 1.822543e+000 1.628482e+000 4.561443e+000 2.687867e+000 3.173361e+000 3.072029e+000 2.980864e+000 3.771079e+000 2.743937e+000 3.128830e+000 2.361344e+000 2.367607e+000 2.015818e-001 2.646748e-001 2.909365e-001 7.956689e-001 4.638855e-001 5.839683e-001 5.369272e-001 5.504223e-001 6.232648e-001 5.154066e-001 5.525821e-001 4.067671e-001 2.987410e-001
<GCONST> 1.257317e+002
<TRANSP> 5
 0.000000e+000 1.000000e+000 0.000000e+000 0.000000e+000 0.000000e+000
 0.000000e+000 8.926149e-001 1.073851e-001 0.000000e+000 0.000000e+000
 0.000000e+000 0.000000e+000 8.689931e-001 1.310069e-001 0.000000e+000
 0.000000e+000 0.000000e+000 0.000000e+000 9.866586e-001 1.334142e-002
 0.000000e+000 0.000000e+000 0.000000e+000 0.000000e+000 0.000000e+000
<ENDHMM>
~h "naghwaam"
<BEGINHMM>
<NUMSTATES> 5
<STATE> 2
<MEAN> 39
 -1.731514e+001 1.465033e+000 -1.302587e+000 6.278317e-001 -8.149193e-001 5.795168e-002 -2.784373e-001 -1.237647e+000 -1.674908e+000 1.711373e-001 -1.267585e+000 2.923248e-001 4.448928e+001 2.898655e-001 9.164168e-002 3.338032e-001 1.298152e-001 -2.782940e-001 1.827670e-001 2.376424e-001 -2.651798e-001 -1.181719e-001 1.711383e-001 -3.643451e-001 -1.632552e-001 2.887487e-001 1.279289e-001 8.474471e-002 9.254554e-002 -6.185317e-003 -7.502921e-002 -5.216011e-002 -2.652990e-002 -4.928696e-002 4.318669e-002 2.382902e-002 -8.669131e-002 -1.021639e-001 2.229226e-001
<VARIANCE> 39
 4.391525e+000 7.061763e+000 7.820185e+000 1.240845e+001 1.566276e+001 1.782222e+001 1.513754e+001 1.729754e+001 1.175877e+001 1.645048e+001 1.872236e+001 1.250744e+001 8.060198e+000 5.197585e-001 8.642256e-001 1.001349e+000 1.189854e+000 1.120484e+000 1.761706e+000 1.632013e+000 1.924386e+000 1.340134e+000 1.790501e+000 1.719287e+000 1.312292e+000 3.115813e-001 1.629410e-001 2.414614e-001 1.812051e-001 2.881831e-001 2.413232e-001 3.495007e-001 3.014386e-001 3.677657e-001 2.012192e-001 3.179532e-001 3.015784e-001 2.298684e-001 2.194059e-001
<GCONST> 8.762118e+001
<STATE> 3
<MEAN> 39
 -9.075591e+000 -6.816832e-001 -7.448747e+000 -9.030399e+000 1.625905e+000 4.553366e-001 -1.643882e+000 3.072644e-002 -2.818028e+000 3.277536e+000 -3.771502e+000 -5.690240e+000 6.547250e+001 4.282289e-001 -1.262270e-001 -2.992953e-001 -5.654427e-001 1.280362e-001 1.316185e-001 -8.706307e-002 5.808724e-004 -1.126218e-001 1.068891e-001 1.311389e-001 -3.330171e-001 9.376863e-001 -2.268953e-002 -4.472170e-002 -3.919010e-002 -3.164339e-002 6.403562e-004 9.232194e-003 -6.989546e-003 3.053467e-003 -2.336106e-003 -4.509222e-003 1.967591e-002 2.613018e-003 -4.722727e-002
<VARIANCE> 39
 3.661496e+001 3.496050e+001 6.191530e+001 7.701344e+001 5.596938e+001 5.088899e+001 3.750951e+001 4.581208e+001 3.869612e+001 3.369777e+001 4.502449e+001 4.303979e+001 1.465690e+002 3.950643e+000 3.859589e+000 4.924517e+000 6.264480e+000 5.243385e+000 4.471590e+000 4.317756e+000 4.788814e+000 3.882796e+000 3.837683e+000 3.636503e+000 3.596471e+000 1.404400e+001 6.196238e-001 6.826051e-001 9.471257e-001 1.203048e+000 9.287286e-001 8.640160e-001 9.016130e-001 9.574594e-001 7.935691e-001 8.059965e-001 6.638484e-001 5.548483e-001 1.789011e+000
<GCONST> 1.407260e+002
<STATE> 4
<MEAN> 39
 -6.949539e+000 -9.690965e-001 -2.019367e+000 -4.919161e+000 2.071814e+000 2.065868e+000 -4.290274e+000 -3.750346e+000 -4.041142e+000 1.348319e+000 -2.099998e+000 -4.723284e+000 6.150132e+001 -2.984401e-001 5.318963e-002 1.333694e-001 3.392637e-001 -9.410987e-003 -1.131418e-001 -3.141596e-002 4.868717e-002 7.371519e-002 -1.085873e-001 -1.603343e-002 2.265390e-001 -6.107184e-001 -1.651134e-002 6.524509e-003 3.570677e-003 1.454470e-002 1.112748e-002 -4.220131e-003 -7.044516e-003 7.738144e-003 -4.620468e-003 1.410863e-003 8.043132e-003 1.121588e-002 -1.336927e-002
<VARIANCE> 39
 5.226757e+001 2.370421e+001 7.141595e+001 1.359521e+002 4.838302e+001 4.355171e+001 4.353088e+001 4.742620e+001 3.770126e+001 3.905117e+001 4.338014e+001 8.293964e+001 1.844230e+002 4.461536e-001 7.082102e-001 2.111336e+000 2.091681e+000 1.713966e+000 1.558990e+000 2.044256e+000 2.516422e+000 1.857302e+000 1.683466e+000 1.421193e+000 1.686502e+000 5.973446e-001 6.407679e-002 9.880718e-002 2.595206e-001 2.682387e-001 2.827624e-001 2.659275e-001 3.409682e-001 4.122980e-001 3.106958e-001 3.100739e-001 2.286267e-001 2.771637e-001 5.218912e-002
<GCONST> 1.080902e+002
<TRANSP> 5
 0.000000e+000 1.000000e+000 0.000000e+000 0.000000e+000 0.000000e+000
 0.000000e+000 8.930112e-001 1.069889e-001 0.000000e+000 0.000000e+000
 0.000000e+000 0.000000e+000 9.692056e-001 3.079434e-002 0.000000e+000
 0.000000e+000 0.000000e+000 0.000000e+000 9.813710e-001 1.862900e-002
 0.000000e+000 0.000000e+000 0.000000e+000 0.000000e+000 0.000000e+000
<ENDHMM>
~h "noemureul"
<BEGINHMM>
<NUMSTATES> 5
<STATE> 2
<MEAN> 39
 -1.717455e+001 1.345069e+000 -1.441602e+000 5.710090e-001 -1.099223e+000 6.936464e-002 -5.247209e-001 -1.162297e+000 -1.677616e+000 6.093584e-001 -1.498089e+000 -5.014851e-002 4.414241e+001 1.314186e-001 3.293402e-001 4.708459e-001 2.698803e-001 -1.462742e-001 1.415991e-001 6.632537e-002 -4.965124e-001 -3.051185e-001 1.295979e-001 -1.107630e-001 -2.807926e-001 1.588826e-001 1.518534e-001 1.391066e-001 1.572928e-001 3.200901e-002 -1.880822e-002 -1.893583e-002 4.253548e-002 4.712097e-002 2.780242e-002 -1.237952e-002 -2.244245e-002 -6.296832e-002 1.681622e-001
<VARIANCE> 39
 3.872549e+000 4.753206e+000 6.775774e+000 7.385430e+000 1.428962e+001 1.394616e+001 1.133455e+001 1.475032e+001 1.050862e+001 1.335201e+001 1.293323e+001 1.400159e+001 7.514111e+000 4.749796e-001 8.520553e-001 7.310033e-001 9.577160e-001 1.344620e+000 1.427280e+000 1.341871e+000 1.157313e+000 8.772385e-001 1.234206e+000 1.249918e+000 1.471997e+000 1.824597e-001 1.649525e-001 1.918372e-001 1.868394e-001 1.884513e-001 2.797844e-001 2.495067e-001 2.196663e-001 2.307950e-001 1.827450e-001 1.965555e-001 2.424963e-001 2.693389e-001 1.045362e-001
<GCONST> 7.913836e+001
<STATE> 3
<MEAN> 39
 -8.574593e+000 5.292414e+000 7.562894e+000 -1.456166e-001 -5.865264e+000 -5.088902e+000 -2.862007e+000 -2.589713e+000 -6.300476e+000 -9.363882e-001 -2.314212e+000 -2.665352e+000 5.853948e+001 1.170047e+000 -4.762127e-001 9.900370e-001 -6.274994e-001 -1.403806e+000 -1.543238e+000 -9.968246e-001 8.399888e-001 -8.270832e-001 -2.707720e-001 5.609493e-001 9.521521e-002 3.441201e+000 -1.130949e-001 -3.199224e-001 -1.847666e-001 -4.216304e-002 -2.483367e-001 1.433236e-002 -7.497769e-002 2.356265e-001 7.061521e-002 1.298197e-001 1.454452e-001 6.004927e-002 4.349208e-002
<VARIANCE> 39
 4.449742e+001 3.317983e+001 3.184471e+001 4.780962e+001 4.115470e+001 6.343005e+001 4.359536e+001 4.683577e+001 3.124052e+001 2.309855e+001 2.776358e+001 2.414482e+001 1.346366e+002 5.247226e+000 4.802648e+000 3.267228e+000 5.091218e+000 4.907932e+000 4.058672e+000 4.008645e+000 6.267457e+000 2.880667e+000 2.722045e+000 4.747342e+000 2.913013e+000 4.625599e+000 1.009484e+000 6.522902e-001 5.436060e-001 1.098130e+000 8.520392e-001 1.085449e+000 8.312882e-001 1.004061e+000 5.403507e-001 4.644975e-001 8.477722e-001 5.376883e-001 1.252683e+000
<GCONST> 1.351198e+002
<STATE> 4
<MEAN> 39
 -5.280495e+000 -1.056637e+000 3.284889e+000 -3.140589e-003 -9.229053e+000 -3.146797e+000 -7.805288e+000 -1.958632e+000 -2.884238e+000 5.356170e-001 -1.751449e+000 -1.996069e+000 6.373784e+001 -1.477495e-001 3.031997e-002 -1.577359e-001 4.695339e-002 1.715073e-001 1.496620e-001 8.703750e-002 -6.865707e-002 1.279216e-001 2.314837e-002 -4.471130e-002 1.899053e-002 -4.168639e-001 -5.511371e-003 1.967815e-002 5.502395e-003 -6.375588e-004 3.442973e-002 7.993372e-004 3.749135e-003 -2.959563e-002 -5.830472e-003 -1.124916e-002 -1.202265e-002 -2.344001e-004 -2.370956e-002
<VARIANCE> 39
 4.991500e+001 2.811673e+001 4.188041e+001 4.790533e+001 5.707812e+001 5.569155e+001 7.223289e+001 7.331145e+001 6.425024e+001 3.635337e+001 4.851772e+001 3.332096e+001 1.355000e+002 1.158652e+000 1.213538e+000 1.831047e+000 2.941079e+000 2.825662e+000 2.882113e+000 3.382750e+000 3.794924e+000 2.763917e+000 2.324507e+000 3.140262e+000 1.990159e+000 1.313267e+000 1.894914e-001 1.897043e-001 2.772817e-001 4.488394e-001 5.440748e-001 4.973803e-001 6.052212e-001 6.545987e-001 4.825013e-001 4.271410e-001 5.470564e-001 3.736322e-001 1.902336e-001
<GCONST> 1.213902e+002
<TRANSP> 5
 0.000000e+000 1.000000e+000 0.000000e+000 0.000000e+000 0.000000e+000
 0.000000e+000 8.831809e-001 1.168191e-001 0.000000e+000 0.000000e+000
 0.000000e+000 0.000000e+000 8.855770e-001 1.144231e-001 0.000000e+000
 0.000000e+000 0.000000e+000 0.000000e+000 9.866310e-001 1.336894e-002
 0.000000e+000 0.000000e+000 0.000000e+000 0.000000e+000 0.000000e+000
<ENDHMM>
~h "eoduun"
<BEGINHMM>
<NUMSTATES> 5
<STATE> 2
<MEAN> 39
 -1.704298e+001 5.044610e-001 -4.658798e+000 -3.246278e+000 -4.781712e-001 2.865434e+000 2.850430e-001 -9.608300e-001 -2.442636e+000 -8.454363e-001 2.279966e-001 5.864533e-001 4.497738e+001 3.321124e-001 6.281660e-002 -3.299475e-001 -5.489454e-001 -9.668435e-002 5.182499e-001 3.769661e-001 -2.379528e-002 -1.995798e-001 -3.082829e-001 -1.024413e-001 -8.604875e-002 3.220720e-001 1.136602e-001 7.541762e-002 2.931303e-002 -1.272560e-001 1.748367e-003 5.743749e-002 -4.449400e-002 8.000809e-004 6.799078e-003 7.572220e-002 4.254207e-003 1.005542e-002 2.123050e-001
<VARIANCE> 39
 5.425049e+000 5.784387e+000 2.147372e+001 1.950295e+001 1.196576e+001 3.021904e+001 2.733506e+001 1.656685e+001 1.750838e+001 1.783919e+001 1.777485e+001 1.288752e+001 1.051140e+001 7.641467e-001 7.732553e-001 2.050194e+000 1.635377e+000 1.452127e+000 2.672217e+000 2.589452e+000 1.818091e+000 2.156581e+000 1.797551e+000 2.031164e+000 1.420727e+000 4.840920e-001 2.324674e-001 1.930106e-001 3.813869e-001 3.358166e-001 2.520890e-001 4.967482e-001 3.854887e-001 3.084179e-001 4.090922e-001 3.652749e-001 3.589535e-001 2.794729e-001 1.410432e-001
<GCONST> 9.645020e+001
<STATE> 3
<MEAN> 39
 -5.816748e+000 2.896430e+000 -1.121799e+000 -1.160362e+001 -1.901228e+000 1.732787e+000 -8.088132e+000 -3.330245e+000 -5.034616e+000 1.531981e+000 1.140512e+000 -3.313926e+000 6.609271e+001 4.207458e-001 8.161168e-002 2.073431e-001 -4.212721e-002 -1.231399e-001 -1.348546e-001 -6.027640e-001 -2.797508e-001 -2.460580e-001 9.877639e-002 1.980800e-001 -2.040232e-001 8.390907e-001 -1.554911e-002 -1.025653e-002 -3.089355e-002 2.407155e-005 -4.150217e-003 4.395719e-002 2.843997e-002 -2.713490e-002 -4.698601e-002 -1.870807e-002 4.361195e-002 1.867897e-002 -7.123244e-002
<VARIANCE> 39
 5.622723e+001 3.546126e+001 3.641206e+001 1.112841e+002 3.626049e+001 8.411122e+001 7.010853e+001 5.820255e+001 4.359426e+001 4.588598e+001 4.789427e+001 3.767980e+001 1.111346e+002 5.734535e+000 4.569330e+000 2.611763e+000 8.424165e+000 3.315909e+000 5.551099e+000 6.039552e+000 4.589983e+000 3.554726e+000 3.352350e+000 3.713132e+000 2.911741e+000 1.176278e+001 9.848868e-001 9.309773e-001 4.571754e-001 1.254314e+000 5.917538e-001 9.544013e-001 1.114638e+000 8.695245e-001 6.133202e-001 5.894551e-001 6.317835e-001 5.485675e-001 1.956635e+000
<GCONST> 1.409930e+002
<STATE> 4
<MEAN> 39
 -7.422269e+000 3.487702e+000 2.562031e+000 -3.265493e+000 -4.739193e+000 3.264993e-001 -6.173348e+000 -4.666833e+000 -5.621626e+000 -3.563890e-001 -1.677148e+000 -3.615221e+000 5.894796e+001 -3.019894e-001 -7.889404e-002 -4.767903e-002 1.679793e-001 8.685441e-002 -3.872466e-002 3.065736e-001 1.870812e-001 2.128896e-001 -3.665029e-002 -1.546428e-001 1.110907e-001 -5.577710e-001 -2.124515e-002 -9.588302e-003 1.510117e-002 3.152408e-002 1.096074e-002 -3.874254e-002 -6.275648e-003 1.510685e-002 3.443055e-002 1.480649e-002 -3.793649e-002 -9.544977e-003 1.176678e-003
<VARIANCE> 39
 5.439042e+001 2.623876e+001 5.182692e+001 8.198374e+001 4.465738e+001 4.422383e+001 5.986515e+001 5.138225e+001 6.075741e+001 4.112687e+001 6.759179e+001 4.107965e+001 1.321146e+002 4.336649e-001 8.623334e-001 1.763909e+000 2.131188e+000 1.842828e+000 1.814229e+000 2.048588e+000 1.919614e+000 1.910706e+000 1.964790e+000 2.449799e+000 1.818725e+000 6.987923e-001 5.233993e-002 1.113213e-001 2.113998e-001 2.664614e-001 3.025301e-001 3.158729e-001 3.703983e-001 3.650520e-001 3.323610e-001 2.976949e-001 3.840908e-001 3.043538e-001 7.349153e-002
<GCONST> 1.094854e+002
<TRANSP> 5
 0.000000e+000 1.000000e+000 0.000000e+000 0.000000e+000 0.000000e+000
 0.000000e+000 8.861639e-001 1.138361e-001 0.000000e+000 0.000000e+000
 0.000000e+000 0.000000e+000 9.661684e-001 3.383158e-002 0.000000e+000
 0.000000e+000 0.000000e+000 0.000000e+000 9.796984e-001 2.030158e-002
 0.000000e+000 0.000000e+000 0.000000e+000 0.000000e+000 0.000000e+000
<ENDHMM>
~h "doepuri"
<BEGINHMM>
<NUMSTATES> 5
<STATE> 2
<MEAN> 39
 -1.751295e+001 1.263499e+000 -1.863485e+000 -2.271646e-001 -1.874942e+000 -6.671960e-001 -7.947670e-001 -3.010457e-001 -1.058748e+000 -2.272826e-002 -2.878931e-001 7.465045e-001 4.379595e+001 1.908589e-002 -6.832444e-002 1.024870e-001 -2.217430e-001 8.387297e-002 -1.049029e-001 -7.242057e-002 -9.096222e-002 -1.567793e-001 -3.433594e-002 1.188937e-002 2.715039e-002 1.932237e-001 -4.975387e-002 -1.516691e-001 6.376642e-002 -2.275023e-001 4.146684e-002 -5.058033e-002 2.884965e-002 2.607876e-002 -2.208244e-002 -4.179528e-003 -3.964004e-002 3.293147e-002 3.758841e-001
<VARIANCE> 39
 3.138393e+000 4.693309e+000 5.951529e+000 1.235724e+001 1.459988e+001 1.402143e+001 1.170062e+001 1.241643e+001 1.516972e+001 1.108806e+001 1.342059e+001 1.018038e+001 5.623320e+000 2.115012e-001 5.194823e-001 6.242910e-001 1.726508e+000 1.312117e+000 1.284330e+000 1.215381e+000 1.224178e+000 1.674801e+000 1.255147e+000 1.403047e+000 1.080402e+000 5.109197e-001 4.517088e-002 1.754998e-001 1.258840e-001 4.009539e-001 2.485449e-001 2.566885e-001 2.449041e-001 2.233279e-001 3.009116e-001 2.472958e-001 2.967384e-001 1.912479e-001 5.773821e-001
<GCONST> 8.050946e+001
<STATE> 3
<MEAN> 39
 -9.946806e+000 -4.084891e-001 2.079385e+000 -2.141044e+000 -5.456902e+000 -4.474211e+000 -6.703752e+000 -1.755862e+000 -3.803947e+000 1.404792e+000 1.255083e+000 1.889306e-001 6.421140e+001 2.232637e-001 2.635238e-002 5.060265e-001 -1.223376e-002 -4.105542e-001 -8.222841e-002 -2.058892e-001 -6.859963e-002 -3.041571e-001 -2.488120e-002 8.998457e-002 -1.063883e-001 6.372058e-001 1.082715e-002 5.627891e-002 2.142312e-002 3.123130e-002 -3.722585e-002 2.280573e-002 -8.776698e-003 -3.249527e-003 -3.700102e-002 1.362961e-002 1.948413e-003 -2.611263e-002 -7.493040e-002
<VARIANCE> 39
 5.890799e+001 3.254249e+001 5.062647e+001 4.334811e+001 5.783825e+001 6.103942e+001 5.314339e+001 4.854360e+001 3.956148e+001 3.013533e+001 3.017342e+001 2.675749e+001 1.306257e+002 5.200334e+000 3.748289e+000 3.673454e+000 5.259506e+000 5.735605e+000 4.990487e+000 4.586148e+000 3.805470e+000 4.164080e+000 3.253642e+000 3.324335e+000 2.694496e+000 1.341675e+001 8.030083e-001 6.888304e-001 5.039645e-001 1.076079e+000 1.042775e+000 8.679792e-001 8.067082e-001 6.847220e-001 7.673016e-001 6.337616e-001 6.661989e-001 5.551877e-001 1.943685e+000
<GCONST> 1.381956e+002
<STATE> 4
<MEAN> 39
 -1.276228e+001 3.762522e+000 9.902986e+000 -3.000377e+000 -9.813881e+000 -9.095282e-001 -3.121665e+000 -2.330815e+000 -7.648415e+000 4.572492e-001 1.070607e-001 -1.790832e+000 5.693837e+001 -2.284270e-001 -2.010964e-002 -5.612838e-001 4.782901e-002 3.923666e-001 5.595771e-002 2.123632e-001 1.243962e-001 3.766596e-001 1.187570e-002 -1.018595e-001 7.814033e-002 -6.982285e-001 -5.904815e-003 -2.759752e-002 -4.665785e-002 1.329754e-002 3.223018e-002 -1.765334e-002 5.344003e-003 5.443817e-003 5.001273e-002 -1.716448e-002 -1.120301e-002 1.822109e-002 -7.483174e-003
<VARIANCE> 39
 1.873997e+001 2.250837e+001 1.148611e+002 3.001272e+001 7.276157e+001 3.999820e+001 5.813201e+001 2.959461e+001 6.502140e+001 3.669809e+001 3.028019e+001 2.743034e+001 1.346928e+002 3.876459e-001 1.111019e+000 1.677711e+000 1.540560e+000 1.970616e+000 2.055968e+000 2.614773e+000 1.710000e+000 1.955689e+000 2.012376e+000 1.581384e+000 1.416886e+000 7.756654e-001 7.237818e-002 1.705083e-001 2.448567e-001 2.926706e-001 3.864285e-001 3.721316e-001 4.295065e-001 3.272436e-001 3.886439e-001 3.655037e-001 2.996953e-001 2.792109e-001 6.882250e-002
<GCONST> 1.075821e+002
<TRANSP> 5
 0.000000e+000 1.000000e+000 0.000000e+000 0.000000e+000 0.000000e+000
 0.000000e+000 8.833403e-001 1.166597e-001 0.000000e+000 0.000000e+000
 0.000000e+000 0.000000e+000 9.764325e-001 2.356747e-002 0.000000e+000
 0.000000e+000 0.000000e+000 0.000000e+000 9.751223e-001 2.487767e-002
 0.000000e+000 0.000000e+000 0.000000e+000 0.000000e+000 0.000000e+000
<ENDHMM>
~h "choeagi"
<BEGINHMM>
<NUMSTATES> 5
<STATE> 2
<MEAN> 39
 -1.796987e+001 1.797161e+000 -6.234053e-001 -8.289319e-002 -8.130628e-001 -3.670060e-001 -1.802084e+000 -7.578543e-001 -1.441442e+000 2.384977e-001 4.365887e-001 6.781242e-001 4.417136e+001 -1.086088e-001 -3.972287e-001 9.383047e-002 -3.717979e-001 -4.354286e-002 2.110978e-001 3.836899e-003 -4.203389e-002 6.367687e-002 -2.443787e-002 1.312202e-001 4.773120e-002 6.742048e-001 -1.938310e-001 -1.684085e-001 8.342657e-002 -3.476214e-001 -6.973062e-002 3.573694e-002 -7.445287e-002 5.594745e-002 1.551277e-002 -2.395164e-002 -3.221025e-002 -4.248000e-002 5.126954e-001
<VARIANCE> 39
 5.828710e+000 7.332061e+000 1.022495e+001 1.136933e+001 1.110573e+001 1.507701e+001 2.007088e+001 1.575392e+001 1.388490e+001 1.116794e+001 1.151248e+001 1.128274e+001 1.223251e+001 9.554347e-001 1.925185e+000 1.406204e+000 3.206243e+000 1.449406e+000 1.663920e+000 2.328974e+000 2.101857e+000 1.628144e+000 1.237669e+000 1.325445e+000 1.211874e+000 3.812914e+000 2.028115e-001 2.498606e-001 2.952696e-001 4.446602e-001 2.574805e-001 3.163091e-001 4.458225e-001 4.074484e-001 2.985399e-001 2.394301e-001 2.502249e-001 1.605814e-001 8.496702e-001
<GCONST> 9.533487e+001
<STATE> 3
<MEAN> 39
 -2.171640e+001 -4.499997e+000 4.522822e+000 -8.662896e+000 -8.023441e+000 -2.284627e+000 -2.497386e+000 8.620750e-001 -2.043132e+000 -7.826127e-001 7.372098e-001 8.261662e-001 7.035464e+001 9.523081e-001 -6.227507e-002 6.181048e-001 5.159608e-002 -9.608334e-001 -8.213066e-001 -6.101483e-002 3.845216e-001 -3.734586e-001 1.490208e-002 -9.558451e-002 -9.766300e-002 1.794981e+000 3.109995e-001 1.430846e-001 -5.698309e-002 2.157128e-001 -4.403016e-002 -1.151536e-001 -1.698417e-002 7.246504e-002 2.908810e-003 2.239108e-002 -4.439072e-002 -2.789205e-002 -3.027388e-001
<VARIANCE> 39
 6.343625e+001 1.878474e+001 2.794584e+001 4.661662e+001 3.106783e+001 3.893643e+001 2.570444e+001 2.366888e+001 2.470830e+001 1.642497e+001 1.606187e+001 2.147549e+001 4.841531e+001 7.640206e+000 2.301452e+000 2.185879e+000 5.046619e+000 2.327650e+000 2.808923e+000 3.116905e+000 2.138770e+000 2.542258e+000 1.767503e+000 2.123959e+000 1.952523e+000 8.980024e+000 8.014951e-001 5.337428e-001 4.012056e-001 7.800875e-001 3.895992e-001 4.411825e-001 5.832860e-001 3.953249e-001 5.190670e-001 3.450025e-001 3.489473e-001 3.329908e-001 1.064567e+000
<GCONST> 1.202844e+002
<STATE> 4
<MEAN> 39
 -9.945360e+000 2.149940e+000 6.758283e+000 -6.082424e+000 -8.194283e+000 -4.304144e+000 -3.802888e+000 4.319712e-002 -5.279069e+000 6.965185e-001 -2.203551e+000 -3.649644e+000 6.400239e+001 -1.385363e-001 6.248780e-002 -1.508729e-001 6.304514e-002 1.823469e-001 1.191251e-001 3.180595e-002 -5.657807e-002 4.386505e-002 -4.292185e-003 1.870254e-002 2.549395e-002 -4.179215e-001 -3.166983e-002 -3.588393e-003 -5.438746e-003 6.708519e-003 2.554136e-002 1.512778e-002 1.591026e-002 -9.100026e-003 -2.825841e-004 -1.897605e-003 4.677174e-003 8.189156e-003 -2.126093e-002
<VARIANCE> 39
 3.741682e+001 5.642462e+001 1.039140e+002 4.279201e+001 6.231221e+001 6.028846e+001 5.205651e+001 4.914508e+001 6.139477e+001 4.272892e+001 5.253353e+001 5.102570e+001 1.677711e+002 1.338475e+000 2.028131e+000 2.692484e+000 2.183143e+000 2.599401e+000 2.299016e+000 2.840410e+000 2.317179e+000 3.161558e+000 2.158434e+000 2.059747e+000 2.005455e+000 2.546851e+000 2.351859e-001 3.387003e-001 3.139776e-001 3.743301e-001 3.988622e-001 3.917387e-001 4.798564e-001 4.328562e-001 5.414041e-001 3.625048e-001 3.228222e-001 3.043337e-001 3.599358e-001
<GCONST> 1.223454e+002
<TRANSP> 5
 0.000000e+000 1.000000e+000 0.000000e+000 0.000000e+000 0.000000e+000
 0.000000e+000 9.021814e-001 9.781867e-002 0.000000e+000 0.000000e+000
 0.000000e+000 0.000000e+000 9.218424e-001 7.815754e-002 0.000000e+000
 0.000000e+000 0.000000e+000 0.000000e+000 9.862130e-001 1.378696e-002
 0.000000e+000 0.000000e+000 0.000000e+000 0.000000e+000 0.000000e+000
<ENDHMM>
~h "nawaya"
<BEGINHMM>
<NUMSTATES> 5
<STATE> 2
<MEAN> 39
 -1.713894e+001 6.760102e-001 -1.635020e+000 -2.158784e-001 -1.883900e+000 -3.009116e-001 -5.538607e-001 -1.474378e+000 -1.171855e+000 1.619894e-001 -1.970757e+000 9.694769e-002 4.509548e+001 7.731872e-002 1.406649e-001 4.240578e-001 1.611609e-001 -1.781529e-001 1.771678e-001 1.852436e-001 -4.014368e-001 -1.117227e-001 1.190436e-001 -4.038481e-001 -1.126972e-001 2.232013e-001 1.201863e-001 1.289074e-001 1.247594e-001 8.218156e-002 2.322014e-002 -3.693090e-002 -6.652448e-002 -4.913774e-002 -2.216288e-002 6.838353e-002 -3.857626e-002 -2.252669e-002 1.736488e-001
<VARIANCE> 39
 2.975986e+000 1.020954e+001 6.482793e+000 1.089115e+001 1.478116e+001 1.197147e+001 1.288852e+001 1.774691e+001 1.404097e+001 1.139649e+001 1.689256e+001 1.230360e+001 1.008739e+001 2.562338e-001 6.199254e-001 9.664066e-001 1.203705e+000 1.473412e+000 1.379992e+000 1.624979e+000 1.558912e+000 1.293406e+000 1.241919e+000 1.612364e+000 1.139985e+000 2.740589e-001 1.198505e-001 1.487648e-001 1.957078e-001 2.164529e-001 2.787778e-001 2.702449e-001 3.183395e-001 2.669913e-001 2.447835e-001 2.178242e-001 2.897808e-001 2.242934e-001 1.564956e-001
<GCONST> 8.265981e+001
<STATE> 3
<MEAN> 39
 -8.880548e+000 2.217012e+000 1.993672e+000 -2.954126e+000 -2.006908e+000 -3.665586e+000 -5.166153e+000 -2.942765e+000 1.721985e-001 5.509628e-001 -8.301812e+000 -3.290785e+000 6.306875e+001 1.274059e+000 -9.063982e-001 -8.558764e-001 -1.416526e+000 7.306075e-001 -2.209611e-001 -4.821002e-001 6.412750e-001 2.601981e-001 -2.059356e-001 -6.336089e-001 -7.946726e-001 3.315231e+000 -6.603459e-002 -2.868738e-001 -2.207547e-001 -1.498540e-001 1.085945e-001 1.528924e-001 1.556149e-001 -1.035703e-002 -6.324571e-002 -3.116843e-002 1.548739e-001 -8.367375e-002 -9.715420e-002
<VARIANCE> 39
 3.697386e+001 4.275326e+001 7.036964e+001 7.045734e+001 5.545595e+001 4.288515e+001 4.991257e+001 6.397319e+001 2.870436e+001 2.309716e+001 3.542097e+001 3.794652e+001 1.542976e+002 3.130919e+000 5.053691e+000 8.083739e+000 5.296716e+000 5.172932e+000 5.746750e+000 4.706463e+000 6.878186e+000 2.702630e+000 2.383475e+000 3.315783e+000 2.817302e+000 6.413458e+000 6.146830e-001 6.950213e-001 1.432925e+000 1.028744e+000 9.083011e-001 1.057383e+000 8.626929e-001 1.582042e+000 4.801784e-001 4.721152e-001 6.507458e-001 4.270778e-001 1.553168e+000
<GCONST> 1.389610e+002
<STATE> 4
<MEAN> 39
 -5.796111e+000 -3.749060e+000 -4.328555e+000 -1.020147e+001 -2.713356e-001 3.955710e-001 -1.712026e+000 2.058774e+000 -9.557432e-001 1.234892e-001 -3.507048e+000 -6.234053e+000 6.737007e+001 -1.960841e-001 1.096246e-001 7.632126e-002 1.689348e-001 -6.048316e-002 6.509017e-003 4.759756e-002 -4.243117e-002 -2.240288e-002 9.755398e-003 1.447351e-001 1.383187e-001 -4.625118e-001 -9.817567e-003 1.885567e-002 1.171551e-002 1.459171e-002 -1.748024e-002 -1.899436e-002 -1.416034e-002 5.947730e-003 8.968664e-003 1.205173e-003 -5.884606e-003 2.136691e-002 -1.133401e-002
<VARIANCE> 39
 4.503455e+001 2.536785e+001 4.403688e+001 8.904507e+001 7.726809e+001 6.582526e+001 2.926391e+001 4.528515e+001 3.485109e+001 3.036975e+001 5.272192e+001 6.472586e+001 1.724043e+002 4.979714e-001 1.100355e+000 1.665562e+000 1.795126e+000 2.705879e+000 2.123288e+000 1.545860e+000 2.155024e+000 1.812239e+000 1.492538e+000 2.273380e+000 2.338969e+000 8.138075e-001 5.294646e-002 1.735979e-001 1.986319e-001 2.372341e-001 3.196220e-001 2.639269e-001 2.795882e-001 3.719870e-001 3.011901e-001 2.486313e-001 3.381773e-001 3.377602e-001 7.249064e-002
<GCONST> 1.090047e+002
<TRANSP> 5
 0.000000e+000 1.000000e+000 0.000000e+000 0.000000e+000 0.000000e+000
 0.000000e+000 8.887289e-001 1.112712e-001 0.000000e+000 0.000000e+000
 0.000000e+000 0.000000e+000 8.976422e-001 1.023578e-001 0.000000e+000
 0.000000e+000 0.000000e+000 0.000000e+000 9.864026e-001 1.359743e-002
 0.000000e+000 0.000000e+000 0.000000e+000 0.000000e+000 0.000000e+000
<ENDHMM>
~h "bunyaeseo"
<BEGINHMM>
<NUMSTATES> 5
<STATE> 2
<MEAN> 39
 -1.805656e+001 5.709415e-001 -1.421441e+000 2.423199e-001 -5.808390e-001 -4.471177e-001 -6.429891e-001 -1.168707e-001 -1.256617e+000 1.149305e-001 -6.135486e-001 3.150348e-001 4.436172e+001 -8.955977e-003 -3.448477e-001 -2.091378e-001 -2.379645e-001 -1.448329e-001 -1.038253e-001 -1.760702e-001 -1.890810e-001 -1.702788e-001 9.708098e-002 1.920549e-001 4.629080e-002 1.152851e+000 -1.979785e-002 -1.802266e-001 -1.085441e-001 6.503574e-003 7.278056e-002 -6.625924e-002 -9.353402e-002 -6.342863e-003 6.629972e-002 1.959365e-002 7.016610e-002 1.334705e-002 5.690464e-001
<VARIANCE> 39
 2.451841e+000 7.110319e+000 5.573975e+000 8.683345e+000 1.354179e+001 1.405504e+001 1.491321e+001 1.559090e+001 1.468859e+001 1.423239e+001 1.155654e+001 1.520812e+001 1.300058e+001 3.723757e-001 1.428221e+000 8.930180e-001 1.242255e+000 1.606365e+000 1.491516e+000 1.554632e+000 1.736801e+000 1.778253e+000 1.847712e+000 1.522387e+000 1.744994e+000 5.899969e+000 5.666539e-002 2.223687e-001 1.610789e-001 2.056216e-001 3.036161e-001 2.525027e-001 2.711239e-001 3.429052e-001 3.476607e-001 3.190674e-001 2.726569e-001 3.633287e-001 7.253708e-001
<GCONST> 8.991310e+001
<STATE> 3
<MEAN> 39
 -9.488178e+000 -1.561869e-001 3.231538e+000 -3.199583e+000 -5.552081e+000 -3.538949e+000 -8.169034e+000 -1.718449e+000 -4.979861e+000 -6.704964e-002 -5.692209e-001 -1.342458e+000 6.903648e+001 6.313713e-001 2.293347e-002 5.463526e-001 -3.087331e-001 -6.705635e-001 -2.617274e-001 -2.103368e-001 4.752604e-001 -2.121432e-001 -1.970194e-001 -2.542168e-001 -6.321009e-002 1.123354e+000 2.779599e-002 -5.465370e-003 -4.517017e-002 1.769196e-002 1.614782e-002 2.138188e-002 7.561298e-002 1.162975e-001 6.905378e-002 -4.488320e-002 -1.250418e-001 -3.904122e-002 -2.379627e-001
<VARIANCE> 39
 5.231023e+001 4.413047e+001 8.137425e+001 3.743744e+001 7.779713e+001 3.504029e+001 4.875762e+001 4.560064e+001 4.579704e+001 4.818216e+001 4.200037e+001 2.892934e+001 2.708530e+001 3.328407e+000 4.057579e+000 4.827505e+000 3.344299e+000 5.115062e+000 3.476320e+000 4.602746e+000 5.708732e+000 3.944905e+000 4.196777e+000 3.677642e+000 2.792523e+000 4.996364e+000 6.040032e-001 6.038062e-001 8.014036e-001 7.050968e-001 1.049722e+000 7.028542e-001 8.393943e-001 1.036491e+000 7.793674e-001 8.067456e-001 7.163461e-001 5.122519e-001 8.844190e-001
<GCONST> 1.358254e+002
<STATE> 4
<MEAN> 39
 -9.129148e+000 -8.628739e-001 -2.409462e+000 -7.274973e+000 -3.923268e+000 -6.337773e-001 -2.316715e+000 2.748292e+000 -3.110283e+000 3.239492e-001 -1.996998e+000 -2.222332e+000 6.539425e+001 -1.525642e-001 5.224101e-002 -1.274137e-001 9.484591e-002 1.709486e-001 8.310549e-002 6.758131e-002 -1.248922e-001 6.031006e-002 4.222809e-002 5.713977e-002 1.508640e-002 -4.580153e-001 -8.961629e-003 2.915738e-002 3.229750e-002 3.347584e-004 -1.428791e-002 -5.992715e-003 -1.089439e-002 -2.648524e-002 -1.931590e-002 8.877357e-003 2.523244e-002 5.235599e-003 -1.555953e-002
<VARIANCE> 39
 8.141489e+001 2.537473e+001 5.386668e+001 5.864890e+001 6.798409e+001 7.973583e+001 4.328087e+001 5.453268e+001 4.007229e+001 4.010451e+001 5.101865e+001 4.636678e+001 1.659340e+002 3.818673e+000 1.331795e+000 2.000955e+000 2.312945e+000 2.518973e+000 2.593115e+000 2.711489e+000 2.075020e+000 2.253384e+000 2.058448e+000 2.118700e+000 1.960252e+000 8.668111e-001 4.320754e-001 2.076916e-001 2.855244e-001 3.332978e-001 3.906859e-001 4.150031e-001 4.407887e-001 3.568627e-001 3.947873e-001 3.474405e-001 3.185032e-001 3.154934e-001 9.187207e-002
<GCONST> 1.184701e+002
<TRANSP> 5
 0.000000e+000 1.000000e+000 0.000000e+000 0.000000e+000 0.000000e+000
 0.000000e+000 9.004308e-001 9.956913e-002 0.000000e+000 0.000000e+000
 0.000000e+000 0.000000e+000 9.484001e-001 5.159995e-002 0.000000e+000
 0.000000e+000 0.000000e+000 0.000000e+000 9.864640e-001 1.353604e-002
 0.000000e+000 0.000000e+000 0.000000e+000 0.000000e+000 0.000000e+000
<ENDHMM>
~h "widaehan"
<BEGINHMM>
<NUMSTATES> 5
<STATE> 2
<MEAN> 39
 -1.725496e+001 1.035494e+000 -1.621758e+000 5.602195e-001 -1.518647e+000 -8.748764e-001 -5.096690e-001 -7.504012e-002 -1.238365e+000 8.249108e-002 -1.044228e+000 2.153633e-001 4.384419e+001 2.365471e-001 -2.410582e-002 1.543510e-001 2.700516e-001 -3.512084e-002 -1.296452e-001 -9.538342e-003 -8.987482e-002 -4.679047e-001 1.449719e-001 5.832860e-002 -1.079653e-001 2.667919e-001 1.513343e-001 6.251541e-002 1.769140e-001 1.511642e-001 -8.598153e-002 -6.152745e-002 -3.819808e-002 8.452421e-002 -1.343217e-001 -4.786160e-002 -2.172151e-003 -6.829053e-002 1.796654e-001
<VARIANCE> 39
 4.008040e+000 3.863353e+000 5.116343e+000 9.043328e+000 1.170001e+001 1.484144e+001 1.127242e+001 1.552452e+001 1.421433e+001 1.576169e+001 1.446086e+001 8.680670e+000 7.137702e+000 2.322916e-001 4.887429e-001 7.404016e-001 1.096406e+000 1.444679e+000 1.344929e+000 1.137940e+000 1.461981e+000 1.854223e+000 1.764375e+000 1.490701e+000 1.152351e+000 1.915037e-001 1.217949e-001 9.985569e-002 2.169764e-001 2.042705e-001 2.429650e-001 2.699838e-001 2.054247e-001 2.657382e-001 3.497004e-001 3.053381e-001 2.832312e-001 1.701863e-001 1.077269e-001
<GCONST> 7.899017e+001
<STATE> 3
<MEAN> 39
 -9.238887e+000 3.704272e+000 1.165821e+001 8.908402e-001 -1.099478e+001 -7.149939e+000 -5.312566e+000 -1.181033e+000 -1.113097e+001 -2.593793e+000 1.720798e+000 -2.297077e+000 6.506967e+001 3.684518e-001 -7.389535e-002 4.607207e-001 -3.361752e-001 -6.674711e-001 -4.497730e-001 -2.742598e-001 9.601127e-002 -2.238209e-001 -2.366673e-002 1.802094e-001 1.848018e-002 1.411900e+000 -4.294912e-002 -4.871662e-002 -7.744658e-002 -9.762520e-002 8.778116e-003 4.206278e-002 2.873917e-002 3.986824e-002 9.361421e-002 2.041218e-002 -2.958107e-002 1.297215e-002 -4.015392e-002
<VARIANCE> 39
 2.897380e+001 3.328541e+001 7.254163e+001 5.161137e+001 7.165775e+001 4.835447e+001 4.278916e+001 3.900090e+001 4.472130e+001 3.610850e+001 2.536295e+001 2.335321e+001 1.120588e+002 4.301938e+000 3.936951e+000 7.438528e+000 4.074907e+000 8.171700e+000 3.738149e+000 4.891608e+000 3.796935e+000 5.183426e+000 3.374981e+000 2.603542e+000 2.251047e+000 1.049153e+001 8.330480e-001 7.130789e-001 1.101888e+000 7.454394e-001 1.371962e+000 7.789776e-001 9.198135e-001 6.506176e-001 8.205922e-001 6.251155e-001 4.371039e-001 4.166992e-001 1.867239e+000
<GCONST> 1.374890e+002
<STATE> 4
<MEAN> 39
 -9.013415e+000 -1.843602e-001 1.719286e+000 -1.541147e+000 -3.465443e+000 -3.792825e+000 -3.623266e+000 2.753852e+000 -1.832487e+000 1.381965e-001 -6.256776e+000 -2.700179e+000 6.250013e+001 -1.973010e-001 3.519038e-002 -2.158838e-001 8.939934e-002 2.978309e-001 1.648645e-001 9.002788e-002 -4.678775e-002 1.578337e-001 1.288335e-002 -7.202944e-002 2.140893e-002 -6.047936e-001 -8.094857e-003 1.389677e-002 1.010856e-002 2.343762e-002 1.621282e-002 -5.745314e-003 -3.835060e-003 -2.518344e-002 -9.154993e-003 -7.006619e-003 2.865806e-003 6.035950e-003 -1.107979e-002
<VARIANCE> 39
 3.961622e+001 2.271964e+001 6.116483e+001 5.202409e+001 7.714017e+001 4.496397e+001 4.358786e+001 6.352227e+001 3.079567e+001 2.760822e+001 5.867965e+001 4.672767e+001 2.027524e+002 7.698935e-001 8.951644e-001 2.722341e+000 2.421669e+000 2.980219e+000 2.259213e+000 2.141125e+000 2.812448e+000 1.819551e+000 1.711560e+000 2.201421e+000 1.696692e+000 1.065871e+000 1.051356e-001 1.329926e-001 3.272095e-001 4.006261e-001 4.058222e-001 3.887918e-001 3.678654e-001 4.821083e-001 3.149886e-001 3.186667e-001 3.300302e-001 2.892000e-001 1.273262e-001
<GCONST> 1.137431e+002
<TRANSP> 5
 0.000000e+000 1.000000e+000 0.000000e+000 0.000000e+000 0.000000e+000
 0.000000e+000 8.833596e-001 1.166403e-001 0.000000e+000 0.000000e+000
 0.000000e+000 0.000000e+000 9.568474e-001 4.315265e-002 0.000000e+000
 0.000000e+000 0.000000e+000 0.000000e+000 9.821279e-001 1.787211e-002
 0.000000e+000 0.000000e+000 0.000000e+000 0.000000e+000 0.000000e+000
<ENDHMM>
~h "gyamalo"
<BEGINHMM>
<NUMSTATES> 5
<STATE> 2
<MEAN> 39
 -1.791189e+001 8.775951e-001 -1.629219e+000 9.783021e-002 -2.883471e-001 5.104398e-001 -6.989610e-001 1.288550e-002 -9.132187e-001 9.381364e-002 -6.374446e-001 9.415027e-001 4.426972e+001 1.401786e-002 -1.446725e-001 -2.202430e-001 -3.916251e-001 1.612792e-001 -9.159733e-002 -1.890611e-001 -1.770014e-001 -1.541939e-001 4.302958e-001 -6.995256e-002 9.594380e-002 5.516243e-001 3.053949e-002 -1.984672e-001 -2.496114e-001 -1.796696e-001 1.311922e-001 -1.373609e-001 -2.208220e-001 -7.203814e-002 -7.461683e-002 1.938762e-001 -1.299369e-001 -7.587565e-002 4.633275e-001
<VARIANCE> 39
 6.460857e+000 6.400600e+000 9.501759e+000 1.199238e+001 1.248387e+001 1.518006e+001 1.338146e+001 1.627798e+001 1.502670e+001 1.352730e+001 1.294392e+001 1.371558e+001 9.768333e+000 6.887883e-001 1.341756e+000 2.254737e+000 1.954125e+000 1.505850e+000 2.116814e+000 1.829130e+000 1.975983e+000 1.373732e+000 2.461361e+000 1.886204e+000 1.590709e+000 2.816779e+000 1.179830e-001 2.497069e-001 4.351433e-001 3.279313e-001 3.154131e-001 4.692223e-001 4.103407e-001 3.959424e-001 2.428538e-001 4.133284e-001 3.612577e-001 2.655641e-001 7.461491e-001
<GCONST> 9.660173e+001
<STATE> 3
<MEAN> 39
 -9.207297e+000 -4.305983e+000 -2.633354e-001 -6.707200e+000 -1.575801e+000 -6.088656e+000 -9.226184e+000 9.240110e-001 -4.829744e+000 4.284976e+000 -3.727101e+000 -1.820538e+000 6.910392e+001 6.681199e-001 -8.606268e-002 4.305820e-001 -1.564720e-001 -5.427864e-001 -2.055025e-001 -4.155688e-001 3.086731e-001 -2.275097e-001 -1.719254e-001 6.454346e-002 -2.793451e-001 1.317439e+000 -1.254413e-002 5.808541e-002 1.065944e-001 7.137045e-002 -1.134249e-001 4.553156e-002 1.025181e-001 5.070549e-002 6.857563e-002 -9.735824e-002 2.829418e-002 1.538980e-002 -1.541882e-001
<VARIANCE> 39
 4.467721e+001 3.344603e+001 1.322899e+002 5.666696e+001 8.964204e+001 4.718036e+001 4.816251e+001 6.433341e+001 5.227434e+001 5.627468e+001 5.074089e+001 3.576671e+001 8.733471e+001 1.607232e+000 3.672384e+000 1.215517e+001 5.683063e+000 7.667952e+000 4.569646e+000 4.920662e+000 5.135519e+000 5.978805e+000 4.898868e+000 4.298588e+000 2.601885e+000 7.704016e+000 3.357884e-001 6.260053e-001 1.937624e+000 1.157731e+000 1.089515e+000 8.242154e-001 8.483285e-001 9.110495e-001 1.094234e+000 9.183066e-001 7.786223e-001 5.448054e-001 1.301829e+000
<GCONST> 1.431818e+002
<STATE> 4
<MEAN> 39
 -4.135232e+000 -6.111557e-001 -2.542656e+000 -5.420786e+000 -5.730052e+000 7.083234e-001 -4.966822e+000 -9.761919e-001 -3.641734e+000 9.333300e-001 -1.080696e+000 -3.721832e+000 6.370369e+001 -1.882147e-001 5.431669e-002 -9.725694e-002 8.098470e-002 1.133458e-001 5.373000e-002 1.448689e-001 -7.493974e-002 6.508602e-002 -1.999115e-002 -1.227394e-002 6.397614e-002 -4.506514e-001 -1.881074e-003 7.825171e-003 2.440211e-004 6.934687e-003 1.168368e-002 -2.826373e-003 -7.095314e-005 -8.078513e-003 -1.048936e-002 3.268834e-003 3.890776e-003 -2.085799e-003 -1.565275e-002
<VARIANCE> 39
 5.693602e+001 2.758587e+001 3.336818e+001 9.361319e+001 4.431446e+001 9.066071e+001 6.848182e+001 7.020945e+001 5.286254e+001 4.497005e+001 6.514677e+001 4.792587e+001 1.565882e+002 7.524080e-001 1.065879e+000 2.087830e+000 4.597593e+000 2.817452e+000 3.875963e+000 2.769752e+000 3.458709e+000 3.039373e+000 2.384437e+000 2.772307e+000 2.011981e+000 1.014827e+000 9.248386e-002 1.587352e-001 3.317192e-001 6.139356e-001 4.954654e-001 5.169798e-001 4.348450e-001 5.179183e-001 4.959319e-001 4.234291e-001 3.917295e-001 3.421087e-001 1.102984e-001
<GCONST> 1.206984e+002
<TRANSP> 5
 0.000000e+000 1.000000e+000 0.000000e+000 0.000000e+000 0.000000e+000
 0.000000e+000 8.893109e-001 1.106891e-001 0.000000e+000 0.000000e+000
 0.000000e+000 0.000000e+000 9.510174e-001 4.898263e-002 0.000000e+000
 0.000000e+000 0.000000e+000 0.000000e+000 9.861783e-001 1.382165e-002
 0.000000e+000 0.000000e+000 0.000000e+000 0.000000e+000 0.000000e+000
<ENDHMM>
~h "uioero"
<BEGINHMM>
<NUMSTATES> 5
<STATE> 2
<MEAN> 39
 -1.756521e+001 4.821418e-001 -2.908985e+000 2.388590e-001 3.032518e-001 -6.160523e-001 -2.067318e+000 1.067016e+000 -5.405512e-001 7.121599e-001 -1.147063e+000 -9.915103e-001 4.506979e+001 1.040673e-001 1.613629e-001 2.171842e-002 -1.925969e-001 5.561686e-002 1.054579e-001 -2.615880e-001 -7.579706e-002 -4.053598e-001 2.845020e-001 2.282380e-001 -1.758066e-001 1.852047e-001 1.039927e-001 9.992367e-002 7.262902e-002 -8.363346e-002 3.976082e-002 8.312030e-002 -1.523111e-001 -1.744446e-004 -8.622143e-002 5.732160e-002 1.170127e-001 -1.086587e-001 2.270086e-001
<VARIANCE> 39
 5.934531e+000 6.589761e+000 1.162595e+001 9.300995e+000 1.241407e+001 1.535006e+001 2.301929e+001 1.365099e+001 2.006086e+001 1.954986e+001 1.335176e+001 1.370238e+001 1.091061e+001 4.057512e-001 9.062490e-001 1.090597e+000 1.204062e+000 1.294179e+000 1.585103e+000 2.784729e+000 1.514606e+000 2.153918e+000 2.114701e+000 1.423375e+000 1.469644e+000 3.892021e-001 1.709937e-001 2.035312e-001 2.082455e-001 2.200982e-001 2.175675e-001 3.371547e-001 4.630734e-001 2.844000e-001 3.668981e-001 3.327408e-001 2.440468e-001 2.477975e-001 1.211787e-001
<GCONST> 8.923848e+001
<STATE> 3
<MEAN> 39
 -7.947105e+000 3.696756e+000 1.734567e+000 -3.167397e+000 -3.892584e+000 -4.589704e-001 -1.249052e+001 -1.957176e+000 -7.570830e+000 2.830946e+000 3.540225e+000 -6.543308e+000 5.973452e+001 1.755376e+000 1.673431e-002 1.189116e+000 -3.020250e-001 -1.491719e+000 -4.358203e-001 -1.453057e+000 -4.434858e-001 -1.133553e+000 -3.287377e-001 6.806251e-001 -6.266168e-001 3.138389e+000 -1.745879e-001 -1.232302e-001 6.840999e-002 8.759018e-002 -2.127137e-001 -9.652871e-002 2.245080e-001 -7.034105e-004 3.139132e-002 -1.816859e-001 -8.324119e-002 1.285130e-001 -9.250405e-002
<VARIANCE> 39
 5.895948e+001 2.688553e+001 5.259626e+001 2.940476e+001 6.235282e+001 7.052470e+001 6.112003e+001 8.013157e+001 5.354172e+001 3.603877e+001 4.758431e+001 4.529454e+001 1.116463e+002 4.555092e+000 3.609122e+000 3.052274e+000 2.654979e+000 3.662030e+000 3.171856e+000 5.793993e+000 4.705791e+000 3.668956e+000 2.968507e+000 2.784563e+000 3.068227e+000 4.551775e+000 9.498164e-001 6.672869e-001 4.259450e-001 4.554285e-001 7.428246e-001 5.347175e-001 1.204901e+000 8.123273e-001 6.306680e-001 4.036728e-001 5.317557e-001 5.838662e-001 1.172619e+000
<GCONST> 1.345102e+002
<STATE> 4
<MEAN> 39
 -4.699467e+000 2.754571e-001 1.210524e+000 -5.233961e+000 -9.032714e+000 -2.398058e-001 -6.694796e+000 -9.210044e-002 -7.118381e+000 -2.809123e-001 2.641127e+000 -2.244053e+000 6.403183e+001 -1.965987e-001 -8.722391e-003 -1.263457e-001 5.652323e-002 1.442533e-001 6.477489e-002 2.293647e-001 3.600591e-002 1.529935e-001 -2.456632e-002 -9.202730e-002 1.082139e-001 -3.841925e-001 2.328420e-003 1.635250e-003 -1.541082e-002 -4.271209e-003 2.003087e-002 4.522434e-003 -4.084233e-003 4.862683e-003 1.137957e-002 7.359417e-003 -4.867679e-003 -5.164639e-003 -1.565403e-002
<VARIANCE> 39
 5.838291e+001 2.690897e+001 7.011171e+001 6.793794e+001 6.647159e+001 9.526128e+001 8.649568e+001 6.574576e+001 5.792017e+001 4.192847e+001 6.100132e+001 3.083729e+001 1.497597e+002 9.752676e-001 9.791676e-001 1.572348e+000 2.902224e+000 2.275100e+000 2.715949e+000 2.797808e+000 2.898740e+000 2.464393e+000 2.174624e+000 2.556237e+000 1.480168e+000 8.513489e-001 1.287979e-001 1.420562e-001 2.232897e-001 4.111442e-001 3.934102e-001 3.868210e-001 4.514093e-001 4.492736e-001 4.006777e-001 3.967614e-001 4.183986e-001 2.650990e-001 9.966942e-002
<GCONST> 1.172719e+002
<TRANSP> 5
 0.000000e+000 1.000000e+000 0.000000e+000 0.000000e+000 0.000000e+000
 0.000000e+000 8.885804e-001 1.114196e-001 0.000000e+000 0.000000e+000
 0.000000e+000 0.000000e+000 8.758306e-001 1.241694e-001 0.000000e+000
 0.000000e+000 0.000000e+000 0.000000e+000 9.863148e-001 1.368524e-002
 0.000000e+000 0.000000e+000 0.000000e+000 0.000000e+000 0.000000e+000
<ENDHMM>
~h "jayuwa"
<BEGINHMM>
<NUMSTATES> 5
<STATE> 2
<MEAN> 39
 -1.774353e+001 1.656656e+000 -1.068524e+000 -5.129536e-001 -7.771543e-001 -1.622052e+000 -2.176066e+000 -1.402257e+000 -1.768951e+000 6.019213e-001 -3.359687e-001 6.059139e-001 4.496091e+001 -2.906877e-001 -1.924419e-001 -1.562606e-002 -5.675465e-001 2.557834e-001 -6.842774e-002 1.159443e-001 -4.610111e-002 -2.254222e-001 1.985089e-001 -8.124597e-002 -1.579287e-001 9.364197e-001 -1.736462e-001 -2.581484e-002 -4.749611e-002 -2.028767e-001 5.869292e-002 -1.939690e-001 -2.184811e-002 5.123993e-002 -3.969344e-002 -2.697674e-002 3.495663e-002 5.184988e-002 4.882734e-001
<VARIANCE> 39
 5.889251e+000 8.146097e+000 9.369289e+000 1.430450e+001 2.061830e+001 2.323069e+001 2.135890e+001 1.832330e+001 1.795843e+001 1.847656e+001 9.289794e+000 1.715518e+001 1.005043e+001 1.009537e+000 1.148667e+000 1.308964e+000 2.424043e+000 2.493078e+000 2.448559e+000 1.852382e+000 2.160502e+000 1.973079e+000 2.170229e+000 9.827032e-001 1.979644e+000 3.555959e+000 2.330369e-001 1.993271e-001 1.837214e-001 3.896413e-001 5.430461e-001 4.186547e-001 3.442379e-001 4.070590e-001 3.823462e-001 4.352793e-001 1.877737e-001 3.528868e-001 6.686502e-001
<GCONST> 9.959516e+001
<STATE> 3
<MEAN> 39
 -1.608170e+001 -4.181863e+000 -3.546733e+000 -9.407281e+000 7.618198e-001 -3.801705e+000 -1.065842e+000 3.517112e+000 4.620693e-001 -1.300148e+000 -4.385226e+000 -1.089446e+000 7.173602e+001 1.040420e+000 -4.427494e-001 1.399498e-001 -3.653348e-001 -4.179844e-001 -1.126602e-001 -2.072157e-001 5.476295e-001 3.788534e-001 -2.684487e-001 -3.991998e-001 -2.999821e-001 1.692282e+000 1.029513e-001 9.067534e-002 2.051538e-001 1.519494e-001 -2.046336e-001 3.049365e-002 -9.565281e-002 -1.970031e-002 -3.780251e-002 2.415587e-002 7.523461e-002 7.023379e-002 -3.463886e-001
<VARIANCE> 39
 9.744515e+001 3.510448e+001 2.715500e+001 3.572490e+001 3.366626e+001 3.619639e+001 3.318691e+001 3.734956e+001 3.101400e+001 3.071029e+001 3.888409e+001 3.559557e+001 6.782570e+001 6.054742e+000 3.589233e+000 3.067852e+000 4.757250e+000 3.854440e+000 4.626140e+000 4.083549e+000 4.099863e+000 2.711642e+000 2.763531e+000 3.256608e+000 2.833946e+000 5.345531e+000 9.465764e-001 8.334206e-001 5.511919e-001 9.974284e-001 6.826351e-001 9.525858e-001 6.884347e-001 8.731756e-001 5.303239e-001 5.109870e-001 6.224937e-001 5.452818e-001 7.374561e-001
<GCONST> 1.321345e+002
<STATE> 4
<MEAN> 39
 -5.415393e+000 -3.762908e-001 -2.748351e+000 -9.213742e+000 -2.950085e+000 2.455375e+000 -5.853896e+000 -4.087324e-001 -4.445844e+000 5.762704e-001 -3.163746e-001 -4.569522e+000 6.487595e+001 -1.988629e-001 1.225984e-001 -3.327584e-002 1.648076e-001 7.697759e-002 7.974750e-002 5.931687e-002 -1.209911e-001 -5.799183e-002 2.394794e-002 8.150999e-002 6.614637e-002 -5.238599e-001 2.471110e-003 -1.340125e-002 -4.016135e-002 -1.815388e-003 3.443260e-002 1.067459e-002 1.742237e-002 -4.148285e-003 2.079529e-002 -9.857564e-003 -2.151569e-002 -1.578186e-002 4.342117e-003
<VARIANCE> 39
 4.992570e+001 3.448354e+001 8.483566e+001 8.863898e+001 9.646825e+001 7.131870e+001 6.061043e+001 4.290955e+001 5.730662e+001 4.061198e+001 5.269445e+001 6.436220e+001 1.574623e+002 5.833722e-001 1.302153e+000 2.552085e+000 2.355708e+000 2.656223e+000 2.243036e+000 2.145068e+000 2.156543e+000 2.580569e+000 2.077356e+000 2.082788e+000 2.204703e+000 8.696195e-001 6.370653e-002 1.678321e-001 2.608989e-001 3.040340e-001 3.449202e-001 3.454725e-001 3.511568e-001 3.932047e-001 4.155168e-001 3.692550e-001 3.269993e-001 3.267653e-001 6.206331e-002
<GCONST> 1.155230e+002
<TRANSP> 5
 0.000000e+000 1.000000e+000 0.000000e+000 0.000000e+000 0.000000e+000
 0.000000e+000 8.986961e-001 1.013039e-001 0.000000e+000 0.000000e+000
 0.000000e+000 0.000000e+000 9.354187e-001 6.458125e-002 0.000000e+000
 0.000000e+000 0.000000e+000 0.000000e+000 9.855375e-001 1.446250e-002
 0.000000e+000 0.000000e+000 0.000000e+000 0.000000e+000 0.000000e+000
<ENDHMM>
~h "gwaeoni"
<BEGINHMM>
<NUMSTATES> 5
<STATE> 2
<MEAN> 39
 -1.735786e+001 6.330955e-001 -1.805977e+000 -9.259411e-001 -1.559046e+000 -2.683955e-001 -8.705599e-001 -5.061908e-001 -1.616013e+000 3.107401e-001 6.170343e-001 6.146687e-001 4.461899e+001 7.206780e-002 -6.388701e-003 -2.579403e-002 -1.771246e-001 -1.276275e-001 -8.614534e-002 7.541849e-002 -2.991751e-002 -4.469143e-002 5.472752e-003 -3.347547e-002 7.637275e-002 1.758785e-001 1.300894e-001 1.417127e-002 -1.581617e-001 -2.832816e-001 -9.420723e-002 2.604960e-003 -5.765431e-002 9.562441e-002 -5.083524e-002 9.170718e-002 -1.306047e-001 -6.961138e-002 2.664275e-001
<VARIANCE> 39
 3.703506e+000 8.998091e+000 7.054540e+000 1.374035e+001 1.668711e+001 1.364976e+001 1.595805e+001 1.843227e+001 1.732953e+001 1.880460e+001 1.341778e+001 1.061791e+001 9.542522e+000 3.788247e-001 1.320676e+000 1.029618e+000 1.444188e+000 1.870689e+000 1.658197e+000 1.838032e+000 2.013036e+000 2.123200e+000 2.184371e+000 1.289638e+000 1.056927e+000 8.287497e-001 9.552971e-002 2.116223e-001 3.333096e-001 4.386249e-001 3.309950e-001 2.470297e-001 2.862074e-001 3.986196e-001 4.894321e-001 4.265341e-001 2.363173e-001 2.235908e-001 3.424789e-001
<GCONST> 9.159466e+001
<STATE> 3
<MEAN> 39
 -1.016157e+001 -2.052548e-001 -9.085851e+000 -1.452811e+001 -1.842558e+000 4.478831e+000 -1.240897e+000 1.462038e+000 -5.094326e+000 3.442551e+000 2.891912e-001 -4.116323e+000 6.284942e+001 1.204547e+000 -3.525146e-001 -3.966123e-001 -1.369786e+000 2.307175e-001 6.799288e-001 5.261058e-003 -1.755543e-001 -4.108830e-001 2.153272e-001 1.090800e-001 -7.196587e-001 2.212149e+000 -3.065660e-002 -5.710658e-002 7.808044e-002 8.653723e-002 7.300583e-002 -3.290492e-002 7.417379e-003 -5.547932e-002 7.867125e-002 -5.003257e-002 3.337324e-002 -7.122966e-004 -6.662852e-002
<VARIANCE> 39
 4.548230e+001 2.719068e+001 3.626496e+001 6.831311e+001 5.769670e+001 5.872654e+001 3.299649e+001 5.023372e+001 4.156308e+001 3.463849e+001 3.073407e+001 3.816272e+001 9.477418e+001 3.240271e+000 3.284719e+000 5.370185e+000 7.146411e+000 4.949744e+000 5.217187e+000 3.552819e+000 5.561369e+000 4.850750e+000 3.221286e+000 3.440233e+000 3.384026e+000 4.368470e+000 7.520777e-001 6.775788e-001 9.266611e-001 1.378930e+000 8.978359e-001 1.037356e+000 6.863144e-001 1.048217e+000 1.078364e+000 6.475067e-001 6.797623e-001 6.290518e-001 9.354296e-001
<GCONST> 1.378648e+002
<STATE> 4
<MEAN> 39
 -7.197041e+000 3.168577e+000 3.009459e+000 -1.081100e+001 -5.688987e+000 3.125981e+000 -3.564871e+000 -2.634133e+000 -6.014748e+000 1.985755e+000 -1.151680e+000 -4.724500e+000 6.421886e+001 -2.450373e-001 7.656221e-002 7.969695e-002 2.943045e-001 -2.430226e-002 -1.203625e-001 -7.058407e-004 1.568450e-002 7.297079e-002 -5.891646e-002 -1.658697e-002 1.305010e-001 -4.480415e-001 -9.658864e-003 9.908468e-003 -8.723340e-004 1.400803e-002 -5.119000e-003 1.227097e-002 3.882646e-003 -2.404889e-004 -5.375784e-003 1.858766e-003 4.724015e-003 4.942718e-003 -1.989214e-002
<VARIANCE> 39
 5.133785e+001 5.298315e+001 1.048918e+002 1.162816e+002 8.084422e+001 5.249081e+001 4.679386e+001 4.739352e+001 4.895916e+001 3.796261e+001 4.781697e+001 4.649766e+001 1.546236e+002 4.950413e-001 1.034594e+000 1.964958e+000 2.585155e+000 2.265236e+000 2.723782e+000 2.240688e+000 2.508373e+000 2.101723e+000 1.758066e+000 1.985301e+000 1.345870e+000 8.862738e-001 8.835169e-002 1.357018e-001 2.527946e-001 3.398322e-001 3.725976e-001 4.634512e-001 3.776128e-001 4.778699e-001 3.451111e-001 2.945797e-001 3.171636e-001 2.372770e-001 1.101575e-001
<GCONST> 1.145730e+002
<TRANSP> 5
 0.000000e+000 1.000000e+000 0.000000e+000 0.000000e+000 0.000000e+000
 0.000000e+000 8.780024e-001 1.219975e-001 0.000000e+000 0.000000e+000
 0.000000e+000 0.000000e+000 9.275420e-001 7.245795e-002 0.000000e+000
 0.000000e+000 0.000000e+000 0.000000e+000 9.864134e-001 1.358659e-002
 0.000000e+000 0.000000e+000 0.000000e+000 0.000000e+000 0.000000e+000
<ENDHMM>
~h "ijipteu"
<BEGINHMM>
<NUMSTATES> 5
<STATE> 2
<MEAN> 39
 -1.798864e+001 1.679804e+000 -7.637245e-001 -1.615874e-001 -7.867395e-001 -1.327498e-001 -9.150151e-001 2.798677e-001 -1.367145e+000 -1.590213e-001 -1.035389e+000 1.767706e-002 4.378093e+001 -2.311223e-001 1.184495e-001 5.800574e-001 -3.445589e-001 -9.867571e-002 1.513512e-002 -4.291630e-001 2.050060e-001 -2.616920e-001 1.782312e-001 2.050651e-001 -9.644131e-002 2.626887e-001 1.135044e-002 1.020416e-001 3.108287e-001 -7.659164e-002 -1.512886e-001 1.103799e-001 -1.419576e-001 -6.056285e-002 -2.021963e-001 -2.188425e-002 8.161265e-002 -1.044014e-001 2.339812e-001
<VARIANCE> 39
 3.951103e+000 3.696850e+000 7.105119e+000 9.212091e+000 1.086318e+001 1.178719e+001 1.473535e+001 1.550330e+001 1.341888e+001 1.179735e+001 1.137937e+001 1.081722e+001 8.080487e+000 3.472005e-001 3.501482e-001 1.165817e+000 8.910517e-001 1.352965e+000 1.418543e+000 1.744095e+000 2.042046e+000 1.541942e+000 1.383257e+000 1.456554e+000 1.251130e+000 2.518187e-001 1.314183e-001 9.305739e-002 2.639565e-001 1.254197e-001 3.094794e-001 2.631800e-001 3.900612e-001 3.829597e-001 2.456809e-001 2.432018e-001 2.698464e-001 2.383457e-001 1.475230e-001
<GCONST> 8.092581e+001
<STATE> 3
<MEAN> 39
 -1.563718e+001 7.273498e+000 1.194802e+001 -2.974864e+000 -6.775342e+000 -5.054255e+000 -6.490315e+000 -3.693694e+000 -8.573861e+000 -2.308111e+000 4.929941e-001 -1.317895e+000 6.499416e+001 2.931476e-001 1.096535e-001 1.392323e-001 1.240129e-001 -1.110219e-001 -2.598929e-001 -6.585460e-002 -8.947172e-002 -6.351915e-002 -5.095477e-002 1.043697e-002 1.082170e-002 3.233070e-001 -3.755008e-002 -3.515484e-002 -1.255028e-001 9.825668e-003 5.894259e-002 3.163468e-003 3.758606e-002 9.182338e-003 5.308991e-002 1.338559e-002 -2.218444e-002 1.858411e-002 -1.324422e-001
<VARIANCE> 39
 6.036839e+001 4.304222e+001 7.698993e+001 3.404003e+001 7.390118e+001 5.030551e+001 4.883545e+001 3.947669e+001 3.453370e+001 3.214039e+001 2.554637e+001 2.434747e+001 1.125998e+002 6.083798e+000 4.057546e+000 7.389449e+000 3.496688e+000 8.533010e+000 3.434998e+000 5.103492e+000 2.896915e+000 3.723201e+000 2.840772e+000 2.506714e+000 2.190538e+000 1.162497e+001 9.721469e-001 8.023651e-001 9.655793e-001 6.847862e-001 1.398231e+000 6.536958e-001 8.362078e-001 5.940777e-001 6.453322e-001 5.295004e-001 4.758682e-001 4.163693e-001 1.432445e+000
<GCONST> 1.366246e+002
<STATE> 4
<MEAN> 39
 -1.234105e+001 1.008394e+000 -3.711859e-002 -4.036113e-001 -3.221817e+000 -4.444911e+000 -4.327323e+000 5.151115e-001 -2.239320e+000 8.588432e-002 -6.087174e-001 -1.054887e+000 5.641352e+001 -1.550926e-001 -9.027435e-002 -1.822308e-001 -4.551086e-002 8.474122e-002 1.666085e-001 1.030114e-001 1.401831e-002 1.008720e-001 -5.846086e-003 -6.206974e-002 -1.607472e-003 -2.441495e-001 2.256948e-002 6.730498e-003 2.996132e-002 -2.468871e-003 -2.254818e-002 -1.542266e-002 7.927317e-003 -4.901900e-003 -1.347791e-002 -1.681905e-002 -9.472195e-003 -2.600334e-003 4.701286e-002
<VARIANCE> 39
 5.067092e+001 2.108608e+001 3.217441e+001 2.064597e+001 3.648630e+001 5.431546e+001 6.474600e+001 3.847759e+001 2.919478e+001 2.669721e+001 3.407107e+001 3.687518e+001 1.559700e+002 1.700458e+000 1.565593e+000 1.984936e+000 1.856630e+000 2.298998e+000 2.440889e+000 3.500826e+000 2.253565e+000 1.805361e+000 1.960823e+000 1.925891e+000 1.844341e+000 4.686300e+000 2.074809e-001 2.813972e-001 3.202415e-001 3.342691e-001 3.967223e-001 4.098873e-001 5.672365e-001 3.970484e-001 3.234225e-001 3.451721e-001 3.447450e-001 3.218489e-001 6.846231e-001
<GCONST> 1.164042e+002
<TRANSP> 5
 0.000000e+000 1.000000e+000 0.000000e+000 0.000000e+000 0.000000e+000
 0.000000e+000 8.789465e-001 1.210535e-001 0.000000e+000 0.000000e+000
 0.000000e+000 0.000000e+000 9.701257e-001 2.987431e-002 0.000000e+000
 0.000000e+000 0.000000e+000 0.000000e+000 9.809035e-001 1.909650e-002
 0.000000e+000 0.000000e+000 0.000000e+000 0.000000e+000 0.000000e+000
<ENDHMM>
~h "gege"
<BEGINHMM>
<NUMSTATES> 5
<STATE> 2
<MEAN> 39
 -1.779379e+001 5.955877e-001 -2.096603e+000 8.493786e-002 -5.916287e-001 -4.827152e-001 -7.192730e-001 -2.149163e-001 -6.822256e-001 2.945799e-001 -8.582494e-001 4.791700e-002 4.448256e+001 1.266310e-001 -2.940304e-001 -5.483903e-001 -4.249148e-001 4.821113e-001 -2.815824e-001 -4.666370e-001 -1.570884e-001 -1.887449e-001 3.658538e-001 -2.955009e-001 1.300561e-001 9.405966e-001 8.405712e-002 -2.164922e-001 -3.001053e-001 -2.295561e-001 1.489618e-001 -1.427008e-001 -2.250994e-001 3.417366e-002 -1.980945e-002 2.062168e-001 -9.990450e-002 -6.068192e-002 5.822045e-001
<VARIANCE> 39
 4.874366e+000 9.543386e+000 8.801761e+000 1.823529e+001 1.275641e+001 1.592759e+001 1.520589e+001 1.504821e+001 1.860152e+001 1.629796e+001 1.179253e+001 1.159281e+001 1.237113e+001 6.891925e-001 2.005331e+000 2.656641e+000 2.767314e+000 2.194396e+000 2.168446e+000 2.416588e+000 1.874570e+000 2.222461e+000 2.933690e+000 1.844899e+000 1.645974e+000 6.099771e+000 1.064656e-001 3.149016e-001 3.096225e-001 4.732917e-001 3.937233e-001 4.292497e-001 4.424493e-001 3.813273e-001 4.501504e-001 4.864640e-001 3.429216e-001 3.015612e-001 9.330851e-001
<GCONST> 1.019426e+002
<STATE> 3
<MEAN> 39
 -1.295127e+001 -5.087764e+000 -5.441587e+000 -3.183060e+000 2.338358e+000 -9.065120e+000 -1.108130e+001 8.583150e-001 -2.774940e+000 6.132050e+000 -3.654770e+000 -1.135373e+000 6.800118e+001 1.118448e+000 4.833315e-001 1.850247e+000 3.051357e-001 -1.514235e+000 -5.725637e-001 -1.049723e+000 3.796712e-001 -8.382035e-001 -4.949293e-001 4.172562e-001 -4.509810e-001 1.847466e+000 -6.692144e-004 2.431028e-001 5.219435e-001 1.049697e-001 -5.054502e-001 2.122989e-001 1.813541e-001 2.369759e-002 -1.704378e-001 -2.838211e-001 2.460225e-001 -4.901804e-002 -4.467818e-001
<VARIANCE> 39
 3.723727e+001 3.266040e+001 9.702108e+001 5.057096e+001 6.091413e+001 4.378069e+001 4.127026e+001 2.119981e+001 3.827733e+001 6.030243e+001 3.249270e+001 3.253432e+001 2.611891e+001 4.116695e+000 4.466250e+000 7.983496e+000 6.739850e+000 6.583738e+000 5.105276e+000 3.994881e+000 2.591086e+000 5.006579e+000 6.460106e+000 3.626631e+000 2.506268e+000 9.374165e+000 9.763542e-001 8.040981e-001 1.237060e+000 1.390961e+000 6.733899e-001 7.870492e-001 7.742226e-001 5.002639e-001 7.655226e-001 9.155961e-001 5.287824e-001 4.112653e-001 1.712332e+000
<GCONST> 1.379566e+002
<STATE> 4
<MEAN> 39
 -1.030669e+001 5.065769e-001 8.099825e+000 -3.659541e+000 -1.197005e+001 -5.748809e+000 -3.609765e+000 1.995182e+000 -7.852571e+000 4.578508e-001 1.489422e+000 -1.978983e+000 6.470896e+001 -1.866563e-001 -3.330027e-003 -1.713822e-001 1.458142e-002 1.502787e-001 1.414997e-001 2.166529e-001 -5.570237e-002 1.396060e-001 -1.690116e-002 -2.355055e-002 6.473678e-002 -4.321169e-001 -1.150176e-002 -2.836665e-003 -2.696316e-002 1.833704e-002 4.691802e-002 9.835656e-004 9.588448e-003 -3.233976e-003 3.360930e-002 8.116955e-003 -1.653017e-002 3.590101e-003 -2.737827e-002
<VARIANCE> 39
 2.840318e+001 2.433196e+001 6.264672e+001 3.680075e+001 7.471162e+001 5.229102e+001 6.983273e+001 5.825385e+001 5.792260e+001 5.086079e+001 4.199224e+001 3.541316e+001 1.794762e+002 1.230639e+000 1.759679e+000 1.844973e+000 1.625153e+000 2.725578e+000 1.982043e+000 2.442166e+000 2.258373e+000 2.616778e+000 2.060156e+000 1.746639e+000 1.526679e+000 3.091245e+000 2.287320e-001 3.154176e-001 2.939584e-001 2.888867e-001 4.362944e-001 3.666521e-001 4.201935e-001 3.538922e-001 4.871308e-001 3.873898e-001 2.995926e-001 2.740650e-001 4.157112e-001
<GCONST> 1.182032e+002
<TRANSP> 5
 0.000000e+000 1.000000e+000 0.000000e+000 0.000000e+000 0.000000e+000
 0.000000e+000 9.071079e-001 9.289202e-002 0.000000e+000 0.000000e+000
 0.000000e+000 0.000000e+000 9.002209e-001 9.977911e-002 0.000000e+000
 0.000000e+000 0.000000e+000 0.000000e+000 9.856554e-001 1.434460e-002
 0.000000e+000 0.000000e+000 0.000000e+000 0.000000e+000 0.000000e+000
<ENDHMM>
~h "dwaesseubnida"
<BEGINHMM>
<NUMSTATES> 5
<STATE> 2
<MEAN> 39
 -1.795950e+001 8.323352e-001 -1.551300e+000 -1.728151e-002 -4.779410e-001 2.403871e-001 -2.195431e-001 2.490041e-001 -9.360814e-001 8.491772e-001 9.193465e-002 9.040738e-001 4.418615e+001 -2.459391e-002 -1.095034e-001 -1.915698e-002 -2.022797e-001 1.161056e-001 2.106809e-002 -1.013423e-002 9.678043e-002 -1.149874e-001 -8.822602e-002 2.666103e-002 -8.807109e-002 2.240585e-001 -6.301647e-003 -8.233492e-002 1.211250e-002 -2.385258e-001 -4.677719e-002 -1.656723e-001 1.827189e-003 -4.272912e-003 -3.553524e-002 -2.175075e-002 1.674752e-002 8.389863e-002 4.024226e-001
<VARIANCE> 39
 2.927314e+000 4.159512e+000 5.890993e+000 9.658079e+000 1.077320e+001 1.106906e+001 1.686114e+001 1.343253e+001 1.359406e+001 1.486051e+001 1.229775e+001 8.774809e+000 7.213379e+000 2.678567e-001 6.233919e-001 6.426659e-001 1.519641e+000 1.289965e+000 1.110775e+000 1.411186e+000 1.340469e+000 1.408462e+000 1.611766e+000 1.212655e+000 8.883303e-001 9.237078e-001 5.474187e-002 1.367528e-001 1.475820e-001 3.253200e-001 2.192075e-001 2.199422e-001 2.675757e-001 2.617020e-001 2.736669e-001 3.239629e-001 2.407373e-001 2.293647e-001 6.799489e-001
<GCONST> 8.105859e+001
<STATE> 3
<MEAN> 39
 -1.722002e+001 -2.562505e+000 -7.627034e-001 -5.768332e+000 -1.472367e+000 -6.796371e+000 -7.986433e-001 1.724528e+000 -1.937818e+000 1.477350e+000 -4.110895e-001 2.959108e+000 6.122850e+001 1.011817e+000 -2.450547e-001 6.869677e-001 -4.379856e-002 -8.303573e-001 -1.285236e+000 -2.595044e-001 7.077524e-001 -3.191330e-001 2.255590e-001 -4.926922e-001 1.278831e-001 3.325719e+000 4.293119e-001 2.333681e-001 2.221214e-001 3.321217e-001 -2.528844e-001 6.005931e-002 -2.417428e-001 8.876862e-002 -7.064834e-002 1.503835e-002 -6.418706e-002 -2.594930e-001 -3.039772e-001
<VARIANCE> 39
 1.204944e+001 2.229548e+001 1.586540e+001 4.616415e+001 2.443367e+001 3.205439e+001 2.342165e+001 2.678726e+001 2.212391e+001 2.208606e+001 2.091837e+001 2.765159e+001 1.406449e+002 3.342255e+000 2.880949e+000 2.681595e+000 8.549077e+000 3.552484e+000 4.170862e+000 3.221314e+000 2.812209e+000 2.962057e+000 3.323146e+000 2.274774e+000 4.896659e+000 1.418295e+001 4.027862e-001 4.893404e-001 4.645859e-001 1.678829e+000 6.451128e-001 7.978885e-001 5.064357e-001 5.775132e-001 4.980528e-001 6.376395e-001 4.158779e-001 8.037596e-001 2.782924e+000
<GCONST> 1.271305e+002
<STATE> 4
<MEAN> 39
 -1.080049e+001 9.853559e-001 -6.008592e-001 -3.896368e+000 -2.634064e+000 -3.607347e+000 -3.238744e+000 3.741941e-001 -2.459348e+000 -2.231855e-001 -3.829603e+000 -2.883338e+000 6.434379e+001 -8.242363e-002 3.054084e-002 -7.343998e-002 2.823830e-002 7.574277e-002 1.149574e-001 1.300468e-002 -7.158662e-002 2.496677e-002 -4.189667e-002 3.387920e-002 -2.029500e-002 -3.170649e-001 -3.627931e-002 -1.099942e-002 -2.309487e-002 -4.656705e-003 2.795837e-002 7.445727e-003 1.874142e-002 -1.116671e-002 9.108396e-003 -1.835931e-003 8.592973e-003 1.188038e-002 -1.839080e-002
<VARIANCE> 39
 8.716330e+001 3.684718e+001 7.422207e+001 4.289110e+001 8.209850e+001 6.020298e+001 3.789719e+001 5.236827e+001 4.854041e+001 2.980511e+001 4.010992e+001 4.537103e+001 1.312670e+002 4.727802e+000 1.936424e+000 2.965842e+000 3.006167e+000 3.825382e+000 2.872840e+000 2.933878e+000 3.150290e+000 2.817086e+000 2.051285e+000 2.479547e+000 2.403191e+000 3.068001e+000 6.531927e-001 3.134315e-001 4.461486e-001 5.206468e-001 6.439531e-001 5.284531e-001 5.489475e-001 5.513852e-001 4.793608e-001 3.895057e-001 4.357446e-001 4.291429e-001 4.694702e-001
<GCONST> 1.278303e+002
<TRANSP> 5
 0.000000e+000 1.000000e+000 0.000000e+000 0.000000e+000 0.000000e+000
 0.000000e+000 8.921805e-001 1.078194e-001 0.000000e+000 0.000000e+000
 0.000000e+000 0.000000e+000 8.641254e-001 1.358746e-001 0.000000e+000
 0.000000e+000 0.000000e+000 0.000000e+000 9.882305e-001 1.176948e-002
 0.000000e+000 0.000000e+000 0.000000e+000 0.000000e+000 0.000000e+000
<ENDHMM>
~h "yadangui"
<BEGINHMM>
<NUMSTATES> 5
<STATE> 2
<MEAN> 39
 -1.851554e+001 1.854924e+000 -1.635106e-001 -1.996877e+000 -1.138666e+000 -8.265362e-001 -5.382943e-001 4.255511e-001 -3.578125e+000 4.056085e-001 -8.450834e-001 -4.326840e-001 4.458480e+001 -4.456671e-002 2.864798e-001 5.948115e-001 -4.139493e-001 -2.067679e-002 -4.622285e-002 -2.185131e-001 2.467025e-001 -4.493131e-001 2.164935e-001 -3.493023e-003 -5.936575e-002 4.864093e-001 1.941018e-001 1.482916e-001 2.312596e-001 -9.519687e-005 -7.701710e-002 -2.207384e-002 -8.097100e-002 8.156319e-002 -3.371058e-002 1.914155e-003 -3.189714e-002 1.979567e-002 2.612895e-001
<VARIANCE> 39
 5.981219e+000 5.489796e+000 1.148781e+001 1.805306e+001 2.333542e+001 1.190201e+001 1.593805e+001 2.064589e+001 1.830236e+001 1.521315e+001 1.389558e+001 1.579589e+001 1.333553e+001 5.670397e-001 8.101769e-001 1.313105e+000 2.076286e+000 1.675996e+000 1.416106e+000 1.846332e+000 2.121224e+000 1.450390e+000 1.210563e+000 1.445945e+000 1.597464e+000 5.847017e-001 1.899115e-001 1.268053e-001 1.799993e-001 3.074148e-001 2.660848e-001 3.592283e-001 3.762614e-001 3.924618e-001 2.872208e-001 1.938106e-001 2.745010e-001 3.049088e-001 2.251369e-001
<GCONST> 9.111412e+001
<STATE> 3
<MEAN> 39
 -5.895338e+000 -1.923900e+000 -4.497405e-001 -7.714194e+000 -4.282203e+000 -6.193367e+000 -5.316809e+000 4.683138e+000 -4.333397e-001 4.079422e-001 -7.157152e+000 -4.360567e+000 7.231596e+001 4.721763e-001 -2.779992e-001 -2.067110e-001 -1.350011e-001 -8.736175e-002 -1.310724e-001 -1.386303e-001 8.743947e-002 1.544775e-001 2.555079e-002 -2.418682e-001 -2.714410e-001 8.863079e-001 -4.624967e-002 -3.784410e-002 -4.941283e-002 -2.164378e-003 2.554956e-002 3.175062e-002 4.008449e-002 -4.183722e-002 -1.022684e-002 1.278951e-003 1.298894e-002 -3.592747e-003 -9.824607e-002
<VARIANCE> 39
 2.623968e+001 5.068746e+001 6.355534e+001 4.374120e+001 6.231914e+001 5.867186e+001 4.705435e+001 4.598071e+001 5.113638e+001 3.368288e+001 5.617926e+001 4.555990e+001 1.017041e+002 2.854726e+000 4.373449e+000 4.465028e+000 3.222678e+000 4.548661e+000 3.940108e+000 3.883819e+000 3.889593e+000 3.414493e+000 2.908845e+000 3.791728e+000 3.161489e+000 1.114546e+001 5.058909e-001 6.680663e-001 7.529491e-001 5.934246e-001 7.665393e-001 7.559319e-001 7.175438e-001 6.753160e-001 6.442888e-001 5.871267e-001 6.858964e-001 5.768769e-001 1.605916e+000
<GCONST> 1.360020e+002
<STATE> 4
<MEAN> 39
 -8.871350e+000 2.409489e+000 5.015067e+000 -4.709892e+000 -8.382146e+000 -1.676433e+000 -3.322665e+000 -2.162658e-001 -6.351801e+000 1.953641e+000 -1.280754e+000 -4.230369e+000 6.068736e+001 -2.672621e-001 1.138384e-001 8.259929e-003 1.677449e-001 6.569383e-002 1.022705e-001 1.115337e-001 -1.137397e-001 -1.710922e-003 -6.054486e-002 1.731254e-001 1.827617e-001 -6.194906e-001 -1.452713e-003 7.854775e-004 -1.299812e-002 6.309255e-003 8.545508e-003 -6.643266e-003 -8.666481e-003 1.395592e-002 1.441757e-002 -7.469316e-003 -2.581912e-003 9.314426e-003 8.129098e-003
<VARIANCE> 39
 3.753873e+001 2.330849e+001 7.815797e+001 3.743066e+001 5.749992e+001 6.260640e+001 5.082965e+001 5.652903e+001 5.091468e+001 3.772829e+001 5.100462e+001 4.433170e+001 1.584423e+002 3.213919e-001 9.480804e-001 2.074537e+000 1.352204e+000 2.272603e+000 1.972132e+000 2.242894e+000 2.363997e+000 2.192563e+000 1.822565e+000 1.856629e+000 1.499677e+000 6.639759e-001 4.562370e-002 1.308789e-001 2.271277e-001 2.263687e-001 3.474087e-001 2.914377e-001 3.646507e-001 3.649088e-001 3.675699e-001 3.221475e-001 3.116903e-001 2.598974e-001 4.861352e-002
<GCONST> 1.078787e+002
<TRANSP> 5
 0.000000e+000 1.000000e+000 0.000000e+000 0.000000e+000 0.000000e+000
 0.000000e+000 8.969196e-001 1.030804e-001 0.000000e+000 0.000000e+000
 0.000000e+000 0.000000e+000 9.687066e-001 3.129339e-002 0.000000e+000
 0.000000e+000 0.000000e+000 0.000000e+000 9.810582e-001 1.894184e-002
 0.000000e+000 0.000000e+000 0.000000e+000 0.000000e+000 0.000000e+000
<ENDHMM>
~h "yokeondae"
<BEGINHMM>
<NUMSTATES> 5
<STATE> 2
<MEAN> 39
 -1.804824e+001 1.510221e+000 -6.439499e-001 -1.190709e+000 -1.891069e+000 -8.472418e-001 -1.154473e+000 -3.915509e-001 -1.659165e+000 -4.993003e-001 -3.497825e-001 3.281610e-001 4.422407e+001 2.356729e-002 9.102885e-002 5.064721e-001 -5.122474e-002 -9.948540e-003 1.672122e-001 -1.111872e-001 9.307049e-002 -3.143162e-001 2.024977e-001 7.313122e-002 -4.657202e-002 2.550837e-001 9.432165e-002 6.411611e-002 2.705394e-001 -4.238057e-004 -1.103752e-001 -4.728472e-003 -3.198080e-002 -1.389167e-002 -7.421149e-002 1.458582e-002 -1.321284e-002 -5.271580e-002 2.289429e-001
<VARIANCE> 39
 4.666410e+000 5.018287e+000 1.251861e+001 1.422150e+001 1.423081e+001 1.760184e+001 1.561664e+001 1.300951e+001 1.382974e+001 1.416058e+001 1.366575e+001 1.373105e+001 8.713000e+000 3.559720e-001 4.605749e-001 1.533071e+000 1.404083e+000 1.509597e+000 1.523221e+000 1.601719e+000 1.484511e+000 1.354041e+000 1.852031e+000 1.515764e+000 1.588823e+000 3.274630e-001 1.150746e-001 1.156046e-001 3.701400e-001 3.186673e-001 3.623813e-001 3.059989e-001 4.131321e-001 3.250603e-001 2.276272e-001 3.208526e-001 2.637619e-001 3.204282e-001 1.730662e-001
<GCONST> 8.736005e+001
<STATE> 3
<MEAN> 39
 -6.309760e+000 2.788584e+000 7.209353e-001 -5.855123e+000 -5.565529e+000 -1.281261e+000 -7.015225e+000 -2.537725e+000 -6.786597e+000 1.657723e+000 -1.614439e+000 -2.752236e+000 6.453451e+001 2.489510e-001 -7.252409e-002 4.229504e-002 -8.422837e-002 -2.216903e-001 -2.518277e-001 -1.093661e-001 9.806307e-002 1.834162e-002 -3.098171e-004 8.803752e-003 -2.265640e-002 6.047232e-001 -3.480305e-003 -2.853201e-002 -3.416982e-002 -1.277032e-002 -1.807967e-002 -6.168507e-003 2.110512e-002 3.145189e-002 1.277998e-002 6.029787e-003 4.752800e-003 -7.448492e-003 -2.924084e-002
<VARIANCE> 39
 4.084909e+001 2.936348e+001 1.088440e+002 7.566149e+001 7.354622e+001 6.301271e+001 5.510228e+001 6.381482e+001 4.695902e+001 4.158378e+001 5.276353e+001 4.046706e+001 1.018318e+002 3.655569e+000 3.349008e+000 7.430227e+000 6.687673e+000 6.455752e+000 5.398384e+000 5.154893e+000 6.073032e+000 4.859188e+000 4.119493e+000 4.511557e+000 3.171495e+000 9.964065e+000 5.571720e-001 5.917346e-001 1.232759e+000 1.271887e+000 1.130755e+000 1.043196e+000 9.067660e-001 1.139291e+000 9.515812e-001 7.774785e-001 8.774596e-001 5.810689e-001 1.389486e+000
<GCONST> 1.445100e+002
<STATE> 4
<MEAN> 39
 -1.065041e+001 -8.776088e-001 1.495657e+000 -2.488035e+000 -7.431180e+000 -5.277258e+000 2.554151e-001 5.171539e+000 -3.067339e+000 -6.027220e-001 -1.600901e+000 -9.486249e-001 5.891111e+001 -3.170643e-001 5.470715e-002 -1.868142e-001 1.362491e-001 3.128385e-001 3.075792e-001 1.508061e-001 -1.262357e-001 3.635478e-002 -3.009571e-002 -1.819776e-002 7.736394e-002 -8.356628e-001 -1.716359e-002 2.362192e-002 -1.820469e-002 1.464897e-003 2.858560e-002 -6.212634e-003 -2.336315e-003 -2.423299e-002 -8.974659e-003 -1.163015e-002 6.870293e-003 2.798322e-002 -1.686746e-002
<VARIANCE> 39
 2.974239e+001 1.696544e+001 3.812291e+001 3.031997e+001 5.839143e+001 6.271983e+001 4.585798e+001 4.804017e+001 3.774394e+001 3.661004e+001 4.188198e+001 3.580450e+001 1.842688e+002 3.272894e-001 8.118779e-001 1.305248e+000 1.497031e+000 1.494469e+000 1.870438e+000 2.600722e+000 2.012837e+000 1.922759e+000 1.923030e+000 1.382516e+000 1.442012e+000 9.173848e-001 5.263703e-002 1.335965e-001 1.997014e-001 2.458367e-001 2.648003e-001 3.243412e-001 4.236889e-001 3.396581e-001 3.616275e-001 3.577949e-001 2.371356e-001 2.694665e-001 6.939582e-002
<GCONST> 1.047288e+002
<TRANSP> 5
 0.000000e+000 1.000000e+000 0.000000e+000 0.000000e+000 0.000000e+000
 0.000000e+000 8.858551e-001 1.141448e-001 0.000000e+000 0.000000e+000
 0.000000e+000 0.000000e+000 9.798126e-001 2.018741e-002 0.000000e+000
 0.000000e+000 0.000000e+000 0.000000e+000 9.740955e-001 2.590447e-002
 0.000000e+000 0.000000e+000 0.000000e+000 0.000000e+000 0.000000e+000
<ENDHMM>
~h "chungwadae"
<BEGINHMM>
<NUMSTATES> 5
<STATE> 2
<MEAN> 39
 -1.845846e+001 1.221989e+000 -1.329559e+000 -1.689456e+000 9.962139e-002 -8.383784e-001 -5.835748e-001 5.249298e-001 -1.304618e+000 5.417467e-001 3.389272e-001 1.442371e+000 4.533068e+001 -3.295582e-001 -1.593508e-001 5.369408e-002 -6.511631e-001 9.999923e-002 -2.764160e-001 -1.839949e-001 1.186102e-001 -1.825971e-001 1.758656e-001 9.253479e-002 -1.066322e-001 1.108491e+000 -1.745776e-001 -7.793468e-002 -5.268820e-002 -2.266083e-001 4.523310e-002 -2.196502e-002 -1.037641e-001 4.623085e-002 2.497194e-002 1.302112e-002 1.696920e-002 -1.277897e-002 5.057844e-001
<VARIANCE> 39
 9.384973e+000 1.416872e+001 1.088826e+001 2.184726e+001 2.175400e+001 2.209465e+001 2.606721e+001 2.066987e+001 1.809294e+001 1.822729e+001 1.410853e+001 1.586569e+001 3.317609e+001 1.263698e+000 2.029213e+000 1.504490e+000 3.266974e+000 2.234629e+000 2.119097e+000 3.241519e+000 1.981496e+000 1.970254e+000 1.931157e+000 1.147658e+000 1.439054e+000 5.629956e+000 2.743635e-001 3.332626e-001 3.001789e-001 4.733387e-001 4.042097e-001 3.790717e-001 5.537944e-001 3.988214e-001 3.873073e-001 3.468015e-001 2.117537e-001 2.796627e-001 7.069362e-001
<GCONST> 1.058195e+002
<STATE> 3
<MEAN> 39
 -7.705207e+000 -1.588212e+000 -3.463559e+000 -1.078806e+001 -4.016141e+000 5.537031e-001 -5.146267e+000 2.350129e-001 -2.010377e+000 -4.058590e-002 -4.242198e+000 -3.598827e+000 7.169942e+001 3.971875e-001 -2.591365e-002 1.556651e-001 1.616468e-002 -3.225014e-001 -2.208981e-001 -1.128150e-001 7.226414e-002 -3.446762e-002 -6.923891e-003 -1.129961e-001 -6.634523e-002 5.375920e-001 7.266022e-002 -1.144847e-002 3.223746e-002 5.093667e-002 -6.274287e-002 6.788582e-003 2.689675e-002 3.012312e-002 -1.201904e-002 -4.715069e-003 4.065988e-003 -1.614792e-002 -1.065595e-001
<VARIANCE> 39
 9.895949e+001 3.704887e+001 3.546398e+001 5.225174e+001 7.756896e+001 7.855871e+001 3.917643e+001 4.238501e+001 4.706981e+001 3.533574e+001 5.016415e+001 5.532753e+001 5.928870e+001 4.850920e+000 3.682022e+000 3.003865e+000 3.950620e+000 5.785578e+000 5.509223e+000 3.903660e+000 4.616982e+000 4.061069e+000 3.215277e+000 4.162107e+000 3.708865e+000 8.307906e+000 7.315964e-001 6.672911e-001 4.997880e-001 6.969564e-001 9.140464e-001 9.623525e-001 7.702682e-001 8.524376e-001 7.951087e-001 6.088677e-001 7.608224e-001 6.955127e-001 1.392772e+000
<GCONST> 1.387481e+002
<STATE> 4
<MEAN> 39
 -1.032716e+001 -1.237701e+000 1.009622e+000 -3.331739e+000 -6.432232e+000 -5.712212e+000 -1.076782e+000 4.958997e+000 -2.454406e+000 -4.623575e-001 -2.502784e+000 -1.132075e+000 6.144948e+001 -2.884474e-001 5.692328e-002 -1.452840e-001 1.729104e-001 2.566885e-001 2.431291e-001 1.582511e-001 -1.048229e-001 7.014512e-002 -9.088260e-003 9.025657e-002 7.425004e-002 -7.902060e-001 -2.595065e-002 3.020212e-002 -2.339539e-002 1.347336e-002 5.196174e-002 8.428056e-003 2.758482e-003 -4.647785e-002 1.534457e-002 -3.480214e-003 3.032321e-003 1.775668e-002 -3.433589e-002
<VARIANCE> 39
 3.453138e+001 1.483676e+001 4.227843e+001 3.569867e+001 6.476579e+001 6.152966e+001 5.137372e+001 5.145129e+001 3.449874e+001 3.474268e+001 4.131314e+001 3.693531e+001 2.072988e+002 4.243017e-001 9.741816e-001 1.268658e+000 1.596650e+000 2.173443e+000 1.963955e+000 2.613330e+000 2.179251e+000 1.601258e+000 1.461126e+000 1.757235e+000 1.401574e+000 1.168136e+000 7.210781e-002 1.648771e-001 2.076255e-001 2.795240e-001 3.801981e-001 3.516097e-001 4.366004e-001 3.676260e-001 2.998318e-001 2.529676e-001 3.108505e-001 2.436872e-001 1.320720e-001
<GCONST> 1.077747e+002
<TRANSP> 5
 0.000000e+000 1.000000e+000 0.000000e+000 0.000000e+000 0.000000e+000
 0.000000e+000 9.070474e-001 9.295262e-002 0.000000e+000 0.000000e+000
 0.000000e+000 0.000000e+000 9.738386e-001 2.616145e-002 0.000000e+000
 0.000000e+000 0.000000e+000 0.000000e+000 9.762005e-001 2.379952e-002
 0.000000e+000 0.000000e+000 0.000000e+000 0.000000e+000 0.000000e+000
<ENDHMM>
~h "computer"
<BEGINHMM>
<NUMSTATES> 5
<STATE> 2
<MEAN> 39
 -1.806277e+001 8.197523e-001 -1.713287e+000 3.653008e-001 -1.028819e-001 1.332377e-001 -1.380704e-001 -7.272675e-001 -8.067905e-001 5.075446e-001 -5.585682e-001 1.064206e-001 4.423370e+001 -2.563797e-003 1.551058e-002 -3.190738e-002 -5.578713e-002 3.102754e-002 9.083480e-002 -1.040608e-001 -2.391138e-001 5.841732e-002 1.956761e-001 1.026517e-001 1.004851e-001 7.713897e-002 2.923517e-002 -2.142659e-003 -1.833790e-001 -1.901467e-001 1.213741e-001 -6.067661e-002 -1.186759e-001 -2.158497e-002 -1.057254e-001 9.500492e-002 -3.694453e-002 -5.244085e-002 2.803806e-001
<VARIANCE> 39
 3.478191e+000 5.709608e+000 6.721028e+000 7.282104e+000 1.359455e+001 1.588222e+001 1.240602e+001 1.284089e+001 1.618597e+001 1.627096e+001 1.365839e+001 1.057133e+001 8.418674e+000 2.138571e-001 4.876577e-001 5.388262e-001 6.578028e-001 1.339581e+000 1.413240e+000 1.436837e+000 1.297825e+000 1.820556e+000 1.525524e+000 1.795767e+000 1.519758e+000 3.273642e-001 7.913281e-002 1.229082e-001 2.889843e-001 2.610425e-001 3.267248e-001 2.774063e-001 2.862985e-001 2.653265e-001 3.548771e-001 3.274411e-001 3.274046e-001 2.579496e-001 4.046521e-001
<GCONST> 8.282652e+001
<STATE> 3
<MEAN> 39
