~o
<STREAMINFO> 1 39
<VECSIZE> 39<NULLD><MFCC_D_A_0><DIAGC>
~h "dangnyobyung"
<BEGINHMM>
<NUMSTATES> 5
<STATE> 2
<MEAN> 39
 -1.798718e+001 1.067726e+000 -1.724302e+000 4.191405e-002 -8.398815e-001 -4.653044e-001 -4.837138e-001 -3.895348e-001 -1.347087e+000 2.909243e-001 -3.463705e-001 4.906543e-001 4.369445e+001 -7.023199e-002 -2.624333e-001 -1.641503e-001 -2.344997e-001 -1.913533e-002 -1.151370e-001 2.570115e-001 1.796136e-001 -6.001490e-002 -1.315917e-001 -1.308391e-001 -6.997608e-002 8.028425e-001 -2.436512e-002 -1.163784e-001 -9.828681e-002 -1.462654e-001 5.205681e-002 -1.310050e-001 -3.396032e-002 2.360863e-003 1.491859e-001 1.115656e-001 4.275522e-002 8.642241e-002 5.204013e-001
<VARIANCE> 39
 3.172179e+000 4.326622e+000 6.475149e+000 9.540747e+000 9.848330e+000 1.543472e+001 1.127324e+001 1.392706e+001 1.459604e+001 1.663990e+001 1.207508e+001 1.232249e+001 8.241484e+000 6.804034e-001 7.402952e-001 1.045453e+000 1.411978e+000 1.013856e+000 1.847817e+000 1.221200e+000 1.705914e+000 2.102755e+000 2.315457e+000 1.719557e+000 1.559721e+000 3.824448e+000 1.115234e-001 1.322472e-001 2.064593e-001 2.224906e-001 1.740291e-001 3.463888e-001 2.272178e-001 3.140999e-001 3.870935e-001 4.248509e-001 3.139791e-001 2.824710e-001 8.054730e-001
<GCONST> 8.889088e+001
<STATE> 3
<MEAN> 39
 -1.532930e+001 -5.030336e+000 -6.325080e+000 -4.674973e+000 2.855389e+000 -2.549536e+000 1.516767e+000 1.579735e+000 1.047628e+000 1.168708e+000 -3.442773e+000 -7.778398e-001 6.579912e+001 1.486869e+000 -2.224820e-001 -2.904413e-001 -4.692985e-001 5.604823e-001 2.399103e-002 -3.430913e-001 1.292409e-001 -1.650804e-001 1.729970e-001 -5.641399e-001 -8.434231e-001 2.158729e+000 2.528644e-001 2.384613e-001 2.720852e-001 4.006338e-002 -2.085480e-001 8.494921e-002 -2.118682e-001 -1.209507e-001 -2.359239e-001 6.569416e-002 -1.922244e-002 -1.285858e-001 -5.050906e-001
<VARIANCE> 39
 4.402277e+001 2.356399e+001 1.818179e+001 3.418550e+001 3.682890e+001 4.471477e+001 2.705820e+001 3.195221e+001 3.536419e+001 1.958833e+001 3.476903e+001 4.178355e+001 8.348331e+001 3.335175e+000 3.491505e+000 2.860528e+000 4.161762e+000 4.002656e+000 5.204643e+000 3.791466e+000 4.035124e+000 4.291443e+000 2.828552e+000 4.952697e+000 4.388248e+000 1.062125e+001 6.097103e-001 6.083682e-001 5.792199e-001 9.107151e-001 1.006754e+000 1.025929e+000 5.497072e-001 8.600706e-001 7.800446e-001 6.439023e-001 9.821639e-001 8.451437e-001 1.560573e+000
<GCONST> 1.333255e+002
<STATE> 4
<MEAN> 39
 -7.181160e+000 4.213090e-001 6.285030e-001 -3.659151e+000 -5.318312e+000 -7.533392e-001 -4.413685e+000 -9.682503e-001 -4.126687e+000 -3.245387e-003 -2.659003e+000 -2.394387e+000 6.067949e+001 -1.684499e-001 5.277554e-002 3.892656e-002 8.541548e-002 -6.947054e-002 2.184131e-002 1.872864e-002 -2.886465e-002 1.399083e-002 -1.488974e-002 8.394882e-002 8.869994e-002 -3.522143e-001 -2.590130e-002 -1.414806e-002 -1.861401e-002 1.539451e-002 2.248332e-002 3.880297e-003 1.809324e-002 7.209094e-003 2.158786e-002 -8.274329e-003 3.059791e-003 7.049347e-003 -7.065447e-003
<VARIANCE> 39
 5.101817e+001 2.457346e+001 4.799485e+001 4.254247e+001 5.589262e+001 5.958385e+001 5.019826e+001 4.684127e+001 3.721668e+001 4.070441e+001 5.062767e+001 4.454121e+001 1.584416e+002 1.824933e+000 1.705780e+000 3.443135e+000 2.800627e+000 4.079814e+000 3.446790e+000 3.031852e+000 3.508452e+000 3.076852e+000 3.008606e+000 3.237660e+000 2.628937e+000 4.563773e+000 2.685242e-001 2.902000e-001 5.279230e-001 4.957704e-001 6.429184e-001 5.868792e-001 5.375062e-001 6.179253e-001 5.779052e-001 5.735864e-001 6.304389e-001 4.862742e-001 4.780394e-001
<GCONST> 1.277163e+002
<TRANSP> 5
 0.000000e+000 1.000000e+000 0.000000e+000 0.000000e+000 0.000000e+000
 0.000000e+000 8.990371e-001 1.009629e-001 0.000000e+000 0.000000e+000
 0.000000e+000 0.000000e+000 8.966420e-001 1.033580e-001 0.000000e+000
 0.000000e+000 0.000000e+000 0.000000e+000 9.876269e-001 1.237314e-002
 0.000000e+000 0.000000e+000 0.000000e+000 0.000000e+000 0.000000e+000
<ENDHMM>
~h "nuwoseo"
<BEGINHMM>
<NUMSTATES> 5
<STATE> 2
<MEAN> 39
 -1.758667e+001 1.787956e+000 -1.883839e-001 9.410547e-001 -1.553776e+000 -5.130834e-001 -1.607458e+000 -1.859288e+000 -2.160601e+000 2.764591e-001 -1.252464e+000 -7.084641e-001 4.443039e+001 2.042976e-001 3.474941e-001 5.516887e-001 3.941130e-001 -6.585582e-004 1.491806e-001 -6.353211e-003 -1.860174e-001 -1.692546e-002 -7.018258e-002 -2.042231e-001 -3.303668e-001 2.268555e-001 1.843233e-001 1.044574e-001 1.734606e-001 -3.940051e-002 5.209884e-003 3.685104e-002 -4.520636e-002 2.712953e-002 1.413376e-002 -3.414550e-002 5.275213e-003 -6.458015e-003 2.087531e-001
<VARIANCE> 39
 5.429955e+000 8.205599e+000 7.939375e+000 9.885962e+000 1.529774e+001 1.216333e+001 1.563624e+001 1.588615e+001 1.325801e+001 1.439392e+001 1.848070e+001 1.305735e+001 8.624849e+000 1.167067e+000 1.585553e+000 9.774569e-001 1.393157e+000 1.446593e+000 1.398516e+000 1.711696e+000 1.689115e+000 1.731573e+000 1.621021e+000 1.923936e+000 1.509810e+000 3.465196e-001 2.122402e-001 2.450858e-001 1.652721e-001 2.880194e-001 2.572802e-001 2.495649e-001 3.923834e-001 2.682321e-001 3.183888e-001 3.334088e-001 3.895721e-001 2.692406e-001 1.668774e-001
<GCONST> 8.991301e+001
<STATE> 3
<MEAN> 39
 -9.247776e+000 5.198778e+000 5.371898e+000 -2.104049e+000 -1.874947e+000 -1.627622e+000 -6.718451e+000 -5.651213e+000 -4.831586e+000 -3.265706e-001 -7.890972e-001 -3.521810e+000 6.026506e+001 1.311054e+000 2.369656e-001 -3.159034e-001 -1.218077e+000 -2.805034e-001 1.557850e-001 -8.723968e-001 -9.234387e-001 -1.085925e+000 -2.380176e-001 8.430492e-001 -1.025392e-001 2.343585e+000 1.046644e-003 -6.579752e-003 -2.772569e-001 -1.565238e-001 -1.843119e-001 1.622365e-001 1.953026e-001 4.626808e-002 -1.492273e-001 -1.637371e-001 2.975921e-002 1.027010e-001 -2.120815e-001
<VARIANCE> 39
 5.218855e+001 3.986113e+001 2.738629e+001 5.045441e+001 3.793365e+001 5.184175e+001 5.612602e+001 5.216919e+001 4.384234e+001 2.748361e+001 4.080214e+001 2.880208e+001 1.124958e+002 4.947643e+000 4.089479e+000 4.274756e+000 4.748136e+000 5.501784e+000 6.491605e+000 6.706335e+000 4.991091e+000 3.805155e+000 4.110207e+000 4.886617e+000 2.982136e+000 7.225350e+000 9.896959e-001 8.359575e-001 6.924673e-001 1.007307e+000 1.157505e+000 1.214889e+000 1.370463e+000 1.190017e+000 6.995319e-001 8.571631e-001 9.940711e-001 5.535609e-001 1.434808e+000
<GCONST> 1.410442e+002
<STATE> 4
<MEAN> 39
 -7.469638e+000 2.237025e+000 -4.175635e+000 -1.146726e+001 -2.921410e+000 4.611333e+000 -3.752347e+000 -2.043932e+000 -4.260964e+000 2.206765e-001 1.385575e+000 -2.889881e+000 6.424081e+001 -2.159494e-001 -7.868180e-002 -2.751343e-002 1.373768e-001 4.781542e-002 -3.120494e-002 1.295734e-001 1.469762e-001 1.657409e-001 3.458991e-002 -8.420354e-002 5.655917e-002 -3.618882e-001 -1.705089e-002 -1.044624e-002 1.435390e-002 2.354119e-002 2.443321e-002 -2.352047e-002 -1.478632e-002 -4.758046e-003 2.325000e-002 2.789760e-002 -1.821180e-003 -1.041039e-002 3.276239e-003
<VARIANCE> 39
 9.927115e+001 2.712765e+001 2.249915e+001 8.740900e+001 6.215611e+001 6.619518e+001 6.025056e+001 3.945169e+001 5.234827e+001 5.210491e+001 5.899303e+001 4.076316e+001 1.453648e+002 4.178055e+000 1.294985e+000 1.335254e+000 3.110337e+000 2.591052e+000 3.191275e+000 3.320902e+000 2.303796e+000 2.264995e+000 2.575029e+000 2.678397e+000 2.041676e+000 9.790005e-001 4.863043e-001 2.147334e-001 2.264352e-001 3.811628e-001 3.572963e-001 4.480020e-001 5.560384e-001 3.998858e-001 3.800008e-001 3.984480e-001 4.652714e-001 3.398992e-001 9.509440e-002
<GCONST> 1.205022e+002
<TRANSP> 5
 0.000000e+000 1.000000e+000 0.000000e+000 0.000000e+000 0.000000e+000
 0.000000e+000 8.882563e-001 1.117437e-001 0.000000e+000 0.000000e+000
 0.000000e+000 0.000000e+000 9.016032e-001 9.839675e-002 0.000000e+000
 0.000000e+000 0.000000e+000 0.000000e+000 9.864200e-001 1.357994e-002
 0.000000e+000 0.000000e+000 0.000000e+000 0.000000e+000 0.000000e+000
<ENDHMM>
~h "teukyereul"
<BEGINHMM>
<NUMSTATES> 5
<STATE> 2
<MEAN> 39
 -1.828467e+001 7.391641e-001 -1.548361e+000 8.518165e-001 -8.682527e-002 6.186017e-001 -1.438059e-001 -3.946180e-001 -1.341425e+000 -4.840518e-001 -1.374250e-001 3.673819e-001 4.364516e+001 6.715578e-002 -1.974492e-003 -9.851471e-002 -3.058589e-001 -1.035371e-001 -2.150206e-001 -2.722781e-002 -4.462350e-002 -5.600757e-002 -1.952798e-001 -2.539283e-002 1.253922e-001 6.098953e-001 -1.134330e-002 -1.381382e-001 -6.927215e-002 -1.304128e-001 -1.185699e-002 -1.497148e-001 1.248453e-002 2.244512e-002 2.579696e-002 6.899808e-002 2.659084e-002 4.623478e-002 5.623921e-001
<VARIANCE> 39
 2.698847e+000 5.890440e+000 6.432071e+000 8.176369e+000 1.015515e+001 1.040626e+001 1.073235e+001 1.378756e+001 1.257623e+001 1.270799e+001 1.343195e+001 1.023144e+001 9.820922e+000 2.847028e-001 9.518813e-001 8.340862e-001 1.522883e+000 1.336175e+000 9.823080e-001 1.464128e+000 1.700195e+000 1.300140e+000 1.444872e+000 1.505538e+000 1.454593e+000 4.170127e+000 4.155503e-002 1.118544e-001 1.314977e-001 2.462840e-001 2.382893e-001 2.302527e-001 3.001364e-001 3.366812e-001 2.293359e-001 2.847567e-001 2.844421e-001 2.757877e-001 8.517222e-001
<GCONST> 8.387398e+001
<STATE> 3
<MEAN> 39
 -1.729844e+001 -6.352090e-001 1.655863e+000 -2.400558e+000 -3.647387e+000 -5.919279e+000 -1.653025e+000 -9.840461e-001 -2.903156e+000 2.668516e+000 -5.918080e-001 1.361884e+000 6.159589e+001 1.845608e-001 -4.460043e-002 4.870479e-001 -1.281681e-001 -3.869978e-001 -2.195745e-001 -2.610867e-002 2.103430e-002 -1.676553e-001 1.588787e-001 -1.222705e-002 -8.680185e-002 9.017459e-001 1.129178e-001 3.563543e-002 4.973383e-002 5.677382e-002 -6.853326e-002 -9.364993e-003 -3.920986e-002 3.932719e-002 -4.103444e-002 -1.330551e-002 1.615135e-002 -8.009200e-002 -1.588284e-001
<VARIANCE> 39
 3.555133e+001 2.824604e+001 3.212832e+001 3.604906e+001 3.578623e+001 4.808854e+001 4.276902e+001 3.941513e+001 3.656399e+001 2.976083e+001 2.135314e+001 2.464163e+001 1.728745e+002 4.146173e+000 3.412534e+000 3.371989e+000 4.127561e+000 3.361024e+000 4.858076e+000 4.146569e+000 4.081733e+000 3.929956e+000 3.882528e+000 2.668145e+000 3.139917e+000 2.045839e+001 6.927040e-001 6.740260e-001 6.832218e-001 8.283551e-001 6.742319e-001 7.862488e-001 8.162658e-001 7.772736e-001 7.896227e-001 7.977046e-001 5.404569e-001 6.298630e-001 3.173325e+000
<GCONST> 1.349028e+002
<STATE> 4
<MEAN> 39
 -7.680042e+000 -2.519760e+000 4.405087e+000 -6.087613e-001 -9.706202e+000 -6.352090e+000 -5.230843e+000 1.093973e+000 -1.092339e-001 -9.608127e-001 -2.446580e+000 -1.502848e-001 6.253527e+001 -9.164961e-002 3.293510e-002 -2.091883e-001 1.004814e-001 1.661454e-001 8.917557e-002 4.612930e-003 -2.398746e-003 8.571862e-002 -3.985100e-002 8.173391e-003 3.302315e-002 -5.352111e-001 -5.476688e-002 -1.667710e-003 -1.108607e-002 3.419572e-003 3.937818e-002 2.363792e-002 1.949611e-002 -2.284688e-002 1.432399e-002 1.092971e-002 -5.663593e-003 1.969288e-002 -1.761142e-002
<VARIANCE> 39
 4.931415e+001 2.562650e+001 4.120926e+001 3.821312e+001 6.149572e+001 4.585345e+001 5.681348e+001 4.286042e+001 4.244693e+001 3.067182e+001 4.238017e+001 2.703514e+001 1.728288e+002 1.566480e+000 1.468878e+000 1.350648e+000 2.278372e+000 2.363017e+000 2.026509e+000 2.965641e+000 2.662379e+000 2.421717e+000 2.150737e+000 2.013629e+000 1.803748e+000 1.657356e+000 2.300945e-001 2.645454e-001 2.315712e-001 3.971845e-001 4.033003e-001 3.622375e-001 4.942379e-001 4.589816e-001 4.313092e-001 3.895315e-001 3.483275e-001 3.184358e-001 2.512504e-001
<GCONST> 1.163698e+002
<TRANSP> 5
 0.000000e+000 1.000000e+000 0.000000e+000 0.000000e+000 0.000000e+000
 0.000000e+000 8.929750e-001 1.070250e-001 0.000000e+000 0.000000e+000
 0.000000e+000 0.000000e+000 9.621942e-001 3.780584e-002 0.000000e+000
 0.000000e+000 0.000000e+000 0.000000e+000 9.821923e-001 1.780771e-002
 0.000000e+000 0.000000e+000 0.000000e+000 0.000000e+000 0.000000e+000
<ENDHMM>
~h "uiyogeul"
<BEGINHMM>
<NUMSTATES> 5
<STATE> 2
<MEAN> 39
 -1.779043e+001 1.343743e+000 -2.515430e+000 -7.353990e-001 1.738510e-001 1.286085e-001 -1.876719e+000 2.591774e-001 -1.265120e+000 6.844158e-001 -1.142933e-002 -4.433658e-001 4.446024e+001 2.221588e-001 2.330628e-001 1.918777e-002 -8.840235e-002 1.966029e-001 -4.865655e-002 -3.594661e-001 -1.440668e-001 -3.796568e-001 3.814799e-001 5.447438e-002 -3.701705e-001 3.494721e-001 2.168517e-001 1.029336e-001 7.877296e-002 -3.727092e-002 -2.507681e-002 1.949730e-002 -1.550248e-001 -3.528958e-002 -1.172247e-001 7.442806e-002 1.934254e-002 -9.566385e-002 2.536777e-001
<VARIANCE> 39
 4.330394e+000 3.915891e+000 1.081773e+001 1.541376e+001 1.336902e+001 1.273274e+001 1.996243e+001 1.668809e+001 1.677302e+001 1.925537e+001 1.537806e+001 1.467423e+001 9.809760e+000 7.299433e-001 6.168925e-001 1.236709e+000 1.578765e+000 1.556781e+000 1.252013e+000 1.760801e+000 2.093384e+000 1.749820e+000 1.771557e+000 1.493401e+000 1.451607e+000 5.639409e-001 2.225529e-001 1.392271e-001 2.101043e-001 2.730176e-001 3.135279e-001 2.042136e-001 3.784188e-001 3.797409e-001 2.748276e-001 2.904698e-001 2.776983e-001 3.247437e-001 1.659394e-001
<GCONST> 8.947443e+001
<STATE> 3
<MEAN> 39
 -6.256423e+000 4.260422e+000 1.200816e+000 -3.103974e+000 -3.042313e+000 -1.602636e+000 -1.329449e+001 -3.143638e+000 -7.174184e+000 4.108658e+000 2.497355e+000 -6.711812e+000 5.991415e+001 1.565761e+000 -2.003417e-001 1.205491e+000 -1.954503e-002 -1.431472e+000 -7.264428e-001 -1.763697e+000 -4.711534e-002 -8.689992e-001 -2.960512e-001 4.564273e-001 -8.599684e-001 3.101737e+000 -3.576643e-001 -1.997371e-001 2.630340e-001 1.213521e-001 -2.980657e-001 -8.052329e-002 3.384331e-001 1.305773e-001 -1.046704e-001 -2.932911e-001 2.727424e-002 1.761775e-001 -1.003864e-001
<VARIANCE> 39
 5.370640e+001 2.853616e+001 3.397918e+001 4.347720e+001 5.094723e+001 4.840788e+001 7.284219e+001 8.505759e+001 5.382747e+001 4.056947e+001 5.009735e+001 3.896214e+001 1.063261e+002 5.289460e+000 3.273088e+000 2.828628e+000 4.695770e+000 3.814661e+000 3.514936e+000 5.398699e+000 6.766470e+000 4.281673e+000 3.505759e+000 2.901439e+000 3.568743e+000 3.916892e+000 8.617231e-001 5.489869e-001 5.151623e-001 8.188639e-001 8.195435e-001 6.557273e-001 1.181324e+000 1.245794e+000 7.035319e-001 4.821469e-001 4.475237e-001 6.159437e-001 9.306734e-001
<GCONST> 1.365394e+002
<STATE> 4
<MEAN> 39
 -6.219774e+000 1.336617e+000 4.247372e+000 -2.386682e+000 -8.647539e+000 -2.812452e+000 -9.314953e+000 -1.423509e+000 -6.161236e+000 -2.294541e-001 6.093693e-001 -2.576866e+000 6.300866e+001 -1.887631e-001 7.638165e-003 -1.196239e-001 2.059882e-002 1.150552e-001 7.137240e-002 2.262633e-001 -7.267690e-003 1.099292e-001 -1.394313e-002 -5.462248e-002 1.241040e-001 -3.786614e-001 1.084931e-002 6.319098e-003 -3.446948e-002 -1.346934e-002 3.265706e-002 7.602033e-003 -1.689432e-002 -5.824561e-003 1.695982e-002 2.335532e-002 -4.065630e-003 -1.102727e-002 -1.967011e-002
<VARIANCE> 39
 4.461148e+001 3.600306e+001 8.300233e+001 5.986248e+001 6.830145e+001 5.271633e+001 8.579179e+001 4.882636e+001 1.031962e+002 5.023531e+001 6.211637e+001 4.176639e+001 1.413396e+002 9.320121e-001 1.601142e+000 3.208709e+000 2.745919e+000 3.052269e+000 2.552524e+000 3.727716e+000 2.584578e+000 3.624784e+000 2.711528e+000 2.826707e+000 2.233293e+000 2.164733e+000 1.170394e-001 2.189700e-001 3.816897e-001 4.438246e-001 4.518510e-001 4.246483e-001 5.630019e-001 4.838096e-001 5.883940e-001 4.377423e-001 4.828896e-001 4.043328e-001 2.498153e-001
<GCONST> 1.244912e+002
<TRANSP> 5
 0.000000e+000 1.000000e+000 0.000000e+000 0.000000e+000 0.000000e+000
 0.000000e+000 8.860942e-001 1.139059e-001 0.000000e+000 0.000000e+000
 0.000000e+000 0.000000e+000 8.758625e-001 1.241375e-001 0.000000e+000
 0.000000e+000 0.000000e+000 0.000000e+000 9.867752e-001 1.322485e-002
 0.000000e+000 0.000000e+000 0.000000e+000 0.000000e+000 0.000000e+000
<ENDHMM>
~h "software"
<BEGINHMM>
<NUMSTATES> 5
<STATE> 2
<MEAN> 39
 -1.807959e+001 2.010618e-001 -2.643037e+000 -6.156056e-001 -1.213358e+000 -1.784827e+000 -1.051232e+000 7.102725e-001 5.582828e-001 -1.297205e-001 -9.967517e-001 2.949905e-001 4.635942e+001 -1.201702e-001 -2.626500e-001 -5.987594e-002 -4.059130e-001 3.757337e-001 -2.275703e-001 -2.274636e-001 4.183365e-002 -9.392746e-002 7.388621e-002 -1.142654e-001 -1.441564e-001 5.847029e-001 -7.087178e-002 1.298598e-002 3.695479e-002 -2.053035e-001 5.851802e-002 -1.358579e-001 -3.899064e-002 7.341747e-002 -2.577983e-002 1.947270e-002 5.088947e-002 -1.830195e-002 2.269866e-001
<VARIANCE> 39
 1.251251e+001 1.019803e+001 9.113795e+000 9.878933e+000 1.129539e+001 1.686929e+001 1.586268e+001 1.544674e+001 1.697106e+001 1.483295e+001 1.281851e+001 1.098212e+001 3.627085e+001 7.152051e-001 8.516588e-001 6.532546e-001 1.546065e+000 1.494531e+000 1.479646e+000 1.831984e+000 1.555253e+000 1.738463e+000 1.649272e+000 1.059321e+000 1.149935e+000 1.315630e+000 2.287493e-001 1.317419e-001 1.155542e-001 2.848915e-001 2.508974e-001 2.416101e-001 3.459172e-001 2.421407e-001 3.222987e-001 3.118434e-001 1.858723e-001 1.876906e-001 2.293942e-001
<GCONST> 8.939979e+001
<STATE> 3
<MEAN> 39
 -1.572772e+001 1.715509e+000 -1.094646e+000 -6.438215e+000 5.407003e-001 -3.799065e+000 -5.792757e+000 -4.672265e-001 -2.084811e+000 1.245590e+000 -2.967588e-001 -2.429411e-001 6.142558e+001 3.518680e-001 8.424541e-002 1.541390e-001 -4.385684e-002 -1.440775e-001 1.132016e-002 -2.983173e-001 -8.112135e-002 -1.330868e-001 7.533295e-002 3.032560e-002 -1.075450e-001 5.479446e-001 1.066199e-001 1.085076e-002 2.400338e-003 6.079365e-003 -8.439667e-002 7.063859e-002 -5.448303e-002 -4.666254e-002 -3.188421e-002 9.383161e-003 3.811781e-002 -2.958606e-002 -4.002323e-002
<VARIANCE> 39
 9.957925e+001 3.226083e+001 2.313037e+001 4.970694e+001 3.797739e+001 4.733876e+001 5.300874e+001 4.613153e+001 3.750115e+001 2.577668e+001 2.780366e+001 2.567567e+001 1.217669e+002 9.290006e+000 4.202342e+000 2.239681e+000 5.636197e+000 4.023481e+000 5.231745e+000 6.189195e+000 4.026381e+000 3.731836e+000 3.048727e+000 3.120319e+000 3.359185e+000 1.423305e+001 1.180385e+000 8.156136e-001 4.169770e-001 1.147579e+000 7.208074e-001 9.958627e-001 1.037439e+000 6.617998e-001 6.973365e-001 6.193444e-001 6.011535e-001 6.360306e-001 2.467398e+000
<GCONST> 1.378613e+002
<STATE> 4
<MEAN> 39
 -6.293160e+000 -1.109762e+000 -1.670510e+000 -6.938298e+000 -4.038161e+000 2.634746e-001 -6.336984e+000 1.449570e+000 -3.656757e+000 1.671023e+000 1.449369e+000 -3.541402e+000 6.250083e+001 -2.116376e-001 -1.102573e-002 -8.162458e-002 9.193531e-002 6.526481e-002 4.993403e-002 2.225350e-001 1.484082e-002 5.745978e-002 -7.787222e-002 -1.055402e-002 9.251596e-002 -4.296817e-001 -5.102472e-002 -3.598248e-003 -5.797254e-003 2.832651e-002 3.276943e-002 -2.451981e-002 4.523709e-002 3.102171e-002 3.339492e-002 -6.935521e-003 -2.857266e-002 2.053105e-002 -8.433849e-003
<VARIANCE> 39
 5.719319e+001 2.268200e+001 4.886203e+001 6.272159e+001 5.908019e+001 9.814563e+001 8.296876e+001 5.851526e+001 4.405770e+001 4.647488e+001 5.495478e+001 4.712382e+001 1.684621e+002 1.007099e+000 1.184373e+000 1.519974e+000 2.178962e+000 2.187091e+000 2.673162e+000 2.756411e+000 2.382490e+000 2.174134e+000 1.912995e+000 2.142517e+000 1.692711e+000 2.171669e+000 1.431602e-001 1.898518e-001 2.204422e-001 3.345008e-001 3.275121e-001 3.566647e-001 4.606044e-001 3.766118e-001 3.805220e-001 3.299709e-001 3.791316e-001 2.882629e-001 2.746734e-001
<GCONST> 1.174549e+002
<TRANSP> 5
 0.000000e+000 1.000000e+000 0.000000e+000 0.000000e+000 0.000000e+000
 0.000000e+000 8.932889e-001 1.067111e-001 0.000000e+000 0.000000e+000
 0.000000e+000 0.000000e+000 9.748347e-001 2.516533e-002 0.000000e+000
 0.000000e+000 0.000000e+000 0.000000e+000 9.846371e-001 1.536294e-002
 0.000000e+000 0.000000e+000 0.000000e+000 0.000000e+000 0.000000e+000
<ENDHMM>
~h "juwiui"
<BEGINHMM>
<NUMSTATES> 5
<STATE> 2
<MEAN> 39
 -1.798525e+001 3.594741e-001 -1.417377e+000 -7.114029e-001 -1.231290e+000 -3.952240e-001 -1.972610e+000 -7.550926e-001 -1.873179e+000 9.090970e-002 -2.178159e-001 4.076846e-001 4.467368e+001 -1.181412e-001 -3.134318e-001 2.060747e-002 -3.128206e-001 -1.683626e-001 1.556830e-001 7.150173e-003 -8.203869e-002 -2.858227e-002 -3.883578e-002 -1.170258e-001 -6.424319e-002 5.190031e-001 -1.419323e-001 -1.205143e-001 1.647743e-001 -1.592803e-001 -1.854692e-001 9.320870e-002 -1.460545e-001 -9.823635e-002 9.724718e-002 -4.159271e-002 -6.685746e-002 5.553715e-002 4.004836e-001
<VARIANCE> 39
 3.808022e+000 6.231821e+000 1.024252e+001 1.085561e+001 1.638445e+001 1.583617e+001 1.741824e+001 1.562528e+001 1.593693e+001 1.844061e+001 1.506281e+001 1.155842e+001 1.122698e+001 6.031442e-001 1.347844e+000 1.547453e+000 1.670871e+000 2.574452e+000 1.602286e+000 2.005174e+000 1.988182e+000 1.694662e+000 2.284228e+000 1.606502e+000 1.376303e+000 2.441285e+000 2.333262e-001 2.340025e-001 2.968409e-001 3.078281e-001 4.891279e-001 3.379695e-001 3.050766e-001 3.761984e-001 3.442130e-001 4.794628e-001 3.070707e-001 2.715250e-001 5.566344e-001
<GCONST> 9.642670e+001
<STATE> 3
<MEAN> 39
 -2.143000e+001 -2.513028e+000 3.045524e+000 -2.912318e+000 -8.155238e+000 -2.344568e+000 -5.944566e+000 -2.491312e+000 -9.419978e-001 -1.827573e+000 -5.880063e-003 4.797957e-001 6.722922e+001 1.153691e+000 3.687390e-001 2.536384e-001 1.853552e-001 -1.996443e-001 -1.411056e-001 -1.025829e+000 -2.467834e-001 -7.451600e-001 -6.760727e-002 4.494859e-001 -4.299716e-001 1.432474e+000 2.041272e-001 1.005016e-001 -1.137033e-001 5.292466e-002 6.096394e-002 1.082353e-002 -6.236642e-003 4.575729e-002 -1.837145e-001 4.005557e-002 1.063172e-001 -6.384587e-002 -2.643444e-001
<VARIANCE> 39
 1.221259e+002 3.110584e+001 2.422545e+001 3.939544e+001 3.852269e+001 6.518447e+001 7.187040e+001 4.015919e+001 4.006723e+001 3.522760e+001 2.625837e+001 2.398931e+001 6.554741e+001 1.204851e+001 3.645468e+000 3.051499e+000 3.865916e+000 5.384754e+000 7.460031e+000 6.207335e+000 4.287448e+000 6.036333e+000 3.258477e+000 3.309113e+000 2.673061e+000 6.471079e+000 1.445177e+000 7.484217e-001 5.307916e-001 6.512423e-001 9.742988e-001 1.204889e+000 1.049209e+000 8.225134e-001 9.213981e-001 5.878642e-001 7.112542e-001 4.186155e-001 7.179818e-001
<GCONST> 1.375820e+002
<STATE> 4
<MEAN> 39
 -8.862331e+000 2.894280e+000 1.032586e+001 -1.057464e+000 -1.188224e+001 -2.650131e+000 -8.946672e+000 -9.029440e-001 -1.063826e+001 -1.097713e+000 2.179590e+000 -3.886127e+000 6.340071e+001 -2.339679e-001 -2.237670e-002 -6.703889e-002 2.479604e-002 7.605556e-002 1.112681e-002 2.461873e-001 5.705582e-002 1.514829e-001 1.225237e-002 -9.468348e-002 1.016835e-001 -3.882014e-001 -1.840367e-002 1.172830e-004 7.445716e-004 9.895107e-003 3.626062e-003 -1.604854e-002 1.175519e-002 -3.382555e-003 3.438991e-002 -7.100653e-003 -1.573651e-002 1.211192e-002 -1.088482e-003
<VARIANCE> 39
 3.195714e+001 2.027391e+001 8.590324e+001 3.519452e+001 7.336847e+001 5.554810e+001 9.037510e+001 3.847279e+001 7.068059e+001 4.384246e+001 3.857156e+001 3.459548e+001 1.419146e+002 3.424122e-001 7.935010e-001 2.309945e+000 1.281111e+000 2.142908e+000 2.023780e+000 2.334384e+000 1.946100e+000 2.017260e+000 1.733740e+000 1.549895e+000 1.295206e+000 5.991052e-001 5.451770e-002 1.151828e-001 2.156396e-001 2.099807e-001 3.035217e-001 3.308446e-001 3.717123e-001 3.551544e-001 3.541384e-001 3.168922e-001 2.833806e-001 2.411727e-001 4.506941e-002
<GCONST> 1.065625e+002
<TRANSP> 5
 0.000000e+000 1.000000e+000 0.000000e+000 0.000000e+000 0.000000e+000
 0.000000e+000 8.965090e-001 1.034910e-001 0.000000e+000 0.000000e+000
 0.000000e+000 0.000000e+000 9.322494e-001 6.775066e-002 0.000000e+000
 0.000000e+000 0.000000e+000 0.000000e+000 9.856482e-001 1.435187e-002
 0.000000e+000 0.000000e+000 0.000000e+000 0.000000e+000 0.000000e+000
<ENDHMM>
~h "mwolago"
<BEGINHMM>
<NUMSTATES> 5
<STATE> 2
<MEAN> 39
 -1.718951e+001 1.209310e+000 -7.957602e-001 6.265468e-001 -1.316291e+000 3.564100e-001 -6.223616e-001 -2.548359e+000 -2.578697e+000 1.060664e+000 -1.054926e+000 -4.533408e-002 4.454433e+001 3.314263e-001 1.601928e-001 3.801425e-001 1.926116e-001 -1.968715e-001 2.256798e-001 2.435115e-002 -6.361617e-001 -5.861238e-001 3.426470e-001 -1.818008e-001 -2.723090e-001 3.522151e-001 1.883793e-001 1.583937e-001 1.899950e-001 8.517896e-002 -2.368016e-002 5.788552e-002 -3.435626e-003 -4.893072e-002 7.780585e-003 2.634339e-003 -6.096964e-002 -1.261071e-002 1.582418e-001
<VARIANCE> 39
 2.455222e+000 4.248909e+000 6.505184e+000 8.373652e+000 1.311455e+001 1.424992e+001 1.549863e+001 2.504056e+001 1.477048e+001 1.610762e+001 1.179254e+001 1.248830e+001 8.057387e+000 2.999986e-001 7.844089e-001 1.047241e+000 1.056459e+000 8.758808e-001 1.361889e+000 1.594311e+000 1.813375e+000 1.332582e+000 1.520692e+000 1.148340e+000 1.427802e+000 2.247039e-001 1.369443e-001 1.631870e-001 1.615242e-001 1.847090e-001 1.767204e-001 2.045277e-001 3.163455e-001 3.182862e-001 2.338801e-001 2.987964e-001 2.328372e-001 2.625652e-001 9.911294e-002
<GCONST> 8.066611e+001
<STATE> 3
<MEAN> 39
 -4.873555e+000 6.086985e+000 4.826166e+000 -4.250920e+000 -6.391903e+000 3.919655e+000 -2.413987e+000 -7.378549e+000 -8.230926e+000 1.631386e-002 -4.092529e+000 -1.685498e+000 5.843455e+001 2.157470e+000 2.103139e-001 -3.919233e-001 -3.202366e+000 -1.127885e+000 6.784225e-001 -6.781893e-001 5.294915e-001 -3.537754e-001 -8.232664e-001 5.695037e-001 8.489168e-002 2.983903e+000 -1.499361e-001 -2.985260e-001 -3.843072e-001 -4.721768e-001 -2.754128e-002 1.253005e-001 -5.344294e-002 1.730171e-001 1.131800e-001 2.838636e-002 3.423474e-001 3.711564e-002 4.087868e-002
<VARIANCE> 39
 4.238966e+001 2.093144e+001 2.884594e+001 1.367381e+002 4.897580e+001 3.715285e+001 3.122464e+001 6.251462e+001 3.548331e+001 3.272459e+001 4.027114e+001 2.835318e+001 7.610405e+001 3.021930e+000 3.040056e+000 4.209595e+000 9.961287e+000 4.255179e+000 4.117297e+000 2.461444e+000 5.925313e+000 4.781435e+000 3.113029e+000 6.438067e+000 2.942493e+000 2.830152e+000 7.311473e-001 4.150555e-001 5.384645e-001 2.048663e+000 9.148604e-001 8.098008e-001 4.898473e-001 1.010799e+000 7.147916e-001 6.215349e-001 7.919046e-001 5.153083e-001 7.507057e-001
<GCONST> 1.343458e+002
<STATE> 4
<MEAN> 39
 -3.658129e+000 2.722875e+000 -4.435683e+000 -1.279106e+001 -6.240848e+000 2.883438e+000 -3.335142e+000 1.042974e+000 -4.546967e+000 -3.345872e-001 -2.658988e-002 -3.788661e+000 6.274522e+001 -2.553696e-001 -4.362349e-002 -2.211665e-002 2.781639e-001 1.271229e-001 -9.929588e-002 5.959791e-002 2.458327e-002 9.078822e-002 3.095975e-002 -5.045263e-002 6.026372e-003 -3.424878e-001 -1.126769e-002 9.676918e-003 1.640439e-002 4.207259e-002 7.750814e-003 -1.717543e-002 3.624354e-003 -9.756454e-003 -3.588400e-003 -4.157462e-003 -3.072057e-002 2.738435e-003 -2.603300e-002
<VARIANCE> 39
 6.098486e+001 4.593645e+001 2.561970e+001 9.642052e+001 5.116444e+001 4.681411e+001 6.496881e+001 4.702927e+001 7.391805e+001 4.739452e+001 5.195736e+001 4.217627e+001 1.448696e+002 1.296108e+000 1.822897e+000 1.629461e+000 4.534627e+000 2.679120e+000 3.167817e+000 3.076498e+000 2.983066e+000 3.773609e+000 2.743216e+000 3.117726e+000 2.363027e+000 2.358792e+000 2.003236e-001 2.645955e-001 2.909510e-001 7.840792e-001 4.624378e-001 5.839426e-001 5.373465e-001 5.488625e-001 6.230440e-001 5.153388e-001 5.529123e-001 4.072708e-001 2.983708e-001
<GCONST> 1.256883e+002
<TRANSP> 5
 0.000000e+000 1.000000e+000 0.000000e+000 0.000000e+000 0.000000e+000
 0.000000e+000 8.944923e-001 1.055077e-001 0.000000e+000 0.000000e+000
 0.000000e+000 0.000000e+000 8.694595e-001 1.305406e-001 0.000000e+000
 0.000000e+000 0.000000e+000 0.000000e+000 9.866241e-001 1.337586e-002
 0.000000e+000 0.000000e+000 0.000000e+000 0.000000e+000 0.000000e+000
<ENDHMM>
~h "naghwaam"
<BEGINHMM>
<NUMSTATES> 5
<STATE> 2
<MEAN> 39
 -1.727088e+001 1.493656e+000 -1.232644e+000 6.407375e-001 -8.594896e-001 1.011477e-001 -2.409777e-001 -1.182642e+000 -1.673800e+000 2.198461e-001 -1.290560e+000 2.336103e-001 4.451115e+001 3.437479e-001 1.302945e-001 3.743860e-001 1.440516e-001 -2.693192e-001 1.743665e-001 2.348725e-001 -2.643568e-001 -1.151789e-001 1.679298e-001 -3.723018e-001 -1.802301e-001 3.447000e-001 1.397557e-001 8.455898e-002 9.464547e-002 -5.842246e-003 -6.895857e-002 -7.986072e-002 -5.154306e-002 -7.047556e-002 4.593447e-002 1.506667e-002 -9.606205e-002 -9.314196e-002 2.507608e-001
<VARIANCE> 39
 4.422613e+000 7.082763e+000 7.950993e+000 1.246066e+001 1.551470e+001 1.771811e+001 1.528489e+001 1.714677e+001 1.199091e+001 1.672665e+001 1.841998e+001 1.252245e+001 8.221840e+000 6.697237e-001 9.873664e-001 1.080219e+000 1.246457e+000 1.136068e+000 1.758215e+000 1.647720e+000 1.909175e+000 1.339053e+000 1.757368e+000 1.710806e+000 1.327092e+000 4.384989e-001 1.688463e-001 2.441663e-001 1.823194e-001 2.955985e-001 2.549227e-001 3.783086e-001 3.264345e-001 3.800987e-001 2.004629e-001 3.189069e-001 3.046571e-001 2.296991e-001 2.480053e-001
<GCONST> 8.898561e+001
<STATE> 3
<MEAN> 39
 -9.226618e+000 -6.272834e-001 -7.317030e+000 -8.546247e+000 1.558828e+000 7.766051e-003 -1.783299e+000 -1.761067e-002 -2.516556e+000 3.240309e+000 -4.210654e+000 -5.434395e+000 6.505031e+001 3.681978e-001 -1.464620e-001 -3.709742e-001 -6.143144e-001 1.495415e-001 1.335144e-001 -9.383717e-002 2.704759e-002 -1.152221e-001 9.868035e-002 1.288838e-001 -2.868049e-001 9.290451e-001 -2.020605e-003 -3.939567e-002 -3.291807e-002 -4.014390e-002 -9.024372e-003 2.467822e-002 -4.986705e-003 6.562389e-003 -1.601161e-002 1.116060e-002 2.819379e-002 -1.272211e-002 -4.008042e-002
<VARIANCE> 39
 3.592441e+001 3.628225e+001 6.341145e+001 7.311877e+001 5.679477e+001 4.974644e+001 3.719798e+001 4.669344e+001 3.798737e+001 3.440562e+001 4.279894e+001 4.127176e+001 1.482628e+002 4.075747e+000 3.946262e+000 5.089096e+000 6.423525e+000 5.465815e+000 4.674902e+000 4.469582e+000 5.045599e+000 4.056656e+000 4.033526e+000 3.776670e+000 3.687255e+000 1.508489e+001 6.228467e-001 7.046620e-001 9.918323e-001 1.250234e+000 9.561806e-001 8.993121e-001 9.283001e-001 1.001534e+000 8.286089e-001 8.446664e-001 6.978320e-001 5.614160e-001 1.897877e+000
<GCONST> 1.416276e+002
<STATE> 4
<MEAN> 39
 -6.918680e+000 -1.002346e+000 -2.338540e+000 -5.384420e+000 2.109951e+000 2.239935e+000 -4.126780e+000 -3.583326e+000 -4.162375e+000 1.448201e+000 -1.934915e+000 -4.915872e+000 6.197456e+001 -2.469398e-001 4.956995e-002 1.455294e-001 3.253338e-001 -1.540096e-002 -1.035998e-001 -3.092696e-002 3.367954e-002 6.750423e-002 -9.567334e-002 -5.516734e-003 1.823755e-001 -5.534826e-001 -3.062363e-002 1.124537e-003 -2.418846e-003 1.718297e-002 1.524273e-002 -6.976825e-003 -3.725537e-003 9.558504e-003 2.152390e-003 -5.884278e-003 6.005032e-003 1.808670e-002 -2.456420e-002
<VARIANCE> 39
 5.167796e+001 2.348064e+001 7.237888e+001 1.384494e+002 4.833026e+001 4.382652e+001 4.408126e+001 4.775151e+001 3.778282e+001 3.873691e+001 4.401752e+001 8.272485e+001 1.836244e+002 5.548901e-001 7.711662e-001 2.103266e+000 2.166094e+000 1.743329e+000 1.576375e+000 2.058751e+000 2.481340e+000 1.853994e+000 1.679133e+000 1.440359e+000 1.753830e+000 6.847188e-001 8.368512e-002 1.111624e-001 2.652917e-001 2.811448e-001 2.934864e-001 2.662511e-001 3.462162e-001 4.095054e-001 3.129864e-001 3.102651e-001 2.275977e-001 2.857460e-001 5.978936e-002
<GCONST> 1.093381e+002
<TRANSP> 5
 0.000000e+000 1.000000e+000 0.000000e+000 0.000000e+000 0.000000e+000
 0.000000e+000 8.959042e-001 1.040957e-001 0.000000e+000 0.000000e+000
 0.000000e+000 0.000000e+000 9.667556e-001 3.324442e-002 0.000000e+000
 0.000000e+000 0.000000e+000 0.000000e+000 9.820831e-001 1.791690e-002
 0.000000e+000 0.000000e+000 0.000000e+000 0.000000e+000 0.000000e+000
<ENDHMM>
~h "noemureul"
<BEGINHMM>
<NUMSTATES> 5
<STATE> 2
<MEAN> 39
 -1.717943e+001 1.425688e+000 -1.312298e+000 6.464362e-001 -1.218226e+000 1.606921e-001 -4.803464e-001 -1.311253e+000 -1.703309e+000 6.700570e-001 -1.480727e+000 -1.846997e-001 4.414040e+001 1.779827e-001 3.712545e-001 5.079517e-001 3.111148e-001 -1.441788e-001 1.368579e-001 9.097842e-002 -4.374353e-001 -2.875744e-001 1.067718e-001 -1.242795e-001 -2.884574e-001 2.308904e-001 1.933118e-001 1.369041e-001 1.688349e-001 5.981511e-003 -3.552400e-002 -6.218687e-002 2.564115e-002 4.329802e-002 8.531686e-003 -2.669740e-002 -2.891922e-002 -4.495370e-002 2.081953e-001
<VARIANCE> 39
 4.152828e+000 5.077724e+000 7.277811e+000 7.765106e+000 1.425228e+001 1.442871e+001 1.197436e+001 1.510756e+001 1.012599e+001 1.427516e+001 1.295592e+001 1.392635e+001 7.503104e+000 7.377365e-001 1.020876e+000 8.731061e-001 1.018600e+000 1.389668e+000 1.418335e+000 1.407025e+000 1.266917e+000 9.231925e-001 1.221110e+000 1.236155e+000 1.500512e+000 2.829796e-001 1.985798e-001 1.982846e-001 2.014938e-001 2.264348e-001 2.808842e-001 2.798325e-001 2.507599e-001 2.285176e-001 1.884129e-001 2.058587e-001 2.425134e-001 2.714833e-001 1.496951e-001
<GCONST> 8.220573e+001
<STATE> 3
<MEAN> 39
 -8.081395e+000 5.423479e+000 7.950476e+000 -2.886824e-001 -6.040832e+000 -5.549043e+000 -3.048794e+000 -2.486963e+000 -6.570118e+000 -1.072711e+000 -2.369427e+000 -2.648591e+000 5.943713e+001 1.182804e+000 -5.648844e-001 9.795445e-001 -7.284466e-001 -1.484153e+000 -1.638530e+000 -1.077549e+000 8.569641e-001 -8.817357e-001 -2.647088e-001 6.184593e-001 1.286594e-001 3.555104e+000 -1.738204e-001 -3.440148e-001 -2.163203e-001 -1.841145e-002 -2.418558e-001 6.436271e-002 -5.772137e-002 2.490472e-001 9.402687e-002 1.495137e-001 1.594393e-001 4.750419e-002 -1.069532e-002
<VARIANCE> 39
 4.173163e+001 3.442575e+001 3.044822e+001 4.967674e+001 4.294177e+001 6.331072e+001 4.428555e+001 4.893180e+001 3.194880e+001 2.225978e+001 2.866851e+001 2.524546e+001 1.300350e+002 5.279014e+000 4.715010e+000 3.289663e+000 5.126277e+000 4.969339e+000 4.070400e+000 3.936639e+000 6.529415e+000 2.901346e+000 2.835298e+000 4.918441e+000 2.955591e+000 4.648248e+000 9.896691e-001 6.627650e-001 5.323311e-001 1.112773e+000 8.927940e-001 1.095630e+000 8.358654e-001 1.051934e+000 5.529285e-001 4.603816e-001 8.820581e-001 5.556829e-001 1.258011e+000
<GCONST> 1.355430e+002
<STATE> 4
<MEAN> 39
 -5.278444e+000 -1.054861e+000 3.285324e+000 -1.158712e-003 -9.226183e+000 -3.140770e+000 -7.805058e+000 -1.961269e+000 -2.881644e+000 5.331806e-001 -1.752798e+000 -1.998701e+000 6.373260e+001 -1.479679e-001 2.976187e-002 -1.576359e-001 4.722589e-002 1.718576e-001 1.497000e-001 8.598818e-002 -6.893256e-002 1.283863e-001 2.262073e-002 -4.501847e-002 1.868082e-002 -4.165938e-001 -5.558758e-003 1.959778e-002 5.350648e-003 -5.935883e-004 3.422989e-002 7.303543e-004 3.120877e-003 -2.937429e-002 -5.799407e-003 -1.075723e-002 -1.168257e-002 -2.261577e-004 -2.338452e-002
<VARIANCE> 39
 4.991789e+001 2.811903e+001 4.187453e+001 4.789677e+001 5.706277e+001 5.563371e+001 7.222449e+001 7.328246e+001 6.421524e+001 3.636344e+001 4.850420e+001 3.331619e+001 1.354443e+002 1.158361e+000 1.215745e+000 1.830857e+000 2.940944e+000 2.823872e+000 2.881278e+000 3.387933e+000 3.792639e+000 2.763847e+000 2.324713e+000 3.139993e+000 1.989643e+000 1.314087e+000 1.894251e-001 1.896451e-001 2.773007e-001 4.488657e-001 5.438431e-001 4.971988e-001 6.053687e-001 6.543316e-001 4.824469e-001 4.276619e-001 5.468600e-001 3.735245e-001 1.899237e-001
<GCONST> 1.213862e+002
<TRANSP> 5
 0.000000e+000 1.000000e+000 0.000000e+000 0.000000e+000 0.000000e+000
 0.000000e+000 8.894697e-001 1.105303e-001 0.000000e+000 0.000000e+000
 0.000000e+000 0.000000e+000 8.787758e-001 1.212243e-001 0.000000e+000
 0.000000e+000 0.000000e+000 0.000000e+000 9.866316e-001 1.336835e-002
 0.000000e+000 0.000000e+000 0.000000e+000 0.000000e+000 0.000000e+000
<ENDHMM>
~h "eoduun"
<BEGINHMM>
<NUMSTATES> 5
<STATE> 2
<MEAN> 39
 -1.699703e+001 5.225224e-001 -4.671944e+000 -3.318633e+000 -5.547428e-001 2.838160e+000 2.460941e-001 -9.761005e-001 -2.414103e+000 -8.260461e-001 2.175806e-001 5.737907e-001 4.501863e+001 3.767521e-001 7.162145e-002 -3.394346e-001 -5.800332e-001 -9.822629e-002 5.254086e-001 3.744435e-001 -9.594741e-003 -2.190433e-001 -2.967201e-001 -1.359238e-001 -1.073882e-001 3.742504e-001 1.215528e-001 7.166120e-002 2.395112e-002 -1.344212e-001 5.996519e-003 6.862529e-002 -4.315096e-002 1.026059e-002 1.155938e-003 7.522894e-002 8.662113e-003 9.044494e-003 2.282150e-001
<VARIANCE> 39
 5.838733e+000 6.027918e+000 2.201893e+001 1.946626e+001 1.218422e+001 3.076832e+001 2.712453e+001 1.671503e+001 1.766385e+001 1.777706e+001 1.762429e+001 1.270510e+001 1.050827e+001 9.428244e-001 8.622816e-001 2.270544e+000 1.664605e+000 1.523408e+000 2.715708e+000 2.569940e+000 1.797093e+000 2.181201e+000 1.783957e+000 2.060934e+000 1.483919e+000 5.810211e-001 2.492590e-001 2.017807e-001 3.828040e-001 3.588872e-001 2.611172e-001 5.117884e-001 3.856761e-001 3.133292e-001 4.121174e-001 3.661789e-001 3.609405e-001 2.829139e-001 1.584838e-001
<GCONST> 9.774561e+001
<STATE> 3
<MEAN> 39
 -6.060269e+000 3.055172e+000 -1.195725e+000 -1.257439e+001 -1.611348e+000 2.200286e+000 -7.863363e+000 -2.630585e+000 -4.813764e+000 2.257243e+000 3.551741e-001 -3.042452e+000 6.638967e+001 4.429071e-001 9.985039e-002 2.904379e-001 1.300962e-002 -1.276692e-001 -2.168623e-001 -7.162668e-001 -3.160615e-001 -2.355707e-001 1.240849e-001 2.188040e-001 -2.386899e-001 9.649026e-001 1.145347e-003 -9.568518e-003 -3.702486e-002 1.114296e-002 -2.409070e-002 6.815331e-002 2.951103e-003 -6.233612e-002 -6.072921e-002 -8.082604e-003 7.096341e-002 9.248557e-004 -8.727770e-002
<VARIANCE> 39
 5.518073e+001 3.682632e+001 3.731425e+001 1.135594e+002 3.701762e+001 8.610882e+001 7.082496e+001 5.485204e+001 4.284724e+001 4.237285e+001 3.851053e+001 3.855509e+001 1.142823e+002 6.021104e+000 4.755321e+000 2.562209e+000 9.141429e+000 3.460262e+000 5.824262e+000 6.299573e+000 4.779628e+000 3.552736e+000 3.557250e+000 3.707125e+000 3.072918e+000 1.294603e+001 1.021186e+000 9.700116e-001 4.752598e-001 1.348329e+000 6.092581e-001 1.010042e+000 1.162038e+000 8.915176e-001 6.294698e-001 6.186543e-001 6.418979e-001 5.764126e-001 2.171387e+000
<GCONST> 1.419036e+002
<STATE> 4
<MEAN> 39
 -7.157652e+000 3.382255e+000 2.402460e+000 -3.298644e+000 -4.711462e+000 1.740058e-001 -6.433690e+000 -4.948001e+000 -5.715663e+000 -6.001870e-001 -1.111672e+000 -3.750842e+000 5.931775e+001 -2.778750e-001 -8.002342e-002 -6.998891e-002 1.359125e-001 7.691199e-002 -7.795081e-003 3.055125e-001 1.740923e-001 1.837852e-001 -4.133024e-002 -1.369974e-001 1.130318e-001 -5.451131e-001 -3.128505e-002 -9.751525e-003 1.609453e-002 2.597699e-002 1.929874e-002 -4.800438e-002 8.668186e-003 2.848429e-002 3.723583e-002 7.125544e-003 -4.741042e-002 1.227108e-003 7.896117e-004
<VARIANCE> 39
 5.535120e+001 2.627008e+001 5.072007e+001 7.888274e+001 4.353576e+001 4.506894e+001 6.080883e+001 5.244792e+001 6.000299e+001 4.185202e+001 7.339546e+001 4.039533e+001 1.299802e+002 6.000207e-001 9.886891e-001 1.780919e+000 2.172147e+000 1.855598e+000 1.889376e+000 2.116492e+000 1.995957e+000 2.024763e+000 1.951924e+000 2.530829e+000 1.791824e+000 7.161916e-001 8.903735e-002 1.422010e-001 2.167763e-001 2.778367e-001 3.103570e-001 3.228385e-001 3.944457e-001 3.835048e-001 3.404228e-001 3.014887e-001 3.922556e-001 3.057958e-001 8.029392e-002
<GCONST> 1.113842e+002
<TRANSP> 5
 0.000000e+000 1.000000e+000 0.000000e+000 0.000000e+000 0.000000e+000
 0.000000e+000 8.894587e-001 1.105413e-001 0.000000e+000 0.000000e+000
 0.000000e+000 0.000000e+000 9.618605e-001 3.813943e-002 0.000000e+000
 0.000000e+000 0.000000e+000 0.000000e+000 9.808920e-001 1.910803e-002
 0.000000e+000 0.000000e+000 0.000000e+000 0.000000e+000 0.000000e+000
<ENDHMM>
~h "doepuri"
<BEGINHMM>
<NUMSTATES> 5
<STATE> 2
<MEAN> 39
 -1.751585e+001 1.244148e+000 -1.830829e+000 -2.498854e-001 -1.810610e+000 -6.192222e-001 -7.224121e-001 -2.799909e-001 -1.116374e+000 -5.290933e-002 -3.901092e-001 7.505839e-001 4.380916e+001 9.648276e-003 -1.749388e-001 1.537756e-001 -3.242009e-001 8.327418e-002 -1.258772e-001 -6.699783e-002 -8.149359e-002 -1.244543e-001 -2.702175e-002 2.014223e-002 2.292899e-002 3.888043e-001 -4.913735e-002 -1.635683e-001 7.395267e-002 -2.459848e-001 2.113791e-002 -7.470912e-002 2.616389e-002 3.193012e-002 -1.121710e-002 5.845868e-003 -1.554735e-002 4.459503e-002 4.657833e-001
<VARIANCE> 39
 3.124719e+000 4.654350e+000 5.830270e+000 1.215281e+001 1.460934e+001 1.403634e+001 1.190987e+001 1.255032e+001 1.514031e+001 1.116786e+001 1.353128e+001 1.022628e+001 5.780342e+000 2.363153e-001 7.454054e-001 7.331104e-001 2.008374e+000 1.364172e+000 1.345207e+000 1.239473e+000 1.247688e+000 1.746212e+000 1.245729e+000 1.401572e+000 1.064400e+000 1.376222e+000 4.844130e-002 1.829230e-001 1.330176e-001 4.131885e-001 2.598873e-001 2.719024e-001 2.514115e-001 2.247990e-001 3.145871e-001 2.507852e-001 3.085611e-001 1.972241e-001 7.407929e-001
<GCONST> 8.316109e+001
<STATE> 3
<MEAN> 39
 -1.154911e+001 -8.055259e-001 9.347008e-001 -2.293313e+000 -3.939460e+000 -5.681182e+000 -5.139878e+000 -3.821869e-001 -2.344255e+000 1.762645e+000 1.211603e+000 9.955758e-001 6.289336e+001 3.334872e-001 1.942350e-002 7.317387e-002 2.656780e-002 -1.067914e-001 1.955393e-002 -2.729874e-001 -1.828092e-001 -1.517550e-001 2.121908e-002 1.128041e-001 -4.679817e-002 7.050560e-001 8.645975e-002 1.033322e-001 3.418810e-002 3.464892e-002 -8.360521e-002 5.910520e-002 -4.903883e-002 -1.841756e-002 -6.673407e-002 -2.108821e-002 4.282801e-003 -3.735030e-002 -1.196696e-001
<VARIANCE> 39
 5.255228e+001 3.471087e+001 3.544955e+001 3.760212e+001 4.959597e+001 5.235535e+001 4.067306e+001 4.293834e+001 2.585923e+001 2.602693e+001 2.480920e+001 2.232579e+001 1.459587e+002 5.288229e+000 3.928765e+000 2.918272e+000 4.338204e+000 5.169302e+000 4.581855e+000 4.021240e+000 3.395080e+000 2.929334e+000 2.677436e+000 2.541909e+000 2.398567e+000 1.611820e+001 7.477605e-001 7.024610e-001 4.600428e-001 9.157436e-001 9.342678e-001 7.847047e-001 7.064352e-001 6.086490e-001 5.415088e-001 5.056846e-001 5.026877e-001 5.068583e-001 2.209958e+000
<GCONST> 1.329867e+002
<STATE> 4
<MEAN> 39
 -1.110606e+001 3.241680e+000 9.242517e+000 -2.752523e+000 -1.005898e+001 -8.102472e-001 -4.892469e+000 -3.154985e+000 -7.920454e+000 4.131004e-001 3.813246e-001 -1.966040e+000 5.934359e+001 -2.144456e-001 1.342699e-002 -8.106006e-002 3.143846e-002 3.701917e-002 -3.336968e-002 1.772504e-001 1.630615e-001 1.417512e-001 -2.686858e-002 -8.227005e-002 3.843226e-003 -5.274223e-001 -5.270114e-002 -3.932701e-002 -4.475940e-002 2.002487e-002 5.321952e-002 -2.924379e-002 2.967087e-002 1.259500e-002 5.154036e-002 9.976783e-003 -1.434588e-002 1.482045e-002 -1.064666e-002
<VARIANCE> 39
 3.380568e+001 2.391003e+001 1.110452e+002 3.681794e+001 6.841212e+001 4.585482e+001 7.091026e+001 3.416207e+001 6.330362e+001 3.799781e+001 3.418660e+001 2.850535e+001 1.394449e+002 1.227126e+000 1.463306e+000 3.021784e+000 2.813272e+000 3.336949e+000 2.900054e+000 3.374179e+000 2.358481e+000 3.357148e+000 2.645218e+000 2.442796e+000 1.881323e+000 1.395851e+000 2.431752e-001 2.545957e-001 3.232985e-001 5.461684e-001 5.801388e-001 5.191227e-001 5.676314e-001 4.475870e-001 6.084317e-001 5.032861e-001 4.777218e-001 3.642394e-001 2.018926e-001
<GCONST> 1.216302e+002
<TRANSP> 5
 0.000000e+000 1.000000e+000 0.000000e+000 0.000000e+000 0.000000e+000
 0.000000e+000 8.890208e-001 1.109792e-001 0.000000e+000 0.000000e+000
 0.000000e+000 0.000000e+000 9.695477e-001 3.045230e-002 0.000000e+000
 0.000000e+000 0.000000e+000 0.000000e+000 9.797370e-001 2.026299e-002
 0.000000e+000 0.000000e+000 0.000000e+000 0.000000e+000 0.000000e+000
<ENDHMM>
~h "choeagi"
<BEGINHMM>
<NUMSTATES> 5
<STATE> 2
<MEAN> 39
 -1.791633e+001 1.842350e+000 -5.813490e-001 -5.891182e-002 -8.497634e-001 -4.568530e-001 -1.845704e+000 -7.643101e-001 -1.557908e+000 3.136407e-001 4.777654e-001 7.537965e-001 4.419101e+001 -5.264695e-002 -2.153484e-001 6.124885e-002 -1.443502e-001 2.715995e-002 2.117150e-001 6.862982e-002 -3.401050e-002 5.123162e-002 2.068926e-002 1.567721e-001 9.375160e-002 3.203609e-001 -1.552678e-001 -1.761052e-001 7.156122e-002 -3.286551e-001 -4.720796e-002 4.450913e-002 -7.610694e-002 5.626151e-002 3.451818e-002 -3.559021e-002 -4.597092e-002 -4.806439e-002 4.134983e-001
<VARIANCE> 39
 5.574656e+000 7.493083e+000 1.044394e+001 1.137573e+001 1.129764e+001 1.515037e+001 2.086396e+001 1.646898e+001 1.411951e+001 1.053069e+001 1.123684e+001 1.139064e+001 1.233257e+001 8.041714e-001 1.363945e+000 1.345624e+000 2.281518e+000 1.290492e+000 1.564155e+000 2.089117e+000 1.969127e+000 1.570867e+000 1.164520e+000 1.356155e+000 1.151816e+000 1.847096e+000 1.591617e-001 2.431785e-001 2.842354e-001 4.520890e-001 2.574036e-001 3.165740e-001 4.527656e-001 4.226377e-001 2.966579e-001 2.201408e-001 2.476885e-001 1.631740e-001 7.311708e-001
<GCONST> 9.281467e+001
<STATE> 3
<MEAN> 39
 -2.221447e+001 -4.285239e+000 3.923773e+000 -8.456091e+000 -7.369376e+000 -1.754450e+000 -2.456423e+000 6.535392e-001 -1.685505e+000 -7.960445e-001 7.551185e-001 7.382349e-001 6.876838e+001 7.597966e-001 -2.477075e-001 6.218214e-001 -1.241009e-001 -9.384425e-001 -7.270756e-001 -2.343838e-002 3.676033e-001 -2.970176e-001 -4.343963e-002 -4.820858e-002 -9.697236e-002 2.019304e+000 3.085651e-001 1.532491e-001 -2.150232e-002 2.061590e-001 -6.312228e-002 -1.332081e-001 -7.236992e-003 6.077148e-002 -4.966906e-002 3.103312e-002 -3.079491e-002 -2.068419e-002 -2.154456e-001
<VARIANCE> 39
 5.382413e+001 1.977582e+001 2.730974e+001 4.748391e+001 3.227270e+001 3.565237e+001 2.359675e+001 2.143352e+001 2.268496e+001 1.646445e+001 1.513867e+001 1.997651e+001 8.400112e+001 7.682360e+000 2.765922e+000 2.211232e+000 5.853937e+000 2.277280e+000 2.835352e+000 3.145085e+000 2.234295e+000 2.386423e+000 1.784263e+000 1.799857e+000 1.943197e+000 9.776341e+000 8.160965e-001 5.262511e-001 3.988180e-001 7.849205e-001 3.923886e-001 4.268532e-001 5.607462e-001 3.747304e-001 4.698673e-001 3.579971e-001 3.379498e-001 3.183532e-001 1.305923e+000
<GCONST> 1.204688e+002
<STATE> 4
<MEAN> 39
 -9.936252e+000 2.106607e+000 6.787638e+000 -6.062352e+000 -8.232865e+000 -4.348423e+000 -3.785750e+000 7.240380e-002 -5.291256e+000 6.854767e-001 -2.188093e+000 -3.604617e+000 6.408263e+001 -1.123592e-001 6.697852e-002 -1.453391e-001 6.008529e-002 1.676657e-001 1.039234e-001 1.657571e-002 -5.475300e-002 3.249858e-002 -1.341053e-004 8.225327e-003 1.967289e-002 -4.018926e-001 -3.801038e-002 -6.044440e-003 -9.229540e-003 2.376609e-003 2.507725e-002 1.742317e-002 1.355983e-002 -6.505429e-003 6.616654e-003 -2.126606e-003 3.751714e-003 7.180624e-003 -1.835334e-002
<VARIANCE> 39
 3.737516e+001 5.624728e+001 1.032034e+002 4.281944e+001 6.207921e+001 6.024086e+001 5.206864e+001 4.919071e+001 6.110206e+001 4.251569e+001 5.236956e+001 5.112507e+001 1.670490e+002 1.408598e+000 2.023812e+000 2.684899e+000 2.184824e+000 2.629868e+000 2.329803e+000 2.862220e+000 2.318115e+000 3.191811e+000 2.156058e+000 2.106119e+000 2.006698e+000 2.581431e+000 2.395531e-001 3.392841e-001 3.163393e-001 3.765345e-001 3.970675e-001 3.925104e-001 4.826492e-001 4.346028e-001 5.473418e-001 3.613856e-001 3.244194e-001 3.051842e-001 3.598554e-001
<GCONST> 1.224971e+002
<TRANSP> 5
 0.000000e+000 1.000000e+000 0.000000e+000 0.000000e+000 0.000000e+000
 0.000000e+000 8.948997e-001 1.051003e-001 0.000000e+000 0.000000e+000
 0.000000e+000 0.000000e+000 9.220843e-001 7.791572e-002 0.000000e+000
 0.000000e+000 0.000000e+000 0.000000e+000 9.863390e-001 1.366104e-002
 0.000000e+000 0.000000e+000 0.000000e+000 0.000000e+000 0.000000e+000
<ENDHMM>
~h "nawaya"
<BEGINHMM>
<NUMSTATES> 5
<STATE> 2
<MEAN> 39
 -1.713238e+001 6.918663e-001 -1.589851e+000 -1.764259e-001 -1.927897e+000 -2.723802e-001 -5.554377e-001 -1.494279e+000 -1.138617e+000 2.595670e-001 -1.884030e+000 1.476734e-001 4.512276e+001 1.077936e-001 1.975418e-001 4.488951e-001 1.801742e-001 -1.413495e-001 1.779996e-001 1.814815e-001 -3.919902e-001 -1.300443e-001 1.051062e-001 -4.103574e-001 -1.116735e-001 2.685615e-001 1.390866e-001 1.291998e-001 1.165226e-001 5.876357e-002 1.012464e-002 -6.345439e-002 -8.310633e-002 -5.650416e-002 -2.305966e-002 5.517146e-002 -5.308983e-002 -3.430347e-002 2.190673e-001
<VARIANCE> 39
 2.997399e+000 1.025785e+001 6.495494e+000 1.105152e+001 1.486669e+001 1.180733e+001 1.281714e+001 1.745919e+001 1.418138e+001 1.172388e+001 1.708816e+001 1.235750e+001 1.026822e+001 3.129454e-001 7.785419e-001 9.816134e-001 1.213412e+000 1.508855e+000 1.384435e+000 1.599453e+000 1.530193e+000 1.280439e+000 1.267247e+000 1.609329e+000 1.118358e+000 3.783811e-001 1.355060e-001 1.494850e-001 2.022517e-001 2.436302e-001 2.845724e-001 2.899098e-001 3.301729e-001 2.775829e-001 2.520994e-001 2.306757e-001 2.913171e-001 2.317949e-001 2.255179e-001
<GCONST> 8.442117e+001
<STATE> 3
<MEAN> 39
 -8.643511e+000 2.255551e+000 2.067279e+000 -3.062688e+000 -1.977300e+000 -3.801543e+000 -5.300544e+000 -2.971738e+000 1.714456e-001 4.705731e-001 -8.579817e+000 -3.431165e+000 6.356008e+001 1.281878e+000 -9.930171e-001 -9.184884e-001 -1.483198e+000 7.205450e-001 -2.349898e-001 -5.024051e-001 6.650930e-001 2.906223e-001 -2.022859e-001 -6.362242e-001 -8.164603e-001 3.366335e+000 -8.989336e-002 -3.007618e-001 -2.241363e-001 -1.349830e-001 1.244655e-001 1.855037e-001 1.783764e-001 -8.026654e-004 -6.278595e-002 -2.212146e-002 1.748480e-001 -7.449717e-002 -1.489384e-001
<VARIANCE> 39
 3.600831e+001 4.363181e+001 7.218536e+001 7.155592e+001 5.652394e+001 4.339196e+001 5.048969e+001 6.567384e+001 2.898447e+001 2.318191e+001 3.341230e+001 3.785531e+001 1.493467e+002 3.189073e+000 4.876647e+000 8.175078e+000 5.276840e+000 5.291727e+000 5.871481e+000 4.804815e+000 7.055845e+000 2.739460e+000 2.400271e+000 3.369051e+000 2.874274e+000 6.478952e+000 6.058428e-001 7.045674e-001 1.465901e+000 1.034846e+000 9.189659e-001 1.049207e+000 8.586255e-001 1.610746e+000 4.797854e-001 4.687986e-001 6.533312e-001 4.267626e-001 1.497650e+000
<GCONST> 1.391355e+002
<STATE> 4
<MEAN> 39
 -5.796120e+000 -3.749165e+000 -4.328771e+000 -1.020189e+001 -2.703468e-001 3.958953e-001 -1.712823e+000 2.058585e+000 -9.544825e-001 1.231111e-001 -3.507305e+000 -6.234964e+000 6.737194e+001 -1.960937e-001 1.094221e-001 7.617996e-002 1.688022e-001 -6.020149e-002 6.641771e-003 4.803381e-002 -4.256616e-002 -2.253594e-002 9.756262e-003 1.448870e-001 1.382243e-001 -4.623134e-001 -9.852689e-003 1.895834e-002 1.182185e-002 1.470809e-002 -1.752567e-002 -1.909422e-002 -1.412012e-002 5.792417e-003 8.853010e-003 1.316384e-003 -5.858035e-003 2.141728e-002 -1.144471e-002
<VARIANCE> 39
 4.502822e+001 2.536673e+001 4.403236e+001 8.903796e+001 7.727013e+001 6.582080e+001 2.926565e+001 4.528032e+001 3.485971e+001 3.036814e+001 5.271983e+001 6.472845e+001 1.724006e+002 4.980049e-001 1.100506e+000 1.665516e+000 1.795035e+000 2.706160e+000 2.123260e+000 1.547126e+000 2.154937e+000 1.812196e+000 1.492419e+000 2.273464e+000 2.338907e+000 8.139586e-001 5.296981e-002 1.736640e-001 1.987071e-001 2.372971e-001 3.196571e-001 2.639846e-001 2.795973e-001 3.721182e-001 3.012724e-001 2.487070e-001 3.381648e-001 3.377769e-001 7.258285e-002
<GCONST> 1.090095e+002
<TRANSP> 5
 0.000000e+000 1.000000e+000 0.000000e+000 0.000000e+000 0.000000e+000
 0.000000e+000 8.921312e-001 1.078688e-001 0.000000e+000 0.000000e+000
 0.000000e+000 0.000000e+000 8.944575e-001 1.055425e-001 0.000000e+000
 0.000000e+000 0.000000e+000 0.000000e+000 9.864047e-001 1.359534e-002
 0.000000e+000 0.000000e+000 0.000000e+000 0.000000e+000 0.000000e+000
<ENDHMM>
~h "bunyaeseo"
<BEGINHMM>
<NUMSTATES> 5
<STATE> 2
<MEAN> 39
 -1.804160e+001 5.529301e-001 -1.442410e+000 2.203958e-001 -6.006125e-001 -4.695081e-001 -6.337193e-001 -1.235076e-001 -1.253446e+000 1.171186e-001 -6.008074e-001 3.140264e-001 4.445643e+001 -1.116626e-002 -3.521609e-001 -2.202064e-001 -2.440535e-001 -1.342870e-001 -1.040907e-001 -1.779872e-001 -1.892921e-001 -1.632026e-001 9.905028e-002 2.028973e-001 4.424061e-002 1.184586e+000 -1.990652e-002 -1.782081e-001 -1.076784e-001 9.152885e-003 7.714519e-002 -6.269759e-002 -9.582433e-002 -5.949885e-003 6.684142e-002 2.012352e-002 7.092519e-002 1.251807e-002 5.637172e-001
<VARIANCE> 39
 2.502315e+000 7.147565e+000 5.636676e+000 8.754977e+000 1.354977e+001 1.407716e+001 1.491013e+001 1.552620e+001 1.463309e+001 1.416904e+001 1.152860e+001 1.513864e+001 1.462552e+001 3.727722e-001 1.433995e+000 9.146223e-001 1.255535e+000 1.620538e+000 1.487114e+000 1.552953e+000 1.729715e+000 1.783051e+000 1.841051e+000 1.537175e+000 1.741614e+000 6.061583e+000 5.672532e-002 2.221589e-001 1.611939e-001 2.065033e-001 3.059494e-001 2.538074e-001 2.711484e-001 3.430777e-001 3.461884e-001 3.179136e-001 2.721181e-001 3.616405e-001 7.273481e-001
<GCONST> 9.013929e+001
<STATE> 3
<MEAN> 39
 -1.123148e+001 -1.338900e+000 -5.623671e-002 -1.931612e+000 -2.308763e+000 -3.338164e+000 -8.240460e+000 -2.728592e+000 -3.545330e+000 8.446317e-001 5.365783e-002 -1.569352e+000 6.818626e+001 9.544635e-001 3.733069e-001 9.165413e-001 -2.379755e-001 -7.804714e-001 -2.758276e-001 -5.855129e-001 1.929071e-001 -4.187979e-001 -1.727891e-001 -3.039593e-001 -1.318107e-001 1.162643e+000 4.800795e-002 8.735989e-002 1.140363e-001 -6.709998e-003 -1.666301e-001 5.189124e-002 1.352024e-001 1.022566e-001 -2.552152e-003 -1.150463e-001 -8.703144e-002 2.918106e-003 -3.799265e-001
<VARIANCE> 39
 5.711325e+001 4.779237e+001 6.141603e+001 3.013011e+001 5.276550e+001 3.086715e+001 4.923703e+001 3.716692e+001 3.832098e+001 4.213732e+001 3.604192e+001 2.774447e+001 2.715945e+001 3.783165e+000 4.294472e+000 5.290492e+000 3.569390e+000 5.510730e+000 3.600440e+000 5.065215e+000 6.029087e+000 4.054878e+000 4.787752e+000 3.729337e+000 3.145894e+000 6.114529e+000 7.067748e-001 7.136248e-001 8.586000e-001 7.611113e-001 9.979271e-001 7.341599e-001 9.679366e-001 1.164544e+000 8.396562e-001 9.068795e-001 6.862565e-001 5.780165e-001 1.053953e+000
<GCONST> 1.365424e+002
<STATE> 4
<MEAN> 39
 -8.845426e+000 -6.057878e-001 -1.440703e+000 -7.215283e+000 -4.602907e+000 -8.682324e-001 -2.713681e+000 2.616812e+000 -3.492604e+000 1.373512e-001 -2.009044e+000 -2.123082e+000 6.579839e+001 -1.542854e-001 -9.803925e-003 -1.437462e-001 5.541105e-002 1.304799e-001 6.174045e-002 1.141964e-001 -3.374666e-002 7.671330e-002 2.106384e-002 4.269738e-002 2.186278e-002 -3.600020e-001 -9.914028e-003 1.041877e-002 -9.177132e-004 5.463747e-003 1.914410e-002 -9.830298e-003 -1.493833e-002 -1.416339e-002 -7.866298e-004 1.731930e-002 8.011160e-003 -5.074473e-003 -5.951015e-003
<VARIANCE> 39
 7.775705e+001 2.606889e+001 6.516263e+001 5.754370e+001 7.281539e+001 7.812717e+001 4.567004e+001 5.502489e+001 4.247152e+001 4.170329e+001 5.121989e+001 4.549172e+001 1.580793e+002 3.643505e+000 1.456733e+000 2.034698e+000 2.362693e+000 2.643236e+000 2.640231e+000 2.705287e+000 2.334990e+000 2.329695e+000 2.110382e+000 2.216934e+000 1.954693e+000 1.062245e+000 4.260921e-001 2.155074e-001 3.107030e-001 3.493853e-001 4.402926e-001 4.291373e-001 4.442050e-001 3.836901e-001 4.127269e-001 3.600168e-001 3.545429e-001 3.182481e-001 1.060626e-001
<GCONST> 1.200612e+002
<TRANSP> 5
 0.000000e+000 1.000000e+000 0.000000e+000 0.000000e+000 0.000000e+000
 0.000000e+000 9.009626e-001 9.903739e-002 0.000000e+000 0.000000e+000
 0.000000e+000 0.000000e+000 9.278514e-001 7.214856e-002 0.000000e+000
 0.000000e+000 0.000000e+000 0.000000e+000 9.873964e-001 1.260358e-002
 0.000000e+000 0.000000e+000 0.000000e+000 0.000000e+000 0.000000e+000
<ENDHMM>
~h "widaehan"
<BEGINHMM>
<NUMSTATES> 5
<STATE> 2
<MEAN> 39
 -1.717877e+001 1.032595e+000 -1.609849e+000 6.007392e-001 -1.602292e+000 -8.728660e-001 -4.167503e-001 -5.661380e-002 -1.492303e+000 3.660944e-002 -1.029149e+000 2.465476e-001 4.392708e+001 2.560603e-001 -1.531233e-003 2.224227e-001 3.183750e-001 -3.912566e-002 -1.601887e-001 -1.070788e-002 -7.141959e-002 -4.862810e-001 1.823130e-001 7.624359e-002 -9.611160e-002 3.027585e-001 1.716453e-001 7.260004e-002 1.966255e-001 1.547889e-001 -8.642639e-002 -8.125914e-002 -5.993059e-002 8.085794e-002 -1.278395e-001 -3.607909e-002 1.023397e-004 -7.905527e-002 2.002084e-001
<VARIANCE> 39
 4.190289e+000 3.969874e+000 5.189645e+000 9.482419e+000 1.209856e+001 1.478572e+001 1.188988e+001 1.525764e+001 1.612800e+001 1.594556e+001 1.475767e+001 9.126915e+000 7.287277e+000 2.859758e-001 5.862987e-001 9.123963e-001 1.181988e+000 1.498049e+000 1.429056e+000 1.152357e+000 1.504745e+000 1.855497e+000 1.827472e+000 1.462049e+000 1.145033e+000 2.339780e-001 1.469334e-001 1.115582e-001 2.245218e-001 2.068793e-001 2.527565e-001 2.841296e-001 2.285460e-001 2.797706e-001 3.556920e-001 3.080853e-001 2.868102e-001 1.793696e-001 1.262422e-001
<GCONST> 8.128467e+001
<STATE> 3
<MEAN> 39
 -9.210263e+000 3.957160e+000 1.179432e+001 1.184222e+000 -1.079958e+001 -7.210020e+000 -5.359977e+000 -1.357295e+000 -1.121034e+001 -2.812586e+000 1.716465e+000 -2.360424e+000 6.490652e+001 3.740341e-001 -8.167280e-002 4.849102e-001 -3.911389e-001 -7.380513e-001 -4.617026e-001 -3.344413e-001 6.247580e-002 -2.665451e-001 -3.920301e-002 2.334066e-001 -5.238910e-003 1.471052e+000 -4.674276e-002 -6.103070e-002 -7.578897e-002 -1.153177e-001 -1.854788e-002 4.626986e-002 2.625221e-002 3.999315e-002 8.281685e-002 2.882030e-002 -2.157271e-002 1.618109e-002 -4.328971e-002
<VARIANCE> 39
 2.952244e+001 3.277255e+001 7.267337e+001 4.992048e+001 7.004044e+001 4.839421e+001 4.240737e+001 3.932630e+001 4.560650e+001 3.539419e+001 2.443288e+001 2.256379e+001 1.050119e+002 4.468169e+000 4.044307e+000 7.626242e+000 4.039894e+000 8.183717e+000 3.741853e+000 4.948844e+000 3.843087e+000 5.281566e+000 3.347079e+000 2.501252e+000 2.276228e+000 1.088024e+001 8.525893e-001 7.284673e-001 1.133710e+000 7.572669e-001 1.395412e+000 7.823895e-001 9.269535e-001 6.601632e-001 8.401091e-001 6.295221e-001 4.354916e-001 4.208546e-001 1.939264e+000
<GCONST> 1.376332e+002
<STATE> 4
<MEAN> 39
 -8.989840e+000 -2.142382e-001 1.878515e+000 -1.627425e+000 -3.686805e+000 -3.853162e+000 -3.671607e+000 2.760538e+000 -1.946218e+000 1.777671e-001 -6.134569e+000 -2.690665e+000 6.271623e+001 -1.942276e-001 3.290958e-002 -2.251443e-001 9.378659e-002 3.092155e-001 1.641826e-001 1.071652e-001 -3.359481e-002 1.738088e-001 1.152322e-002 -9.145483e-002 2.952022e-002 -5.996452e-001 -1.148161e-002 1.558270e-002 3.623453e-003 2.660606e-002 2.740727e-002 -3.001209e-003 1.400149e-003 -2.406957e-002 -3.197399e-003 -1.134678e-002 -1.209207e-003 7.077026e-003 -1.484078e-002
<VARIANCE> 39
 3.916846e+001 2.271976e+001 6.245047e+001 5.233580e+001 8.021572e+001 4.521255e+001 4.366153e+001 6.297406e+001 3.165114e+001 2.775469e+001 5.967785e+001 4.668569e+001 2.036458e+002 7.686513e-001 8.995879e-001 2.712593e+000 2.443010e+000 3.039584e+000 2.277043e+000 2.160024e+000 2.818978e+000 1.829458e+000 1.742132e+000 2.246396e+000 1.702222e+000 1.066792e+000 1.062935e-001 1.358821e-001 3.283418e-001 4.017754e-001 4.143083e-001 3.930120e-001 3.729298e-001 4.809290e-001 3.172108e-001 3.224727e-001 3.326520e-001 2.890302e-001 1.287534e-001
<GCONST> 1.140627e+002
<TRANSP> 5
 0.000000e+000 1.000000e+000 0.000000e+000 0.000000e+000 0.000000e+000
 0.000000e+000 8.879541e-001 1.120460e-001 0.000000e+000 0.000000e+000
 0.000000e+000 0.000000e+000 9.546903e-001 4.530971e-002 0.000000e+000
 0.000000e+000 0.000000e+000 0.000000e+000 9.823648e-001 1.763519e-002
 0.000000e+000 0.000000e+000 0.000000e+000 0.000000e+000 0.000000e+000
<ENDHMM>
~h "gyamalo"
<BEGINHMM>
<NUMSTATES> 5
<STATE> 2
<MEAN> 39
 -1.793651e+001 7.970130e-001 -1.642392e+000 -3.574399e-002 -3.116612e-001 4.518965e-001 -7.192994e-001 1.671772e-002 -9.331999e-001 1.386224e-001 -7.232826e-001 9.781759e-001 4.435211e+001 1.323880e-002 -1.069613e-001 -1.767995e-001 -3.427086e-001 1.351558e-001 -6.813397e-002 -1.447105e-001 -1.826475e-001 -1.517177e-001 3.945562e-001 -5.416367e-002 1.095018e-001 4.742764e-001 3.456230e-002 -1.799600e-001 -2.428463e-001 -1.627550e-001 1.312130e-001 -1.245349e-001 -2.080002e-001 -8.337984e-002 -7.762910e-002 1.862594e-001 -1.150335e-001 -8.053477e-002 4.357291e-001
<VARIANCE> 39
 6.488546e+000 6.769319e+000 9.970078e+000 1.258265e+001 1.234335e+001 1.482719e+001 1.309466e+001 1.626290e+001 1.497112e+001 1.390364e+001 1.365919e+001 1.366990e+001 1.024555e+001 6.917627e-001 1.333337e+000 2.116292e+000 1.881156e+000 1.429352e+000 2.023993e+000 1.655584e+000 1.933407e+000 1.355990e+000 2.455430e+000 1.867171e+000 1.594094e+000 2.477969e+000 1.220938e-001 2.622823e-001 4.351521e-001 3.289103e-001 3.230732e-001 4.573424e-001 3.833333e-001 3.815796e-001 2.395358e-001 4.226028e-001 3.735863e-001 2.674816e-001 7.355488e-001
<GCONST> 9.636377e+001
<STATE> 3
<MEAN> 39
 -1.205026e+001 -4.375305e+000 -2.075552e+000 -4.864340e+000 -4.497409e-001 -5.499678e+000 -9.589939e+000 1.481077e+000 -4.672904e+000 5.607067e+000 -2.644204e+000 -2.133788e+000 6.594890e+001 9.289638e-001 2.591626e-002 1.047166e+000 -1.890109e-001 -9.203398e-001 -4.625001e-001 -7.674404e-001 3.356422e-001 -5.800102e-001 -1.784925e-001 1.354476e-001 -3.040221e-001 1.919456e+000 -1.320531e-002 1.001227e-001 2.125010e-001 2.786155e-002 -2.155123e-001 8.073775e-002 8.117065e-002 6.617714e-002 4.054482e-002 -1.753505e-001 6.702784e-002 3.048564e-002 -1.648351e-001
<VARIANCE> 39
 3.830438e+001 3.319169e+001 1.328824e+002 4.379557e+001 8.725816e+001 4.302089e+001 4.969995e+001 5.278664e+001 3.891224e+001 5.183583e+001 3.923627e+001 3.254816e+001 9.453977e+001 1.995736e+000 4.599000e+000 1.384293e+001 6.105309e+000 9.250929e+000 4.740908e+000 5.757297e+000 5.066564e+000 5.159928e+000 5.788886e+000 4.298655e+000 2.579654e+000 9.582168e+000 4.503104e-001 7.972462e-001 2.211606e+000 1.270901e+000 1.263363e+000 8.901608e-001 1.056858e+000 9.235903e-001 1.098165e+000 1.074615e+000 7.503541e-001 5.526485e-001 1.806002e+000
<GCONST> 1.447570e+002
<STATE> 4
<MEAN> 39
 -4.080290e+000 -9.067062e-001 -2.033524e+000 -5.832254e+000 -5.564044e+000 3.057939e-002 -5.266518e+000 -9.093846e-001 -3.767908e+000 9.879608e-001 -1.484253e+000 -3.508245e+000 6.469746e+001 -1.595487e-001 1.866804e-002 -1.631021e-001 6.056708e-002 1.250509e-001 7.304033e-002 1.522659e-001 -4.605259e-002 1.003559e-001 -2.774535e-002 -1.970079e-002 3.723684e-002 -3.936597e-001 -3.134973e-003 2.756166e-003 -9.678171e-003 1.799337e-002 1.854478e-002 -6.223287e-003 1.090585e-002 -4.417848e-003 1.450573e-003 8.963688e-003 -2.404704e-003 -2.666751e-003 -2.247849e-002
<VARIANCE> 39
 5.277121e+001 2.910833e+001 4.273966e+001 9.295467e+001 4.828090e+001 9.249406e+001 6.743068e+001 7.157291e+001 5.529124e+001 4.579812e+001 6.703225e+001 4.785361e+001 1.554216e+002 7.319931e-001 1.136156e+000 2.519636e+000 4.632497e+000 2.896640e+000 3.888065e+000 2.770674e+000 3.626979e+000 3.383541e+000 2.452697e+000 2.903124e+000 2.072204e+000 1.157308e+000 9.314704e-002 1.679131e-001 4.177622e-001 6.425024e-001 5.106927e-001 5.330921e-001 4.395772e-001 5.508449e-001 5.478859e-001 4.353252e-001 4.282301e-001 3.577288e-001 1.310506e-001
<GCONST> 1.226682e+002
<TRANSP> 5
 0.000000e+000 1.000000e+000 0.000000e+000 0.000000e+000 0.000000e+000
 0.000000e+000 8.891521e-001 1.108479e-001 0.000000e+000 0.000000e+000
 0.000000e+000 0.000000e+000 9.266130e-001 7.338708e-002 0.000000e+000
 0.000000e+000 0.000000e+000 0.000000e+000 9.873661e-001 1.263388e-002
 0.000000e+000 0.000000e+000 0.000000e+000 0.000000e+000 0.000000e+000
<ENDHMM>
~h "uioero"
<BEGINHMM>
<NUMSTATES> 5
<STATE> 2
<MEAN> 39
 -1.754312e+001 5.735296e-001 -2.944534e+000 1.502596e-001 3.240738e-001 -5.792325e-001 -2.124969e+000 9.809272e-001 -6.483993e-001 7.322503e-001 -1.076562e+000 -1.099214e+000 4.514904e+001 1.425753e-001 1.995320e-001 2.300024e-002 -1.877842e-001 9.165567e-002 1.493268e-001 -2.790517e-001 -7.671404e-002 -4.379559e-001 2.809958e-001 2.530685e-001 -1.984285e-001 2.375070e-001 1.343272e-001 9.967053e-002 8.194441e-002 -8.006777e-002 2.057366e-002 7.110357e-002 -1.699973e-001 -6.628899e-004 -8.376052e-002 5.714545e-002 1.121994e-001 -1.109294e-001 2.501638e-001
<VARIANCE> 39
 5.924479e+000 6.935707e+000 1.172050e+001 9.671422e+000 1.246857e+001 1.541590e+001 2.296892e+001 1.419429e+001 2.059708e+001 1.938352e+001 1.370441e+001 1.374896e+001 1.123807e+001 4.798359e-001 1.074364e+000 1.205273e+000 1.238252e+000 1.345356e+000 1.759259e+000 2.739826e+000 1.575074e+000 2.182249e+000 2.165148e+000 1.469591e+000 1.497533e+000 4.712242e-001 2.006134e-001 2.060944e-001 2.118251e-001 2.228609e-001 2.350219e-001 3.420653e-001 4.805370e-001 2.941728e-001 3.647347e-001 3.352677e-001 2.437706e-001 2.552242e-001 1.421196e-001
<GCONST> 9.092154e+001
<STATE> 3
<MEAN> 39
 -7.557064e+000 3.704531e+000 2.043417e+000 -3.195355e+000 -4.168084e+000 -5.112185e-001 -1.291718e+001 -1.942810e+000 -7.786553e+000 2.866092e+000 3.658736e+000 -6.667267e+000 6.035708e+001 1.757460e+000 -3.092760e-002 1.239867e+000 -3.061910e-001 -1.603066e+000 -5.050753e-001 -1.456852e+000 -4.563030e-001 -1.123150e+000 -3.567318e-001 6.650199e-001 -6.073292e-001 3.174302e+000 -2.208074e-001 -1.285638e-001 5.312921e-002 8.965367e-002 -1.957580e-001 -8.608973e-002 2.624145e-001 -5.308640e-004 3.455939e-002 -1.875558e-001 -8.375906e-002 1.403377e-001 -1.377016e-001
<VARIANCE> 39
 5.735209e+001 2.763443e+001 5.363973e+001 3.007877e+001 6.415073e+001 7.257758e+001 6.005697e+001 8.264764e+001 5.458657e+001 3.693270e+001 4.830241e+001 4.662902e+001 1.096424e+002 4.682870e+000 3.481480e+000 2.924866e+000 2.665664e+000 3.437059e+000 2.945401e+000 6.007676e+000 4.737294e+000 3.712233e+000 2.926370e+000 2.789525e+000 3.109776e+000 4.654935e+000 9.138320e-001 6.784867e-001 4.345603e-001 4.598337e-001 7.524990e-001 5.395705e-001 1.186558e+000 8.200659e-001 6.437784e-001 4.021933e-001 5.437194e-001 5.815181e-001 1.159903e+000
<GCONST> 1.346341e+002
<STATE> 4
<MEAN> 39
 -4.698859e+000 2.739476e-001 1.201911e+000 -5.236501e+000 -9.029002e+000 -2.380221e-001 -6.682232e+000 -9.421802e-002 -7.111980e+000 -2.807869e-001 2.639200e+000 -2.237488e+000 6.402338e+001 -1.962735e-001 -9.146212e-003 -1.280191e-001 5.620361e-002 1.462784e-001 6.467551e-002 2.283111e-001 3.631955e-002 1.540174e-001 -2.353727e-002 -9.224534e-002 1.077296e-001 -3.849699e-001 2.346020e-003 1.373827e-003 -1.505919e-002 -4.279593e-003 1.976867e-002 4.242276e-003 -4.440803e-003 4.909184e-003 1.122463e-002 7.134763e-003 -5.005117e-003 -5.222163e-003 -1.510223e-002
<VARIANCE> 39
 5.842591e+001 2.690266e+001 7.002795e+001 6.796041e+001 6.644983e+001 9.529802e+001 8.634783e+001 6.572215e+001 5.785532e+001 4.193233e+001 6.102504e+001 3.078845e+001 1.498093e+002 9.758960e-001 9.788920e-001 1.569913e+000 2.903467e+000 2.271365e+000 2.716748e+000 2.796306e+000 2.899389e+000 2.464154e+000 2.173991e+000 2.557645e+000 1.480538e+000 8.512353e-001 1.287186e-001 1.419572e-001 2.227012e-001 4.113441e-001 3.931851e-001 3.868515e-001 4.510795e-001 4.491825e-001 4.005035e-001 3.967761e-001 4.184065e-001 2.651874e-001 9.929036e-002
<GCONST> 1.172567e+002
<TRANSP> 5
 0.000000e+000 1.000000e+000 0.000000e+000 0.000000e+000 0.000000e+000
 0.000000e+000 8.924137e-001 1.075863e-001 0.000000e+000 0.000000e+000
 0.000000e+000 0.000000e+000 8.718015e-001 1.281985e-001 0.000000e+000
 0.000000e+000 0.000000e+000 0.000000e+000 9.863023e-001 1.369775e-002
 0.000000e+000 0.000000e+000 0.000000e+000 0.000000e+000 0.000000e+000
<ENDHMM>
~h "jayuwa"
<BEGINHMM>
<NUMSTATES> 5
<STATE> 2
<MEAN> 39
 -1.773820e+001 1.622608e+000 -1.055035e+000 -4.258088e-001 -8.528612e-001 -1.582542e+000 -2.178522e+000 -1.399384e+000 -1.728571e+000 5.669046e-001 -3.029532e-001 6.444829e-001 4.485754e+001 -2.510023e-001 -1.867802e-001 9.937275e-003 -5.171368e-001 2.516266e-001 -3.572506e-002 1.314355e-001 -5.181400e-002 -2.138487e-001 1.824848e-001 -8.499047e-002 -1.619640e-001 8.273099e-001 -1.616886e-001 -2.244877e-002 -4.925235e-002 -2.030891e-001 5.604527e-002 -1.971582e-001 -2.188720e-002 4.451191e-002 -3.848185e-002 -2.172649e-002 3.168894e-002 4.969481e-002 4.708331e-001
<VARIANCE> 39
 5.593081e+000 7.847775e+000 9.409039e+000 1.398411e+001 1.920147e+001 2.220410e+001 2.125181e+001 1.835384e+001 1.753327e+001 1.804685e+001 9.197077e+000 1.735188e+001 9.601974e+000 9.272460e-001 1.125324e+000 1.233650e+000 2.280667e+000 2.412103e+000 2.401920e+000 1.864779e+000 2.156179e+000 1.945524e+000 2.148313e+000 9.732621e-001 1.977396e+000 3.105597e+000 2.240999e-001 1.915011e-001 1.843863e-001 3.873985e-001 5.292811e-001 4.151435e-001 3.356163e-001 4.046476e-001 3.814726e-001 4.286197e-001 1.850264e-001 3.515205e-001 6.644568e-001
<GCONST> 9.864319e+001
<STATE> 3
<MEAN> 39
 -1.735054e+001 -3.710243e+000 -3.626724e+000 -9.094366e+000 1.256824e+000 -3.663259e+000 -7.587367e-001 3.091485e+000 6.355035e-002 -1.092259e+000 -3.997879e+000 -5.892404e-001 7.054774e+001 1.116568e+000 -5.205986e-001 -1.053299e-001 -4.658843e-001 -2.250664e-001 -2.809892e-002 -6.466643e-002 5.074139e-001 4.440819e-001 -3.389893e-001 -5.460280e-001 -4.519454e-001 1.929387e+000 1.345867e-001 4.079368e-002 1.670730e-001 1.179043e-001 -2.023787e-001 2.782936e-002 -1.030656e-001 3.686462e-002 2.067863e-002 9.181825e-003 3.991790e-002 1.384191e-002 -3.005287e-001
<VARIANCE> 39
 8.740497e+001 3.571870e+001 2.680512e+001 3.534782e+001 3.136913e+001 3.701725e+001 3.016304e+001 3.479551e+001 2.982969e+001 3.102840e+001 3.790471e+001 3.143355e+001 7.458477e+001 6.503359e+000 3.721115e+000 2.638680e+000 5.080076e+000 3.658327e+000 4.772709e+000 3.858346e+000 4.278537e+000 2.591685e+000 2.754013e+000 3.072782e+000 2.653496e+000 5.610551e+000 1.006425e+000 8.603822e-001 5.611929e-001 1.042079e+000 6.997058e-001 9.929992e-001 6.946192e-001 8.660149e-001 4.989066e-001 5.297904e-001 6.314647e-001 5.384759e-001 8.327116e-001
<GCONST> 1.319048e+002
<STATE> 4
<MEAN> 39
 -5.373191e+000 -5.211943e-001 -2.740606e+000 -9.260923e+000 -2.973246e+000 2.306906e+000 -5.826126e+000 -2.632528e-001 -4.281994e+000 5.087908e-001 -4.649105e-001 -4.602163e+000 6.516962e+001 -2.002705e-001 1.274835e-001 1.600026e-002 1.672653e-001 3.100222e-002 5.446127e-002 2.412905e-002 -1.010543e-001 -6.646094e-002 3.644260e-002 1.036236e-001 9.095673e-002 -5.164902e-001 -4.627511e-003 -2.086313e-003 -2.827111e-002 6.876629e-003 3.059626e-002 1.122830e-002 1.698470e-002 -1.479292e-002 7.569923e-003 -7.043141e-003 -1.212876e-002 -2.388489e-003 -6.476536e-003
<VARIANCE> 39
 4.916078e+001 3.524363e+001 8.369202e+001 8.771281e+001 9.533265e+001 7.161263e+001 6.045924e+001 4.412045e+001 5.816126e+001 4.056915e+001 5.338235e+001 6.402685e+001 1.587500e+002 5.781844e-001 1.301325e+000 2.656355e+000 2.340626e+000 2.759189e+000 2.264821e+000 2.230153e+000 2.169389e+000 2.599771e+000 2.086243e+000 2.106313e+000 2.225111e+000 8.611827e-001 6.676723e-002 1.758406e-001 2.674654e-001 3.089922e-001 3.505814e-001 3.477050e-001 3.563036e-001 4.024267e-001 4.243605e-001 3.690375e-001 3.310328e-001 3.332512e-001 6.733039e-002
<GCONST> 1.160203e+002
<TRANSP> 5
 0.000000e+000 1.000000e+000 0.000000e+000 0.000000e+000 0.000000e+000
 0.000000e+000 8.960070e-001 1.039930e-001 0.000000e+000 0.000000e+000
 0.000000e+000 0.000000e+000 9.303405e-001 6.965949e-002 0.000000e+000
 0.000000e+000 0.000000e+000 0.000000e+000 9.858213e-001 1.417868e-002
 0.000000e+000 0.000000e+000 0.000000e+000 0.000000e+000 0.000000e+000
<ENDHMM>
~h "gwaeoni"
<BEGINHMM>
<NUMSTATES> 5
<STATE> 2
<MEAN> 39
 -1.734989e+001 6.515458e-001 -1.836038e+000 -1.072880e+000 -1.629877e+000 -3.856690e-001 -8.636380e-001 -3.139760e-001 -1.591588e+000 3.627920e-001 5.253139e-001 6.241634e-001 4.467955e+001 1.034824e-001 -4.282024e-002 -7.472780e-002 -2.748053e-001 -1.432201e-001 -9.123748e-002 2.092089e-002 -3.841255e-002 -8.308711e-002 3.782519e-002 -5.002718e-002 6.502432e-002 3.154233e-001 1.416950e-001 1.618394e-002 -1.864939e-001 -3.010252e-001 -9.294740e-002 2.574251e-002 -7.131722e-002 9.288147e-002 -7.013423e-002 1.020863e-001 -1.210254e-001 -7.470568e-002 3.010368e-001
<VARIANCE> 39
 3.787151e+000 9.045572e+000 7.172849e+000 1.495681e+001 1.641470e+001 1.429539e+001 1.574178e+001 1.931761e+001 1.699104e+001 1.952231e+001 1.370100e+001 1.082136e+001 9.790818e+000 4.217442e-001 1.419620e+000 1.278669e+000 1.705381e+000 2.055445e+000 1.800677e+000 1.972048e+000 2.218023e+000 2.292350e+000 2.297264e+000 1.343485e+000 1.092244e+000 1.217019e+000 1.040576e-001 2.216928e-001 3.572443e-001 4.683606e-001 3.383665e-001 2.721145e-001 2.917947e-001 4.056750e-001 4.982731e-001 4.531789e-001 2.483783e-001 2.381680e-001 3.756002e-001
<GCONST> 9.406780e+001
<STATE> 3
<MEAN> 39
 -9.998625e+000 -2.073842e-001 -9.327145e+000 -1.481870e+001 -1.841264e+000 4.691331e+000 -1.264606e+000 1.426489e+000 -5.205599e+000 3.502012e+000 3.463359e-001 -4.257547e+000 6.331383e+001 1.229386e+000 -3.330218e-001 -3.769071e-001 -1.348430e+000 2.501685e-001 7.135476e-001 4.281836e-002 -1.747936e-001 -4.050254e-001 2.008297e-001 1.292505e-001 -7.429883e-001 2.194121e+000 -3.838322e-002 -6.213668e-002 1.063666e-001 1.070281e-001 7.745039e-002 -5.007996e-002 1.745592e-002 -5.915781e-002 9.399579e-002 -6.035734e-002 3.244759e-002 4.629005e-003 -9.564190e-002
<VARIANCE> 39
 4.476254e+001 2.738227e+001 3.566521e+001 6.542231e+001 5.897845e+001 5.824908e+001 3.370475e+001 5.102093e+001 4.212750e+001 3.465247e+001 3.108148e+001 3.806892e+001 8.709570e+001 3.319103e+000 3.305102e+000 5.398549e+000 7.306008e+000 4.921314e+000 5.232147e+000 3.533520e+000 5.579571e+000 4.859458e+000 3.204222e+000 3.475870e+000 3.439261e+000 4.475977e+000 7.658603e-001 6.888249e-001 9.234424e-001 1.383570e+000 9.157264e-001 1.049824e+000 6.970470e-001 1.069962e+000 1.094079e+000 6.378409e-001 6.904284e-001 6.347011e-001 9.165962e-001
<GCONST> 1.379903e+002
<STATE> 4
<MEAN> 39
 -7.188601e+000 3.157614e+000 2.998301e+000 -1.082636e+001 -5.677763e+000 3.131146e+000 -3.560675e+000 -2.633487e+000 -6.016927e+000 1.989252e+000 -1.151353e+000 -4.727318e+000 6.423393e+001 -2.446888e-001 7.473739e-002 7.909308e-002 2.927723e-001 -2.354518e-002 -1.202968e-001 -1.493823e-003 1.544320e-002 7.364450e-002 -5.851195e-002 -1.728275e-002 1.302685e-001 -4.457842e-001 -1.060105e-002 1.007405e-002 -1.156060e-003 1.466802e-002 -4.982582e-003 1.238824e-002 4.063030e-003 -2.173596e-004 -5.006079e-003 1.601489e-003 4.771969e-003 4.976647e-003 -2.074317e-002
<VARIANCE> 39
 5.133882e+001 5.306973e+001 1.048860e+002 1.163771e+002 8.092925e+001 5.251347e+001 4.678594e+001 4.738461e+001 4.893208e+001 3.795214e+001 4.780509e+001 4.649272e+001 1.546203e+002 4.950555e-001 1.037101e+000 1.963942e+000 2.584502e+000 2.268397e+000 2.723243e+000 2.240483e+000 2.506058e+000 2.101267e+000 1.757169e+000 1.986116e+000 1.345825e+000 8.895646e-001 8.899930e-002 1.358297e-001 2.527301e-001 3.399987e-001 3.724093e-001 4.633215e-001 3.775011e-001 4.776280e-001 3.449233e-001 2.944755e-001 3.171010e-001 2.373176e-001 1.106351e-001
<GCONST> 1.145909e+002
<TRANSP> 5
 0.000000e+000 1.000000e+000 0.000000e+000 0.000000e+000 0.000000e+000
 0.000000e+000 8.841465e-001 1.158535e-001 0.000000e+000 0.000000e+000
 0.000000e+000 0.000000e+000 9.246635e-001 7.533640e-002 0.000000e+000
 0.000000e+000 0.000000e+000 0.000000e+000 9.864305e-001 1.356951e-002
 0.000000e+000 0.000000e+000 0.000000e+000 0.000000e+000 0.000000e+000
<ENDHMM>
~h "ijipteu"
<BEGINHMM>
<NUMSTATES> 5
<STATE> 2
<MEAN> 39
 -1.805117e+001 1.690056e+000 -6.576529e-001 -2.372085e-001 -7.882912e-001 -1.740730e-001 -1.026572e+000 3.606773e-001 -1.482230e+000 -2.255300e-001 -1.006974e+000 -3.095862e-002 4.376396e+001 -2.222844e-001 1.541430e-001 6.809084e-001 -3.365914e-001 -1.350690e-001 5.588002e-002 -4.419169e-001 1.935638e-001 -3.026523e-001 1.754651e-001 2.231810e-001 -1.168542e-001 3.233083e-001 3.570446e-002 1.161170e-001 3.472691e-001 -7.438152e-002 -1.875663e-001 1.157203e-001 -1.471566e-001 -8.441522e-002 -1.997856e-001 -2.484710e-002 7.386925e-002 -1.114442e-001 2.810048e-001
<VARIANCE> 39
 3.968710e+000 3.597100e+000 7.510430e+000 9.536871e+000 1.082055e+001 1.175309e+001 1.574811e+001 1.552287e+001 1.395439e+001 1.179784e+001 1.177564e+001 1.096019e+001 8.222919e+000 3.840689e-001 4.083415e-001 1.444263e+000 9.093608e-001 1.406844e+000 1.444952e+000 1.780878e+000 2.045384e+000 1.584112e+000 1.448497e+000 1.453711e+000 1.246031e+000 3.567493e-001 1.463270e-001 9.724683e-002 2.947973e-001 1.388232e-001 3.526368e-001 2.593586e-001 3.928990e-001 3.895524e-001 2.480564e-001 2.484042e-001 2.858700e-001 2.375330e-001 2.222931e-001
<GCONST> 8.314132e+001
<STATE> 3
<MEAN> 39
 -1.589062e+001 8.416322e+000 1.409923e+001 -3.959866e+000 -7.517168e+000 -3.967758e+000 -7.418276e+000 -4.226608e+000 -9.468093e+000 -2.623083e+000 4.181328e-001 -2.114239e+000 6.720916e+001 4.641274e-001 1.223624e-001 3.109786e-001 1.570278e-001 -2.301814e-001 -4.096615e-001 -1.105610e-001 -2.170926e-001 -1.219351e-001 -1.695119e-001 -3.484149e-002 5.586499e-002 6.029546e-001 -2.226574e-002 -2.451666e-002 -1.911881e-001 6.685521e-002 1.308538e-001 -2.287945e-003 9.881686e-002 2.277464e-002 9.943380e-002 2.015289e-002 -4.957731e-002 4.048669e-002 -2.709393e-001
<VARIANCE> 39
 6.045626e+001 3.974465e+001 6.776003e+001 3.221503e+001 8.313662e+001 4.714497e+001 4.505014e+001 3.794551e+001 3.391140e+001 3.401878e+001 2.709761e+001 2.279476e+001 7.879943e+001 6.368635e+000 3.971181e+000 7.889359e+000 3.682096e+000 9.668244e+000 3.432719e+000 4.901984e+000 2.822503e+000 3.954752e+000 2.973695e+000 2.583816e+000 2.153417e+000 1.011994e+001 1.010281e+000 7.694464e-001 9.968118e-001 6.877012e-001 1.513679e+000 7.096208e-001 7.945646e-001 5.923463e-001 6.627665e-001 5.621667e-001 4.710104e-001 4.261941e-001 1.235900e+000
<GCONST> 1.362429e+002
<STATE> 4
<MEAN> 39
 -1.263789e+001 1.362719e+000 6.538957e-001 -3.236882e-001 -3.398913e+000 -5.002833e+000 -4.228446e+000 1.642411e-001 -2.701251e+000 -9.204013e-002 -4.308059e-001 -7.527079e-001 5.670127e+001 -1.679149e-001 -7.498222e-002 -2.300330e-001 -3.620822e-002 1.149313e-001 1.675334e-001 1.038632e-001 5.461946e-002 1.112347e-001 3.757231e-002 -3.721692e-002 -1.553904e-002 -2.973525e-001 4.617961e-003 -5.910821e-003 3.010441e-002 -2.482113e-002 -3.609962e-002 -1.205747e-002 -1.240268e-002 -5.047135e-003 -2.343877e-002 -1.516785e-002 1.006354e-003 -7.453581e-003 7.367422e-002
<VARIANCE> 39
 5.255187e+001 2.408304e+001 3.728553e+001 2.156894e+001 3.693368e+001 5.509408e+001 6.293386e+001 3.962599e+001 3.026296e+001 2.676930e+001 3.253614e+001 3.544782e+001 1.559589e+002 2.121163e+000 1.935562e+000 2.390811e+000 2.000080e+000 2.631035e+000 2.539580e+000 3.798600e+000 2.354280e+000 1.949505e+000 2.004625e+000 1.974492e+000 1.908286e+000 6.125922e+000 2.932583e-001 3.656714e-001 3.789502e-001 3.769227e-001 4.688393e-001 4.201936e-001 6.177567e-001 4.227048e-001 3.563233e-001 3.558744e-001 3.619820e-001 3.301405e-001 8.318479e-001
<GCONST> 1.197971e+002
<TRANSP> 5
 0.000000e+000 1.000000e+000 0.000000e+000 0.000000e+000 0.000000e+000
 0.000000e+000 8.834819e-001 1.165181e-001 0.000000e+000 0.000000e+000
 0.000000e+000 0.000000e+000 9.606188e-001 3.938122e-002 0.000000e+000
 0.000000e+000 0.000000e+000 0.000000e+000 9.833679e-001 1.663207e-002
 0.000000e+000 0.000000e+000 0.000000e+000 0.000000e+000 0.000000e+000
<ENDHMM>
~h "gege"
<BEGINHMM>
<NUMSTATES> 5
<STATE> 2
<MEAN> 39
 -1.780657e+001 5.749485e-001 -2.076740e+000 1.066251e-001 -5.713298e-001 -3.618751e-001 -5.770899e-001 -4.284084e-002 -6.399658e-001 1.866124e-001 -8.997023e-001 9.591905e-002 4.447473e+001 6.889560e-002 -6.541652e-002 -2.314844e-001 -2.016551e-001 3.324890e-001 -1.709123e-001 -2.549012e-001 -1.334740e-001 -1.299542e-001 2.413619e-001 -1.843281e-001 1.244032e-001 3.910953e-001 8.779872e-002 -2.090594e-001 -2.852033e-001 -2.171751e-001 1.380287e-001 -1.045449e-001 -2.002407e-001 2.421517e-002 -2.803610e-002 1.958361e-001 -8.488694e-002 -6.954277e-002 4.947695e-001
<VARIANCE> 39
 5.074351e+000 9.792857e+000 8.946765e+000 1.806461e+001 1.234099e+001 1.560312e+001 1.471393e+001 1.487961e+001 1.850212e+001 1.616809e+001 1.194354e+001 1.092268e+001 1.251896e+001 6.148864e-001 1.414204e+000 1.537292e+000 2.240379e+000 1.830748e+000 1.837311e+000 1.838928e+000 1.875496e+000 2.115280e+000 2.460023e+000 1.568418e+000 1.546325e+000 2.639664e+000 1.078881e-001 3.258643e-001 3.128936e-001 4.858439e-001 4.004718e-001 3.961972e-001 4.356603e-001 3.905115e-001 4.361627e-001 4.828508e-001 3.370651e-001 2.801331e-001 9.023439e-001
<GCONST> 9.860629e+001
<STATE> 3
<MEAN> 39
 -1.343168e+001 -4.689018e+000 -5.391996e+000 -2.951092e+000 2.269664e+000 -8.471251e+000 -1.032138e+001 6.058331e-001 -2.553233e+000 5.870555e+000 -3.474166e+000 -1.035166e+000 6.605981e+001 1.101888e+000 2.167133e-001 1.363010e+000 6.718361e-002 -1.192646e+000 -6.588016e-001 -1.195332e+000 3.154354e-001 -8.199413e-001 -3.089881e-001 2.398393e-001 -4.035444e-001 2.278042e+000 1.571256e-002 2.115103e-001 4.595845e-001 6.713107e-002 -4.583497e-001 1.535506e-001 1.205307e-001 3.720501e-002 -1.617051e-001 -2.477079e-001 2.119959e-001 -4.568561e-002 -2.847512e-001
<VARIANCE> 39
 3.548610e+001 3.291881e+001 8.834733e+001 4.893172e+001 5.570541e+001 4.553212e+001 4.492303e+001 2.119394e+001 3.629833e+001 5.743745e+001 3.054634e+001 3.128847e+001 6.487714e+001 3.904265e+000 5.098259e+000 1.020448e+001 7.157146e+000 7.319863e+000 5.136631e+000 4.141873e+000 2.587352e+000 4.848465e+000 6.845448e+000 3.861224e+000 2.578872e+000 1.109513e+001 9.027639e-001 7.717422e-001 1.221591e+000 1.326000e+000 6.757655e-001 8.172369e-001 7.864727e-001 4.841717e-001 7.538813e-001 9.048181e-001 5.301547e-001 4.213423e-001 1.914207e+000
<GCONST> 1.393040e+002
<STATE> 4
<MEAN> 39
 -1.029551e+001 5.075250e-001 8.105022e+000 -3.657211e+000 -1.197145e+001 -5.757995e+000 -3.633463e+000 1.994288e+000 -7.857369e+000 4.522722e-001 1.492223e+000 -1.985063e+000 6.472568e+001 -1.856644e-001 -3.365824e-003 -1.670418e-001 1.110553e-002 1.434313e-001 1.413121e-001 2.138233e-001 -5.494947e-002 1.346067e-001 -1.817255e-002 -1.995084e-002 6.441529e-002 -4.273188e-001 -1.349075e-002 -4.220163e-003 -2.855968e-002 1.845191e-002 4.823095e-002 6.440704e-004 1.074658e-002 -3.720836e-003 3.490094e-002 9.510648e-003 -1.718487e-002 4.091212e-003 -2.804490e-002
<VARIANCE> 39
 2.842582e+001 2.432467e+001 6.257236e+001 3.681008e+001 7.464946e+001 5.230465e+001 7.002557e+001 5.818535e+001 5.788580e+001 5.090085e+001 4.204295e+001 3.542445e+001 1.792947e+002 1.231862e+000 1.760071e+000 1.853365e+000 1.631232e+000 2.749316e+000 1.982259e+000 2.448653e+000 2.257351e+000 2.628331e+000 2.065703e+000 1.756286e+000 1.525463e+000 3.098119e+000 2.304691e-001 3.163540e-001 2.950773e-001 2.902050e-001 4.368908e-001 3.675108e-001 4.204378e-001 3.538400e-001 4.875524e-001 3.884814e-001 3.006187e-001 2.743630e-001 4.155049e-001
<GCONST> 1.182696e+002
<TRANSP> 5
 0.000000e+000 1.000000e+000 0.000000e+000 0.000000e+000 0.000000e+000
 0.000000e+000 8.990487e-001 1.009513e-001 0.000000e+000 0.000000e+000
 0.000000e+000 0.000000e+000 9.069766e-001 9.302344e-002 0.000000e+000
 0.000000e+000 0.000000e+000 0.000000e+000 9.856824e-001 1.431757e-002
 0.000000e+000 0.000000e+000 0.000000e+000 0.000000e+000 0.000000e+000
<ENDHMM>
~h "dwaesseubnida"
<BEGINHMM>
<NUMSTATES> 5
<STATE> 2
<MEAN> 39
 -1.795119e+001 8.265020e-001 -1.536685e+000 -2.406613e-002 -4.679107e-001 1.675412e-001 -2.570841e-001 2.906664e-001 -8.860456e-001 8.774064e-001 1.369265e-001 9.280375e-001 4.418893e+001 -2.951579e-002 -1.711908e-001 -1.153672e-002 -3.293981e-001 1.144236e-001 -5.450847e-002 -4.195027e-002 8.881524e-002 -1.606581e-001 -1.052796e-001 1.629243e-002 -5.742020e-002 4.690956e-001 -5.938396e-003 -8.353960e-002 1.005406e-002 -2.454943e-001 -5.730840e-002 -1.859495e-001 1.640161e-002 -1.646825e-003 -3.820296e-002 -1.969392e-002 6.932690e-003 1.009840e-001 4.734077e-001
<VARIANCE> 39
 2.880782e+000 4.047879e+000 5.857963e+000 9.678235e+000 1.064239e+001 1.127490e+001 1.694347e+001 1.346460e+001 1.352899e+001 1.481180e+001 1.235443e+001 8.704763e+000 7.194463e+000 2.652172e-001 7.114222e-001 6.809954e-001 1.918288e+000 1.343536e+000 1.252009e+000 1.438452e+000 1.421974e+000 1.441681e+000 1.626917e+000 1.198782e+000 9.818550e-001 2.377422e+000 5.613469e-002 1.404205e-001 1.459583e-001 3.260863e-001 2.189652e-001 2.317041e-001 2.729080e-001 2.597261e-001 2.707437e-001 3.296870e-001 2.471336e-001 2.413911e-001 7.806445e-001
<GCONST> 8.305766e+001
<STATE> 3
<MEAN> 39
 -1.670622e+001 -2.307817e+000 -3.826737e-001 -5.825242e+000 -2.252302e+000 -7.723091e+000 -8.438599e-001 1.496228e+000 -2.249539e+000 5.699133e-001 -3.059136e-001 2.677111e+000 6.330116e+001 1.059007e+000 -1.325675e-001 6.228950e-001 7.755553e-002 -7.565315e-001 -1.207365e+000 -2.984004e-001 5.486705e-001 -2.297998e-001 1.445243e-001 -4.781089e-001 2.937570e-002 2.805579e+000 3.447080e-001 2.008805e-001 1.512255e-001 3.091722e-001 -1.968703e-001 7.746945e-002 -2.343871e-001 8.364184e-002 -4.143401e-002 4.665336e-002 -6.676037e-002 -2.349154e-001 -4.131197e-001
<VARIANCE> 39
 2.812807e+001 2.244744e+001 1.979524e+001 4.583561e+001 2.780511e+001 3.292915e+001 2.579363e+001 2.654363e+001 2.013700e+001 2.577211e+001 2.165802e+001 3.236687e+001 1.236100e+002 4.622816e+000 2.670429e+000 2.866685e+000 7.909208e+000 3.517254e+000 4.219229e+000 3.768563e+000 2.801682e+000 2.929660e+000 3.338614e+000 2.290730e+000 5.258257e+000 1.365199e+001 6.100844e-001 4.940250e-001 4.820553e-001 1.643801e+000 6.779543e-001 7.698734e-001 6.063378e-001 5.518099e-001 5.012918e-001 6.038541e-001 4.425724e-001 9.017932e-001 2.244608e+000
<GCONST> 1.294953e+002
<STATE> 4
<MEAN> 39
 -1.075508e+001 9.957802e-001 -6.333441e-001 -3.891304e+000 -2.580943e+000 -3.497220e+000 -3.268112e+000 3.793631e-001 -2.447242e+000 -1.595489e-001 -3.896931e+000 -2.932955e+000 6.427052e+001 -9.716066e-002 3.003467e-002 -7.559276e-002 3.294225e-002 7.718077e-002 1.299167e-001 2.318298e-002 -6.342506e-002 2.551565e-002 -3.435156e-002 3.871063e-002 -1.532373e-002 -3.321158e-001 -3.266441e-002 -9.672849e-003 -1.846115e-002 -3.672698e-003 2.676432e-002 8.446326e-003 1.890430e-002 -1.195716e-002 7.551115e-003 -5.215764e-003 1.063208e-002 9.741395e-003 -1.532154e-002
<VARIANCE> 39
 8.671677e+001 3.719424e+001 7.473081e+001 4.293070e+001 8.275951e+001 5.982706e+001 3.784306e+001 5.286227e+001 4.915541e+001 2.977493e+001 4.004738e+001 4.516269e+001 1.322036e+002 4.616686e+000 1.945760e+000 2.960983e+000 2.968179e+000 3.842382e+000 2.847505e+000 2.878864e+000 3.170014e+000 2.824222e+000 2.040690e+000 2.486567e+000 2.342870e+000 3.033265e+000 6.430640e-001 3.125730e-001 4.482422e-001 5.136173e-001 6.446453e-001 5.275306e-001 5.401433e-001 5.552908e-001 4.804866e-001 3.898849e-001 4.334697e-001 4.158077e-001 4.707943e-001
<GCONST> 1.277097e+002
<TRANSP> 5
 0.000000e+000 1.000000e+000 0.000000e+000 0.000000e+000 0.000000e+000
 0.000000e+000 8.967705e-001 1.032295e-001 0.000000e+000 0.000000e+000
 0.000000e+000 0.000000e+000 8.774166e-001 1.225833e-001 0.000000e+000
 0.000000e+000 0.000000e+000 0.000000e+000 9.880604e-001 1.193957e-002
 0.000000e+000 0.000000e+000 0.000000e+000 0.000000e+000 0.000000e+000
<ENDHMM>
~h "yadangui"
<BEGINHMM>
<NUMSTATES> 5
<STATE> 2
<MEAN> 39
 -1.850134e+001 1.839581e+000 -2.109443e-001 -1.946407e+000 -1.159336e+000 -8.089052e-001 -5.236654e-001 3.880839e-001 -3.553843e+000 3.759299e-001 -8.226985e-001 -4.415213e-001 4.456759e+001 -4.813455e-002 2.763532e-001 5.789158e-001 -4.138709e-001 -3.320503e-002 -4.649117e-002 -2.084741e-001 2.436269e-001 -4.528798e-001 2.102119e-001 -2.176259e-003 -5.905680e-002 4.825184e-001 1.873565e-001 1.501582e-001 2.305001e-001 1.936282e-003 -7.173748e-002 -1.926673e-002 -7.929620e-002 8.625783e-002 -3.595296e-002 5.559046e-003 -3.202899e-002 2.207820e-002 2.540367e-001
<VARIANCE> 39
 5.985424e+000 5.478892e+000 1.114032e+001 1.738493e+001 2.338873e+001 1.187165e+001 1.595097e+001 2.050035e+001 1.823976e+001 1.505567e+001 1.363521e+001 1.571258e+001 1.325632e+001 5.637462e-001 7.915091e-001 1.273389e+000 2.075193e+000 1.689132e+000 1.431458e+000 1.851215e+000 2.129521e+000 1.433548e+000 1.200916e+000 1.441480e+000 1.602068e+000 5.942452e-001 1.841323e-001 1.264587e-001 1.804381e-001 3.104266e-001 2.637884e-001 3.609189e-001 3.790218e-001 3.920106e-001 2.857720e-001 1.926122e-001 2.724414e-001 3.044545e-001 2.171497e-001
<GCONST> 9.087926e+001
<STATE> 3
<MEAN> 39
 -6.293084e+000 -1.805055e+000 -2.141173e-002 -7.427419e+000 -4.576048e+000 -6.301821e+000 -5.196244e+000 4.710402e+000 -6.985720e-001 1.818141e-001 -6.577823e+000 -3.854393e+000 7.188956e+001 5.152691e-001 -3.385469e-001 -3.017874e-001 -1.811427e-001 -7.942601e-002 -1.927404e-001 -1.726845e-001 2.004652e-001 2.781416e-001 -7.681579e-003 -3.449908e-001 -2.745367e-001 1.068566e+000 -3.893419e-002 -7.258168e-002 -6.951434e-002 -1.433619e-002 4.392651e-002 3.431944e-002 4.761084e-002 3.764590e-003 -7.790229e-003 -2.029725e-002 -1.863850e-002 -2.102834e-002 -8.729688e-002
<VARIANCE> 39
 2.762326e+001 5.414397e+001 6.498680e+001 4.592356e+001 6.271192e+001 5.875840e+001 4.808099e+001 4.444715e+001 4.979805e+001 3.355149e+001 5.066487e+001 4.189872e+001 1.109576e+002 3.125120e+000 4.690943e+000 4.755359e+000 3.462454e+000 4.703429e+000 4.083792e+000 4.061076e+000 3.835704e+000 3.349554e+000 2.980587e+000 3.909135e+000 3.309006e+000 1.204278e+001 5.588257e-001 6.971738e-001 8.096185e-001 6.376390e-001 8.072687e-001 7.820020e-001 7.556008e-001 6.712784e-001 6.611264e-001 5.910105e-001 7.211303e-001 6.025380e-001 1.779654e+000
<GCONST> 1.372559e+002
<STATE> 4
<MEAN> 39
 -8.500862e+000 2.088623e+000 4.469636e+000 -5.043548e+000 -7.974016e+000 -1.897393e+000 -3.504541e+000 7.390963e-002 -5.859975e+000 1.978291e+000 -1.934319e+000 -4.489928e+000 6.159602e+001 -2.434820e-001 1.227134e-001 4.676329e-002 1.722341e-001 5.445550e-002 1.193207e-001 1.116108e-001 -1.580221e-001 -5.481198e-002 -3.711983e-002 1.999012e-001 1.565159e-001 -6.189675e-001 -6.534989e-003 1.589222e-002 -4.640226e-003 1.161719e-002 -7.363606e-004 -6.115831e-003 -9.887321e-003 -1.330467e-002 1.202557e-002 3.392922e-003 1.440439e-002 1.699776e-002 -2.386847e-003
<VARIANCE> 39
 3.777765e+001 2.474689e+001 8.027804e+001 3.802968e+001 5.968353e+001 6.296062e+001 5.048215e+001 5.790140e+001 5.500941e+001 3.730502e+001 5.907239e+001 4.614652e+001 1.626465e+002 3.381583e-001 9.815700e-001 2.057665e+000 1.335419e+000 2.331302e+000 2.001827e+000 2.246974e+000 2.453589e+000 2.272691e+000 1.855975e+000 1.875720e+000 1.535321e+000 6.869829e-001 4.867498e-002 1.465397e-001 2.293070e-001 2.255438e-001 3.520625e-001 3.061386e-001 3.660546e-001 3.867398e-001 3.760231e-001 3.361474e-001 3.165292e-001 2.657707e-001 5.876857e-002
<GCONST> 1.091939e+002
<TRANSP> 5
 0.000000e+000 1.000000e+000 0.000000e+000 0.000000e+000 0.000000e+000
 0.000000e+000 8.963410e-001 1.036590e-001 0.000000e+000 0.000000e+000
 0.000000e+000 0.000000e+000 9.649684e-001 3.503155e-002 0.000000e+000
 0.000000e+000 0.000000e+000 0.000000e+000 9.822245e-001 1.777546e-002
 0.000000e+000 0.000000e+000 0.000000e+000 0.000000e+000 0.000000e+000
<ENDHMM>
~h "yokeondae"
<BEGINHMM>
<NUMSTATES> 5
<STATE> 2
<MEAN> 39
 -1.802521e+001 1.506301e+000 -5.666251e-001 -1.144389e+000 -1.925574e+000 -8.127785e-001 -1.062757e+000 -3.866874e-001 -1.758555e+000 -4.581211e-001 -2.559791e-001 2.767866e-001 4.429719e+001 5.349628e-002 1.209858e-001 6.034420e-001 -2.644010e-002 -2.430860e-002 1.935511e-001 -1.573398e-001 6.861757e-002 -3.216854e-001 1.954752e-001 4.590346e-002 -7.235517e-002 3.239971e-001 1.175128e-001 5.907379e-002 2.809531e-001 -4.309821e-003 -1.238701e-001 -1.068555e-002 -6.746835e-002 -9.933570e-003 -7.009348e-002 1.085238e-002 -2.371083e-002 -5.032589e-002 2.746394e-001
<VARIANCE> 39
 4.710330e+000 5.009388e+000 1.282849e+001 1.512168e+001 1.503091e+001 1.724576e+001 1.624862e+001 1.279102e+001 1.420188e+001 1.418295e+001 1.420586e+001 1.374068e+001 8.994011e+000 3.873437e-001 5.200231e-001 1.803845e+000 1.575938e+000 1.555767e+000 1.590312e+000 1.801616e+000 1.490740e+000 1.365313e+000 1.863706e+000 1.575660e+000 1.655141e+000 4.572256e-001 1.366699e-001 1.205843e-001 3.871916e-001 3.388087e-001 4.084819e-001 3.001547e-001 4.544457e-001 3.272481e-001 2.423304e-001 3.173867e-001 2.690361e-001 3.311588e-001 2.289307e-001
<GCONST> 8.962401e+001
<STATE> 3
<MEAN> 39
 -7.625995e+000 2.350390e+000 -2.196640e+000 -7.449304e+000 -3.978599e+000 4.514717e-001 -7.074555e+000 -1.118143e+000 -7.964377e+000 1.856994e+000 2.510430e-001 -1.242309e+000 6.308381e+001 4.561232e-001 -3.793520e-002 -1.640341e-001 -2.029168e-001 -7.229035e-003 2.845138e-002 -2.575239e-001 -1.117573e-002 -3.295532e-002 1.364117e-001 -9.604445e-002 -1.952324e-001 7.944931e-001 1.762007e-003 -7.480050e-005 -2.195107e-002 2.529329e-002 -3.976703e-002 -3.743867e-002 2.636709e-002 4.257815e-003 2.720391e-002 -2.606019e-002 -2.768456e-002 -2.364344e-002 -8.363148e-002
<VARIANCE> 39
 4.732847e+001 3.304899e+001 1.146168e+002 8.658879e+001 7.192716e+001 5.301777e+001 6.156701e+001 5.458018e+001 5.089566e+001 4.593089e+001 4.294719e+001 3.220675e+001 1.247051e+002 4.502157e+000 3.896997e+000 8.746556e+000 8.662217e+000 7.063314e+000 6.344759e+000 6.189453e+000 6.445763e+000 6.089119e+000 4.543713e+000 4.749697e+000 3.572914e+000 1.289402e+001 6.214615e-001 7.198853e-001 1.465338e+000 1.717830e+000 1.254977e+000 1.316954e+000 1.080174e+000 1.375080e+000 1.242101e+000 8.866722e-001 1.005798e+000 6.587530e-001 1.739149e+000
<GCONST> 1.490610e+002
<STATE> 4
<MEAN> 39
 -8.485344e+000 5.158710e-001 2.915063e+000 -2.658888e+000 -7.776065e+000 -5.036378e+000 -2.013772e+000 1.961374e+000 -3.563766e+000 -9.538961e-003 -2.691848e+000 -2.378926e+000 6.159639e+001 -2.633894e-001 -1.032331e-002 -1.704745e-002 1.314026e-001 2.611097e-002 -3.232623e-002 1.622610e-001 9.488172e-003 6.334239e-002 -9.895891e-002 5.395868e-002 1.491340e-001 -5.069630e-001 -2.032124e-002 -8.512916e-003 -3.375250e-002 -2.408450e-002 2.929160e-002 1.258863e-002 8.045842e-003 8.150104e-003 -1.057947e-002 1.268361e-002 2.653174e-002 2.614559e-002 1.209797e-003
<VARIANCE> 39
 3.620826e+001 2.285259e+001 4.805768e+001 3.432524e+001 6.028957e+001 6.406180e+001 5.626919e+001 7.815833e+001 3.687340e+001 3.656738e+001 4.781258e+001 4.292308e+001 1.561137e+002 8.268885e-001 1.298324e+000 2.435238e+000 1.962592e+000 2.818269e+000 2.555114e+000 2.751771e+000 3.105417e+000 2.146338e+000 2.354113e+000 2.217341e+000 1.707945e+000 2.270339e+000 1.704107e-001 2.056987e-001 3.880784e-001 3.112452e-001 4.579360e-001 3.955564e-001 4.701461e-001 4.588361e-001 3.805914e-001 4.285354e-001 3.640952e-001 3.211648e-001 2.702443e-001
<GCONST> 1.178872e+002
<TRANSP> 5
 0.000000e+000 1.000000e+000 0.000000e+000 0.000000e+000 0.000000e+000
 0.000000e+000 8.903173e-001 1.096827e-001 0.000000e+000 0.000000e+000
 0.000000e+000 0.000000e+000 9.686241e-001 3.137589e-002 0.000000e+000
 0.000000e+000 0.000000e+000 0.000000e+000 9.821145e-001 1.788551e-002
 0.000000e+000 0.000000e+000 0.000000e+000 0.000000e+000 0.000000e+000
<ENDHMM>
~h "chungwadae"
<BEGINHMM>
<NUMSTATES> 5
<STATE> 2
<MEAN> 39
 -1.853476e+001 1.409812e+000 -1.483601e+000 -1.459627e+000 3.003252e-001 -7.989928e-001 -3.785758e-001 4.216128e-001 -1.244756e+000 5.285401e-001 2.655963e-001 1.600529e+000 4.505594e+001 -2.627662e-001 -1.305014e-001 1.161208e-001 -4.818621e-001 7.767218e-002 -2.069356e-001 -9.506195e-002 1.174836e-001 -1.358200e-001 1.840473e-001 7.732471e-002 -9.242564e-002 8.006473e-001 -1.383993e-001 -9.843787e-002 -3.040315e-002 -2.193523e-001 2.366479e-002 -1.887428e-002 -1.121290e-001 3.065098e-002 -1.199969e-003 -1.696701e-003 1.452839e-002 -3.092216e-002 4.780762e-001
<VARIANCE> 39
 7.558671e+000 1.277607e+001 1.020970e+001 2.131414e+001 2.043254e+001 2.274083e+001 2.657345e+001 2.133208e+001 1.846369e+001 1.813925e+001 1.468781e+001 1.518498e+001 3.196617e+001 1.049996e+000 1.878704e+000 1.393511e+000 2.711065e+000 2.270997e+000 2.025700e+000 3.209466e+000 1.987288e+000 1.923617e+000 1.812694e+000 1.160575e+000 1.355676e+000 3.773383e+000 2.190461e-001 2.983653e-001 2.709029e-001 4.725632e-001 4.022603e-001 3.851545e-001 5.776448e-001 4.073339e-001 3.738542e-001 3.197092e-001 2.150688e-001 2.713464e-001 6.959092e-001
<GCONST> 1.037921e+002
<STATE> 3
<MEAN> 39
 -1.712541e+001 -2.777671e+000 -3.200112e+000 -1.011481e+001 8.382522e-001 -6.517559e-001 -3.996397e+000 1.536622e+000 -7.876851e-001 6.186831e-001 -1.682286e+000 -2.303013e-001 6.874313e+001 1.468613e+000 -3.253090e-002 -3.043803e-001 -4.965923e-001 -5.393656e-001 6.256837e-001 1.463195e-002 -2.772106e-001 -3.321863e-001 -3.055227e-001 -4.655551e-001 -3.018968e-001 1.383587e+000 1.996385e-001 1.036704e-001 6.772050e-002 1.226320e-001 -2.449330e-001 4.573833e-002 1.020587e-001 9.298025e-003 -1.459720e-002 -7.334737e-002 -5.936603e-002 -1.192707e-002 -3.379036e-001
<VARIANCE> 39
 9.641084e+001 3.211195e+001 2.268491e+001 3.560611e+001 4.198938e+001 5.225714e+001 2.922806e+001 3.571392e+001 4.346886e+001 3.052325e+001 3.165655e+001 2.656680e+001 7.678580e+001 7.820425e+000 4.394057e+000 2.674475e+000 5.794509e+000 6.339828e+000 5.231227e+000 3.631690e+000 4.903574e+000 5.971035e+000 3.563917e+000 4.109063e+000 3.110741e+000 9.479829e+000 1.166237e+000 9.037101e-001 5.670027e-001 1.100754e+000 1.056916e+000 1.018943e+000 7.092545e-001 9.935665e-001 1.184538e+000 7.976755e-001 8.366952e-001 6.217167e-001 1.219266e+000
<GCONST> 1.386268e+002
<STATE> 4
<MEAN> 39
 -7.530554e+000 -1.126675e+000 -6.783090e-001 -6.207976e+000 -6.497742e+000 -3.135005e+000 -2.821502e+000 2.939353e+000 -2.537516e+000 -4.297988e-001 -3.617037e+000 -2.713431e+000 6.566529e+001 -2.660625e-001 2.146039e-002 5.072866e-002 1.859028e-001 9.096520e-002 -1.139527e-001 1.655605e-002 3.327516e-002 8.277339e-002 5.302518e-002 8.992514e-002 6.673648e-002 -4.114165e-001 -2.268219e-002 -6.435909e-003 -1.392413e-002 9.013134e-003 5.022674e-002 -8.564193e-004 -3.545897e-003 -1.098971e-002 9.890292e-003 1.237483e-002 1.679770e-002 6.915957e-003 -3.975484e-003
<VARIANCE> 39
 4.578580e+001 2.364539e+001 4.702615e+001 5.893617e+001 6.903984e+001 8.323364e+001 5.320117e+001 5.536356e+001 3.912710e+001 3.565477e+001 4.841867e+001 5.010656e+001 1.805593e+002 1.118193e+000 1.854960e+000 1.992103e+000 2.149483e+000 3.408482e+000 3.308325e+000 3.177579e+000 3.001451e+000 2.099437e+000 2.031575e+000 2.598467e+000 2.361770e+000 3.957746e+000 2.318398e-001 3.052194e-001 3.060991e-001 3.515494e-001 5.361027e-001 5.621451e-001 5.665914e-001 5.169557e-001 4.047004e-001 3.484006e-001 4.572344e-001 4.253977e-001 6.259301e-001
<GCONST> 1.235992e+002
<TRANSP> 5
 0.000000e+000 1.000000e+000 0.000000e+000 0.000000e+000 0.000000e+000
 0.000000e+000 9.005795e-001 9.942056e-002 0.000000e+000 0.000000e+000
 0.000000e+000 0.000000e+000 9.267926e-001 7.320745e-002 0.000000e+000
 0.000000e+000 0.000000e+000 0.000000e+000 9.851372e-001 1.486284e-002
 0.000000e+000 0.000000e+000 0.000000e+000 0.000000e+000 0.000000e+000
<ENDHMM>
~h "computer"
<BEGINHMM>
<NUMSTATES> 5
<STATE> 2
<MEAN> 39
 -1.806128e+001 8.113938e-001 -1.802681e+000 2.147570e-001 -8.624810e-002 1.809572e-001 -2.886871e-001 -9.207268e-001 -9.099172e-001 5.507869e-001 -5.508800e-001 7.417729e-003 4.431851e+001 -1.966996e-002 2.636122e-002 -3.794292e-002 -8.478416e-002 5.520528e-002 9.084727e-002 -1.159122e-001 -2.511184e-001 5.539723e-003 1.499517e-001 1.011811e-001 1.322931e-001 1.246111e-001 4.013475e-002 2.279555e-004 -1.952727e-001 -1.896281e-001 1.265787e-001 -5.758541e-002 -1.196287e-001 -8.507951e-003 -9.406289e-002 9.081476e-002 -3.775401e-002 -5.470884e-002 2.926916e-001
<VARIANCE> 39
 3.579138e+000 5.766080e+000 7.601095e+000 8.632395e+000 1.347679e+001 1.555066e+001 1.326620e+001 1.348257e+001 1.633405e+001 1.667468e+001 1.396476e+001 1.093153e+001 8.498896e+000 2.519387e-001 5.086903e-001 7.143964e-001 8.578406e-001 1.340422e+000 1.412515e+000 1.676502e+000 1.300583e+000 1.966340e+000 1.621599e+000 1.801003e+000 1.535192e+000 4.214493e-001 9.045906e-002 1.319841e-001 3.083855e-001 3.293849e-001 3.261965e-001 2.798621e-001 3.034897e-001 2.644332e-001 3.734967e-001 3.489499e-001 3.320139e-001 2.541491e-001 4.334702e-001
<GCONST> 8.540419e+001
<STATE> 3
<MEAN> 39
