~o
<STREAMINFO> 1 39
<VECSIZE> 39<NULLD><MFCC_D_A_0><DIAGC>
~h "dangnyobyung"
<BEGINHMM>
<NUMSTATES> 5
<STATE> 2
<MEAN> 39
 -1.802216e+001 1.058458e+000 -1.730585e+000 3.502018e-002 -7.854003e-001 -4.436607e-001 -4.854130e-001 -3.589427e-001 -1.313925e+000 2.963927e-001 -3.941747e-001 5.092540e-001 4.372834e+001 -7.974755e-002 -2.809224e-001 -1.935942e-001 -2.684238e-001 -1.613091e-002 -1.428127e-001 2.642922e-001 1.796858e-001 -6.293672e-002 -1.204356e-001 -1.226516e-001 -5.541802e-002 9.141057e-001 -2.073095e-002 -1.210296e-001 -9.753528e-002 -1.421734e-001 5.189752e-002 -1.332385e-001 -2.723386e-002 5.033909e-003 1.486551e-001 1.107935e-001 4.458022e-002 9.072313e-002 5.324700e-001
<VARIANCE> 39
 3.251785e+000 4.436087e+000 6.456889e+000 9.782601e+000 9.915849e+000 1.569303e+001 1.136062e+001 1.415819e+001 1.479261e+001 1.669108e+001 1.221228e+001 1.242194e+001 8.265343e+000 6.841935e-001 7.665771e-001 1.099450e+000 1.603602e+000 1.020834e+000 1.905379e+000 1.260169e+000 1.725302e+000 2.085717e+000 2.327074e+000 1.730690e+000 1.554277e+000 4.563077e+000 1.132478e-001 1.386178e-001 2.046580e-001 2.309699e-001 1.737243e-001 3.476815e-001 2.289911e-001 3.223795e-001 3.877227e-001 4.254726e-001 3.115054e-001 2.832210e-001 8.068361e-001
<GCONST> 8.965018e+001
<STATE> 3
<MEAN> 39
 -1.339123e+001 -4.730350e+000 -6.289437e+000 -5.402638e+000 3.051997e+000 -2.682612e+000 6.221094e-001 1.647854e+000 4.218750e-001 1.379841e+000 -3.756662e+000 -2.018978e+000 6.712896e+001 1.504128e+000 -6.302555e-002 5.242370e-002 -4.931998e-001 1.666638e-001 -2.341764e-002 -4.584002e-001 -5.106254e-002 -4.181697e-001 3.779135e-001 -5.628561e-001 -7.149202e-001 1.776936e+000 1.009984e-001 1.869993e-001 3.059348e-001 1.244733e-001 -3.007507e-001 1.065551e-001 -1.044779e-001 -1.779498e-001 -2.007998e-001 6.927253e-002 -5.331453e-002 -1.665616e-002 -5.353490e-001
<VARIANCE> 39
 6.017201e+001 2.382061e+001 1.930676e+001 3.706626e+001 3.773191e+001 4.863457e+001 3.755530e+001 3.814090e+001 4.183766e+001 2.132317e+001 4.334541e+001 5.329644e+001 7.371468e+001 3.131167e+000 3.365316e+000 3.447029e+000 3.963973e+000 5.110122e+000 5.142561e+000 3.826593e+000 4.313614e+000 4.941405e+000 3.094078e+000 4.720090e+000 4.390194e+000 9.608810e+000 6.965525e-001 6.185054e-001 5.831378e-001 9.195080e-001 1.021038e+000 1.007862e+000 6.756791e-001 8.937824e-001 8.179219e-001 6.521760e-001 1.032259e+000 9.189140e-001 1.336875e+000
<GCONST> 1.358703e+002
<STATE> 4
<MEAN> 39
 -7.282501e+000 4.727651e-001 7.488506e-001 -3.547879e+000 -5.502801e+000 -7.074162e-001 -4.399454e+000 -1.026608e+000 -4.138770e+000 -5.408159e-002 -2.600983e+000 -2.258201e+000 6.044040e+001 -1.982458e-001 3.836036e-002 1.053994e-003 1.032852e-001 -2.595527e-002 3.222977e-002 3.952108e-002 -6.957782e-003 5.282376e-002 -4.778857e-002 9.432333e-002 8.530239e-002 -3.588714e-001 -1.001028e-002 -1.049629e-002 -2.822670e-002 3.065609e-003 3.923139e-002 6.964143e-005 6.351127e-003 1.701062e-002 2.089632e-002 -1.021136e-002 7.865676e-003 -6.928090e-003 2.967879e-003
<VARIANCE> 39
 5.135378e+001 2.451753e+001 4.765399e+001 4.199435e+001 5.444865e+001 5.923119e+001 4.993957e+001 4.611062e+001 3.671987e+001 4.077066e+001 4.969469e+001 4.329412e+001 1.582717e+002 1.773854e+000 1.696970e+000 3.380065e+000 2.771058e+000 3.971721e+000 3.420058e+000 2.996330e+000 3.464637e+000 2.946257e+000 2.956848e+000 3.235873e+000 2.618228e+000 4.609701e+000 2.577062e-001 2.848728e-001 5.230089e-001 4.853404e-001 6.274726e-001 5.814430e-001 5.245370e-001 6.058483e-001 5.707043e-001 5.713018e-001 6.180328e-001 4.720833e-001 4.787667e-001
<GCONST> 1.271781e+002
<TRANSP> 5
 0.000000e+000 1.000000e+000 0.000000e+000 0.000000e+000 0.000000e+000
 0.000000e+000 9.008175e-001 9.918251e-002 0.000000e+000 0.000000e+000
 0.000000e+000 0.000000e+000 9.093758e-001 9.062424e-002 0.000000e+000
 0.000000e+000 0.000000e+000 0.000000e+000 9.873869e-001 1.261305e-002
 0.000000e+000 0.000000e+000 0.000000e+000 0.000000e+000 0.000000e+000
<ENDHMM>
~h "nuwoseo"
<BEGINHMM>
<NUMSTATES> 5
<STATE> 2
<MEAN> 39
 -1.767792e+001 1.708972e+000 -2.584128e-001 7.325686e-001 -1.337374e+000 -5.224313e-001 -1.602973e+000 -1.901486e+000 -2.271855e+000 2.612693e-001 -9.631286e-001 -3.309554e-001 4.421556e+001 8.474362e-003 1.589653e-001 4.006078e-001 3.166051e-001 -6.507938e-002 1.482863e-001 3.575048e-002 -1.669817e-001 -3.186394e-002 -1.128939e-001 -1.851838e-001 -3.154165e-001 1.776717e-001 1.309997e-001 1.281986e-001 1.350746e-001 3.876537e-002 2.829140e-002 8.396026e-002 1.047910e-002 4.841847e-002 4.516325e-002 -2.767883e-002 -2.094963e-002 -3.047089e-002 1.368306e-001
<VARIANCE> 39
 3.812132e+000 4.386248e+000 6.962236e+000 9.021606e+000 1.423203e+001 1.116724e+001 1.479459e+001 1.488861e+001 1.359258e+001 1.477411e+001 1.793456e+001 1.145208e+001 8.051690e+000 6.614707e-001 8.017713e-001 6.985336e-001 1.245271e+000 1.227624e+000 1.332886e+000 1.816284e+000 1.677694e+000 1.667558e+000 1.511457e+000 1.934143e+000 1.453515e+000 1.804010e-001 1.587855e-001 1.613752e-001 1.446167e-001 2.383351e-001 2.440801e-001 2.250710e-001 3.536288e-001 2.404823e-001 3.090727e-001 3.073811e-001 3.957031e-001 2.667689e-001 7.650921e-002
<GCONST> 8.331818e+001
<STATE> 3
<MEAN> 39
 -1.010900e+001 4.874255e+000 4.952982e+000 -1.521701e+000 -1.938874e+000 -1.598881e+000 -6.162242e+000 -5.142133e+000 -4.358362e+000 -2.435815e-001 -1.143215e+000 -3.547908e+000 5.872681e+001 1.343765e+000 3.713304e-001 -1.161060e-001 -9.966484e-001 -1.874529e-001 1.350387e-001 -8.572271e-001 -9.018652e-001 -9.684635e-001 -1.570838e-001 7.529853e-001 -1.567176e-001 2.215382e+000 6.317317e-002 -1.014743e-002 -2.157787e-001 -2.021378e-001 -1.851910e-001 1.308776e-001 1.328706e-001 8.597425e-003 -1.674909e-001 -1.536906e-001 6.261578e-002 1.120859e-001 -1.227321e-001
<VARIANCE> 39
 5.354555e+001 3.992200e+001 2.837789e+001 4.776153e+001 3.644383e+001 4.854519e+001 5.471109e+001 4.989170e+001 4.053840e+001 2.581426e+001 3.837722e+001 2.758287e+001 1.201263e+002 4.792642e+000 4.437267e+000 4.408800e+000 4.934996e+000 5.315269e+000 6.049871e+000 6.121222e+000 4.668971e+000 3.782294e+000 3.907741e+000 4.686241e+000 2.871965e+000 6.936036e+000 9.738842e-001 8.420913e-001 6.969594e-001 9.636136e-001 1.088627e+000 1.145355e+000 1.331353e+000 1.105385e+000 6.598464e-001 8.305395e-001 9.164410e-001 5.270776e-001 1.445396e+000
<GCONST> 1.398930e+002
<STATE> 4
<MEAN> 39
 -7.456460e+000 2.251300e+000 -4.164137e+000 -1.146612e+001 -2.927787e+000 4.609720e+000 -3.768643e+000 -2.068904e+000 -4.282452e+000 2.173671e-001 1.395984e+000 -2.886707e+000 6.425431e+001 -2.125360e-001 -7.637036e-002 -2.938149e-002 1.327820e-001 4.404888e-002 -2.765918e-002 1.330944e-001 1.499632e-001 1.623853e-001 2.882192e-002 -8.583278e-002 5.939612e-002 -3.619631e-001 -1.796435e-002 -1.081643e-002 1.512014e-002 2.332963e-002 2.437841e-002 -2.523819e-002 -1.438124e-002 -1.540767e-003 2.465739e-002 2.714347e-002 -4.233399e-003 -1.058332e-002 3.183175e-003
<VARIANCE> 39
 9.913365e+001 2.725378e+001 2.253031e+001 8.725959e+001 6.207198e+001 6.613343e+001 6.035807e+001 3.975425e+001 5.249811e+001 5.207554e+001 5.899474e+001 4.072834e+001 1.451160e+002 4.174260e+000 1.295816e+000 1.335099e+000 3.117716e+000 2.595511e+000 3.199135e+000 3.326095e+000 2.307199e+000 2.271327e+000 2.588075e+000 2.683275e+000 2.044980e+000 9.773012e-001 4.858766e-001 2.151322e-001 2.266501e-001 3.812737e-001 3.572307e-001 4.491422e-001 5.565315e-001 4.040855e-001 3.807326e-001 3.989010e-001 4.681555e-001 3.399583e-001 9.501157e-002
<GCONST> 1.205552e+002
<TRANSP> 5
 0.000000e+000 1.000000e+000 0.000000e+000 0.000000e+000 0.000000e+000
 0.000000e+000 8.729883e-001 1.270117e-001 0.000000e+000 0.000000e+000
 0.000000e+000 0.000000e+000 9.096382e-001 9.036178e-002 0.000000e+000
 0.000000e+000 0.000000e+000 0.000000e+000 9.864517e-001 1.354828e-002
 0.000000e+000 0.000000e+000 0.000000e+000 0.000000e+000 0.000000e+000
<ENDHMM>
~h "teukyereul"
<BEGINHMM>
<NUMSTATES> 5
<STATE> 2
<MEAN> 39
 -1.831426e+001 7.420192e-001 -1.506268e+000 9.000612e-001 -1.395423e-002 6.084736e-001 -1.522195e-001 -3.919182e-001 -1.363166e+000 -5.007201e-001 -1.768158e-001 3.975187e-001 4.363414e+001 6.823401e-002 -2.077305e-002 -9.633622e-002 -3.333686e-001 -1.046908e-001 -2.482591e-001 -4.390386e-002 -2.931110e-002 -4.792809e-002 -1.994449e-001 -1.221742e-002 1.640516e-001 7.299796e-001 -8.928770e-003 -1.378438e-001 -7.051067e-002 -1.400417e-001 -2.357905e-002 -1.611810e-001 1.337030e-002 3.182228e-002 2.924261e-002 7.057858e-002 3.546736e-002 4.741967e-002 5.820483e-001
<VARIANCE> 39
 2.604900e+000 5.823320e+000 6.472303e+000 7.734076e+000 9.892034e+000 1.067805e+001 1.097689e+001 1.379577e+001 1.253591e+001 1.279409e+001 1.340321e+001 1.038012e+001 9.608670e+000 2.914391e-001 9.767479e-001 8.432919e-001 1.613406e+000 1.329736e+000 1.083027e+000 1.515147e+000 1.669453e+000 1.275536e+000 1.450444e+000 1.555423e+000 1.592446e+000 5.084019e+000 4.019847e-002 1.095753e-001 1.304019e-001 2.390706e-001 2.421345e-001 2.401324e-001 3.052236e-001 3.385141e-001 2.275549e-001 2.939585e-001 2.903680e-001 2.759566e-001 8.721569e-001
<GCONST> 8.438439e+001
<STATE> 3
<MEAN> 39
 -1.422681e+001 -1.103350e+000 3.932391e+000 -3.284882e+000 -6.616697e+000 -6.773111e+000 -2.955412e+000 -1.222909e-001 -3.344644e+000 1.947014e+000 -5.597616e-001 5.323529e-001 6.484604e+001 3.718711e-001 -1.246726e-001 3.060787e-001 -2.994858e-002 -4.231950e-001 -2.098606e-001 -2.241048e-001 3.972765e-002 -1.139585e-002 4.076463e-002 -1.511398e-002 -9.344781e-002 6.536949e-001 3.104761e-002 1.151538e-002 5.225158e-003 4.619275e-002 -1.987709e-002 2.984532e-002 -2.552636e-002 1.152804e-002 8.852474e-003 -4.232530e-003 4.095808e-003 -4.498544e-002 -1.357963e-001
<VARIANCE> 39
 5.735936e+001 2.896623e+001 4.305182e+001 3.925398e+001 6.159478e+001 5.057058e+001 4.770964e+001 4.404716e+001 4.262590e+001 3.372176e+001 3.078197e+001 3.130448e+001 1.640434e+002 4.060834e+000 3.314596e+000 2.923556e+000 4.086424e+000 3.750133e+000 4.557687e+000 4.041064e+000 4.343482e+000 4.115481e+000 3.611994e+000 2.927095e+000 3.097388e+000 1.612245e+001 6.888111e-001 6.429256e-001 5.868458e-001 8.031836e-001 7.005056e-001 7.569253e-001 7.619751e-001 8.069301e-001 8.011699e-001 6.961688e-001 5.714648e-001 6.123846e-001 2.553097e+000
<GCONST> 1.365447e+002
<STATE> 4
<MEAN> 39
 -8.043170e+000 -2.554537e+000 3.210833e+000 4.367219e-001 -8.691301e+000 -5.791903e+000 -4.970195e+000 8.579149e-001 8.201610e-001 -1.150206e+000 -2.853119e+000 1.735229e-001 6.024909e+001 -2.950256e-001 1.151294e-001 -2.135885e-001 7.806824e-002 3.097735e-001 1.530742e-001 1.682937e-001 -2.480275e-002 1.549750e-002 1.192581e-002 1.203934e-002 5.495291e-002 -6.673434e-001 -2.650055e-002 9.586908e-003 1.127281e-002 2.840158e-003 2.644079e-002 2.733260e-003 2.086851e-002 -1.614403e-002 -1.369049e-002 8.452053e-003 -2.696824e-003 1.279876e-002 -1.153235e-002
<VARIANCE> 39
 5.423810e+001 2.501749e+001 3.740208e+001 3.146612e+001 5.891383e+001 4.306060e+001 5.910069e+001 4.129046e+001 3.446658e+001 2.870682e+001 3.853637e+001 2.319016e+001 1.703330e+002 9.345605e-001 1.115190e+000 1.349087e+000 1.921267e+000 1.740919e+000 1.630986e+000 2.728622e+000 2.171822e+000 1.997155e+000 2.016852e+000 1.667670e+000 1.526036e+000 9.363062e-001 1.473708e-001 2.051395e-001 2.146426e-001 3.287864e-001 3.297694e-001 2.946626e-001 4.694558e-001 3.709013e-001 3.497934e-001 3.822809e-001 2.833972e-001 2.698796e-001 1.169465e-001
<GCONST> 1.095498e+002
<TRANSP> 5
 0.000000e+000 1.000000e+000 0.000000e+000 0.000000e+000 0.000000e+000
 0.000000e+000 8.941522e-001 1.058479e-001 0.000000e+000 0.000000e+000
 0.000000e+000 0.000000e+000 9.722800e-001 2.771992e-002 0.000000e+000
 0.000000e+000 0.000000e+000 0.000000e+000 9.784610e-001 2.153904e-002
 0.000000e+000 0.000000e+000 0.000000e+000 0.000000e+000 0.000000e+000
<ENDHMM>
~h "uiyogeul"
<BEGINHMM>
<NUMSTATES> 5
<STATE> 2
<MEAN> 39
 -1.777460e+001 1.415130e+000 -2.324135e+000 -6.538821e-001 1.109521e-001 2.066476e-001 -1.624238e+000 2.070333e-001 -1.235376e+000 5.757360e-001 -6.541558e-002 -3.640078e-001 4.429194e+001 1.558352e-001 1.980229e-001 5.474133e-005 -1.462014e-001 1.729602e-001 -5.800398e-002 -3.349413e-001 -1.501332e-001 -3.986760e-001 3.298271e-001 3.908182e-002 -3.506266e-001 2.849934e-001 1.824454e-001 8.542964e-002 5.807460e-002 -3.024244e-002 -9.405148e-003 2.157092e-002 -1.541923e-001 -2.697353e-002 -1.236054e-001 9.111714e-002 1.722800e-002 -9.338585e-002 2.306787e-001
<VARIANCE> 39
 4.130717e+000 3.471994e+000 9.341501e+000 1.290887e+001 1.222737e+001 1.250171e+001 1.618139e+001 1.617659e+001 1.684541e+001 1.839656e+001 1.501759e+001 1.368596e+001 8.758834e+000 5.819169e-001 4.923386e-001 1.223607e+000 1.483995e+000 1.517683e+000 1.245554e+000 1.637122e+000 2.071073e+000 1.699379e+000 1.649905e+000 1.499881e+000 1.472278e+000 4.926568e-001 1.971336e-001 1.321665e-001 1.840696e-001 2.139736e-001 3.040856e-001 1.977335e-001 3.304279e-001 3.670178e-001 2.737041e-001 2.783155e-001 2.732796e-001 3.067444e-001 1.557067e-001
<GCONST> 8.656477e+001
<STATE> 3
<MEAN> 39
 -6.927499e+000 4.057960e+000 6.670091e-001 -3.158621e+000 -2.677538e+000 -1.487438e+000 -1.291650e+001 -3.071272e+000 -6.702065e+000 4.090266e+000 2.429340e+000 -6.464560e+000 5.915042e+001 1.574672e+000 -1.516684e-001 1.126433e+000 4.113303e-002 -1.293921e+000 -7.010358e-001 -1.757828e+000 -3.530623e-002 -7.805445e-001 -2.138245e-001 4.409915e-001 -8.520966e-001 3.033006e+000 -2.946574e-001 -1.677109e-001 2.761714e-001 1.153293e-001 -3.034014e-001 -9.532238e-002 3.138004e-001 1.288976e-001 -1.113428e-001 -3.024010e-001 3.048974e-002 1.632696e-001 -5.196087e-002
<VARIANCE> 39
 5.872237e+001 2.837436e+001 3.466415e+001 4.368258e+001 4.928711e+001 4.624927e+001 7.567967e+001 8.225268e+001 5.194636e+001 3.936216e+001 4.954540e+001 4.008350e+001 1.094193e+002 5.069680e+000 3.301113e+000 2.688548e+000 4.620092e+000 3.923982e+000 3.419951e+000 5.152824e+000 6.559968e+000 4.169704e+000 3.675549e+000 2.820724e+000 3.449078e+000 3.818505e+000 9.029172e-001 5.473524e-001 5.187760e-001 8.446983e-001 7.947451e-001 6.140285e-001 1.207487e+000 1.184437e+000 6.775506e-001 4.660885e-001 4.441837e-001 6.258327e-001 9.155831e-001
<GCONST> 1.361864e+002
<STATE> 4
<MEAN> 39
 -6.218318e+000 1.335215e+000 4.260955e+000 -2.375211e+000 -8.657693e+000 -2.822317e+000 -9.316434e+000 -1.405809e+000 -6.181202e+000 -2.339310e-001 6.085228e-001 -2.576926e+000 6.301421e+001 -1.896924e-001 8.597597e-003 -1.151838e-001 1.968978e-002 1.113669e-001 7.324897e-002 2.303469e-001 -8.556467e-003 1.045074e-001 -1.344522e-002 -5.337033e-002 1.234757e-001 -3.787326e-001 1.090650e-002 6.403796e-003 -3.462009e-002 -1.446600e-002 3.301688e-002 9.597693e-003 -1.706792e-002 -7.493142e-003 1.824844e-002 2.462670e-002 -4.222359e-003 -1.140257e-002 -2.041518e-002
<VARIANCE> 39
 4.458893e+001 3.599106e+001 8.302759e+001 5.990310e+001 6.832535e+001 5.272007e+001 8.570905e+001 4.884152e+001 1.033283e+002 5.026411e+001 6.199622e+001 4.171330e+001 1.412926e+002 9.332340e-001 1.599895e+000 3.229288e+000 2.745100e+000 3.063338e+000 2.551152e+000 3.733014e+000 2.583805e+000 3.640075e+000 2.704735e+000 2.827004e+000 2.232046e+000 2.162564e+000 1.174164e-001 2.191151e-001 3.814878e-001 4.443674e-001 4.519391e-001 4.269995e-001 5.620766e-001 4.871813e-001 5.884789e-001 4.382914e-001 4.826504e-001 4.039390e-001 2.506770e-001
<GCONST> 1.245195e+002
<TRANSP> 5
 0.000000e+000 1.000000e+000 0.000000e+000 0.000000e+000 0.000000e+000
 0.000000e+000 8.796205e-001 1.203795e-001 0.000000e+000 0.000000e+000
 0.000000e+000 0.000000e+000 8.820366e-001 1.179634e-001 0.000000e+000
 0.000000e+000 0.000000e+000 0.000000e+000 9.867840e-001 1.321602e-002
 0.000000e+000 0.000000e+000 0.000000e+000 0.000000e+000 0.000000e+000
<ENDHMM>
~h "software"
<BEGINHMM>
<NUMSTATES> 5
<STATE> 2
<MEAN> 39
 -1.817485e+001 2.473809e-001 -2.628523e+000 -5.596589e-001 -1.175293e+000 -1.750832e+000 -9.970649e-001 7.290941e-001 5.463125e-001 -1.536220e-001 -1.023143e+000 3.036287e-001 4.635033e+001 -9.151836e-002 -2.498697e-001 -7.119104e-002 -3.639220e-001 3.522416e-001 -2.052589e-001 -2.167502e-001 3.013805e-002 -7.293720e-002 8.426932e-002 -1.128906e-001 -1.497414e-001 5.338215e-001 -4.713466e-002 8.299128e-004 3.703681e-002 -2.008111e-001 4.580462e-002 -1.307281e-001 -4.785379e-002 7.395630e-002 -2.719161e-002 2.485339e-002 5.505386e-002 -2.450437e-002 2.177173e-001
<VARIANCE> 39
 1.238120e+001 1.010398e+001 8.904262e+000 9.618789e+000 1.112602e+001 1.689023e+001 1.530107e+001 1.547598e+001 1.673599e+001 1.462481e+001 1.294817e+001 1.086397e+001 3.695499e+001 6.668397e-001 7.811444e-001 6.139702e-001 1.433119e+000 1.397304e+000 1.415448e+000 1.823640e+000 1.541185e+000 1.648342e+000 1.656490e+000 1.038548e+000 1.161090e+000 1.182042e+000 2.062356e-001 1.273062e-001 1.120228e-001 2.779696e-001 2.357891e-001 2.377295e-001 3.420596e-001 2.418975e-001 3.145222e-001 3.102657e-001 1.852615e-001 1.863807e-001 2.169564e-001
<GCONST> 8.830663e+001
<STATE> 3
<MEAN> 39
 -1.437177e+001 1.580939e+000 -8.506874e-001 -6.289993e+000 -4.864031e-001 -3.127791e+000 -6.386820e+000 -5.951486e-001 -2.303207e+000 1.192942e+000 1.525107e-001 -5.167485e-001 6.166374e+001 3.494544e-001 3.496921e-002 1.434190e-001 -5.444323e-002 -1.699361e-001 6.581333e-003 -3.332977e-001 -6.714796e-002 -1.497981e-001 5.133664e-002 7.350697e-002 -1.018111e-001 4.745273e-001 2.922717e-002 -3.964561e-003 -6.404920e-003 2.773697e-002 -3.000114e-002 1.803821e-002 -3.907306e-003 -1.272048e-002 1.538169e-003 -3.711333e-003 1.106146e-002 3.905089e-004 -3.866493e-002
<VARIANCE> 39
 1.032593e+002 3.287373e+001 2.430845e+001 5.126235e+001 4.781987e+001 5.416793e+001 5.802628e+001 4.619835e+001 3.690535e+001 2.725922e+001 3.256444e+001 2.801890e+001 1.266450e+002 8.304914e+000 4.114625e+000 2.305409e+000 5.431399e+000 4.160653e+000 5.078341e+000 6.001813e+000 3.762159e+000 3.607480e+000 3.133300e+000 3.359440e+000 3.215087e+000 1.376604e+001 1.120462e+000 7.768569e-001 4.329947e-001 1.093140e+000 7.362013e-001 9.627088e-001 1.036743e+000 6.323861e-001 6.958226e-001 6.361486e-001 6.447128e-001 6.227215e-001 2.351410e+000
<GCONST> 1.383873e+002
<STATE> 4
<MEAN> 39
 -6.065516e+000 -1.422246e+000 -1.971705e+000 -7.118342e+000 -3.847451e+000 2.896814e-001 -5.897234e+000 1.840638e+000 -3.685835e+000 1.775097e+000 1.323018e+000 -3.788667e+000 6.238446e+001 -2.986559e-001 1.326089e-002 -1.061226e-001 1.122875e-001 1.240501e-001 5.487878e-002 3.268961e-001 1.942383e-002 9.629554e-002 -8.149298e-002 -5.414672e-002 1.175499e-001 -5.015736e-001 -1.287551e-002 8.847639e-003 6.458130e-004 1.142530e-002 6.336243e-003 4.508063e-003 1.827862e-002 1.398613e-002 1.475757e-002 1.003517e-003 -1.590422e-002 3.403443e-003 -2.215075e-003
<VARIANCE> 39
 5.451333e+001 1.999161e+001 5.116000e+001 6.301176e+001 5.759797e+001 1.014116e+002 8.303934e+001 5.898296e+001 4.573147e+001 4.813837e+001 5.547069e+001 4.804066e+001 1.720098e+002 5.487388e-001 8.191191e-001 1.353051e+000 1.849016e+000 1.788844e+000 2.424278e+000 2.314022e+000 2.358490e+000 2.045896e+000 1.669312e+000 1.783342e+000 1.554814e+000 7.577199e-001 5.233434e-002 1.289682e-001 1.772814e-001 2.597838e-001 2.628441e-001 2.927875e-001 3.782941e-001 3.603437e-001 3.367935e-001 2.723080e-001 3.093444e-001 2.479408e-001 4.545824e-002
<GCONST> 1.092215e+002
<TRANSP> 5
 0.000000e+000 1.000000e+000 0.000000e+000 0.000000e+000 0.000000e+000
 0.000000e+000 8.900956e-001 1.099044e-001 0.000000e+000 0.000000e+000
 0.000000e+000 0.000000e+000 9.792950e-001 2.070500e-002 0.000000e+000
 0.000000e+000 0.000000e+000 0.000000e+000 9.823955e-001 1.760449e-002
 0.000000e+000 0.000000e+000 0.000000e+000 0.000000e+000 0.000000e+000
<ENDHMM>
~h "juwiui"
<BEGINHMM>
<NUMSTATES> 5
<STATE> 2
<MEAN> 39
 -1.801318e+001 3.526645e-001 -1.394988e+000 -4.746767e-001 -1.284753e+000 -4.684149e-001 -1.883590e+000 -7.984386e-001 -1.736007e+000 1.661335e-001 -1.421479e-002 5.043478e-001 4.457692e+001 -1.655165e-001 -3.973281e-001 5.277592e-002 -3.581159e-001 -1.669074e-001 2.044969e-001 -5.271942e-002 -1.024099e-001 -2.378839e-002 -7.700427e-003 -9.866881e-002 -3.865715e-002 7.003786e-001 -1.736521e-001 -1.096577e-001 1.807974e-001 -1.671954e-001 -1.800138e-001 1.013673e-001 -1.416827e-001 -9.564447e-002 7.190362e-002 -4.670427e-002 -6.589571e-002 5.791751e-002 4.307062e-001
<VARIANCE> 39
 3.391301e+000 6.443456e+000 1.011356e+001 9.734662e+000 1.277021e+001 1.620809e+001 1.648991e+001 1.547665e+001 1.490960e+001 1.756154e+001 1.355759e+001 1.121090e+001 1.082729e+001 5.997326e-001 1.643945e+000 1.512836e+000 1.750588e+000 2.454397e+000 1.759802e+000 1.925339e+000 2.085914e+000 1.645466e+000 2.177290e+000 1.610125e+000 1.371686e+000 3.456753e+000 2.470626e-001 2.300763e-001 2.922042e-001 3.060116e-001 3.559470e-001 3.330242e-001 2.565439e-001 3.692767e-001 2.977088e-001 4.510846e-001 3.073860e-001 2.670404e-001 5.301600e-001
<GCONST> 9.540793e+001
<STATE> 3
<MEAN> 39
 -1.969335e+001 -1.804786e+000 2.987357e+000 -2.916044e+000 -7.885677e+000 -2.120762e+000 -6.841931e+000 -3.048931e+000 -2.020956e+000 -1.842575e+000 3.896981e-001 -1.436683e-001 6.730814e+001 1.059119e+000 3.546617e-001 2.814948e-001 2.746882e-001 -2.548392e-001 -2.159920e-001 -9.336404e-001 -1.573049e-001 -7.372621e-001 -3.063954e-002 4.179395e-001 -4.681619e-001 1.211757e+000 1.616064e-001 7.214694e-002 -9.449010e-002 7.334853e-002 3.239897e-002 -1.576112e-002 3.050040e-002 6.048866e-002 -1.165288e-001 3.358192e-002 8.355249e-002 -4.817881e-002 -2.564546e-001
<VARIANCE> 39
 1.439873e+002 3.500506e+001 2.494652e+001 4.010882e+001 4.092154e+001 6.463062e+001 7.786678e+001 4.656025e+001 5.222964e+001 3.959314e+001 2.964960e+001 2.926605e+001 6.322911e+001 1.110899e+001 3.207578e+000 3.046836e+000 3.742950e+000 5.402736e+000 7.024498e+000 6.143954e+000 4.202294e+000 5.758418e+000 3.389648e+000 3.209759e+000 2.679742e+000 5.602571e+000 1.350923e+000 7.153304e-001 5.131606e-001 6.629354e-001 1.025038e+000 1.150527e+000 1.072722e+000 8.093986e-001 9.627665e-001 6.332474e-001 6.969599e-001 4.505290e-001 6.620587e-001
<GCONST> 1.383206e+002
<STATE> 4
<MEAN> 39
 -9.019847e+000 2.838091e+000 1.046782e+001 -1.048752e+000 -1.199583e+001 -2.694741e+000 -8.795374e+000 -7.298846e-001 -1.059100e+001 -1.086264e+000 2.099182e+000 -3.836251e+000 6.327173e+001 -2.345920e-001 -1.643316e-002 -8.485677e-002 5.677536e-003 9.437288e-002 2.572102e-002 2.595375e-001 4.488751e-002 1.678860e-001 7.497409e-004 -1.015329e-001 1.182973e-001 -3.983030e-001 -8.961709e-003 2.910580e-003 -3.219717e-003 4.846103e-003 7.999344e-003 -1.120965e-002 2.462894e-003 -8.510365e-003 2.680243e-002 -5.944657e-003 -1.320866e-002 9.793431e-003 -6.079779e-004
<VARIANCE> 39
 3.114706e+001 2.012931e+001 8.592470e+001 3.492915e+001 7.352838e+001 5.534076e+001 9.012307e+001 3.630930e+001 7.096921e+001 4.301857e+001 3.859631e+001 3.427941e+001 1.436678e+002 3.340109e-001 7.876362e-001 2.290324e+000 1.230400e+000 2.076666e+000 1.977402e+000 2.290529e+000 1.910381e+000 1.988754e+000 1.686909e+000 1.536715e+000 1.249504e+000 6.005796e-001 4.709764e-002 1.115058e-001 2.138031e-001 1.972521e-001 2.967988e-001 3.255072e-001 3.582655e-001 3.488111e-001 3.436945e-001 3.046099e-001 2.784424e-001 2.308078e-001 4.496931e-002
<GCONST> 1.057155e+002
<TRANSP> 5
 0.000000e+000 1.000000e+000 0.000000e+000 0.000000e+000 0.000000e+000
 0.000000e+000 8.948761e-001 1.051239e-001 0.000000e+000 0.000000e+000
 0.000000e+000 0.000000e+000 9.384027e-001 6.159736e-002 0.000000e+000
 0.000000e+000 0.000000e+000 0.000000e+000 9.853700e-001 1.462995e-002
 0.000000e+000 0.000000e+000 0.000000e+000 0.000000e+000 0.000000e+000
<ENDHMM>
~h "mwolago"
<BEGINHMM>
<NUMSTATES> 5
<STATE> 2
<MEAN> 39
 -1.722833e+001 1.148134e+000 -8.653485e-001 6.189689e-001 -1.341342e+000 3.264218e-001 -6.279449e-001 -2.496401e+000 -2.551065e+000 1.062713e+000 -1.021295e+000 -1.716834e-002 4.455330e+001 3.052278e-001 1.137034e-001 3.447240e-001 1.739050e-001 -2.000161e-001 2.332232e-001 2.499633e-002 -6.521334e-001 -6.081975e-001 3.494088e-001 -1.616487e-001 -2.565704e-001 3.429084e-001 1.733257e-001 1.596680e-001 1.916776e-001 9.406091e-002 -9.496203e-003 6.813398e-002 2.938755e-003 -5.132346e-002 1.467665e-002 5.074267e-003 -6.602608e-002 -1.416236e-002 1.383591e-001
<VARIANCE> 39
 2.406221e+000 4.163216e+000 6.231621e+000 8.478655e+000 1.331686e+001 1.429054e+001 1.522304e+001 2.540805e+001 1.477142e+001 1.588439e+001 1.192465e+001 1.255184e+001 8.019341e+000 2.552510e-001 6.862530e-001 9.791256e-001 1.030474e+000 8.652644e-001 1.360610e+000 1.563356e+000 1.807608e+000 1.300270e+000 1.477620e+000 1.136126e+000 1.430672e+000 2.204785e-001 1.290281e-001 1.610302e-001 1.595227e-001 1.793998e-001 1.574796e-001 1.896130e-001 2.928753e-001 3.105967e-001 2.270668e-001 2.973063e-001 2.300388e-001 2.666061e-001 7.544465e-002
<GCONST> 7.939194e+001
<STATE> 3
<MEAN> 39
 -5.361140e+000 6.124095e+000 4.846848e+000 -3.461827e+000 -6.091611e+000 3.728480e+000 -2.218168e+000 -7.528598e+000 -8.111395e+000 1.196100e-001 -4.210758e+000 -1.673151e+000 5.771230e+001 2.197717e+000 3.018970e-001 -3.112028e-001 -3.089843e+000 -1.155901e+000 6.236462e-001 -6.627945e-001 5.250528e-001 -3.582515e-001 -8.338718e-001 4.936687e-001 5.302299e-002 2.951716e+000 -1.062136e-001 -2.976084e-001 -3.802332e-001 -5.437590e-001 -6.707054e-002 1.267651e-001 -6.909596e-002 1.972025e-001 1.008172e-001 1.636694e-002 3.577685e-001 4.369377e-002 8.596354e-002
<VARIANCE> 39
 4.390714e+001 2.036810e+001 2.871920e+001 1.214833e+002 4.800214e+001 3.563622e+001 3.090361e+001 5.991912e+001 3.396066e+001 3.153700e+001 3.820297e+001 2.738423e+001 7.770363e+001 2.917242e+000 3.100360e+000 4.376431e+000 1.036284e+001 4.051184e+000 4.087771e+000 2.530255e+000 5.911584e+000 4.751673e+000 3.098317e+000 6.372455e+000 2.947239e+000 2.922968e+000 7.434864e-001 4.150733e-001 5.406763e-001 1.832858e+000 9.094482e-001 8.140368e-001 5.147848e-001 9.864959e-001 7.119853e-001 6.178413e-001 7.783059e-001 5.116461e-001 7.712181e-001
<GCONST> 1.339401e+002
<STATE> 4
<MEAN> 39
 -3.642153e+000 2.722464e+000 -4.418451e+000 -1.283212e+001 -6.254391e+000 2.899508e+000 -3.346683e+000 1.041303e+000 -4.557126e+000 -3.413996e-001 -2.176391e-002 -3.782648e+000 6.276582e+001 -2.544737e-001 -4.664148e-002 -2.485238e-002 2.685999e-001 1.293989e-001 -9.367585e-002 5.781597e-002 2.514692e-002 9.202561e-002 3.206146e-002 -4.554695e-002 6.546158e-003 -3.359371e-001 -1.330949e-002 9.837350e-003 1.625917e-002 4.838808e-002 9.944413e-003 -1.837171e-002 4.413037e-003 -1.203511e-002 -3.140898e-003 -3.210732e-003 -3.174216e-002 2.215958e-003 -2.765288e-002
<VARIANCE> 39
 6.091473e+001 4.584276e+001 2.567582e+001 9.681562e+001 5.122973e+001 4.690668e+001 6.487719e+001 4.701186e+001 7.398975e+001 4.744995e+001 5.194978e+001 4.219082e+001 1.446140e+002 1.294487e+000 1.822532e+000 1.628538e+000 4.565814e+000 2.689030e+000 3.173955e+000 3.071368e+000 2.981030e+000 3.770875e+000 2.744486e+000 3.130116e+000 2.361228e+000 2.368898e+000 2.017504e-001 2.646549e-001 2.909651e-001 7.969459e-001 4.642098e-001 5.840502e-001 5.368665e-001 5.506709e-001 6.233217e-001 5.153468e-001 5.525112e-001 4.066815e-001 2.987779e-001
<GCONST> 1.257385e+002
<TRANSP> 5
 0.000000e+000 1.000000e+000 0.000000e+000 0.000000e+000 0.000000e+000
 0.000000e+000 8.920584e-001 1.079416e-001 0.000000e+000 0.000000e+000
 0.000000e+000 0.000000e+000 8.694082e-001 1.305918e-001 0.000000e+000
 0.000000e+000 0.000000e+000 0.000000e+000 9.866627e-001 1.333720e-002
 0.000000e+000 0.000000e+000 0.000000e+000 0.000000e+000 0.000000e+000
<ENDHMM>
~h "naghwaam"
<BEGINHMM>
<NUMSTATES> 5
<STATE> 2
<MEAN> 39
 -1.731619e+001 1.465892e+000 -1.302836e+000 6.312684e-001 -8.119571e-001 5.817803e-002 -2.781402e-001 -1.239459e+000 -1.674953e+000 1.679924e-001 -1.267924e+000 2.941053e-001 4.448914e+001 2.901091e-001 9.215248e-002 3.334199e-001 1.308332e-001 -2.793494e-001 1.829688e-001 2.362766e-001 -2.662634e-001 -1.184922e-001 1.714190e-001 -3.636238e-001 -1.617859e-001 2.874038e-001 1.277192e-001 8.463398e-002 9.253513e-002 -6.371685e-003 -7.583768e-002 -5.101197e-002 -2.580643e-002 -4.890656e-002 4.299686e-002 2.403056e-002 -8.638664e-002 -1.024405e-001 2.214199e-001
<VARIANCE> 39
 4.394147e+000 7.064879e+000 7.822600e+000 1.238523e+001 1.566074e+001 1.783523e+001 1.514614e+001 1.730229e+001 1.175930e+001 1.645203e+001 1.873704e+001 1.251398e+001 8.061334e+000 5.187965e-001 8.618045e-001 1.001335e+000 1.186417e+000 1.119428e+000 1.761920e+000 1.630044e+000 1.924356e+000 1.340960e+000 1.791487e+000 1.720031e+000 1.310704e+000 3.094361e-001 1.627156e-001 2.407774e-001 1.812123e-001 2.875607e-001 2.405327e-001 3.480714e-001 3.010280e-001 3.674699e-001 2.013183e-001 3.178923e-001 3.016467e-001 2.298231e-001 2.170223e-001
<GCONST> 8.758107e+001
<STATE> 3
<MEAN> 39
 -9.075496e+000 -6.818348e-001 -7.447532e+000 -9.031003e+000 1.623456e+000 4.573025e-001 -1.644495e+000 3.049110e-002 -2.818158e+000 3.277543e+000 -3.768735e+000 -5.691930e+000 6.547049e+001 4.280695e-001 -1.264612e-001 -2.989552e-001 -5.656717e-001 1.281845e-001 1.316889e-001 -8.668954e-002 8.018628e-004 -1.122207e-001 1.065844e-001 1.308498e-001 -3.335216e-001 9.377282e-001 -2.276710e-002 -4.469712e-002 -3.915605e-002 -3.147027e-002 1.011559e-003 8.914987e-003 -7.049586e-003 2.852394e-003 -2.157599e-003 -4.540790e-003 1.947486e-002 2.882347e-003 -4.687936e-002
<VARIANCE> 39
 3.662383e+001 3.494627e+001 6.190239e+001 7.701424e+001 5.596559e+001 5.088808e+001 3.751277e+001 4.579640e+001 3.868877e+001 3.368643e+001 4.503600e+001 4.306668e+001 1.466569e+002 3.948936e+000 3.858481e+000 4.922297e+000 6.262300e+000 5.241163e+000 4.469817e+000 4.317428e+000 4.786762e+000 3.881281e+000 3.836010e+000 3.635102e+000 3.595339e+000 1.403623e+001 6.195119e-001 6.825436e-001 9.466855e-001 1.202730e+000 9.286264e-001 8.641322e-001 9.015604e-001 9.572107e-001 7.932811e-001 8.057926e-001 6.636826e-001 5.548535e-001 1.789060e+000
<GCONST> 1.407192e+002
<STATE> 4
<MEAN> 39
 -6.950413e+000 -9.688448e-001 -2.018017e+000 -4.917001e+000 2.072452e+000 2.064870e+000 -4.290213e+000 -3.750802e+000 -4.041089e+000 1.347981e+000 -2.100882e+000 -4.721380e+000 6.149829e+001 -2.985438e-001 5.331257e-002 1.334171e-001 3.395101e-001 -9.411251e-003 -1.132562e-001 -3.133942e-002 4.870585e-002 7.356152e-002 -1.084806e-001 -1.609479e-002 2.267209e-001 -6.109057e-001 -1.640129e-002 6.560289e-003 3.582054e-003 1.448520e-002 1.103253e-002 -4.240718e-003 -7.137307e-003 7.785743e-003 -4.688252e-003 1.400815e-003 8.091662e-003 1.108485e-002 -1.326660e-002
<VARIANCE> 39
 5.227218e+001 2.370574e+001 7.141362e+001 1.359451e+002 4.838046e+001 4.354682e+001 4.352652e+001 4.742899e+001 3.770159e+001 3.905345e+001 4.337068e+001 8.292330e+001 1.844054e+002 4.460850e-001 7.081422e-001 2.111642e+000 2.091507e+000 1.714029e+000 1.558979e+000 2.044086e+000 2.516674e+000 1.857329e+000 1.683613e+000 1.421326e+000 1.686498e+000 5.972421e-001 6.401716e-002 9.878586e-002 2.595319e-001 2.682190e-001 2.827079e-001 2.659330e-001 3.408706e-001 4.123062e-001 3.106661e-001 3.100321e-001 2.285879e-001 2.770562e-001 5.213382e-002
<GCONST> 1.080860e+002
<TRANSP> 5
 0.000000e+000 1.000000e+000 0.000000e+000 0.000000e+000 0.000000e+000
 0.000000e+000 8.929071e-001 1.070929e-001 0.000000e+000 0.000000e+000
 0.000000e+000 0.000000e+000 9.692237e-001 3.077633e-002 0.000000e+000
 0.000000e+000 0.000000e+000 0.000000e+000 9.813675e-001 1.863244e-002
 0.000000e+000 0.000000e+000 0.000000e+000 0.000000e+000 0.000000e+000
<ENDHMM>
~h "noemureul"
<BEGINHMM>
<NUMSTATES> 5
<STATE> 2
<MEAN> 39
 -1.717909e+001 1.331504e+000 -1.459671e+000 5.673338e-001 -1.091315e+000 4.742085e-002 -5.302441e-001 -1.119269e+000 -1.644799e+000 6.604937e-001 -1.453696e+000 -9.084744e-003 4.413865e+001 1.140529e-001 3.052155e-001 4.477188e-001 2.620127e-001 -1.445598e-001 1.331383e-001 6.178277e-002 -4.985537e-001 -3.077745e-001 1.367684e-001 -1.092676e-001 -2.701728e-001 1.476426e-001 1.413779e-001 1.326907e-001 1.485991e-001 3.656019e-002 -1.795643e-002 -1.214678e-002 5.364020e-002 4.064856e-002 3.148984e-002 -8.056155e-003 -2.440687e-002 -6.877715e-002 1.577231e-001
<VARIANCE> 39
 3.871422e+000 4.709999e+000 6.734300e+000 7.326649e+000 1.417358e+001 1.383502e+001 1.137806e+001 1.461951e+001 1.045662e+001 1.314108e+001 1.285727e+001 1.398973e+001 7.550030e+000 4.389389e-001 8.033646e-001 6.871704e-001 9.437891e-001 1.344279e+000 1.418631e+000 1.325640e+000 1.153401e+000 8.750463e-001 1.241387e+000 1.246962e+000 1.469211e+000 1.736213e-001 1.572181e-001 1.897292e-001 1.740426e-001 1.854213e-001 2.793310e-001 2.476197e-001 2.095179e-001 2.286156e-001 1.792830e-001 1.956637e-001 2.427585e-001 2.664470e-001 9.509965e-002
<GCONST> 7.844376e+001
<STATE> 3
<MEAN> 39
 -8.676755e+000 5.270411e+000 7.465631e+000 -1.245729e-001 -5.800225e+000 -4.985351e+000 -2.818093e+000 -2.626537e+000 -6.267055e+000 -9.704802e-001 -2.355175e+000 -2.681139e+000 5.833559e+001 1.175410e+000 -4.416483e-001 1.007228e+000 -6.103846e-001 -1.388134e+000 -1.517471e+000 -9.814990e-001 8.242990e-001 -8.204836e-001 -2.766947e-001 5.517898e-001 7.890161e-002 3.416034e+000 -1.003775e-001 -3.094046e-001 -1.724523e-001 -4.571744e-002 -2.477210e-001 5.517073e-003 -8.549371e-002 2.415278e-001 6.600124e-002 1.244102e-001 1.468010e-001 6.508482e-002 5.708273e-002
<VARIANCE> 39
 4.487815e+001 3.291598e+001 3.222458e+001 4.736853e+001 4.104602e+001 6.331276e+001 4.323138e+001 4.641430e+001 3.095380e+001 2.304435e+001 2.755835e+001 2.388768e+001 1.350569e+002 5.211023e+000 4.851800e+000 3.261211e+000 5.081329e+000 4.884654e+000 4.097933e+000 4.015705e+000 6.229361e+000 2.862610e+000 2.687311e+000 4.720460e+000 2.908902e+000 4.640063e+000 1.013938e+000 6.571413e-001 5.589917e-001 1.090787e+000 8.462033e-001 1.076867e+000 8.306931e-001 9.936999e-001 5.400454e-001 4.638336e-001 8.388196e-001 5.361011e-001 1.250314e+000
<GCONST> 1.350410e+002
<STATE> 4
<MEAN> 39
 -5.280869e+000 -1.056630e+000 3.286644e+000 -4.227048e-003 -9.230093e+000 -3.149680e+000 -7.805393e+000 -1.957274e+000 -2.886133e+000 5.357104e-001 -1.750606e+000 -1.995298e+000 6.374073e+001 -1.475862e-001 2.999124e-002 -1.576209e-001 4.693774e-002 1.708810e-001 1.495722e-001 8.699739e-002 -6.825773e-002 1.279614e-001 2.353609e-002 -4.461079e-002 1.920054e-002 -4.163805e-001 -5.477883e-003 1.973366e-002 5.472181e-003 -6.369738e-004 3.452052e-002 1.028416e-003 3.883412e-003 -2.976628e-002 -5.745653e-003 -1.126815e-002 -1.216204e-002 -3.324552e-004 -2.394152e-002
<VARIANCE> 39
 4.990611e+001 2.811433e+001 4.189016e+001 4.790841e+001 5.707580e+001 5.572192e+001 7.222227e+001 7.331129e+001 6.425900e+001 3.635106e+001 4.851604e+001 3.332023e+001 1.355062e+002 1.158626e+000 1.213854e+000 1.830982e+000 2.941072e+000 2.827003e+000 2.881797e+000 3.382598e+000 3.795614e+000 2.763891e+000 2.325101e+000 3.140080e+000 1.990221e+000 1.314153e+000 1.895187e-001 1.897069e-001 2.772830e-001 4.488374e-001 5.440364e-001 4.976021e-001 6.052988e-001 6.547126e-001 4.824809e-001 4.271012e-001 5.472112e-001 3.736446e-001 1.904491e-001
<GCONST> 1.213944e+002
<TRANSP> 5
 0.000000e+000 1.000000e+000 0.000000e+000 0.000000e+000 0.000000e+000
 0.000000e+000 8.817168e-001 1.182831e-001 0.000000e+000 0.000000e+000
 0.000000e+000 0.000000e+000 8.867260e-001 1.132740e-001 0.000000e+000
 0.000000e+000 0.000000e+000 0.000000e+000 9.866341e-001 1.336585e-002
 0.000000e+000 0.000000e+000 0.000000e+000 0.000000e+000 0.000000e+000
<ENDHMM>
~h "eoduun"
<BEGINHMM>
<NUMSTATES> 5
<STATE> 2
<MEAN> 39
 -1.704493e+001 5.027905e-001 -4.671624e+000 -3.244385e+000 -4.597372e-001 2.894202e+000 3.185038e-001 -9.409375e-001 -2.436837e+000 -8.466256e-001 2.035440e-001 5.713367e-001 4.498111e+001 3.156613e-001 6.699624e-002 -3.137841e-001 -5.383676e-001 -9.889890e-002 5.166577e-001 3.763676e-001 -2.287169e-002 -1.989767e-001 -3.153206e-001 -9.061415e-002 -7.548045e-002 3.119464e-001 1.127754e-001 7.625473e-002 3.327202e-002 -1.250364e-001 -4.479010e-004 5.422896e-002 -4.724766e-002 -2.908451e-003 6.514341e-003 7.268164e-002 6.030125e-003 1.237909e-002 2.099379e-001
<VARIANCE> 39
 5.400413e+000 5.797381e+000 2.136538e+001 1.951282e+001 1.193210e+001 3.007833e+001 2.724360e+001 1.653097e+001 1.755768e+001 1.792215e+001 1.769484e+001 1.288010e+001 1.053192e+001 7.038156e-001 7.467745e-001 1.984105e+000 1.625526e+000 1.417179e+000 2.625828e+000 2.590850e+000 1.825205e+000 2.165986e+000 1.797806e+000 2.005298e+000 1.398732e+000 4.685431e-001 2.325628e-001 1.927922e-001 3.777998e-001 3.349335e-001 2.519046e-001 4.955931e-001 3.855018e-001 3.073925e-001 4.103892e-001 3.650545e-001 3.592472e-001 2.784232e-001 1.405048e-001
<GCONST> 9.616138e+001
<STATE> 3
<MEAN> 39
 -5.835747e+000 2.892726e+000 -1.123434e+000 -1.158702e+001 -1.905307e+000 1.727401e+000 -8.086370e+000 -3.334666e+000 -5.034976e+000 1.527893e+000 1.149505e+000 -3.304439e+000 6.605537e+001 4.255447e-001 8.064896e-002 2.011719e-001 -4.704741e-002 -1.222924e-001 -1.322573e-001 -5.999898e-001 -2.794225e-001 -2.469667e-001 9.961974e-002 1.943721e-001 -2.064509e-001 8.404711e-001 -1.522089e-002 -1.025271e-002 -3.191299e-002 -8.911294e-004 -3.345208e-003 4.443448e-002 2.945726e-002 -2.561863e-002 -4.658088e-002 -1.783996e-002 4.254381e-002 1.826484e-002 -7.003860e-002
<VARIANCE> 39
 5.634451e+001 3.540252e+001 3.640791e+001 1.111962e+002 3.620630e+001 8.404676e+001 7.003951e+001 5.814695e+001 4.355938e+001 4.580767e+001 4.786385e+001 3.770340e+001 1.117914e+002 5.739427e+000 4.568317e+000 2.635027e+000 8.415862e+000 3.321640e+000 5.560607e+000 6.034232e+000 4.581147e+000 3.549870e+000 3.347706e+000 3.719507e+000 2.914590e+000 1.173906e+001 9.831846e-001 9.292634e-001 4.577955e-001 1.252506e+000 5.909794e-001 9.542241e-001 1.113052e+000 8.689880e-001 6.125741e-001 5.892277e-001 6.315112e-001 5.484750e-001 1.953040e+000
<GCONST> 1.409875e+002
<STATE> 4
<MEAN> 39
 -7.423556e+000 3.487710e+000 2.562373e+000 -3.264047e+000 -4.739223e+000 3.255092e-001 -6.170392e+000 -4.665422e+000 -5.619697e+000 -3.569279e-001 -1.680055e+000 -3.613956e+000 5.894402e+001 -3.022669e-001 -7.912276e-002 -4.750753e-002 1.685556e-001 8.682695e-002 -3.924441e-002 3.063709e-001 1.871409e-001 2.135131e-001 -3.640595e-002 -1.549469e-001 1.109007e-001 -5.577871e-001 -2.114232e-002 -9.642584e-003 1.509347e-002 3.154737e-002 1.087665e-002 -3.846962e-002 -6.491360e-003 1.489544e-002 3.432100e-002 1.493875e-002 -3.767627e-002 -9.725495e-003 1.217033e-003
<VARIANCE> 39
 5.439684e+001 2.624091e+001 5.183559e+001 8.199178e+001 4.466613e+001 4.420305e+001 5.984073e+001 5.136709e+001 6.074980e+001 4.113073e+001 6.757485e+001 4.107860e+001 1.320947e+002 4.334958e-001 8.622716e-001 1.764194e+000 2.130435e+000 1.843105e+000 1.813373e+000 2.048409e+000 1.919789e+000 1.909401e+000 1.964629e+000 2.449447e+000 1.818623e+000 6.989260e-001 5.229555e-002 1.113104e-001 2.114245e-001 2.665069e-001 3.025707e-001 3.155480e-001 3.702361e-001 3.648340e-001 3.322991e-001 2.976363e-001 3.838950e-001 3.042194e-001 7.349447e-002
<GCONST> 1.094788e+002
<TRANSP> 5
 0.000000e+000 1.000000e+000 0.000000e+000 0.000000e+000 0.000000e+000
 0.000000e+000 8.854430e-001 1.145570e-001 0.000000e+000 0.000000e+000
 0.000000e+000 0.000000e+000 9.662477e-001 3.375233e-002 0.000000e+000
 0.000000e+000 0.000000e+000 0.000000e+000 9.796926e-001 2.030739e-002
 0.000000e+000 0.000000e+000 0.000000e+000 0.000000e+000 0.000000e+000
<ENDHMM>
~h "doepuri"
<BEGINHMM>
<NUMSTATES> 5
<STATE> 2
<MEAN> 39
 -1.753050e+001 1.255102e+000 -1.873612e+000 -2.218317e-001 -1.857649e+000 -6.422224e-001 -7.788070e-001 -2.949705e-001 -1.054201e+000 -1.041799e-002 -2.856042e-001 7.496675e-001 4.377217e+001 2.888164e-002 -3.343889e-002 8.618914e-002 -1.777353e-001 7.353760e-002 -9.885087e-002 -7.867058e-002 -8.810682e-002 -1.660892e-001 -4.463490e-002 1.820800e-002 2.969083e-002 1.326222e-001 -4.597690e-002 -1.421980e-001 6.381847e-002 -2.188575e-001 4.151068e-002 -4.628049e-002 2.836291e-002 2.074580e-002 -2.494666e-002 -5.293949e-003 -4.405117e-002 2.821491e-002 3.394891e-001
<VARIANCE> 39
 3.133814e+000 4.745062e+000 5.987874e+000 1.236763e+001 1.418180e+001 1.391701e+001 1.158729e+001 1.242371e+001 1.535032e+001 1.092308e+001 1.324055e+001 1.009278e+001 5.553286e+000 1.984030e-001 4.556641e-001 6.070320e-001 1.640692e+000 1.289998e+000 1.276106e+000 1.224346e+000 1.236617e+000 1.661252e+000 1.251147e+000 1.403434e+000 1.083657e+000 3.303755e-001 4.322197e-002 1.703940e-001 1.261016e-001 3.835703e-001 2.444865e-001 2.549051e-001 2.372388e-001 2.224376e-001 3.025279e-001 2.450435e-001 2.919332e-001 1.909313e-001 5.120407e-001
<GCONST> 7.940105e+001
<STATE> 3
<MEAN> 39
 -9.963474e+000 -3.920581e-001 2.135098e+000 -2.151159e+000 -5.487561e+000 -4.466174e+000 -6.698663e+000 -1.752560e+000 -3.833916e+000 1.393658e+000 1.244863e+000 1.796610e-001 6.415762e+001 2.216538e-001 2.188958e-002 5.124006e-001 -2.380952e-002 -4.097374e-001 -8.267137e-002 -2.072072e-001 -6.781425e-002 -3.070936e-001 -1.814194e-002 8.612565e-002 -1.095276e-001 6.450859e-001 8.913211e-003 5.362507e-002 1.856577e-002 3.055971e-002 -3.559573e-002 2.305177e-002 -8.720030e-003 -3.731196e-003 -3.292643e-002 1.338739e-002 4.261603e-004 -2.460117e-002 -6.723855e-002
<VARIANCE> 39
 5.872480e+001 3.236550e+001 5.166599e+001 4.331743e+001 5.817945e+001 6.078818e+001 5.316332e+001 4.833776e+001 3.989048e+001 3.015046e+001 3.015810e+001 2.675538e+001 1.314771e+002 5.165359e+000 3.738420e+000 3.657295e+000 5.252762e+000 5.712083e+000 4.965196e+000 4.568506e+000 3.783771e+000 4.160200e+000 3.261914e+000 3.315880e+000 2.689027e+000 1.333761e+001 7.983216e-001 6.864945e-001 5.033995e-001 1.076270e+000 1.038478e+000 8.647502e-001 8.043420e-001 6.841885e-001 7.660743e-001 6.339183e-001 6.656283e-001 5.520850e-001 1.951320e+000
<GCONST> 1.381508e+002
<STATE> 4
<MEAN> 39
 -1.278697e+001 3.771122e+000 9.858679e+000 -2.985294e+000 -9.785645e+000 -8.915257e-001 -3.088856e+000 -2.331203e+000 -7.620058e+000 4.561916e-001 1.057893e-001 -1.786935e+000 5.687752e+001 -2.315076e-001 -2.327196e-002 -5.708098e-001 5.025082e-002 3.991513e-001 5.561116e-002 2.173696e-001 1.236274e-001 3.851500e-001 6.936575e-003 -1.001878e-001 8.231643e-002 -7.013413e-001 -4.997706e-003 -2.804121e-002 -4.369290e-002 1.093852e-002 3.112029e-002 -1.931736e-002 5.615507e-003 7.245806e-003 4.667622e-002 -1.687773e-002 -8.896980e-003 1.804398e-002 -5.726940e-003
<VARIANCE> 39
 1.861900e+001 2.253426e+001 1.147815e+002 2.988810e+001 7.269810e+001 3.993630e+001 5.789990e+001 2.957742e+001 6.492632e+001 3.667300e+001 3.027212e+001 2.740880e+001 1.342767e+002 3.845207e-001 1.110344e+000 1.658566e+000 1.537804e+000 1.959787e+000 2.056090e+000 2.605214e+000 1.710763e+000 1.933225e+000 1.990423e+000 1.575495e+000 1.407997e+000 7.755701e-001 7.151148e-002 1.705843e-001 2.430463e-001 2.910001e-001 3.857767e-001 3.711737e-001 4.295460e-001 3.244705e-001 3.865500e-001 3.629665e-001 2.981201e-001 2.799584e-001 6.780430e-002
<GCONST> 1.074280e+002
<TRANSP> 5
 0.000000e+000 1.000000e+000 0.000000e+000 0.000000e+000 0.000000e+000
 0.000000e+000 8.807707e-001 1.192292e-001 0.000000e+000 0.000000e+000
 0.000000e+000 0.000000e+000 9.766225e-001 2.337748e-002 0.000000e+000
 0.000000e+000 0.000000e+000 0.000000e+000 9.750228e-001 2.497715e-002
 0.000000e+000 0.000000e+000 0.000000e+000 0.000000e+000 0.000000e+000
<ENDHMM>
~h "choeagi"
<BEGINHMM>
<NUMSTATES> 5
<STATE> 2
<MEAN> 39
 -1.802454e+001 1.771059e+000 -6.329184e-001 -1.234541e-001 -8.063228e-001 -2.541481e-001 -1.752595e+000 -7.884166e-001 -1.453266e+000 1.625959e-001 4.243173e-001 6.370826e-001 4.421384e+001 -9.950459e-002 -4.612117e-001 7.495004e-002 -4.295497e-001 -9.649907e-002 1.711229e-001 -1.388366e-002 -6.341684e-002 5.462420e-002 -2.484963e-002 1.194593e-001 4.388445e-002 8.228207e-001 -2.048030e-001 -1.651867e-001 9.053085e-002 -3.482579e-001 -7.973657e-002 3.196258e-002 -7.319660e-002 5.766819e-002 1.968393e-002 -1.238839e-002 -3.205659e-002 -3.531693e-002 5.437979e-001
<VARIANCE> 39
 6.222655e+000 7.262115e+000 1.010398e+001 1.187668e+001 1.096657e+001 1.562938e+001 1.996319e+001 1.566861e+001 1.415210e+001 1.161952e+001 1.134328e+001 1.124846e+001 1.230489e+001 1.008033e+000 2.105251e+000 1.476238e+000 3.370797e+000 1.616610e+000 1.799968e+000 2.340614e+000 2.104238e+000 1.603325e+000 1.307792e+000 1.349051e+000 1.234239e+000 4.854873e+000 2.262459e-001 2.607298e-001 3.043454e-001 4.458741e-001 2.623164e-001 3.182883e-001 4.442402e-001 4.030038e-001 3.042185e-001 2.451621e-001 2.450779e-001 1.640752e-001 8.758419e-001
<GCONST> 9.650340e+001
<STATE> 3
<MEAN> 39
 -2.126961e+001 -4.583380e+000 4.803695e+000 -8.744266e+000 -8.411980e+000 -2.717347e+000 -2.630132e+000 9.998239e-001 -2.204179e+000 -7.083496e-001 6.635151e-001 8.366169e-001 7.110334e+001 1.006037e+000 1.574061e-003 6.294076e-001 8.254741e-002 -9.710380e-001 -8.363130e-001 -9.996415e-002 4.274682e-001 -3.618632e-001 2.723534e-002 -1.032519e-001 -1.120085e-001 1.696850e+000 2.938512e-001 1.321671e-001 -8.040600e-002 2.149563e-001 -2.959387e-002 -9.507875e-002 -4.977550e-003 7.566290e-002 2.240698e-002 9.031570e-003 -3.724393e-002 -2.948864e-002 -3.389519e-001
<VARIANCE> 39
 7.044521e+001 1.833952e+001 2.802984e+001 4.651105e+001 3.119309e+001 4.166688e+001 2.618376e+001 2.459438e+001 2.549353e+001 1.654949e+001 1.725996e+001 2.244619e+001 3.317636e+001 7.584989e+000 2.091457e+000 2.097014e+000 4.822413e+000 2.309891e+000 2.819986e+000 3.175644e+000 2.106804e+000 2.647909e+000 1.744507e+000 2.179289e+000 1.948652e+000 8.256660e+000 8.086243e-001 5.316746e-001 3.982952e-001 7.789725e-001 3.826440e-001 4.579611e-001 5.882260e-001 4.026426e-001 5.367275e-001 3.407421e-001 3.569997e-001 3.313881e-001 9.650936e-001
<GCONST> 1.200322e+002
<STATE> 4
<MEAN> 39
 -9.967436e+000 2.178381e+000 6.744689e+000 -6.085149e+000 -8.158509e+000 -4.263127e+000 -3.796807e+000 2.557015e-002 -5.269418e+000 6.981770e-001 -2.203813e+000 -3.670037e+000 6.394176e+001 -1.509377e-001 6.260622e-002 -1.521544e-001 6.788056e-002 1.943073e-001 1.284002e-001 4.158989e-002 -6.173107e-002 4.354339e-002 -6.370205e-003 2.143703e-002 2.867217e-002 -4.296320e-001 -2.671258e-002 -1.565347e-003 -2.620080e-003 8.236393e-003 2.492913e-002 1.216326e-002 1.401964e-002 -1.030884e-002 -4.448258e-003 -1.134029e-003 3.600606e-003 7.694668e-003 -2.133730e-002
<VARIANCE> 39
 3.747464e+001 5.651847e+001 1.043656e+002 4.269844e+001 6.231505e+001 6.001719e+001 5.216931e+001 4.911532e+001 6.158642e+001 4.283537e+001 5.261393e+001 5.099589e+001 1.679783e+002 1.311416e+000 2.031419e+000 2.701575e+000 2.182400e+000 2.573462e+000 2.273870e+000 2.828257e+000 2.316365e+000 3.155340e+000 2.156702e+000 2.049523e+000 2.005754e+000 2.524110e+000 2.311579e-001 3.381864e-001 3.123789e-001 3.729263e-001 4.000132e-001 3.895742e-001 4.793348e-001 4.322004e-001 5.383834e-001 3.631263e-001 3.225305e-001 3.047702e-001 3.606396e-001
<GCONST> 1.222633e+002
<TRANSP> 5
 0.000000e+000 1.000000e+000 0.000000e+000 0.000000e+000 0.000000e+000
 0.000000e+000 9.051226e-001 9.487745e-002 0.000000e+000 0.000000e+000
 0.000000e+000 0.000000e+000 9.223809e-001 7.761919e-002 0.000000e+000
 0.000000e+000 0.000000e+000 0.000000e+000 9.861355e-001 1.386450e-002
 0.000000e+000 0.000000e+000 0.000000e+000 0.000000e+000 0.000000e+000
<ENDHMM>
~h "nawaya"
<BEGINHMM>
<NUMSTATES> 5
<STATE> 2
<MEAN> 39
 -1.713891e+001 6.542326e-001 -1.660465e+000 -2.337887e-001 -1.876981e+000 -2.993332e-001 -5.677868e-001 -1.445200e+000 -1.155954e+000 1.559422e-001 -1.963623e+000 1.129668e-001 4.511117e+001 6.050299e-002 1.138329e-001 4.043756e-001 1.442463e-001 -2.087765e-001 1.608869e-001 1.832766e-001 -4.082833e-001 -1.087814e-001 1.116232e-001 -4.065657e-001 -1.131352e-001 2.119850e-001 1.069847e-001 1.243722e-001 1.201838e-001 8.619318e-002 3.114535e-002 -2.542800e-002 -5.340977e-002 -4.154384e-002 -2.325238e-002 7.046386e-002 -3.264500e-002 -2.223886e-002 1.582871e-001
<VARIANCE> 39
 2.958176e+000 1.022587e+001 6.442197e+000 1.092615e+001 1.467606e+001 1.189207e+001 1.293621e+001 1.760164e+001 1.417144e+001 1.135756e+001 1.677142e+001 1.229272e+001 1.004139e+001 2.359926e-001 5.697152e-001 9.400765e-001 1.181517e+000 1.409392e+000 1.373891e+000 1.633795e+000 1.570593e+000 1.304693e+000 1.231507e+000 1.608361e+000 1.142717e+000 2.651490e-001 1.060294e-001 1.479016e-001 1.896415e-001 2.105538e-001 2.704196e-001 2.625895e-001 3.036672e-001 2.563950e-001 2.434680e-001 2.171676e-001 2.832614e-001 2.213719e-001 1.399989e-001
<GCONST> 8.185535e+001
<STATE> 3
<MEAN> 39
 -8.987165e+000 2.217942e+000 1.971059e+000 -2.901364e+000 -2.013256e+000 -3.624996e+000 -5.093883e+000 -2.950693e+000 1.395526e-001 5.514742e-001 -8.227068e+000 -3.260000e+000 6.282072e+001 1.274041e+000 -8.689095e-001 -8.217638e-001 -1.381246e+000 7.461847e-001 -2.015172e-001 -4.723582e-001 6.341810e-001 2.530119e-001 -1.951938e-001 -6.284571e-001 -7.856708e-001 3.285962e+000 -5.179321e-002 -2.776350e-001 -2.123692e-001 -1.506337e-001 1.004991e-001 1.402896e-001 1.409672e-001 -1.748470e-002 -6.161243e-002 -3.188450e-002 1.470127e-001 -8.319904e-002 -7.981255e-002
<VARIANCE> 39
 3.742383e+001 4.228433e+001 6.958879e+001 6.983270e+001 5.501292e+001 4.268588e+001 4.978310e+001 6.346518e+001 2.844696e+001 2.298048e+001 3.572301e+001 3.766777e+001 1.570568e+002 3.094104e+000 5.104853e+000 8.081807e+000 5.342938e+000 5.142965e+000 5.709532e+000 4.665161e+000 6.801409e+000 2.678173e+000 2.383952e+000 3.299218e+000 2.799900e+000 6.402354e+000 6.252698e-001 6.942067e-001 1.426792e+000 1.022598e+000 9.089177e-001 1.058276e+000 8.744235e-001 1.575155e+000 4.783328e-001 4.691166e-001 6.544200e-001 4.271340e-001 1.558049e+000
<GCONST> 1.388910e+002
<STATE> 4
<MEAN> 39
 -5.796123e+000 -3.749088e+000 -4.328575e+000 -1.020151e+001 -2.711433e-001 3.956437e-001 -1.712177e+000 2.058749e+000 -9.555650e-001 1.234859e-001 -3.507128e+000 -6.234197e+000 6.737037e+001 -1.960913e-001 1.096000e-001 7.629429e-002 1.689171e-001 -6.044295e-002 6.537443e-003 4.766544e-002 -4.243919e-002 -2.242694e-002 9.760973e-003 1.447485e-001 1.383177e-001 -4.624814e-001 -9.822648e-003 1.887091e-002 1.173064e-002 1.461086e-002 -1.749045e-002 -1.900874e-002 -1.414966e-002 5.924412e-003 8.949562e-003 1.222342e-003 -5.872209e-003 2.137168e-002 -1.135044e-002
<VARIANCE> 39
 4.503349e+001 2.536790e+001 4.403614e+001 8.904403e+001 7.726854e+001 6.582474e+001 2.926434e+001 4.528451e+001 3.485298e+001 3.036937e+001 5.272128e+001 6.472530e+001 1.724040e+002 4.979757e-001 1.100359e+000 1.665565e+000 1.795113e+000 2.705911e+000 2.123305e+000 1.546095e+000 2.154985e+000 1.812232e+000 1.492512e+000 2.273372e+000 2.338938e+000 8.138316e-001 5.294888e-002 1.736068e-001 1.986443e-001 2.372454e-001 3.196276e-001 2.639318e-001 2.795901e-001 3.720050e-001 3.012098e-001 2.486450e-001 3.381836e-001 3.377565e-001 7.250293e-002
<GCONST> 1.090054e+002
<TRANSP> 5
 0.000000e+000 1.000000e+000 0.000000e+000 0.000000e+000 0.000000e+000
 0.000000e+000 8.871315e-001 1.128686e-001 0.000000e+000 0.000000e+000
 0.000000e+000 0.000000e+000 8.989401e-001 1.010599e-001 0.000000e+000
 0.000000e+000 0.000000e+000 0.000000e+000 9.864029e-001 1.359711e-002
 0.000000e+000 0.000000e+000 0.000000e+000 0.000000e+000 0.000000e+000
<ENDHMM>
~h "bunyaeseo"
<BEGINHMM>
<NUMSTATES> 5
<STATE> 2
<MEAN> 39
 -1.805653e+001 5.711761e-001 -1.421305e+000 2.424700e-001 -5.803965e-001 -4.466681e-001 -6.435207e-001 -1.169686e-001 -1.256910e+000 1.149024e-001 -6.138933e-001 3.152054e-001 4.436034e+001 -8.852823e-003 -3.446710e-001 -2.089715e-001 -2.379954e-001 -1.449259e-001 -1.037830e-001 -1.761891e-001 -1.890671e-001 -1.705482e-001 9.695785e-002 1.918663e-001 4.636086e-002 1.152198e+000 -1.978487e-002 -1.802187e-001 -1.084813e-001 6.502313e-003 7.272510e-002 -6.630932e-002 -9.345505e-002 -6.259969e-003 6.632394e-002 1.963872e-002 7.024054e-002 1.338240e-002 5.691095e-001
<VARIANCE> 39
 2.451897e+000 7.110339e+000 5.574165e+000 8.683768e+000 1.354076e+001 1.405402e+001 1.491133e+001 1.559208e+001 1.468887e+001 1.423363e+001 1.155614e+001 1.520907e+001 1.297993e+001 3.722866e-001 1.427982e+000 8.927802e-001 1.242301e+000 1.606397e+000 1.491625e+000 1.554598e+000 1.736952e+000 1.777575e+000 1.847687e+000 1.522122e+000 1.745091e+000 5.895645e+000 5.666831e-002 2.223849e-001 1.610368e-001 2.056358e-001 3.036067e-001 2.524960e-001 2.710764e-001 3.428403e-001 3.476838e-001 3.190676e-001 2.726068e-001 3.633453e-001 7.253889e-001
<GCONST> 8.990929e+001
<STATE> 3
<MEAN> 39
 -9.440026e+000 -1.958668e-001 3.295904e+000 -3.273949e+000 -5.695685e+000 -3.588486e+000 -8.122344e+000 -1.538771e+000 -4.987878e+000 -1.117631e-001 -6.263782e-001 -1.348697e+000 6.917916e+001 6.292386e-001 -8.258040e-003 4.968652e-001 -3.035175e-001 -6.323315e-001 -2.578022e-001 -2.016194e-001 4.936525e-001 -1.817281e-001 -1.961451e-001 -2.880493e-001 -6.896142e-002 1.122201e+000 2.939475e-002 -2.345489e-004 -4.625826e-002 1.512086e-002 2.484212e-002 2.828497e-002 7.024579e-002 1.041395e-001 6.787486e-002 -4.296625e-002 -1.249210e-001 -4.099149e-002 -2.406718e-001
<VARIANCE> 39
 5.166832e+001 4.380978e+001 8.088773e+001 3.775718e+001 7.850719e+001 3.510844e+001 4.867167e+001 4.697778e+001 4.573526e+001 4.804510e+001 4.218504e+001 2.919675e+001 2.791895e+001 3.276879e+000 4.056852e+000 4.907546e+000 3.317011e+000 5.142792e+000 3.446212e+000 4.555722e+000 5.664676e+000 3.955870e+000 4.158935e+000 3.734973e+000 2.779008e+000 4.919004e+000 5.955715e-001 5.985869e-001 7.924846e-001 6.986189e-001 1.041059e+000 6.999084e-001 8.334495e-001 1.033403e+000 7.725445e-001 7.975122e-001 7.106424e-001 5.096161e-001 8.705476e-001
<GCONST> 1.357318e+002
<STATE> 4
<MEAN> 39
 -9.140574e+000 -8.553810e-001 -2.451638e+000 -7.272988e+000 -3.877620e+000 -6.077286e-001 -2.303272e+000 2.719873e+000 -3.099812e+000 3.376565e-001 -1.987930e+000 -2.224540e+000 6.533987e+001 -1.554691e-001 6.069765e-002 -1.171570e-001 9.523242e-002 1.644333e-001 8.356947e-002 6.648725e-002 -1.324739e-001 5.339991e-002 4.306841e-002 6.760664e-002 1.696382e-002 -4.645852e-001 -9.554252e-003 2.790544e-002 3.292098e-002 9.471758e-004 -1.674296e-002 -7.956889e-003 -9.850505e-003 -2.387020e-002 -1.939279e-002 8.595275e-003 2.585451e-002 5.948908e-003 -1.385264e-002
<VARIANCE> 39
 8.172342e+001 2.538980e+001 5.353677e+001 5.874419e+001 6.760503e+001 7.979858e+001 4.327417e+001 5.453508e+001 4.003984e+001 4.009428e+001 5.104248e+001 4.637111e+001 1.659771e+002 3.832783e+000 1.319175e+000 1.982143e+000 2.316079e+000 2.513725e+000 2.597448e+000 2.716640e+000 2.063084e+000 2.246861e+000 2.058996e+000 2.090000e+000 1.959897e+000 8.601404e-001 4.335307e-001 2.074210e-001 2.855687e-001 3.334074e-001 3.899236e-001 4.143975e-001 4.408331e-001 3.554892e-001 3.949322e-001 3.479261e-001 3.181879e-001 3.152716e-001 9.153873e-002
<GCONST> 1.184143e+002
<TRANSP> 5
 0.000000e+000 1.000000e+000 0.000000e+000 0.000000e+000 0.000000e+000
 0.000000e+000 9.004220e-001 9.957793e-002 0.000000e+000 0.000000e+000
 0.000000e+000 0.000000e+000 9.492512e-001 5.074882e-002 0.000000e+000
 0.000000e+000 0.000000e+000 0.000000e+000 9.864043e-001 1.359569e-002
 0.000000e+000 0.000000e+000 0.000000e+000 0.000000e+000 0.000000e+000
<ENDHMM>
~h "widaehan"
<BEGINHMM>
<NUMSTATES> 5
<STATE> 2
<MEAN> 39
 -1.726117e+001 1.042374e+000 -1.618571e+000 5.379826e-001 -1.523790e+000 -8.678241e-001 -5.305902e-001 -8.686458e-002 -1.206401e+000 8.273073e-002 -1.020623e+000 2.259377e-001 4.383457e+001 2.298188e-001 -3.052714e-002 1.449400e-001 2.566404e-001 -4.184356e-002 -1.310282e-001 -2.683927e-003 -9.537778e-002 -4.675961e-001 1.390713e-001 5.733044e-002 -1.021210e-001 2.585298e-001 1.436839e-001 5.982340e-002 1.715592e-001 1.509306e-001 -8.230126e-002 -5.697694e-002 -3.127946e-002 8.273923e-002 -1.332226e-001 -4.466547e-002 -3.687285e-003 -6.686259e-002 1.730948e-001
<VARIANCE> 39
 3.999036e+000 3.847510e+000 5.111709e+000 8.930460e+000 1.162412e+001 1.481271e+001 1.118229e+001 1.555201e+001 1.399866e+001 1.569865e+001 1.416111e+001 8.717963e+000 7.116514e+000 2.236535e-001 4.695581e-001 7.100478e-001 1.081424e+000 1.434149e+000 1.338661e+000 1.121247e+000 1.461735e+000 1.865389e+000 1.760538e+000 1.495361e+000 1.148057e+000 1.830265e-001 1.147095e-001 9.913392e-002 2.142203e-001 2.024225e-001 2.369965e-001 2.666940e-001 1.979551e-001 2.635571e-001 3.514854e-001 3.038144e-001 2.802675e-001 1.702911e-001 1.024738e-001
<GCONST> 7.848288e+001
<STATE> 3
<MEAN> 39
 -9.261983e+000 3.692980e+000 1.161449e+001 8.976371e-001 -1.096317e+001 -7.132573e+000 -5.289408e+000 -1.172641e+000 -1.111090e+001 -2.585060e+000 1.703162e+000 -2.292650e+000 6.500655e+001 3.704480e-001 -7.144540e-002 4.630809e-001 -3.293540e-001 -6.628609e-001 -4.482248e-001 -2.758657e-001 9.765805e-002 -2.246251e-001 -2.097066e-002 1.800832e-001 1.596139e-002 1.411169e+000 -3.955289e-002 -4.737437e-002 -7.469113e-002 -9.674193e-002 7.201247e-003 4.006198e-002 2.597628e-002 4.066376e-002 9.251042e-002 1.903677e-002 -2.893632e-002 1.216588e-002 -3.707179e-002
<VARIANCE> 39
 2.906382e+001 3.323214e+001 7.291529e+001 5.151106e+001 7.181664e+001 4.834887e+001 4.286843e+001 3.893130e+001 4.478404e+001 3.608870e+001 2.551086e+001 2.329347e+001 1.130203e+002 4.291166e+000 3.932905e+000 7.426061e+000 4.077652e+000 8.158428e+000 3.733382e+000 4.884407e+000 3.789412e+000 5.168619e+000 3.371852e+000 2.598169e+000 2.249565e+000 1.045821e+001 8.344959e-001 7.115890e-001 1.101180e+000 7.446303e-001 1.370801e+000 7.789259e-001 9.205983e-001 6.502193e-001 8.187757e-001 6.248132e-001 4.377141e-001 4.159541e-001 1.864578e+000
<GCONST> 1.374807e+002
<STATE> 4
<MEAN> 39
 -9.013494e+000 -1.843945e-001 1.718997e+000 -1.541121e+000 -3.464956e+000 -3.792669e+000 -3.623280e+000 2.753772e+000 -1.832228e+000 1.381794e-001 -6.256991e+000 -2.700308e+000 6.249958e+001 -1.973040e-001 3.521775e-002 -2.158659e-001 8.942151e-002 2.978101e-001 1.648781e-001 9.001826e-002 -4.688777e-002 1.578113e-001 1.288445e-002 -7.199610e-002 2.140027e-002 -6.048273e-001 -8.085095e-003 1.389774e-002 1.011747e-002 2.344040e-002 1.618362e-002 -5.744268e-003 -3.827918e-003 -2.518600e-002 -9.169255e-003 -7.012129e-003 2.865587e-003 6.046048e-003 -1.106989e-002
<VARIANCE> 39
 3.961738e+001 2.272002e+001 6.116430e+001 5.202468e+001 7.713459e+001 4.496413e+001 4.358784e+001 6.352354e+001 3.079318e+001 2.760840e+001 5.867912e+001 4.672832e+001 2.027516e+002 7.699116e-001 8.951641e-001 2.722349e+000 2.421695e+000 2.980103e+000 2.259187e+000 2.141120e+000 2.812182e+000 1.819594e+000 1.711579e+000 2.201459e+000 1.696722e+000 1.065870e+000 1.051283e-001 1.329927e-001 3.272114e-001 4.006129e-001 4.057942e-001 3.887769e-001 3.678431e-001 4.821146e-001 3.149715e-001 3.186587e-001 3.300323e-001 2.892062e-001 1.273250e-001
<GCONST> 1.137427e+002
<TRANSP> 5
 0.000000e+000 1.000000e+000 0.000000e+000 0.000000e+000 0.000000e+000
 0.000000e+000 8.823414e-001 1.176585e-001 0.000000e+000 0.000000e+000
 0.000000e+000 0.000000e+000 9.569889e-001 4.301115e-002 0.000000e+000
 0.000000e+000 0.000000e+000 0.000000e+000 9.821272e-001 1.787277e-002
 0.000000e+000 0.000000e+000 0.000000e+000 0.000000e+000 0.000000e+000
<ENDHMM>
~h "gyamalo"
<BEGINHMM>
<NUMSTATES> 5
<STATE> 2
<MEAN> 39
 -1.791675e+001 8.632424e-001 -1.623014e+000 1.222622e-001 -2.760931e-001 5.432006e-001 -7.398446e-001 -8.490313e-002 -9.942883e-001 1.490732e-001 -5.805300e-001 8.718815e-001 4.425630e+001 5.007204e-002 -2.578571e-001 -3.566438e-001 -4.627433e-001 2.312617e-001 -1.634748e-001 -2.859552e-001 -1.776596e-001 -1.580478e-001 4.837497e-001 -1.285314e-001 8.618441e-002 7.719928e-001 3.510177e-002 -2.043869e-001 -2.578038e-001 -1.906853e-001 1.308065e-001 -1.618341e-001 -2.288638e-001 -4.727975e-002 -6.255393e-002 2.013809e-001 -1.390717e-001 -6.168507e-002 5.062726e-001
<VARIANCE> 39
 6.335622e+000 6.359213e+000 9.721247e+000 1.206862e+001 1.279548e+001 1.536090e+001 1.348618e+001 1.627652e+001 1.539334e+001 1.373307e+001 1.295896e+001 1.393100e+001 9.606174e+000 7.539217e-001 1.671961e+000 2.757861e+000 2.120404e+000 1.649043e+000 2.261056e+000 2.081843e+000 2.003026e+000 1.386560e+000 2.507586e+000 2.052223e+000 1.565433e+000 4.129521e+000 1.183136e-001 2.480718e-001 4.366639e-001 3.256657e-001 3.162758e-001 5.049857e-001 4.025368e-001 4.144493e-001 2.559835e-001 4.091853e-001 3.698303e-001 2.870204e-001 7.815985e-001
<GCONST> 9.834588e+001
<STATE> 3
<MEAN> 39
 -8.857841e+000 -4.215475e+000 2.016821e-001 -6.863910e+000 -2.204051e+000 -6.294449e+000 -9.434258e+000 1.224533e+000 -5.097069e+000 4.330990e+000 -3.647251e+000 -1.975910e+000 6.990262e+001 6.306869e-001 -7.697006e-002 4.087644e-001 -1.383834e-001 -5.524334e-001 -1.680835e-001 -3.199998e-001 3.413571e-001 -1.351613e-001 -1.824121e-001 3.600435e-002 -2.639268e-001 1.205400e+000 -1.385560e-002 5.627210e-002 8.562165e-002 9.318382e-002 -7.901087e-002 6.237152e-002 1.107729e-001 4.056208e-002 8.132932e-002 -9.615318e-002 9.146772e-003 -2.097051e-003 -1.878714e-001
<VARIANCE> 39
 4.305384e+001 3.368478e+001 1.346267e+002 5.516452e+001 9.452763e+001 4.555201e+001 4.803795e+001 6.612572e+001 5.471445e+001 5.795620e+001 5.098358e+001 3.544204e+001 7.672427e+001 1.548313e+000 3.424604e+000 1.166801e+001 5.462227e+000 7.413808e+000 4.385659e+000 4.757059e+000 5.036480e+000 6.108359e+000 4.758720e+000 4.239646e+000 2.586811e+000 6.938945e+000 3.242231e-001 6.082342e-001 1.900659e+000 1.130020e+000 1.088710e+000 7.853823e-001 8.256947e-001 8.825384e-001 1.096350e+000 9.086412e-001 7.744032e-001 5.319846e-001 1.199129e+000
<GCONST> 1.423436e+002
<STATE> 4
<MEAN> 39
 -4.117538e+000 -6.020093e-001 -2.711639e+000 -5.388861e+000 -5.616395e+000 8.419954e-001 -4.872005e+000 -1.078640e+000 -3.551010e+000 8.789322e-001 -1.084538e+000 -3.709458e+000 6.349850e+001 -1.923040e-001 6.899448e-002 -7.812599e-002 8.981517e-002 1.141031e-001 5.561224e-002 1.369669e-001 -8.838388e-002 4.238211e-002 -2.431660e-002 3.343977e-003 6.434587e-002 -4.706818e-001 -2.123658e-003 9.550452e-003 7.552621e-003 2.044170e-003 2.320816e-003 -4.530496e-003 -1.580209e-003 -8.669985e-003 -1.645477e-002 2.151102e-003 1.114953e-002 1.406121e-003 -1.197175e-002
<VARIANCE> 39
 5.763401e+001 2.759384e+001 3.086498e+001 9.451968e+001 4.353761e+001 9.058305e+001 6.819821e+001 6.959599e+001 5.205956e+001 4.425134e+001 6.551561e+001 4.840118e+001 1.562641e+002 7.603561e-001 1.058386e+000 2.050019e+000 4.632967e+000 2.816235e+000 3.913368e+000 2.781007e+000 3.463221e+000 2.985774e+000 2.382779e+000 2.754556e+000 2.017024e+000 9.967616e-001 9.299570e-002 1.581036e-001 3.243172e-001 6.159935e-001 4.917077e-001 5.190093e-001 4.367687e-001 5.207654e-001 4.875015e-001 4.207870e-001 3.873816e-001 3.415014e-001 1.098809e-001
<GCONST> 1.205084e+002
<TRANSP> 5
 0.000000e+000 1.000000e+000 0.000000e+000 0.000000e+000 0.000000e+000
 0.000000e+000 8.932555e-001 1.067445e-001 0.000000e+000 0.000000e+000
 0.000000e+000 0.000000e+000 9.528511e-001 4.714894e-002 0.000000e+000
 0.000000e+000 0.000000e+000 0.000000e+000 9.859595e-001 1.404050e-002
 0.000000e+000 0.000000e+000 0.000000e+000 0.000000e+000 0.000000e+000
<ENDHMM>
~h "uioero"
<BEGINHMM>
<NUMSTATES> 5
<STATE> 2
<MEAN> 39
 -1.758504e+001 4.967033e-001 -2.855209e+000 2.600002e-001 2.805059e-001 -6.224604e-001 -2.024298e+000 1.091469e+000 -5.313841e-001 6.884668e-001 -1.135345e+000 -9.534940e-001 4.505944e+001 1.023621e-001 1.495567e-001 1.446341e-002 -1.936784e-001 5.934493e-002 8.994337e-002 -2.643259e-001 -7.649596e-002 -3.878912e-001 2.932520e-001 2.167831e-001 -1.857065e-001 1.768169e-001 9.323218e-002 9.756263e-002 6.684051e-002 -8.816347e-002 4.244434e-002 8.675770e-002 -1.407017e-001 -7.723720e-003 -8.721220e-002 5.979208e-002 1.173375e-001 -1.031214e-001 2.156267e-001
<VARIANCE> 39
 5.924434e+000 6.458591e+000 1.110004e+001 9.191846e+000 1.230323e+001 1.535008e+001 2.305296e+001 1.363387e+001 2.004401e+001 1.945419e+001 1.322604e+001 1.354342e+001 1.090047e+001 3.975321e-001 9.001878e-001 1.089259e+000 1.196137e+000 1.300749e+000 1.575418e+000 2.804593e+000 1.480622e+000 2.141893e+000 2.115480e+000 1.417530e+000 1.461697e+000 3.831794e-001 1.621021e-001 1.949401e-001 2.062421e-001 2.200303e-001 2.175742e-001 3.375874e-001 4.471755e-001 2.739061e-001 3.669951e-001 3.306393e-001 2.458332e-001 2.425931e-001 1.083120e-001
<GCONST> 8.873002e+001
<STATE> 3
<MEAN> 39
 -8.051502e+000 3.639763e+000 1.597639e+000 -3.147099e+000 -3.796204e+000 -4.514042e-001 -1.239429e+001 -1.950395e+000 -7.473650e+000 2.834792e+000 3.460511e+000 -6.506949e+000 5.953808e+001 1.739398e+000 3.033883e-002 1.181472e+000 -3.000378e-001 -1.475391e+000 -4.134359e-001 -1.438498e+000 -4.370714e-001 -1.143926e+000 -3.298016e-001 6.880612e-001 -6.112514e-001 3.113657e+000 -1.596708e-001 -1.181041e-001 7.601422e-002 9.013415e-002 -2.133524e-001 -9.860589e-002 2.070110e-001 7.466959e-003 3.004230e-002 -1.818131e-001 -8.082061e-002 1.192270e-001 -7.531139e-002
<VARIANCE> 39
 5.911521e+001 2.700285e+001 5.312690e+001 2.924302e+001 6.199188e+001 6.980108e+001 6.098484e+001 7.923245e+001 5.334587e+001 3.583536e+001 4.764836e+001 4.496928e+001 1.126683e+002 4.537476e+000 3.587236e+000 3.029534e+000 2.646264e+000 3.645997e+000 3.180442e+000 5.753303e+000 4.706296e+000 3.643737e+000 2.951655e+000 2.767118e+000 3.070531e+000 4.556666e+000 9.575126e-001 6.731241e-001 4.233698e-001 4.514739e-001 7.347941e-001 5.309890e-001 1.224101e+000 8.168483e-001 6.261603e-001 4.045533e-001 5.267778e-001 5.893268e-001 1.183019e+000
<GCONST> 1.344488e+002
<STATE> 4
<MEAN> 39
 -4.699760e+000 2.759824e-001 1.212678e+000 -5.233562e+000 -9.033839e+000 -2.401323e-001 -6.696719e+000 -9.178449e-002 -7.120305e+000 -2.810034e-001 2.642007e+000 -2.245447e+000 6.403323e+001 -1.966648e-001 -8.594110e-003 -1.260757e-001 5.653207e-002 1.439370e-001 6.485855e-002 2.295118e-001 3.582595e-002 1.528666e-001 -2.467873e-002 -9.199017e-002 1.082308e-001 -3.840863e-001 2.342877e-003 1.650513e-003 -1.553625e-002 -4.235996e-003 2.010109e-002 4.554036e-003 -4.046855e-003 4.868042e-003 1.148455e-002 7.386297e-003 -4.902111e-003 -5.120480e-003 -1.574277e-002
<VARIANCE> 39
 5.837618e+001 2.691018e+001 7.014604e+001 6.793417e+001 6.648446e+001 9.525855e+001 8.651060e+001 6.574826e+001 5.795117e+001 4.193016e+001 6.100374e+001 3.085147e+001 1.497487e+002 9.751794e-001 9.793009e-001 1.572788e+000 2.902050e+000 2.275525e+000 2.716215e+000 2.797948e+000 2.898906e+000 2.464367e+000 2.174591e+000 2.555948e+000 1.480064e+000 8.513262e-001 1.288243e-001 1.420568e-001 2.235135e-001 4.111184e-001 3.934922e-001 3.868020e-001 4.514796e-001 4.493305e-001 4.008225e-001 3.967395e-001 4.183875e-001 2.650864e-001 9.972948e-002
<GCONST> 1.172765e+002
<TRANSP> 5
 0.000000e+000 1.000000e+000 0.000000e+000 0.000000e+000 0.000000e+000
 0.000000e+000 8.872623e-001 1.127377e-001 0.000000e+000 0.000000e+000
 0.000000e+000 0.000000e+000 8.772492e-001 1.227507e-001 0.000000e+000
 0.000000e+000 0.000000e+000 0.000000e+000 9.863170e-001 1.368303e-002
 0.000000e+000 0.000000e+000 0.000000e+000 0.000000e+000 0.000000e+000
<ENDHMM>
~h "jayuwa"
<BEGINHMM>
<NUMSTATES> 5
<STATE> 2
<MEAN> 39
 -1.774265e+001 1.663061e+000 -1.070415e+000 -5.290807e-001 -7.769782e-001 -1.634795e+000 -2.173900e+000 -1.401496e+000 -1.764427e+000 6.104683e-001 -3.345007e-001 6.041695e-001 4.498137e+001 -2.942377e-001 -1.911716e-001 -1.641072e-002 -5.713743e-001 2.579047e-001 -7.060326e-002 1.160308e-001 -4.200343e-002 -2.260990e-001 1.988789e-001 -8.081470e-002 -1.579998e-001 9.479256e-001 -1.749620e-001 -2.714626e-002 -4.732124e-002 -2.021788e-001 5.950577e-002 -1.934959e-001 -2.223200e-002 5.213872e-002 -4.012369e-002 -2.843564e-002 3.525150e-002 5.204074e-002 4.893576e-001
<VARIANCE> 39
 5.952650e+000 8.177774e+000 9.360276e+000 1.438126e+001 2.073838e+001 2.325744e+001 2.135300e+001 1.830752e+001 1.804327e+001 1.849968e+001 9.277285e+000 1.714263e+001 1.020108e+001 1.015217e+000 1.148769e+000 1.315206e+000 2.431967e+000 2.490117e+000 2.449102e+000 1.850493e+000 2.164231e+000 1.970240e+000 2.169151e+000 9.845415e-001 1.975912e+000 3.599964e+000 2.345118e-001 2.004883e-001 1.836512e-001 3.889798e-001 5.443370e-001 4.182121e-001 3.437260e-001 4.068761e-001 3.833517e-001 4.359948e-001 1.884708e-001 3.529993e-001 6.676658e-001
<GCONST> 9.967876e+001
<STATE> 3
<MEAN> 39
 -1.597736e+001 -4.208338e+000 -3.511269e+000 -9.431647e+000 6.992385e-001 -3.825548e+000 -1.128641e+000 3.581146e+000 4.861062e-001 -1.308270e+000 -4.402673e+000 -1.109349e+000 7.182341e+001 1.032783e+000 -4.292453e-001 1.634232e-001 -3.541985e-001 -4.347565e-001 -1.202364e-001 -2.223436e-001 5.408260e-001 3.636604e-001 -2.632726e-001 -3.813121e-001 -2.813151e-001 1.667000e+000 1.020057e-001 9.571863e-002 2.061555e-001 1.539850e-001 -2.032631e-001 3.262005e-002 -9.252412e-002 -2.864440e-002 -4.246620e-002 2.191423e-002 7.638457e-002 7.008508e-002 -3.488457e-001
<VARIANCE> 39
 9.809141e+001 3.488792e+001 2.726404e+001 3.581959e+001 3.420373e+001 3.619041e+001 3.397598e+001 3.801231e+001 3.126249e+001 3.061854e+001 3.901193e+001 3.568331e+001 6.724780e+001 6.022783e+000 3.602658e+000 3.116466e+000 4.737507e+000 3.879801e+000 4.617729e+000 4.107814e+000 4.089020e+000 2.742997e+000 2.761101e+000 3.285158e+000 2.869486e+000 5.335114e+000 9.395059e-001 8.304058e-001 5.497665e-001 9.941989e-001 6.797243e-001 9.503409e-001 6.901127e-001 8.788555e-001 5.329329e-001 5.121514e-001 6.211869e-001 5.434259e-001 7.303217e-001
<GCONST> 1.322257e+002
<STATE> 4
<MEAN> 39
 -5.419067e+000 -3.664342e-001 -2.755538e+000 -9.208816e+000 -2.942174e+000 2.473177e+000 -5.848334e+000 -4.286522e-001 -4.460037e+000 5.796005e-001 -3.067174e-001 -4.571728e+000 6.485056e+001 -1.983993e-001 1.203046e-001 -3.872200e-002 1.638805e-001 8.111554e-002 8.210423e-002 6.308754e-002 -1.210429e-001 -5.503903e-002 2.308798e-002 7.816791e-002 6.255603e-002 -5.235583e-001 2.791270e-003 -1.449602e-002 -4.076693e-002 -2.525620e-003 3.434575e-002 1.017232e-002 1.694984e-002 -2.255131e-003 2.201733e-002 -9.185542e-003 -2.197897e-002 -1.592551e-002 5.075531e-003
<VARIANCE> 39
 4.999986e+001 3.446449e+001 8.493511e+001 8.872105e+001 9.653091e+001 7.123910e+001 6.058152e+001 4.264178e+001 5.719620e+001 4.063976e+001 5.264701e+001 6.440969e+001 1.573858e+002 5.835851e-001 1.298849e+000 2.537884e+000 2.356738e+000 2.644931e+000 2.240483e+000 2.135154e+000 2.156929e+000 2.576540e+000 2.077553e+000 2.078244e+000 2.199158e+000 8.705645e-001 6.369524e-002 1.671014e-001 2.606376e-001 3.036662e-001 3.448870e-001 3.451239e-001 3.504964e-001 3.911441e-001 4.144852e-001 3.686825e-001 3.267451e-001 3.268302e-001 6.180549e-002
<GCONST> 1.154709e+002
<TRANSP> 5
 0.000000e+000 1.000000e+000 0.000000e+000 0.000000e+000 0.000000e+000
 0.000000e+000 8.989535e-001 1.010465e-001 0.000000e+000 0.000000e+000
 0.000000e+000 0.000000e+000 9.358349e-001 6.416512e-002 0.000000e+000
 0.000000e+000 0.000000e+000 0.000000e+000 9.855112e-001 1.448882e-002
 0.000000e+000 0.000000e+000 0.000000e+000 0.000000e+000 0.000000e+000
<ENDHMM>
~h "gwaeoni"
<BEGINHMM>
<NUMSTATES> 5
<STATE> 2
<MEAN> 39
 -1.737163e+001 6.431927e-001 -1.796336e+000 -8.593304e-001 -1.507947e+000 -2.537353e-001 -8.523630e-001 -5.442168e-001 -1.643923e+000 3.108254e-001 6.436037e-001 6.253992e-001 4.459039e+001 5.538698e-002 9.707636e-003 -2.627898e-002 -1.517232e-001 -1.124449e-001 -8.197211e-002 9.069267e-002 -3.000315e-002 -7.029402e-002 2.242935e-003 -1.787101e-002 8.915599e-002 1.278964e-001 1.214540e-001 6.966824e-003 -1.487394e-001 -2.738260e-001 -9.355652e-002 2.527211e-003 -5.426278e-002 9.417170e-002 -4.063325e-002 8.709466e-002 -1.291078e-001 -6.453278e-002 2.499941e-001
<VARIANCE> 39
 3.713600e+000 8.971320e+000 7.018578e+000 1.320748e+001 1.684113e+001 1.378421e+001 1.596384e+001 1.843483e+001 1.733085e+001 1.898253e+001 1.358898e+001 1.048445e+001 9.644223e+000 3.596191e-001 1.256289e+000 9.996344e-001 1.332597e+000 1.741596e+000 1.585743e+000 1.757112e+000 1.805538e+000 2.108797e+000 2.140007e+000 1.253453e+000 1.023541e+000 7.148130e-001 8.866698e-002 2.058848e-001 3.255068e-001 4.159909e-001 3.353087e-001 2.438895e-001 2.821567e-001 3.849324e-001 4.850815e-001 4.266958e-001 2.347559e-001 2.152270e-001 3.295371e-001
<GCONST> 9.055203e+001
<STATE> 3
<MEAN> 39
 -1.025752e+001 -1.957283e-001 -8.996873e+000 -1.437983e+001 -1.870410e+000 4.403642e+000 -1.246708e+000 1.458341e+000 -5.027822e+000 3.399788e+000 2.764961e-001 -4.055565e+000 6.261509e+001 1.200155e+000 -3.565097e-001 -3.913035e-001 -1.369034e+000 2.167248e-001 6.679237e-001 -2.383115e-003 -1.738027e-001 -3.919311e-001 2.146397e-001 9.827261e-002 -7.166554e-001 2.213706e+000 -2.304091e-002 -5.230134e-002 6.965987e-002 7.580785e-002 7.032228e-002 -3.237088e-002 4.486004e-003 -5.264718e-002 7.095661e-002 -4.547519e-002 3.047689e-002 -4.702658e-003 -5.234263e-002
<VARIANCE> 39
 4.541458e+001 2.693402e+001 3.652692e+001 6.923762e+001 5.703425e+001 5.841492e+001 3.275339e+001 4.975484e+001 4.149064e+001 3.445905e+001 3.039487e+001 3.808923e+001 9.726816e+001 3.209452e+000 3.291839e+000 5.335797e+000 7.123227e+000 4.991662e+000 5.225357e+000 3.576453e+000 5.637371e+000 4.837153e+000 3.234354e+000 3.436810e+000 3.370543e+000 4.330361e+000 7.493311e-001 6.755676e-001 9.271073e-001 1.385827e+000 8.888518e-001 1.029430e+000 6.838070e-001 1.048578e+000 1.075391e+000 6.457574e-001 6.757814e-001 6.292109e-001 9.428071e-001
<GCONST> 1.378218e+002
<STATE> 4
<MEAN> 39
 -7.195810e+000 3.167279e+000 3.008008e+000 -1.081283e+001 -5.687988e+000 3.126953e+000 -3.564480e+000 -2.633630e+000 -6.015477e+000 1.986222e+000 -1.151128e+000 -4.725248e+000 6.422054e+001 -2.450161e-001 7.637399e-002 7.960215e-002 2.941448e-001 -2.415976e-002 -1.203419e-001 -7.402474e-004 1.569866e-002 7.300700e-002 -5.892073e-002 -1.657296e-002 1.304118e-001 -4.478326e-001 -9.764655e-003 9.949316e-003 -8.803000e-004 1.409879e-002 -5.088287e-003 1.226049e-002 3.907368e-003 -2.490885e-004 -5.334206e-003 1.843494e-003 4.703819e-003 4.973899e-003 -1.998699e-002
<VARIANCE> 39
 5.134196e+001 5.299242e+001 1.048925e+002 1.162939e+002 8.084904e+001 5.249613e+001 4.679452e+001 4.739974e+001 4.895999e+001 3.796243e+001 4.781639e+001 4.649931e+001 1.546211e+002 4.950309e-001 1.034844e+000 1.964797e+000 2.585098e+000 2.265508e+000 2.723634e+000 2.240642e+000 2.508125e+000 2.101603e+000 1.757973e+000 1.985197e+000 1.345925e+000 8.864976e-001 8.842255e-002 1.357271e-001 2.527688e-001 3.398654e-001 3.725845e-001 4.634039e-001 3.776271e-001 4.778490e-001 3.450921e-001 2.945797e-001 3.171478e-001 2.372794e-001 1.102094e-001
<GCONST> 1.145751e+002
<TRANSP> 5
 0.000000e+000 1.000000e+000 0.000000e+000 0.000000e+000 0.000000e+000
 0.000000e+000 8.751912e-001 1.248088e-001 0.000000e+000 0.000000e+000
 0.000000e+000 0.000000e+000 9.284435e-001 7.155652e-002 0.000000e+000
 0.000000e+000 0.000000e+000 0.000000e+000 9.864154e-001 1.358460e-002
 0.000000e+000 0.000000e+000 0.000000e+000 0.000000e+000 0.000000e+000
<ENDHMM>
~h "ijipteu"
<BEGINHMM>
<NUMSTATES> 5
<STATE> 2
<MEAN> 39
 -1.795438e+001 1.681964e+000 -8.637254e-001 -1.465548e-001 -8.406271e-001 -1.315642e-001 -8.567967e-001 1.858109e-001 -1.386862e+000 -1.006780e-001 -1.019869e+000 2.049442e-002 4.381004e+001 -2.211882e-001 1.120656e-001 4.877252e-001 -3.189422e-001 -4.686986e-002 -3.357422e-002 -3.904507e-001 2.181343e-001 -2.302355e-001 1.782189e-001 1.970422e-001 -5.093579e-002 1.989520e-001 -1.331589e-003 9.276924e-002 2.879250e-001 -7.549418e-002 -1.250788e-001 1.021367e-001 -1.387713e-001 -3.576382e-002 -1.913702e-001 -3.855435e-002 7.205730e-002 -1.125027e-001 2.023242e-001
<VARIANCE> 39
 3.963161e+000 3.813583e+000 6.957692e+000 9.175060e+000 1.039091e+001 1.182635e+001 1.458186e+001 1.507335e+001 1.351850e+001 1.143131e+001 1.136737e+001 1.104102e+001 8.143015e+000 3.058385e-001 3.094252e-001 9.287571e-001 8.916188e-001 1.276735e+000 1.356229e+000 1.737372e+000 2.034875e+000 1.503223e+000 1.281611e+000 1.459970e+000 1.218720e+000 1.303915e-001 1.143691e-001 8.984906e-002 2.502654e-001 1.212290e-001 2.788886e-001 2.642879e-001 3.981524e-001 3.743286e-001 2.387048e-001 2.254472e-001 2.672275e-001 2.405034e-001 1.050715e-001
<GCONST> 7.867881e+001
<STATE> 3
<MEAN> 39
 -1.573715e+001 6.984169e+000 1.147225e+001 -2.872964e+000 -6.493401e+000 -4.968699e+000 -6.327109e+000 -3.587972e+000 -8.334163e+000 -2.251251e+000 4.302021e-001 -1.223559e+000 6.445468e+001 2.503536e-001 8.276559e-002 1.322207e-001 8.444760e-002 -1.228284e-001 -2.517213e-001 -7.114593e-002 -8.046152e-002 -6.313810e-002 -3.687415e-002 1.669170e-002 1.442204e-002 3.630430e-001 -2.636396e-002 -3.091999e-002 -1.055524e-001 8.164052e-003 4.334896e-002 6.062714e-004 2.619814e-002 5.336476e-003 4.543374e-002 1.421432e-002 -2.106230e-002 1.866559e-002 -1.037631e-001
<VARIANCE> 39
 5.901531e+001 4.485450e+001 7.968824e+001 3.405053e+001 7.332360e+001 5.021685e+001 4.809891e+001 3.892378e+001 3.491403e+001 3.184949e+001 2.514729e+001 2.422322e+001 1.194137e+002 5.968703e+000 4.131883e+000 7.313242e+000 3.459510e+000 8.248374e+000 3.461884e+000 4.982340e+000 2.864655e+000 3.644051e+000 2.835919e+000 2.515731e+000 2.200044e+000 1.170368e+001 9.479014e-001 8.104516e-001 9.701018e-001 6.779360e-001 1.368000e+000 6.539428e-001 8.223752e-001 5.869977e-001 6.340934e-001 5.280990e-001 4.787381e-001 4.142413e-001 1.487183e+000
<GCONST> 1.365343e+002
<STATE> 4
<MEAN> 39
 -1.221136e+001 1.022839e+000 -5.778259e-002 -3.975748e-001 -3.286597e+000 -4.461173e+000 -4.364316e+000 5.817492e-001 -2.206279e+000 1.079653e-001 -6.034516e-001 -1.106011e+000 5.645090e+001 -1.411588e-001 -7.566585e-002 -1.683362e-001 -2.916686e-002 8.955711e-002 1.804915e-001 1.026410e-001 9.969461e-003 9.857142e-002 -1.309950e-002 -6.576029e-002 -1.207350e-002 -2.755002e-001 1.862146e-002 7.065056e-003 2.610003e-002 -2.287314e-003 -1.911908e-002 -1.223288e-002 1.349616e-002 -6.870396e-003 -1.297600e-002 -1.571739e-002 -7.857529e-003 -2.598928e-003 3.872853e-002
<VARIANCE> 39
 5.048315e+001 2.032806e+001 3.221223e+001 2.033353e+001 3.670380e+001 5.440831e+001 6.579459e+001 3.882410e+001 2.952048e+001 2.672378e+001 3.453159e+001 3.718127e+001 1.567101e+002 1.666259e+000 1.445913e+000 1.931756e+000 1.837359e+000 2.312567e+000 2.393319e+000 3.532747e+000 2.256648e+000 1.810251e+000 1.951280e+000 1.899441e+000 1.830096e+000 4.387520e+000 2.041190e-001 2.602365e-001 3.053009e-001 3.280468e-001 3.941955e-001 4.018811e-001 5.670045e-001 3.976852e-001 3.234990e-001 3.426889e-001 3.391667e-001 3.194511e-001 6.357558e-001
<GCONST> 1.158998e+002
<TRANSP> 5
 0.000000e+000 1.000000e+000 0.000000e+000 0.000000e+000 0.000000e+000
 0.000000e+000 8.745724e-001 1.254276e-001 0.000000e+000 0.000000e+000
 0.000000e+000 0.000000e+000 9.714287e-001 2.857130e-002 0.000000e+000
 0.000000e+000 0.000000e+000 0.000000e+000 9.804409e-001 1.955909e-002
 0.000000e+000 0.000000e+000 0.000000e+000 0.000000e+000 0.000000e+000
<ENDHMM>
~h "gege"
<BEGINHMM>
<NUMSTATES> 5
<STATE> 2
<MEAN> 39
 -1.778365e+001 5.758067e-001 -2.140460e+000 3.630534e-002 -5.443857e-001 -4.854388e-001 -7.552816e-001 -2.199824e-001 -7.415753e-001 3.521008e-001 -8.578006e-001 5.038255e-002 4.453065e+001 1.326765e-001 -3.117644e-001 -5.738699e-001 -4.473369e-001 5.071223e-001 -2.891800e-001 -4.717341e-001 -1.587514e-001 -1.838218e-001 3.900604e-001 -2.982111e-001 1.399478e-001 9.755340e-001 8.763100e-002 -2.150511e-001 -2.975038e-001 -2.273270e-001 1.439888e-001 -1.446431e-001 -2.218606e-001 2.949329e-002 -1.388474e-002 1.989791e-001 -1.021027e-001 -6.118108e-002 5.864136e-001
<VARIANCE> 39
 4.939893e+000 9.531971e+000 8.997835e+000 1.870428e+001 1.340272e+001 1.587317e+001 1.535893e+001 1.504440e+001 1.892782e+001 1.662622e+001 1.172788e+001 1.150870e+001 1.267662e+001 6.923082e-001 2.033510e+000 2.728120e+000 2.812922e+000 2.271973e+000 2.165186e+000 2.414158e+000 1.867230e+000 2.213921e+000 3.001753e+000 1.833739e+000 1.646854e+000 6.223167e+000 1.076316e-001 3.128500e-001 3.082187e-001 4.704015e-001 4.034697e-001 4.293031e-001 4.406042e-001 3.841093e-001 4.514791e-001 4.898075e-001 3.412521e-001 2.993309e-001 9.299749e-001
<GCONST> 1.022457e+002
<STATE> 3
<MEAN> 39
 -1.291112e+001 -5.104826e+000 -5.399517e+000 -3.153259e+000 2.289402e+000 -9.139416e+000 -1.113283e+001 8.724733e-001 -2.732355e+000 6.104929e+000 -3.670174e+000 -1.148611e+000 6.814795e+001 1.118254e+000 5.086859e-001 1.898011e+000 3.324239e-001 -1.560858e+000 -5.661278e-001 -1.047584e+000 3.862993e-001 -8.508312e-001 -5.275568e-001 4.291870e-001 -4.661697e-001 1.816814e+000 -6.595010e-003 2.440838e-001 5.241290e-001 1.051431e-001 -5.038664e-001 2.173048e-001 1.818268e-001 2.825336e-002 -1.771694e-001 -2.787095e-001 2.505323e-001 -4.825374e-002 -4.596143e-001
<VARIANCE> 39
 3.739997e+001 3.286167e+001 9.799710e+001 5.060730e+001 6.115893e+001 4.353945e+001 4.123766e+001 2.122232e+001 3.832927e+001 6.086315e+001 3.276072e+001 3.276962e+001 2.380424e+001 4.144430e+000 4.414920e+000 7.755910e+000 6.681159e+000 6.393299e+000 5.130707e+000 4.014075e+000 2.598370e+000 5.025538e+000 6.358260e+000 3.654508e+000 2.494732e+000 9.314556e+000 9.815186e-001 8.103545e-001 1.246052e+000 1.401887e+000 6.697095e-001 7.873145e-001 7.799233e-001 4.979647e-001 7.642856e-001 9.215255e-001 5.299332e-001 4.143721e-001 1.701746e+000
<GCONST> 1.378690e+002
<STATE> 4
<MEAN> 39
 -1.030784e+001 5.064918e-001 8.099271e+000 -3.660143e+000 -1.196967e+001 -5.747197e+000 -3.607524e+000 1.995418e+000 -7.852819e+000 4.585378e-001 1.489245e+000 -1.979019e+000 6.470742e+001 -1.866539e-001 -3.372926e-003 -1.718109e-001 1.497339e-002 1.510210e-001 1.415565e-001 2.166962e-001 -5.584378e-002 1.400668e-001 -1.692627e-002 -2.408137e-002 6.478339e-002 -4.325434e-001 -1.131288e-002 -2.709407e-003 -2.682124e-002 1.834059e-002 4.680369e-002 9.466754e-004 9.460307e-003 -3.173520e-003 3.351067e-002 7.994713e-003 -1.647664e-002 3.582174e-003 -2.732604e-002
<VARIANCE> 39
 2.840097e+001 2.433440e+001 6.265500e+001 3.679379e+001 7.471659e+001 5.227976e+001 6.981621e+001 5.826202e+001 5.792619e+001 5.085721e+001 4.198726e+001 3.541519e+001 1.794972e+002 1.230699e+000 1.759863e+000 1.844285e+000 1.624466e+000 2.722550e+000 1.982357e+000 2.442074e+000 2.258540e+000 2.615976e+000 2.059883e+000 1.744477e+000 1.526781e+000 3.090811e+000 2.285847e-001 3.153562e-001 2.938868e-001 2.887452e-001 4.362768e-001 3.665726e-001 4.201643e-001 3.539112e-001 4.871498e-001 3.873241e-001 2.995234e-001 2.740702e-001 4.157512e-001
<GCONST> 1.181975e+002
<TRANSP> 5
 0.000000e+000 1.000000e+000 0.000000e+000 0.000000e+000 0.000000e+000
 0.000000e+000 9.078065e-001 9.219346e-002 0.000000e+000 0.000000e+000
 0.000000e+000 0.000000e+000 8.995345e-001 1.004655e-001 0.000000e+000
 0.000000e+000 0.000000e+000 0.000000e+000 9.856527e-001 1.434729e-002
 0.000000e+000 0.000000e+000 0.000000e+000 0.000000e+000 0.000000e+000
<ENDHMM>
~h "dwaesseubnida"
<BEGINHMM>
<NUMSTATES> 5
<STATE> 2
<MEAN> 39
 -1.795643e+001 8.476772e-001 -1.536609e+000 -3.922127e-003 -4.681492e-001 2.653279e-001 -2.059753e-001 2.430107e-001 -9.149679e-001 8.182669e-001 3.404027e-002 9.337077e-001 4.417964e+001 -1.932641e-002 -4.880040e-002 -1.111620e-002 -9.560731e-002 1.066545e-001 7.244404e-002 7.477060e-003 8.390879e-002 -9.256217e-002 -1.043445e-001 2.061203e-002 -9.951025e-002 9.353600e-002 -6.052902e-003 -7.440898e-002 9.798961e-003 -2.157375e-001 -4.241627e-002 -1.440151e-001 -4.813335e-004 -9.360162e-003 -3.480452e-002 -1.208402e-002 2.712158e-002 6.656563e-002 3.305045e-001
<VARIANCE> 39
 3.002680e+000 4.119412e+000 6.035318e+000 9.930881e+000 1.104567e+001 1.132722e+001 1.691265e+001 1.351343e+001 1.386793e+001 1.512743e+001 1.228496e+001 8.880441e+000 7.123360e+000 2.664304e-001 5.058675e-001 6.220999e-001 1.185583e+000 1.275483e+000 1.041899e+000 1.409255e+000 1.297786e+000 1.390358e+000 1.586946e+000 1.238907e+000 8.573026e-001 4.038181e-001 5.548480e-002 1.344742e-001 1.467362e-001 3.197605e-001 2.183280e-001 2.048355e-001 2.691213e-001 2.605452e-001 2.715777e-001 3.212914e-001 2.431460e-001 2.215689e-001 5.459229e-001
<GCONST> 7.938527e+001
<STATE> 3
<MEAN> 39
 -1.748464e+001 -2.437251e+000 -8.684908e-001 -5.764905e+000 -1.278966e+000 -6.511640e+000 -6.818085e-001 1.560291e+000 -2.018570e+000 1.426953e+000 -1.879431e-001 3.048498e+000 6.028738e+001 8.954115e-001 -3.829035e-001 6.001639e-001 -2.038111e-001 -7.091618e-001 -1.360328e+000 -2.071257e-001 6.967574e-001 -3.064649e-001 2.342374e-001 -5.029380e-001 1.984715e-001 3.436470e+000 4.323755e-001 2.188764e-001 2.042271e-001 3.238682e-001 -2.549731e-001 3.241291e-002 -2.343503e-001 9.477386e-002 -5.194489e-002 2.980330e-002 -9.808344e-002 -2.526228e-001 -2.203081e-001
<VARIANCE> 39
 1.022888e+001 2.185818e+001 1.478110e+001 4.498071e+001 2.278217e+001 3.241932e+001 2.189127e+001 2.591506e+001 2.004270e+001 2.113729e+001 1.983311e+001 2.571092e+001 1.485638e+002 3.206572e+000 2.780895e+000 2.591750e+000 8.861989e+000 3.433578e+000 3.897998e+000 3.054791e+000 2.841892e+000 2.876942e+000 3.217572e+000 1.994352e+000 4.758944e+000 1.391337e+001 3.900516e-001 4.879547e-001 4.171764e-001 1.658419e+000 6.408680e-001 8.108111e-001 5.037938e-001 5.656029e-001 4.723760e-001 6.138443e-001 3.794485e-001 7.958633e-001 3.046445e+000
<GCONST> 1.257434e+002
<STATE> 4
<MEAN> 39
 -1.080100e+001 9.734109e-001 -5.965164e-001 -3.883951e+000 -2.644660e+000 -3.620239e+000 -3.240468e+000 3.882151e-001 -2.449404e+000 -2.123218e-001 -3.830150e+000 -2.882703e+000 6.435647e+001 -7.301685e-002 3.568383e-002 -6.680305e-002 3.008349e-002 6.664887e-002 1.161421e-001 6.611996e-003 -6.892207e-002 2.112066e-002 -4.119296e-002 3.553575e-002 -2.548744e-002 -3.121087e-001 -3.660490e-002 -1.090080e-002 -2.125080e-002 -7.259534e-003 2.750251e-002 6.939387e-003 1.836256e-002 -1.115694e-002 7.278560e-003 -4.207880e-003 1.048751e-002 1.344330e-002 -1.650967e-002
<VARIANCE> 39
 8.691222e+001 3.685170e+001 7.408132e+001 4.288934e+001 8.194990e+001 6.015938e+001 3.792600e+001 5.234221e+001 4.858551e+001 2.983382e+001 4.007505e+001 4.533041e+001 1.309590e+002 4.744925e+000 1.945790e+000 2.978234e+000 3.007334e+000 3.845931e+000 2.878664e+000 2.945329e+000 3.147807e+000 2.822763e+000 2.060522e+000 2.495668e+000 2.409913e+000 3.074447e+000 6.518890e-001 3.138293e-001 4.500283e-001 5.236659e-001 6.428875e-001 5.287954e-001 5.483428e-001 5.514135e-001 4.813165e-001 3.915099e-001 4.374100e-001 4.303815e-001 4.707542e-001
<GCONST> 1.278927e+002
<TRANSP> 5
 0.000000e+000 1.000000e+000 0.000000e+000 0.000000e+000 0.000000e+000
 0.000000e+000 8.886011e-001 1.113989e-001 0.000000e+000 0.000000e+000
 0.000000e+000 0.000000e+000 8.645930e-001 1.354070e-001 0.000000e+000
 0.000000e+000 0.000000e+000 0.000000e+000 9.882681e-001 1.173184e-002
 0.000000e+000 0.000000e+000 0.000000e+000 0.000000e+000 0.000000e+000
<ENDHMM>
~h "yadangui"
<BEGINHMM>
<NUMSTATES> 5
<STATE> 2
<MEAN> 39
 -1.851576e+001 1.855960e+000 -1.604375e-001 -2.000003e+000 -1.145011e+000 -8.236541e-001 -5.403396e-001 4.296437e-001 -3.580365e+000 4.079262e-001 -8.426108e-001 -4.307155e-001 4.459116e+001 -4.325427e-002 2.882876e-001 5.969155e-001 -4.133385e-001 -2.271506e-002 -4.347682e-002 -2.166397e-001 2.475949e-001 -4.481289e-001 2.179657e-001 -3.601516e-003 -5.871736e-002 4.899649e-001 1.947428e-001 1.481118e-001 2.316048e-001 2.427474e-004 -7.779647e-002 -2.156563e-002 -8.009950e-002 8.155590e-002 -3.334561e-002 1.738908e-003 -3.220017e-002 1.894042e-002 2.624626e-001
<VARIANCE> 39
 5.978416e+000 5.493364e+000 1.154699e+001 1.805336e+001 2.335088e+001 1.191222e+001 1.594288e+001 2.067735e+001 1.829441e+001 1.520875e+001 1.388899e+001 1.580588e+001 1.338069e+001 5.689932e-001 8.135170e-001 1.315471e+000 2.078019e+000 1.683980e+000 1.421767e+000 1.849257e+000 2.119862e+000 1.452385e+000 1.211326e+000 1.447706e+000 1.596974e+000 5.946464e-001 1.904012e-001 1.267429e-001 1.799753e-001 3.082571e-001 2.664958e-001 3.597510e-001 3.774629e-001 3.933230e-001 2.875538e-001 1.940621e-001 2.746100e-001 3.052596e-001 2.259915e-001
<GCONST> 9.118613e+001
<STATE> 3
<MEAN> 39
 -5.760546e+000 -1.819458e+000 -6.838518e-001 -7.759675e+000 -4.000395e+000 -6.328300e+000 -5.330893e+000 4.596448e+000 -4.180002e-001 5.700207e-001 -7.355254e+000 -4.538383e+000 7.243327e+001 4.470834e-001 -2.560276e-001 -1.773671e-001 -1.099583e-001 -9.755880e-002 -1.148960e-001 -1.398053e-001 5.432115e-002 1.462576e-001 3.910793e-002 -2.134075e-001 -2.680983e-001 8.358201e-001 -4.747273e-002 -3.444093e-002 -3.581884e-002 5.978557e-004 7.816120e-003 3.232342e-002 4.158771e-002 -4.983015e-002 -1.169629e-002 4.937577e-003 1.853168e-002 1.943168e-004 -9.816683e-002
<VARIANCE> 39
 2.585834e+001 5.018442e+001 6.334997e+001 4.285666e+001 6.300760e+001 5.827015e+001 4.614941e+001 4.879115e+001 5.122305e+001 3.381523e+001 5.624494e+001 4.561837e+001 9.834775e+001 2.774699e+000 4.244575e+000 4.384656e+000 3.171754e+000 4.528474e+000 3.846613e+000 3.798339e+000 4.024254e+000 3.418545e+000 2.871351e+000 3.739309e+000 3.138431e+000 1.080241e+001 4.873877e-001 6.486539e-001 7.407823e-001 5.805658e-001 7.646937e-001 7.359880e-001 7.023548e-001 6.789793e-001 6.392179e-001 5.771248e-001 6.755769e-001 5.750584e-001 1.546526e+000
<GCONST> 1.355676e+002
<STATE> 4
<MEAN> 39
 -9.029704e+000 2.449841e+000 5.302951e+000 -4.605951e+000 -8.666809e+000 -1.477752e+000 -3.264340e+000 -2.831462e-001 -6.509271e+000 1.887470e+000 -1.007290e+000 -4.113776e+000 6.032556e+001 -2.697707e-001 1.090174e-001 -5.888375e-003 1.591570e-001 7.649137e-002 9.715679e-002 1.182527e-001 -9.763643e-002 -3.916075e-004 -7.179005e-002 1.651486e-001 1.918479e-001 -6.253383e-001 2.766769e-004 -4.563452e-004 -2.099789e-002 4.675207e-003 1.973828e-002 -8.059864e-003 -1.099417e-002 2.048545e-002 1.592331e-002 -1.001754e-002 -6.481634e-003 7.349806e-003 1.043372e-002
<VARIANCE> 39
 3.727389e+001 2.306477e+001 7.614686e+001 3.743789e+001 5.490320e+001 6.162887e+001 5.137764e+001 5.492202e+001 4.985043e+001 3.799379e+001 4.838249e+001 4.419824e+001 1.567544e+002 3.193960e-001 9.522850e-001 2.072383e+000 1.345084e+000 2.224814e+000 1.986072e+000 2.255015e+000 2.245925e+000 2.160523e+000 1.817652e+000 1.852456e+000 1.470065e+000 6.610101e-001 4.580163e-002 1.301849e-001 2.222915e-001 2.253776e-001 3.381450e-001 2.925737e-001 3.653070e-001 3.539143e-001 3.638579e-001 3.219406e-001 3.088751e-001 2.531565e-001 4.758901e-002
<GCONST> 1.074156e+002
<TRANSP> 5
 0.000000e+000 1.000000e+000 0.000000e+000 0.000000e+000 0.000000e+000
 0.000000e+000 8.970691e-001 1.029309e-001 0.000000e+000 0.000000e+000
 0.000000e+000 0.000000e+000 9.699128e-001 3.008720e-002 0.000000e+000
 0.000000e+000 0.000000e+000 0.000000e+000 9.805818e-001 1.941822e-002
 0.000000e+000 0.000000e+000 0.000000e+000 0.000000e+000 0.000000e+000
<ENDHMM>
~h "yokeondae"
<BEGINHMM>
<NUMSTATES> 5
<STATE> 2
<MEAN> 39
 -1.804862e+001 1.512371e+000 -6.741250e-001 -1.174847e+000 -1.875370e+000 -8.455064e-001 -1.163355e+000 -3.937523e-001 -1.643152e+000 -5.095054e-001 -3.370063e-001 3.298027e-001 4.420206e+001 2.416994e-002 9.267628e-002 4.935512e-001 -5.274951e-002 -1.213549e-002 1.566201e-001 -1.141157e-001 9.097676e-002 -3.127655e-001 1.969722e-001 7.475523e-002 -4.740985e-002 2.479470e-001 9.165581e-002 6.481849e-002 2.713734e-001 -1.773701e-003 -1.120012e-001 -4.336950e-003 -2.798105e-002 -1.486446e-002 -7.567144e-002 1.417242e-002 -1.387786e-002 -5.335686e-002 2.245106e-001
<VARIANCE> 39
 4.658433e+000 5.028387e+000 1.221487e+001 1.411027e+001 1.420470e+001 1.764881e+001 1.555678e+001 1.305916e+001 1.382362e+001 1.417541e+001 1.363779e+001 1.375374e+001 8.642891e+000 3.565737e-001 4.542017e-001 1.496809e+000 1.383932e+000 1.498679e+000 1.502738e+000 1.572523e+000 1.485358e+000 1.358700e+000 1.848162e+000 1.511804e+000 1.588655e+000 3.170361e-001 1.119864e-001 1.151847e-001 3.709789e-001 3.182165e-001 3.602477e-001 3.064685e-001 4.073550e-001 3.240680e-001 2.271931e-001 3.222483e-001 2.643825e-001 3.195541e-001 1.690059e-001
<GCONST> 8.712466e+001
<STATE> 3
<MEAN> 39
 -6.317509e+000 2.760456e+000 7.478753e-001 -5.850965e+000 -5.630775e+000 -1.327668e+000 -7.024026e+000 -2.485753e+000 -6.755070e+000 1.643141e+000 -1.597834e+000 -2.730628e+000 6.459047e+001 2.487375e-001 -7.925045e-002 4.728661e-002 -8.813304e-002 -2.276861e-001 -2.430117e-001 -1.067962e-001 1.059348e-001 1.808420e-002 2.957353e-003 8.618805e-003 -2.429107e-002 6.067235e-001 -5.612115e-003 -2.641859e-002 -3.546438e-002 -1.291875e-002 -1.135200e-002 -4.045438e-003 2.381933e-002 2.714911e-002 1.120456e-002 6.331970e-003 4.009490e-003 -7.284461e-003 -3.148613e-002
<VARIANCE> 39
 4.073685e+001 2.938163e+001 1.084071e+002 7.540438e+001 7.406919e+001 6.311985e+001 5.502623e+001 6.393129e+001 4.697632e+001 4.147593e+001 5.266747e+001 4.045534e+001 1.023380e+002 3.633008e+000 3.336578e+000 7.395635e+000 6.655654e+000 6.429694e+000 5.385870e+000 5.135364e+000 6.047656e+000 4.832324e+000 4.099199e+000 4.489598e+000 3.156470e+000 9.901378e+000 5.561742e-001 5.893483e-001 1.226676e+000 1.265687e+000 1.134045e+000 1.041516e+000 9.067935e-001 1.137008e+000 9.478272e-001 7.741876e-001 8.736918e-001 5.782632e-001 1.384645e+000
<GCONST> 1.444130e+002
<STATE> 4
<MEAN> 39
 -1.068636e+001 -8.701119e-001 1.471557e+000 -2.466593e+000 -7.359237e+000 -5.246274e+000 3.296231e-001 5.163939e+000 -3.078387e+000 -6.007103e-001 -1.623801e+000 -9.601037e-001 5.877743e+001 -3.213754e-001 6.422097e-002 -1.915083e-001 1.433451e-001 3.253409e-001 3.031508e-001 1.500479e-001 -1.376655e-001 3.607203e-002 -3.306741e-002 -1.844882e-002 8.039191e-002 -8.477038e-001 -1.376735e-002 2.120826e-002 -1.622690e-002 2.084935e-003 2.043538e-002 -9.062903e-003 -7.014581e-003 -1.887837e-002 -6.857418e-003 -1.204935e-002 7.982804e-003 2.812321e-002 -1.253713e-002
<VARIANCE> 39
 2.975346e+001 1.697520e+001 3.814649e+001 3.020248e+001 5.780731e+001 6.287497e+001 4.522556e+001 4.826036e+001 3.779217e+001 3.671957e+001 4.188047e+001 3.582188e+001 1.831222e+002 3.255650e-001 8.047579e-001 1.307326e+000 1.495797e+000 1.477087e+000 1.870032e+000 2.610534e+000 2.005200e+000 1.931149e+000 1.931734e+000 1.385237e+000 1.446376e+000 9.024453e-001 5.058511e-002 1.330834e-001 1.986872e-001 2.452753e-001 2.542811e-001 3.202123e-001 4.206567e-001 3.365214e-001 3.614247e-001 3.581022e-001 2.364197e-001 2.706906e-001 6.587619e-002
<GCONST> 1.045092e+002
<TRANSP> 5
 0.000000e+000 1.000000e+000 0.000000e+000 0.000000e+000 0.000000e+000
 0.000000e+000 8.852544e-001 1.147456e-001 0.000000e+000 0.000000e+000
 0.000000e+000 0.000000e+000 9.799458e-001 2.005422e-002 0.000000e+000
 0.000000e+000 0.000000e+000 0.000000e+000 9.739041e-001 2.609587e-002
 0.000000e+000 0.000000e+000 0.000000e+000 0.000000e+000 0.000000e+000
<ENDHMM>
~h "chungwadae"
<BEGINHMM>
<NUMSTATES> 5
<STATE> 2
<MEAN> 39
 -1.840561e+001 1.197765e+000 -1.251539e+000 -1.860934e+000 7.384328e-002 -1.032190e+000 -7.821192e-001 4.691722e-001 -1.211058e+000 6.363722e-001 3.872075e-001 1.497817e+000 4.561860e+001 -3.472320e-001 -2.074647e-001 4.138530e-002 -6.726519e-001 9.145361e-002 -2.580266e-001 -1.692793e-001 1.531850e-001 -2.189554e-001 1.972905e-001 1.051201e-001 -1.189371e-001 1.189288e+000 -1.910436e-001 -6.976698e-002 -7.344521e-002 -2.142503e-001 3.846408e-002 -1.872068e-002 -8.170772e-002 4.694702e-002 1.625817e-002 -1.302257e-002 9.100553e-003 -1.753039e-002 5.019472e-001
<VARIANCE> 39
 9.580829e+000 1.453608e+001 1.115043e+001 2.241821e+001 2.162513e+001 2.311072e+001 2.814375e+001 2.089351e+001 1.843291e+001 1.856749e+001 1.415703e+001 1.590317e+001 3.558598e+001 1.347648e+000 2.118595e+000 1.718997e+000 3.307472e+000 2.223437e+000 2.174811e+000 3.307402e+000 2.040321e+000 2.088792e+000 2.104235e+000 1.167119e+000 1.462002e+000 5.846199e+000 2.842090e-001 3.524983e-001 3.151303e-001 4.684350e-001 4.116605e-001 3.924637e-001 5.791665e-001 4.085618e-001 4.225966e-001 3.663004e-001 2.126653e-001 2.806350e-001 6.933262e-001
<GCONST> 1.070744e+002
<STATE> 3
<MEAN> 39
 -7.176522e+000 -1.440825e+000 -3.703736e+000 -1.048653e+001 -4.278032e+000 -3.382780e-002 -4.923387e+000 -6.803967e-002 -1.974026e+000 3.816609e-002 -4.330584e+000 -3.756999e+000 7.222414e+001 3.733729e-001 -3.712422e-002 1.800219e-001 3.133391e-002 -3.344012e-001 -2.571352e-001 -1.242296e-001 1.034145e-001 -1.319985e-002 -4.563981e-003 -9.051330e-002 -5.834888e-002 5.012030e-001 6.392815e-002 -8.141200e-003 2.976797e-002 4.990834e-002 -3.896040e-002 2.234373e-002 2.525359e-002 2.591409e-002 -8.038458e-004 -2.809520e-003 6.635128e-003 -8.872166e-003 -1.186900e-001
<VARIANCE> 39
 9.487715e+001 3.644983e+001 3.774801e+001 5.256105e+001 7.753502e+001 8.705859e+001 4.134652e+001 4.521110e+001 4.552906e+001 3.493871e+001 4.843502e+001 5.435224e+001 5.438742e+001 4.538957e+000 3.558296e+000 2.832189e+000 3.729573e+000 5.728527e+000 5.338108e+000 3.814881e+000 4.622601e+000 3.883251e+000 3.084888e+000 4.085336e+000 3.648646e+000 7.795135e+000 6.902624e-001 6.400036e-001 4.756616e-001 6.629084e-001 9.071176e-001 9.372239e-001 7.486860e-001 8.463342e-001 7.561429e-001 5.848934e-001 7.447810e-001 6.782755e-001 1.344015e+000
<GCONST> 1.378882e+002
<STATE> 4
<MEAN> 39
 -1.099921e+001 -1.386676e+000 1.577861e+000 -3.094117e+000 -6.385690e+000 -5.527450e+000 -9.742324e-001 5.670967e+000 -2.562492e+000 -6.123384e-001 -2.330842e+000 -8.349535e-001 6.026148e+001 -3.059532e-001 9.056568e-002 -1.905494e-001 1.825721e-001 3.138946e-001 3.138926e-001 1.885763e-001 -1.622598e-001 6.811798e-002 -1.977509e-002 7.719993e-002 8.107999e-002 -8.877093e-001 -1.741682e-002 2.840919e-002 -1.843904e-002 1.085376e-002 3.697343e-002 -8.454480e-003 -2.436078e-003 -4.857633e-002 7.854917e-003 1.902512e-003 2.368841e-003 1.415015e-002 -2.095471e-002
<VARIANCE> 39
 2.993332e+001 1.383842e+001 3.659639e+001 3.500072e+001 6.488965e+001 5.638882e+001 5.033697e+001 4.383529e+001 3.517218e+001 3.501250e+001 4.204302e+001 3.536473e+001 2.035093e+002 4.096738e-001 8.672713e-001 1.240280e+000 1.621213e+000 1.940316e+000 1.823672e+000 2.579864e+000 1.964129e+000 1.575343e+000 1.418044e+000 1.676099e+000 1.295437e+000 9.397306e-001 6.375344e-002 1.516513e-001 2.068623e-001 2.865594e-001 3.516389e-001 3.306774e-001 4.285486e-001 3.370612e-001 2.955396e-001 2.467180e-001 2.969783e-001 2.297774e-001 8.864260e-002
<GCONST> 1.052889e+002
<TRANSP> 5
 0.000000e+000 1.000000e+000 0.000000e+000 0.000000e+000 0.000000e+000
 0.000000e+000 9.103807e-001 8.961931e-002 0.000000e+000 0.000000e+000
 0.000000e+000 0.000000e+000 9.755806e-001 2.441934e-002 0.000000e+000
 0.000000e+000 0.000000e+000 0.000000e+000 9.742868e-001 2.571319e-002
 0.000000e+000 0.000000e+000 0.000000e+000 0.000000e+000 0.000000e+000
<ENDHMM>
~h "computer"
<BEGINHMM>
<NUMSTATES> 5
<STATE> 2
<MEAN> 39
 -1.806243e+001 8.282394e-001 -1.671755e+000 3.743263e-001 -1.299804e-001 1.103127e-001 -1.183167e-001 -7.109873e-001 -8.418506e-001 4.574321e-001 -5.431424e-001 1.231438e-001 4.423490e+001 -2.788697e-003 1.537513e-002 -3.108792e-002 -4.672230e-002 1.676973e-002 1.012839e-001 -8.030637e-002 -2.308238e-001 7.359377e-002 1.888438e-001 1.084460e-001 9.497598e-002 6.155486e-002 2.261275e-002 -1.260951e-003 -1.807955e-001 -1.843446e-001 1.216258e-001 -5.857586e-002 -1.156829e-001 -2.345600e-002 -1.015881e-001 9.822113e-002 -3.968868e-002 -5.431958e-002 2.644170e-001
<VARIANCE> 39
 3.449281e+000 5.715006e+000 6.555141e+000 7.163128e+000 1.344939e+001 1.581703e+001 1.238225e+001 1.284028e+001 1.610110e+001 1.609449e+001 1.367472e+001 1.062009e+001 8.476111e+000 2.144592e-001 4.857372e-001 5.313172e-001 6.392888e-001 1.327095e+000 1.406936e+000 1.322988e+000 1.295709e+000 1.746623e+000 1.499689e+000 1.801654e+000 1.516722e+000 2.948178e-001 7.422596e-002 1.209088e-001 2.869867e-001 2.536373e-001 3.281543e-001 2.704555e-001 2.834412e-001 2.669310e-001 3.534369e-001 3.261837e-001 3.273210e-001 2.587624e-001 3.797193e-001
<GCONST> 8.224380e+001
<STATE> 3
<MEAN> 39
