~o
<STREAMINFO> 1 39
<VECSIZE> 39<NULLD><MFCC_D_A_0><DIAGC>
~h "dangnyobyung"
<BEGINHMM>
<NUMSTATES> 5
<STATE> 2
<MEAN> 39
 -1.799639e+001 1.070716e+000 -1.717370e+000 5.550451e-002 -8.161644e-001 -4.408045e-001 -4.766426e-001 -3.753054e-001 -1.318383e+000 3.071878e-001 -3.501019e-001 5.063119e-001 4.369484e+001 -7.227764e-002 -2.728004e-001 -1.769615e-001 -2.504075e-001 -1.456350e-002 -1.242099e-001 2.621203e-001 1.779273e-001 -6.314249e-002 -1.286872e-001 -1.224312e-001 -6.653662e-002 8.494056e-001 -2.309688e-002 -1.184428e-001 -9.814316e-002 -1.471729e-001 5.115027e-002 -1.309920e-001 -3.195232e-002 2.899071e-003 1.482968e-001 1.098360e-001 4.261754e-002 8.792616e-002 5.287699e-001
<VARIANCE> 39
 3.184279e+000 4.317344e+000 6.455276e+000 9.626830e+000 9.887210e+000 1.549230e+001 1.129008e+001 1.394579e+001 1.480432e+001 1.671069e+001 1.209716e+001 1.232049e+001 8.215685e+000 6.788205e-001 7.568535e-001 1.068300e+000 1.523129e+000 1.013035e+000 1.859875e+000 1.250939e+000 1.705723e+000 2.096076e+000 2.322142e+000 1.734429e+000 1.553828e+000 4.128943e+000 1.113686e-001 1.344838e-001 2.054793e-001 2.256936e-001 1.738721e-001 3.449383e-001 2.270724e-001 3.145308e-001 3.861255e-001 4.257639e-001 3.138384e-001 2.812511e-001 8.120299e-001
<GCONST> 8.917737e+001
<STATE> 3
<MEAN> 39
 -1.470635e+001 -4.927240e+000 -6.363503e+000 -4.965350e+000 3.015425e+000 -2.601126e+000 1.267937e+000 1.491271e+000 1.002062e+000 1.133858e+000 -3.580662e+000 -1.229214e+000 6.629025e+001 1.519084e+000 -1.513589e-001 -1.746417e-001 -5.050492e-001 4.602817e-001 -6.067241e-003 -4.052835e-001 9.785952e-002 -2.259742e-001 2.240127e-001 -5.649863e-001 -8.110263e-001 2.029332e+000 2.008105e-001 2.175341e-001 2.856599e-001 6.810550e-002 -2.443562e-001 8.555571e-002 -1.872845e-001 -1.273066e-001 -2.415095e-001 8.383325e-002 -2.721618e-002 -7.940983e-002 -5.207676e-001
<VARIANCE> 39
 4.931023e+001 2.399931e+001 1.841148e+001 3.593501e+001 3.763171e+001 4.618833e+001 2.934666e+001 3.417513e+001 3.582276e+001 1.988341e+001 3.652383e+001 4.589371e+001 7.972958e+001 3.277272e+000 3.471710e+000 3.051926e+000 4.076424e+000 4.262639e+000 5.166728e+000 3.837037e+000 4.127585e+000 4.505054e+000 2.914068e+000 4.989036e+000 4.434364e+000 1.019765e+001 6.437894e-001 6.188925e-001 5.816603e-001 9.206643e-001 1.015971e+000 1.031899e+000 5.697467e-001 8.748714e-001 7.866876e-001 6.540996e-001 9.805149e-001 8.912823e-001 1.469764e+000
<GCONST> 1.341836e+002
<STATE> 4
<MEAN> 39
 -7.207057e+000 4.356087e-001 6.703746e-001 -3.622237e+000 -5.387357e+000 -7.408634e-001 -4.417260e+000 -9.725560e-001 -4.153600e+000 -7.189780e-003 -2.639121e+000 -2.350421e+000 6.060562e+001 -1.808766e-001 4.681714e-002 2.784521e-002 9.501561e-002 -6.074948e-002 2.684713e-002 2.757395e-002 -2.570634e-002 2.301463e-002 -2.253013e-002 8.654079e-002 8.915319e-002 -3.556876e-001 -2.096236e-002 -1.248223e-002 -2.177143e-002 1.199393e-002 2.826190e-002 3.497377e-003 1.598817e-002 8.606708e-003 2.362259e-002 -1.082097e-002 4.162518e-003 1.320164e-003 -4.006847e-003
<VARIANCE> 39
 5.118860e+001 2.452746e+001 4.783803e+001 4.226760e+001 5.519915e+001 5.946320e+001 5.022236e+001 4.668414e+001 3.705542e+001 4.078963e+001 5.048347e+001 4.419065e+001 1.583859e+002 1.797770e+000 1.700749e+000 3.427801e+000 2.783478e+000 4.062654e+000 3.441856e+000 3.012790e+000 3.496694e+000 3.041878e+000 2.995647e+000 3.221756e+000 2.618767e+000 4.580695e+000 2.655113e-001 2.879687e-001 5.262800e-001 4.918642e-001 6.377527e-001 5.841827e-001 5.362962e-001 6.147220e-001 5.756098e-001 5.715800e-001 6.290570e-001 4.801570e-001 4.781408e-001
<GCONST> 1.275403e+002
<TRANSP> 5
 0.000000e+000 1.000000e+000 0.000000e+000 0.000000e+000 0.000000e+000
 0.000000e+000 8.997225e-001 1.002776e-001 0.000000e+000 0.000000e+000
 0.000000e+000 0.000000e+000 9.008935e-001 9.910654e-002 0.000000e+000
 0.000000e+000 0.000000e+000 0.000000e+000 9.875525e-001 1.244748e-002
 0.000000e+000 0.000000e+000 0.000000e+000 0.000000e+000 0.000000e+000
<ENDHMM>
~h "nuwoseo"
<BEGINHMM>
<NUMSTATES> 5
<STATE> 2
<MEAN> 39
 -1.750513e+001 1.624980e+000 -2.037936e-001 8.307062e-001 -1.474013e+000 -5.102638e-001 -1.641253e+000 -1.905623e+000 -2.199714e+000 2.535241e-001 -1.224919e+000 -6.266692e-001 4.443715e+001 1.393473e-001 3.395565e-001 5.112500e-001 4.053489e-001 -1.241809e-002 1.568280e-001 1.501444e-002 -1.787703e-001 -2.402559e-002 -1.223408e-001 -2.257563e-001 -3.389657e-001 2.078035e-001 1.541389e-001 1.244768e-001 1.569831e-001 -2.028685e-002 4.183990e-003 5.257739e-002 -3.258253e-002 3.464178e-002 2.489790e-002 -2.567258e-002 1.063514e-003 -1.183925e-002 1.960182e-001
<VARIANCE> 39
 4.100114e+000 7.041244e+000 7.393674e+000 9.639074e+000 1.531733e+001 1.220391e+001 1.553863e+001 1.527765e+001 1.353480e+001 1.433276e+001 1.880633e+001 1.305332e+001 8.599503e+000 9.723997e-001 1.468048e+000 8.966883e-001 1.372406e+000 1.334929e+000 1.389011e+000 1.727822e+000 1.651159e+000 1.725851e+000 1.545262e+000 1.939125e+000 1.497246e+000 2.805070e-001 1.717838e-001 2.292860e-001 1.522482e-001 2.772185e-001 2.582838e-001 2.450687e-001 3.859282e-001 2.571809e-001 3.169404e-001 3.132693e-001 3.894793e-001 2.691139e-001 1.465783e-001
<GCONST> 8.797958e+001
<STATE> 3
<MEAN> 39
 -9.602504e+000 5.207567e+000 5.236299e+000 -1.882968e+000 -1.913154e+000 -1.616345e+000 -6.547773e+000 -5.457662e+000 -4.700223e+000 -2.689512e-001 -8.387337e-001 -3.527282e+000 5.974535e+001 1.331704e+000 2.439421e-001 -2.561213e-001 -1.174791e+000 -2.583310e-001 1.495097e-001 -8.735228e-001 -9.186695e-001 -1.050426e+000 -1.839716e-001 8.419167e-001 -1.053144e-001 2.305212e+000 3.341789e-002 -1.848828e-002 -2.523490e-001 -1.703097e-001 -1.791892e-001 1.485361e-001 1.804171e-001 3.456535e-002 -1.568591e-001 -1.681076e-001 3.504097e-002 1.066953e-001 -1.896099e-001
<VARIANCE> 39
 5.485088e+001 3.910816e+001 2.796609e+001 4.996088e+001 3.712445e+001 5.059779e+001 5.617734e+001 5.184185e+001 4.308432e+001 2.716879e+001 3.966370e+001 2.817854e+001 1.170197e+002 4.924883e+000 4.122652e+000 4.333433e+000 4.721878e+000 5.485613e+000 6.345920e+000 6.522919e+000 4.903091e+000 3.790183e+000 4.106876e+000 4.739328e+000 2.945929e+000 7.135627e+000 1.010163e+000 8.282287e-001 7.050453e-001 9.925854e-001 1.132380e+000 1.192580e+000 1.354045e+000 1.167728e+000 6.848292e-001 8.575801e-001 9.735783e-001 5.446142e-001 1.431472e+000
<GCONST> 1.407582e+002
<STATE> 4
<MEAN> 39
 -7.465865e+000 2.241713e+000 -4.173562e+000 -1.146756e+001 -2.923397e+000 4.610911e+000 -3.752081e+000 -2.051473e+000 -4.263769e+000 2.175110e-001 1.386231e+000 -2.886876e+000 6.424320e+001 -2.152372e-001 -7.809625e-002 -2.765546e-002 1.361689e-001 4.708494e-002 -3.114109e-002 1.304385e-001 1.480684e-001 1.654944e-001 3.362051e-002 -8.555142e-002 5.689176e-002 -3.619240e-001 -1.730185e-002 -1.062215e-002 1.454567e-002 2.366636e-002 2.453508e-002 -2.386402e-002 -1.508268e-002 -4.035132e-003 2.368473e-002 2.798247e-002 -2.165369e-003 -1.075748e-002 3.286256e-003
<VARIANCE> 39
 9.924873e+001 2.718078e+001 2.250162e+001 8.737164e+001 6.214673e+001 6.617707e+001 6.022046e+001 3.956454e+001 5.234240e+001 5.209466e+001 5.900834e+001 4.075310e+001 1.453027e+002 4.177008e+000 1.295280e+000 1.334528e+000 3.111871e+000 2.591903e+000 3.192796e+000 3.321824e+000 2.306023e+000 2.265965e+000 2.576369e+000 2.682310e+000 2.042055e+000 9.786314e-001 4.862286e-001 2.149216e-001 2.264896e-001 3.811433e-001 3.574068e-001 4.482566e-001 5.560928e-001 4.008590e-001 3.802933e-001 3.984817e-001 4.658062e-001 3.398903e-001 9.508117e-002
<GCONST> 1.205152e+002
<TRANSP> 5
 0.000000e+000 1.000000e+000 0.000000e+000 0.000000e+000 0.000000e+000
 0.000000e+000 8.841375e-001 1.158626e-001 0.000000e+000 0.000000e+000
 0.000000e+000 0.000000e+000 9.042332e-001 9.576682e-002 0.000000e+000
 0.000000e+000 0.000000e+000 0.000000e+000 9.864272e-001 1.357275e-002
 0.000000e+000 0.000000e+000 0.000000e+000 0.000000e+000 0.000000e+000
<ENDHMM>
~h "teukyereul"
<BEGINHMM>
<NUMSTATES> 5
<STATE> 2
<MEAN> 39
 -1.830853e+001 7.354422e-001 -1.536228e+000 9.049655e-001 -5.502255e-002 6.336600e-001 -1.517219e-001 -3.971682e-001 -1.343717e+000 -4.983346e-001 -1.502569e-001 3.663160e-001 4.361769e+001 6.478193e-002 7.214637e-003 -9.271099e-002 -2.997130e-001 -1.029843e-001 -2.146666e-001 -2.390048e-002 -3.707137e-002 -4.941829e-002 -1.978484e-001 -2.847097e-002 1.286079e-001 5.971279e-001 -8.269386e-003 -1.361832e-001 -7.009570e-002 -1.367561e-001 -1.203486e-002 -1.488846e-001 1.468330e-002 2.565540e-002 2.569910e-002 7.004762e-002 2.816652e-002 4.491841e-002 5.608377e-001
<VARIANCE> 39
 2.609418e+000 5.890296e+000 6.398359e+000 7.751837e+000 9.954455e+000 1.039054e+001 1.072497e+001 1.380297e+001 1.254347e+001 1.267638e+001 1.344697e+001 1.027220e+001 9.710139e+000 2.840248e-001 9.399561e-001 8.345280e-001 1.522854e+000 1.340261e+000 9.956651e-001 1.466665e+000 1.685696e+000 1.279215e+000 1.446300e+000 1.496217e+000 1.438126e+000 4.116370e+000 3.996661e-002 1.100849e-001 1.314989e-001 2.401256e-001 2.357729e-001 2.318454e-001 2.993946e-001 3.345982e-001 2.292887e-001 2.853378e-001 2.864641e-001 2.769270e-001 8.534492e-001
<GCONST> 8.362115e+001
<STATE> 3
<MEAN> 39
 -1.612136e+001 -6.722288e-001 2.650856e+000 -2.735396e+000 -4.584060e+000 -6.333084e+000 -2.028405e+000 -7.892064e-001 -3.142521e+000 2.466804e+000 -7.033114e-001 1.103669e+000 6.270744e+001 3.170250e-001 -6.615315e-002 4.393346e-001 -1.067232e-001 -4.414120e-001 -2.474733e-001 -1.054807e-001 6.061856e-002 -1.741804e-001 1.098228e-001 8.533435e-003 -1.053085e-001 8.494550e-001 8.324122e-002 8.500284e-003 2.195268e-002 3.964570e-002 -6.229220e-002 7.612377e-003 -3.820346e-002 4.159702e-002 -2.262648e-002 -6.451687e-003 1.555053e-002 -5.712943e-002 -1.306164e-001
<VARIANCE> 39
 4.664013e+001 2.871214e+001 3.920555e+001 3.791988e+001 4.378319e+001 5.043437e+001 4.240107e+001 4.049483e+001 3.687139e+001 3.046795e+001 2.381222e+001 2.558714e+001 1.702244e+002 4.350723e+000 3.515341e+000 3.214084e+000 4.207745e+000 3.508942e+000 4.847036e+000 4.109919e+000 4.245569e+000 4.043311e+000 3.855722e+000 2.898362e+000 3.057952e+000 1.884732e+001 7.047796e-001 6.917649e-001 6.639774e-001 8.418444e-001 6.681843e-001 7.852027e-001 7.805212e-001 8.080723e-001 8.129261e-001 7.681501e-001 5.635822e-001 6.062216e-001 2.945690e+000
<GCONST> 1.359224e+002
<STATE> 4
<MEAN> 39
 -7.744054e+000 -2.613399e+000 4.008893e+000 -3.144409e-001 -9.555286e+000 -6.140511e+000 -5.237899e+000 1.114160e+000 2.010968e-001 -1.073427e+000 -2.495921e+000 -9.954733e-002 6.195036e+001 -1.831284e-001 4.832330e-002 -2.271872e-001 1.012782e-001 2.313348e-001 1.239748e-001 5.065138e-002 -2.755827e-002 1.040785e-001 -2.450773e-002 -1.734636e-003 5.056954e-002 -5.929298e-001 -4.912993e-002 1.075548e-002 7.972026e-004 1.064978e-002 4.265037e-002 1.580276e-002 2.224464e-002 -2.856317e-002 7.481887e-003 8.485577e-003 -6.941080e-003 1.332422e-002 -2.360899e-002
<VARIANCE> 39
 5.006937e+001 2.503629e+001 3.971771e+001 3.628012e+001 6.215027e+001 4.442097e+001 5.852431e+001 4.259481e+001 4.124047e+001 3.027440e+001 4.230881e+001 2.688210e+001 1.744728e+002 1.222638e+000 1.286935e+000 1.316158e+000 2.118461e+000 2.155621e+000 1.832959e+000 2.900961e+000 2.479269e+000 2.258924e+000 2.062089e+000 1.843654e+000 1.763956e+000 1.345449e+000 1.973646e-001 2.294000e-001 2.148328e-001 3.635852e-001 3.898186e-001 3.360191e-001 4.937678e-001 4.212433e-001 3.960184e-001 3.802603e-001 3.226910e-001 3.134516e-001 1.987402e-001
<GCONST> 1.139491e+002
<TRANSP> 5
 0.000000e+000 1.000000e+000 0.000000e+000 0.000000e+000 0.000000e+000
 0.000000e+000 8.922377e-001 1.077623e-001 0.000000e+000 0.000000e+000
 0.000000e+000 0.000000e+000 9.664344e-001 3.356554e-002 0.000000e+000
 0.000000e+000 0.000000e+000 0.000000e+000 9.810885e-001 1.891150e-002
 0.000000e+000 0.000000e+000 0.000000e+000 0.000000e+000 0.000000e+000
<ENDHMM>
~h "uiyogeul"
<BEGINHMM>
<NUMSTATES> 5
<STATE> 2
<MEAN> 39
 -1.777485e+001 1.411978e+000 -2.415013e+000 -7.698278e-001 1.239576e-001 1.825722e-001 -1.661063e+000 2.142123e-001 -1.249198e+000 6.632240e-001 -8.471294e-003 -4.441930e-001 4.439106e+001 1.808721e-001 2.268155e-001 1.078637e-002 -1.365258e-001 1.774431e-001 -4.345405e-002 -3.427133e-001 -1.405942e-001 -3.985476e-001 3.387772e-001 3.734025e-002 -3.552404e-001 3.150592e-001 2.019214e-001 9.603540e-002 6.697324e-002 -2.215659e-002 -1.398309e-002 2.556996e-002 -1.635593e-001 -3.321147e-002 -1.236881e-001 8.555054e-002 1.685409e-002 -8.803472e-002 2.423304e-001
<VARIANCE> 39
 4.179940e+000 3.512860e+000 1.029506e+001 1.410019e+001 1.290191e+001 1.250244e+001 1.697348e+001 1.635925e+001 1.687138e+001 1.918995e+001 1.538602e+001 1.427891e+001 9.398565e+000 6.255341e-001 5.470129e-001 1.231799e+000 1.499982e+000 1.542959e+000 1.244884e+000 1.690042e+000 2.062653e+000 1.724677e+000 1.671961e+000 1.494936e+000 1.449633e+000 5.246165e-001 2.130192e-001 1.367007e-001 1.969404e-001 2.368978e-001 3.091469e-001 2.002797e-001 3.441727e-001 3.674801e-001 2.728578e-001 2.822002e-001 2.761670e-001 3.131543e-001 1.610678e-001
<GCONST> 8.780599e+001
<STATE> 3
<MEAN> 39
 -6.618744e+000 4.101179e+000 9.063118e-001 -3.055332e+000 -2.851422e+000 -1.582766e+000 -1.321166e+001 -3.115324e+000 -6.882909e+000 4.030070e+000 2.449084e+000 -6.561778e+000 5.954900e+001 1.557053e+000 -1.911194e-001 1.166651e+000 4.900360e-002 -1.356306e+000 -7.308662e-001 -1.744665e+000 -3.345664e-002 -8.112627e-001 -2.538205e-001 4.571758e-001 -8.429854e-001 3.050405e+000 -3.248996e-001 -1.788380e-001 2.727361e-001 1.053082e-001 -3.045454e-001 -8.999938e-002 3.392391e-001 1.291710e-001 -1.092413e-001 -2.989212e-001 3.100429e-002 1.639953e-001 -7.723099e-002
<VARIANCE> 39
 5.662944e+001 2.879107e+001 3.387193e+001 4.394384e+001 4.997921e+001 4.772890e+001 7.373795e+001 8.341185e+001 5.287537e+001 3.998563e+001 5.024977e+001 4.017672e+001 1.091894e+002 5.188442e+000 3.264716e+000 2.760045e+000 4.681213e+000 3.925848e+000 3.443085e+000 5.289454e+000 6.655749e+000 4.227226e+000 3.693725e+000 2.840923e+000 3.539006e+000 3.861282e+000 8.720627e-001 5.458200e-001 5.135546e-001 8.388025e-001 7.979870e-001 6.347406e-001 1.191695e+000 1.206941e+000 6.869771e-001 4.718279e-001 4.459142e-001 6.247789e-001 9.159461e-001
<GCONST> 1.364076e+002
<STATE> 4
<MEAN> 39
 -6.221572e+000 1.335140e+000 4.256974e+000 -2.379640e+000 -8.654212e+000 -2.815226e+000 -9.307024e+000 -1.409012e+000 -6.174241e+000 -2.321297e-001 6.048453e-001 -2.569802e+000 6.300440e+001 -1.885655e-001 8.918202e-003 -1.190732e-001 1.822568e-002 1.152268e-001 7.397027e-002 2.280003e-001 -9.488281e-003 1.077965e-001 -1.132212e-002 -5.438922e-002 1.226664e-001 -3.801597e-001 1.106547e-002 5.927179e-003 -3.497879e-002 -1.400854e-002 3.321239e-002 8.349886e-003 -1.788807e-002 -6.537801e-003 1.820122e-002 2.413683e-002 -4.238316e-003 -1.156555e-002 -1.968480e-002
<VARIANCE> 39
 4.461848e+001 3.600400e+001 8.308017e+001 5.989591e+001 6.834402e+001 5.267805e+001 8.568717e+001 4.881774e+001 1.032999e+002 5.024565e+001 6.199067e+001 4.167754e+001 1.413533e+002 9.328126e-001 1.600731e+000 3.216141e+000 2.743415e+000 3.049433e+000 2.549909e+000 3.730650e+000 2.582511e+000 3.631644e+000 2.701882e+000 2.827622e+000 2.231242e+000 2.162190e+000 1.172681e-001 2.189548e-001 3.815697e-001 4.440705e-001 4.520477e-001 4.254976e-001 5.618966e-001 4.861351e-001 5.885838e-001 4.382068e-001 4.826476e-001 4.040747e-001 2.503162e-001
<GCONST> 1.244948e+002
<TRANSP> 5
 0.000000e+000 1.000000e+000 0.000000e+000 0.000000e+000 0.000000e+000
 0.000000e+000 8.825805e-001 1.174195e-001 0.000000e+000 0.000000e+000
 0.000000e+000 0.000000e+000 8.802460e-001 1.197541e-001 0.000000e+000
 0.000000e+000 0.000000e+000 0.000000e+000 9.867695e-001 1.323047e-002
 0.000000e+000 0.000000e+000 0.000000e+000 0.000000e+000 0.000000e+000
<ENDHMM>
~h "software"
<BEGINHMM>
<NUMSTATES> 5
<STATE> 2
<MEAN> 39
 -1.812999e+001 2.321119e-001 -2.622895e+000 -5.862519e-001 -1.189976e+000 -1.755363e+000 -1.030739e+000 7.217831e-001 5.450588e-001 -1.341607e-001 -1.002405e+000 2.930413e-001 4.635647e+001 -1.005400e-001 -2.597751e-001 -6.069422e-002 -3.895896e-001 3.653464e-001 -2.131766e-001 -2.286284e-001 3.942216e-002 -8.248238e-002 8.294005e-002 -1.083811e-001 -1.466032e-001 5.656065e-001 -5.892335e-002 5.742228e-003 3.690568e-002 -2.032810e-001 5.246912e-002 -1.325606e-001 -4.314714e-002 7.535767e-002 -2.513045e-002 2.071337e-002 5.179212e-002 -2.113117e-002 2.239386e-001
<VARIANCE> 39
 1.246795e+001 1.017480e+001 8.994150e+000 9.713302e+000 1.118089e+001 1.685117e+001 1.547197e+001 1.544868e+001 1.677042e+001 1.467749e+001 1.287463e+001 1.086627e+001 3.658491e+001 6.851550e-001 8.103558e-001 6.443960e-001 1.504408e+000 1.450865e+000 1.435075e+000 1.834839e+000 1.551073e+000 1.704329e+000 1.651881e+000 1.052140e+000 1.154760e+000 1.269749e+000 2.189712e-001 1.288438e-001 1.140470e-001 2.802174e-001 2.427707e-001 2.400135e-001 3.439181e-001 2.419538e-001 3.164453e-001 3.113375e-001 1.852893e-001 1.861130e-001 2.224434e-001
<GCONST> 8.885233e+001
<STATE> 3
<MEAN> 39
 -1.485282e+001 1.626770e+000 -9.835930e-001 -6.219202e+000 -7.358333e-002 -3.297806e+000 -6.058733e+000 -5.862120e-001 -2.187837e+000 1.201323e+000 5.220768e-002 -3.380164e-001 6.140795e+001 3.546984e-001 8.214798e-002 1.431648e-001 -4.454587e-002 -1.857391e-001 1.194847e-002 -2.961090e-001 -7.415119e-002 -1.452497e-001 4.516836e-002 3.976242e-002 -9.868518e-002 4.677629e-001 5.303859e-002 -4.288075e-004 -2.413602e-003 1.572481e-002 -4.838179e-002 3.451832e-002 -2.659416e-002 -2.968679e-002 -9.938960e-003 3.865163e-003 1.773393e-002 -9.423420e-003 -3.524550e-002
<VARIANCE> 39
 9.903419e+001 3.217184e+001 2.380555e+001 5.135925e+001 4.194764e+001 5.113840e+001 5.449730e+001 4.562608e+001 3.642030e+001 2.696497e+001 3.032246e+001 2.730530e+001 1.270715e+002 8.567950e+000 4.132976e+000 2.348074e+000 5.512988e+000 4.173472e+000 4.998841e+000 6.080805e+000 3.773284e+000 3.583043e+000 3.105754e+000 3.251552e+000 3.262762e+000 1.420517e+001 1.133891e+000 7.893174e-001 4.391025e-001 1.111329e+000 7.281545e-001 9.436612e-001 1.028085e+000 6.283371e-001 6.838201e-001 6.315728e-001 6.214854e-001 6.238737e-001 2.425836e+000
<GCONST> 1.379776e+002
<STATE> 4
<MEAN> 39
 -5.893190e+000 -1.375674e+000 -1.833007e+000 -7.163212e+000 -4.086887e+000 3.347902e-001 -6.180055e+000 1.768511e+000 -3.749100e+000 1.753521e+000 1.372576e+000 -3.847425e+000 6.260652e+001 -2.836106e-001 -2.166462e-002 -1.006162e-001 1.048768e-001 1.257585e-001 5.110333e-002 2.816871e-001 2.108378e-002 8.762535e-002 -7.299517e-002 -2.411619e-002 1.089999e-001 -4.761220e-001 -2.878490e-002 4.897934e-003 -2.813723e-003 2.240065e-002 1.886312e-002 -7.677027e-003 3.521587e-002 2.643817e-002 2.334097e-002 -4.592650e-003 -2.013520e-002 1.070256e-002 -7.497970e-003
<VARIANCE> 39
 5.451759e+001 2.096187e+001 5.113219e+001 6.258706e+001 6.002383e+001 1.020731e+002 8.538420e+001 5.938074e+001 4.567724e+001 4.787626e+001 5.657397e+001 4.744636e+001 1.697998e+002 5.609205e-001 8.873816e-001 1.344486e+000 1.873438e+000 1.831771e+000 2.561816e+000 2.400100e+000 2.388809e+000 2.104472e+000 1.735188e+000 1.919447e+000 1.568006e+000 7.826583e-001 6.696679e-002 1.371257e-001 1.794771e-001 2.681874e-001 2.800622e-001 3.258849e-001 4.022124e-001 3.704213e-001 3.558948e-001 2.859952e-001 3.374369e-001 2.576482e-001 4.942952e-002
<GCONST> 1.106747e+002
<TRANSP> 5
 0.000000e+000 1.000000e+000 0.000000e+000 0.000000e+000 0.000000e+000
 0.000000e+000 8.917720e-001 1.082280e-001 0.000000e+000 0.000000e+000
 0.000000e+000 0.000000e+000 9.785637e-001 2.143625e-002 0.000000e+000
 0.000000e+000 0.000000e+000 0.000000e+000 9.828504e-001 1.714964e-002
 0.000000e+000 0.000000e+000 0.000000e+000 0.000000e+000 0.000000e+000
<ENDHMM>
~h "juwiui"
<BEGINHMM>
<NUMSTATES> 5
<STATE> 2
<MEAN> 39
 -1.800118e+001 3.637272e-001 -1.404029e+000 -6.280826e-001 -1.251021e+000 -4.026202e-001 -1.943005e+000 -7.946658e-001 -1.804663e+000 9.347802e-002 -1.484651e-001 4.476920e-001 4.462689e+001 -1.365314e-001 -3.449230e-001 3.443067e-002 -3.377746e-001 -1.667581e-001 1.795195e-001 -1.590153e-002 -9.367652e-002 -1.683547e-002 -2.120268e-002 -1.093509e-001 -5.417354e-002 5.936586e-001 -1.531988e-001 -1.173831e-001 1.704589e-001 -1.603355e-001 -1.821547e-001 9.415343e-002 -1.440631e-001 -9.741232e-002 8.771721e-002 -3.973495e-002 -6.639599e-002 5.508734e-002 4.125388e-001
<VARIANCE> 39
 3.616531e+000 6.277090e+000 1.017332e+001 1.032459e+001 1.489442e+001 1.598361e+001 1.680957e+001 1.561323e+001 1.545927e+001 1.809482e+001 1.453530e+001 1.145943e+001 1.109115e+001 5.891997e-001 1.442337e+000 1.524952e+000 1.730524e+000 2.522481e+000 1.648597e+000 1.994409e+000 2.037208e+000 1.657646e+000 2.242119e+000 1.606511e+000 1.376240e+000 2.862403e+000 2.348394e-001 2.316797e-001 2.934205e-001 3.077981e-001 4.326889e-001 3.351370e-001 2.852743e-001 3.738604e-001 3.251492e-001 4.653308e-001 3.081515e-001 2.713044e-001 5.452918e-001
<GCONST> 9.598315e+001
<STATE> 3
<MEAN> 39
 -2.099794e+001 -2.385534e+000 3.055860e+000 -2.939884e+000 -8.076190e+000 -2.334806e+000 -6.162032e+000 -2.508164e+000 -1.281520e+000 -1.798013e+000 3.285746e-002 3.395230e-001 6.722581e+001 1.149244e+000 3.786940e-001 2.411271e-001 1.840312e-001 -1.994094e-001 -1.439283e-001 -9.950728e-001 -2.290197e-001 -7.711059e-001 -6.636110e-002 4.366731e-001 -4.367159e-001 1.349946e+000 1.854339e-001 9.208388e-002 -1.187458e-001 6.236113e-002 5.904453e-002 2.766688e-003 6.294172e-003 4.742296e-002 -1.492979e-001 4.075475e-002 9.822295e-002 -5.654657e-002 -2.670872e-001
<VARIANCE> 39
 1.278202e+002 3.151689e+001 2.487825e+001 3.928547e+001 3.951385e+001 6.475937e+001 7.372490e+001 4.082703e+001 4.456136e+001 3.641266e+001 2.674540e+001 2.493645e+001 6.539439e+001 1.175936e+001 3.500521e+000 3.020962e+000 3.758218e+000 5.331470e+000 7.300983e+000 6.168081e+000 4.206949e+000 5.979870e+000 3.256578e+000 3.302183e+000 2.668503e+000 6.195283e+000 1.438000e+000 7.379214e-001 5.249026e-001 6.504250e-001 9.959774e-001 1.189753e+000 1.061637e+000 8.130722e-001 9.614556e-001 6.029404e-001 7.020203e-001 4.226827e-001 7.032323e-001
<GCONST> 1.377240e+002
<STATE> 4
<MEAN> 39
 -8.897008e+000 2.891913e+000 1.034867e+001 -1.052867e+000 -1.190599e+001 -2.650648e+000 -8.912374e+000 -8.852860e-001 -1.061625e+001 -1.099509e+000 2.170730e+000 -3.879893e+000 6.336950e+001 -2.376524e-001 -2.253587e-002 -6.782694e-002 2.736092e-002 7.699668e-002 9.388614e-003 2.491382e-001 5.625773e-002 1.600627e-001 9.913144e-003 -9.583996e-002 1.044002e-001 -3.892413e-001 -1.406297e-002 8.729837e-004 1.820598e-003 7.592141e-003 3.099743e-003 -1.445783e-002 8.688838e-003 -4.210988e-003 2.941494e-002 -7.792027e-003 -1.472855e-002 1.102532e-002 -3.794167e-004
<VARIANCE> 39
 3.177423e+001 2.025953e+001 8.595250e+001 3.519669e+001 7.345159e+001 5.553855e+001 9.029721e+001 3.827375e+001 7.069742e+001 4.365949e+001 3.864254e+001 3.456861e+001 1.422685e+002 3.390482e-001 7.924331e-001 2.315883e+000 1.280749e+000 2.144847e+000 2.021676e+000 2.330485e+000 1.945927e+000 1.999198e+000 1.732695e+000 1.543674e+000 1.286433e+000 5.997161e-001 4.979161e-002 1.149896e-001 2.152522e-001 2.077007e-001 3.034844e-001 3.299952e-001 3.682706e-001 3.550751e-001 3.479404e-001 3.142826e-001 2.833592e-001 2.396171e-001 4.492325e-002
<GCONST> 1.063680e+002
<TRANSP> 5
 0.000000e+000 1.000000e+000 0.000000e+000 0.000000e+000 0.000000e+000
 0.000000e+000 8.957794e-001 1.042206e-001 0.000000e+000 0.000000e+000
 0.000000e+000 0.000000e+000 9.338865e-001 6.611346e-002 0.000000e+000
 0.000000e+000 0.000000e+000 0.000000e+000 9.855865e-001 1.441349e-002
 0.000000e+000 0.000000e+000 0.000000e+000 0.000000e+000 0.000000e+000
<ENDHMM>
~h "mwolago"
<BEGINHMM>
<NUMSTATES> 5
<STATE> 2
<MEAN> 39
 -1.719787e+001 1.187169e+000 -8.048628e-001 6.304227e-001 -1.320739e+000 3.672207e-001 -6.090156e-001 -2.549814e+000 -2.565947e+000 1.093506e+000 -1.053434e+000 -3.408846e-002 4.456259e+001 3.209263e-001 1.455188e-001 3.720449e-001 1.905106e-001 -1.933076e-001 2.384068e-001 3.484629e-002 -6.339285e-001 -5.871815e-001 3.525341e-001 -1.704137e-001 -2.617356e-001 3.490793e-001 1.840978e-001 1.613432e-001 1.924519e-001 8.846963e-002 -2.157950e-002 5.759113e-002 -7.192379e-003 -5.247487e-002 7.944514e-003 -1.004478e-004 -6.248014e-002 -1.293558e-002 1.490447e-001
<VARIANCE> 39
 2.462793e+000 4.259794e+000 6.477818e+000 8.413124e+000 1.320397e+001 1.432551e+001 1.543382e+001 2.557139e+001 1.485290e+001 1.612238e+001 1.186065e+001 1.250740e+001 8.049197e+000 2.757607e-001 7.547435e-001 1.032418e+000 1.055390e+000 8.802991e-001 1.366638e+000 1.576935e+000 1.813604e+000 1.326435e+000 1.482690e+000 1.136789e+000 1.423157e+000 2.222112e-001 1.348609e-001 1.627759e-001 1.609479e-001 1.820073e-001 1.735397e-001 2.021175e-001 3.094730e-001 3.159718e-001 2.345830e-001 3.000914e-001 2.334759e-001 2.637819e-001 8.583459e-002
<GCONST> 8.029443e+001
<STATE> 3
<MEAN> 39
 -5.063968e+000 6.135229e+000 4.835379e+000 -3.912445e+000 -6.297530e+000 3.827744e+000 -2.358569e+000 -7.429663e+000 -8.194971e+000 1.474848e-002 -4.131694e+000 -1.694620e+000 5.814252e+001 2.183100e+000 2.454895e-001 -3.680733e-001 -3.177100e+000 -1.150664e+000 6.450833e-001 -6.860246e-001 5.216137e-001 -3.675923e-001 -8.414438e-001 5.387103e-001 6.556757e-002 2.980303e+000 -1.338898e-001 -3.050518e-001 -3.876528e-001 -5.076035e-001 -3.811764e-002 1.319811e-001 -5.169088e-002 1.867517e-001 1.114225e-001 2.828636e-002 3.492940e-001 4.063196e-002 6.195341e-002
<VARIANCE> 39
 4.287188e+001 2.051946e+001 2.894360e+001 1.300734e+002 4.866338e+001 3.687044e+001 3.109386e+001 6.137978e+001 3.468249e+001 3.206430e+001 3.966537e+001 2.792748e+001 7.698587e+001 2.982637e+000 3.063025e+000 4.268549e+000 1.007161e+001 4.146199e+000 4.116685e+000 2.480197e+000 5.962390e+000 4.778519e+000 3.115670e+000 6.454072e+000 2.965461e+000 2.861345e+000 7.352570e-001 4.101441e-001 5.371186e-001 1.955470e+000 9.131573e-001 8.099581e-001 4.988297e-001 1.002626e+000 7.114280e-001 6.185135e-001 7.869463e-001 5.150536e-001 7.664732e-001
<GCONST> 1.341781e+002
<STATE> 4
<MEAN> 39
 -3.650128e+000 2.721062e+000 -4.427772e+000 -1.281010e+001 -6.245660e+000 2.889731e+000 -3.339639e+000 1.041110e+000 -4.552304e+000 -3.371641e-001 -2.567264e-002 -3.784842e+000 6.275462e+001 -2.549689e-001 -4.505841e-002 -2.335546e-002 2.740822e-001 1.280988e-001 -9.683679e-002 5.868562e-002 2.477259e-002 9.151888e-002 3.142391e-002 -4.856100e-002 6.459669e-003 -3.394961e-001 -1.225628e-002 9.950584e-003 1.639274e-002 4.505344e-002 8.519004e-003 -1.768353e-002 3.884252e-003 -1.065462e-002 -3.363166e-003 -3.781617e-003 -3.108260e-002 2.424577e-003 -2.682886e-002
<VARIANCE> 39
 6.095609e+001 4.589407e+001 2.564233e+001 9.661625e+001 5.117929e+001 4.683155e+001 6.491751e+001 4.702298e+001 7.394916e+001 4.741556e+001 5.194653e+001 4.219222e+001 1.447451e+002 1.295141e+000 1.822817e+000 1.628827e+000 4.546827e+000 2.684124e+000 3.170651e+000 3.074331e+000 2.981347e+000 3.772075e+000 2.743290e+000 3.121795e+000 2.361805e+000 2.363087e+000 2.010534e-001 2.646725e-001 2.908906e-001 7.902470e-001 4.629110e-001 5.838295e-001 5.370923e-001 5.494591e-001 6.230497e-001 5.153509e-001 5.526960e-001 4.070437e-001 2.985952e-001
<GCONST> 1.257078e+002
<TRANSP> 5
 0.000000e+000 1.000000e+000 0.000000e+000 0.000000e+000 0.000000e+000
 0.000000e+000 8.937575e-001 1.062426e-001 0.000000e+000 0.000000e+000
 0.000000e+000 0.000000e+000 8.688342e-001 1.311658e-001 0.000000e+000
 0.000000e+000 0.000000e+000 0.000000e+000 9.866424e-001 1.335762e-002
 0.000000e+000 0.000000e+000 0.000000e+000 0.000000e+000 0.000000e+000
<ENDHMM>
~h "naghwaam"
<BEGINHMM>
<NUMSTATES> 5
<STATE> 2
<MEAN> 39
 -1.730205e+001 1.461215e+000 -1.272551e+000 6.183432e-001 -8.483198e-001 8.007614e-002 -2.531319e-001 -1.204821e+000 -1.658082e+000 2.103542e-001 -1.268911e+000 2.794450e-001 4.449987e+001 3.060635e-001 1.038128e-001 3.500194e-001 1.309001e-001 -2.709943e-001 1.752854e-001 2.410948e-001 -2.629478e-001 -1.187530e-001 1.672654e-001 -3.728132e-001 -1.735157e-001 3.095345e-001 1.332505e-001 8.684010e-002 9.318172e-002 -4.796742e-003 -7.124760e-002 -6.767738e-002 -3.702445e-002 -5.907409e-002 4.359991e-002 2.124711e-002 -9.345944e-002 -9.826092e-002 2.364698e-001
<VARIANCE> 39
 4.369189e+000 7.036634e+000 7.924736e+000 1.252957e+001 1.561888e+001 1.776518e+001 1.522698e+001 1.728690e+001 1.198158e+001 1.656546e+001 1.856254e+001 1.248073e+001 8.112189e+000 5.703545e-001 9.185856e-001 1.029003e+000 1.217931e+000 1.127127e+000 1.762188e+000 1.643255e+000 1.917166e+000 1.329771e+000 1.777803e+000 1.718002e+000 1.320782e+000 3.492611e-001 1.657652e-001 2.434563e-001 1.802435e-001 2.899476e-001 2.483635e-001 3.692120e-001 3.097880e-001 3.735407e-001 2.010141e-001 3.169087e-001 3.051953e-001 2.293423e-001 2.358966e-001
<GCONST> 8.820547e+001
<STATE> 3
<MEAN> 39
 -9.119188e+000 -6.907389e-001 -7.458257e+000 -8.992549e+000 1.651370e+000 4.004956e-001 -1.648830e+000 4.875173e-002 -2.784858e+000 3.254030e+000 -3.843391e+000 -5.636216e+000 6.543079e+001 4.229617e-001 -1.290671e-001 -3.090653e-001 -5.654148e-001 1.326897e-001 1.352822e-001 -8.741915e-002 3.324007e-003 -1.197343e-001 1.101226e-001 1.346569e-001 -3.265177e-001 9.372533e-001 -1.745151e-002 -4.252520e-002 -3.855789e-002 -3.506543e-002 -2.602975e-003 1.289817e-002 -8.299629e-003 6.834663e-003 -6.965848e-003 -1.380119e-003 2.386075e-002 -3.572193e-003 -4.730646e-002
<VARIANCE> 39
 3.637828e+001 3.524378e+001 6.205232e+001 7.684719e+001 5.604895e+001 5.088979e+001 3.733340e+001 4.605511e+001 3.856395e+001 3.380625e+001 4.454356e+001 4.239069e+001 1.457902e+002 3.982117e+000 3.885369e+000 4.960862e+000 6.309527e+000 5.297394e+000 4.509466e+000 4.341984e+000 4.837768e+000 3.916997e+000 3.874824e+000 3.670381e+000 3.627661e+000 1.422602e+001 6.202583e-001 6.879206e-001 9.566458e-001 1.214384e+000 9.346573e-001 8.660581e-001 9.026298e-001 9.635420e-001 7.983150e-001 8.103755e-001 6.665868e-001 5.557613e-001 1.802523e+000
<GCONST> 1.408800e+002
<STATE> 4
<MEAN> 39
 -6.921676e+000 -9.657759e-001 -2.064359e+000 -4.984680e+000 2.064934e+000 2.085668e+000 -4.278691e+000 -3.741432e+000 -4.058782e+000 1.373428e+000 -2.072356e+000 -4.771287e+000 6.159157e+001 -2.934974e-001 5.121268e-002 1.324122e-001 3.321778e-001 -1.178212e-002 -1.126395e-001 -3.281660e-002 4.693037e-002 7.692746e-002 -1.086648e-001 -1.472591e-002 2.207648e-001 -6.034491e-001 -2.090005e-002 4.278185e-003 2.554144e-003 1.600112e-002 1.248287e-002 -3.469011e-003 -4.388372e-003 7.289528e-003 -2.026909e-003 -8.747009e-005 7.036235e-003 1.436693e-002 -1.645839e-002
<VARIANCE> 39
 5.213406e+001 2.366072e+001 7.153748e+001 1.360798e+002 4.843617e+001 4.359501e+001 4.363283e+001 4.732552e+001 3.773988e+001 3.906619e+001 4.363297e+001 8.318875e+001 1.847137e+002 4.514628e-001 7.080014e-001 2.105143e+000 2.102223e+000 1.710427e+000 1.559556e+000 2.046666e+000 2.508452e+000 1.854823e+000 1.680605e+000 1.416866e+000 1.687780e+000 6.038712e-001 6.717744e-002 9.980430e-002 2.597706e-001 2.685491e-001 2.833688e-001 2.655524e-001 3.434170e-001 4.119706e-001 3.120280e-001 3.116836e-001 2.294164e-001 2.790875e-001 5.370453e-002
<GCONST> 1.082330e+002
<TRANSP> 5
 0.000000e+000 1.000000e+000 0.000000e+000 0.000000e+000 0.000000e+000
 0.000000e+000 8.942768e-001 1.057232e-001 0.000000e+000 0.000000e+000
 0.000000e+000 0.000000e+000 9.687860e-001 3.121396e-002 0.000000e+000
 0.000000e+000 0.000000e+000 0.000000e+000 9.814830e-001 1.851701e-002
 0.000000e+000 0.000000e+000 0.000000e+000 0.000000e+000 0.000000e+000
<ENDHMM>
~h "noemureul"
<BEGINHMM>
<NUMSTATES> 5
<STATE> 2
<MEAN> 39
 -1.719312e+001 1.389161e+000 -1.369998e+000 6.296468e-001 -1.159530e+000 1.274239e-001 -4.916908e-001 -1.242517e+000 -1.700839e+000 6.200748e-001 -1.522036e+000 -1.325811e-001 4.411933e+001 1.477994e-001 3.589891e-001 4.916066e-001 2.823226e-001 -1.434029e-001 1.477311e-001 7.885492e-002 -4.589289e-001 -2.998220e-001 1.062918e-001 -1.237675e-001 -2.948163e-001 1.988466e-001 1.767867e-001 1.401025e-001 1.656134e-001 1.830929e-002 -2.659100e-002 -4.101714e-002 3.641757e-002 4.600078e-002 1.860568e-002 -2.270442e-002 -2.284048e-002 -4.982904e-002 1.907578e-001
<VARIANCE> 39
 3.985151e+000 4.944357e+000 7.055707e+000 7.603159e+000 1.423264e+001 1.411202e+001 1.160405e+001 1.484452e+001 1.029893e+001 1.392505e+001 1.288776e+001 1.393385e+001 7.515668e+000 6.406718e-001 9.271521e-001 7.876360e-001 9.875239e-001 1.387615e+000 1.425074e+000 1.397997e+000 1.234304e+000 8.802410e-001 1.231307e+000 1.242860e+000 1.502643e+000 2.374730e-001 1.880842e-001 1.952921e-001 1.949111e-001 2.090915e-001 2.792038e-001 2.634712e-001 2.309533e-001 2.297498e-001 1.836252e-001 2.031340e-001 2.407193e-001 2.727959e-001 1.302189e-001
<GCONST> 8.088727e+001
<STATE> 3
<MEAN> 39
 -8.273856e+000 5.362826e+000 7.787896e+000 -2.391775e-001 -5.975286e+000 -5.342177e+000 -2.982548e+000 -2.537233e+000 -6.438817e+000 -9.929620e-001 -2.308174e+000 -2.655118e+000 5.906740e+001 1.186253e+000 -5.343437e-001 9.842743e-001 -6.691281e-001 -1.450250e+000 -1.602513e+000 -1.042111e+000 8.461699e-001 -8.488483e-001 -2.558195e-001 5.964064e-001 1.238724e-001 3.504005e+000 -1.474006e-001 -3.349853e-001 -2.044427e-001 -3.034709e-002 -2.464213e-001 4.005031e-002 -7.052943e-002 2.411293e-001 8.206123e-002 1.442766e-001 1.498733e-001 4.967355e-002 1.388297e-002
<VARIANCE> 39
 4.279667e+001 3.382701e+001 3.103598e+001 4.879689e+001 4.206732e+001 6.348034e+001 4.404700e+001 4.805293e+001 3.171223e+001 2.270437e+001 2.835866e+001 2.479525e+001 1.314559e+002 5.223413e+000 4.771262e+000 3.302520e+000 5.140532e+000 4.915453e+000 4.029613e+000 3.965423e+000 6.399994e+000 2.927563e+000 2.792075e+000 4.830574e+000 2.911057e+000 4.629075e+000 9.941804e-001 6.556029e-001 5.362267e-001 1.106910e+000 8.734263e-001 1.096377e+000 8.408265e-001 1.030228e+000 5.498689e-001 4.616082e-001 8.695325e-001 5.454901e-001 1.256009e+000
<GCONST> 1.353576e+002
<STATE> 4
<MEAN> 39
 -5.279976e+000 -1.056269e+000 3.283565e+000 -2.098308e-003 -9.227675e+000 -3.143737e+000 -7.805016e+000 -1.960282e+000 -2.882367e+000 5.352827e-001 -1.752232e+000 -1.997063e+000 6.373494e+001 -1.478956e-001 3.050475e-002 -1.578054e-001 4.698936e-002 1.720370e-001 1.496975e-001 8.693246e-002 -6.900044e-002 1.279888e-001 2.277417e-002 -4.480608e-002 1.877997e-002 -4.171919e-001 -5.533434e-003 1.962410e-002 5.513862e-003 -6.254895e-004 3.432957e-002 6.151811e-004 3.545891e-003 -2.943306e-002 -5.894997e-003 -1.116429e-002 -1.188194e-002 -1.656891e-004 -2.349729e-002
<VARIANCE> 39
 4.992228e+001 2.811934e+001 4.187100e+001 4.790392e+001 5.707676e+001 5.566001e+001 7.224060e+001 7.330621e+001 6.423708e+001 3.635682e+001 4.851706e+001 3.332057e+001 1.354880e+002 1.158633e+000 1.213571e+000 1.831063e+000 2.941104e+000 2.824368e+000 2.882216e+000 3.383632e+000 3.793918e+000 2.763951e+000 2.324114e+000 3.140397e+000 1.990025e+000 1.312698e+000 1.894619e-001 1.896900e-001 2.772847e-001 4.488473e-001 5.440781e-001 4.971750e-001 6.051791e-001 6.544750e-001 4.824994e-001 4.272459e-001 5.469181e-001 3.736085e-001 1.900430e-001
<GCONST> 1.213864e+002
<TRANSP> 5
 0.000000e+000 1.000000e+000 0.000000e+000 0.000000e+000 0.000000e+000
 0.000000e+000 8.868426e-001 1.131574e-001 0.000000e+000 0.000000e+000
 0.000000e+000 0.000000e+000 8.820061e-001 1.179939e-001 0.000000e+000
 0.000000e+000 0.000000e+000 0.000000e+000 9.866288e-001 1.337118e-002
 0.000000e+000 0.000000e+000 0.000000e+000 0.000000e+000 0.000000e+000
<ENDHMM>
~h "eoduun"
<BEGINHMM>
<NUMSTATES> 5
<STATE> 2
<MEAN> 39
 -1.702165e+001 5.036123e-001 -4.675783e+000 -3.285305e+000 -5.151142e-001 2.843898e+000 2.570717e-001 -9.682941e-001 -2.429782e+000 -8.349940e-001 2.372261e-001 5.842869e-001 4.498959e+001 3.530678e-001 5.633014e-002 -3.473564e-001 -5.671729e-001 -8.883985e-002 5.289864e-001 3.749055e-001 -1.817289e-002 -2.032381e-001 -2.991052e-001 -1.200700e-001 -1.054628e-001 3.470079e-001 1.145285e-001 7.527740e-002 2.651199e-002 -1.277156e-001 4.316840e-003 6.150008e-002 -4.229458e-002 5.039670e-003 4.931696e-003 7.738592e-002 5.251229e-003 8.829641e-003 2.165197e-001
<VARIANCE> 39
 5.597517e+000 5.834440e+000 2.180389e+001 1.954875e+001 1.204149e+001 3.050176e+001 2.730071e+001 1.660743e+001 1.750356e+001 1.772548e+001 1.774856e+001 1.283165e+001 1.049353e+001 8.417872e-001 8.195889e-001 2.201025e+000 1.654943e+000 1.509147e+000 2.729103e+000 2.578107e+000 1.808494e+000 2.148161e+000 1.798729e+000 2.052582e+000 1.475371e+000 5.317590e-001 2.363713e-001 1.956950e-001 3.833085e-001 3.404239e-001 2.542292e-001 5.010486e-001 3.853093e-001 3.093843e-001 4.091377e-001 3.647957e-001 3.591851e-001 2.807910e-001 1.439454e-001
<GCONST> 9.703033e+001
<STATE> 3
<MEAN> 39
 -5.816276e+000 2.899815e+000 -1.118866e+000 -1.167281e+001 -1.870342e+000 1.731348e+000 -8.013257e+000 -3.276555e+000 -4.997983e+000 1.539498e+000 1.077890e+000 -3.276474e+000 6.610947e+001 4.117492e-001 7.843899e-002 2.255572e-001 -2.012874e-002 -1.219816e-001 -1.637157e-001 -6.287464e-001 -2.766659e-001 -2.249191e-001 1.038159e-001 1.909527e-001 -2.103343e-001 8.472442e-001 -9.386702e-003 -1.132787e-002 -3.150951e-002 1.993997e-003 -8.978810e-003 5.143743e-002 1.788081e-002 -3.540461e-002 -5.076135e-002 -1.458134e-002 5.166819e-002 1.126758e-002 -7.324383e-002
<VARIANCE> 39
 5.645302e+001 3.570494e+001 3.636730e+001 1.123886e+002 3.647085e+001 8.439674e+001 6.974696e+001 5.793428e+001 4.345989e+001 4.629279e+001 4.783948e+001 3.770196e+001 1.106086e+002 5.795167e+000 4.614378e+000 2.575828e+000 8.506545e+000 3.325253e+000 5.540428e+000 6.041903e+000 4.629976e+000 3.539898e+000 3.369097e+000 3.718432e+000 2.905810e+000 1.191385e+001 9.925454e-001 9.421251e-001 4.601444e-001 1.268656e+000 5.959735e-001 9.535492e-001 1.118027e+000 8.700811e-001 6.143708e-001 5.922751e-001 6.300822e-001 5.468479e-001 1.983962e+000
<GCONST> 1.411133e+002
<STATE> 4
<MEAN> 39
 -7.389890e+000 3.487299e+000 2.546384e+000 -3.293580e+000 -4.734652e+000 3.381828e-001 -6.244361e+000 -4.693322e+000 -5.647350e+000 -3.444277e-001 -1.620826e+000 -3.643652e+000 5.903259e+001 -2.953559e-001 -7.473481e-002 -5.228918e-002 1.580649e-001 8.328019e-002 -2.585271e-002 3.137825e-001 1.805067e-001 1.979148e-001 -3.940729e-002 -1.442159e-001 1.158684e-001 -5.563609e-001 -2.527335e-002 -9.133984e-003 1.551559e-002 3.052639e-002 1.321779e-002 -4.333062e-002 -7.090724e-005 1.884923e-002 3.630578e-002 1.164308e-002 -4.220007e-002 -4.763776e-003 4.631135e-004
<VARIANCE> 39
 5.423931e+001 2.620135e+001 5.169597e+001 8.168547e+001 4.450307e+001 4.442436e+001 6.041338e+001 5.158179e+001 6.071858e+001 4.102153e+001 6.782256e+001 4.105905e+001 1.324449e+002 4.380105e-001 8.625030e-001 1.757902e+000 2.137074e+000 1.842471e+000 1.835531e+000 2.063580e+000 1.926259e+000 1.947159e+000 1.967773e+000 2.459468e+000 1.820218e+000 6.969923e-001 5.503186e-002 1.115332e-001 2.111533e-001 2.660164e-001 3.023135e-001 3.201008e-001 3.755217e-001 3.688277e-001 3.337778e-001 2.987263e-001 3.865666e-001 3.076038e-001 7.331336e-002
<GCONST> 1.096538e+002
<TRANSP> 5
 0.000000e+000 1.000000e+000 0.000000e+000 0.000000e+000 0.000000e+000
 0.000000e+000 8.876094e-001 1.123905e-001 0.000000e+000 0.000000e+000
 0.000000e+000 0.000000e+000 9.656454e-001 3.435456e-002 0.000000e+000
 0.000000e+000 0.000000e+000 0.000000e+000 9.798363e-001 2.016363e-002
 0.000000e+000 0.000000e+000 0.000000e+000 0.000000e+000 0.000000e+000
<ENDHMM>
~h "doepuri"
<BEGINHMM>
<NUMSTATES> 5
<STATE> 2
<MEAN> 39
 -1.750983e+001 1.268847e+000 -1.840565e+000 -2.461931e-001 -1.863968e+000 -6.618332e-001 -7.610818e-001 -2.878078e-001 -1.056214e+000 -5.443653e-002 -3.329665e-001 7.438455e-001 4.379047e+001 9.519492e-003 -1.279654e-001 1.306878e-001 -2.815668e-001 8.441038e-002 -1.038014e-001 -7.316767e-002 -7.633477e-002 -1.412505e-001 -3.891865e-002 9.035603e-003 1.717719e-002 2.896114e-001 -5.098812e-002 -1.613894e-001 6.737088e-002 -2.419325e-001 3.256357e-002 -6.052965e-002 2.748298e-002 3.015842e-002 -1.844414e-002 1.996093e-003 -2.690561e-002 3.983876e-002 4.263984e-001
<VARIANCE> 39
 3.113223e+000 4.680341e+000 5.875056e+000 1.222474e+001 1.464454e+001 1.404845e+001 1.195549e+001 1.252065e+001 1.503080e+001 1.112633e+001 1.355403e+001 1.018709e+001 5.649375e+000 2.185160e-001 6.548256e-001 6.512847e-001 1.858378e+000 1.306685e+000 1.274052e+000 1.218981e+000 1.231066e+000 1.693074e+000 1.258222e+000 1.394634e+000 1.071388e+000 9.053030e-001 4.655107e-002 1.800158e-001 1.268679e-001 4.159991e-001 2.573345e-001 2.625135e-001 2.525382e-001 2.257128e-001 3.089460e-001 2.497507e-001 3.053057e-001 1.919332e-001 6.805260e-001
<GCONST> 8.189795e+001
<STATE> 3
<MEAN> 39
 -1.048085e+001 -6.462597e-001 1.331806e+000 -2.013921e+000 -4.611433e+000 -4.970837e+000 -6.059857e+000 -1.344548e+000 -2.899810e+000 1.551752e+000 1.066498e+000 6.468760e-001 6.362707e+001 2.559378e-001 2.865808e-002 3.503643e-001 -2.562564e-002 -3.069954e-001 -4.490395e-002 -2.199356e-001 -1.054555e-001 -2.403834e-001 -5.475719e-002 1.063373e-001 -5.285881e-002 6.682389e-001 2.529785e-002 7.181471e-002 4.748275e-002 2.166584e-002 -6.564380e-002 2.585525e-002 -1.152851e-002 -4.619286e-003 -7.281955e-002 3.691235e-003 2.648742e-002 -3.407760e-002 -7.941385e-002
<VARIANCE> 39
 5.870825e+001 3.394620e+001 3.941685e+001 4.132338e+001 5.235728e+001 5.777926e+001 4.993519e+001 4.834039e+001 2.880251e+001 2.772041e+001 2.730221e+001 2.412917e+001 1.360462e+002 5.442532e+000 3.925651e+000 3.532991e+000 5.050048e+000 5.802493e+000 4.912854e+000 4.584701e+000 3.727248e+000 3.556846e+000 2.936602e+000 3.041810e+000 2.589916e+000 1.461126e+001 8.269975e-001 7.248474e-001 4.941118e-001 1.040780e+000 1.043864e+000 8.612543e-001 8.051753e-001 6.693798e-001 6.508817e-001 5.775324e-001 5.975484e-001 5.512001e-001 2.075967e+000
<GCONST> 1.365239e+002
<STATE> 4
<MEAN> 39
 -1.200937e+001 3.584247e+000 9.862926e+000 -3.039142e+000 -1.017489e+001 -8.199840e-001 -4.037519e+000 -2.645311e+000 -8.100358e+000 4.286318e-001 3.902450e-001 -2.011827e+000 5.820182e+001 -2.132113e-001 -5.577278e-003 -3.342046e-001 6.700172e-002 2.279703e-001 1.112116e-002 1.864323e-001 1.361742e-001 2.564480e-001 3.540447e-002 -9.782452e-002 1.652574e-002 -6.221001e-001 -1.638025e-002 -3.053012e-002 -6.403942e-002 2.737159e-002 5.197426e-002 -1.430768e-002 6.540363e-003 4.888331e-003 7.241265e-002 -6.932860e-003 -3.359612e-002 1.946207e-002 -2.199546e-002
<VARIANCE> 39
 2.524165e+001 2.216350e+001 1.136395e+002 3.299410e+001 7.069576e+001 4.286054e+001 6.457560e+001 3.097917e+001 6.644614e+001 3.810534e+001 3.319555e+001 2.826960e+001 1.398455e+002 6.272701e-001 1.181618e+000 2.302040e+000 2.038481e+000 2.442733e+000 2.415003e+000 2.814489e+000 1.968501e+000 2.791799e+000 2.404676e+000 1.991827e+000 1.645969e+000 9.141387e-001 1.200697e-001 1.851875e-001 2.746300e-001 3.923498e-001 4.426680e-001 4.241869e-001 4.659843e-001 3.744390e-001 5.180033e-001 4.401403e-001 3.907621e-001 3.086220e-001 9.976156e-002
<GCONST> 1.138564e+002
<TRANSP> 5
 0.000000e+000 1.000000e+000 0.000000e+000 0.000000e+000 0.000000e+000
 0.000000e+000 8.862987e-001 1.137013e-001 0.000000e+000 0.000000e+000
 0.000000e+000 0.000000e+000 9.738503e-001 2.614966e-002 0.000000e+000
 0.000000e+000 0.000000e+000 0.000000e+000 9.773569e-001 2.264307e-002
 0.000000e+000 0.000000e+000 0.000000e+000 0.000000e+000 0.000000e+000
<ENDHMM>
~h "choeagi"
<BEGINHMM>
<NUMSTATES> 5
<STATE> 2
<MEAN> 39
 -1.792803e+001 1.828250e+000 -5.900748e-001 -3.792591e-002 -8.385682e-001 -4.436595e-001 -1.807551e+000 -7.619413e-001 -1.552456e+000 3.148006e-001 4.899142e-001 7.470539e-001 4.417736e+001 -6.093837e-002 -2.530713e-001 6.876831e-002 -1.897933e-001 1.918668e-002 2.060486e-001 5.374444e-002 -3.073353e-002 4.877933e-002 3.452286e-003 1.529084e-001 9.052856e-002 3.872081e-001 -1.614251e-001 -1.762249e-001 7.329907e-002 -3.354740e-001 -5.156363e-002 4.204172e-002 -7.728967e-002 5.927784e-002 3.506587e-002 -4.035440e-002 -4.492871e-002 -4.691877e-002 4.370967e-001
<VARIANCE> 39
 5.525058e+000 7.424826e+000 1.037220e+001 1.134982e+001 1.125273e+001 1.499083e+001 2.078991e+001 1.628835e+001 1.400710e+001 1.054308e+001 1.132637e+001 1.134817e+001 1.229280e+001 8.395769e-001 1.469824e+000 1.387488e+000 2.463088e+000 1.299132e+000 1.594027e+000 2.146458e+000 1.993246e+000 1.578066e+000 1.212257e+000 1.350622e+000 1.157577e+000 2.159504e+000 1.625728e-001 2.422304e-001 2.893290e-001 4.507955e-001 2.563382e-001 3.157995e-001 4.508412e-001 4.196321e-001 2.968307e-001 2.241023e-001 2.483645e-001 1.629907e-001 7.670900e-001
<GCONST> 9.332639e+001
<STATE> 3
<MEAN> 39
 -2.200720e+001 -4.317716e+000 4.120974e+000 -8.448757e+000 -7.534236e+000 -1.921490e+000 -2.436491e+000 7.520480e-001 -1.783900e+000 -8.049652e-001 7.339801e-001 7.747617e-001 6.910489e+001 8.246149e-001 -2.001007e-001 6.209424e-001 -8.429529e-002 -9.461133e-001 -7.531672e-001 -3.869388e-002 3.617331e-001 -3.326466e-001 -1.852361e-002 -8.119389e-002 -1.043891e-001 1.959993e+000 2.980860e-001 1.515372e-001 -3.054171e-002 1.999489e-001 -6.047225e-002 -1.252512e-001 -1.741541e-002 6.055239e-002 -3.661766e-002 3.473007e-002 -3.660580e-002 -2.595290e-002 -2.251289e-001
<VARIANCE> 39
 5.650098e+001 1.957330e+001 2.785565e+001 4.706800e+001 3.197920e+001 3.660105e+001 2.445201e+001 2.207588e+001 2.341815e+001 1.651007e+001 1.554575e+001 2.043339e+001 7.639328e+001 7.658113e+000 2.683785e+000 2.184442e+000 5.676545e+000 2.308114e+000 2.836514e+000 3.146648e+000 2.231613e+000 2.480884e+000 1.756488e+000 1.961958e+000 1.949646e+000 9.652448e+000 8.188275e-001 5.256768e-001 3.975897e-001 7.824244e-001 3.913210e-001 4.303587e-001 5.741183e-001 3.785795e-001 4.870011e-001 3.536901e-001 3.470507e-001 3.240194e-001 1.243841e+000
<GCONST> 1.206803e+002
<STATE> 4
<MEAN> 39
 -9.930148e+000 2.128638e+000 6.773553e+000 -6.072381e+000 -8.220551e+000 -4.333261e+000 -3.800841e+000 5.482648e-002 -5.289209e+000 6.908227e-001 -2.197277e+000 -3.627760e+000 6.405122e+001 -1.248187e-001 6.469544e-002 -1.482280e-001 5.978621e-002 1.727521e-001 1.109285e-001 2.125486e-002 -5.509681e-002 3.985376e-002 -2.237560e-003 1.446180e-002 2.153716e-002 -4.067719e-001 -3.586320e-002 -5.753897e-003 -7.972049e-003 4.557724e-003 2.550728e-002 1.660875e-002 1.574191e-002 -7.128361e-003 4.288774e-003 -2.164781e-003 4.816683e-003 8.131004e-003 -2.012474e-002
<VARIANCE> 39
 3.735683e+001 5.629751e+001 1.035111e+002 4.283858e+001 6.221746e+001 6.032293e+001 5.200552e+001 4.919727e+001 6.122219e+001 4.261221e+001 5.242386e+001 5.106495e+001 1.674403e+002 1.373134e+000 2.025609e+000 2.686104e+000 2.183703e+000 2.620420e+000 2.316705e+000 2.855057e+000 2.316702e+000 3.174096e+000 2.157661e+000 2.079228e+000 2.006213e+000 2.571349e+000 2.382992e-001 3.392662e-001 3.156585e-001 3.756646e-001 3.976383e-001 3.924362e-001 4.802639e-001 4.344038e-001 5.451124e-001 3.618026e-001 3.227491e-001 3.043850e-001 3.595175e-001
<GCONST> 1.224254e+002
<TRANSP> 5
 0.000000e+000 1.000000e+000 0.000000e+000 0.000000e+000 0.000000e+000
 0.000000e+000 8.963739e-001 1.036261e-001 0.000000e+000 0.000000e+000
 0.000000e+000 0.000000e+000 9.230341e-001 7.696585e-002 0.000000e+000
 0.000000e+000 0.000000e+000 0.000000e+000 9.862839e-001 1.371608e-002
 0.000000e+000 0.000000e+000 0.000000e+000 0.000000e+000 0.000000e+000
<ENDHMM>
~h "nawaya"
<BEGINHMM>
<NUMSTATES> 5
<STATE> 2
<MEAN> 39
 -1.714560e+001 6.802003e-001 -1.585239e+000 -1.609643e-001 -1.874969e+000 -2.885304e-001 -5.613128e-001 -1.483832e+000 -1.162459e+000 2.273100e-001 -1.899700e+000 1.066767e-001 4.509632e+001 9.883868e-002 1.815293e-001 4.397235e-001 1.770464e-001 -1.505529e-001 1.862229e-001 1.856260e-001 -4.006205e-001 -1.208016e-001 1.044662e-001 -4.117639e-001 -1.149571e-001 2.386408e-001 1.364567e-001 1.304700e-001 1.199827e-001 6.631840e-002 9.229144e-003 -5.672832e-002 -8.177232e-002 -6.068806e-002 -2.244308e-002 6.190271e-002 -4.793922e-002 -3.041684e-002 2.038809e-001
<VARIANCE> 39
 3.021536e+000 1.031282e+001 6.541876e+000 1.104757e+001 1.468619e+001 1.188626e+001 1.281847e+001 1.760665e+001 1.387152e+001 1.162334e+001 1.724956e+001 1.221867e+001 1.026879e+001 2.904963e-001 7.278323e-001 9.717414e-001 1.202972e+000 1.504985e+000 1.386712e+000 1.611570e+000 1.537540e+000 1.282778e+000 1.277461e+000 1.617457e+000 1.126798e+000 2.891176e-001 1.346135e-001 1.505641e-001 2.016809e-001 2.327959e-001 2.869557e-001 2.870544e-001 3.321276e-001 2.748719e-001 2.453422e-001 2.218346e-001 2.908855e-001 2.323305e-001 2.055648e-001
<GCONST> 8.380466e+001
<STATE> 3
<MEAN> 39
 -8.715704e+000 2.243281e+000 2.016663e+000 -3.058469e+000 -2.017583e+000 -3.743306e+000 -5.247786e+000 -2.962296e+000 1.878931e-001 4.965526e-001 -8.492688e+000 -3.363914e+000 6.341255e+001 1.276643e+000 -9.656109e-001 -8.955781e-001 -1.462133e+000 7.215980e-001 -2.373973e-001 -4.958388e-001 6.608250e-001 2.761253e-001 -1.981852e-001 -6.306895e-001 -8.056609e-001 3.360303e+000 -8.515226e-002 -2.964870e-001 -2.229390e-001 -1.392229e-001 1.235631e-001 1.756490e-001 1.744924e-001 1.553851e-003 -6.368040e-002 -2.696877e-002 1.676244e-001 -7.741158e-002 -1.312379e-001
<VARIANCE> 39
 3.613945e+001 4.325031e+001 7.163492e+001 7.100665e+001 5.633711e+001 4.325489e+001 5.034755e+001 6.498825e+001 2.913686e+001 2.314505e+001 3.375176e+001 3.820477e+001 1.505841e+002 3.174821e+000 4.928166e+000 8.144814e+000 5.278705e+000 5.245654e+000 5.814571e+000 4.767887e+000 6.981461e+000 2.730522e+000 2.378317e+000 3.345737e+000 2.856207e+000 6.422184e+000 6.030471e-001 6.991048e-001 1.451925e+000 1.034457e+000 9.098808e-001 1.047603e+000 8.520706e-001 1.598674e+000 4.841860e-001 4.741537e-001 6.523099e-001 4.239295e-001 1.514110e+000
<GCONST> 1.390320e+002
<STATE> 4
<MEAN> 39
 -5.796075e+000 -3.749053e+000 -4.328562e+000 -1.020149e+001 -2.713921e-001 3.956515e-001 -1.712085e+000 2.058741e+000 -9.555708e-001 1.234163e-001 -3.506995e+000 -6.234197e+000 6.737022e+001 -1.960798e-001 1.096020e-001 7.631524e-002 1.689143e-001 -6.045876e-002 6.518973e-003 4.765757e-002 -4.245365e-002 -2.240867e-002 9.744623e-003 1.447541e-001 1.383074e-001 -4.624960e-001 -9.823555e-003 1.886553e-002 1.172526e-002 1.459980e-002 -1.746997e-002 -1.901208e-002 -1.415880e-002 5.933130e-003 8.956113e-003 1.215804e-003 -5.890687e-003 2.137983e-002 -1.134357e-002
<VARIANCE> 39
 4.503403e+001 2.536727e+001 4.403634e+001 8.904408e+001 7.726674e+001 6.582446e+001 2.926373e+001 4.528460e+001 3.485152e+001 3.036942e+001 5.272216e+001 6.472818e+001 1.724031e+002 4.979828e-001 1.100383e+000 1.665541e+000 1.795117e+000 2.705894e+000 2.123279e+000 1.546035e+000 2.155048e+000 1.812241e+000 1.492542e+000 2.273408e+000 2.338974e+000 8.138150e-001 5.294890e-002 1.736040e-001 1.986371e-001 2.372354e-001 3.196172e-001 2.639412e-001 2.795836e-001 3.720050e-001 3.011923e-001 2.486348e-001 3.381664e-001 3.377733e-001 7.249808e-002
<GCONST> 1.090051e+002
<TRANSP> 5
 0.000000e+000 1.000000e+000 0.000000e+000 0.000000e+000 0.000000e+000
 0.000000e+000 8.909685e-001 1.090315e-001 0.000000e+000 0.000000e+000
 0.000000e+000 0.000000e+000 8.956595e-001 1.043405e-001 0.000000e+000
 0.000000e+000 0.000000e+000 0.000000e+000 9.864028e-001 1.359724e-002
 0.000000e+000 0.000000e+000 0.000000e+000 0.000000e+000 0.000000e+000
<ENDHMM>
~h "bunyaeseo"
<BEGINHMM>
<NUMSTATES> 5
<STATE> 2
<MEAN> 39
 -1.805596e+001 5.695558e-001 -1.422908e+000 2.407288e-001 -5.833266e-001 -4.497801e-001 -6.402462e-001 -1.169060e-001 -1.255189e+000 1.149482e-001 -6.116999e-001 3.144369e-001 4.437063e+001 -9.483047e-003 -3.457085e-001 -2.102838e-001 -2.382887e-001 -1.439984e-001 -1.040686e-001 -1.756243e-001 -1.890988e-001 -1.689245e-001 9.756048e-002 1.932292e-001 4.593087e-002 1.156504e+000 -1.983998e-002 -1.801595e-001 -1.087132e-001 6.645687e-003 7.319500e-002 -6.590049e-002 -9.394941e-002 -6.574293e-003 6.622799e-002 1.947217e-002 6.992994e-002 1.318119e-002 5.686014e-001
<VARIANCE> 39
 2.453953e+000 7.109883e+000 5.576533e+000 8.684880e+000 1.354603e+001 1.406020e+001 1.491946e+001 1.558394e+001 1.468465e+001 1.422457e+001 1.155685e+001 1.520111e+001 1.314015e+001 3.727192e-001 1.428992e+000 8.950062e-001 1.242708e+000 1.607012e+000 1.490810e+000 1.554401e+000 1.735847e+000 1.780996e+000 1.847430e+000 1.524083e+000 1.744283e+000 5.921863e+000 5.664057e-002 2.223107e-001 1.612428e-001 2.056172e-001 3.037877e-001 2.526096e-001 2.713102e-001 3.431275e-001 3.475037e-001 3.190186e-001 2.728171e-001 3.631935e-001 7.253528e-001
<GCONST> 8.993590e+001
<STATE> 3
<MEAN> 39
 -9.886376e+000 -4.687317e-001 2.265690e+000 -2.632669e+000 -4.522202e+000 -3.254979e+000 -8.326590e+000 -2.376463e+000 -4.500919e+000 -4.018781e-002 -2.434676e-001 -1.357759e+000 6.855121e+001 7.037764e-001 1.930992e-001 7.670145e-001 -3.267192e-001 -7.787473e-001 -2.259748e-001 -3.211901e-001 3.079051e-001 -3.215055e-001 -1.879765e-001 -1.978983e-001 -5.136766e-002 1.103676e+000 2.453119e-002 4.568415e-003 2.188876e-004 2.073323e-002 -6.084455e-002 1.857671e-002 9.433976e-002 1.393483e-001 4.645010e-002 -5.419425e-002 -9.412525e-002 -1.667486e-002 -2.590329e-001
<VARIANCE> 39
 5.598845e+001 4.542522e+001 7.690528e+001 3.355254e+001 7.110764e+001 3.404520e+001 5.013708e+001 4.143433e+001 4.292685e+001 4.926514e+001 4.033374e+001 2.875505e+001 2.543903e+001 3.586441e+000 4.033417e+000 4.739336e+000 3.500782e+000 5.398445e+000 3.598515e+000 4.820992e+000 5.806530e+000 3.954479e+000 4.570954e+000 3.677922e+000 2.932379e+000 5.492514e+000 6.529377e-001 6.466433e-001 8.404818e-001 7.481668e-001 1.058246e+000 7.205124e-001 8.739065e-001 1.081221e+000 7.912406e-001 8.647938e-001 7.145867e-001 5.312573e-001 9.615284e-001
<GCONST> 1.364680e+002
<STATE> 4
<MEAN> 39
 -9.047467e+000 -7.723425e-001 -2.036155e+000 -7.294229e+000 -4.202271e+000 -7.769334e-001 -2.439808e+000 2.777612e+000 -3.270526e+000 3.072399e-001 -2.032979e+000 -2.195106e+000 6.560397e+001 -1.477847e-001 1.276667e-002 -1.593454e-001 8.808249e-002 1.727437e-001 6.565175e-002 8.530089e-002 -7.044403e-002 7.771667e-002 3.361590e-002 3.569027e-002 1.030846e-002 -4.112813e-001 -7.214532e-003 2.593646e-002 1.987587e-002 9.193755e-005 4.041051e-003 -4.654213e-003 -1.276213e-002 -2.784676e-002 -1.176148e-002 9.560392e-003 1.413568e-002 -1.045423e-003 -1.676106e-002
<VARIANCE> 39
 7.968369e+001 2.567304e+001 5.863081e+001 5.828515e+001 7.029838e+001 7.932234e+001 4.360068e+001 5.434409e+001 4.130885e+001 4.008767e+001 5.097400e+001 4.596352e+001 1.636262e+002 3.736275e+000 1.405078e+000 2.029773e+000 2.306148e+000 2.499670e+000 2.597574e+000 2.697985e+000 2.197534e+000 2.282161e+000 2.033499e+000 2.170090e+000 1.951537e+000 9.401689e-001 4.256850e-001 2.088150e-001 2.917072e-001 3.335361e-001 4.059752e-001 4.188275e-001 4.430725e-001 3.639711e-001 4.034720e-001 3.464793e-001 3.320581e-001 3.168538e-001 9.485216e-002
<GCONST> 1.189501e+002
<TRANSP> 5
 0.000000e+000 1.000000e+000 0.000000e+000 0.000000e+000 0.000000e+000
 0.000000e+000 9.004849e-001 9.951513e-002 0.000000e+000 0.000000e+000
 0.000000e+000 0.000000e+000 9.422725e-001 5.772748e-002 0.000000e+000
 0.000000e+000 0.000000e+000 0.000000e+000 9.868297e-001 1.317029e-002
 0.000000e+000 0.000000e+000 0.000000e+000 0.000000e+000 0.000000e+000
<ENDHMM>
~h "widaehan"
<BEGINHMM>
<NUMSTATES> 5
<STATE> 2
<MEAN> 39
 -1.723470e+001 1.026058e+000 -1.615753e+000 5.790011e-001 -1.544657e+000 -8.835047e-001 -4.530835e-001 -6.596214e-002 -1.335208e+000 6.404671e-002 -1.031441e+000 2.179875e-001 4.387397e+001 2.490118e-001 7.764235e-005 1.939905e-001 2.975700e-001 -2.562844e-002 -1.302536e-001 -7.741580e-003 -8.266199e-002 -4.696458e-001 1.557348e-001 6.388459e-002 -1.094720e-001 2.794266e-001 1.677184e-001 7.135695e-002 1.863574e-001 1.517555e-001 -8.678452e-002 -7.054019e-002 -5.571680e-002 7.945594e-002 -1.358959e-001 -4.541387e-002 -3.319354e-003 -7.540471e-002 1.938517e-001
<VARIANCE> 39
 4.042867e+000 3.893236e+000 5.132186e+000 9.264853e+000 1.187996e+001 1.485741e+001 1.146589e+001 1.543380e+001 1.494634e+001 1.585058e+001 1.465176e+001 8.825829e+000 7.195062e+000 2.654008e-001 5.464282e-001 8.348457e-001 1.136489e+000 1.464269e+000 1.354223e+000 1.145232e+000 1.461603e+000 1.826061e+000 1.764340e+000 1.474256e+000 1.146118e+000 2.018998e-001 1.397983e-001 1.050207e-001 2.204546e-001 2.065485e-001 2.453796e-001 2.752324e-001 2.208526e-001 2.730874e-001 3.489645e-001 3.047188e-001 2.835572e-001 1.742605e-001 1.188857e-001
<GCONST> 8.006651e+001
<STATE> 3
<MEAN> 39
 -9.203297e+000 3.763739e+000 1.174751e+001 9.389745e-001 -1.099898e+001 -7.174176e+000 -5.360388e+000 -1.224345e+000 -1.117180e+001 -2.641218e+000 1.731762e+000 -2.325577e+000 6.511956e+001 3.670928e-001 -8.165433e-002 4.562906e-001 -3.530849e-001 -6.862880e-001 -4.549951e-001 -2.856609e-001 8.545908e-002 -2.317441e-001 -2.951973e-002 1.880202e-001 1.766879e-002 1.424964e+000 -4.889017e-002 -5.437833e-002 -8.022144e-002 -1.020044e-001 3.747120e-003 4.531621e-002 3.377348e-002 4.151650e-002 9.303864e-002 2.185847e-002 -2.772292e-002 1.663090e-002 -4.513581e-002
<VARIANCE> 39
 2.894265e+001 3.331161e+001 7.219045e+001 5.153439e+001 7.139621e+001 4.831275e+001 4.260173e+001 3.909139e+001 4.479984e+001 3.604475e+001 2.520778e+001 2.318790e+001 1.094972e+002 4.345503e+000 3.959442e+000 7.489483e+000 4.069956e+000 8.207435e+000 3.752014e+000 4.923311e+000 3.808291e+000 5.231373e+000 3.387389e+000 2.605889e+000 2.265143e+000 1.061800e+001 8.329443e-001 7.174465e-001 1.109822e+000 7.493111e-001 1.381338e+000 7.808985e-001 9.187887e-001 6.527088e-001 8.258876e-001 6.285127e-001 4.381995e-001 4.176865e-001 1.884423e+000
<GCONST> 1.375659e+002
<STATE> 4
<MEAN> 39
 -9.007992e+000 -1.882198e-001 1.749362e+000 -1.555820e+000 -3.508991e+000 -3.809660e+000 -3.631585e+000 2.755681e+000 -1.856321e+000 1.447428e-001 -6.232502e+000 -2.695274e+000 6.254521e+001 -1.966997e-001 3.412761e-002 -2.174348e-001 8.900297e-002 2.994157e-001 1.644013e-001 9.257773e-002 -4.266081e-002 1.609742e-001 1.298845e-002 -7.500204e-002 2.233978e-002 -6.029937e-001 -8.900704e-003 1.431918e-002 8.767826e-003 2.405067e-002 1.864586e-002 -5.224921e-003 -2.866518e-003 -2.501346e-002 -7.710676e-003 -7.697256e-003 2.115082e-003 5.914082e-003 -1.199301e-002
<VARIANCE> 39
 3.952459e+001 2.271805e+001 6.135472e+001 5.205800e+001 7.768515e+001 4.506822e+001 4.359074e+001 6.343398e+001 3.098440e+001 2.764086e+001 5.884628e+001 4.673207e+001 2.029147e+002 7.692298e-001 8.955195e-001 2.719880e+000 2.424236e+000 2.988280e+000 2.262631e+000 2.143311e+000 2.818940e+000 1.820618e+000 1.715287e+000 2.205904e+000 1.696626e+000 1.066157e+000 1.054284e-001 1.334314e-001 3.274991e-001 4.008441e-001 4.075959e-001 3.895039e-001 3.691759e-001 4.817968e-001 3.157681e-001 3.191881e-001 3.303426e-001 2.890385e-001 1.276076e-001
<GCONST> 1.137991e+002
<TRANSP> 5
 0.000000e+000 1.000000e+000 0.000000e+000 0.000000e+000 0.000000e+000
 0.000000e+000 8.855746e-001 1.144255e-001 0.000000e+000 0.000000e+000
 0.000000e+000 0.000000e+000 9.562343e-001 4.376565e-002 0.000000e+000
 0.000000e+000 0.000000e+000 0.000000e+000 9.821784e-001 1.782159e-002
 0.000000e+000 0.000000e+000 0.000000e+000 0.000000e+000 0.000000e+000
<ENDHMM>
~h "gyamalo"
<BEGINHMM>
<NUMSTATES> 5
<STATE> 2
<MEAN> 39
 -1.791259e+001 8.636125e-001 -1.655935e+000 5.732618e-002 -2.900121e-001 5.076342e-001 -6.863649e-001 4.289292e-002 -9.248131e-001 8.983048e-002 -6.423396e-001 9.554448e-001 4.428148e+001 1.147949e-002 -1.203268e-001 -1.862686e-001 -3.642350e-001 1.417773e-001 -6.759109e-002 -1.528760e-001 -1.778585e-001 -1.531772e-001 4.097700e-001 -6.194387e-002 9.859515e-002 4.986987e-001 2.899360e-002 -1.933431e-001 -2.424280e-001 -1.731029e-001 1.301399e-001 -1.314679e-001 -2.134098e-001 -8.017173e-002 -7.630409e-002 1.907279e-001 -1.291885e-001 -7.811414e-002 4.474161e-001
<VARIANCE> 39
 6.457425e+000 6.453362e+000 9.534392e+000 1.189872e+001 1.241761e+001 1.504289e+001 1.318689e+001 1.622946e+001 1.505421e+001 1.356060e+001 1.299863e+001 1.377234e+001 9.831390e+000 6.822227e-001 1.284392e+000 2.136633e+000 1.877310e+000 1.449136e+000 2.059673e+000 1.713900e+000 1.951646e+000 1.369998e+000 2.441892e+000 1.841990e+000 1.603752e+000 2.507024e+000 1.172646e-001 2.491768e-001 4.319095e-001 3.271379e-001 3.145212e-001 4.634105e-001 4.028264e-001 3.831807e-001 2.415784e-001 4.156657e-001 3.615774e-001 2.661779e-001 7.301710e-001
<GCONST> 9.605620e+001
<STATE> 3
<MEAN> 39
 -1.130969e+001 -4.450967e+000 -1.913308e+000 -4.997515e+000 -1.060375e+000 -5.629471e+000 -9.397504e+000 1.403291e+000 -4.443561e+000 4.693289e+000 -2.548398e+000 -2.242302e+000 6.681759e+001 8.399814e-001 -2.088354e-002 8.643324e-001 -1.766727e-001 -8.042494e-001 -3.884758e-001 -6.921939e-001 3.678956e-001 -4.488305e-001 -1.660128e-001 6.385728e-002 -2.760144e-001 1.751921e+000 -1.265072e-002 9.491196e-002 1.878273e-001 5.137244e-002 -1.899488e-001 7.400564e-002 8.288260e-002 6.054889e-002 5.224617e-002 -1.589315e-001 5.487843e-002 3.370083e-002 -1.731159e-001
<VARIANCE> 39
 4.150517e+001 3.193521e+001 1.311226e+002 4.462160e+001 8.860447e+001 4.425053e+001 4.689192e+001 5.310446e+001 4.306976e+001 6.168171e+001 4.356144e+001 3.237096e+001 9.629825e+001 1.912614e+000 4.311945e+000 1.343231e+001 6.119006e+000 8.750685e+000 4.647183e+000 5.364962e+000 5.196959e+000 5.622910e+000 5.548428e+000 4.631666e+000 2.470543e+000 9.121380e+000 4.171650e-001 7.464691e-001 2.173159e+000 1.285994e+000 1.245002e+000 8.676128e-001 9.718964e-001 9.349113e-001 1.125296e+000 1.024130e+000 8.260772e-001 5.286219e-001 1.670234e+000
<GCONST> 1.446482e+002
<STATE> 4
<MEAN> 39
 -4.085571e+000 -8.302174e-001 -2.062373e+000 -5.830133e+000 -5.542153e+000 1.578376e-001 -5.218879e+000 -9.429820e-001 -3.793074e+000 1.080620e+000 -1.488833e+000 -3.506844e+000 6.449161e+001 -1.630842e-001 2.905939e-002 -1.500241e-001 6.511059e-002 1.220844e-001 6.886687e-002 1.562010e-001 -6.047608e-002 8.799220e-002 -2.856463e-002 -7.917895e-003 3.976870e-002 -4.081149e-001 -2.367972e-003 3.229073e-003 -9.487844e-003 1.423015e-002 1.836821e-002 -5.928931e-003 9.605107e-003 -5.147125e-003 -1.824052e-003 9.024735e-003 1.243271e-004 -4.296619e-003 -1.897456e-002
<VARIANCE> 39
 5.360822e+001 2.891971e+001 4.133832e+001 9.368855e+001 4.784788e+001 9.221622e+001 6.819514e+001 7.178018e+001 5.480755e+001 4.481744e+001 6.675568e+001 4.820350e+001 1.556078e+002 7.377394e-001 1.129527e+000 2.426774e+000 4.596823e+000 2.889643e+000 3.892526e+000 2.789862e+000 3.561792e+000 3.277235e+000 2.434914e+000 2.815509e+000 2.083435e+000 1.117311e+000 9.326398e-002 1.665814e-001 3.917567e-001 6.265609e-001 5.015502e-001 5.296322e-001 4.414095e-001 5.411233e-001 5.310986e-001 4.337786e-001 4.083363e-001 3.586462e-001 1.241103e-001
<GCONST> 1.222042e+002
<TRANSP> 5
 0.000000e+000 1.000000e+000 0.000000e+000 0.000000e+000 0.000000e+000
 0.000000e+000 8.881928e-001 1.118072e-001 0.000000e+000 0.000000e+000
 0.000000e+000 0.000000e+000 9.339648e-001 6.603512e-002 0.000000e+000
 0.000000e+000 0.000000e+000 0.000000e+000 9.871321e-001 1.286792e-002
 0.000000e+000 0.000000e+000 0.000000e+000 0.000000e+000 0.000000e+000
<ENDHMM>
~h "uioero"
<BEGINHMM>
<NUMSTATES> 5
<STATE> 2
<MEAN> 39
 -1.754831e+001 5.005474e-001 -2.945282e+000 2.069029e-001 3.065146e-001 -6.169977e-001 -2.102698e+000 1.014242e+000 -5.551572e-001 7.152405e-001 -1.125723e+000 -1.029971e+000 4.508854e+001 1.106380e-001 1.770940e-001 2.635200e-002 -1.931309e-001 6.158116e-002 1.210306e-001 -2.650461e-001 -8.278104e-002 -4.232529e-001 2.755325e-001 2.464409e-001 -1.776149e-001 1.997654e-001 1.161065e-001 1.015151e-001 7.974049e-002 -7.832026e-002 3.612025e-002 8.091568e-002 -1.610510e-001 4.443699e-003 -8.707745e-002 5.640462e-002 1.158681e-001 -1.133885e-001 2.379894e-001
<VARIANCE> 39
 5.927133e+000 6.752106e+000 1.185027e+001 9.472668e+000 1.245598e+001 1.532920e+001 2.292666e+001 1.393502e+001 2.022405e+001 1.949733e+001 1.361683e+001 1.374444e+001 1.094275e+001 4.195204e-001 9.446712e-001 1.112341e+000 1.217669e+000 1.299483e+000 1.612204e+000 2.760622e+000 1.559086e+000 2.166815e+000 2.137510e+000 1.461268e+000 1.479954e+000 4.054179e-001 1.816979e-001 2.086642e-001 2.133783e-001 2.209448e-001 2.174215e-001 3.369642e-001 4.727548e-001 2.899323e-001 3.677848e-001 3.336824e-001 2.430235e-001 2.529233e-001 1.320358e-001
<GCONST> 8.984642e+001
<STATE> 3
<MEAN> 39
 -7.802333e+000 3.723169e+000 1.891711e+000 -3.181977e+000 -4.011024e+000 -4.624817e-001 -1.264618e+001 -1.935080e+000 -7.701615e+000 2.844779e+000 3.604897e+000 -6.603420e+000 6.000742e+001 1.762198e+000 -1.392635e-003 1.203151e+000 -2.995703e-001 -1.524368e+000 -4.591672e-001 -1.454240e+000 -4.418837e-001 -1.122641e+000 -3.307029e-001 6.639775e-001 -6.261240e-001 3.154150e+000 -1.919277e-001 -1.270409e-001 5.760344e-002 8.454584e-002 -2.095130e-001 -9.506185e-002 2.408238e-001 -5.607359e-003 3.583122e-002 -1.826573e-001 -8.494721e-002 1.377901e-001 -1.126829e-001
<VARIANCE> 39
 5.851110e+001 2.700269e+001 5.290644e+001 2.962774e+001 6.335778e+001 7.133884e+001 6.110275e+001 8.116055e+001 5.381844e+001 3.641132e+001 4.779827e+001 4.583881e+001 1.107097e+002 4.589832e+000 3.589597e+000 3.041159e+000 2.660999e+000 3.621310e+000 3.141076e+000 5.876643e+000 4.697157e+000 3.689508e+000 2.957628e+000 2.769476e+000 3.074334e+000 4.574660e+000 9.368492e-001 6.649267e-001 4.270015e-001 4.584916e-001 7.533667e-001 5.374918e-001 1.192950e+000 8.131739e-001 6.342973e-001 4.033148e-001 5.367866e-001 5.775362e-001 1.162675e+000
<GCONST> 1.345765e+002
<STATE> 4
<MEAN> 39
 -4.699211e+000 2.738477e-001 1.205503e+000 -5.235329e+000 -9.030185e+000 -2.389161e-001 -6.687907e+000 -9.204344e-002 -7.113992e+000 -2.809306e-001 2.638882e+000 -2.239754e+000 6.402704e+001 -1.964378e-001 -8.964298e-003 -1.271999e-001 5.633483e-002 1.453506e-001 6.474005e-002 2.288327e-001 3.634248e-002 1.535084e-001 -2.410821e-002 -9.213844e-002 1.080268e-001 -3.846610e-001 2.335885e-003 1.542673e-003 -1.517130e-002 -4.360866e-003 1.983500e-002 4.387612e-003 -4.261908e-003 4.824604e-003 1.119055e-002 7.278258e-003 -4.835940e-003 -5.258675e-003 -1.532074e-002
<VARIANCE> 39
 5.840765e+001 2.690302e+001 7.004269e+001 6.795184e+001 6.644968e+001 9.528203e+001 8.643111e+001 6.572873e+001 5.786473e+001 4.192490e+001 6.099412e+001 3.079183e+001 1.497964e+002 9.756304e-001 9.789662e-001 1.571084e+000 2.902676e+000 2.273542e+000 2.715864e+000 2.797219e+000 2.898773e+000 2.464340e+000 2.174472e+000 2.557143e+000 1.480486e+000 8.512748e-001 1.287386e-001 1.420276e-001 2.228096e-001 4.112408e-001 3.932168e-001 3.868712e-001 4.511975e-001 4.491832e-001 4.004339e-001 3.968074e-001 4.183908e-001 2.651427e-001 9.943872e-002
<GCONST> 1.172605e+002
<TRANSP> 5
 0.000000e+000 1.000000e+000 0.000000e+000 0.000000e+000 0.000000e+000
 0.000000e+000 8.901011e-001 1.098988e-001 0.000000e+000 0.000000e+000
 0.000000e+000 0.000000e+000 8.745276e-001 1.254724e-001 0.000000e+000
 0.000000e+000 0.000000e+000 0.000000e+000 9.863071e-001 1.369284e-002
 0.000000e+000 0.000000e+000 0.000000e+000 0.000000e+000 0.000000e+000
<ENDHMM>
~h "jayuwa"
<BEGINHMM>
<NUMSTATES> 5
<STATE> 2
<MEAN> 39
 -1.774686e+001 1.642892e+000 -1.060793e+000 -4.643179e-001 -7.845088e-001 -1.596671e+000 -2.183235e+000 -1.405258e+000 -1.778374e+000 5.847541e-001 -3.332126e-001 6.154618e-001 4.490037e+001 -2.785034e-001 -1.944940e-001 -1.076682e-002 -5.524393e-001 2.507179e-001 -6.018546e-002 1.177101e-001 -5.680880e-002 -2.215911e-001 1.955096e-001 -8.270761e-002 -1.570885e-001 8.975611e-001 -1.689983e-001 -2.330489e-002 -4.814337e-002 -2.052199e-001 5.588424e-002 -1.939608e-001 -2.014829e-002 4.834794e-002 -3.719968e-002 -2.371281e-002 3.359325e-002 5.098386e-002 4.835586e-001
<VARIANCE> 39
 5.703484e+000 8.044830e+000 9.397284e+000 1.409672e+001 2.013731e+001 2.298427e+001 2.137262e+001 1.837837e+001 1.770846e+001 1.832312e+001 9.286365e+000 1.720613e+001 9.644002e+000 9.904936e-001 1.147658e+000 1.289574e+000 2.386753e+000 2.491007e+000 2.445484e+000 1.858363e+000 2.149281e+000 1.978178e+000 2.170113e+000 9.763998e-001 1.988813e+000 3.405915e+000 2.291892e-001 1.959092e-001 1.838555e-001 3.918494e-001 5.382383e-001 4.196329e-001 3.445286e-001 4.079233e-001 3.801131e-001 4.317828e-001 1.856125e-001 3.525882e-001 6.705939e-001
<GCONST> 9.929586e+001
<STATE> 3
<MEAN> 39
 -1.660522e+001 -4.008416e+000 -3.605710e+000 -9.269917e+000 9.363353e-001 -3.678809e+000 -9.200758e-001 3.342945e+000 3.055490e-001 -1.226062e+000 -4.214231e+000 -9.226874e-001 7.129100e+001 1.079801e+000 -4.846330e-001 2.818299e-002 -4.054783e-001 -3.251396e-001 -7.556262e-002 -1.465391e-001 5.467523e-001 4.196169e-001 -3.186556e-001 -4.621982e-001 -3.806957e-001 1.796597e+000 1.127422e-001 6.651771e-002 1.928463e-001 1.400995e-001 -2.008813e-001 2.320709e-002 -9.767774e-002 9.477216e-003 -1.106571e-002 2.052517e-002 5.775666e-002 5.511670e-002 -3.335294e-001
<VARIANCE> 39
 9.400031e+001 3.541368e+001 2.683701e+001 3.534199e+001 3.298756e+001 3.633654e+001 3.224429e+001 3.612459e+001 3.022848e+001 3.101460e+001 3.824998e+001 3.433321e+001 6.947578e+001 6.230012e+000 3.630104e+000 2.854023e+000 4.886693e+000 3.697256e+000 4.684281e+000 4.019690e+000 4.180943e+000 2.616847e+000 2.726315e+000 3.192952e+000 2.709435e+000 5.425165e+000 9.783793e-001 8.481979e-001 5.564129e-001 1.015961e+000 6.934041e-001 9.710675e-001 6.896006e-001 8.686701e-001 5.160885e-001 5.178489e-001 6.226329e-001 5.513155e-001 7.730500e-001
<GCONST> 1.319862e+002
<STATE> 4
<MEAN> 39
 -5.398354e+000 -4.377837e-001 -2.740752e+000 -9.240783e+000 -2.955779e+000 2.373210e+000 -5.843475e+000 -3.425477e-001 -4.370615e+000 5.486577e-001 -3.841707e-001 -4.573982e+000 6.500717e+001 -1.997727e-001 1.272118e-001 -8.661947e-003 1.663936e-001 5.426247e-002 6.900184e-002 4.411577e-002 -1.141610e-001 -6.417780e-002 3.314139e-002 9.139443e-002 8.029593e-002 -5.222505e-001 2.617960e-004 -7.802763e-003 -3.558838e-002 1.967929e-003 3.224691e-002 1.213386e-002 1.671615e-002 -1.004843e-002 1.419567e-002 -9.301157e-003 -1.677675e-002 -1.168629e-002 1.931264e-004
<VARIANCE> 39
 4.957550e+001 3.479886e+001 8.435529e+001 8.824035e+001 9.594379e+001 7.166368e+001 6.044848e+001 4.349133e+001 5.777946e+001 4.055061e+001 5.308583e+001 6.420618e+001 1.580612e+002 5.809280e-001 1.302411e+000 2.608239e+000 2.347773e+000 2.718548e+000 2.252535e+000 2.178627e+000 2.159204e+000 2.594044e+000 2.084557e+000 2.092602e+000 2.221446e+000 8.646144e-001 6.419435e-002 1.712181e-001 2.635518e-001 3.059227e-001 3.469057e-001 3.461488e-001 3.534208e-001 3.977163e-001 4.202556e-001 3.694978e-001 3.300660e-001 3.277652e-001 6.373808e-002
<GCONST> 1.157347e+002
<TRANSP> 5
 0.000000e+000 1.000000e+000 0.000000e+000 0.000000e+000 0.000000e+000
 0.000000e+000 8.978082e-001 1.021918e-001 0.000000e+000 0.000000e+000
 0.000000e+000 0.000000e+000 9.331449e-001 6.685509e-002 0.000000e+000
 0.000000e+000 0.000000e+000 0.000000e+000 9.856644e-001 1.433553e-002
 0.000000e+000 0.000000e+000 0.000000e+000 0.000000e+000 0.000000e+000
<ENDHMM>
~h "gwaeoni"
<BEGINHMM>
<NUMSTATES> 5
<STATE> 2
<MEAN> 39
 -1.735497e+001 6.421259e-001 -1.840311e+000 -1.023547e+000 -1.627162e+000 -3.071426e-001 -8.631079e-001 -3.716586e-001 -1.568263e+000 3.338998e-001 5.742352e-001 6.052669e-001 4.463716e+001 8.299501e-002 -3.487224e-002 -3.793848e-002 -2.207638e-001 -1.371372e-001 -8.064415e-002 4.053564e-002 -4.286345e-002 -4.954951e-002 2.122286e-002 -3.727423e-002 7.186072e-002 2.504735e-001 1.354558e-001 1.607547e-002 -1.698904e-001 -2.882231e-001 -8.763634e-002 1.366516e-002 -6.344576e-002 9.109539e-002 -6.629248e-002 1.001267e-001 -1.270965e-001 -7.008304e-002 2.866426e-001
<VARIANCE> 39
 3.772878e+000 9.009441e+000 7.144197e+000 1.460964e+001 1.661055e+001 1.360873e+001 1.584379e+001 1.928934e+001 1.708767e+001 1.870153e+001 1.337030e+001 1.062209e+001 9.491633e+000 3.947683e-001 1.397345e+000 1.145795e+000 1.550838e+000 2.016853e+000 1.738395e+000 1.932771e+000 2.162770e+000 2.190550e+000 2.254113e+000 1.313835e+000 1.078939e+000 1.027605e+000 1.003736e-001 2.162614e-001 3.441025e-001 4.521993e-001 3.333998e-001 2.611032e-001 2.886418e-001 4.061779e-001 4.931858e-001 4.293683e-001 2.408456e-001 2.323415e-001 3.546903e-001
<GCONST> 9.285833e+001
<STATE> 3
<MEAN> 39
 -1.004277e+001 -2.222331e-001 -9.194884e+000 -1.469843e+001 -1.810817e+000 4.586869e+000 -1.252617e+000 1.416047e+000 -5.184951e+000 3.480876e+000 3.147887e-001 -4.193864e+000 6.314736e+001 1.218000e+000 -3.401893e-001 -3.958113e-001 -1.363543e+000 2.427599e-001 6.904826e-001 2.652397e-002 -1.699234e-001 -4.151415e-001 2.089765e-001 1.151082e-001 -7.314474e-001 2.201359e+000 -3.640070e-002 -5.951510e-002 8.984828e-002 9.579693e-002 7.195755e-002 -4.070004e-002 1.204289e-002 -5.538628e-002 9.038647e-002 -5.752182e-002 3.376705e-002 8.280657e-004 -8.462148e-002
<VARIANCE> 39
 4.526794e+001 2.744332e+001 3.607481e+001 6.708656e+001 5.843575e+001 5.891194e+001 3.337481e+001 5.052618e+001 4.174023e+001 3.490165e+001 3.106389e+001 3.830754e+001 9.077863e+001 3.273885e+000 3.281522e+000 5.378534e+000 7.221902e+000 4.904994e+000 5.224418e+000 3.525931e+000 5.534717e+000 4.856394e+000 3.200766e+000 3.459500e+000 3.404627e+000 4.422101e+000 7.590326e-001 6.827924e-001 9.258134e-001 1.382624e+000 9.074590e-001 1.041700e+000 6.915621e-001 1.055714e+000 1.083702e+000 6.479654e-001 6.851051e-001 6.307541e-001 9.275281e-001
<GCONST> 1.379380e+002
<STATE> 4
<MEAN> 39
 -7.196525e+000 3.167642e+000 3.008943e+000 -1.081236e+001 -5.687545e+000 3.125852e+000 -3.564514e+000 -2.634356e+000 -6.014564e+000 1.986215e+000 -1.152394e+000 -4.724219e+000 6.422011e+001 -2.449944e-001 7.640333e-002 7.970515e-002 2.941668e-001 -2.425801e-002 -1.204030e-001 -8.499649e-004 1.564476e-002 7.309008e-002 -5.885137e-002 -1.679320e-002 1.305550e-001 -4.478107e-001 -9.732224e-003 9.898991e-003 -9.321694e-004 1.405955e-002 -5.135516e-003 1.232146e-002 3.902796e-003 -2.280187e-004 -5.339861e-003 1.814778e-003 4.777250e-003 4.932970e-003 -1.996446e-002
<VARIANCE> 39
 5.133492e+001 5.299207e+001 1.048859e+002 1.162919e+002 8.085868e+001 5.248920e+001 4.679039e+001 4.738580e+001 4.895269e+001 3.796226e+001 4.781564e+001 4.649559e+001 1.546240e+002 4.950549e-001 1.034789e+000 1.964895e+000 2.585071e+000 2.265651e+000 2.723840e+000 2.240732e+000 2.508145e+000 2.101814e+000 1.757931e+000 1.985759e+000 1.345809e+000 8.866768e-001 8.839810e-002 1.357085e-001 2.528177e-001 3.398443e-001 3.725705e-001 4.635030e-001 3.775719e-001 4.778397e-001 3.450980e-001 2.945620e-001 3.171643e-001 2.372757e-001 1.101984e-001
<GCONST> 1.145746e+002
<TRANSP> 5
 0.000000e+000 1.000000e+000 0.000000e+000 0.000000e+000 0.000000e+000
 0.000000e+000 8.814107e-001 1.185892e-001 0.000000e+000 0.000000e+000
 0.000000e+000 0.000000e+000 9.262429e-001 7.375713e-002 0.000000e+000
 0.000000e+000 0.000000e+000 0.000000e+000 9.864148e-001 1.358520e-002
 0.000000e+000 0.000000e+000 0.000000e+000 0.000000e+000 0.000000e+000
<ENDHMM>
~h "ijipteu"
<BEGINHMM>
<NUMSTATES> 5
<STATE> 2
<MEAN> 39
 -1.802783e+001 1.688981e+000 -6.946872e-001 -1.948122e-001 -7.809708e-001 -1.693022e-001 -9.725427e-001 3.387341e-001 -1.428271e+000 -2.212819e-001 -1.010167e+000 -4.368001e-003 4.373631e+001 -2.264383e-001 1.436445e-001 6.654762e-001 -3.431072e-001 -1.317129e-001 4.633592e-002 -4.391054e-001 1.914071e-001 -2.927395e-001 1.737659e-001 2.202136e-001 -1.082101e-001 3.131430e-001 2.842136e-002 1.130547e-001 3.392581e-001 -7.764222e-002 -1.797050e-001 1.143583e-001 -1.479200e-001 -8.104903e-002 -2.011596e-001 -2.280610e-002 7.516552e-002 -1.100008e-001 2.737275e-001
<VARIANCE> 39
 3.929600e+000 3.624010e+000 7.299196e+000 9.306872e+000 1.079843e+001 1.178058e+001 1.530607e+001 1.554788e+001 1.369556e+001 1.179163e+001 1.176728e+001 1.074038e+001 8.137589e+000 3.699863e-001 3.950751e-001 1.416010e+000 9.028111e-001 1.412463e+000 1.434865e+000 1.767163e+000 2.055671e+000 1.574071e+000 1.453855e+000 1.453383e+000 1.237797e+000 3.432922e-001 1.410581e-001 9.662413e-002 2.883528e-001 1.317028e-001 3.433402e-001 2.604755e-001 3.919718e-001 3.889737e-001 2.472165e-001 2.461791e-001 2.843593e-001 2.367646e-001 2.157989e-001
<GCONST> 8.266293e+001
<STATE> 3
<MEAN> 39
 -1.560864e+001 7.835384e+000 1.304990e+001 -3.348290e+000 -7.206632e+000 -4.733953e+000 -6.985195e+000 -4.121825e+000 -9.120522e+000 -2.563285e+000 3.797183e-001 -1.672126e+000 6.607793e+001 3.663561e-001 1.202404e-001 1.957059e-001 1.648665e-001 -1.063003e-001 -3.344086e-001 -5.790661e-002 -1.369497e-001 -8.039875e-002 -1.091524e-001 -1.494682e-002 4.702233e-002 3.831275e-001 -4.322613e-002 -2.496115e-002 -1.567386e-001 3.403161e-002 9.933344e-002 9.991517e-003 6.819688e-002 2.372333e-002 7.168420e-002 2.659770e-002 -3.025660e-002 2.766444e-002 -2.125078e-001
<VARIANCE> 39
 6.247486e+001 4.145918e+001 7.246561e+001 3.377474e+001 7.731927e+001 5.141375e+001 4.661755e+001 3.872430e+001 3.391561e+001 3.302691e+001 2.610391e+001 2.364526e+001 9.607953e+001 6.332649e+000 4.067214e+000 7.679368e+000 3.546104e+000 9.085808e+000 3.514938e+000 5.008026e+000 2.867242e+000 3.900592e+000 2.943382e+000 2.521775e+000 2.128813e+000 1.136017e+001 1.016883e+000 7.939350e-001 9.975570e-001 6.756703e-001 1.441383e+000 6.873516e-001 8.113787e-001 5.974458e-001 6.651942e-001 5.557433e-001 4.770915e-001 4.176890e-001 1.335154e+000
<GCONST> 1.367089e+002
<STATE> 4
<MEAN> 39
 -1.257582e+001 1.189303e+000 2.959543e-001 -4.017560e-001 -3.280039e+000 -4.670146e+000 -4.241694e+000 4.090554e-001 -2.432247e+000 4.650850e-002 -4.683570e-001 -8.928958e-001 5.656612e+001 -1.592993e-001 -8.526887e-002 -2.032205e-001 -5.269359e-002 7.320388e-002 1.687189e-001 8.987861e-002 3.194606e-002 1.033725e-001 2.071707e-002 -4.686975e-002 -1.720929e-002 -2.418027e-001 1.841383e-002 -3.800756e-003 2.880844e-002 -1.358057e-002 -3.241470e-002 -1.868981e-002 -4.110241e-003 -8.025775e-003 -1.738012e-002 -2.120024e-002 -5.683858e-003 -4.403609e-003 6.800623e-002
<VARIANCE> 39
 5.118542e+001 2.279852e+001 3.451782e+001 2.127454e+001 3.692458e+001 5.371600e+001 6.393777e+001 3.841404e+001 2.923196e+001 2.648004e+001 3.337228e+001 3.623120e+001 1.563324e+002 1.885716e+000 1.747301e+000 2.175037e+000 1.951915e+000 2.483268e+000 2.456252e+000 3.676635e+000 2.311501e+000 1.850482e+000 1.961517e+000 1.964913e+000 1.905395e+000 5.334170e+000 2.412004e-001 3.256536e-001 3.427185e-001 3.648037e-001 4.406102e-001 4.116769e-001 5.991248e-001 4.086917e-001 3.364718e-001 3.451348e-001 3.522032e-001 3.285147e-001 7.650036e-001
<GCONST> 1.180932e+002
<TRANSP> 5
 0.000000e+000 1.000000e+000 0.000000e+000 0.000000e+000 0.000000e+000
 0.000000e+000 8.824298e-001 1.175702e-001 0.000000e+000 0.000000e+000
 0.000000e+000 0.000000e+000 9.657398e-001 3.426021e-002 0.000000e+000
 0.000000e+000 0.000000e+000 0.000000e+000 9.822714e-001 1.772861e-002
 0.000000e+000 0.000000e+000 0.000000e+000 0.000000e+000 0.000000e+000
<ENDHMM>
~h "gege"
<BEGINHMM>
<NUMSTATES> 5
<STATE> 2
<MEAN> 39
 -1.779269e+001 5.820192e-001 -2.086256e+000 1.137493e-001 -5.562788e-001 -3.701243e-001 -5.896220e-001 -6.307988e-002 -6.307790e-001 2.183846e-001 -8.946113e-001 7.747255e-002 4.446441e+001 8.155886e-002 -1.212533e-001 -2.997573e-001 -2.518334e-001 3.615462e-001 -1.979824e-001 -3.013611e-001 -1.244043e-001 -1.384059e-001 2.794620e-001 -2.116157e-001 1.285298e-001 5.091166e-001 8.756620e-002 -2.111569e-001 -2.915589e-001 -2.230612e-001 1.398150e-001 -1.132427e-001 -2.072016e-001 2.168797e-002 -2.989569e-002 1.951863e-001 -8.664750e-002 -6.681337e-002 5.158640e-001
<VARIANCE> 39
 5.028498e+000 9.787465e+000 8.920320e+000 1.810680e+001 1.227892e+001 1.557090e+001 1.480978e+001 1.475312e+001 1.846329e+001 1.625650e+001 1.192517e+001 1.116704e+001 1.249998e+001 6.382105e-001 1.580637e+000 1.760714e+000 2.342540e+000 1.886117e+000 1.913146e+000 1.936252e+000 1.894635e+000 2.113283e+000 2.572451e+000 1.622918e+000 1.567807e+000 3.384530e+000 1.076035e-001 3.235043e-001 3.125626e-001 4.840055e-001 3.974125e-001 4.039259e-001 4.362412e-001 3.864414e-001 4.397326e-001 4.820389e-001 3.371046e-001 2.854947e-001 9.110194e-001
<GCONST> 9.943317e+001
<STATE> 3
<MEAN> 39
 -1.329941e+001 -4.751962e+000 -5.328285e+000 -3.009676e+000 2.205191e+000 -8.622790e+000 -1.053141e+001 6.476377e-001 -2.659711e+000 5.890244e+000 -3.483140e+000 -1.071448e+000 6.651658e+001 1.104156e+000 2.730173e-001 1.463385e+000 1.069653e-001 -1.264100e+000 -6.379391e-001 -1.169331e+000 3.156547e-001 -8.373287e-001 -3.589087e-001 2.833051e-001 -4.150317e-001 2.199772e+000 6.922252e-003 2.145625e-001 4.694465e-001 7.744340e-002 -4.625524e-001 1.641639e-001 1.365430e-001 3.742435e-002 -1.560825e-001 -2.482615e-001 2.154682e-001 -4.563907e-002 -3.197427e-001
<VARIANCE> 39
 3.622263e+001 3.289559e+001 9.100911e+001 4.916558e+001 5.782500e+001 4.495373e+001 4.390376e+001 2.141314e+001 3.706526e+001 5.831993e+001 3.125176e+001 3.158828e+001 5.670528e+001 3.934971e+000 4.947865e+000 9.822701e+000 7.100818e+000 7.232125e+000 5.126825e+000 4.150216e+000 2.579250e+000 4.904126e+000 6.753041e+000 3.829273e+000 2.556664e+000 1.080298e+001 9.194410e-001 7.797143e-001 1.225042e+000 1.336183e+000 6.820971e-001 8.122967e-001 7.834960e-001 4.889680e-001 7.583062e-001 9.137291e-001 5.339560e-001 4.192177e-001 1.868309e+000
<GCONST> 1.392169e+002
<STATE> 4
<MEAN> 39
 -1.030210e+001 5.071533e-001 8.102222e+000 -3.658573e+000 -1.197147e+001 -5.753257e+000 -3.619393e+000 1.994165e+000 -7.853577e+000 4.545368e-001 1.491128e+000 -1.981042e+000 6.471603e+001 -1.863811e-001 -3.320762e-003 -1.696992e-001 1.299177e-002 1.473389e-001 1.415704e-001 2.155139e-001 -5.545372e-002 1.376064e-001 -1.729042e-002 -2.173098e-002 6.461382e-002 -4.301901e-001 -1.234954e-002 -3.449637e-003 -2.760798e-002 1.846857e-002 4.751029e-002 8.353245e-004 1.008467e-002 -3.397097e-003 3.415690e-002 8.738597e-003 -1.688517e-002 3.809650e-003 -2.764983e-002
<VARIANCE> 39
 2.841070e+001 2.432884e+001 6.261538e+001 3.680660e+001 7.468679e+001 5.230355e+001 6.990380e+001 5.822535e+001 5.790149e+001 5.087996e+001 4.201790e+001 3.541525e+001 1.793993e+002 1.230785e+000 1.759840e+000 1.847782e+000 1.628141e+000 2.736224e+000 1.981770e+000 2.445017e+000 2.257813e+000 2.620872e+000 2.062543e+000 1.752230e+000 1.526081e+000 3.093643e+000 2.294864e-001 3.158558e-001 2.943680e-001 2.893948e-001 4.365828e-001 3.670438e-001 4.202713e-001 3.538326e-001 4.873031e-001 3.878546e-001 3.001157e-001 2.741892e-001 4.155865e-001
<GCONST> 1.182312e+002
<TRANSP> 5
 0.000000e+000 1.000000e+000 0.000000e+000 0.000000e+000 0.000000e+000
 0.000000e+000 9.009847e-001 9.901530e-002 0.000000e+000 0.000000e+000
 0.000000e+000 0.000000e+000 9.059483e-001 9.405166e-002 0.000000e+000
 0.000000e+000 0.000000e+000 0.000000e+000 9.856668e-001 1.433320e-002
 0.000000e+000 0.000000e+000 0.000000e+000 0.000000e+000 0.000000e+000
<ENDHMM>
~h "dwaesseubnida"
<BEGINHMM>
<NUMSTATES> 5
<STATE> 2
<MEAN> 39
 -1.795544e+001 8.285294e-001 -1.535522e+000 -1.175928e-004 -4.654020e-001 1.877765e-001 -2.359935e-001 2.879118e-001 -8.829187e-001 8.835628e-001 1.409391e-001 9.296898e-001 4.418397e+001 -2.779284e-002 -1.578283e-001 -1.584418e-002 -3.042800e-001 1.143692e-001 -3.947514e-002 -3.661582e-002 8.474125e-002 -1.525138e-001 -1.017377e-001 2.044947e-002 -6.103858e-002 4.208587e-001 -6.352228e-003 -8.386576e-002 9.793120e-003 -2.473257e-001 -5.603950e-002 -1.815883e-001 1.189107e-002 -2.980409e-003 -3.932630e-002 -2.123477e-002 1.014683e-002 9.729739e-002 4.605489e-001
<VARIANCE> 39
 2.869320e+000 4.064372e+000 5.801336e+000 9.513857e+000 1.060974e+001 1.123835e+001 1.683735e+001 1.341144e+001 1.350712e+001 1.471311e+001 1.239030e+001 8.718478e+000 7.202376e+000 2.649806e-001 6.956210e-001 6.762213e-001 1.835081e+000 1.341321e+000 1.218498e+000 1.437536e+000 1.416529e+000 1.437941e+000 1.629607e+000 1.201414e+000 9.586245e-001 2.081892e+000 5.580362e-002 1.390168e-001 1.457002e-001 3.267319e-001 2.179043e-001 2.297188e-001 2.709513e-001 2.603798e-001 2.710122e-001 3.277189e-001 2.435029e-001 2.401055e-001 7.649444e-001
<GCONST> 8.266883e+001
<STATE> 3
<MEAN> 39
 -1.689655e+001 -2.389313e+000 -4.933513e-001 -5.752428e+000 -2.129413e+000 -7.506106e+000 -8.637371e-001 1.547985e+000 -2.143010e+000 6.568668e-001 -3.518899e-001 2.663165e+000 6.292536e+001 1.022179e+000 -1.375165e-001 6.323199e-001 6.028383e-002 -7.577264e-001 -1.159986e+000 -2.859401e-001 5.751921e-001 -2.469182e-001 1.691255e-001 -4.725032e-001 3.080192e-002 2.831118e+000 3.679940e-001 2.060476e-001 1.765207e-001 3.125608e-001 -2.141363e-001 7.183880e-002 -2.325186e-001 8.262692e-002 -5.415980e-002 2.621621e-002 -5.509215e-002 -2.399775e-001 -3.765228e-001
<VARIANCE> 39
 2.555172e+001 2.234632e+001 1.951068e+001 4.611065e+001 2.686597e+001 3.204778e+001 2.567347e+001 2.635671e+001 2.065092e+001 2.596471e+001 2.238439e+001 3.219058e+001 1.251611e+002 4.532691e+000 2.717330e+000 2.883192e+000 7.981563e+000 3.549316e+000 4.276565e+000 3.697391e+000 2.724905e+000 2.894066e+000 3.338944e+000 2.362756e+000 5.262223e+000 1.382751e+001 5.604261e-001 4.857821e-001 4.893152e-001 1.634962e+000 6.611356e-001 7.697356e-001 6.010289e-001 5.411617e-001 4.995723e-001 6.161225e-001 4.630352e-001 8.802592e-001 2.313256e+000
<GCONST> 1.293283e+002
<STATE> 4
<MEAN> 39
 -1.074213e+001 1.004456e+000 -6.237815e-001 -3.896091e+000 -2.590943e+000 -3.515102e+000 -3.265998e+000 3.741367e-001 -2.456298e+000 -1.678192e-001 -3.889553e+000 -2.929330e+000 6.428529e+001 -9.408322e-002 2.881626e-002 -7.618881e-002 3.132760e-002 7.763410e-002 1.238210e-001 2.139260e-002 -6.558739e-002 2.613203e-002 -3.730218e-002 3.784035e-002 -1.511226e-002 -3.292629e-001 -3.499134e-002 -1.029690e-002 -2.092806e-002 -4.177065e-003 2.828710e-002 8.252425e-003 1.932261e-002 -1.172671e-002 8.887453e-003 -3.077831e-003 9.147157e-003 1.084591e-002 -1.673139e-002
<VARIANCE> 39
 8.670922e+001 3.711266e+001 7.471093e+001 4.290528e+001 8.278635e+001 6.003775e+001 3.785033e+001 5.283887e+001 4.907355e+001 2.973812e+001 3.998953e+001 4.516117e+001 1.322623e+002 4.628260e+000 1.941803e+000 2.955962e+000 2.970014e+000 3.836344e+000 2.855598e+000 2.884786e+000 3.173065e+000 2.825989e+000 2.038553e+000 2.478326e+000 2.342541e+000 3.035714e+000 6.454763e-001 3.130504e-001 4.462930e-001 5.135265e-001 6.451433e-001 5.276572e-001 5.406238e-001 5.559396e-001 4.802284e-001 3.889246e-001 4.318319e-001 4.175105e-001 4.699736e-001
<GCONST> 1.277061e+002
<TRANSP> 5
 0.000000e+000 1.000000e+000 0.000000e+000 0.000000e+000 0.000000e+000
 0.000000e+000 8.957448e-001 1.042552e-001 0.000000e+000 0.000000e+000
 0.000000e+000 0.000000e+000 8.778499e-001 1.221500e-001 0.000000e+000
 0.000000e+000 0.000000e+000 0.000000e+000 9.880699e-001 1.193011e-002
 0.000000e+000 0.000000e+000 0.000000e+000 0.000000e+000 0.000000e+000
<ENDHMM>
~h "yadangui"
<BEGINHMM>
<NUMSTATES> 5
<STATE> 2
<MEAN> 39
 -1.851241e+001 1.850451e+000 -1.771956e-001 -1.986507e+000 -1.137077e+000 -8.268303e-001 -5.331181e-001 4.139664e-001 -3.570919e+000 3.983222e-001 -8.431779e-001 -4.336569e-001 4.457500e+001 -4.656281e-002 2.827759e-001 5.902612e-001 -4.149935e-001 -2.204909e-002 -4.850071e-002 -2.183987e-001 2.451415e-001 -4.512363e-001 2.144309e-001 -3.604673e-003 -5.965055e-002 4.832984e-001 1.922711e-001 1.488036e-001 2.308925e-001 3.364517e-004 -7.537398e-002 -2.177919e-002 -8.117452e-002 8.269419e-002 -3.414896e-002 2.849341e-003 -3.186191e-002 2.069161e-002 2.591259e-001
<VARIANCE> 39
 5.984330e+000 5.483034e+000 1.136448e+001 1.793944e+001 2.333054e+001 1.188983e+001 1.593368e+001 2.058935e+001 1.829017e+001 1.518922e+001 1.385592e+001 1.577801e+001 1.326479e+001 5.641632e-001 8.029366e-001 1.304149e+000 2.074341e+000 1.674536e+000 1.414878e+000 1.845289e+000 2.123248e+000 1.445466e+000 1.208492e+000 1.443797e+000 1.599160e+000 5.802896e-001 1.884666e-001 1.268029e-001 1.801239e-001 3.073817e-001 2.652397e-001 3.593594e-001 3.762203e-001 3.917910e-001 2.867537e-001 1.933441e-001 2.741494e-001 3.047220e-001 2.231378e-001
<GCONST> 9.101764e+001
<STATE> 3
<MEAN> 39
 -6.102463e+000 -1.922125e+000 -1.228914e-001 -7.578029e+000 -4.438586e+000 -6.094973e+000 -5.377746e+000 4.829655e+000 -6.026933e-001 2.722752e-001 -6.743604e+000 -4.158957e+000 7.208416e+001 4.822553e-001 -3.189180e-001 -2.562254e-001 -1.605180e-001 -1.052802e-001 -1.466262e-001 -1.471204e-001 1.690248e-001 2.089738e-001 -8.501291e-003 -2.842674e-001 -2.735690e-001 9.867310e-001 -4.446688e-002 -5.347146e-002 -5.736474e-002 -5.144138e-003 3.311830e-002 3.238035e-002 4.514825e-002 -2.203313e-002 -1.289309e-002 -9.920161e-003 4.140059e-003 -9.534681e-003 -9.561530e-002
<VARIANCE> 39
 2.672901e+001 5.208845e+001 6.311175e+001 4.463433e+001 6.275019e+001 5.864591e+001 4.780192e+001 4.412731e+001 4.953227e+001 3.389082e+001 5.233266e+001 4.585250e+001 1.058386e+002 2.993183e+000 4.496818e+000 4.603413e+000 3.334429e+000 4.697289e+000 4.031714e+000 3.918800e+000 3.798786e+000 3.407022e+000 2.926265e+000 3.888715e+000 3.255537e+000 1.153197e+001 5.319579e-001 6.846233e-001 7.828438e-001 6.164250e-001 7.882825e-001 7.669877e-001 7.283413e-001 6.761141e-001 6.549836e-001 5.940168e-001 7.071058e-001 5.928550e-001 1.687896e+000
<GCONST> 1.366103e+002
<STATE> 4
<MEAN> 39
 -8.669274e+000 2.276409e+000 4.666530e+000 -4.878394e+000 -8.167236e+000 -1.869056e+000 -3.349717e+000 -1.454077e-001 -6.076683e+000 1.982447e+000 -1.690748e+000 -4.344831e+000 6.116794e+001 -2.497871e-001 1.253118e-001 3.023339e-002 1.726275e-001 7.118034e-002 1.041212e-001 1.084499e-001 -1.525220e-001 -2.705079e-002 -3.850790e-002 1.839432e-001 1.699976e-001 -6.282449e-001 -3.416496e-003 8.255010e-003 -9.535269e-003 7.627193e-003 4.534461e-003 -5.876008e-003 -9.980042e-003 1.062555e-003 1.520504e-002 -1.138255e-003 2.796878e-003 1.206724e-002 3.889341e-003
<VARIANCE> 39
 3.784592e+001 2.392743e+001 8.065852e+001 3.782546e+001 5.857922e+001 6.356012e+001 5.026777e+001 5.715559e+001 5.389419e+001 3.731041e+001 5.679031e+001 4.419977e+001 1.612825e+002 3.308553e-001 9.716551e-001 2.060911e+000 1.341710e+000 2.257116e+000 1.978849e+000 2.273282e+000 2.438770e+000 2.223482e+000 1.848863e+000 1.846784e+000 1.503084e+000 6.680717e-001 4.582186e-002 1.372852e-001 2.262938e-001 2.248253e-001 3.481435e-001 2.995346e-001 3.692433e-001 3.750122e-001 3.700827e-001 3.264631e-001 3.114944e-001 2.606597e-001 5.199486e-002
<GCONST> 1.084690e+002
<TRANSP> 5
 0.000000e+000 1.000000e+000 0.000000e+000 0.000000e+000 0.000000e+000
 0.000000e+000 8.967013e-001 1.032987e-001 0.000000e+000 0.000000e+000
 0.000000e+000 0.000000e+000 9.669831e-001 3.301688e-002 0.000000e+000
 0.000000e+000 0.000000e+000 0.000000e+000 9.816452e-001 1.835475e-002
 0.000000e+000 0.000000e+000 0.000000e+000 0.000000e+000 0.000000e+000
<ENDHMM>
~h "yokeondae"
<BEGINHMM>
<NUMSTATES> 5
<STATE> 2
<MEAN> 39
 -1.803322e+001 1.504871e+000 -6.043668e-001 -1.168031e+000 -1.912611e+000 -8.248987e-001 -1.080442e+000 -3.831307e-001 -1.713863e+000 -4.946106e-001 -3.560411e-001 3.039017e-001 4.427773e+001 3.102212e-002 9.201740e-002 5.402545e-001 -3.214796e-002 -6.048581e-003 1.874997e-001 -1.218420e-001 8.280077e-002 -3.173885e-001 2.096598e-001 6.075092e-002 -5.752873e-002 2.762089e-001 1.018399e-001 5.951360e-002 2.717152e-001 -2.453475e-003 -1.066108e-001 -7.579568e-003 -4.796323e-002 -1.393675e-002 -6.775250e-002 1.682132e-002 -1.415141e-002 -5.228389e-002 2.462131e-001
<VARIANCE> 39
 4.702085e+000 5.021026e+000 1.277340e+001 1.451674e+001 1.434758e+001 1.748445e+001 1.595797e+001 1.285473e+001 1.400384e+001 1.408784e+001 1.364163e+001 1.367553e+001 8.887608e+000 3.601203e-001 4.678316e-001 1.624847e+000 1.483490e+000 1.540370e+000 1.571202e+000 1.654624e+000 1.489329e+000 1.362019e+000 1.865804e+000 1.550227e+000 1.613098e+000 3.578460e-001 1.220415e-001 1.185206e-001 3.802274e-001 3.237330e-001 3.838691e-001 3.033343e-001 4.305194e-001 3.255710e-001 2.373569e-001 3.175813e-001 2.625994e-001 3.271879e-001 1.917533e-001
<GCONST> 8.817699e+001
<STATE> 3
<MEAN> 39
 -6.823812e+000 2.634996e+000 -8.866705e-001 -6.653528e+000 -4.291509e+000 -2.648864e-001 -7.096681e+000 -1.654878e+000 -7.248394e+000 1.863434e+000 -7.832907e-001 -2.262594e+000 6.384842e+001 3.433700e-001 -4.632179e-002 4.288657e-002 -1.072739e-001 -1.934638e-001 -1.474965e-001 -1.824923e-001 -1.092510e-002 9.490256e-004 3.640584e-002 -9.018826e-002 -8.326102e-002 6.548213e-001 -4.924575e-003 -2.160621e-002 -1.544479e-002 -4.107953e-003 -3.777264e-002 -2.190933e-002 3.488767e-002 1.045281e-002 1.284384e-002 -6.607579e-003 -4.987850e-003 -3.618188e-003 -5.470891e-002
<VARIANCE> 39
 4.451946e+001 3.075298e+001 1.087506e+002 8.232713e+001 6.950103e+001 5.871885e+001 5.769320e+001 6.035593e+001 4.825676e+001 4.349371e+001 5.119359e+001 3.864056e+001 1.136454e+002 4.044766e+000 3.582738e+000 8.171499e+000 7.819430e+000 6.753372e+000 5.929141e+000 5.665673e+000 6.372851e+000 5.475844e+000 4.430846e+000 4.737977e+000 3.380321e+000 1.147987e+001 5.957157e-001 6.406853e-001 1.336388e+000 1.501060e+000 1.175780e+000 1.184685e+000 9.942037e-001 1.260935e+000 1.084342e+000 8.408685e-001 9.503712e-001 6.166177e-001 1.566252e+000
<GCONST> 1.470632e+002
<STATE> 4
<MEAN> 39
 -9.339253e+000 -2.615136e-002 2.678958e+000 -2.501527e+000 -8.133078e+000 -5.345468e+000 -1.133398e+000 2.917085e+000 -3.417160e+000 -3.252685e-001 -2.298158e+000 -1.714572e+000 6.063533e+001 -2.854160e-001 7.276627e-003 -1.500340e-001 1.085740e-001 1.831864e-001 1.060300e-001 1.626621e-001 1.040140e-002 4.886357e-002 -5.675587e-002 7.161976e-002 1.103154e-001 -5.978509e-001 -1.496349e-002 8.208232e-003 -3.804968e-002 -8.198407e-003 3.540935e-002 7.426004e-003 -6.094048e-003 4.311264e-003 -5.701386e-003 1.914034e-003 1.479240e-002 1.790214e-002 -2.059632e-003
<VARIANCE> 39
 3.436979e+001 2.116721e+001 4.681691e+001 3.102096e+001 5.972916e+001 6.196434e+001 5.320002e+001 7.154879e+001 3.815182e+001 3.622033e+001 4.439901e+001 3.966743e+001 1.675186e+002 6.298866e-001 1.127884e+000 1.887993e+000 1.574576e+000 2.293058e+000 2.233565e+000 2.652920e+000 2.594840e+000 1.992371e+000 2.094362e+000 1.798738e+000 1.594614e+000 1.674028e+000 1.191926e-001 1.844646e-001 3.161443e-001 2.581806e-001 3.940623e-001 3.497731e-001 4.430193e-001 3.988642e-001 3.673254e-001 3.893583e-001 3.038294e-001 3.008391e-001 1.781295e-001
<GCONST> 1.130420e+002
<TRANSP> 5
 0.000000e+000 1.000000e+000 0.000000e+000 0.000000e+000 0.000000e+000
 0.000000e+000 8.876870e-001 1.123130e-001 0.000000e+000 0.000000e+000
 0.000000e+000 0.000000e+000 9.749867e-001 2.501331e-002 0.000000e+000
 0.000000e+000 0.000000e+000 0.000000e+000 9.791743e-001 2.082570e-002
 0.000000e+000 0.000000e+000 0.000000e+000 0.000000e+000 0.000000e+000
<ENDHMM>
~h "chungwadae"
<BEGINHMM>
<NUMSTATES> 5
<STATE> 2
<MEAN> 39
 -1.852139e+001 1.411116e+000 -1.486198e+000 -1.445446e+000 3.108915e-001 -7.693782e-001 -3.595219e-001 4.314615e-001 -1.241450e+000 5.492353e-001 2.786671e-001 1.592189e+000 4.502293e+001 -2.674561e-001 -1.334537e-001 1.020968e-001 -5.144246e-001 7.338277e-002 -2.223178e-001 -1.033377e-001 1.148014e-001 -1.461624e-001 1.683243e-001 7.007725e-002 -9.602238e-002 8.568049e-001 -1.472106e-001 -9.983725e-002 -2.643749e-002 -2.248949e-001 2.507710e-002 -2.146091e-002 -1.153293e-001 3.732936e-002 -2.335664e-003 -2.083206e-003 1.370736e-002 -2.990658e-002 4.913662e-001
<VARIANCE> 39
 7.889045e+000 1.276031e+001 1.013255e+001 2.129701e+001 2.036897e+001 2.271154e+001 2.630054e+001 2.123794e+001 1.845918e+001 1.809344e+001 1.457601e+001 1.517494e+001 3.214205e+001 1.097446e+000 1.873119e+000 1.369682e+000 2.785494e+000 2.258798e+000 2.045751e+000 3.219570e+000 1.992183e+000 1.924922e+000 1.791289e+000 1.157478e+000 1.363822e+000 4.092996e+000 2.318016e-001 2.953119e-001 2.651998e-001 4.746267e-001 4.004554e-001 3.837829e-001 5.706454e-001 4.052400e-001 3.726189e-001 3.219215e-001 2.141650e-001 2.715360e-001 7.045520e-001
<GCONST> 1.039515e+002
<STATE> 3
<MEAN> 39
 -1.423538e+001 -2.064298e+000 -3.558252e+000 -1.144021e+001 4.049924e-001 -2.940328e-001 -4.524202e+000 1.661486e+000 -1.363618e+000 2.566306e-001 -2.997180e+000 -4.838403e-001 6.949641e+001 1.178236e+000 -3.335287e-002 -1.345512e-001 -3.804923e-001 -5.527724e-001 3.771889e-001 6.386581e-002 -1.619046e-001 -3.035580e-001 -1.892763e-001 -3.931344e-001 -2.007496e-001 1.107856e+000 1.378875e-001 6.614829e-002 7.395497e-002 1.150517e-001 -1.863825e-001 1.964571e-002 9.868842e-002 1.504089e-002 6.368560e-003 -4.336445e-002 -6.899117e-002 -1.313993e-002 -2.831342e-001
<VARIANCE> 39
 1.179465e+002 3.645865e+001 2.463297e+001 4.930598e+001 4.456627e+001 5.773070e+001 3.393298e+001 3.952090e+001 4.311338e+001 2.962030e+001 3.883902e+001 2.852420e+001 6.900322e+001 7.066567e+000 4.445202e+000 2.893761e+000 5.482735e+000 6.058638e+000 5.774397e+000 4.019217e+000 5.054432e+000 5.481007e+000 3.550621e+000 4.108878e+000 3.116950e+000 8.921644e+000 1.039063e+000 9.081855e-001 5.630476e-001 9.935015e-001 9.648032e-001 1.081392e+000 7.851323e-001 9.800638e-001 1.107150e+000 7.455870e-001 8.259950e-001 6.233271e-001 1.191073e+000
<GCONST> 1.395416e+002
<STATE> 4
<MEAN> 39
 -7.788632e+000 -1.233273e+000 -4.500998e-001 -5.658889e+000 -6.774539e+000 -3.367054e+000 -2.625456e+000 2.980554e+000 -2.477574e+000 -3.925399e-001 -3.374542e+000 -2.779006e+000 6.533207e+001 -2.786172e-001 2.513231e-002 2.623499e-002 1.965364e-001 1.281289e-001 -8.390953e-002 4.992850e-003 1.913863e-002 9.869707e-002 4.316379e-002 1.008165e-001 5.981381e-002 -4.419917e-001 -1.633454e-002 -1.878019e-003 -2.045512e-002 6.228422e-003 4.986198e-002 4.083035e-003 -7.535090e-003 -1.468111e-002 5.782919e-003 8.949369e-003 2.346671e-002 8.102749e-003 -3.751983e-003
<VARIANCE> 39
 4.497742e+001 2.239100e+001 4.693097e+001 5.218635e+001 6.851170e+001 8.255484e+001 5.273740e+001 5.541430e+001 3.929983e+001 3.629027e+001 4.804428e+001 5.083718e+001 1.855098e+002 1.049814e+000 1.709318e+000 1.920067e+000 2.036340e+000 3.306778e+000 3.113079e+000 3.048094e+000 2.872709e+000 2.023771e+000 1.971129e+000 2.525481e+000 2.330599e+000 3.817828e+000 2.182104e-001 2.743998e-001 2.938214e-001 3.398131e-001 5.376027e-001 5.224108e-001 5.395198e-001 4.959183e-001 3.849154e-001 3.392181e-001 4.399205e-001 4.148388e-001 6.018103e-001
<GCONST> 1.222955e+002
<TRANSP> 5
 0.000000e+000 1.000000e+000 0.000000e+000 0.000000e+000 0.000000e+000
 0.000000e+000 9.012673e-001 9.873269e-002 0.000000e+000 0.000000e+000
 0.000000e+000 0.000000e+000 9.411562e-001 5.884377e-002 0.000000e+000
 0.000000e+000 0.000000e+000 0.000000e+000 9.843450e-001 1.565496e-002
 0.000000e+000 0.000000e+000 0.000000e+000 0.000000e+000 0.000000e+000
<ENDHMM>
~h "computer"
<BEGINHMM>
<NUMSTATES> 5
<STATE> 2
<MEAN> 39
 -1.802705e+001 7.866082e-001 -1.803926e+000 3.007702e-001 -1.195737e-001 1.263902e-001 -1.692057e-001 -8.347175e-001 -8.585045e-001 5.457142e-001 -5.617756e-001 3.409808e-002 4.425056e+001 2.924671e-003 1.633475e-002 6.979140e-004 -9.376369e-002 3.760476e-002 8.813204e-002 -9.252699e-002 -2.371201e-001 6.033221e-003 1.792866e-001 7.978950e-002 1.245839e-001 9.818470e-002 3.384619e-002 4.980132e-003 -1.800460e-001 -1.869247e-001 1.258716e-001 -5.772823e-002 -1.293319e-001 -1.221424e-002 -9.423597e-002 9.060545e-002 -3.521939e-002 -5.858959e-002 2.872273e-001
<VARIANCE> 39
 3.485689e+000 5.712687e+000 7.373739e+000 7.576246e+000 1.356014e+001 1.570038e+001 1.234424e+001 1.329481e+001 1.609500e+001 1.613041e+001 1.373724e+001 1.065982e+001 8.300440e+000 2.197034e-001 4.879980e-001 6.001288e-001 7.434070e-001 1.341962e+000 1.413790e+000 1.626133e+000 1.303459e+000 1.938873e+000 1.557234e+000 1.799745e+000 1.556369e+000 3.446505e-001 8.221409e-002 1.285968e-001 2.978896e-001 2.851328e-001 3.283169e-001 2.808962e-001 2.953513e-001 2.683239e-001 3.631627e-001 3.276577e-001 3.330665e-001 2.566893e-001 4.207658e-001
<GCONST> 8.384868e+001
<STATE> 3
<MEAN> 39
