~o
<STREAMINFO> 1 39
<VECSIZE> 39<NULLD><MFCC_D_A_0><DIAGC>
~h "dangnyobyung"
<BEGINHMM>
<NUMSTATES> 5
<STATE> 2
<MEAN> 39
 -1.802503e+001 1.054101e+000 -1.732264e+000 3.441061e-002 -7.821084e-001 -4.468221e-001 -4.844926e-001 -3.608248e-001 -1.314444e+000 2.920291e-001 -3.980622e-001 5.106537e-001 4.373354e+001 -8.096367e-002 -2.821994e-001 -1.948057e-001 -2.699409e-001 -1.627415e-002 -1.450192e-001 2.639227e-001 1.785348e-001 -6.266519e-002 -1.183415e-001 -1.219826e-001 -5.410231e-002 9.207783e-001 -2.033118e-002 -1.208090e-001 -9.737720e-002 -1.420339e-001 5.167141e-002 -1.333537e-001 -2.680509e-002 5.880803e-003 1.487495e-001 1.113085e-001 4.486420e-002 9.085803e-002 5.326263e-001
<VARIANCE> 39
 3.259599e+000 4.459143e+000 6.459064e+000 9.806061e+000 9.917898e+000 1.573053e+001 1.137080e+001 1.416762e+001 1.479634e+001 1.669599e+001 1.221802e+001 1.244767e+001 8.280367e+000 6.854771e-001 7.683842e-001 1.100288e+000 1.607784e+000 1.023545e+000 1.910074e+000 1.261156e+000 1.727872e+000 2.084579e+000 2.329289e+000 1.730109e+000 1.554973e+000 4.601965e+000 1.135553e-001 1.386688e-001 2.046732e-001 2.312532e-001 1.736715e-001 3.479023e-001 2.293514e-001 3.237562e-001 3.880166e-001 4.256760e-001 3.112956e-001 2.835451e-001 8.062708e-001
<GCONST> 8.970508e+001
<STATE> 3
<MEAN> 39
 -1.330526e+001 -4.717022e+000 -6.274189e+000 -5.431905e+000 3.049047e+000 -2.686251e+000 5.734265e-001 1.653347e+000 3.844051e-001 1.405368e+000 -3.777214e+000 -2.059865e+000 6.718751e+001 1.499421e+000 -5.638779e-002 6.816541e-002 -4.851708e-001 1.449013e-001 -1.917494e-002 -4.558125e-001 -6.332462e-002 -4.266417e-001 3.851649e-001 -5.664738e-001 -7.064595e-001 1.754887e+000 9.589159e-002 1.854948e-001 3.060472e-001 1.285537e-001 -3.031819e-001 1.081932e-001 -9.917953e-002 -1.813883e-001 -1.970720e-001 6.620283e-002 -5.412066e-002 -1.451578e-002 -5.358520e-001
<VARIANCE> 39
 6.073756e+001 2.379656e+001 1.943274e+001 3.709175e+001 3.768807e+001 4.877583e+001 3.810435e+001 3.830263e+001 4.227883e+001 2.146456e+001 4.372977e+001 5.364447e+001 7.316453e+001 3.120464e+000 3.364410e+000 3.472356e+000 3.962775e+000 5.174851e+000 5.135910e+000 3.830385e+000 4.336601e+000 4.951433e+000 3.096914e+000 4.706664e+000 4.389505e+000 9.576015e+000 6.974558e-001 6.177970e-001 5.829501e-001 9.192304e-001 1.020132e+000 1.006517e+000 6.813070e-001 8.930856e-001 8.222578e-001 6.533362e-001 1.033669e+000 9.200795e-001 1.328969e+000
<GCONST> 1.359573e+002
<STATE> 4
<MEAN> 39
 -7.287794e+000 4.753608e-001 7.527288e-001 -3.542840e+000 -5.510126e+000 -7.050267e-001 -4.397227e+000 -1.029299e+000 -4.137404e+000 -5.825880e-002 -2.597068e+000 -2.253269e+000 6.042902e+001 -1.987587e-001 3.772141e-002 -1.005379e-003 1.028709e-001 -2.303851e-002 3.198693e-002 3.955320e-002 -5.088807e-003 5.435600e-002 -4.938705e-002 9.528413e-002 8.458653e-002 -3.584751e-001 -9.429458e-003 -1.044812e-002 -2.850854e-002 2.405702e-003 3.986009e-002 -2.060571e-004 5.644794e-003 1.753610e-002 2.051238e-002 -9.926994e-003 7.983706e-003 -7.253025e-003 3.348949e-003
<VARIANCE> 39
 5.136581e+001 2.452083e+001 4.765426e+001 4.197718e+001 5.441782e+001 5.921673e+001 4.992231e+001 4.608852e+001 3.668794e+001 4.075741e+001 4.964448e+001 4.323947e+001 1.582690e+002 1.774366e+000 1.695784e+000 3.376383e+000 2.770852e+000 3.962967e+000 3.419257e+000 2.995486e+000 3.460581e+000 2.942306e+000 2.955187e+000 3.235951e+000 2.618477e+000 4.612698e+000 2.573722e-001 2.847892e-001 5.229422e-001 4.848981e-001 6.270545e-001 5.812475e-001 5.237868e-001 6.053776e-001 5.700850e-001 5.711181e-001 6.175716e-001 4.715649e-001 4.788705e-001
<GCONST> 1.271574e+002
<TRANSP> 5
 0.000000e+000 1.000000e+000 0.000000e+000 0.000000e+000 0.000000e+000
 0.000000e+000 9.009399e-001 9.906009e-002 0.000000e+000 0.000000e+000
 0.000000e+000 0.000000e+000 9.098731e-001 9.012692e-002 0.000000e+000
 0.000000e+000 0.000000e+000 0.000000e+000 9.873753e-001 1.262472e-002
 0.000000e+000 0.000000e+000 0.000000e+000 0.000000e+000 0.000000e+000
<ENDHMM>
~h "nuwoseo"
<BEGINHMM>
<NUMSTATES> 5
<STATE> 2
<MEAN> 39
 -1.767583e+001 1.701386e+000 -2.619440e-001 7.206107e-001 -1.342677e+000 -5.260737e-001 -1.603485e+000 -1.904748e+000 -2.266949e+000 2.762312e-001 -9.467115e-001 -3.109744e-001 4.422822e+001 2.064433e-003 1.510359e-001 3.909528e-001 3.155972e-001 -6.610376e-002 1.405109e-001 3.279204e-002 -1.666200e-001 -3.598947e-002 -1.250111e-001 -1.850665e-001 -3.123989e-001 1.735405e-001 1.281730e-001 1.274705e-001 1.321711e-001 4.196587e-002 3.130357e-002 8.517031e-002 1.247799e-002 5.026774e-002 4.632785e-002 -2.870507e-002 -2.248538e-002 -3.137257e-002 1.310060e-001
<VARIANCE> 39
 3.828234e+000 4.397701e+000 6.998161e+000 9.038872e+000 1.425946e+001 1.117558e+001 1.482889e+001 1.495860e+001 1.361163e+001 1.474226e+001 1.788546e+001 1.137162e+001 8.035364e+000 6.430550e-001 7.795304e-001 6.801028e-001 1.224074e+000 1.226735e+000 1.320478e+000 1.812132e+000 1.678423e+000 1.664824e+000 1.477347e+000 1.943572e+000 1.457643e+000 1.761802e-001 1.537295e-001 1.608466e-001 1.426176e-001 2.363195e-001 2.422992e-001 2.217364e-001 3.529200e-001 2.410757e-001 3.103743e-001 3.077578e-001 3.964958e-001 2.666809e-001 7.056960e-002
<GCONST> 8.302296e+001
<STATE> 3
<MEAN> 39
 -1.015833e+001 4.859558e+000 4.939123e+000 -1.486142e+000 -1.926822e+000 -1.600600e+000 -6.129285e+000 -5.111177e+000 -4.334296e+000 -2.535352e-001 -1.168108e+000 -3.549062e+000 5.863042e+001 1.342458e+000 3.748631e-001 -1.053004e-001 -9.886166e-001 -1.840415e-001 1.376990e-001 -8.556166e-001 -9.022003e-001 -9.602332e-001 -1.440226e-001 7.505608e-001 -1.628077e-001 2.213668e+000 6.620431e-002 -8.714055e-003 -2.131287e-001 -2.033644e-001 -1.865382e-001 1.314377e-001 1.304926e-001 4.817138e-003 -1.686019e-001 -1.517394e-001 6.552261e-002 1.120188e-001 -1.175867e-001
<VARIANCE> 39
 5.357078e+001 3.973839e+001 2.834926e+001 4.751229e+001 3.635239e+001 4.834670e+001 5.453012e+001 4.962668e+001 4.024033e+001 2.574756e+001 3.823666e+001 2.751985e+001 1.207863e+002 4.790640e+000 4.440259e+000 4.418063e+000 4.945050e+000 5.301287e+000 6.038348e+000 6.104263e+000 4.655020e+000 3.786333e+000 3.914595e+000 4.672531e+000 2.859648e+000 6.915284e+000 9.751956e-001 8.404761e-001 6.981249e-001 9.619041e-001 1.086823e+000 1.143436e+000 1.328996e+000 1.098518e+000 6.569363e-001 8.286856e-001 9.113622e-001 5.262085e-001 1.448227e+000
<GCONST> 1.398197e+002
<STATE> 4
<MEAN> 39
 -7.455152e+000 2.252856e+000 -4.162787e+000 -1.146599e+001 -2.928360e+000 4.609429e+000 -3.771071e+000 -2.071824e+000 -4.285183e+000 2.174988e-001 1.397426e+000 -2.886631e+000 6.425606e+001 -2.121542e-001 -7.608581e-002 -2.965288e-002 1.322750e-001 4.366598e-002 -2.718229e-002 1.335095e-001 1.501944e-001 1.619211e-001 2.812285e-002 -8.589624e-002 5.982517e-002 -3.619668e-001 -1.805226e-002 -1.086003e-002 1.520710e-002 2.327880e-002 2.435123e-002 -2.544064e-002 -1.427963e-002 -1.138547e-003 2.479461e-002 2.699637e-002 -4.546683e-003 -1.054209e-002 3.170471e-003
<VARIANCE> 39
 9.911512e+001 2.726729e+001 2.253460e+001 8.724326e+001 6.206015e+001 6.612704e+001 6.037748e+001 3.979012e+001 5.252039e+001 5.207269e+001 5.899175e+001 4.072495e+001 1.450891e+002 4.173795e+000 1.295949e+000 1.335207e+000 3.118667e+000 2.595842e+000 3.199889e+000 3.326916e+000 2.307337e+000 2.272082e+000 2.589699e+000 2.683322e+000 2.045562e+000 9.771001e-001 4.858148e-001 2.151681e-001 2.266790e-001 3.812898e-001 3.572037e-001 4.492857e-001 5.565863e-001 4.046435e-001 3.807829e-001 3.989802e-001 4.685321e-001 3.399630e-001 9.500118e-002
<GCONST> 1.205616e+002
<TRANSP> 5
 0.000000e+000 1.000000e+000 0.000000e+000 0.000000e+000 0.000000e+000
 0.000000e+000 8.721691e-001 1.278309e-001 0.000000e+000 0.000000e+000
 0.000000e+000 0.000000e+000 9.098873e-001 9.011270e-002 0.000000e+000
 0.000000e+000 0.000000e+000 0.000000e+000 9.864554e-001 1.354464e-002
 0.000000e+000 0.000000e+000 0.000000e+000 0.000000e+000 0.000000e+000
<ENDHMM>
~h "teukyereul"
<BEGINHMM>
<NUMSTATES> 5
<STATE> 2
<MEAN> 39
 -1.831421e+001 7.433032e-001 -1.503761e+000 8.976978e-001 -7.753153e-003 6.073075e-001 -1.464411e-001 -3.862938e-001 -1.365301e+000 -4.990975e-001 -1.800071e-001 4.031327e-001 4.363452e+001 6.800775e-002 -2.452115e-002 -9.591971e-002 -3.374159e-001 -1.041698e-001 -2.514901e-001 -4.719439e-002 -2.926922e-002 -4.834561e-002 -1.981958e-001 -1.257146e-002 1.665655e-001 7.422445e-001 -9.325217e-003 -1.379920e-001 -7.046434e-002 -1.407134e-001 -2.526270e-002 -1.629248e-001 1.237979e-002 3.105073e-002 2.928852e-002 6.997965e-002 3.643208e-002 4.782370e-002 5.850156e-001
<VARIANCE> 39
 2.606631e+000 5.815669e+000 6.487160e+000 7.738796e+000 9.901850e+000 1.074941e+001 1.104230e+001 1.382561e+001 1.253574e+001 1.280584e+001 1.338559e+001 1.040008e+001 9.594650e+000 2.918504e-001 9.824049e-001 8.427911e-001 1.621820e+000 1.327812e+000 1.090044e+000 1.527796e+000 1.668684e+000 1.274529e+000 1.450978e+000 1.559422e+000 1.601988e+000 5.159750e+000 4.027915e-002 1.094988e-001 1.302872e-001 2.393646e-001 2.432756e-001 2.421205e-001 3.062383e-001 3.391505e-001 2.272342e-001 2.945331e-001 2.904576e-001 2.757916e-001 8.759350e-001
<GCONST> 8.447439e+001
<STATE> 3
<MEAN> 39
 -1.387455e+001 -1.338288e+000 4.168049e+000 -3.331378e+000 -6.873932e+000 -6.694413e+000 -3.198088e+000 -4.911429e-002 -3.146540e+000 1.850099e+000 -7.713402e-001 5.886105e-001 6.507036e+001 3.603992e-001 -1.187443e-001 2.748695e-001 -9.910418e-003 -3.981549e-001 -1.837449e-001 -2.276730e-001 2.777511e-002 2.593092e-002 3.537974e-002 -1.032282e-002 -1.028323e-001 5.998691e-001 2.939508e-002 1.170667e-002 3.924401e-003 4.647777e-002 -1.306672e-002 2.885253e-002 -2.287883e-002 1.008366e-002 5.472697e-003 -2.529952e-003 3.411915e-003 -4.209185e-002 -1.377592e-001
<VARIANCE> 39
 5.916984e+001 3.000012e+001 4.365888e+001 3.941986e+001 6.252471e+001 4.975518e+001 4.956123e+001 4.398026e+001 4.412872e+001 3.342886e+001 3.195521e+001 3.074489e+001 1.602288e+002 4.042163e+000 3.240336e+000 2.900089e+000 4.066451e+000 3.732883e+000 4.452930e+000 4.146705e+000 4.306849e+000 4.135531e+000 3.547860e+000 2.925100e+000 3.021513e+000 1.564437e+001 6.887796e-001 6.304687e-001 5.738114e-001 8.019302e-001 7.008414e-001 7.371942e-001 7.879979e-001 7.962548e-001 8.027188e-001 6.829013e-001 5.693793e-001 5.944744e-001 2.471368e+000
<GCONST> 1.364342e+002
<STATE> 4
<MEAN> 39
 -8.138364e+000 -2.405986e+000 2.993327e+000 5.924997e-001 -8.547022e+000 -5.829127e+000 -4.834461e+000 8.270397e-001 7.871292e-001 -1.167235e+000 -2.749245e+000 1.141251e-001 5.992490e+001 -3.064924e-001 1.185582e-001 -2.040263e-001 6.578708e-002 3.119689e-001 1.435501e-001 1.843563e-001 -1.687627e-002 -1.464103e-002 1.533302e-002 8.984549e-003 6.685147e-002 -6.671066e-001 -2.685296e-002 9.459997e-003 1.257063e-002 1.444098e-003 2.259516e-002 3.145565e-003 2.032990e-002 -1.566643e-002 -1.160961e-002 7.531538e-003 -2.559121e-003 1.210108e-002 -6.872428e-003
<VARIANCE> 39
 5.492661e+001 2.446959e+001 3.633140e+001 3.034412e+001 5.869756e+001 4.358080e+001 5.852020e+001 4.135123e+001 3.376075e+001 2.898820e+001 3.841247e+001 2.335863e+001 1.711374e+002 8.507660e-001 1.107231e+000 1.337187e+000 1.870326e+000 1.706061e+000 1.635596e+000 2.589545e+000 2.135566e+000 1.914087e+000 2.020658e+000 1.629192e+000 1.534574e+000 8.937991e-001 1.304961e-001 2.018219e-001 2.138672e-001 3.147950e-001 3.180245e-001 2.960931e-001 4.385839e-001 3.660522e-001 3.345596e-001 3.834453e-001 2.760659e-001 2.742495e-001 1.056987e-001
<GCONST> 1.086941e+002
<TRANSP> 5
 0.000000e+000 1.000000e+000 0.000000e+000 0.000000e+000 0.000000e+000
 0.000000e+000 8.943632e-001 1.056369e-001 0.000000e+000 0.000000e+000
 0.000000e+000 0.000000e+000 9.733238e-001 2.667619e-002 0.000000e+000
 0.000000e+000 0.000000e+000 0.000000e+000 9.777763e-001 2.222371e-002
 0.000000e+000 0.000000e+000 0.000000e+000 0.000000e+000 0.000000e+000
<ENDHMM>
~h "uiyogeul"
<BEGINHMM>
<NUMSTATES> 5
<STATE> 2
<MEAN> 39
 -1.777416e+001 1.414975e+000 -2.322389e+000 -6.515140e-001 1.062261e-001 2.074959e-001 -1.625621e+000 2.091756e-001 -1.236449e+000 5.709220e-001 -6.805348e-002 -3.644686e-001 4.428942e+001 1.554334e-001 1.971409e-001 -7.260948e-004 -1.457922e-001 1.731416e-001 -5.856618e-002 -3.349306e-001 -1.512109e-001 -3.986854e-001 3.297091e-001 3.961987e-002 -3.503355e-001 2.838132e-001 1.815579e-001 8.489705e-002 5.770962e-002 -3.049671e-002 -8.824961e-003 2.139107e-002 -1.534741e-001 -2.699097e-002 -1.233432e-001 9.123627e-002 1.746946e-002 -9.311317e-002 2.299076e-001
<VARIANCE> 39
 4.128131e+000 3.473224e+000 9.293003e+000 1.288610e+001 1.218606e+001 1.250539e+001 1.617361e+001 1.617974e+001 1.684480e+001 1.835080e+001 1.499973e+001 1.367718e+001 8.749166e+000 5.816621e-001 4.916145e-001 1.222761e+000 1.484385e+000 1.515897e+000 1.245700e+000 1.632938e+000 2.071142e+000 1.699688e+000 1.649795e+000 1.499368e+000 1.473125e+000 4.912530e-001 1.961887e-001 1.318759e-001 1.836859e-001 2.138282e-001 3.036516e-001 1.975823e-001 3.292550e-001 3.673080e-001 2.737443e-001 2.781698e-001 2.733151e-001 3.061997e-001 1.548581e-001
<GCONST> 8.651804e+001
<STATE> 3
<MEAN> 39
 -6.940743e+000 4.057233e+000 6.594474e-001 -3.161293e+000 -2.665245e+000 -1.481308e+000 -1.290099e+001 -3.071111e+000 -6.695617e+000 4.095732e+000 2.428945e+000 -6.456710e+000 5.912973e+001 1.575670e+000 -1.501986e-001 1.124907e+000 3.937455e-002 -1.291467e+000 -6.994789e-001 -1.758997e+000 -3.538559e-002 -7.792980e-001 -2.115598e-001 4.399364e-001 -8.534092e-001 3.032873e+000 -2.934054e-001 -1.674072e-001 2.762025e-001 1.157667e-001 -3.037144e-001 -9.577790e-002 3.122677e-001 1.293448e-001 -1.114745e-001 -3.025786e-001 3.016816e-002 1.627742e-001 -5.054338e-002
<VARIANCE> 39
 5.881835e+001 2.835581e+001 3.470569e+001 4.365877e+001 4.929356e+001 4.615720e+001 7.579029e+001 8.219485e+001 5.194757e+001 3.933459e+001 4.950091e+001 4.010501e+001 1.094185e+002 5.064598e+000 3.301517e+000 2.685550e+000 4.617043e+000 3.922971e+000 3.418918e+000 5.148812e+000 6.556568e+000 4.166503e+000 3.671552e+000 2.821721e+000 3.444011e+000 3.817365e+000 9.047573e-001 5.475709e-001 5.189632e-001 8.442698e-001 7.948400e-001 6.130648e-001 1.209203e+000 1.183483e+000 6.773139e-001 4.659653e-001 4.438852e-001 6.264945e-001 9.165576e-001
<GCONST> 1.361804e+002
<STATE> 4
<MEAN> 39
 -6.218077e+000 1.335250e+000 4.261014e+000 -2.374969e+000 -8.657788e+000 -2.822814e+000 -9.317119e+000 -1.405848e+000 -6.181275e+000 -2.340439e-001 6.087377e-001 -2.577421e+000 6.301495e+001 -1.897703e-001 8.553650e-003 -1.149476e-001 1.982388e-002 1.111153e-001 7.314269e-002 2.304694e-001 -8.443540e-003 1.043391e-001 -1.364463e-002 -5.331451e-002 1.235667e-001 -3.786079e-001 1.088952e-002 6.441050e-003 -3.458196e-002 -1.449219e-002 3.299270e-002 9.672450e-003 -1.699800e-002 -7.546895e-003 1.822291e-002 2.464915e-002 -4.211515e-003 -1.139016e-002 -2.046229e-002
<VARIANCE> 39
 4.458685e+001 3.599006e+001 8.302244e+001 5.990265e+001 6.832352e+001 5.272438e+001 8.571114e+001 4.884279e+001 1.033250e+002 5.026426e+001 6.199824e+001 4.171612e+001 1.412888e+002 9.332520e-001 1.599862e+000 3.229925e+000 2.745239e+000 3.064184e+000 2.551330e+000 3.733073e+000 2.583986e+000 3.640432e+000 2.705180e+000 2.826909e+000 2.232151e+000 2.162639e+000 1.174208e-001 2.191254e-001 3.814881e-001 4.443828e-001 4.519297e-001 4.270843e-001 5.621048e-001 4.872116e-001 5.884717e-001 4.382876e-001 4.826601e-001 4.039325e-001 2.506924e-001
<GCONST> 1.245209e+002
<TRANSP> 5
 0.000000e+000 1.000000e+000 0.000000e+000 0.000000e+000 0.000000e+000
 0.000000e+000 8.795054e-001 1.204946e-001 0.000000e+000 0.000000e+000
 0.000000e+000 0.000000e+000 8.820642e-001 1.179359e-001 0.000000e+000
 0.000000e+000 0.000000e+000 0.000000e+000 9.867850e-001 1.321498e-002
 0.000000e+000 0.000000e+000 0.000000e+000 0.000000e+000 0.000000e+000
<ENDHMM>
~h "software"
<BEGINHMM>
<NUMSTATES> 5
<STATE> 2
<MEAN> 39
 -1.817550e+001 2.473271e-001 -2.629929e+000 -5.580279e-001 -1.175658e+000 -1.750605e+000 -9.958965e-001 7.292399e-001 5.461878e-001 -1.551248e-001 -1.024168e+000 3.052141e-001 4.634837e+001 -9.161423e-002 -2.490428e-001 -7.221299e-002 -3.618014e-001 3.518989e-001 -2.048053e-001 -2.156671e-001 2.930852e-002 -7.293286e-002 8.400909e-002 -1.134406e-001 -1.497718e-001 5.312737e-001 -4.670211e-002 7.080560e-004 3.693973e-002 -2.006514e-001 4.552429e-002 -1.307761e-001 -4.793645e-002 7.385992e-002 -2.724888e-002 2.517509e-002 5.527516e-002 -2.475102e-002 2.172687e-001
<VARIANCE> 39
 1.237672e+001 1.010820e+001 8.900385e+000 9.614611e+000 1.112604e+001 1.689551e+001 1.529808e+001 1.547799e+001 1.674140e+001 1.462617e+001 1.295417e+001 1.086456e+001 3.695435e+001 6.656178e-001 7.797869e-001 6.111737e-001 1.426018e+000 1.395845e+000 1.415301e+000 1.822396e+000 1.540339e+000 1.646993e+000 1.657148e+000 1.037783e+000 1.161608e+000 1.174498e+000 2.055053e-001 1.272986e-001 1.118659e-001 2.778820e-001 2.355088e-001 2.375883e-001 3.418783e-001 2.418986e-001 3.145541e-001 3.101673e-001 1.852609e-001 1.864073e-001 2.166859e-001
<GCONST> 8.827541e+001
<STATE> 3
<MEAN> 39
 -1.437160e+001 1.580651e+000 -8.505884e-001 -6.289189e+000 -4.867541e-001 -3.127628e+000 -6.386724e+000 -5.953829e-001 -2.302605e+000 1.192840e+000 1.528083e-001 -5.171542e-001 6.166175e+001 3.493969e-001 3.475260e-002 1.435493e-001 -5.490148e-002 -1.697216e-001 6.404862e-003 -3.334939e-001 -6.696647e-002 -1.497604e-001 5.135759e-002 7.360279e-002 -1.017952e-001 4.749775e-001 2.911110e-002 -3.952161e-003 -6.379366e-003 2.768768e-002 -2.993356e-002 1.797666e-002 -3.876043e-003 -1.264077e-002 1.562077e-003 -3.765705e-003 1.100407e-002 4.268525e-004 -3.852487e-002
<VARIANCE> 39
 1.032520e+002 3.286818e+001 2.430587e+001 5.125673e+001 4.781400e+001 5.415973e+001 5.802850e+001 4.619670e+001 3.690203e+001 2.725587e+001 3.256105e+001 2.801569e+001 1.266578e+002 8.303397e+000 4.114245e+000 2.305491e+000 5.432052e+000 4.160577e+000 5.077693e+000 6.001045e+000 3.761881e+000 3.607254e+000 3.132830e+000 3.359015e+000 3.214514e+000 1.376466e+001 1.120405e+000 7.767183e-001 4.329575e-001 1.092999e+000 7.361780e-001 9.626313e-001 1.036628e+000 6.323429e-001 6.957327e-001 6.360823e-001 6.446200e-001 6.226167e-001 2.351029e+000
<GCONST> 1.383837e+002
<STATE> 4
<MEAN> 39
 -6.065793e+000 -1.422322e+000 -1.971884e+000 -7.118443e+000 -3.847342e+000 2.898608e-001 -5.896657e+000 1.841119e+000 -3.685948e+000 1.775242e+000 1.322798e+000 -3.788586e+000 6.238414e+001 -2.986865e-001 1.326814e-002 -1.061132e-001 1.122973e-001 1.240149e-001 5.492561e-002 3.269351e-001 1.942085e-002 9.628508e-002 -8.146958e-002 -5.417422e-002 1.175429e-001 -5.015805e-001 -1.285955e-002 8.857882e-003 6.466000e-004 1.140588e-002 6.336789e-003 4.544672e-003 1.825947e-002 1.394827e-002 1.474260e-002 1.002908e-003 -1.588528e-002 3.408284e-003 -2.221528e-003
<VARIANCE> 39
 5.451321e+001 1.999178e+001 5.116088e+001 6.301315e+001 5.759889e+001 1.014134e+002 8.303427e+001 5.897805e+001 4.573177e+001 4.813943e+001 5.547094e+001 4.804213e+001 1.720139e+002 5.487291e-001 8.190979e-001 1.353073e+000 1.849054e+000 1.788749e+000 2.424209e+000 2.314013e+000 2.358485e+000 2.045944e+000 1.669332e+000 1.783371e+000 1.554837e+000 7.576965e-001 5.232655e-002 1.289605e-001 1.772796e-001 2.597766e-001 2.628196e-001 2.927391e-001 3.782862e-001 3.603149e-001 3.367908e-001 2.723118e-001 3.093372e-001 2.479412e-001 4.544760e-002
<GCONST> 1.092206e+002
<TRANSP> 5
 0.000000e+000 1.000000e+000 0.000000e+000 0.000000e+000 0.000000e+000
 0.000000e+000 8.899903e-001 1.100097e-001 0.000000e+000 0.000000e+000
 0.000000e+000 0.000000e+000 9.792997e-001 2.070025e-002 0.000000e+000
 0.000000e+000 0.000000e+000 0.000000e+000 9.823948e-001 1.760523e-002
 0.000000e+000 0.000000e+000 0.000000e+000 0.000000e+000 0.000000e+000
<ENDHMM>
~h "juwiui"
<BEGINHMM>
<NUMSTATES> 5
<STATE> 2
<MEAN> 39
 -1.801258e+001 3.534254e-001 -1.394316e+000 -4.768560e-001 -1.286317e+000 -4.681417e-001 -1.884949e+000 -7.978558e-001 -1.736414e+000 1.655393e-001 -1.374327e-002 5.039446e-001 4.457743e+001 -1.666829e-001 -3.977879e-001 5.404745e-002 -3.591468e-001 -1.671887e-001 2.053392e-001 -5.395243e-002 -1.027373e-001 -2.359970e-002 -8.261361e-003 -9.890747e-002 -3.868170e-002 7.023119e-001 -1.742508e-001 -1.096736e-001 1.809987e-001 -1.671522e-001 -1.799448e-001 1.015435e-001 -1.414791e-001 -9.569193e-002 7.204980e-002 -4.678631e-002 -6.577328e-002 5.797612e-002 4.311031e-001
<VARIANCE> 39
 3.397810e+000 6.446270e+000 1.011623e+001 9.745625e+000 1.277302e+001 1.622996e+001 1.649485e+001 1.548642e+001 1.490920e+001 1.755740e+001 1.355349e+001 1.121074e+001 1.083009e+001 6.024304e-001 1.644865e+000 1.516408e+000 1.752228e+000 2.456395e+000 1.761418e+000 1.928124e+000 2.086292e+000 1.645655e+000 2.177415e+000 1.609793e+000 1.371255e+000 3.465003e+000 2.477463e-001 2.301783e-001 2.923028e-001 3.058971e-001 3.558479e-001 3.332463e-001 2.565963e-001 3.693328e-001 2.976482e-001 4.510090e-001 3.072668e-001 2.669681e-001 5.303373e-001
<GCONST> 9.543081e+001
<STATE> 3
<MEAN> 39
 -1.950654e+001 -1.769476e+000 3.018905e+000 -2.874645e+000 -7.892282e+000 -2.085509e+000 -6.945679e+000 -3.074597e+000 -2.086744e+000 -1.886704e+000 4.434381e-001 -2.159985e-001 6.733350e+001 1.045057e+000 3.479822e-001 2.925113e-001 2.872266e-001 -2.649921e-001 -2.220132e-001 -9.297521e-001 -1.411062e-001 -7.388102e-001 -3.038169e-002 4.134611e-001 -4.640583e-001 1.199495e+000 1.573999e-001 7.087141e-002 -9.090359e-002 7.214677e-002 2.913808e-002 -1.597583e-002 3.470021e-002 6.157849e-002 -1.164614e-001 3.227674e-002 8.272970e-002 -4.587816e-002 -2.542147e-001
<VARIANCE> 39
 1.460840e+002 3.511817e+001 2.514372e+001 4.049074e+001 4.084858e+001 6.455283e+001 7.860100e+001 4.672453e+001 5.238971e+001 3.997710e+001 2.985354e+001 2.977904e+001 6.255822e+001 1.102420e+001 3.186991e+000 3.053215e+000 3.742429e+000 5.406424e+000 6.974330e+000 6.129923e+000 4.234919e+000 5.721149e+000 3.398792e+000 3.198514e+000 2.674202e+000 5.557311e+000 1.340148e+000 7.106054e-001 5.107456e-001 6.649742e-001 1.021712e+000 1.144376e+000 1.072112e+000 8.139330e-001 9.571891e-001 6.371121e-001 6.960782e-001 4.537575e-001 6.559765e-001
<GCONST> 1.383382e+002
<STATE> 4
<MEAN> 39
 -9.039063e+000 2.840604e+000 1.047863e+001 -1.054051e+000 -1.200450e+001 -2.704773e+000 -8.775352e+000 -7.183324e-001 -1.059595e+001 -1.073883e+000 2.090374e+000 -3.827815e+000 6.325746e+001 -2.340973e-001 -1.560767e-002 -8.855551e-002 2.200575e-003 9.769466e-002 2.760665e-002 2.616059e-001 4.152508e-002 1.703761e-001 8.404017e-004 -1.016453e-001 1.187058e-001 -3.994953e-001 -8.255755e-003 3.064982e-003 -3.909171e-003 4.980633e-003 8.730459e-003 -1.118034e-002 1.369473e-003 -8.921639e-003 2.709978e-002 -5.709327e-003 -1.325173e-002 9.364864e-003 -6.321479e-004
<VARIANCE> 39
 3.105605e+001 2.009563e+001 8.599931e+001 3.485435e+001 7.359617e+001 5.532605e+001 9.006474e+001 3.620422e+001 7.107145e+001 4.291884e+001 3.860725e+001 3.426377e+001 1.439164e+002 3.334314e-001 7.874970e-001 2.284221e+000 1.222387e+000 2.065593e+000 1.976487e+000 2.283230e+000 1.898469e+000 1.986245e+000 1.680650e+000 1.536003e+000 1.247863e+000 6.010018e-001 4.675232e-002 1.112275e-001 2.137812e-001 1.957020e-001 2.959293e-001 3.250057e-001 3.566741e-001 3.465782e-001 3.435450e-001 3.029262e-001 2.777018e-001 2.295757e-001 4.497727e-002
<GCONST> 1.056280e+002
<TRANSP> 5
 0.000000e+000 1.000000e+000 0.000000e+000 0.000000e+000 0.000000e+000
 0.000000e+000 8.949323e-001 1.050677e-001 0.000000e+000 0.000000e+000
 0.000000e+000 0.000000e+000 9.390054e-001 6.099452e-002 0.000000e+000
 0.000000e+000 0.000000e+000 0.000000e+000 9.853345e-001 1.466546e-002
 0.000000e+000 0.000000e+000 0.000000e+000 0.000000e+000 0.000000e+000
<ENDHMM>
~h "mwolago"
<BEGINHMM>
<NUMSTATES> 5
<STATE> 2
<MEAN> 39
 -1.723158e+001 1.147018e+000 -8.690165e-001 6.182138e-001 -1.342015e+000 3.222867e-001 -6.273780e-001 -2.488118e+000 -2.546296e+000 1.055307e+000 -1.017687e+000 -1.545397e-002 4.454886e+001 3.041447e-001 1.114909e-001 3.421475e-001 1.722212e-001 -2.013665e-001 2.312528e-001 2.390705e-002 -6.534696e-001 -6.089720e-001 3.491335e-001 -1.616260e-001 -2.573774e-001 3.422398e-001 1.727265e-001 1.592517e-001 1.914846e-001 9.438862e-002 -8.971156e-003 6.856495e-002 3.543055e-003 -5.134958e-002 1.489096e-002 6.059867e-003 -6.584188e-002 -1.410578e-002 1.379475e-001
<VARIANCE> 39
 2.396897e+000 4.157369e+000 6.222975e+000 8.480637e+000 1.332325e+001 1.428068e+001 1.521252e+001 2.528518e+001 1.473116e+001 1.582971e+001 1.191781e+001 1.254543e+001 8.005132e+000 2.541861e-001 6.816843e-001 9.737245e-001 1.028242e+000 8.636419e-001 1.357622e+000 1.563374e+000 1.807666e+000 1.300682e+000 1.478424e+000 1.136896e+000 1.430607e+000 2.202022e-001 1.288210e-001 1.607288e-001 1.595431e-001 1.793830e-001 1.571202e-001 1.894044e-001 2.926171e-001 3.099874e-001 2.269493e-001 2.962216e-001 2.300755e-001 2.668504e-001 7.534734e-002
<GCONST> 7.933430e+001
<STATE> 3
<MEAN> 39
 -5.376315e+000 6.119761e+000 4.844960e+000 -3.442804e+000 -6.081893e+000 3.725847e+000 -2.213491e+000 -7.537394e+000 -8.108789e+000 1.301537e-001 -4.213729e+000 -1.672904e+000 5.769347e+001 2.197530e+000 3.051010e-001 -3.067731e-001 -3.083231e+000 -1.154191e+000 6.247896e-001 -6.607232e-001 5.250026e-001 -3.578250e-001 -8.330051e-001 4.922635e-001 5.363473e-002 2.949485e+000 -1.048045e-001 -2.965836e-001 -3.793662e-001 -5.446854e-001 -6.823363e-002 1.264727e-001 -6.995239e-002 1.975193e-001 1.003102e-001 1.504920e-002 3.573765e-001 4.363086e-002 8.688582e-002
<VARIANCE> 39
 4.395557e+001 2.037682e+001 2.869797e+001 1.211078e+002 4.796674e+001 3.556609e+001 3.088402e+001 5.990326e+001 3.393993e+001 3.159714e+001 3.813758e+001 2.735952e+001 7.766994e+001 2.913720e+000 3.101793e+000 4.384572e+000 1.038325e+001 4.049644e+000 4.086974e+000 2.532249e+000 5.905294e+000 4.746899e+000 3.095369e+000 6.365746e+000 2.945299e+000 2.925366e+000 7.434803e-001 4.159555e-001 5.409069e-001 1.827786e+000 9.083959e-001 8.134271e-001 5.147721e-001 9.859571e-001 7.115276e-001 6.189482e-001 7.779904e-001 5.112324e-001 7.705663e-001
<GCONST> 1.339282e+002
<STATE> 4
<MEAN> 39
 -3.641911e+000 2.722547e+000 -4.418093e+000 -1.283292e+001 -6.254644e+000 2.899867e+000 -3.346954e+000 1.041412e+000 -4.557410e+000 -3.414104e-001 -2.169160e-002 -3.782547e+000 6.276623e+001 -2.544492e-001 -4.670310e-002 -2.491286e-002 2.683991e-001 1.294531e-001 -9.356477e-002 5.779438e-002 2.518286e-002 9.201968e-002 3.212234e-002 -4.546696e-002 6.543462e-003 -3.358081e-001 -1.334634e-002 9.830076e-003 1.625139e-002 4.849796e-002 1.000224e-002 -1.839531e-002 4.431919e-003 -1.208708e-002 -3.121743e-003 -3.198191e-003 -3.176198e-002 2.209711e-003 -2.768317e-002
<VARIANCE> 39
 6.091307e+001 4.584099e+001 2.567749e+001 9.682302e+001 5.123141e+001 4.691018e+001 6.487595e+001 4.701194e+001 7.399105e+001 4.744934e+001 5.195005e+001 4.219120e+001 1.446098e+002 1.294484e+000 1.822539e+000 1.628561e+000 4.566591e+000 2.689240e+000 3.174046e+000 3.071251e+000 2.981083e+000 3.770847e+000 2.744612e+000 3.130297e+000 2.361210e+000 2.369122e+000 2.017794e-001 2.646501e-001 2.909694e-001 7.971518e-001 4.642667e-001 5.840642e-001 5.368546e-001 5.507140e-001 6.233301e-001 5.153325e-001 5.524956e-001 4.066658e-001 2.987848e-001
<GCONST> 1.257396e+002
<TRANSP> 5
 0.000000e+000 1.000000e+000 0.000000e+000 0.000000e+000 0.000000e+000
 0.000000e+000 8.919391e-001 1.080609e-001 0.000000e+000 0.000000e+000
 0.000000e+000 0.000000e+000 8.695148e-001 1.304852e-001 0.000000e+000
 0.000000e+000 0.000000e+000 0.000000e+000 9.866635e-001 1.333649e-002
 0.000000e+000 0.000000e+000 0.000000e+000 0.000000e+000 0.000000e+000
<ENDHMM>
~h "naghwaam"
<BEGINHMM>
<NUMSTATES> 5
<STATE> 2
<MEAN> 39
 -1.731626e+001 1.465904e+000 -1.302855e+000 6.313931e-001 -8.118197e-001 5.820911e-002 -2.781193e-001 -1.239540e+000 -1.674982e+000 1.678199e-001 -1.267961e+000 2.941913e-001 4.448909e+001 2.901270e-001 9.217443e-002 3.334057e-001 1.308637e-001 -2.794149e-001 1.829727e-001 2.362168e-001 -2.663328e-001 -1.185212e-001 1.714491e-001 -3.635919e-001 -1.617111e-001 2.873479e-001 1.277191e-001 8.464896e-002 9.254175e-002 -6.386331e-003 -7.588188e-002 -5.096001e-002 -2.576868e-002 -4.890123e-002 4.298757e-002 2.405114e-002 -8.636976e-002 -1.024467e-001 2.213408e-001
<VARIANCE> 39
 4.394263e+000 7.065093e+000 7.822778e+000 1.238437e+001 1.566062e+001 1.783593e+001 1.514672e+001 1.730256e+001 1.175941e+001 1.645215e+001 1.873782e+001 1.251441e+001 8.061345e+000 5.187642e-001 8.616972e-001 1.001345e+000 1.186280e+000 1.119337e+000 1.761906e+000 1.629981e+000 1.924332e+000 1.340994e+000 1.791522e+000 1.720083e+000 1.310636e+000 3.093567e-001 1.626999e-001 2.407270e-001 1.812102e-001 2.875001e-001 2.404903e-001 3.480160e-001 3.010053e-001 3.674553e-001 2.013251e-001 3.178782e-001 3.016511e-001 2.298218e-001 2.168977e-001
<GCONST> 8.757903e+001
<STATE> 3
<MEAN> 39
 -9.075547e+000 -6.818206e-001 -7.447449e+000 -9.030955e+000 1.623357e+000 4.573421e-001 -1.644505e+000 3.048537e-002 -2.818143e+000 3.277544e+000 -3.768639e+000 -5.691939e+000 6.547028e+001 4.280609e-001 -1.264684e-001 -2.989405e-001 -5.656735e-001 1.281966e-001 1.316918e-001 -8.667022e-002 8.172558e-004 -1.122046e-001 1.065704e-001 1.308348e-001 -3.335437e-001 9.377306e-001 -2.276930e-002 -4.470047e-002 -3.915609e-002 -3.146265e-002 1.027228e-003 8.899805e-003 -7.056906e-003 2.848048e-003 -2.151462e-003 -4.545639e-003 1.946625e-002 2.888204e-003 -4.685669e-002
<VARIANCE> 39
 3.662417e+001 3.494571e+001 6.190190e+001 7.701438e+001 5.596533e+001 5.088766e+001 3.751258e+001 4.579574e+001 3.868837e+001 3.368589e+001 4.503600e+001 4.306720e+001 1.466609e+002 3.948870e+000 3.858443e+000 4.922213e+000 6.262223e+000 5.241082e+000 4.469759e+000 4.317407e+000 4.786690e+000 3.881221e+000 3.835947e+000 3.635048e+000 3.595293e+000 1.403593e+001 6.195076e-001 6.825466e-001 9.466682e-001 1.202729e+000 9.286229e-001 8.641371e-001 9.015580e-001 9.572014e-001 7.932678e-001 8.057866e-001 6.636754e-001 5.548515e-001 1.789074e+000
<GCONST> 1.407189e+002
<STATE> 4
<MEAN> 39
 -6.950435e+000 -9.688374e-001 -2.017982e+000 -4.916946e+000 2.072467e+000 2.064843e+000 -4.290211e+000 -3.750814e+000 -4.041088e+000 1.347973e+000 -2.100904e+000 -4.721331e+000 6.149821e+001 -2.985463e-001 5.331590e-002 1.334185e-001 3.395163e-001 -9.411487e-003 -1.132593e-001 -3.133748e-002 4.870638e-002 7.355765e-002 -1.084777e-001 -1.609645e-002 2.267255e-001 -6.109105e-001 -1.639855e-002 6.561109e-003 3.582317e-003 1.448356e-002 1.103009e-002 -4.241167e-003 -7.139591e-003 7.787005e-003 -4.689939e-003 1.400454e-003 8.092931e-003 1.108150e-002 -1.326397e-002
<VARIANCE> 39
 5.227228e+001 2.370579e+001 7.141361e+001 1.359450e+002 4.838042e+001 4.354669e+001 4.352642e+001 4.742907e+001 3.770161e+001 3.905352e+001 4.337045e+001 8.292288e+001 1.844049e+002 4.460840e-001 7.081400e-001 2.111650e+000 2.091505e+000 1.714030e+000 1.558979e+000 2.044082e+000 2.516681e+000 1.857332e+000 1.683617e+000 1.421330e+000 1.686496e+000 5.972394e-001 6.401572e-002 9.878534e-002 2.595322e-001 2.682182e-001 2.827066e-001 2.659331e-001 3.408684e-001 4.123067e-001 3.106656e-001 3.100310e-001 2.285868e-001 2.770538e-001 5.213238e-002
<GCONST> 1.080859e+002
<TRANSP> 5
 0.000000e+000 1.000000e+000 0.000000e+000 0.000000e+000 0.000000e+000
 0.000000e+000 8.929016e-001 1.070984e-001 0.000000e+000 0.000000e+000
 0.000000e+000 0.000000e+000 9.692243e-001 3.077563e-002 0.000000e+000
 0.000000e+000 0.000000e+000 0.000000e+000 9.813675e-001 1.863253e-002
 0.000000e+000 0.000000e+000 0.000000e+000 0.000000e+000 0.000000e+000
<ENDHMM>
~h "noemureul"
<BEGINHMM>
<NUMSTATES> 5
<STATE> 2
<MEAN> 39
 -1.717947e+001 1.330289e+000 -1.461160e+000 5.661604e-001 -1.091816e+000 4.664837e-002 -5.312710e-001 -1.118541e+000 -1.644594e+000 6.614510e-001 -1.452053e+000 -7.344419e-003 4.413854e+001 1.133152e-001 3.039745e-001 4.467491e-001 2.613539e-001 -1.444518e-001 1.330453e-001 6.160540e-002 -4.984979e-001 -3.077435e-001 1.370036e-001 -1.094345e-001 -2.699249e-001 1.472850e-001 1.408680e-001 1.325249e-001 1.484381e-001 3.687965e-002 -1.773460e-002 -1.182299e-002 5.404402e-002 4.052678e-002 3.172078e-002 -7.924884e-003 -2.440574e-002 -6.896417e-002 1.572270e-001
<VARIANCE> 39
 3.871609e+000 4.707409e+000 6.731784e+000 7.322248e+000 1.417104e+001 1.383522e+001 1.137658e+001 1.462012e+001 1.044944e+001 1.313644e+001 1.285549e+001 1.398869e+001 7.552333e+000 4.372561e-001 8.008802e-001 6.854128e-001 9.427671e-001 1.344395e+000 1.418609e+000 1.325115e+000 1.153344e+000 8.750604e-001 1.241761e+000 1.247126e+000 1.469497e+000 1.733318e-001 1.568131e-001 1.897335e-001 1.737672e-001 1.851602e-001 2.792326e-001 2.475376e-001 2.092617e-001 2.285258e-001 1.789349e-001 1.956854e-001 2.427761e-001 2.663953e-001 9.465438e-002
<GCONST> 7.841460e+001
<STATE> 3
<MEAN> 39
 -8.682051e+000 5.272393e+000 7.460360e+000 -1.205017e-001 -5.793349e+000 -4.976345e+000 -2.813280e+000 -2.629654e+000 -6.262076e+000 -9.717179e-001 -2.358472e+000 -2.683259e+000 5.831850e+001 1.175852e+000 -4.395814e-001 1.008173e+000 -6.095212e-001 -1.386992e+000 -1.517064e+000 -9.812406e-001 8.230470e-001 -8.208226e-001 -2.777393e-001 5.516532e-001 7.805625e-002 3.415467e+000 -9.989600e-002 -3.093043e-001 -1.721597e-001 -4.603131e-002 -2.481416e-001 4.689455e-003 -8.613384e-002 2.420764e-001 6.560708e-002 1.243320e-001 1.471141e-001 6.545166e-002 5.819156e-002
<VARIANCE> 39
 4.490628e+001 3.289240e+001 3.223011e+001 4.734098e+001 4.102893e+001 6.326466e+001 4.321729e+001 4.637714e+001 3.094551e+001 2.303668e+001 2.754076e+001 2.387355e+001 1.349948e+002 5.211311e+000 4.855802e+000 3.261376e+000 5.082436e+000 4.884414e+000 4.098989e+000 4.015754e+000 6.228688e+000 2.861039e+000 2.684193e+000 4.719676e+000 2.908459e+000 4.641973e+000 1.014465e+000 6.572207e-001 5.593452e-001 1.090824e+000 8.460019e-001 1.076313e+000 8.303851e-001 9.929737e-001 5.402972e-001 4.637838e-001 8.381799e-001 5.359822e-001 1.250141e+000
<GCONST> 1.350342e+002
<STATE> 4
<MEAN> 39
 -5.280971e+000 -1.056599e+000 3.287101e+000 -4.536752e-003 -9.230327e+000 -3.150435e+000 -7.805387e+000 -1.956930e+000 -2.886645e+000 5.357633e-001 -1.750379e+000 -1.995109e+000 6.374149e+001 -1.475441e-001 2.990795e-002 -1.575884e-001 4.692763e-002 1.707207e-001 1.495417e-001 8.699052e-002 -6.814908e-002 1.279737e-001 2.364171e-002 -4.458294e-002 1.925290e-002 -4.162544e-001 -5.466969e-003 1.974961e-002 5.466149e-003 -6.333258e-004 3.454297e-002 1.088614e-003 3.917045e-003 -2.981389e-002 -5.723101e-003 -1.127419e-002 -1.220070e-002 -3.594568e-004 -2.400469e-002
<VARIANCE> 39
 4.990376e+001 2.811370e+001 4.189249e+001 4.790968e+001 5.707500e+001 5.572991e+001 7.221968e+001 7.331116e+001 6.426128e+001 3.635053e+001 4.851551e+001 3.331987e+001 1.355079e+002 1.158616e+000 1.213927e+000 1.830968e+000 2.941083e+000 2.827333e+000 2.881717e+000 3.382573e+000 3.795793e+000 2.763884e+000 2.325272e+000 3.140039e+000 1.990234e+000 1.314377e+000 1.895250e-001 1.897070e-001 2.772831e-001 4.488366e-001 5.440264e-001 4.976594e-001 6.053196e-001 6.547448e-001 4.824753e-001 4.270917e-001 5.472509e-001 3.736486e-001 1.905096e-001
<GCONST> 1.213955e+002
<TRANSP> 5
 0.000000e+000 1.000000e+000 0.000000e+000 0.000000e+000 0.000000e+000
 0.000000e+000 8.816476e-001 1.183524e-001 0.000000e+000 0.000000e+000
 0.000000e+000 0.000000e+000 8.867306e-001 1.132694e-001 0.000000e+000
 0.000000e+000 0.000000e+000 0.000000e+000 9.866350e-001 1.336503e-002
 0.000000e+000 0.000000e+000 0.000000e+000 0.000000e+000 0.000000e+000
<ENDHMM>
~h "eoduun"
<BEGINHMM>
<NUMSTATES> 5
<STATE> 2
<MEAN> 39
 -1.704226e+001 5.026040e-001 -4.679311e+000 -3.248269e+000 -4.571325e-001 2.899938e+000 3.286196e-001 -9.350303e-001 -2.434535e+000 -8.450342e-001 1.971574e-001 5.652230e-001 4.498113e+001 3.092716e-001 6.594043e-002 -3.108491e-001 -5.355733e-001 -9.644303e-002 5.200520e-001 3.747079e-001 -2.228504e-002 -1.984431e-001 -3.171242e-001 -8.579956e-002 -7.393830e-002 3.095980e-001 1.121907e-001 7.650620e-002 3.440918e-002 -1.238832e-001 -9.861677e-004 5.368411e-002 -4.812039e-002 -3.947292e-003 6.752407e-003 7.157253e-002 6.354800e-003 1.267565e-002 2.092279e-001
<VARIANCE> 39
 5.395715e+000 5.803058e+000 2.134863e+001 1.952084e+001 1.193481e+001 3.007297e+001 2.722043e+001 1.652911e+001 1.757930e+001 1.794784e+001 1.768653e+001 1.287381e+001 1.054181e+001 6.747006e-001 7.408347e-001 1.975527e+000 1.623975e+000 1.407146e+000 2.609908e+000 2.589388e+000 1.827931e+000 2.168158e+000 1.798835e+000 1.991050e+000 1.397471e+000 4.661686e-001 2.326334e-001 1.928556e-001 3.771203e-001 3.342685e-001 2.519511e-001 4.957301e-001 3.855186e-001 3.072193e-001 4.108336e-001 3.647482e-001 3.595344e-001 2.784273e-001 1.404127e-001
<GCONST> 9.608071e+001
<STATE> 3
<MEAN> 39
 -5.842638e+000 2.891479e+000 -1.123108e+000 -1.158128e+001 -1.905287e+000 1.726349e+000 -8.084751e+000 -3.335154e+000 -5.034232e+000 1.526101e+000 1.150896e+000 -3.300542e+000 6.604387e+001 4.273648e-001 8.095279e-002 2.000212e-001 -4.813920e-002 -1.229978e-001 -1.328989e-001 -5.989614e-001 -2.794560e-001 -2.470985e-001 9.992114e-002 1.928021e-001 -2.068286e-001 8.408690e-001 -1.498064e-002 -1.027940e-002 -3.221136e-002 -1.299313e-003 -3.183495e-003 4.459564e-002 2.967214e-002 -2.529483e-002 -4.662087e-002 -1.746354e-002 4.242467e-002 1.817649e-002 -6.967696e-002
<VARIANCE> 39
 5.640408e+001 3.538745e+001 3.639532e+001 1.112010e+002 3.619106e+001 8.401559e+001 7.001131e+001 5.812035e+001 4.353870e+001 4.579020e+001 4.784690e+001 3.771376e+001 1.119758e+002 5.744798e+000 4.567953e+000 2.638225e+000 8.413509e+000 3.323512e+000 5.562598e+000 6.034261e+000 4.578786e+000 3.548451e+000 3.346208e+000 3.723592e+000 2.914021e+000 1.173300e+001 9.828047e-001 9.288319e-001 4.579087e-001 1.252290e+000 5.907804e-001 9.539407e-001 1.112611e+000 8.687541e-001 6.123263e-001 5.892571e-001 6.312888e-001 5.483277e-001 1.952232e+000
<GCONST> 1.409851e+002
<STATE> 4
<MEAN> 39
 -7.423568e+000 3.487710e+000 2.562377e+000 -3.264056e+000 -4.739226e+000 3.255088e-001 -6.170389e+000 -4.665390e+000 -5.619699e+000 -3.569157e-001 -1.680079e+000 -3.613947e+000 5.894400e+001 -3.022694e-001 -7.912368e-002 -4.750386e-002 1.685574e-001 8.682518e-002 -3.924528e-002 3.063681e-001 1.871426e-001 2.135146e-001 -3.640490e-002 -1.549481e-001 1.108989e-001 -5.577875e-001 -2.114140e-002 -9.642593e-003 1.509341e-002 3.154828e-002 1.087554e-002 -3.846716e-002 -6.491572e-003 1.489187e-002 3.432055e-002 1.493823e-002 -3.767414e-002 -9.726785e-003 1.217170e-003
<VARIANCE> 39
 5.439682e+001 2.624094e+001 5.183567e+001 8.199193e+001 4.466622e+001 4.420308e+001 5.984086e+001 5.136676e+001 6.074998e+001 4.113075e+001 6.757459e+001 4.107862e+001 1.320946e+002 4.334939e-001 8.622731e-001 1.764191e+000 2.130435e+000 1.843106e+000 1.813375e+000 2.048401e+000 1.919786e+000 1.909404e+000 1.964628e+000 2.449448e+000 1.818621e+000 6.989272e-001 5.229507e-002 1.113103e-001 2.114250e-001 2.665068e-001 3.025708e-001 3.155453e-001 3.702368e-001 3.648282e-001 3.322988e-001 2.976366e-001 3.838935e-001 3.042188e-001 7.349446e-002
<GCONST> 1.094788e+002
<TRANSP> 5
 0.000000e+000 1.000000e+000 0.000000e+000 0.000000e+000 0.000000e+000
 0.000000e+000 8.852302e-001 1.147699e-001 0.000000e+000 0.000000e+000
 0.000000e+000 0.000000e+000 9.662662e-001 3.373381e-002 0.000000e+000
 0.000000e+000 0.000000e+000 0.000000e+000 9.796926e-001 2.030743e-002
 0.000000e+000 0.000000e+000 0.000000e+000 0.000000e+000 0.000000e+000
<ENDHMM>
~h "doepuri"
<BEGINHMM>
<NUMSTATES> 5
<STATE> 2
<MEAN> 39
 -1.753068e+001 1.255195e+000 -1.874247e+000 -2.252772e-001 -1.870892e+000 -6.653439e-001 -7.952139e-001 -2.968706e-001 -1.036899e+000 1.856863e-002 -2.971362e-001 7.299789e-001 4.374066e+001 3.138319e-002 -2.180918e-002 8.166955e-002 -1.439352e-001 7.075205e-002 -8.220091e-002 -7.791755e-002 -9.135918e-002 -1.564072e-001 -5.279578e-002 1.695243e-002 2.283171e-002 1.042032e-001 -4.406189e-002 -1.368711e-001 6.245549e-002 -2.084732e-001 4.239395e-002 -3.489983e-002 3.101869e-002 2.007206e-002 -2.586982e-002 -1.091061e-002 -4.297906e-002 2.935180e-002 3.221953e-001
<VARIANCE> 39
 3.131862e+000 4.742764e+000 6.013203e+000 1.240546e+001 1.425497e+001 1.390233e+001 1.156974e+001 1.249916e+001 1.542935e+001 1.091022e+001 1.314834e+001 9.963921e+000 5.479792e+000 1.945728e-001 4.480870e-001 6.075716e-001 1.543082e+000 1.280605e+000 1.258537e+000 1.234938e+000 1.245114e+000 1.653914e+000 1.248144e+000 1.406563e+000 1.081367e+000 2.552326e-001 4.241992e-002 1.664562e-001 1.261202e-001 3.717250e-001 2.464319e-001 2.433968e-001 2.337614e-001 2.232951e-001 3.027423e-001 2.426869e-001 2.919854e-001 1.891480e-001 4.862005e-001
<GCONST> 7.882698e+001
<STATE> 3
<MEAN> 39
 -9.979823e+000 -3.884157e-001 2.127227e+000 -2.146421e+000 -5.477514e+000 -4.453497e+000 -6.682592e+000 -1.749072e+000 -3.831626e+000 1.385076e+000 1.243606e+000 1.846224e-001 6.411947e+001 2.207563e-001 1.954845e-002 5.123858e-001 -3.070938e-002 -4.081607e-001 -8.592550e-002 -2.070626e-001 -6.724687e-002 -3.086933e-001 -1.655325e-002 8.618140e-002 -1.079177e-001 6.494302e-001 8.409948e-003 5.216912e-002 1.889243e-002 2.802489e-002 -3.557611e-002 2.072492e-002 -9.171094e-003 -3.554818e-003 -3.269575e-002 1.440341e-002 1.058878e-004 -2.469615e-002 -6.301801e-002
<VARIANCE> 39
 5.872669e+001 3.231087e+001 5.160775e+001 4.325352e+001 5.812038e+001 6.075476e+001 5.318904e+001 4.825074e+001 3.982395e+001 3.013141e+001 3.013752e+001 2.674859e+001 1.318720e+002 5.155321e+000 3.732808e+000 3.650100e+000 5.265416e+000 5.705098e+000 4.960391e+000 4.559025e+000 3.776410e+000 4.155619e+000 3.258142e+000 3.311079e+000 2.686308e+000 1.331790e+001 7.968521e-001 6.865834e-001 5.026152e-001 1.078131e+000 1.036328e+000 8.659268e-001 8.037282e-001 6.830255e-001 7.650254e-001 6.335048e-001 6.648180e-001 5.516066e-001 1.956106e+000
<GCONST> 1.381217e+002
<STATE> 4
<MEAN> 39
 -1.278727e+001 3.771250e+000 9.858200e+000 -2.985173e+000 -9.785354e+000 -8.911924e-001 -3.088637e+000 -2.331157e+000 -7.619755e+000 4.560454e-001 1.058877e-001 -1.786924e+000 5.687682e+001 -2.315369e-001 -2.330574e-002 -5.709051e-001 5.028088e-002 3.992087e-001 5.561502e-002 2.173790e-001 1.236546e-001 3.852191e-001 6.864943e-003 -1.001550e-001 8.234815e-002 -7.013679e-001 -4.984648e-003 -2.804798e-002 -4.365719e-002 1.091678e-002 3.109997e-002 -1.934751e-002 5.635865e-003 7.254345e-003 4.664275e-002 -1.684737e-002 -8.880622e-003 1.803586e-002 -5.708638e-003
<VARIANCE> 39
 1.861715e+001 2.253415e+001 1.147811e+002 2.988736e+001 7.269777e+001 3.993330e+001 5.789981e+001 2.957624e+001 6.492590e+001 3.667233e+001 3.027206e+001 2.740930e+001 1.342720e+002 3.844811e-001 1.110351e+000 1.658398e+000 1.537764e+000 1.959731e+000 2.056151e+000 2.605250e+000 1.710786e+000 1.933080e+000 1.990217e+000 1.575419e+000 1.407984e+000 7.755852e-001 7.150029e-002 1.705855e-001 2.430209e-001 2.909912e-001 3.857755e-001 3.711515e-001 4.295385e-001 3.244484e-001 3.865342e-001 3.629257e-001 2.981099e-001 2.799640e-001 6.779500e-002
<GCONST> 1.074266e+002
<TRANSP> 5
 0.000000e+000 1.000000e+000 0.000000e+000 0.000000e+000 0.000000e+000
 0.000000e+000 8.794227e-001 1.205773e-001 0.000000e+000 0.000000e+000
 0.000000e+000 0.000000e+000 9.766746e-001 2.332536e-002 0.000000e+000
 0.000000e+000 0.000000e+000 0.000000e+000 9.750217e-001 2.497829e-002
 0.000000e+000 0.000000e+000 0.000000e+000 0.000000e+000 0.000000e+000
<ENDHMM>
~h "choeagi"
<BEGINHMM>
<NUMSTATES> 5
<STATE> 2
<MEAN> 39
 -1.802806e+001 1.766705e+000 -6.311090e-001 -1.352068e-001 -8.047411e-001 -2.526413e-001 -1.749532e+000 -7.909282e-001 -1.451602e+000 1.598398e-001 4.220782e-001 6.354044e-001 4.422249e+001 -1.032038e-001 -4.625713e-001 7.437906e-002 -4.333162e-001 -9.788899e-002 1.675970e-001 -1.588931e-002 -6.387568e-002 5.451423e-002 -2.246812e-002 1.212612e-001 4.114066e-002 8.312705e-001 -2.055284e-001 -1.634465e-001 9.029303e-002 -3.474437e-001 -7.980829e-002 3.188998e-002 -7.290922e-002 5.819003e-002 1.922205e-002 -1.196305e-002 -3.162015e-002 -3.542196e-002 5.449674e-001
<VARIANCE> 39
 6.228629e+000 7.287078e+000 1.011355e+001 1.195894e+001 1.095631e+001 1.564131e+001 1.995047e+001 1.565144e+001 1.414946e+001 1.161190e+001 1.133582e+001 1.124023e+001 1.234315e+001 1.016896e+000 2.105033e+000 1.477778e+000 3.376398e+000 1.616775e+000 1.811081e+000 2.341073e+000 2.103362e+000 1.602483e+000 1.311058e+000 1.350857e+000 1.240911e+000 4.903525e+000 2.265324e-001 2.627965e-001 3.044198e-001 4.459199e-001 2.620223e-001 3.181899e-001 4.440730e-001 4.026428e-001 3.041826e-001 2.450214e-001 2.449758e-001 1.640128e-001 8.756334e-001
<GCONST> 9.655575e+001
<STATE> 3
<MEAN> 39
 -2.109170e+001 -4.577404e+000 4.852300e+000 -8.707220e+000 -8.503966e+000 -2.840223e+000 -2.662239e+000 1.035349e+000 -2.250218e+000 -6.981616e-001 6.323637e-001 8.195751e-001 7.118148e+001 1.018719e+000 -6.856372e-004 6.216207e-001 7.434256e-002 -9.814462e-001 -8.427582e-001 -1.126656e-001 4.355577e-001 -3.509118e-001 2.676409e-002 -1.080303e-001 -1.125354e-001 1.692022e+000 2.808412e-001 1.256718e-001 -8.571903e-002 2.096819e-001 -2.629360e-002 -8.646019e-002 3.476754e-004 7.551774e-002 2.921897e-002 6.588914e-003 -3.489267e-002 -2.799465e-002 -3.388548e-001
<VARIANCE> 39
 7.257099e+001 1.831024e+001 2.812024e+001 4.671016e+001 3.162594e+001 4.328069e+001 2.630956e+001 2.481597e+001 2.571453e+001 1.669971e+001 1.761576e+001 2.287136e+001 3.272123e+001 7.512946e+000 2.085543e+000 2.090079e+000 4.788477e+000 2.318757e+000 2.836169e+000 3.183883e+000 2.106755e+000 2.674436e+000 1.746710e+000 2.194399e+000 1.943832e+000 8.155875e+000 8.181769e-001 5.308896e-001 3.989386e-001 7.788990e-001 3.819541e-001 4.665442e-001 5.896429e-001 4.032878e-001 5.401973e-001 3.407213e-001 3.575117e-001 3.312161e-001 9.543426e-001
<GCONST> 1.201978e+002
<STATE> 4
<MEAN> 39
 -9.976386e+000 2.190612e+000 6.740775e+000 -6.086410e+000 -8.143157e+000 -4.244834e+000 -3.794044e+000 1.786801e-002 -5.267834e+000 6.994684e-001 -2.203733e+000 -3.675991e+000 6.391711e+001 -1.548534e-001 6.343646e-002 -1.521643e-001 6.999248e-002 1.986234e-001 1.318701e-001 4.445624e-002 -6.403719e-002 4.233135e-002 -6.692868e-003 2.224874e-002 2.942863e-002 -4.342165e-001 -2.481320e-002 -8.609082e-004 -1.498779e-003 8.759875e-003 2.446595e-002 1.081076e-002 1.306777e-002 -1.053324e-002 -5.667511e-003 -7.712488e-004 3.194809e-003 7.517962e-003 -2.105209e-002
<VARIANCE> 39
 3.749637e+001 5.653017e+001 1.045288e+002 4.268504e+001 6.228200e+001 5.982300e+001 5.221163e+001 4.911510e+001 6.165221e+001 4.286573e+001 5.264221e+001 5.096973e+001 1.680081e+002 1.303735e+000 2.032068e+000 2.705062e+000 2.181979e+000 2.565432e+000 2.264438e+000 2.825397e+000 2.315042e+000 3.153213e+000 2.156782e+000 2.046127e+000 2.005858e+000 2.515877e+000 2.295524e-001 3.380313e-001 3.119312e-001 3.725302e-001 4.002945e-001 3.882217e-001 4.789437e-001 4.321764e-001 5.377396e-001 3.632258e-001 3.224397e-001 3.048055e-001 3.609461e-001
<GCONST> 1.222317e+002
<TRANSP> 5
 0.000000e+000 1.000000e+000 0.000000e+000 0.000000e+000 0.000000e+000
 0.000000e+000 9.052566e-001 9.474341e-002 0.000000e+000 0.000000e+000
 0.000000e+000 0.000000e+000 9.231798e-001 7.682013e-002 0.000000e+000
 0.000000e+000 0.000000e+000 0.000000e+000 9.861068e-001 1.389318e-002
 0.000000e+000 0.000000e+000 0.000000e+000 0.000000e+000 0.000000e+000
<ENDHMM>
~h "nawaya"
<BEGINHMM>
<NUMSTATES> 5
<STATE> 2
<MEAN> 39
 -1.713821e+001 6.506231e-001 -1.667376e+000 -2.371672e-001 -1.873756e+000 -2.889954e-001 -5.743237e-001 -1.436370e+000 -1.151738e+000 1.578093e-001 -1.940845e+000 1.238895e-001 4.510990e+001 5.718460e-002 1.090215e-001 3.998464e-001 1.409900e-001 -2.176379e-001 1.563103e-001 1.810157e-001 -4.094700e-001 -1.074763e-001 1.058219e-001 -4.074649e-001 -1.132186e-001 2.080836e-001 1.040851e-001 1.229139e-001 1.197309e-001 8.701514e-002 3.064077e-002 -2.356111e-002 -5.092692e-002 -4.200641e-002 -2.349599e-002 7.112085e-002 -3.393406e-002 -2.244374e-002 1.545503e-001
<VARIANCE> 39
 2.964567e+000 1.025002e+001 6.416226e+000 1.093331e+001 1.469611e+001 1.186789e+001 1.293881e+001 1.759990e+001 1.420247e+001 1.130379e+001 1.663369e+001 1.221612e+001 1.004076e+001 2.320814e-001 5.634539e-001 9.314339e-001 1.175727e+000 1.388246e+000 1.372280e+000 1.635320e+000 1.574204e+000 1.306275e+000 1.222327e+000 1.609867e+000 1.144126e+000 2.605700e-001 1.038822e-001 1.475426e-001 1.892795e-001 2.105279e-001 2.708943e-001 2.623719e-001 3.026917e-001 2.556213e-001 2.439128e-001 2.173589e-001 2.827578e-001 2.192791e-001 1.362105e-001
<GCONST> 8.169607e+001
<STATE> 3
<MEAN> 39
 -9.012852e+000 2.216649e+000 1.966572e+000 -2.889597e+000 -2.016207e+000 -3.624313e+000 -5.074120e+000 -2.954135e+000 1.315681e-001 5.487295e-001 -8.228497e+000 -3.258811e+000 6.276696e+001 1.273356e+000 -8.616191e-001 -8.140089e-001 -1.373724e+000 7.511316e-001 -1.963839e-001 -4.685113e-001 6.321499e-001 2.507967e-001 -1.890937e-001 -6.271033e-001 -7.835503e-001 3.280181e+000 -4.871220e-002 -2.751515e-001 -2.110004e-001 -1.506954e-001 1.007646e-001 1.381694e-001 1.381486e-001 -1.709851e-002 -6.124991e-002 -3.218355e-002 1.476131e-001 -8.285904e-002 -7.573596e-002
<VARIANCE> 39
 3.752646e+001 4.216131e+001 6.941325e+001 6.967861e+001 5.486605e+001 4.258562e+001 4.978506e+001 6.331158e+001 2.838846e+001 2.299472e+001 3.565159e+001 3.762129e+001 1.575177e+002 3.086206e+000 5.108110e+000 8.082452e+000 5.351485e+000 5.138214e+000 5.701231e+000 4.658076e+000 6.783458e+000 2.673856e+000 2.392071e+000 3.292972e+000 2.795150e+000 6.395118e+000 6.264934e-001 6.943749e-001 1.423945e+000 1.019959e+000 9.065004e-001 1.056676e+000 8.745409e-001 1.571819e+000 4.772314e-001 4.680864e-001 6.534314e-001 4.283920e-001 1.558877e+000
<GCONST> 1.388561e+002
<STATE> 4
<MEAN> 39
 -5.796121e+000 -3.749083e+000 -4.328593e+000 -1.020154e+001 -2.710880e-001 3.956524e-001 -1.712217e+000 2.058740e+000 -9.555198e-001 1.234722e-001 -3.507121e+000 -6.234260e+000 6.737045e+001 -1.960903e-001 1.095920e-001 7.629059e-002 1.689108e-001 -6.043450e-002 6.542072e-003 4.768434e-002 -4.244743e-002 -2.243177e-002 9.759266e-003 1.447600e-001 1.383124e-001 -4.624738e-001 -9.825146e-003 1.887443e-002 1.173574e-002 1.461688e-002 -1.749347e-002 -1.901395e-002 -1.414643e-002 5.917761e-003 8.945183e-003 1.225738e-003 -5.871428e-003 2.137477e-002 -1.135421e-002
<VARIANCE> 39
 4.503320e+001 2.536797e+001 4.403601e+001 8.904384e+001 7.726890e+001 6.582445e+001 2.926441e+001 4.528432e+001 3.485333e+001 3.036932e+001 5.272116e+001 6.472562e+001 1.724035e+002 4.979778e-001 1.100364e+000 1.665559e+000 1.795110e+000 2.705909e+000 2.123301e+000 1.546151e+000 2.154986e+000 1.812228e+000 1.492508e+000 2.273392e+000 2.338934e+000 8.138349e-001 5.295050e-002 1.736092e-001 1.986492e-001 2.372496e-001 3.196306e-001 2.639341e-001 2.795910e-001 3.720106e-001 3.012130e-001 2.486464e-001 3.381841e-001 3.377581e-001 7.250594e-002
<GCONST> 1.090056e+002
<TRANSP> 5
 0.000000e+000 1.000000e+000 0.000000e+000 0.000000e+000 0.000000e+000
 0.000000e+000 8.867441e-001 1.132558e-001 0.000000e+000 0.000000e+000
 0.000000e+000 0.000000e+000 8.992435e-001 1.007566e-001 0.000000e+000
 0.000000e+000 0.000000e+000 0.000000e+000 9.864030e-001 1.359702e-002
 0.000000e+000 0.000000e+000 0.000000e+000 0.000000e+000 0.000000e+000
<ENDHMM>
~h "bunyaeseo"
<BEGINHMM>
<NUMSTATES> 5
<STATE> 2
<MEAN> 39
 -1.805653e+001 5.712120e-001 -1.421283e+000 2.424933e-001 -5.803311e-001 -4.466018e-001 -6.435963e-001 -1.169821e-001 -1.256951e+000 1.148977e-001 -6.139435e-001 3.152301e-001 4.436013e+001 -8.838041e-003 -3.446447e-001 -2.089463e-001 -2.379994e-001 -1.449403e-001 -1.037769e-001 -1.762051e-001 -1.890648e-001 -1.705869e-001 9.694009e-002 1.918384e-001 4.637139e-002 1.152102e+000 -1.978290e-002 -1.802179e-001 -1.084725e-001 6.501887e-003 7.271671e-002 -6.631689e-002 -9.344362e-002 -6.248182e-003 6.632715e-002 1.964501e-002 7.025091e-002 1.338747e-002 5.691190e-001
<VARIANCE> 39
 2.451896e+000 7.110333e+000 5.574184e+000 8.683825e+000 1.354061e+001 1.405387e+001 1.491106e+001 1.559226e+001 1.468891e+001 1.423381e+001 1.155608e+001 1.520922e+001 1.297681e+001 3.722742e-001 1.427946e+000 8.927438e-001 1.242305e+000 1.606399e+000 1.491641e+000 1.554591e+000 1.736975e+000 1.777480e+000 1.847683e+000 1.522083e+000 1.745104e+000 5.895007e+000 5.666868e-002 2.223872e-001 1.610309e-001 2.056377e-001 3.036051e-001 2.524949e-001 2.710698e-001 3.428310e-001 3.476872e-001 3.190678e-001 2.725998e-001 3.633478e-001 7.253915e-001
<GCONST> 8.990872e+001
<STATE> 3
<MEAN> 39
 -9.432274e+000 -2.034181e-001 3.303719e+000 -3.285737e+000 -5.714892e+000 -3.596117e+000 -8.116358e+000 -1.510679e+000 -4.986853e+000 -1.194235e-001 -6.379151e-001 -1.348318e+000 6.920156e+001 6.290289e-001 -1.271424e-002 4.892941e-001 -3.028272e-001 -6.263267e-001 -2.568203e-001 -2.004478e-001 4.958528e-001 -1.770611e-001 -1.957936e-001 -2.935454e-001 -6.968801e-002 1.121759e+000 2.954892e-002 6.703417e-004 -4.614129e-002 1.465637e-002 2.592578e-002 2.932453e-002 6.948795e-002 1.022496e-001 6.738742e-002 -4.265617e-002 -1.245228e-001 -4.135839e-002 -2.410946e-001
<VARIANCE> 39
 5.157351e+001 4.376480e+001 8.080122e+001 3.780324e+001 7.856063e+001 3.511840e+001 4.864676e+001 4.720591e+001 4.572924e+001 4.802664e+001 4.223070e+001 2.923192e+001 2.805450e+001 3.269074e+000 4.055638e+000 4.919509e+000 3.312361e+000 5.147628e+000 3.442122e+000 4.548650e+000 5.657087e+000 3.957171e+000 4.152943e+000 3.744659e+000 2.776535e+000 4.907331e+000 5.942652e-001 5.978093e-001 7.912685e-001 6.978744e-001 1.039578e+000 6.992476e-001 8.323490e-001 1.032941e+000 7.714693e-001 7.961154e-001 7.099295e-001 5.091164e-001 8.684421e-001
<GCONST> 1.357167e+002
<STATE> 4
<MEAN> 39
 -9.142467e+000 -8.538044e-001 -2.457669e+000 -7.272544e+000 -3.871218e+000 -6.036485e-001 -2.300889e+000 2.715231e+000 -3.098788e+000 3.400232e-001 -1.985751e+000 -2.225240e+000 6.533121e+001 -1.559510e-001 6.193814e-002 -1.155456e-001 9.531949e-002 1.633656e-001 8.353777e-002 6.635747e-002 -1.334937e-001 5.231126e-002 4.314005e-002 6.933096e-002 1.721652e-002 -4.655353e-001 -9.622600e-003 2.768099e-002 3.294219e-002 1.062419e-003 -1.706131e-002 -8.260173e-003 -9.703275e-003 -2.345134e-002 -1.932172e-002 8.546340e-003 2.584919e-002 6.078944e-003 -1.358416e-002
<VARIANCE> 39
 8.177058e+001 2.539161e+001 5.349445e+001 5.876046e+001 6.756190e+001 7.980809e+001 4.327277e+001 5.453048e+001 4.003612e+001 4.009168e+001 5.104336e+001 4.637261e+001 1.659782e+002 3.834917e+000 1.317462e+000 1.979154e+000 2.316679e+000 2.512749e+000 2.598066e+000 2.717401e+000 2.061646e+000 2.245897e+000 2.059176e+000 2.085128e+000 1.959959e+000 8.593004e-001 4.337665e-001 2.073752e-001 2.855507e-001 3.333602e-001 3.898511e-001 4.143579e-001 4.408894e-001 3.552684e-001 3.949803e-001 3.480003e-001 3.181284e-001 3.152623e-001 9.148523e-002
<GCONST> 1.184063e+002
<TRANSP> 5
 0.000000e+000 1.000000e+000 0.000000e+000 0.000000e+000 0.000000e+000
 0.000000e+000 9.004208e-001 9.957927e-002 0.000000e+000 0.000000e+000
 0.000000e+000 0.000000e+000 9.493803e-001 5.061973e-002 0.000000e+000
 0.000000e+000 0.000000e+000 0.000000e+000 9.863951e-001 1.360496e-002
 0.000000e+000 0.000000e+000 0.000000e+000 0.000000e+000 0.000000e+000
<ENDHMM>
~h "widaehan"
<BEGINHMM>
<NUMSTATES> 5
<STATE> 2
<MEAN> 39
 -1.726243e+001 1.041800e+000 -1.615486e+000 5.345076e-001 -1.530332e+000 -8.708387e-001 -5.356823e-001 -8.626776e-002 -1.199701e+000 7.974560e-002 -1.008367e+000 2.302465e-001 4.383044e+001 2.279706e-001 -3.047777e-002 1.452215e-001 2.530623e-001 -4.483536e-002 -1.313327e-001 1.988499e-003 -9.741004e-002 -4.677304e-001 1.368947e-001 5.719217e-002 -9.963486e-002 2.553245e-001 1.415240e-001 5.930981e-002 1.695650e-001 1.501538e-001 -7.999984e-002 -5.464653e-002 -2.982756e-002 8.111792e-002 -1.327395e-001 -4.340132e-002 -5.082693e-003 -6.688744e-002 1.713528e-001
<VARIANCE> 39
 3.992040e+000 3.852221e+000 5.111871e+000 8.903857e+000 1.158972e+001 1.480518e+001 1.113383e+001 1.556825e+001 1.396391e+001 1.569933e+001 1.402253e+001 8.730167e+000 7.120205e+000 2.219899e-001 4.640966e-001 7.063686e-001 1.078421e+000 1.430091e+000 1.334284e+000 1.112257e+000 1.459925e+000 1.868200e+000 1.757022e+000 1.495648e+000 1.144343e+000 1.791263e-001 1.129510e-001 9.912920e-002 2.127908e-001 2.017444e-001 2.346728e-001 2.645656e-001 1.962558e-001 2.626294e-001 3.519007e-001 3.026997e-001 2.785800e-001 1.704536e-001 1.010626e-001
<GCONST> 7.831764e+001
<STATE> 3
<MEAN> 39
 -9.269420e+000 3.690739e+000 1.160045e+001 8.987725e-001 -1.095122e+001 -7.124910e+000 -5.282809e+000 -1.171808e+000 -1.110364e+001 -2.581490e+000 1.695864e+000 -2.291889e+000 6.498688e+001 3.709909e-001 -7.140420e-002 4.626653e-001 -3.274336e-001 -6.611289e-001 -4.478013e-001 -2.773163e-001 9.818094e-002 -2.248738e-001 -2.007439e-002 1.800070e-001 1.494979e-002 1.411239e+000 -3.857356e-002 -4.710024e-002 -7.370879e-002 -9.623444e-002 6.225397e-003 3.909890e-002 2.536555e-002 4.129540e-002 9.208645e-002 1.853145e-002 -2.838547e-002 1.210869e-002 -3.620917e-002
<VARIANCE> 39
 2.909768e+001 3.320742e+001 7.305231e+001 5.147784e+001 7.190281e+001 4.836717e+001 4.289617e+001 3.890149e+001 4.481564e+001 3.608104e+001 2.558285e+001 2.327066e+001 1.132857e+002 4.287806e+000 3.931659e+000 7.421364e+000 4.077809e+000 8.155532e+000 3.732900e+000 4.883308e+000 3.787562e+000 5.164459e+000 3.371934e+000 2.597090e+000 2.250140e+000 1.044860e+001 8.347836e-001 7.110665e-001 1.101287e+000 7.445781e-001 1.370704e+000 7.794037e-001 9.205878e-001 6.502381e-001 8.183185e-001 6.249997e-001 4.382124e-001 4.156641e-001 1.863746e+000
<GCONST> 1.374837e+002
<STATE> 4
<MEAN> 39
 -9.013458e+000 -1.843867e-001 1.719165e+000 -1.541173e+000 -3.465231e+000 -3.792914e+000 -3.623351e+000 2.753711e+000 -1.832395e+000 1.381842e-001 -6.256786e+000 -2.700250e+000 6.249984e+001 -1.972976e-001 3.520800e-002 -2.158536e-001 8.939557e-002 2.977791e-001 1.648667e-001 9.001859e-002 -4.687333e-002 1.578302e-001 1.290574e-002 -7.198914e-002 2.139642e-002 -6.048049e-001 -8.091446e-003 1.390402e-002 1.010949e-002 2.344548e-002 1.620444e-002 -5.735341e-003 -3.816587e-003 -2.518495e-002 -9.155971e-003 -7.018903e-003 2.857570e-003 6.041671e-003 -1.108001e-002
<VARIANCE> 39
 3.961687e+001 2.272005e+001 6.116495e+001 5.202457e+001 7.713744e+001 4.496720e+001 4.358751e+001 6.352415e+001 3.079436e+001 2.760850e+001 5.868034e+001 4.672903e+001 2.027527e+002 7.698995e-001 8.951560e-001 2.722295e+000 2.421686e+000 2.980042e+000 2.259181e+000 2.141092e+000 2.812197e+000 1.819612e+000 1.711565e+000 2.201427e+000 1.696700e+000 1.065888e+000 1.051278e-001 1.329926e-001 3.272107e-001 4.006044e-001 4.058061e-001 3.887711e-001 3.678478e-001 4.821143e-001 3.149732e-001 3.186502e-001 3.300297e-001 2.892064e-001 1.273274e-001
<GCONST> 1.137428e+002
<TRANSP> 5
 0.000000e+000 1.000000e+000 0.000000e+000 0.000000e+000 0.000000e+000
 0.000000e+000 8.820266e-001 1.179734e-001 0.000000e+000 0.000000e+000
 0.000000e+000 0.000000e+000 9.570291e-001 4.297093e-002 0.000000e+000
 0.000000e+000 0.000000e+000 0.000000e+000 9.821275e-001 1.787247e-002
 0.000000e+000 0.000000e+000 0.000000e+000 0.000000e+000 0.000000e+000
<ENDHMM>
~h "gyamalo"
<BEGINHMM>
<NUMSTATES> 5
<STATE> 2
<MEAN> 39
 -1.791712e+001 8.587524e-001 -1.614074e+000 1.077545e-001 -2.942518e-001 5.150753e-001 -7.511278e-001 -8.002413e-002 -9.671994e-001 2.239301e-001 -5.695010e-001 8.752486e-001 4.427727e+001 7.025035e-002 -2.867830e-001 -3.900307e-001 -4.924787e-001 2.559369e-001 -1.456356e-001 -3.097933e-001 -1.787051e-001 -1.892376e-001 5.001872e-001 -1.278358e-001 7.828177e-002 8.218078e-001 3.959062e-002 -2.068160e-001 -2.630278e-001 -1.963068e-001 1.366874e-001 -1.579180e-001 -2.359008e-001 -4.575622e-002 -7.125176e-002 2.012632e-001 -1.404522e-001 -6.568561e-002 5.209963e-001
<VARIANCE> 39
 6.295431e+000 6.379199e+000 9.773564e+000 1.209261e+001 1.285827e+001 1.552606e+001 1.345289e+001 1.619155e+001 1.541661e+001 1.419437e+001 1.301898e+001 1.398151e+001 9.580029e+000 7.910791e-001 1.755708e+000 2.858644e+000 2.219193e+000 1.708625e+000 2.336160e+000 2.211180e+000 1.984008e+000 1.485390e+000 2.529756e+000 2.045982e+000 1.560159e+000 4.408925e+000 1.203203e-001 2.514062e-001 4.386291e-001 3.288515e-001 3.224010e-001 5.144169e-001 4.040054e-001 4.115134e-001 2.667781e-001 4.075063e-001 3.698609e-001 2.861296e-001 8.027727e-001
<GCONST> 9.897149e+001
<STATE> 3
<MEAN> 39
 -8.752701e+000 -4.211584e+000 3.004875e-001 -6.902031e+000 -2.354282e+000 -6.346867e+000 -9.475935e+000 1.306473e+000 -5.204378e+000 4.336929e+000 -3.659270e+000 -2.005291e+000 7.012026e+001 6.184412e-001 -7.186534e-002 4.037599e-001 -1.275532e-001 -5.570962e-001 -1.688560e-001 -2.974630e-001 3.495764e-001 -9.995534e-002 -1.874603e-001 1.672400e-002 -2.583396e-001 1.177731e+000 -1.575538e-002 5.775088e-002 8.403731e-002 9.869266e-002 -7.399354e-002 6.369397e-002 1.148858e-001 4.065743e-002 8.964459e-002 -9.858912e-002 5.608927e-003 -4.651011e-003 -1.983294e-001
<VARIANCE> 39
 4.268073e+001 3.360897e+001 1.348757e+002 5.498590e+001 9.589974e+001 4.538577e+001 4.791923e+001 6.656455e+001 5.548280e+001 5.832440e+001 5.113351e+001 3.529473e+001 7.408372e+001 1.529984e+000 3.360402e+000 1.156832e+001 5.386114e+000 7.338027e+000 4.334168e+000 4.681114e+000 5.037162e+000 6.093307e+000 4.722128e+000 4.278039e+000 2.591681e+000 6.769094e+000 3.207103e-001 6.015290e-001 1.887618e+000 1.120414e+000 1.085232e+000 7.764933e-001 8.169384e-001 8.788635e-001 1.092973e+000 9.073218e-001 7.751985e-001 5.313200e-001 1.165696e+000
<GCONST> 1.421148e+002
<STATE> 4
<MEAN> 39
 -4.117196e+000 -5.963428e-001 -2.751066e+000 -5.380325e+000 -5.584774e+000 8.786964e-001 -4.853518e+000 -1.110873e+000 -3.522548e+000 8.601714e-001 -1.077156e+000 -3.712044e+000 6.344426e+001 -1.936020e-001 7.215580e-002 -7.287753e-002 9.189353e-002 1.135952e-001 5.431750e-002 1.350701e-001 -9.159143e-002 3.665937e-002 -2.538935e-002 9.182706e-003 6.445312e-002 -4.748010e-001 -2.179648e-003 9.643652e-003 8.946321e-003 1.213524e-003 1.975052e-005 -5.370453e-003 -1.798643e-003 -8.958917e-003 -1.795741e-002 2.829317e-003 1.263179e-002 2.813450e-003 -1.115976e-002
<VARIANCE> 39
 5.781856e+001 2.760828e+001 3.036993e+001 9.472319e+001 4.329961e+001 9.048107e+001 6.819093e+001 6.943200e+001 5.173591e+001 4.406537e+001 6.554006e+001 4.850885e+001 1.560657e+002 7.620736e-001 1.057662e+000 2.041151e+000 4.640930e+000 2.818326e+000 3.920952e+000 2.785568e+000 3.461459e+000 2.973653e+000 2.381891e+000 2.741642e+000 2.016493e+000 9.938951e-001 9.314263e-002 1.582330e-001 3.237025e-001 6.170183e-001 4.907920e-001 5.198860e-001 4.375271e-001 5.215835e-001 4.853467e-001 4.200622e-001 3.861589e-001 3.413728e-001 1.098729e-001
<GCONST> 1.204659e+002
<TRANSP> 5
 0.000000e+000 1.000000e+000 0.000000e+000 0.000000e+000 0.000000e+000
 0.000000e+000 8.944647e-001 1.055352e-001 0.000000e+000 0.000000e+000
 0.000000e+000 0.000000e+000 9.532172e-001 4.678275e-002 0.000000e+000
 0.000000e+000 0.000000e+000 0.000000e+000 9.859054e-001 1.409461e-002
 0.000000e+000 0.000000e+000 0.000000e+000 0.000000e+000 0.000000e+000
<ENDHMM>
~h "uioero"
<BEGINHMM>
<NUMSTATES> 5
<STATE> 2
<MEAN> 39
 -1.759595e+001 5.109713e-001 -2.819197e+000 2.802513e-001 2.662585e-001 -6.319101e-001 -1.998098e+000 1.103630e+000 -5.311788e-001 6.699499e-001 -1.127044e+000 -9.248837e-001 4.504912e+001 1.012921e-001 1.426591e-001 9.266824e-003 -1.953053e-001 6.067531e-002 8.114060e-002 -2.649659e-001 -7.846233e-002 -3.800177e-001 2.943696e-001 2.103683e-001 -1.907972e-001 1.714628e-001 8.759710e-002 9.465551e-002 6.324399e-002 -9.057184e-002 4.455493e-002 8.808067e-002 -1.365374e-001 -9.940625e-003 -8.728325e-002 6.163128e-002 1.173166e-001 -1.020808e-001 2.104920e-001
<VARIANCE> 39
 5.902204e+000 6.381700e+000 1.074288e+001 9.122570e+000 1.219903e+001 1.536527e+001 2.303227e+001 1.362385e+001 2.003251e+001 1.936606e+001 1.315038e+001 1.338386e+001 1.090475e+001 3.909566e-001 8.958141e-001 1.085722e+000 1.194343e+000 1.304591e+000 1.568033e+000 2.815071e+000 1.463753e+000 2.136809e+000 2.118605e+000 1.415891e+000 1.458032e+000 3.791085e-001 1.571331e-001 1.912313e-001 2.050080e-001 2.197360e-001 2.170060e-001 3.381976e-001 4.435687e-001 2.695021e-001 3.671296e-001 3.287732e-001 2.466013e-001 2.417129e-001 1.035630e-001
<GCONST> 8.845808e+001
<STATE> 3
<MEAN> 39
 -8.105976e+000 3.602929e+000 1.522297e+000 -3.145763e+000 -3.747361e+000 -4.412978e-001 -1.234823e+001 -1.944358e+000 -7.420660e+000 2.841676e+000 3.417289e+000 -6.497216e+000 5.944357e+001 1.730382e+000 3.827514e-002 1.178894e+000 -2.978277e-001 -1.466132e+000 -4.009123e-001 -1.430838e+000 -4.321739e-001 -1.147555e+000 -3.265187e-001 6.919900e-001 -6.031987e-001 3.100534e+000 -1.519805e-001 -1.135934e-001 8.021120e-002 9.143598e-002 -2.141605e-001 -9.889860e-002 2.001068e-001 9.721729e-003 2.901018e-002 -1.822884e-001 -7.933949e-002 1.164796e-001 -6.757362e-002
<VARIANCE> 39
 5.919044e+001 2.711116e+001 5.359268e+001 2.910601e+001 6.191485e+001 6.940090e+001 6.089396e+001 7.877416e+001 5.335858e+001 3.574924e+001 4.770805e+001 4.478690e+001 1.130398e+002 4.530091e+000 3.576094e+000 3.016863e+000 2.638824e+000 3.638629e+000 3.187232e+000 5.731507e+000 4.705207e+000 3.630590e+000 2.944381e+000 2.755298e+000 3.069987e+000 4.555929e+000 9.610841e-001 6.757088e-001 4.224755e-001 4.495961e-001 7.309527e-001 5.287973e-001 1.226698e+000 8.177618e-001 6.239427e-001 4.055492e-001 5.243923e-001 5.889340e-001 1.184810e+000
<GCONST> 1.344061e+002
<STATE> 4
<MEAN> 39
 -4.699851e+000 2.761453e-001 1.213377e+000 -5.233423e+000 -9.034189e+000 -2.402694e-001 -6.697349e+000 -9.168015e-002 -7.120944e+000 -2.810361e-001 2.642355e+000 -2.245930e+000 6.403369e+001 -1.966862e-001 -8.558766e-003 -1.259917e-001 5.654385e-002 1.438371e-001 6.487834e-002 2.295485e-001 3.576728e-002 1.528399e-001 -2.471735e-002 -9.198031e-002 1.082321e-001 -3.840513e-001 2.346172e-003 1.655082e-003 -1.557572e-002 -4.224074e-003 2.012229e-002 4.564827e-003 -4.031523e-003 4.870871e-003 1.151950e-002 7.394287e-003 -4.916971e-003 -5.102619e-003 -1.577059e-002
<VARIANCE> 39
 5.837410e+001 2.691023e+001 7.015732e+001 6.793320e+001 6.648853e+001 9.525800e+001 8.651535e+001 6.574869e+001 5.796215e+001 4.193076e+001 6.100478e+001 3.085619e+001 1.497455e+002 9.751521e-001 9.793428e-001 1.572931e+000 2.902008e+000 2.275649e+000 2.716337e+000 2.797982e+000 2.898983e+000 2.464338e+000 2.174578e+000 2.555861e+000 1.480033e+000 8.513213e-001 1.288327e-001 1.420549e-001 2.235866e-001 4.111100e-001 3.935179e-001 3.867967e-001 4.515041e-001 4.493509e-001 4.008769e-001 3.967286e-001 4.183849e-001 2.650828e-001 9.974778e-002
<GCONST> 1.172780e+002
<TRANSP> 5
 0.000000e+000 1.000000e+000 0.000000e+000 0.000000e+000 0.000000e+000
 0.000000e+000 8.865420e-001 1.134579e-001 0.000000e+000 0.000000e+000
 0.000000e+000 0.000000e+000 8.780360e-001 1.219641e-001 0.000000e+000
 0.000000e+000 0.000000e+000 0.000000e+000 9.863177e-001 1.368232e-002
 0.000000e+000 0.000000e+000 0.000000e+000 0.000000e+000 0.000000e+000
<ENDHMM>
~h "jayuwa"
<BEGINHMM>
<NUMSTATES> 5
<STATE> 2
<MEAN> 39
 -1.774273e+001 1.664034e+000 -1.070755e+000 -5.317847e-001 -7.764400e-001 -1.636792e+000 -2.173515e+000 -1.401415e+000 -1.764127e+000 6.116755e-001 -3.342567e-001 6.039661e-001 4.498493e+001 -2.949244e-001 -1.909011e-001 -1.651187e-002 -5.721490e-001 2.582403e-001 -7.108581e-002 1.160013e-001 -4.139051e-002 -2.262891e-001 1.988869e-001 -8.074558e-002 -1.579623e-001 9.498999e-001 -1.751571e-001 -2.737330e-002 -4.727134e-002 -2.020741e-001 5.958963e-002 -1.933762e-001 -2.227559e-002 5.231647e-002 -4.011425e-002 -2.864648e-002 3.531668e-002 5.204807e-002 4.895180e-001
<VARIANCE> 39
 5.961748e+000 8.182894e+000 9.359316e+000 1.439411e+001 2.075527e+001 2.326005e+001 2.135311e+001 1.830524e+001 1.805643e+001 1.850161e+001 9.274904e+000 1.714026e+001 1.022771e+001 1.016385e+000 1.148794e+000 1.316508e+000 2.433714e+000 2.489565e+000 2.449666e+000 1.850166e+000 2.164629e+000 1.969914e+000 2.168873e+000 9.847714e-001 1.975277e+000 3.607595e+000 2.347556e-001 2.007144e-001 1.836476e-001 3.888646e-001 5.444769e-001 4.181666e-001 3.436369e-001 4.068858e-001 3.835248e-001 4.360606e-001 1.885814e-001 3.530107e-001 6.674809e-001
<GCONST> 9.969289e+001
<STATE> 3
<MEAN> 39
 -1.595570e+001 -4.213097e+000 -3.503334e+000 -9.435789e+000 6.840905e-001 -3.829641e+000 -1.144054e+000 3.596104e+000 4.903715e-001 -1.308578e+000 -4.404002e+000 -1.113403e+000 7.183977e+001 1.030872e+000 -4.259581e-001 1.683232e-001 -3.516143e-001 -4.384948e-001 -1.215195e-001 -2.255468e-001 5.390216e-001 3.602337e-001 -2.623616e-001 -3.773673e-001 -2.773779e-001 1.661927e+000 1.017532e-001 9.677856e-002 2.062828e-001 1.543542e-001 -2.028156e-001 3.308393e-002 -9.182422e-002 -3.066965e-002 -4.334237e-002 2.111760e-002 7.656515e-002 6.987195e-002 -3.492340e-001
<VARIANCE> 39
 9.822082e+001 3.484278e+001 2.728390e+001 3.583545e+001 3.434336e+001 3.618194e+001 3.418452e+001 3.818347e+001 3.130656e+001 3.059907e+001 3.902744e+001 3.569400e+001 6.714050e+001 6.016780e+000 3.606972e+000 3.127078e+000 4.733758e+000 3.886057e+000 4.614649e+000 4.112641e+000 4.087353e+000 2.750194e+000 2.760333e+000 3.291867e+000 2.877025e+000 5.333643e+000 9.380769e-001 8.298380e-001 5.493737e-001 9.934635e-001 6.792326e-001 9.497752e-001 6.903483e-001 8.803450e-001 5.333775e-001 5.126593e-001 6.209088e-001 5.430300e-001 7.289484e-001
<GCONST> 1.322483e+002
<STATE> 4
<MEAN> 39
 -5.419859e+000 -3.644116e-001 -2.757150e+000 -9.207960e+000 -2.940108e+000 2.476630e+000 -5.846619e+000 -4.332515e-001 -4.462773e+000 5.800902e-001 -3.051588e-001 -4.572194e+000 6.484538e+001 -1.982507e-001 1.197149e-001 -3.988105e-002 1.636161e-001 8.206475e-002 8.253694e-002 6.390314e-002 -1.209363e-001 -5.435807e-002 2.296005e-002 7.742054e-002 6.178217e-002 -5.234761e-001 2.856141e-003 -1.473722e-002 -4.088037e-002 -2.661147e-003 3.430586e-002 1.005576e-002 1.683472e-002 -1.817559e-003 2.223840e-002 -8.983672e-003 -2.206378e-002 -1.590972e-002 5.221931e-003
<VARIANCE> 39
 5.001528e+001 3.446174e+001 8.495619e+001 8.873856e+001 9.654131e+001 7.122709e+001 6.056974e+001 4.257401e+001 5.717696e+001 4.064703e+001 5.264308e+001 6.442083e+001 1.573727e+002 5.835999e-001 1.297889e+000 2.534724e+000 2.356900e+000 2.642234e+000 2.240180e+000 2.133060e+000 2.157026e+000 2.575526e+000 2.077633e+000 2.077130e+000 2.197920e+000 8.707645e-001 6.369286e-002 1.669283e-001 2.606073e-001 3.035955e-001 3.448895e-001 3.450626e-001 3.503794e-001 3.906228e-001 4.142973e-001 3.685184e-001 3.266952e-001 3.268539e-001 6.175560e-002
<GCONST> 1.154593e+002
<TRANSP> 5
 0.000000e+000 1.000000e+000 0.000000e+000 0.000000e+000 0.000000e+000
 0.000000e+000 8.989972e-001 1.010028e-001 0.000000e+000 0.000000e+000
 0.000000e+000 0.000000e+000 9.359244e-001 6.407563e-002 0.000000e+000
 0.000000e+000 0.000000e+000 0.000000e+000 9.855057e-001 1.449428e-002
 0.000000e+000 0.000000e+000 0.000000e+000 0.000000e+000 0.000000e+000
<ENDHMM>
~h "gwaeoni"
<BEGINHMM>
<NUMSTATES> 5
<STATE> 2
<MEAN> 39
 -1.737090e+001 6.634796e-001 -1.809303e+000 -8.265035e-001 -1.477362e+000 -2.382847e-001 -8.451445e-001 -5.604946e-001 -1.625354e+000 3.320437e-001 6.630258e-001 6.605803e-001 4.457261e+001 4.943250e-002 1.172325e-002 -2.801219e-002 -1.518710e-001 -1.018353e-001 -8.180026e-002 9.580106e-002 -2.101564e-002 -7.482123e-002 -9.196057e-004 -5.770727e-003 9.481715e-002 1.148327e-001 1.183090e-001 1.517565e-003 -1.425297e-001 -2.719628e-001 -9.356842e-002 1.952384e-003 -5.236091e-002 9.597841e-002 -4.162598e-002 8.188224e-002 -1.310700e-001 -6.684054e-002 2.460185e-001
<VARIANCE> 39
 3.728074e+000 8.891174e+000 7.004083e+000 1.294267e+001 1.682160e+001 1.379644e+001 1.591246e+001 1.844510e+001 1.730621e+001 1.899467e+001 1.362872e+001 1.020905e+001 9.670445e+000 3.537435e-001 1.238049e+000 9.923826e-001 1.284779e+000 1.680674e+000 1.563720e+000 1.724931e+000 1.738019e+000 2.116743e+000 2.121808e+000 1.220057e+000 1.008098e+000 6.946040e-001 8.757980e-002 2.019335e-001 3.217209e-001 4.029504e-001 3.361048e-001 2.435855e-001 2.788704e-001 3.753841e-001 4.846769e-001 4.251821e-001 2.348192e-001 2.090919e-001 3.276663e-001
<GCONST> 9.009344e+001
<STATE> 3
<MEAN> 39
 -1.030163e+001 -2.005268e-001 -8.950298e+000 -1.432005e+001 -1.886763e+000 4.367064e+000 -1.248843e+000 1.456808e+000 -5.017420e+000 3.370111e+000 2.666513e-001 -4.047352e+000 6.252022e+001 1.197666e+000 -3.552696e-001 -3.882251e-001 -1.362401e+000 2.086241e-001 6.638844e-001 -4.654506e-003 -1.781731e-001 -3.878499e-001 2.153339e-001 9.078188e-002 -7.154757e-001 2.209966e+000 -2.019374e-002 -4.902344e-002 6.498305e-002 7.261075e-002 6.936974e-002 -3.183540e-002 3.031032e-003 -5.285768e-002 7.082096e-002 -4.177450e-002 3.077238e-002 -3.799645e-003 -4.818598e-002
<VARIANCE> 39
 4.542562e+001 2.684914e+001 3.677030e+001 6.956384e+001 5.680104e+001 5.835471e+001 3.268309e+001 4.955073e+001 4.135549e+001 3.449522e+001 3.026997e+001 3.801803e+001 9.816689e+001 3.196911e+000 3.291255e+000 5.319103e+000 7.128718e+000 5.012881e+000 5.222063e+000 3.584631e+000 5.654664e+000 4.820930e+000 3.238791e+000 3.445972e+000 3.365438e+000 4.315914e+000 7.469665e-001 6.756794e-001 9.279806e-001 1.389552e+000 8.857174e-001 1.025618e+000 6.836651e-001 1.050380e+000 1.072628e+000 6.463890e-001 6.732510e-001 6.303806e-001 9.424938e-001
<GCONST> 1.378092e+002
<STATE> 4
<MEAN> 39
 -7.195220e+000 3.166655e+000 3.007276e+000 -1.081372e+001 -5.687506e+000 3.127430e+000 -3.564266e+000 -2.633408e+000 -6.015810e+000 1.986430e+000 -1.150853e+000 -4.725604e+000 6.422137e+001 -2.450071e-001 7.627655e-002 7.955393e-002 2.940637e-001 -2.408860e-002 -1.203267e-001 -7.590134e-004 1.570262e-002 7.302318e-002 -5.891739e-002 -1.656236e-002 1.303684e-001 -4.477269e-001 -9.817003e-003 9.969395e-003 -8.832287e-004 1.414243e-002 -5.073282e-003 1.225402e-002 3.917873e-003 -2.520012e-004 -5.313944e-003 1.836061e-003 4.691906e-003 4.986254e-003 -2.003398e-002
<VARIANCE> 39
 5.134373e+001 5.299679e+001 1.048932e+002 1.162999e+002 8.085162e+001 5.249876e+001 4.679479e+001 4.740238e+001 4.896009e+001 3.796206e+001 4.781606e+001 4.649976e+001 1.546201e+002 4.950259e-001 1.034983e+000 1.964725e+000 2.585071e+000 2.265657e+000 2.723563e+000 2.240624e+000 2.507997e+000 2.101540e+000 1.757934e+000 1.985134e+000 1.345947e+000 8.866156e-001 8.845804e-002 1.357387e-001 2.527559e-001 3.398813e-001 3.725778e-001 4.633793e-001 3.776321e-001 4.778383e-001 3.450825e-001 2.945782e-001 3.171411e-001 2.372807e-001 1.102354e-001
<GCONST> 1.145761e+002
<TRANSP> 5
 0.000000e+000 1.000000e+000 0.000000e+000 0.000000e+000 0.000000e+000
 0.000000e+000 8.739657e-001 1.260344e-001 0.000000e+000 0.000000e+000
 0.000000e+000 0.000000e+000 9.288134e-001 7.118659e-002 0.000000e+000
 0.000000e+000 0.000000e+000 0.000000e+000 9.864164e-001 1.358362e-002
 0.000000e+000 0.000000e+000 0.000000e+000 0.000000e+000 0.000000e+000
<ENDHMM>
~h "ijipteu"
<BEGINHMM>
<NUMSTATES> 5
<STATE> 2
<MEAN> 39
 -1.792037e+001 1.683795e+000 -9.038296e-001 -8.459702e-002 -8.832584e-001 -1.100505e-001 -8.445687e-001 1.432686e-001 -1.384264e+000 -1.366454e-001 -1.009094e+000 1.733652e-002 4.378322e+001 -2.119989e-001 1.056230e-001 4.694628e-001 -3.135042e-001 -4.152227e-002 -3.628644e-002 -3.893082e-001 2.224984e-001 -2.221244e-001 1.758267e-001 1.876144e-001 -4.743258e-002 1.866385e-001 -9.338465e-003 8.917977e-002 2.872929e-001 -7.999760e-002 -1.165782e-001 9.892929e-002 -1.366732e-001 -2.950842e-002 -1.898313e-001 -3.919714e-002 6.946855e-002 -1.132147e-001 1.968919e-001
<VARIANCE> 39
 3.872822e+000 3.845445e+000 6.854595e+000 8.834834e+000 1.024793e+001 1.174408e+001 1.461615e+001 1.453145e+001 1.312279e+001 1.122146e+001 1.130516e+001 1.111188e+001 8.104200e+000 2.958628e-001 2.953942e-001 9.023032e-001 8.892666e-001 1.279985e+000 1.328430e+000 1.752859e+000 2.032407e+000 1.503436e+000 1.285986e+000 1.453829e+000 1.205005e+000 1.166999e-001 1.030955e-001 8.876440e-002 2.518986e-001 1.199119e-001 2.699789e-001 2.630228e-001 3.928140e-001 3.662080e-001 2.291346e-001 2.225828e-001 2.688103e-001 2.417998e-001 1.026210e-001
<GCONST> 7.800056e+001
<STATE> 3
<MEAN> 39
 -1.579178e+001 6.640897e+000 1.076957e+001 -2.763708e+000 -6.314523e+000 -5.023801e+000 -6.130386e+000 -3.342911e+000 -7.928361e+000 -2.206835e+000 3.731008e-001 -9.806137e-001 6.407928e+001 2.324952e-001 5.576019e-002 1.234341e-001 6.627733e-002 -1.326299e-001 -2.458493e-001 -7.333013e-002 -5.025863e-002 -7.274588e-002 -3.079977e-002 1.723519e-002 2.139254e-002 4.150407e-001 -1.217966e-002 -2.808513e-002 -9.055148e-002 1.150941e-002 3.145882e-002 -3.748644e-003 2.157370e-002 -4.592320e-004 4.084397e-002 1.441531e-002 -1.890064e-002 1.606309e-002 -8.368843e-002
<VARIANCE> 39
 5.711929e+001 4.489495e+001 8.370802e+001 3.312091e+001 7.084793e+001 4.881354e+001 4.764646e+001 3.932264e+001 3.644389e+001 3.099737e+001 2.445089e+001 2.455876e+001 1.254529e+002 5.846459e+000 4.043860e+000 7.148186e+000 3.354342e+000 7.988631e+000 3.403611e+000 4.916165e+000 2.848016e+000 3.570266e+000 2.804072e+000 2.521736e+000 2.162348e+000 1.173965e+001 9.249552e-001 7.901128e-001 9.579363e-001 6.545338e-001 1.336792e+000 6.389384e-001 8.092233e-001 5.790642e-001 6.227055e-001 5.239331e-001 4.862589e-001 4.071899e-001 1.536316e+000
<GCONST> 1.361364e+002
<STATE> 4
<MEAN> 39
 -1.200968e+001 9.891371e-001 -9.019585e-002 -3.671521e-001 -3.251903e+000 -4.388620e+000 -4.412345e+000 6.083078e-001 -2.210100e+000 1.972716e-001 -6.138654e-001 -1.283908e+000 5.631868e+001 -1.486714e-001 -6.145981e-002 -1.724086e-001 -2.234077e-002 1.065744e-001 1.976255e-001 1.118725e-001 -8.992082e-003 1.120883e-001 -1.581686e-002 -6.827121e-002 -1.938943e-002 -3.444390e-001 1.123941e-002 7.534151e-003 2.177830e-002 -4.791511e-003 -1.469492e-002 -8.793835e-003 1.577753e-002 -4.098742e-003 -1.296731e-002 -1.730885e-002 -8.283844e-003 -1.762103e-003 3.164043e-002
<VARIANCE> 39
 5.060271e+001 2.030614e+001 3.211903e+001 2.048753e+001 3.713012e+001 5.556879e+001 6.730045e+001 3.920144e+001 2.992292e+001 2.699629e+001 3.553711e+001 3.747973e+001 1.551413e+002 1.546894e+000 1.384215e+000 1.795741e+000 1.838395e+000 2.206997e+000 2.381226e+000 3.503543e+000 2.241495e+000 1.771656e+000 1.929861e+000 1.864661e+000 1.841199e+000 3.912133e+000 1.867891e-001 2.483743e-001 2.831788e-001 3.281495e-001 3.717807e-001 4.009236e-001 5.650710e-001 3.956938e-001 3.184623e-001 3.367899e-001 3.261294e-001 3.198157e-001 5.581868e-001
<GCONST> 1.151232e+002
<TRANSP> 5
 0.000000e+000 1.000000e+000 0.000000e+000 0.000000e+000 0.000000e+000
 0.000000e+000 8.730739e-001 1.269261e-001 0.000000e+000 0.000000e+000
 0.000000e+000 0.000000e+000 9.732904e-001 2.670953e-002 0.000000e+000
 0.000000e+000 0.000000e+000 0.000000e+000 9.795005e-001 2.049955e-002
 0.000000e+000 0.000000e+000 0.000000e+000 0.000000e+000 0.000000e+000
<ENDHMM>
~h "gege"
<BEGINHMM>
<NUMSTATES> 5
<STATE> 2
<MEAN> 39
 -1.778337e+001 5.755918e-001 -2.140860e+000 3.557000e-002 -5.444578e-001 -4.856260e-001 -7.553571e-001 -2.198071e-001 -7.420575e-001 3.524720e-001 -8.576953e-001 5.037051e-002 4.453122e+001 1.327623e-001 -3.118746e-001 -5.740178e-001 -4.475072e-001 5.073872e-001 -2.892875e-001 -4.718464e-001 -1.588167e-001 -1.838292e-001 3.901743e-001 -2.982048e-001 1.400353e-001 9.757461e-001 8.764795e-002 -2.150439e-001 -2.974871e-001 -2.273075e-001 1.440140e-001 -1.446235e-001 -2.218291e-001 2.942233e-002 -1.384445e-002 1.989276e-001 -1.021089e-001 -6.118385e-002 5.864202e-001
<VARIANCE> 39
 4.940923e+000 9.532197e+000 9.000027e+000 1.871249e+001 1.340220e+001 1.587285e+001 1.535816e+001 1.504407e+001 1.893065e+001 1.662759e+001 1.172738e+001 1.150802e+001 1.268152e+001 6.923937e-001 2.033598e+000 2.728333e+000 2.813248e+000 2.273036e+000 2.165257e+000 2.414235e+000 1.867196e+000 2.213793e+000 3.001802e+000 1.833632e+000 1.646888e+000 6.223567e+000 1.076302e-001 3.128326e-001 3.082054e-001 4.703807e-001 4.034607e-001 4.292856e-001 4.405951e-001 3.841733e-001 4.514801e-001 4.898237e-001 3.412325e-001 2.993133e-001 9.299216e-001
<GCONST> 1.022477e+002
<STATE> 3
<MEAN> 39
 -1.290969e+001 -5.103607e+000 -5.396362e+000 -3.152099e+000 2.286177e+000 -9.140265e+000 -1.113402e+001 8.719329e-001 -2.732592e+000 6.102486e+000 -3.668461e+000 -1.149364e+000 6.814974e+001 1.118036e+000 5.088482e-001 1.898296e+000 3.322175e-001 -1.561724e+000 -5.658491e-001 -1.047546e+000 3.863261e-001 -8.511022e-001 -5.277961e-001 4.297600e-001 -4.662668e-001 1.816654e+000 -6.819056e-003 2.438917e-001 5.239279e-001 1.051310e-001 -5.036740e-001 2.172225e-001 1.818981e-001 2.832284e-002 -1.770782e-001 -2.784743e-001 2.503613e-001 -4.816292e-002 -4.596671e-001
<VARIANCE> 39
 3.740748e+001 3.287065e+001 9.803538e+001 5.060369e+001 6.122259e+001 4.354356e+001 4.123135e+001 2.122334e+001 3.832890e+001 6.089450e+001 3.278455e+001 3.277340e+001 2.379413e+001 4.144294e+000 4.414208e+000 7.753574e+000 6.680823e+000 6.391348e+000 5.130364e+000 4.014375e+000 2.598124e+000 5.025514e+000 6.357790e+000 3.656144e+000 2.494317e+000 9.313041e+000 9.816244e-001 8.105472e-001 1.246226e+000 1.401829e+000 6.699759e-001 7.874547e-001 7.798819e-001 4.978506e-001 7.643180e-001 9.217071e-001 5.301797e-001 4.144243e-001 1.701478e+000
<GCONST> 1.378723e+002
<STATE> 4
<MEAN> 39
 -1.030797e+001 5.064425e-001 8.099198e+000 -3.660236e+000 -1.196954e+001 -5.747038e+000 -3.607246e+000 1.995506e+000 -7.852858e+000 4.587370e-001 1.489091e+000 -1.978942e+000 6.470720e+001 -1.866603e-001 -3.384511e-003 -1.718588e-001 1.502841e-002 1.511284e-001 1.415489e-001 2.167352e-001 -5.584375e-002 1.401258e-001 -1.690520e-002 -2.416908e-002 6.479163e-002 -4.326033e-001 -1.128450e-002 -2.685196e-003 -2.680166e-002 1.834008e-002 4.678042e-002 9.531669e-004 9.444505e-003 -3.173206e-003 3.349526e-002 7.972071e-003 -1.645484e-002 3.571089e-003 -2.731806e-002
<VARIANCE> 39
 2.840087e+001 2.433454e+001 6.265597e+001 3.679355e+001 7.471722e+001 5.227880e+001 6.981474e+001 5.826289e+001 5.792703e+001 5.085612e+001 4.198652e+001 3.541517e+001 1.794998e+002 1.230707e+000 1.759863e+000 1.844220e+000 1.624361e+000 2.722104e+000 1.982373e+000 2.441952e+000 2.258573e+000 2.615868e+000 2.059806e+000 1.744149e+000 1.526798e+000 3.090741e+000 2.285582e-001 3.153361e-001 2.938755e-001 2.887384e-001 4.362614e-001 3.665526e-001 4.201632e-001 3.539148e-001 4.871455e-001 3.873068e-001 2.994989e-001 2.740641e-001 4.157577e-001
<GCONST> 1.181965e+002
<TRANSP> 5
 0.000000e+000 1.000000e+000 0.000000e+000 0.000000e+000 0.000000e+000
 0.000000e+000 9.078119e-001 9.218803e-002 0.000000e+000 0.000000e+000
 0.000000e+000 0.000000e+000 8.995460e-001 1.004540e-001 0.000000e+000
 0.000000e+000 0.000000e+000 0.000000e+000 9.856523e-001 1.434765e-002
 0.000000e+000 0.000000e+000 0.000000e+000 0.000000e+000 0.000000e+000
<ENDHMM>
~h "dwaesseubnida"
<BEGINHMM>
<NUMSTATES> 5
<STATE> 2
<MEAN> 39
 -1.796298e+001 8.397530e-001 -1.516408e+000 -1.994203e-002 -4.985445e-001 2.578831e-001 -1.934246e-001 2.741985e-001 -8.989320e-001 8.029072e-001 2.069869e-002 9.216753e-001 4.418523e+001 -1.420101e-002 -3.988185e-002 -7.569006e-003 -6.701922e-002 1.031387e-001 8.487310e-002 7.811219e-003 8.306997e-002 -9.765843e-002 -1.022962e-001 2.662124e-002 -1.008591e-001 5.259302e-002 -5.862272e-003 -6.845628e-002 6.427538e-003 -2.068812e-001 -3.623039e-002 -1.378796e-001 -7.091022e-003 -1.957480e-002 -2.839761e-002 -3.761999e-003 3.440125e-002 6.073841e-002 2.976192e-001
<VARIANCE> 39
 3.035143e+000 4.089932e+000 5.891578e+000 9.855962e+000 1.096269e+001 1.142792e+001 1.689976e+001 1.350211e+001 1.389036e+001 1.507486e+001 1.232329e+001 8.932644e+000 7.062674e+000 2.672907e-001 4.992136e-001 6.202419e-001 1.145197e+000 1.257985e+000 1.038384e+000 1.426515e+000 1.291479e+000 1.400216e+000 1.562399e+000 1.246922e+000 8.585251e-001 2.900200e-001 5.582093e-002 1.305321e-001 1.395584e-001 3.180389e-001 2.138492e-001 2.002781e-001 2.629580e-001 2.525706e-001 2.703998e-001 3.145005e-001 2.407082e-001 2.183206e-001 4.814085e-001
<GCONST> 7.861314e+001
<STATE> 3
<MEAN> 39
 -1.752051e+001 -2.343644e+000 -9.028403e-001 -5.696304e+000 -1.206236e+000 -6.370160e+000 -6.628866e-001 1.469276e+000 -2.055311e+000 1.406043e+000 -1.068374e-001 3.077062e+000 5.992581e+001 8.556449e-001 -4.038821e-001 5.804689e-001 -2.458802e-001 -6.710691e-001 -1.368556e+000 -1.854668e-001 6.862875e-001 -2.929678e-001 2.209148e-001 -5.055274e-001 2.139256e-001 3.448208e+000 4.258635e-001 2.040991e-001 2.002679e-001 3.111912e-001 -2.588467e-001 2.075601e-002 -2.225238e-001 1.063146e-001 -5.468425e-002 2.636639e-002 -1.128644e-001 -2.469244e-001 -1.783602e-001
<VARIANCE> 39
 9.964940e+000 2.165164e+001 1.478406e+001 4.514288e+001 2.273080e+001 3.295954e+001 2.165968e+001 2.579898e+001 1.957281e+001 2.078960e+001 1.916969e+001 2.499437e+001 1.517240e+002 3.157007e+000 2.720714e+000 2.566555e+000 8.809108e+000 3.409138e+000 3.803280e+000 2.972246e+000 2.842151e+000 2.847448e+000 3.199895e+000 1.942405e+000 4.668866e+000 1.370763e+001 3.892206e-001 4.918270e-001 4.130237e-001 1.647895e+000 6.388332e-001 8.086153e-001 5.122474e-001 5.684101e-001 4.667996e-001 6.111349e-001 3.681686e-001 7.924749e-001 3.141078e+000
<GCONST> 1.254257e+002
<STATE> 4
<MEAN> 39
 -1.080310e+001 9.686660e-001 -5.968852e-001 -3.880534e+000 -2.645517e+000 -3.623236e+000 -3.240686e+000 3.917378e-001 -2.445759e+000 -2.086089e-001 -3.832689e+000 -2.882752e+000 6.435861e+001 -7.078636e-002 3.680376e-002 -6.591100e-002 3.078973e-002 6.438842e-002 1.167226e-001 4.862264e-003 -6.830809e-002 2.055791e-002 -4.056907e-002 3.556020e-002 -2.700133e-002 -3.113387e-001 -3.639397e-002 -1.051736e-002 -2.069193e-002 -7.675933e-003 2.732150e-002 7.060009e-003 1.819254e-002 -1.119156e-002 6.835665e-003 -4.810561e-003 1.114116e-002 1.385372e-002 -1.604505e-002
<VARIANCE> 39
 8.685435e+001 3.687809e+001 7.403973e+001 4.288463e+001 8.190033e+001 6.013960e+001 3.792015e+001 5.233085e+001 4.859341e+001 2.986201e+001 4.007267e+001 4.531960e+001 1.308682e+002 4.749039e+000 1.947188e+000 2.979040e+000 3.007164e+000 3.850680e+000 2.879694e+000 2.948934e+000 3.146703e+000 2.822556e+000 2.063496e+000 2.497318e+000 2.412555e+000 3.075230e+000 6.515391e-001 3.140808e-001 4.508120e-001 5.245752e-001 6.426884e-001 5.289735e-001 5.482615e-001 5.512763e-001 4.816207e-001 3.921793e-001 4.380463e-001 4.306475e-001 4.709142e-001
<GCONST> 1.279067e+002
<TRANSP> 5
 0.000000e+000 1.000000e+000 0.000000e+000 0.000000e+000 0.000000e+000
 0.000000e+000 8.868835e-001 1.131165e-001 0.000000e+000 0.000000e+000
 0.000000e+000 0.000000e+000 8.658723e-001 1.341276e-001 0.000000e+000
 0.000000e+000 0.000000e+000 0.000000e+000 9.882772e-001 1.172278e-002
 0.000000e+000 0.000000e+000 0.000000e+000 0.000000e+000 0.000000e+000
<ENDHMM>
~h "yadangui"
<BEGINHMM>
<NUMSTATES> 5
<STATE> 2
<MEAN> 39
 -1.851580e+001 1.856390e+000 -1.591030e-001 -2.001059e+000 -1.147680e+000 -8.221566e-001 -5.407998e-001 4.313484e-001 -3.581299e+000 4.088429e-001 -8.416209e-001 -4.302656e-001 4.459391e+001 -4.274082e-002 2.890093e-001 5.977781e-001 -4.130306e-001 -2.363074e-002 -4.230801e-002 -2.157781e-001 2.480133e-001 -4.476230e-001 2.185933e-001 -3.667235e-003 -5.856780e-002 4.914674e-001 1.949951e-001 1.480362e-001 2.317263e-001 4.037725e-004 -7.806758e-002 -2.137561e-002 -7.977188e-002 8.154581e-002 -3.319712e-002 1.660070e-003 -3.229533e-002 1.858963e-002 2.628951e-001
<VARIANCE> 39
 5.977403e+000 5.494592e+000 1.156915e+001 1.805109e+001 2.335680e+001 1.191692e+001 1.594610e+001 2.068890e+001 1.829085e+001 1.520609e+001 1.388537e+001 1.580722e+001 1.340059e+001 5.698581e-001 8.148591e-001 1.316397e+000 2.078645e+000 1.687322e+000 1.424536e+000 1.850820e+000 2.119357e+000 1.453242e+000 1.211666e+000 1.448506e+000 1.596676e+000 5.990708e-001 1.905726e-001 1.267124e-001 1.799473e-001 3.086568e-001 2.666531e-001 3.598866e-001 3.778845e-001 3.936363e-001 2.877121e-001 1.941439e-001 2.746189e-001 3.054188e-001 2.262841e-001
<GCONST> 9.121518e+001
<STATE> 3
<MEAN> 39
 -5.748996e+000 -1.829503e+000 -7.158291e-001 -7.773220e+000 -3.970563e+000 -6.362518e+000 -5.317418e+000 4.594570e+000 -4.151453e-001 5.740632e-001 -7.366107e+000 -4.556338e+000 7.246532e+001 4.458415e-001 -2.517515e-001 -1.725772e-001 -1.114255e-001 -9.712603e-002 -1.126616e-001 -1.421887e-001 4.853502e-002 1.418603e-001 4.238033e-002 -2.100906e-001 -2.653655e-001 8.276030e-001 -4.746972e-002 -3.389067e-002 -3.428153e-002 1.979636e-003 5.267776e-003 3.194834e-002 4.175219e-002 -5.188810e-002 -1.136316e-002 5.956306e-003 1.908736e-002 3.004815e-004 -9.854200e-002
<VARIANCE> 39
 2.574773e+001 5.002711e+001 6.352609e+001 4.279267e+001 6.310343e+001 5.885304e+001 4.619339e+001 4.886896e+001 5.112568e+001 3.382242e+001 5.615686e+001 4.556330e+001 9.803454e+001 2.762623e+000 4.232368e+000 4.376916e+000 3.162687e+000 4.524259e+000 3.832325e+000 3.793025e+000 4.030572e+000 3.410503e+000 2.868823e+000 3.727253e+000 3.133380e+000 1.076573e+001 4.851258e-001 6.464325e-001 7.387139e-001 5.794014e-001 7.641883e-001 7.334557e-001 7.008424e-001 6.795018e-001 6.375837e-001 5.766367e-001 6.735762e-001 5.735393e-001 1.539392e+000
<GCONST> 1.355080e+002
<STATE> 4
<MEAN> 39
 -9.045939e+000 2.469128e+000 5.342001e+000 -4.587797e+000 -8.700485e+000 -1.441347e+000 -3.267137e+000 -2.969221e-001 -6.529494e+000 1.888775e+000 -9.814553e-001 -4.101319e+000 6.026971e+001 -2.712294e-001 1.071720e-001 -8.720053e-003 1.609215e-001 7.691450e-002 9.613263e-002 1.204479e-001 -9.444513e-002 1.982545e-003 -7.440066e-002 1.641554e-001 1.914451e-001 -6.247723e-001 3.483716e-004 -7.145674e-004 -2.200406e-002 3.758779e-003 2.149319e-002 -7.971100e-003 -1.131288e-002 2.202936e-002 1.576656e-002 -1.071132e-002 -6.896670e-003 7.367192e-003 1.089302e-002
<VARIANCE> 39
 3.729212e+001 2.297697e+001 7.571462e+001 3.738039e+001 5.457249e+001 6.097565e+001 5.139091e+001 5.483141e+001 4.977987e+001 3.800665e+001 4.820985e+001 4.421973e+001 1.561869e+002 3.192816e-001 9.517010e-001 2.071126e+000 1.344614e+000 2.220063e+000 1.989872e+000 2.252697e+000 2.237578e+000 2.162730e+000 1.815546e+000 1.855737e+000 1.469407e+000 6.621015e-001 4.587395e-002 1.301073e-001 2.221032e-001 2.249925e-001 3.371167e-001 2.928764e-001 3.651887e-001 3.523307e-001 3.640877e-001 3.214720e-001 3.090606e-001 2.531482e-001 4.753257e-002
<GCONST> 1.073652e+002
<TRANSP> 5
 0.000000e+000 1.000000e+000 0.000000e+000 0.000000e+000 0.000000e+000
 0.000000e+000 8.971288e-001 1.028712e-001 0.000000e+000 0.000000e+000
 0.000000e+000 0.000000e+000 9.700512e-001 2.994880e-002 0.000000e+000
 0.000000e+000 0.000000e+000 0.000000e+000 9.805216e-001 1.947845e-002
 0.000000e+000 0.000000e+000 0.000000e+000 0.000000e+000 0.000000e+000
<ENDHMM>
~h "yokeondae"
<BEGINHMM>
<NUMSTATES> 5
<STATE> 2
<MEAN> 39
 -1.804887e+001 1.512807e+000 -6.827332e-001 -1.170308e+000 -1.871241e+000 -8.449337e-001 -1.164793e+000 -3.945847e-001 -1.638763e+000 -5.126902e-001 -3.337063e-001 3.299094e-001 4.419545e+001 2.442128e-002 9.338403e-002 4.899411e-001 -5.271068e-002 -1.249823e-002 1.537607e-001 -1.148252e-001 9.012621e-002 -3.122273e-001 1.952285e-001 7.501731e-002 -4.794481e-002 2.457509e-001 9.096277e-002 6.501726e-002 2.716095e-001 -2.171564e-003 -1.124754e-001 -4.250549e-003 -2.678864e-002 -1.525163e-002 -7.600699e-002 1.405733e-002 -1.405063e-002 -5.355851e-002 2.233258e-001
<VARIANCE> 39
 4.657407e+000 5.031981e+000 1.212481e+001 1.408500e+001 1.420183e+001 1.766385e+001 1.554274e+001 1.307349e+001 1.382286e+001 1.418053e+001 1.363034e+001 1.376015e+001 8.620251e+000 3.567769e-001 4.519632e-001 1.486853e+000 1.378028e+000 1.495455e+000 1.497905e+000 1.563200e+000 1.485383e+000 1.360028e+000 1.847194e+000 1.510797e+000 1.588426e+000 3.136634e-001 1.111893e-001 1.150831e-001 3.712487e-001 3.182205e-001 3.595963e-001 3.065502e-001 4.055085e-001 3.236743e-001 2.271302e-001 3.226578e-001 2.645588e-001 3.193717e-001 1.679737e-001
<GCONST> 8.705711e+001
<STATE> 3
<MEAN> 39
 -6.320331e+000 2.759644e+000 7.495413e-001 -5.850535e+000 -5.631991e+000 -1.328305e+000 -7.023030e+000 -2.483700e+000 -6.753333e+000 1.642746e+000 -1.597530e+000 -2.729527e+000 6.458775e+001 2.486250e-001 -7.945852e-002 4.801834e-002 -8.819856e-002 -2.276402e-001 -2.422277e-001 -1.065768e-001 1.062194e-001 1.790031e-002 3.333340e-003 8.630658e-003 -2.427017e-002 6.070164e-001 -5.559683e-003 -2.640097e-002 -3.545788e-002 -1.288860e-002 -1.112072e-002 -4.073402e-003 2.373485e-002 2.710511e-002 1.117333e-002 6.350161e-003 4.020585e-003 -7.260708e-003 -3.123964e-002
<VARIANCE> 39
 4.075818e+001 2.937507e+001 1.083863e+002 7.538399e+001 7.406223e+001 6.310125e+001 5.503032e+001 6.392503e+001 4.697501e+001 4.146516e+001 5.265570e+001 4.044976e+001 1.023835e+002 3.631672e+000 3.335861e+000 7.395535e+000 6.654533e+000 6.428236e+000 5.385794e+000 5.135564e+000 6.045826e+000 4.830673e+000 4.098455e+000 4.488476e+000 3.155747e+000 9.897904e+000 5.562208e-001 5.891730e-001 1.226293e+000 1.265326e+000 1.134056e+000 1.041263e+000 9.070680e-001 1.136805e+000 9.476023e-001 7.739221e-001 8.734457e-001 5.781545e-001 1.384454e+000
<GCONST> 1.444075e+002
<STATE> 4
<MEAN> 39
 -1.068741e+001 -8.702104e-001 1.470980e+000 -2.465993e+000 -7.357604e+000 -5.246088e+000 3.319375e-001 5.163498e+000 -3.079257e+000 -6.006010e-001 -1.624520e+000 -9.602041e-001 5.877447e+001 -3.214619e-001 6.441489e-002 -1.915295e-001 1.434740e-001 3.255333e-001 3.030113e-001 1.499657e-001 -1.378902e-001 3.607892e-002 -3.310074e-002 -1.850575e-002 8.049665e-002 -8.479615e-001 -1.364629e-002 2.117973e-002 -1.618046e-002 2.142504e-003 2.021294e-002 -9.047134e-003 -7.198413e-003 -1.875557e-002 -6.773417e-003 -1.204734e-002 8.002163e-003 2.812839e-002 -1.249802e-002
<VARIANCE> 39
 2.975171e+001 1.697475e+001 3.814489e+001 3.020163e+001 5.779759e+001 6.288412e+001 4.519920e+001 4.826427e+001 3.778848e+001 3.672206e+001 4.188087e+001 3.582165e+001 1.831027e+002 3.255616e-001 8.046716e-001 1.307432e+000 1.495838e+000 1.477059e+000 1.870058e+000 2.610782e+000 2.005216e+000 1.931418e+000 1.931939e+000 1.385352e+000 1.446508e+000 9.021850e-001 5.050125e-002 1.330906e-001 1.986504e-001 2.452438e-001 2.539934e-001 3.201459e-001 4.204811e-001 3.364616e-001 3.613754e-001 3.581276e-001 2.363793e-001 2.707275e-001 6.587017e-002
<GCONST> 1.045045e+002
<TRANSP> 5
 0.000000e+000 1.000000e+000 0.000000e+000 0.000000e+000 0.000000e+000
 0.000000e+000 8.850812e-001 1.149188e-001 0.000000e+000 0.000000e+000
 0.000000e+000 0.000000e+000 9.799537e-001 2.004626e-002 0.000000e+000
 0.000000e+000 0.000000e+000 0.000000e+000 9.738996e-001 2.610040e-002
 0.000000e+000 0.000000e+000 0.000000e+000 0.000000e+000 0.000000e+000
<ENDHMM>
~h "chungwadae"
<BEGINHMM>
<NUMSTATES> 5
<STATE> 2
<MEAN> 39
 -1.840707e+001 1.191243e+000 -1.250706e+000 -1.875718e+000 6.899472e-002 -1.044113e+000 -7.910231e-001 4.674931e-001 -1.205755e+000 6.456091e-001 3.946676e-001 1.500175e+000 4.563535e+001 -3.492640e-001 -2.113377e-001 3.612808e-002 -6.729665e-001 9.241914e-002 -2.565477e-001 -1.684597e-001 1.517681e-001 -2.206255e-001 1.970839e-001 1.034920e-001 -1.203838e-001 1.195226e+000 -1.910881e-001 -6.853347e-002 -7.372613e-002 -2.129075e-001 3.898836e-002 -1.807677e-002 -8.085500e-002 4.677439e-002 1.584682e-002 -1.505138e-002 8.104085e-003 -1.740331e-002 5.012298e-001
<VARIANCE> 39
 9.607724e+000 1.457812e+001 1.118955e+001 2.251274e+001 2.166563e+001 2.318402e+001 2.816307e+001 2.089114e+001 1.844299e+001 1.860853e+001 1.415937e+001 1.589375e+001 3.578931e+001 1.348461e+000 2.130510e+000 1.743791e+000 3.311498e+000 2.230974e+000 2.183373e+000 3.315041e+000 2.046965e+000 2.093035e+000 2.105411e+000 1.170249e+000 1.460768e+000 5.862983e+000 2.839437e-001 3.550030e-001 3.164645e-001 4.686046e-001 4.125816e-001 3.929291e-001 5.793779e-001 4.083402e-001 4.237221e-001 3.687116e-001 2.128668e-001 2.805868e-001 6.924789e-001
<GCONST> 1.071661e+002
<STATE> 3
<MEAN> 39
 -7.167975e+000 -1.442206e+000 -3.695533e+000 -1.048237e+001 -4.292988e+000 -4.561720e-002 -4.926919e+000 -5.991360e-002 -1.975710e+000 3.646850e-002 -4.332413e+000 -3.758507e+000 7.224360e+001 3.741006e-001 -3.659027e-002 1.816919e-001 3.106801e-002 -3.354595e-001 -2.570167e-001 -1.235287e-001 1.060927e-001 -1.275840e-002 -4.687683e-003 -8.967023e-002 -5.793549e-002 4.989811e-001 6.345201e-002 -7.822021e-003 2.948929e-002 4.966564e-002 -3.761869e-002 2.276841e-002 2.535441e-002 2.520215e-002 -5.653855e-004 -2.406517e-003 6.873477e-003 -8.577088e-003 -1.195599e-001
<VARIANCE> 39
 9.473646e+001 3.643252e+001 3.781172e+001 5.257648e+001 7.767599e+001 8.725407e+001 4.137157e+001 4.527904e+001 4.554318e+001 3.492565e+001 4.842031e+001 5.438167e+001 5.416089e+001 4.534742e+000 3.552115e+000 2.823038e+000 3.725305e+000 5.722749e+000 5.333673e+000 3.810384e+000 4.623359e+000 3.880431e+000 3.082599e+000 4.083764e+000 3.647320e+000 7.780694e+000 6.902267e-001 6.392249e-001 4.751246e-001 6.625955e-001 9.087694e-001 9.370616e-001 7.486107e-001 8.464340e-001 7.554916e-001 5.839333e-001 7.444749e-001 6.785031e-001 1.343670e+000
<GCONST> 1.378724e+002
<STATE> 4
<MEAN> 39
 -1.100512e+001 -1.384958e+000 1.573576e+000 -3.091107e+000 -6.373750e+000 -5.517363e+000 -9.659659e-001 5.669239e+000 -2.563414e+000 -6.143475e-001 -2.331726e+000 -8.339748e-001 6.023909e+001 -3.064705e-001 9.137536e-002 -1.911420e-001 1.835681e-001 3.152192e-001 3.140092e-001 1.879950e-001 -1.650189e-001 6.835916e-002 -1.973156e-002 7.685086e-002 8.126175e-002 -8.891355e-001 -1.683449e-002 2.779927e-002 -1.805479e-002 1.084561e-002 3.544668e-002 -9.097562e-003 -2.752239e-003 -4.787599e-002 7.721025e-003 2.073542e-003 2.397757e-003 1.383481e-002 -2.011140e-002
<VARIANCE> 39
 2.993438e+001 1.383739e+001 3.660628e+001 3.500121e+001 6.480523e+001 5.630463e+001 5.028699e+001 4.383671e+001 3.515614e+001 3.501944e+001 4.204598e+001 3.531818e+001 2.033125e+002 4.097565e-001 8.675413e-001 1.240922e+000 1.621641e+000 1.940463e+000 1.824044e+000 2.581789e+000 1.958595e+000 1.575285e+000 1.418799e+000 1.676207e+000 1.295753e+000 9.389836e-001 6.344786e-002 1.514510e-001 2.068485e-001 2.866853e-001 3.495046e-001 3.303289e-001 4.283295e-001 3.368137e-001 2.955830e-001 2.467657e-001 2.970603e-001 2.292964e-001 8.805411e-002
<GCONST> 1.052601e+002
<TRANSP> 5
 0.000000e+000 1.000000e+000 0.000000e+000 0.000000e+000 0.000000e+000
 0.000000e+000 9.105788e-001 8.942115e-002 0.000000e+000 0.000000e+000
 0.000000e+000 0.000000e+000 9.755930e-001 2.440703e-002 0.000000e+000
 0.000000e+000 0.000000e+000 0.000000e+000 9.742568e-001 2.574322e-002
 0.000000e+000 0.000000e+000 0.000000e+000 0.000000e+000 0.000000e+000
<ENDHMM>
~h "computer"
<BEGINHMM>
<NUMSTATES> 5
<STATE> 2
<MEAN> 39
 -1.806334e+001 8.304617e-001 -1.666677e+000 3.726132e-001 -1.338238e-001 1.086394e-001 -1.129223e-001 -7.099568e-001 -8.500714e-001 4.480176e-001 -5.419570e-001 1.261371e-001 4.423368e+001 -2.666940e-003 1.544012e-002 -2.994150e-002 -4.688940e-002 1.446778e-002 1.037868e-001 -7.675211e-002 -2.301783e-001 7.269211e-002 1.863076e-001 1.083305e-001 9.468885e-002 6.004925e-002 2.137197e-002 -9.914490e-004 -1.800191e-001 -1.828787e-001 1.218690e-001 -5.885444e-002 -1.158674e-001 -2.360274e-002 -1.002477e-001 9.910376e-002 -3.991529e-002 -5.477347e-002 2.620243e-001
<VARIANCE> 39
 3.444839e+000 5.710728e+000 6.543306e+000 7.135411e+000 1.342017e+001 1.582024e+001 1.236670e+001 1.285619e+001 1.607757e+001 1.603980e+001 1.368477e+001 1.063006e+001 8.483959e+000 2.143086e-001 4.847523e-001 5.302573e-001 6.386955e-001 1.325287e+000 1.404328e+000 1.310895e+000 1.296480e+000 1.738540e+000 1.493057e+000 1.801975e+000 1.516435e+000 2.913047e-001 7.311095e-002 1.204108e-001 2.865434e-001 2.524545e-001 3.285126e-001 2.698499e-001 2.832741e-001 2.672992e-001 3.529276e-001 3.254998e-001 3.276542e-001 2.588776e-001 3.767874e-001
<GCONST> 8.215761e+001
<STATE> 3
<MEAN> 39
