~o
<STREAMINFO> 1 39
<VECSIZE> 39<NULLD><MFCC_D_A_0><DIAGC>
~h "dangnyobyung"
<BEGINHMM>
<NUMSTATES> 5
<STATE> 2
<MEAN> 39
 -1.800805e+001 1.073539e+000 -1.720324e+000 4.365464e-002 -8.042583e-001 -4.384471e-001 -4.853830e-001 -3.587621e-001 -1.314658e+000 3.112447e-001 -3.695014e-001 5.079841e-001 4.370458e+001 -7.412210e-002 -2.754934e-001 -1.858126e-001 -2.605734e-001 -1.481960e-002 -1.303744e-001 2.641432e-001 1.817140e-001 -6.393404e-002 -1.281104e-001 -1.242118e-001 -6.228621e-002 8.789054e-001 -2.209920e-002 -1.209029e-001 -9.825475e-002 -1.443589e-001 5.212636e-002 -1.317279e-001 -3.002288e-002 2.046814e-003 1.485880e-001 1.091621e-001 4.315455e-002 8.905847e-002 5.309175e-001
<VARIANCE> 39
 3.215916e+000 4.342388e+000 6.446140e+000 9.681363e+000 9.892560e+000 1.552054e+001 1.131671e+001 1.407215e+001 1.478919e+001 1.668809e+001 1.215944e+001 1.232468e+001 8.213152e+000 6.791348e-001 7.591024e-001 1.088489e+000 1.569194e+000 1.012570e+000 1.872068e+000 1.254298e+000 1.714240e+000 2.091340e+000 2.320863e+000 1.734518e+000 1.552620e+000 4.343623e+000 1.118573e-001 1.372742e-001 2.049108e-001 2.285039e-001 1.739415e-001 3.454090e-001 2.274788e-001 3.166206e-001 3.861325e-001 4.251051e-001 3.127747e-001 2.813876e-001 8.102386e-001
<GCONST> 8.936469e+001
<STATE> 3
<MEAN> 39
 -1.423155e+001 -4.862000e+000 -6.355521e+000 -5.123696e+000 3.074811e+000 -2.636640e+000 1.076864e+000 1.482298e+000 8.475169e-001 1.178364e+000 -3.656846e+000 -1.501156e+000 6.661201e+001 1.521745e+000 -1.182830e-001 -8.660503e-002 -5.127486e-001 3.600720e-001 -2.123964e-002 -4.344873e-001 5.430002e-002 -2.914393e-001 2.782749e-001 -5.640339e-001 -7.793362e-001 1.936115e+000 1.622267e-001 2.061003e-001 2.936991e-001 8.720113e-002 -2.700822e-001 9.232992e-002 -1.627175e-001 -1.375168e-001 -2.334093e-001 8.486949e-002 -3.643091e-002 -5.497449e-002 -5.279851e-001
<VARIANCE> 39
 5.334083e+001 2.406482e+001 1.861094e+001 3.662168e+001 3.787061e+001 4.748671e+001 3.180663e+001 3.579974e+001 3.762254e+001 2.028067e+001 3.904151e+001 4.796283e+001 7.740412e+001 3.228124e+000 3.438959e+000 3.204420e+000 4.011269e+000 4.574902e+000 5.172640e+000 3.817312e+000 4.151109e+000 4.679153e+000 2.994398e+000 4.899995e+000 4.441767e+000 9.911761e+000 6.681206e-001 6.225899e-001 5.805254e-001 9.255961e-001 1.020629e+000 1.026445e+000 6.001266e-001 8.793445e-001 7.951176e-001 6.566165e-001 1.000868e+000 9.013466e-001 1.418535e+000
<GCONST> 1.348199e+002
<STATE> 4
<MEAN> 39
 -7.231134e+000 4.481001e-001 6.994734e-001 -3.596732e+000 -5.433091e+000 -7.291760e-001 -4.416455e+000 -9.837543e-001 -4.156361e+000 -1.828218e-002 -2.624225e+000 -2.321332e+000 6.054885e+001 -1.879277e-001 4.382553e-002 1.842198e-002 9.990930e-002 -4.980139e-002 2.981142e-002 3.274480e-002 -2.112070e-002 3.269314e-002 -3.060669e-002 8.939020e-002 8.822095e-002 -3.575560e-001 -1.695879e-002 -1.155711e-002 -2.400562e-002 9.015803e-003 3.257955e-002 2.449707e-003 1.339614e-002 1.059587e-002 2.353478e-002 -1.132093e-002 5.400828e-003 -1.724850e-003 -1.540006e-003
<VARIANCE> 39
 5.126800e+001 2.450251e+001 4.776382e+001 4.215181e+001 5.482013e+001 5.933685e+001 5.015214e+001 4.650381e+001 3.692999e+001 4.081932e+001 5.021037e+001 4.398959e+001 1.583497e+002 1.785892e+000 1.699209e+000 3.411131e+000 2.778011e+000 4.034001e+000 3.433040e+000 3.008239e+000 3.491857e+000 3.009241e+000 2.981878e+000 3.225332e+000 2.615369e+000 4.592507e+000 2.626567e-001 2.862649e-001 5.254079e-001 4.890316e-001 6.336265e-001 5.829408e-001 5.333935e-001 6.125366e-001 5.740103e-001 5.710315e-001 6.251941e-001 4.776482e-001 4.783320e-001
<GCONST> 1.274129e+002
<TRANSP> 5
 0.000000e+000 1.000000e+000 0.000000e+000 0.000000e+000 0.000000e+000
 0.000000e+000 9.001646e-001 9.983543e-002 0.000000e+000 0.000000e+000
 0.000000e+000 0.000000e+000 9.039717e-001 9.602825e-002 0.000000e+000
 0.000000e+000 0.000000e+000 0.000000e+000 9.874953e-001 1.250470e-002
 0.000000e+000 0.000000e+000 0.000000e+000 0.000000e+000 0.000000e+000
<ENDHMM>
~h "nuwoseo"
<BEGINHMM>
<NUMSTATES> 5
<STATE> 2
<MEAN> 39
 -1.752575e+001 1.625613e+000 -2.351801e-001 7.939574e-001 -1.423784e+000 -5.411865e-001 -1.645474e+000 -1.870757e+000 -2.206290e+000 2.246560e-001 -1.135715e+000 -5.388712e-001 4.439029e+001 9.420927e-002 2.989701e-001 4.729369e-001 3.857313e-001 -1.670247e-002 1.474031e-001 2.930992e-002 -1.743441e-001 -3.252943e-002 -1.352835e-001 -2.289090e-001 -3.403301e-001 1.848533e-001 1.439713e-001 1.295582e-001 1.466214e-001 -7.416204e-003 3.998726e-003 6.427956e-002 -1.355492e-002 3.589075e-002 3.096409e-002 -1.959327e-002 -2.452988e-003 -1.523629e-002 1.732448e-001
<VARIANCE> 39
 4.104138e+000 6.781570e+000 7.159744e+000 9.545689e+000 1.508066e+001 1.197915e+001 1.547706e+001 1.494415e+001 1.372466e+001 1.436364e+001 1.861659e+001 1.277446e+001 8.544699e+000 8.603932e-001 1.316101e+000 8.182465e-001 1.323948e+000 1.310576e+000 1.365335e+000 1.736915e+000 1.640079e+000 1.699205e+000 1.556082e+000 1.949067e+000 1.457596e+000 2.380222e-001 1.644449e-001 2.191503e-001 1.463822e-001 2.722009e-001 2.584215e-001 2.402201e-001 3.630714e-001 2.455955e-001 3.114425e-001 3.049417e-001 3.916683e-001 2.713147e-001 1.216258e-001
<GCONST> 8.673776e+001
<STATE> 3
<MEAN> 39
 -9.776806e+000 5.124226e+000 5.168044e+000 -1.764114e+000 -1.928209e+000 -1.593635e+000 -6.426026e+000 -5.386843e+000 -4.609173e+000 -2.313707e-001 -9.444054e-001 -3.544317e+000 5.943166e+001 1.343667e+000 2.754944e-001 -2.079678e-001 -1.124633e+000 -2.444757e-001 1.513384e-001 -8.766654e-001 -9.168008e-001 -1.021650e+000 -1.635036e-001 8.287860e-001 -1.142368e-001 2.291746e+000 4.572047e-002 -1.917721e-002 -2.381883e-001 -1.777016e-001 -1.760396e-001 1.410654e-001 1.608123e-001 2.837484e-002 -1.610757e-001 -1.695771e-001 4.140520e-002 1.076314e-001 -1.643556e-001
<VARIANCE> 39
 5.474080e+001 3.887871e+001 2.805557e+001 4.931129e+001 3.684707e+001 4.996186e+001 5.580510e+001 5.124191e+001 4.221386e+001 2.687242e+001 3.925271e+001 2.785955e+001 1.183952e+002 4.893426e+000 4.205468e+000 4.394654e+000 4.797082e+000 5.431342e+000 6.264367e+000 6.403886e+000 4.840667e+000 3.806668e+000 4.035305e+000 4.684692e+000 2.945539e+000 7.041051e+000 1.003655e+000 8.252250e-001 7.089248e-001 9.815255e-001 1.118471e+000 1.178812e+000 1.361653e+000 1.155160e+000 6.796589e-001 8.535927e-001 9.568719e-001 5.374932e-001 1.446527e+000
<GCONST> 1.405341e+002
<STATE> 4
<MEAN> 39
 -7.462659e+000 2.244908e+000 -4.170595e+000 -1.146707e+001 -2.925105e+000 4.610818e+000 -3.756441e+000 -2.057261e+000 -4.269096e+000 2.166385e-001 1.388860e+000 -2.886365e+000 6.424654e+001 -2.143914e-001 -7.754219e-002 -2.811092e-002 1.350365e-001 4.611985e-002 -3.020294e-002 1.312709e-001 1.488365e-001 1.646134e-001 3.220557e-002 -8.587817e-002 5.755859e-002 -3.619434e-001 -1.753171e-002 -1.069116e-002 1.472886e-002 2.358685e-002 2.451988e-002 -2.430482e-002 -1.494037e-002 -3.263908e-003 2.402510e-002 2.780232e-002 -2.757945e-003 -1.078226e-002 3.262473e-003
<VARIANCE> 39
 9.921468e+001 2.720769e+001 2.251007e+001 8.733552e+001 6.212690e+001 6.616358e+001 6.025298e+001 3.962989e+001 5.237991e+001 5.208682e+001 5.900856e+001 4.074418e+001 1.452415e+002 4.176073e+000 1.295472e+000 1.334485e+000 3.113667e+000 2.592990e+000 3.194941e+000 3.322915e+000 2.306842e+000 2.267722e+000 2.579556e+000 2.683492e+000 2.042779e+000 9.782150e-001 4.861263e-001 2.150102e-001 2.265418e-001 3.811829e-001 3.573795e-001 4.485504e-001 5.562394e-001 4.018316e-001 3.804646e-001 3.985898e-001 4.664763e-001 3.399130e-001 9.506188e-002
<GCONST> 1.205278e+002
<TRANSP> 5
 0.000000e+000 1.000000e+000 0.000000e+000 0.000000e+000 0.000000e+000
 0.000000e+000 8.811814e-001 1.188187e-001 0.000000e+000 0.000000e+000
 0.000000e+000 0.000000e+000 9.057887e-001 9.421127e-002 0.000000e+000
 0.000000e+000 0.000000e+000 0.000000e+000 9.864351e-001 1.356496e-002
 0.000000e+000 0.000000e+000 0.000000e+000 0.000000e+000 0.000000e+000
<ENDHMM>
~h "teukyereul"
<BEGINHMM>
<NUMSTATES> 5
<STATE> 2
<MEAN> 39
 -1.831351e+001 7.357635e-001 -1.529397e+000 9.136959e-001 -4.542610e-002 6.337670e-001 -1.476809e-001 -3.959619e-001 -1.347770e+000 -4.985840e-001 -1.523510e-001 3.718554e-001 4.362082e+001 6.559344e-002 2.843696e-003 -9.343094e-002 -3.078620e-001 -1.047544e-001 -2.238618e-001 -2.616772e-002 -3.398475e-002 -4.924817e-002 -1.980993e-001 -2.711529e-002 1.330443e-001 6.234894e-001 -7.843065e-003 -1.361165e-001 -7.026903e-002 -1.380412e-001 -1.357767e-002 -1.516078e-001 1.414934e-002 2.830559e-002 2.684241e-002 7.029358e-002 2.971957e-002 4.580709e-002 5.651402e-001
<VARIANCE> 39
 2.597208e+000 5.874346e+000 6.395995e+000 7.701976e+000 9.918736e+000 1.040303e+001 1.072191e+001 1.378587e+001 1.254153e+001 1.269191e+001 1.345884e+001 1.029180e+001 9.686539e+000 2.871490e-001 9.461001e-001 8.391774e-001 1.547717e+000 1.340009e+000 1.026134e+000 1.470647e+000 1.680974e+000 1.277270e+000 1.445397e+000 1.496783e+000 1.445848e+000 4.301453e+000 4.002197e-002 1.097743e-001 1.313081e-001 2.393853e-001 2.364215e-001 2.338666e-001 2.997912e-001 3.352323e-001 2.291612e-001 2.876540e-001 2.885217e-001 2.773390e-001 8.573024e-001
<GCONST> 8.375040e+001
<STATE> 3
<MEAN> 39
 -1.517824e+001 -7.974501e-001 3.226257e+000 -2.884531e+000 -5.630715e+000 -6.485321e+000 -2.447969e+000 -6.331617e-001 -3.183411e+000 2.121636e+000 -3.918504e-001 7.026713e-001 6.365385e+001 3.687455e-001 -1.151787e-001 3.852603e-001 -9.905692e-002 -4.518696e-001 -2.437343e-001 -1.746013e-001 6.984153e-002 -1.214065e-001 9.743948e-002 -7.876425e-003 -8.693769e-002 7.900978e-001 6.011031e-002 5.047987e-003 1.233474e-002 3.979319e-002 -4.441000e-002 1.709258e-002 -3.447044e-002 3.238425e-002 -8.777702e-003 -2.837294e-003 2.765394e-003 -4.788147e-002 -1.306234e-001
<VARIANCE> 39
 5.319094e+001 2.931087e+001 4.028595e+001 3.689260e+001 5.452283e+001 5.058181e+001 4.340727e+001 4.013493e+001 3.750196e+001 3.146252e+001 2.737817e+001 2.885554e+001 1.672800e+002 4.344992e+000 3.491053e+000 3.044483e+000 4.089181e+000 3.703920e+000 4.781642e+000 4.168101e+000 4.230603e+000 4.029702e+000 3.705850e+000 3.024030e+000 3.151416e+000 1.766119e+001 7.172371e-001 6.731141e-001 6.225804e-001 8.105452e-001 6.812404e-001 7.891448e-001 7.753860e-001 7.870052e-001 7.944411e-001 7.248886e-001 5.713198e-001 6.148160e-001 2.780726e+000
<GCONST> 1.362953e+002
<STATE> 4
<MEAN> 39
 -7.877742e+000 -2.643671e+000 3.712500e+000 -8.247174e-002 -9.161472e+000 -6.034379e+000 -5.149712e+000 1.120804e+000 4.187256e-001 -1.048995e+000 -2.801564e+000 9.258628e-002 6.130056e+001 -2.454758e-001 8.761916e-002 -2.295942e-001 1.098089e-001 2.767686e-001 1.444770e-001 1.050412e-001 -3.913437e-002 8.546810e-002 -2.388450e-002 8.151222e-003 4.653896e-002 -6.414831e-001 -4.163965e-002 1.321025e-002 5.947610e-003 9.239349e-003 3.724697e-002 1.068815e-002 2.333545e-002 -2.705140e-002 -7.043927e-005 6.891240e-003 -1.852194e-004 1.109604e-002 -1.869671e-002
<VARIANCE> 39
 5.167097e+001 2.453762e+001 3.966925e+001 3.600771e+001 6.065389e+001 4.390800e+001 5.983771e+001 4.313456e+001 4.023057e+001 3.042850e+001 3.997655e+001 2.523437e+001 1.745839e+002 9.956292e-001 1.164449e+000 1.338743e+000 2.071442e+000 1.915149e+000 1.692146e+000 2.773091e+000 2.388713e+000 2.180340e+000 2.059859e+000 1.702035e+000 1.630486e+000 1.068850e+000 1.631880e-001 2.154868e-001 2.166395e-001 3.569990e-001 3.670691e-001 3.075340e-001 4.810028e-001 4.134702e-001 3.849004e-001 3.861848e-001 3.038186e-001 2.917150e-001 1.479133e-001
<GCONST> 1.118982e+002
<TRANSP> 5
 0.000000e+000 1.000000e+000 0.000000e+000 0.000000e+000 0.000000e+000
 0.000000e+000 8.925837e-001 1.074163e-001 0.000000e+000 0.000000e+000
 0.000000e+000 0.000000e+000 9.693476e-001 3.065243e-002 0.000000e+000
 0.000000e+000 0.000000e+000 0.000000e+000 9.800066e-001 1.999336e-002
 0.000000e+000 0.000000e+000 0.000000e+000 0.000000e+000 0.000000e+000
<ENDHMM>
~h "uiyogeul"
<BEGINHMM>
<NUMSTATES> 5
<STATE> 2
<MEAN> 39
 -1.777841e+001 1.416062e+000 -2.359725e+000 -6.962593e-001 1.449261e-001 1.934597e-001 -1.612064e+000 1.881622e-001 -1.228593e+000 6.233880e-001 -3.432532e-002 -3.789134e-001 4.432757e+001 1.603247e-001 2.086542e-001 7.777486e-003 -1.489024e-001 1.729644e-001 -5.220620e-002 -3.305191e-001 -1.406510e-001 -3.991038e-001 3.309065e-001 3.578910e-002 -3.526854e-001 2.971792e-001 1.914400e-001 9.120999e-002 6.222590e-002 -2.641589e-002 -1.283663e-002 2.464424e-002 -1.589641e-001 -2.770927e-002 -1.261988e-001 8.966234e-002 1.523383e-002 -9.344046e-002 2.363470e-001
<VARIANCE> 39
 4.163240e+000 3.462378e+000 9.878844e+000 1.327464e+001 1.267858e+001 1.246561e+001 1.629797e+001 1.619208e+001 1.686345e+001 1.891600e+001 1.524700e+001 1.379008e+001 8.938724e+000 5.875564e-001 5.044749e-001 1.230323e+000 1.479668e+000 1.534138e+000 1.244587e+000 1.670527e+000 2.067484e+000 1.702990e+000 1.652280e+000 1.502823e+000 1.463205e+000 5.065103e-001 2.064719e-001 1.353558e-001 1.890372e-001 2.184486e-001 3.063084e-001 1.991574e-001 3.347216e-001 3.647015e-001 2.735836e-001 2.803665e-001 2.734404e-001 3.095748e-001 1.597154e-001
<GCONST> 8.703986e+001
<STATE> 3
<MEAN> 39
 -6.795170e+000 4.064906e+000 7.670668e-001 -3.110595e+000 -2.792843e+000 -1.541119e+000 -1.306985e+001 -3.069027e+000 -6.775510e+000 4.035974e+000 2.429856e+000 -6.524750e+000 5.934382e+001 1.565333e+000 -1.678586e-001 1.142849e+000 5.639382e-002 -1.321614e+000 -7.147111e-001 -1.750646e+000 -3.511184e-002 -7.944689e-001 -2.342111e-001 4.500572e-001 -8.413535e-001 3.034365e+000 -3.073193e-001 -1.715715e-001 2.748566e-001 1.095221e-001 -3.023035e-001 -9.198426e-002 3.262578e-001 1.253016e-001 -1.092746e-001 -3.003140e-001 3.315072e-002 1.655887e-001 -6.419105e-002
<VARIANCE> 39
 5.774645e+001 2.857315e+001 3.416361e+001 4.392672e+001 4.933130e+001 4.711319e+001 7.452111e+001 8.278702e+001 5.211220e+001 3.961378e+001 4.989767e+001 4.008331e+001 1.095482e+002 5.119028e+000 3.291355e+000 2.726120e+000 4.653024e+000 3.935550e+000 3.429581e+000 5.194625e+000 6.595917e+000 4.201214e+000 3.705904e+000 2.816615e+000 3.497238e+000 3.834593e+000 8.846161e-001 5.446467e-001 5.161021e-001 8.466568e-001 7.949321e-001 6.237791e-001 1.199506e+000 1.194382e+000 6.800708e-001 4.672899e-001 4.463345e-001 6.231868e-001 9.116042e-001
<GCONST> 1.362673e+002
<STATE> 4
<MEAN> 39
 -6.220579e+000 1.335134e+000 4.259582e+000 -2.377970e+000 -8.655993e+000 -2.817654e+000 -9.310023e+000 -1.406229e+000 -6.179194e+000 -2.326090e-001 6.063256e-001 -2.572168e+000 6.300738e+001 -1.889427e-001 8.973846e-003 -1.175957e-001 1.846752e-002 1.139405e-001 7.402334e-002 2.290115e-001 -9.487584e-003 1.063615e-001 -1.171750e-002 -5.395694e-002 1.226927e-001 -3.798376e-001 1.104184e-002 6.053224e-003 -3.493168e-002 -1.418230e-002 3.321085e-002 8.836724e-003 -1.767733e-002 -6.944415e-003 1.841426e-002 2.437761e-002 -4.310216e-003 -1.151153e-002 -1.995509e-002
<VARIANCE> 39
 4.460906e+001 3.600030e+001 8.307191e+001 5.990126e+001 6.834004e+001 5.268361e+001 8.569073e+001 4.883140e+001 1.033409e+002 5.025750e+001 6.198244e+001 4.168542e+001 1.413308e+002 9.330205e-001 1.600277e+000 3.221997e+000 2.743623e+000 3.053995e+000 2.549810e+000 3.732015e+000 2.582288e+000 3.635550e+000 2.701362e+000 2.827677e+000 2.231055e+000 2.162008e+000 1.173606e-001 2.190091e-001 3.815169e-001 4.442097e-001 4.520237e-001 4.261274e-001 5.618774e-001 4.867917e-001 5.885362e-001 4.383135e-001 4.825902e-001 4.040069e-001 2.505049e-001
<GCONST> 1.245042e+002
<TRANSP> 5
 0.000000e+000 1.000000e+000 0.000000e+000 0.000000e+000 0.000000e+000
 0.000000e+000 8.807793e-001 1.192208e-001 0.000000e+000 0.000000e+000
 0.000000e+000 0.000000e+000 8.816941e-001 1.183058e-001 0.000000e+000
 0.000000e+000 0.000000e+000 0.000000e+000 9.867741e-001 1.322584e-002
 0.000000e+000 0.000000e+000 0.000000e+000 0.000000e+000 0.000000e+000
<ENDHMM>
~h "software"
<BEGINHMM>
<NUMSTATES> 5
<STATE> 2
<MEAN> 39
 -1.815744e+001 2.446528e-001 -2.620555e+000 -5.702899e-001 -1.179232e+000 -1.748684e+000 -1.010264e+000 7.270262e-001 5.435516e-001 -1.440983e-001 -1.012322e+000 2.963400e-001 4.635272e+001 -9.359914e-002 -2.551230e-001 -6.459071e-002 -3.769727e-001 3.576107e-001 -2.079859e-001 -2.241516e-001 3.537523e-002 -7.626079e-002 8.507406e-002 -1.090480e-001 -1.485849e-001 5.499630e-001 -5.207592e-002 2.367174e-003 3.697821e-002 -2.020177e-001 4.876037e-002 -1.311185e-001 -4.615709e-002 7.505380e-002 -2.605949e-002 2.266338e-002 5.332368e-002 -2.296884e-002 2.209044e-001
<VARIANCE> 39
 1.240358e+001 1.012646e+001 8.929721e+000 9.643440e+000 1.114226e+001 1.686621e+001 1.534249e+001 1.546320e+001 1.672227e+001 1.462822e+001 1.291562e+001 1.085352e+001 3.676721e+001 6.741978e-001 7.909129e-001 6.316379e-001 1.470227e+000 1.417908e+000 1.419360e+000 1.830880e+000 1.546924e+000 1.672558e+000 1.653500e+000 1.045611e+000 1.157987e+000 1.228013e+000 2.119184e-001 1.276882e-001 1.129792e-001 2.785541e-001 2.385493e-001 2.389578e-001 3.428887e-001 2.419912e-001 3.147643e-001 3.109514e-001 1.852071e-001 1.861048e-001 2.190778e-001
<GCONST> 8.853757e+001
<STATE> 3
<MEAN> 39
 -1.443691e+001 1.590828e+000 -8.721213e-001 -6.299129e+000 -4.418497e-001 -3.133063e+000 -6.319287e+000 -5.817823e-001 -2.294046e+000 1.200134e+000 1.299033e-001 -4.873817e-001 6.163065e+001 3.499156e-001 3.933676e-002 1.429006e-001 -5.061426e-002 -1.726581e-001 9.077753e-003 -3.294929e-001 -6.764574e-002 -1.508950e-001 5.491747e-002 6.995003e-002 -1.021885e-001 4.737804e-001 3.361736e-002 -3.752794e-003 -5.710514e-003 2.590286e-002 -3.331446e-002 2.230082e-002 -8.684148e-003 -1.664088e-002 -8.858886e-004 -3.078440e-003 1.313207e-002 -8.250441e-004 -3.905490e-002
<VARIANCE> 39
 1.029596e+002 3.290408e+001 2.425212e+001 5.139027e+001 4.753417e+001 5.419892e+001 5.718002e+001 4.603716e+001 3.685446e+001 2.727335e+001 3.238200e+001 2.794720e+001 1.265691e+002 8.352574e+000 4.132247e+000 2.310297e+000 5.447988e+000 4.160064e+000 5.087363e+000 6.023042e+000 3.765561e+000 3.618249e+000 3.139008e+000 3.369697e+000 3.230910e+000 1.383785e+001 1.123014e+000 7.799334e-001 4.342030e-001 1.096186e+000 7.352601e-001 9.593152e-001 1.036228e+000 6.315641e-001 6.962524e-001 6.380781e-001 6.456753e-001 6.246887e-001 2.364227e+000
<GCONST> 1.384103e+002
<STATE> 4
<MEAN> 39
 -6.044312e+000 -1.416100e+000 -1.948348e+000 -7.111582e+000 -3.869464e+000 2.779592e-001 -5.959741e+000 1.818087e+000 -3.690336e+000 1.766509e+000 1.336645e+000 -3.799348e+000 6.242523e+001 -2.955192e-001 1.082448e-002 -1.054697e-001 1.107917e-001 1.236873e-001 5.323917e-002 3.219879e-001 1.853478e-002 9.663733e-002 -8.411284e-002 -5.103654e-002 1.168122e-001 -4.995031e-001 -1.551777e-002 8.363731e-003 -4.978586e-006 1.347444e-002 8.416052e-003 1.199633e-003 2.197911e-002 1.690398e-002 1.659058e-002 7.724678e-004 -1.730238e-002 4.193459e-003 -2.825161e-003
<VARIANCE> 39
 5.442338e+001 2.003670e+001 5.115437e+001 6.288799e+001 5.763489e+001 1.012587e+002 8.372959e+001 5.918307e+001 4.573420e+001 4.806237e+001 5.551850e+001 4.792241e+001 1.717070e+002 5.499520e-001 8.194106e-001 1.352367e+000 1.847342e+000 1.797584e+000 2.431006e+000 2.319801e+000 2.362907e+000 2.041241e+000 1.671915e+000 1.783566e+000 1.551295e+000 7.576262e-001 5.434860e-002 1.297393e-001 1.775336e-001 2.614079e-001 2.654634e-001 2.988712e-001 3.819201e-001 3.623597e-001 3.382582e-001 2.724697e-001 3.103794e-001 2.483730e-001 4.599492e-002
<GCONST> 1.093548e+002
<TRANSP> 5
 0.000000e+000 1.000000e+000 0.000000e+000 0.000000e+000 0.000000e+000
 0.000000e+000 8.908256e-001 1.091744e-001 0.000000e+000 0.000000e+000
 0.000000e+000 0.000000e+000 9.791655e-001 2.083454e-002 0.000000e+000
 0.000000e+000 0.000000e+000 0.000000e+000 9.824694e-001 1.753060e-002
 0.000000e+000 0.000000e+000 0.000000e+000 0.000000e+000 0.000000e+000
<ENDHMM>
~h "juwiui"
<BEGINHMM>
<NUMSTATES> 5
<STATE> 2
<MEAN> 39
 -1.801398e+001 3.642567e-001 -1.393700e+000 -4.899082e-001 -1.275748e+000 -4.447283e-001 -1.901399e+000 -8.116838e-001 -1.711850e+000 1.500278e-001 -1.625325e-002 5.030798e-001 4.458175e+001 -1.579189e-001 -3.698056e-001 5.010263e-002 -3.516273e-001 -1.440126e-001 2.046027e-001 -4.546248e-002 -9.450081e-002 -1.771260e-002 -4.293619e-003 -9.674633e-002 -4.348591e-002 6.524472e-001 -1.641492e-001 -1.130173e-001 1.773900e-001 -1.662784e-001 -1.769093e-001 9.885575e-002 -1.447068e-001 -9.716591e-002 7.294299e-002 -4.397281e-002 -6.860786e-002 5.647573e-002 4.234283e-001
<VARIANCE> 39
 3.392609e+000 6.398473e+000 1.011077e+001 9.631006e+000 1.284022e+001 1.611677e+001 1.620828e+001 1.546151e+001 1.488974e+001 1.753521e+001 1.364358e+001 1.126801e+001 1.088066e+001 5.767738e-001 1.535425e+000 1.512881e+000 1.753898e+000 2.372670e+000 1.713195e+000 1.923358e+000 2.076535e+000 1.604530e+000 2.185501e+000 1.617218e+000 1.376941e+000 3.151081e+000 2.357562e-001 2.292674e-001 2.903387e-001 3.078687e-001 3.563087e-001 3.311185e-001 2.556389e-001 3.707481e-001 2.993875e-001 4.470001e-001 3.081253e-001 2.676736e-001 5.264973e-001
<GCONST> 9.504735e+001
<STATE> 3
<MEAN> 39
 -2.033441e+001 -2.025428e+000 2.934317e+000 -3.030466e+000 -7.848098e+000 -2.334569e+000 -6.480345e+000 -2.896707e+000 -1.847169e+000 -1.612867e+000 1.215369e-001 1.930735e-001 6.715448e+001 1.105033e+000 3.569365e-001 2.546964e-001 2.194518e-001 -2.306160e-001 -2.075716e-001 -9.287565e-001 -2.106823e-001 -7.349450e-001 -4.926779e-002 4.251023e-001 -4.682118e-001 1.270987e+000 1.707052e-001 8.115387e-002 -1.050964e-001 7.174823e-002 4.018141e-002 -1.062689e-002 1.975405e-002 5.308616e-002 -1.219618e-001 3.625453e-002 8.985084e-002 -5.615468e-002 -2.574428e-001
<VARIANCE> 39
 1.354265e+002 3.429733e+001 2.501889e+001 3.892123e+001 4.125744e+001 6.417419e+001 7.538509e+001 4.621007e+001 5.208479e+001 3.790620e+001 2.781129e+001 2.608395e+001 6.717870e+001 1.136627e+001 3.364067e+000 3.028599e+000 3.709992e+000 5.406834e+000 7.209055e+000 6.224823e+000 4.120087e+000 5.906665e+000 3.333986e+000 3.257898e+000 2.683590e+000 5.898885e+000 1.391357e+000 7.263576e-001 5.201363e-001 6.522369e-001 1.034219e+000 1.171899e+000 1.071365e+000 8.017874e-001 9.775750e-001 6.254949e-001 6.953014e-001 4.377473e-001 6.908448e-001
<GCONST> 1.382334e+002
<STATE> 4
<MEAN> 39
 -8.955355e+000 2.852619e+000 1.041654e+001 -1.032729e+000 -1.196671e+001 -2.642903e+000 -8.855320e+000 -7.788807e-001 -1.056637e+001 -1.140543e+000 2.146957e+000 -3.883419e+000 6.331519e+001 -2.371882e-001 -1.856069e-002 -7.570688e-002 1.890663e-002 8.303422e-002 2.230031e-002 2.489225e-001 5.447933e-002 1.601179e-001 4.320551e-003 -9.986658e-002 1.147878e-001 -3.931306e-001 -1.134023e-002 1.672934e-003 -7.682403e-004 5.384314e-003 5.772366e-003 -1.195842e-002 5.384007e-003 -6.221998e-003 2.696445e-002 -6.699990e-003 -1.366646e-002 1.146608e-002 -7.081787e-004
<VARIANCE> 39
 3.148419e+001 2.006775e+001 8.575855e+001 3.515092e+001 7.328992e+001 5.551790e+001 9.032255e+001 3.663135e+001 7.065521e+001 4.343455e+001 3.871344e+001 3.445899e+001 1.428349e+002 3.361959e-001 7.876484e-001 2.304188e+000 1.262450e+000 2.116219e+000 1.977323e+000 2.311414e+000 1.941313e+000 1.992854e+000 1.710349e+000 1.536422e+000 1.259992e+000 6.005499e-001 4.845572e-002 1.129925e-001 2.143829e-001 2.029048e-001 2.997993e-001 3.266429e-001 3.635108e-001 3.537521e-001 3.440469e-001 3.093371e-001 2.813607e-001 2.350049e-001 4.498083e-002
<GCONST> 1.060124e+002
<TRANSP> 5
 0.000000e+000 1.000000e+000 0.000000e+000 0.000000e+000 0.000000e+000
 0.000000e+000 8.941074e-001 1.058926e-001 0.000000e+000 0.000000e+000
 0.000000e+000 0.000000e+000 9.365546e-001 6.344547e-002 0.000000e+000
 0.000000e+000 0.000000e+000 0.000000e+000 9.854851e-001 1.451486e-002
 0.000000e+000 0.000000e+000 0.000000e+000 0.000000e+000 0.000000e+000
<ENDHMM>
~h "mwolago"
<BEGINHMM>
<NUMSTATES> 5
<STATE> 2
<MEAN> 39
 -1.720781e+001 1.169872e+000 -8.231914e-001 6.273870e-001 -1.328556e+000 3.617910e-001 -6.044979e-001 -2.536276e+000 -2.556596e+000 1.104426e+000 -1.042701e+000 -2.358879e-002 4.456882e+001 3.153702e-001 1.351094e-001 3.652397e-001 1.874538e-001 -1.927319e-001 2.419468e-001 3.594643e-002 -6.380825e-001 -5.946810e-001 3.527224e-001 -1.643956e-001 -2.576907e-001 3.473411e-001 1.795872e-001 1.623804e-001 1.937409e-001 9.167241e-002 -1.794204e-002 6.025399e-002 -6.558345e-003 -5.389464e-002 9.166868e-003 -3.326033e-004 -6.413303e-002 -1.370893e-002 1.425921e-001
<VARIANCE> 39
 2.454602e+000 4.224661e+000 6.412354e+000 8.444865e+000 1.324600e+001 1.434919e+001 1.534525e+001 2.568927e+001 1.486646e+001 1.604885e+001 1.189674e+001 1.251941e+001 8.047864e+000 2.653795e-001 7.328867e-001 1.018000e+000 1.049193e+000 8.788438e-001 1.365814e+000 1.569693e+000 1.813611e+000 1.315246e+000 1.471027e+000 1.132761e+000 1.425490e+000 2.213028e-001 1.322106e-001 1.617735e-001 1.599142e-001 1.795927e-001 1.687342e-001 1.984998e-001 3.032155e-001 3.140827e-001 2.329867e-001 3.002146e-001 2.328890e-001 2.648429e-001 7.725769e-002
<GCONST> 7.993474e+001
<STATE> 3
<MEAN> 39
 -5.200011e+000 6.139926e+000 4.839811e+000 -3.693395e+000 -6.204315e+000 3.767143e+000 -2.308844e+000 -7.470153e+000 -8.171254e+000 4.032083e-002 -4.173849e+000 -1.690371e+000 5.793731e+001 2.191976e+000 2.675652e-001 -3.494460e-001 -3.146477e+000 -1.160229e+000 6.274469e-001 -6.827891e-001 5.204986e-001 -3.670929e-001 -8.407089e-001 5.143404e-001 5.743178e-002 2.969970e+000 -1.215589e-001 -3.048048e-001 -3.873954e-001 -5.283810e-001 -4.946106e-002 1.326800e-001 -5.517263e-002 1.950056e-001 1.094604e-001 2.536120e-002 3.545263e-001 4.269062e-002 7.537720e-002
<VARIANCE> 39
 4.332142e+001 2.041878e+001 2.890401e+001 1.258994e+002 4.835677e+001 3.640687e+001 3.096530e+001 6.067199e+001 3.416018e+001 3.160839e+001 3.898647e+001 2.769104e+001 7.753709e+001 2.958429e+000 3.075052e+000 4.304600e+000 1.017045e+001 4.086871e+000 4.109652e+000 2.496741e+000 5.955209e+000 4.771506e+000 3.119287e+000 6.427197e+000 2.962415e+000 2.892335e+000 7.400185e-001 4.103815e-001 5.370798e-001 1.894527e+000 9.101385e-001 8.101693e-001 5.053455e-001 9.934148e-001 7.095233e-001 6.161317e-001 7.815734e-001 5.141159e-001 7.747654e-001
<GCONST> 1.340469e+002
<STATE> 4
<MEAN> 39
 -3.645808e+000 2.721508e+000 -4.423094e+000 -1.282136e+001 -6.250255e+000 2.894567e+000 -3.343096e+000 1.040720e+000 -4.554290e+000 -3.399934e-001 -2.352152e-002 -3.783612e+000 6.276028e+001 -2.547310e-001 -4.585511e-002 -2.408553e-002 2.712959e-001 1.287503e-001 -9.522041e-002 5.820320e-002 2.487851e-002 9.186657e-002 3.158466e-002 -4.693149e-002 6.569111e-003 -3.376943e-001 -1.279141e-002 9.917680e-003 1.634738e-002 4.680504e-002 9.195558e-003 -1.802790e-002 4.150871e-003 -1.135145e-002 -3.307634e-003 -3.452137e-003 -3.143539e-002 2.299151e-003 -2.724995e-002
<VARIANCE> 39
 6.093625e+001 4.586761e+001 2.565751e+001 9.671861e+001 5.120405e+001 4.686280e+001 6.489509e+001 4.701528e+001 7.396969e+001 4.744214e+001 5.194729e+001 4.219072e+001 1.446752e+002 1.294703e+000 1.822622e+000 1.628532e+000 4.556037e+000 2.686524e+000 3.172452e+000 3.072858e+000 2.980910e+000 3.771372e+000 2.743571e+000 3.126480e+000 2.361492e+000 2.365938e+000 2.013837e-001 2.646861e-001 2.909070e-001 7.938418e-001 4.634907e-001 5.838873e-001 5.369906e-001 5.500920e-001 6.231751e-001 5.154245e-001 5.526413e-001 4.068730e-001 2.986927e-001
<GCONST> 1.257230e+002
<TRANSP> 5
 0.000000e+000 1.000000e+000 0.000000e+000 0.000000e+000 0.000000e+000
 0.000000e+000 8.930807e-001 1.069193e-001 0.000000e+000 0.000000e+000
 0.000000e+000 0.000000e+000 8.688398e-001 1.311602e-001 0.000000e+000
 0.000000e+000 0.000000e+000 0.000000e+000 9.866529e-001 1.334705e-002
 0.000000e+000 0.000000e+000 0.000000e+000 0.000000e+000 0.000000e+000
<ENDHMM>
~h "naghwaam"
<BEGINHMM>
<NUMSTATES> 5
<STATE> 2
<MEAN> 39
 -1.731245e+001 1.461509e+000 -1.298656e+000 6.190059e-001 -8.248720e-001 6.066168e-002 -2.751851e-001 -1.229775e+000 -1.672353e+000 1.818442e-001 -1.267252e+000 2.884642e-001 4.449009e+001 2.912408e-001 9.186341e-002 3.363662e-001 1.273258e-001 -2.758526e-001 1.812421e-001 2.406716e-001 -2.634482e-001 -1.182118e-001 1.704104e-001 -3.670307e-001 -1.672557e-001 2.936452e-001 1.291557e-001 8.578774e-002 9.277400e-002 -5.774883e-003 -7.328682e-002 -5.624488e-002 -2.895918e-002 -5.140206e-002 4.347224e-002 2.349568e-002 -8.808608e-002 -1.010906e-001 2.269941e-001
<VARIANCE> 39
 4.382030e+000 7.053248e+000 7.832476e+000 1.247226e+001 1.566127e+001 1.779328e+001 1.513806e+001 1.729029e+001 1.178980e+001 1.646404e+001 1.867879e+001 1.249364e+001 8.062190e+000 5.277412e-001 8.753901e-001 1.004552e+000 1.200043e+000 1.122065e+000 1.761024e+000 1.637613e+000 1.923188e+000 1.336983e+000 1.787190e+000 1.718448e+000 1.316590e+000 3.197047e-001 1.635834e-001 2.425379e-001 1.809637e-001 2.886000e-001 2.435026e-001 3.549060e-001 3.029156e-001 3.689917e-001 2.010745e-001 3.176228e-001 3.020223e-001 2.298944e-001 2.253032e-001
<GCONST> 8.775801e+001
<STATE> 3
<MEAN> 39
 -9.079587e+000 -6.810347e-001 -7.452069e+000 -9.025569e+000 1.634805e+000 4.452926e-001 -1.642670e+000 3.194742e-002 -2.816538e+000 3.276213e+000 -3.783489e+000 -5.681204e+000 6.547235e+001 4.281002e-001 -1.259270e-001 -3.009124e-001 -5.647255e-001 1.281077e-001 1.317123e-001 -8.780699e-002 4.154010e-004 -1.140666e-001 1.080754e-001 1.320874e-001 -3.313513e-001 9.376214e-001 -2.224241e-002 -4.482999e-002 -3.931959e-002 -3.226751e-002 -5.116325e-004 1.026838e-002 -7.016598e-003 4.006555e-003 -3.031042e-003 -4.430733e-003 2.053614e-002 1.402290e-003 -4.788247e-002
<VARIANCE> 39
 3.657594e+001 3.501637e+001 6.194571e+001 7.700521e+001 5.598215e+001 5.087525e+001 3.747000e+001 4.586362e+001 3.870189e+001 3.373162e+001 4.493804e+001 4.290495e+001 1.463080e+002 3.956478e+000 3.863451e+000 4.932197e+000 6.273479e+000 5.252652e+000 4.478748e+000 4.320058e+000 4.797226e+000 3.888828e+000 3.844406e+000 3.641919e+000 3.601428e+000 1.407530e+001 6.199952e-001 6.832832e-001 9.488876e-001 1.204947e+000 9.293586e-001 8.636841e-001 9.017510e-001 9.584289e-001 7.945255e-001 8.069458e-001 6.642343e-001 5.548025e-001 1.790184e+000
<GCONST> 1.407508e+002
<STATE> 4
<MEAN> 39
 -6.945253e+000 -9.697248e-001 -2.026136e+000 -4.929248e+000 2.069044e+000 2.070202e+000 -4.289889e+000 -3.748385e+000 -4.041973e+000 1.350599e+000 -2.095637e+000 -4.732028e+000 6.151573e+001 -2.978747e-001 5.269510e-002 1.331785e-001 3.380886e-001 -9.545531e-003 -1.127377e-001 -3.171416e-002 4.857896e-002 7.442795e-002 -1.090142e-001 -1.574739e-002 2.256396e-001 -6.097993e-001 -1.707857e-002 6.294534e-003 3.502135e-003 1.479460e-002 1.154780e-002 -4.088207e-003 -6.594062e-003 7.555371e-003 -4.272828e-003 1.401757e-003 7.833355e-003 1.180510e-002 -1.385511e-002
<VARIANCE> 39
 5.224556e+001 2.369643e+001 7.143374e+001 1.359750e+002 4.839402e+001 4.357266e+001 4.355394e+001 4.741426e+001 3.770219e+001 3.904456e+001 4.343420e+001 8.300869e+001 1.844954e+002 4.465828e-001 7.084352e-001 2.109936e+000 2.092613e+000 1.713631e+000 1.558995e+000 2.044969e+000 2.515227e+000 1.857059e+000 1.682783e+000 1.420537e+000 1.686613e+000 5.978724e-001 6.440905e-002 9.893185e-002 2.595020e-001 2.683097e-001 2.829744e-001 2.659016e-001 3.414270e-001 4.122580e-001 3.108825e-001 3.102623e-001 2.288338e-001 2.776279e-001 5.244150e-002
<GCONST> 1.081110e+002
<TRANSP> 5
 0.000000e+000 1.000000e+000 0.000000e+000 0.000000e+000 0.000000e+000
 0.000000e+000 8.933286e-001 1.066714e-001 0.000000e+000 0.000000e+000
 0.000000e+000 0.000000e+000 9.691331e-001 3.086692e-002 0.000000e+000
 0.000000e+000 0.000000e+000 0.000000e+000 9.813879e-001 1.861217e-002
 0.000000e+000 0.000000e+000 0.000000e+000 0.000000e+000 0.000000e+000
<ENDHMM>
~h "noemureul"
<BEGINHMM>
<NUMSTATES> 5
<STATE> 2
<MEAN> 39
 -1.717628e+001 1.359162e+000 -1.404979e+000 5.864688e-001 -1.130831e+000 8.831573e-002 -5.022176e-001 -1.206199e+000 -1.688818e+000 6.231364e-001 -1.513984e+000 -9.035619e-002 4.412734e+001 1.397212e-001 3.468711e-001 4.881938e-001 2.710230e-001 -1.406706e-001 1.495357e-001 7.207642e-002 -4.845738e-001 -3.036204e-001 1.176951e-001 -1.180006e-001 -2.943961e-001 1.766852e-001 1.634807e-001 1.437397e-001 1.608969e-001 2.879417e-002 -2.027152e-002 -2.710298e-002 3.950536e-002 4.823212e-002 2.296669e-002 -1.996369e-002 -2.296027e-002 -5.574331e-002 1.778646e-001
<VARIANCE> 39
 3.866727e+000 4.774423e+000 6.886464e+000 7.441342e+000 1.433628e+001 1.398418e+001 1.142234e+001 1.482227e+001 1.044788e+001 1.364964e+001 1.291885e+001 1.397061e+001 7.535990e+000 5.448236e-001 8.808627e-001 7.601256e-001 9.705175e-001 1.363885e+000 1.426854e+000 1.377454e+000 1.189451e+000 8.793861e-001 1.232130e+000 1.248094e+000 1.488598e+000 2.060256e-001 1.775027e-001 1.931303e-001 1.914129e-001 1.909548e-001 2.790397e-001 2.531996e-001 2.253709e-001 2.313180e-001 1.841024e-001 2.015036e-001 2.416354e-001 2.718672e-001 1.143371e-001
<GCONST> 7.990674e+001
<STATE> 3
<MEAN> 39
 -8.453518e+000 5.325197e+000 7.652758e+000 -1.760731e-001 -5.908031e+000 -5.190720e+000 -2.922156e+000 -2.557601e+000 -6.357845e+000 -9.693841e-001 -2.304389e+000 -2.656218e+000 5.877112e+001 1.175269e+000 -5.057867e-001 9.789575e-001 -6.402133e-001 -1.427931e+000 -1.572764e+000 -1.015960e+000 8.470531e-001 -8.345263e-001 -2.621045e-001 5.772591e-001 1.148562e-001 3.466219e+000 -1.281483e-001 -3.301840e-001 -1.929878e-001 -3.988779e-002 -2.492163e-001 2.404414e-002 -7.279807e-002 2.359726e-001 7.636637e-002 1.390632e-001 1.473884e-001 5.397245e-002 3.085545e-002
<VARIANCE> 39
 4.396526e+001 3.347247e+001 3.162805e+001 4.829003e+001 4.153035e+001 6.358810e+001 4.377555e+001 4.733763e+001 3.142209e+001 2.286249e+001 2.802165e+001 2.444217e+001 1.332382e+002 5.240101e+000 4.785428e+000 3.285054e+000 5.119606e+000 4.898434e+000 4.028123e+000 3.980483e+000 6.311114e+000 2.901694e+000 2.755153e+000 4.778044e+000 2.902176e+000 4.631480e+000 1.000172e+000 6.498870e-001 5.394285e-001 1.107713e+000 8.605003e-001 1.092827e+000 8.346116e-001 1.014716e+000 5.431792e-001 4.604019e-001 8.570309e-001 5.402526e-001 1.255651e+000
<GCONST> 1.352060e+002
<STATE> 4
<MEAN> 39
 -5.280290e+000 -1.056607e+000 3.283951e+000 -2.532797e-003 -9.228384e+000 -3.145147e+000 -7.805254e+000 -1.959419e+000 -2.883192e+000 5.355676e-001 -1.751956e+000 -1.996502e+000 6.373622e+001 -1.478386e-001 3.048962e-002 -1.577922e-001 4.695477e-002 1.718504e-001 1.496978e-001 8.703395e-002 -6.886043e-002 1.279006e-001 2.293370e-002 -4.476816e-002 1.888644e-002 -4.171117e-001 -5.528285e-003 1.964216e-002 5.516571e-003 -6.390509e-004 3.437365e-002 6.771245e-004 3.673434e-003 -2.949965e-002 -5.874850e-003 -1.122877e-002 -1.194127e-002 -1.847881e-004 -2.358212e-002
<VARIANCE> 39
 4.992002e+001 2.811825e+001 4.187509e+001 4.790348e+001 5.707837e+001 5.567422e+001 7.223828e+001 7.331110e+001 6.424529e+001 3.635464e+001 4.851809e+001 3.332143e+001 1.354962e+002 1.158664e+000 1.213396e+000 1.831085e+000 2.941099e+000 2.824911e+000 2.882236e+000 3.382906e+000 3.794507e+000 2.763923e+000 2.324192e+000 3.140352e+000 1.990150e+000 1.312827e+000 1.894790e-001 1.896992e-001 2.772824e-001 4.488442e-001 5.440857e-001 4.972599e-001 6.051849e-001 6.545370e-001 4.825107e-001 4.271668e-001 5.469695e-001 3.736247e-001 1.901185e-001
<GCONST> 1.213879e+002
<TRANSP> 5
 0.000000e+000 1.000000e+000 0.000000e+000 0.000000e+000 0.000000e+000
 0.000000e+000 8.847696e-001 1.152305e-001 0.000000e+000 0.000000e+000
 0.000000e+000 0.000000e+000 8.841342e-001 1.158658e-001 0.000000e+000
 0.000000e+000 0.000000e+000 0.000000e+000 9.866294e-001 1.337058e-002
 0.000000e+000 0.000000e+000 0.000000e+000 0.000000e+000 0.000000e+000
<ENDHMM>
~h "eoduun"
<BEGINHMM>
<NUMSTATES> 5
<STATE> 2
<MEAN> 39
 -1.703448e+001 5.034269e-001 -4.665644e+000 -3.260458e+000 -4.940661e-001 2.847591e+000 2.662901e-001 -9.686893e-001 -2.439723e+000 -8.399964e-001 2.389862e-001 5.899193e-001 4.497729e+001 3.415084e-001 5.713050e-002 -3.430437e-001 -5.574983e-001 -9.033009e-002 5.254409e-001 3.759212e-001 -2.220315e-002 -1.995003e-001 -3.029288e-001 -1.102210e-001 -9.651253e-002 3.318676e-001 1.135047e-001 7.549962e-002 2.776328e-002 -1.274830e-001 2.984347e-003 5.957519e-002 -4.276596e-002 3.054685e-003 6.828902e-003 7.715862e-002 3.541726e-003 8.596371e-003 2.136742e-001
<VARIANCE> 39
 5.472538e+000 5.784230e+000 2.161156e+001 1.953295e+001 1.199405e+001 3.032918e+001 2.735594e+001 1.657572e+001 1.748681e+001 1.778578e+001 1.779253e+001 1.287223e+001 1.049589e+001 7.936332e-001 7.946628e-001 2.122188e+000 1.645733e+000 1.483297e+000 2.707646e+000 2.584443e+000 1.814204e+000 2.149230e+000 1.799262e+000 2.042538e+000 1.448822e+000 5.032521e-001 2.329631e-001 1.935136e-001 3.829235e-001 3.363602e-001 2.522703e-001 4.977341e-001 3.855112e-001 3.088367e-001 4.083938e-001 3.649248e-001 3.586802e-001 2.800162e-001 1.414331e-001
<GCONST> 9.668182e+001
<STATE> 3
<MEAN> 39
 -5.808382e+000 2.899979e+000 -1.118816e+000 -1.161875e+001 -1.893738e+000 1.734348e+000 -8.078192e+000 -3.321160e+000 -5.026747e+000 1.533878e+000 1.125811e+000 -3.311488e+000 6.611236e+001 4.176479e-001 8.221188e-002 2.137148e-001 -3.554788e-002 -1.253277e-001 -1.417386e-001 -6.071514e-001 -2.807896e-001 -2.428064e-001 9.943310e-002 1.991279e-001 -2.029992e-001 8.394022e-001 -1.483543e-002 -1.074989e-002 -3.066122e-002 3.883216e-004 -5.127730e-003 4.512260e-002 2.653352e-002 -2.916807e-002 -4.787601e-002 -1.842976e-002 4.561945e-002 1.790030e-002 -7.194281e-002
<VARIANCE> 39
 5.622972e+001 3.551972e+001 3.637285e+001 1.115204e+002 3.632670e+001 8.413620e+001 7.008292e+001 5.816756e+001 4.353444e+001 4.598581e+001 4.788738e+001 3.767277e+001 1.107313e+002 5.744592e+000 4.575911e+000 2.589272e+000 8.437756e+000 3.313439e+000 5.542093e+000 6.047085e+000 4.600979e+000 3.556110e+000 3.356357e+000 3.711911e+000 2.906609e+000 1.179580e+001 9.872404e-001 9.334182e-001 4.575061e-001 1.257707e+000 5.930248e-001 9.538754e-001 1.116167e+000 8.698336e-001 6.138660e-001 5.900504e-001 6.313446e-001 5.484507e-001 1.962637e+000
<GCONST> 1.410092e+002
<STATE> 4
<MEAN> 39
 -7.416955e+000 3.487185e+000 2.560251e+000 -3.271169e+000 -4.738729e+000 3.294204e-001 -6.185602e+000 -4.671371e+000 -5.628449e+000 -3.541607e-001 -1.666197e+000 -3.620394e+000 5.896338e+001 -3.008885e-001 -7.802835e-002 -4.836355e-002 1.657809e-001 8.675212e-002 -3.659166e-002 3.074397e-001 1.866384e-001 2.103497e-001 -3.748076e-002 -1.531933e-001 1.118756e-001 -5.576022e-001 -2.175128e-002 -9.384823e-003 1.513224e-002 3.142264e-002 1.130032e-002 -3.973557e-002 -5.340697e-003 1.584300e-002 3.481311e-002 1.425992e-002 -3.887684e-002 -8.777739e-003 1.019350e-003
<VARIANCE> 39
 5.436414e+001 2.623527e+001 5.179791e+001 8.194585e+001 4.462369e+001 4.429593e+001 5.996311e+001 5.143378e+001 6.078267e+001 4.111103e+001 6.765097e+001 4.108292e+001 1.321867e+002 4.342850e-001 8.625127e-001 1.762697e+000 2.133708e+000 1.842032e+000 1.817709e+000 2.049703e+000 1.919299e+000 1.916446e+000 1.965485e+000 2.451414e+000 1.819169e+000 6.984202e-001 5.259978e-002 1.113853e-001 2.113094e-001 2.662976e-001 3.023664e-001 3.169847e-001 3.711058e-001 3.657939e-001 3.325989e-001 2.979234e-001 3.847603e-001 3.048893e-001 7.347569e-002
<GCONST> 1.095127e+002
<TRANSP> 5
 0.000000e+000 1.000000e+000 0.000000e+000 0.000000e+000 0.000000e+000
 0.000000e+000 8.867267e-001 1.132732e-001 0.000000e+000 0.000000e+000
 0.000000e+000 0.000000e+000 9.660513e-001 3.394864e-002 0.000000e+000
 0.000000e+000 0.000000e+000 0.000000e+000 9.797224e-001 2.027759e-002
 0.000000e+000 0.000000e+000 0.000000e+000 0.000000e+000 0.000000e+000
<ENDHMM>
~h "doepuri"
<BEGINHMM>
<NUMSTATES> 5
<STATE> 2
<MEAN> 39
 -1.750914e+001 1.263699e+000 -1.848294e+000 -2.299917e-001 -1.864537e+000 -6.645732e-001 -7.910113e-001 -3.078112e-001 -1.057493e+000 -3.858888e-002 -2.955956e-001 7.488204e-001 4.379695e+001 1.476433e-002 -9.770121e-002 1.185806e-001 -2.454916e-001 8.148114e-002 -1.017075e-001 -6.681859e-002 -8.926095e-002 -1.457317e-001 -4.051468e-002 6.883362e-003 2.016757e-002 2.349991e-001 -5.065014e-002 -1.574854e-001 6.491672e-002 -2.358713e-001 3.475387e-002 -5.396540e-002 2.887877e-002 2.922109e-002 -1.691715e-002 -2.591683e-003 -3.505302e-002 3.664487e-002 3.999878e-001
<VARIANCE> 39
 3.122129e+000 4.670636e+000 5.932374e+000 1.230231e+001 1.469713e+001 1.393458e+001 1.180329e+001 1.242866e+001 1.503059e+001 1.105373e+001 1.352792e+001 1.017716e+001 5.636927e+000 2.134297e-001 5.880243e-001 6.412253e-001 1.754309e+000 1.312467e+000 1.279654e+000 1.217517e+000 1.214681e+000 1.686993e+000 1.263611e+000 1.398966e+000 1.079518e+000 6.604876e-001 4.582688e-002 1.781064e-001 1.257704e-001 4.125515e-001 2.579181e-001 2.575278e-001 2.497428e-001 2.242501e-001 3.037247e-001 2.464004e-001 3.017186e-001 1.908015e-001 6.279623e-001
<GCONST> 8.115768e+001
<STATE> 3
<MEAN> 39
 -9.974488e+000 -4.299360e-001 1.781972e+000 -2.140162e+000 -5.248633e+000 -4.490461e+000 -6.658787e+000 -1.750766e+000 -3.600696e+000 1.464816e+000 1.223039e+000 2.618187e-001 6.413252e+001 2.126864e-001 2.121464e-002 4.806448e-001 2.261359e-003 -3.850332e-001 -9.375525e-002 -1.991602e-001 -7.515491e-002 -2.702890e-001 -4.737446e-002 9.305742e-002 -8.452590e-002 6.395488e-001 1.374136e-002 5.837758e-002 3.684426e-002 3.015818e-002 -4.962077e-002 2.010529e-002 -7.687058e-003 5.336147e-003 -5.905046e-002 1.091351e-002 1.447939e-002 -3.216387e-002 -7.414314e-002
<VARIANCE> 39
 5.967734e+001 3.296230e+001 4.568293e+001 4.346791e+001 5.540118e+001 6.161999e+001 5.339724e+001 4.917743e+001 3.714535e+001 2.991641e+001 3.009167e+001 2.649430e+001 1.309164e+002 5.270720e+000 3.774982e+000 3.651995e+000 5.292423e+000 5.763152e+000 5.010109e+000 4.609879e+000 3.827673e+000 4.117727e+000 3.178169e+000 3.338784e+000 2.680481e+000 1.363447e+001 8.113181e-001 6.972919e-001 4.948859e-001 1.079101e+000 1.041646e+000 8.763832e-001 8.152871e-001 6.851347e-001 7.474614e-001 6.371911e-001 6.585156e-001 5.590665e-001 1.956217e+000
<GCONST> 1.380539e+002
<STATE> 4
<MEAN> 39
 -1.266745e+001 3.709554e+000 1.008105e+001 -2.991229e+000 -9.964125e+000 -9.637100e-001 -3.244257e+000 -2.328706e+000 -7.798046e+000 4.192451e-001 1.647594e-001 -1.833621e+000 5.719501e+001 -2.085814e-001 -7.607695e-003 -5.197869e-001 3.764973e-002 3.520392e-001 6.474608e-002 1.969153e-001 1.275133e-001 3.279544e-001 3.549709e-002 -1.004838e-001 5.389598e-002 -6.857859e-001 -8.240082e-003 -2.653655e-002 -6.156856e-002 1.715199e-002 4.489783e-002 -1.330875e-002 3.890744e-003 -4.189976e-003 6.986199e-002 -1.416966e-002 -2.460538e-002 2.269116e-002 -1.572860e-002
<VARIANCE> 39
 1.903637e+001 2.246608e+001 1.149775e+002 3.020482e+001 7.333901e+001 4.003058e+001 5.842014e+001 2.935688e+001 6.566070e+001 3.676050e+001 3.047760e+001 2.748723e+001 1.363329e+002 4.233924e-001 1.121843e+000 1.806933e+000 1.571686e+000 2.069118e+000 2.093308e+000 2.641611e+000 1.729690e+000 2.098301e+000 2.110773e+000 1.601710e+000 1.464790e+000 7.794501e-001 7.796979e-002 1.708545e-001 2.568945e-001 3.011317e-001 3.967946e-001 3.735488e-001 4.276178e-001 3.338290e-001 4.113568e-001 3.679082e-001 3.129951e-001 2.803787e-001 7.624761e-002
<GCONST> 1.085027e+002
<TRANSP> 5
 0.000000e+000 1.000000e+000 0.000000e+000 0.000000e+000 0.000000e+000
 0.000000e+000 8.847899e-001 1.152101e-001 0.000000e+000 0.000000e+000
 0.000000e+000 0.000000e+000 9.759811e-001 2.401891e-002 0.000000e+000
 0.000000e+000 0.000000e+000 0.000000e+000 9.755419e-001 2.445804e-002
 0.000000e+000 0.000000e+000 0.000000e+000 0.000000e+000 0.000000e+000
<ENDHMM>
~h "choeagi"
<BEGINHMM>
<NUMSTATES> 5
<STATE> 2
<MEAN> 39
 -1.792904e+001 1.813318e+000 -6.034773e-001 -3.407222e-002 -8.080178e-001 -4.199221e-001 -1.786697e+000 -7.530707e-001 -1.522764e+000 2.734357e-001 4.457346e-001 7.148731e-001 4.417884e+001 -8.833615e-002 -3.184632e-001 8.129109e-002 -2.886973e-001 2.851831e-003 2.084579e-001 1.492453e-002 -1.542797e-002 5.774280e-002 -5.859985e-003 1.478240e-001 6.394996e-002 5.118368e-001 -1.772103e-001 -1.699493e-001 7.915165e-002 -3.442109e-001 -5.993231e-002 3.886981e-002 -8.013396e-002 6.068061e-002 2.895811e-002 -3.491139e-002 -3.683403e-002 -4.489784e-002 4.697789e-001
<VARIANCE> 39
 5.462049e+000 7.373882e+000 1.027570e+001 1.128964e+001 1.123200e+001 1.478402e+001 2.051962e+001 1.603959e+001 1.384969e+001 1.055592e+001 1.138755e+001 1.131257e+001 1.225126e+001 8.720936e-001 1.672160e+000 1.401420e+000 2.883044e+000 1.318039e+000 1.626201e+000 2.221566e+000 2.033580e+000 1.594810e+000 1.204793e+000 1.332633e+000 1.199260e+000 2.824071e+000 1.731602e-001 2.432693e-001 2.918335e-001 4.470365e-001 2.568116e-001 3.131366e-001 4.480999e-001 4.137561e-001 2.979258e-001 2.286464e-001 2.497737e-001 1.629043e-001 8.037049e-001
<GCONST> 9.407214e+001
<STATE> 3
<MEAN> 39
 -2.185883e+001 -4.375958e+000 4.295809e+000 -8.527637e+000 -7.749638e+000 -2.075546e+000 -2.469087e+000 7.971964e-001 -1.892997e+000 -7.895113e-001 7.458708e-001 8.024755e-001 6.958208e+001 8.872076e-001 -1.377425e-001 6.179702e-001 -1.356199e-002 -9.592935e-001 -7.811328e-001 -4.010921e-002 3.526631e-001 -3.565259e-001 -4.626936e-003 -9.523375e-002 -9.693545e-002 1.887848e+000 3.012417e-001 1.442333e-001 -4.365376e-002 2.063589e-001 -5.341003e-002 -1.199235e-001 -1.593448e-002 6.421211e-002 -1.911543e-002 3.076327e-002 -4.212878e-002 -2.761323e-002 -2.539100e-001
<VARIANCE> 39
 5.971269e+001 1.931513e+001 2.804900e+001 4.671194e+001 3.142631e+001 3.773996e+001 2.503721e+001 2.280939e+001 2.415269e+001 1.666429e+001 1.577581e+001 2.089797e+001 6.618559e+001 7.641633e+000 2.526591e+000 2.179283e+000 5.330375e+000 2.336683e+000 2.818392e+000 3.143700e+000 2.211532e+000 2.518195e+000 1.772570e+000 2.057089e+000 1.938621e+000 9.411661e+000 8.161777e-001 5.313566e-001 3.996330e-001 7.790880e-001 3.898388e-001 4.366364e-001 5.782526e-001 3.862703e-001 5.028859e-001 3.510088e-001 3.471477e-001 3.274787e-001 1.170375e+000
<GCONST> 1.206545e+002
<STATE> 4
<MEAN> 39
 -9.936693e+000 2.139718e+000 6.765337e+000 -6.077741e+000 -8.208163e+000 -4.319828e+000 -3.803358e+000 4.826021e-002 -5.283764e+000 6.942882e-001 -2.200438e+000 -3.639918e+000 6.402721e+001 -1.321254e-001 6.330939e-002 -1.497809e-001 6.129177e-002 1.773917e-001 1.150044e-001 2.665726e-002 -5.548475e-002 4.273987e-002 -3.474723e-003 1.720778e-002 2.356452e-002 -4.123778e-001 -3.379190e-002 -4.737747e-003 -6.679229e-003 5.686698e-003 2.558468e-002 1.596370e-002 1.613105e-002 -8.146865e-003 1.890002e-003 -2.068806e-003 4.837850e-003 8.305971e-003 -2.086826e-002
<VARIANCE> 39
 3.738649e+001 5.636239e+001 1.037157e+002 4.282458e+001 6.228099e+001 6.033514e+001 5.201482e+001 4.917788e+001 6.130739e+001 4.267411e+001 5.248572e+001 5.103895e+001 1.676316e+002 1.354163e+000 2.026773e+000 2.688962e+000 2.183355e+000 2.610947e+000 2.309306e+000 2.847689e+000 2.317009e+000 3.166442e+000 2.158545e+000 2.066458e+000 2.005760e+000 2.558817e+000 2.368010e-001 3.390733e-001 3.147705e-001 3.750809e-001 3.982664e-001 3.922107e-001 4.799378e-001 4.337255e-001 5.430931e-001 3.621719e-001 3.227783e-001 3.042104e-001 3.596702e-001
<GCONST> 1.223844e+002
<TRANSP> 5
 0.000000e+000 1.000000e+000 0.000000e+000 0.000000e+000 0.000000e+000
 0.000000e+000 8.986617e-001 1.013382e-001 0.000000e+000 0.000000e+000
 0.000000e+000 0.000000e+000 9.228846e-001 7.711539e-002 0.000000e+000
 0.000000e+000 0.000000e+000 0.000000e+000 9.862475e-001 1.375242e-002
 0.000000e+000 0.000000e+000 0.000000e+000 0.000000e+000 0.000000e+000
<ENDHMM>
~h "nawaya"
<BEGINHMM>
<NUMSTATES> 5
<STATE> 2
<MEAN> 39
 -1.714122e+001 6.827000e-001 -1.605211e+000 -1.830608e-001 -1.875852e+000 -2.904628e-001 -5.559492e-001 -1.480075e+000 -1.168047e+000 1.952329e-001 -1.932538e+000 1.001858e-001 4.509243e+001 8.992751e-002 1.648843e-001 4.339999e-001 1.712589e-001 -1.616752e-001 1.837453e-001 1.852690e-001 -4.006488e-001 -1.166313e-001 1.124489e-001 -4.088112e-001 -1.132290e-001 2.316757e-001 1.295460e-001 1.299507e-001 1.225885e-001 7.318328e-002 1.460922e-002 -4.887334e-002 -7.633404e-002 -5.622229e-002 -2.193322e-002 6.527840e-002 -4.417098e-002 -2.606767e-002 1.908148e-001
<VARIANCE> 39
 3.007056e+000 1.026486e+001 6.526565e+000 1.098149e+001 1.474415e+001 1.194131e+001 1.284270e+001 1.768095e+001 1.393282e+001 1.150194e+001 1.705914e+001 1.224301e+001 1.017250e+001 2.749440e-001 6.819369e-001 9.705669e-001 1.204893e+000 1.492450e+000 1.383282e+000 1.616744e+000 1.546185e+000 1.286176e+000 1.259250e+000 1.618887e+000 1.132890e+000 2.810315e-001 1.289005e-001 1.497406e-001 1.997886e-001 2.259582e-001 2.845183e-001 2.811460e-001 3.281543e-001 2.724158e-001 2.450936e-001 2.197079e-001 2.908608e-001 2.284787e-001 1.838384e-001
<GCONST> 8.334370e+001
<STATE> 3
<MEAN> 39
 -8.787268e+000 2.227569e+000 2.005414e+000 -3.015356e+000 -2.015057e+000 -3.712322e+000 -5.215345e+000 -2.953572e+000 1.836120e-001 5.241668e-001 -8.408012e+000 -3.331219e+000 6.327073e+001 1.275295e+000 -9.407302e-001 -8.794057e-001 -1.443395e+000 7.251732e-001 -2.314757e-001 -4.893883e-001 6.520758e-001 2.688397e-001 -2.032386e-001 -6.314866e-001 -8.016207e-001 3.341345e+000 -7.690500e-002 -2.924291e-001 -2.224822e-001 -1.439098e-001 1.175790e-001 1.662160e-001 1.673291e-001 -3.279612e-003 -6.395207e-002 -2.931610e-002 1.623199e-001 -8.104441e-002 -1.163121e-001
<VARIANCE> 39
 3.652061e+001 4.305432e+001 7.109200e+001 7.077298e+001 5.594529e+001 4.306490e+001 5.014473e+001 6.453612e+001 2.896212e+001 2.314731e+001 3.455193e+001 3.812774e+001 1.521055e+002 3.157644e+000 4.982538e+000 8.115505e+000 5.282447e+000 5.214571e+000 5.785054e+000 4.743669e+000 6.937939e+000 2.719931e+000 2.382476e+000 3.329808e+000 2.838000e+000 6.417577e+000 6.077529e-001 6.973625e-001 1.442849e+000 1.032005e+000 9.082515e-001 1.050811e+000 8.545821e-001 1.590765e+000 4.825051e-001 4.736425e-001 6.511893e-001 4.256475e-001 1.532614e+000
<GCONST> 1.390022e+002
<STATE> 4
<MEAN> 39
 -5.796089e+000 -3.749064e+000 -4.328545e+000 -1.020149e+001 -2.714318e-001 3.955540e-001 -1.711983e+000 2.058789e+000 -9.557688e-001 1.234624e-001 -3.506987e+000 -6.234069e+000 6.737001e+001 -1.960752e-001 1.096256e-001 7.633010e-002 1.689339e-001 -6.049120e-002 6.500482e-003 4.758593e-002 -4.243757e-002 -2.239285e-002 9.745873e-003 1.447398e-001 1.383117e-001 -4.625199e-001 -9.816616e-003 1.885454e-002 1.171050e-002 1.458734e-002 -1.747265e-002 -1.899357e-002 -1.416488e-002 5.950160e-003 8.973765e-003 1.201423e-003 -5.891073e-003 2.137099e-002 -1.133199e-002
<VARIANCE> 39
 4.503477e+001 2.536780e+001 4.403695e+001 8.904520e+001 7.726759e+001 6.582509e+001 2.926365e+001 4.528524e+001 3.485051e+001 3.036988e+001 5.272230e+001 6.472733e+001 1.724040e+002 4.979761e-001 1.100366e+000 1.665551e+000 1.795132e+000 2.705870e+000 2.123278e+000 1.545807e+000 2.155049e+000 1.812241e+000 1.492554e+000 2.273398e+000 2.338984e+000 8.137965e-001 5.294588e-002 1.735988e-001 1.986273e-001 2.372308e-001 3.196196e-001 2.639276e-001 2.795859e-001 3.719904e-001 3.011814e-001 2.486267e-001 3.381729e-001 3.377688e-001 7.248987e-002
<GCONST> 1.090046e+002
<TRANSP> 5
 0.000000e+000 1.000000e+000 0.000000e+000 0.000000e+000 0.000000e+000
 0.000000e+000 8.900346e-001 1.099653e-001 0.000000e+000 0.000000e+000
 0.000000e+000 0.000000e+000 8.965150e-001 1.034850e-001 0.000000e+000
 0.000000e+000 0.000000e+000 0.000000e+000 9.864025e-001 1.359749e-002
 0.000000e+000 0.000000e+000 0.000000e+000 0.000000e+000 0.000000e+000
<ENDHMM>
~h "bunyaeseo"
<BEGINHMM>
<NUMSTATES> 5
<STATE> 2
<MEAN> 39
 -1.805658e+001 5.709500e-001 -1.421463e+000 2.422441e-001 -5.809133e-001 -4.472235e-001 -6.428107e-001 -1.168833e-001 -1.256501e+000 1.149034e-001 -6.134797e-001 3.150285e-001 4.436196e+001 -8.985043e-003 -3.448519e-001 -2.091696e-001 -2.380009e-001 -1.448000e-001 -1.038388e-001 -1.760122e-001 -1.890643e-001 -1.702106e-001 9.709159e-002 1.920991e-001 4.629457e-002 1.152932e+000 -1.979377e-002 -1.802276e-001 -1.085492e-001 6.512331e-003 7.279579e-002 -6.624449e-002 -9.355270e-002 -6.344204e-003 6.628931e-002 1.958776e-002 7.015136e-002 1.334025e-002 5.690332e-001
<VARIANCE> 39
 2.451794e+000 7.109931e+000 5.573963e+000 8.683499e+000 1.354198e+001 1.405536e+001 1.491349e+001 1.559072e+001 1.468838e+001 1.423203e+001 1.155666e+001 1.520785e+001 1.300460e+001 3.723929e-001 1.428167e+000 8.930793e-001 1.242240e+000 1.606401e+000 1.491498e+000 1.554537e+000 1.736745e+000 1.778407e+000 1.847689e+000 1.522476e+000 1.744936e+000 5.900402e+000 5.666084e-002 2.223672e-001 1.610874e-001 2.056236e-001 3.036263e-001 2.525102e-001 2.711357e-001 3.429104e-001 3.476535e-001 3.190683e-001 2.726668e-001 3.633260e-001 7.253738e-001
<GCONST> 8.991361e+001
<STATE> 3
<MEAN> 39
 -9.552142e+000 -1.432102e-001 3.086551e+000 -3.099921e+000 -5.298679e+000 -3.448276e+000 -8.256658e+000 -1.969362e+000 -4.904084e+000 -2.639091e-002 -5.111513e-001 -1.335784e+000 6.884203e+001 6.368337e-001 7.590581e-002 6.136748e-001 -3.148730e-001 -7.152637e-001 -2.611689e-001 -2.311517e-001 4.400498e-001 -2.567968e-001 -1.972019e-001 -2.159933e-001 -5.267838e-002 1.120002e+000 2.340755e-002 -9.531483e-003 -3.850660e-002 2.079282e-002 -2.003263e-003 1.102961e-002 8.612210e-002 1.323256e-001 6.385244e-002 -4.726090e-002 -1.166720e-001 -3.606650e-002 -2.346470e-001
<VARIANCE> 39
 5.331853e+001 4.467412e+001 8.156033e+001 3.710269e+001 7.613515e+001 3.475290e+001 4.866954e+001 4.390393e+001 4.567559e+001 4.851041e+001 4.191113e+001 2.855740e+001 2.611863e+001 3.404489e+000 4.033927e+000 4.745600e+000 3.385152e+000 5.122770e+000 3.521756e+000 4.665335e+000 5.762217e+000 3.925497e+000 4.268079e+000 3.649557e+000 2.803969e+000 5.116495e+000 6.162066e-001 6.131878e-001 8.154169e-001 7.180218e-001 1.056509e+000 7.049158e-001 8.448244e-001 1.041863e+000 7.874682e-001 8.191090e-001 7.228070e-001 5.136024e-001 9.054663e-001
<GCONST> 1.359670e+002
<STATE> 4
<MEAN> 39
 -9.115147e+000 -8.616833e-001 -2.336714e+000 -7.274402e+000 -3.998064e+000 -6.752977e-001 -2.331681e+000 2.783700e+000 -3.141463e+000 3.111270e-001 -2.002696e+000 -2.218437e+000 6.546687e+001 -1.489637e-001 3.858486e-002 -1.402443e-001 9.384639e-002 1.769599e-001 8.077239e-002 7.109956e-002 -1.121231e-001 6.992406e-002 4.075129e-002 4.543301e-002 1.190960e-002 -4.471191e-001 -7.612410e-003 2.997172e-002 3.011118e-002 -3.445327e-004 -9.480748e-003 -3.187916e-003 -1.301393e-002 -2.965308e-002 -1.742990e-002 9.140787e-003 2.215023e-002 4.198396e-003 -1.781647e-002
<VARIANCE> 39
 8.096123e+001 2.535428e+001 5.460201e+001 5.849576e+001 6.867413e+001 7.970858e+001 4.329282e+001 5.444704e+001 4.023143e+001 4.008094e+001 5.095387e+001 4.635243e+001 1.657266e+002 3.797920e+000 1.355045e+000 2.018252e+000 2.308882e+000 2.518348e+000 2.588030e+000 2.705038e+000 2.097095e+000 2.262746e+000 2.054254e+000 2.141905e+000 1.963062e+000 8.808956e-001 4.301506e-001 2.077559e-001 2.855248e-001 3.323473e-001 3.933290e-001 4.164228e-001 4.414938e-001 3.587081e-001 3.954472e-001 3.471692e-001 3.201448e-001 3.164772e-001 9.224168e-002
<GCONST> 1.185620e+002
<TRANSP> 5
 0.000000e+000 1.000000e+000 0.000000e+000 0.000000e+000 0.000000e+000
 0.000000e+000 9.004322e-001 9.956782e-002 0.000000e+000 0.000000e+000
 0.000000e+000 0.000000e+000 9.471096e-001 5.289039e-002 0.000000e+000
 0.000000e+000 0.000000e+000 0.000000e+000 9.865500e-001 1.344997e-002
 0.000000e+000 0.000000e+000 0.000000e+000 0.000000e+000 0.000000e+000
<ENDHMM>
~h "widaehan"
<BEGINHMM>
<NUMSTATES> 5
<STATE> 2
<MEAN> 39
 -1.724944e+001 1.026223e+000 -1.620553e+000 5.789952e-001 -1.527195e+000 -8.870770e-001 -4.884187e-001 -6.344189e-002 -1.272707e+000 7.299376e-002 -1.048326e+000 2.099257e-001 4.385236e+001 2.438342e-001 -1.202493e-002 1.710827e-001 2.826790e-001 -3.102227e-002 -1.291223e-001 -9.085626e-003 -8.731275e-002 -4.686475e-001 1.489684e-001 6.001520e-002 -1.111257e-001 2.723895e-001 1.593164e-001 6.639457e-002 1.808766e-001 1.507096e-001 -8.596427e-002 -6.415644e-002 -4.612468e-002 8.224571e-002 -1.357199e-001 -4.873355e-002 -2.430931e-003 -7.115620e-002 1.863844e-001
<VARIANCE> 39
 4.007713e+000 3.890471e+000 5.119726e+000 9.143408e+000 1.173840e+001 1.485566e+001 1.131608e+001 1.550388e+001 1.445788e+001 1.582705e+001 1.458289e+001 8.670803e+000 7.170230e+000 2.469677e-001 5.135058e-001 7.821224e-001 1.112185e+000 1.450156e+000 1.344541e+000 1.141445e+000 1.458966e+000 1.841481e+000 1.760157e+000 1.482875e+000 1.149814e+000 1.956715e-001 1.303059e-001 1.017958e-001 2.180162e-001 2.054039e-001 2.452176e-001 2.707325e-001 2.132162e-001 2.680973e-001 3.485849e-001 3.046908e-001 2.836504e-001 1.709102e-001 1.130297e-001
<GCONST> 7.944116e+001
<STATE> 3
<MEAN> 39
 -9.218895e+000 3.719038e+000 1.169854e+001 8.897822e-001 -1.101412e+001 -7.159726e+000 -5.334221e+000 -1.192400e+000 -1.114870e+001 -2.601522e+000 1.730106e+000 -2.305161e+000 6.511859e+001 3.664301e-001 -7.805225e-002 4.561286e-001 -3.422275e-001 -6.716028e-001 -4.511348e-001 -2.757663e-001 9.397415e-002 -2.239944e-001 -2.613177e-002 1.805070e-001 2.008270e-002 1.414084e+000 -4.626289e-002 -5.071580e-002 -7.938880e-002 -9.844653e-002 8.214224e-003 4.325740e-002 3.164114e-002 4.062136e-002 9.437187e-002 2.107223e-002 -2.937734e-002 1.448410e-002 -4.298511e-002
<VARIANCE> 39
 2.890632e+001 3.332353e+001 7.227916e+001 5.169214e+001 7.161710e+001 4.836578e+001 4.272762e+001 3.903648e+001 4.469256e+001 3.613102e+001 2.531199e+001 2.336423e+001 1.110811e+002 4.312893e+000 3.940508e+000 7.451331e+000 4.073339e+000 8.190577e+000 3.745954e+000 4.903719e+000 3.802718e+000 5.200206e+000 3.382576e+000 2.611109e+000 2.256159e+000 1.053013e+001 8.312591e-001 7.142950e-001 1.103893e+000 7.467873e-001 1.374746e+000 7.802305e-001 9.185922e-001 6.512051e-001 8.222317e-001 6.265314e-001 4.375420e-001 4.171408e-001 1.870759e+000
<GCONST> 1.375167e+002
<STATE> 4
<MEAN> 39
 -9.012673e+000 -1.842711e-001 1.722598e+000 -1.542298e+000 -3.470672e+000 -3.795918e+000 -3.624188e+000 2.753920e+000 -1.835569e+000 1.385237e-001 -6.253597e+000 -2.698965e+000 6.250592e+001 -1.972192e-001 3.493705e-002 -2.159431e-001 8.903708e-002 2.977608e-001 1.647209e-001 9.011617e-002 -4.606011e-002 1.581803e-001 1.306058e-002 -7.216801e-002 2.139149e-002 -6.043928e-001 -8.214212e-003 1.396137e-002 9.950331e-003 2.349363e-002 1.655727e-002 -5.686113e-003 -3.713023e-003 -2.517330e-002 -8.931235e-003 -7.049504e-003 2.775740e-003 5.958028e-003 -1.123260e-002
<VARIANCE> 39
 3.960468e+001 2.271859e+001 6.117537e+001 5.202179e+001 7.719457e+001 4.499127e+001 4.358699e+001 6.351891e+001 3.082155e+001 2.761159e+001 5.869700e+001 4.673135e+001 2.027689e+002 7.696983e-001 8.951048e-001 2.721824e+000 2.421564e+000 2.980330e+000 2.259423e+000 2.141018e+000 2.814086e+000 1.819519e+000 1.711429e+000 2.200987e+000 1.696396e+000 1.066012e+000 1.051779e-001 1.330041e-001 3.272350e-001 4.006324e-001 4.060658e-001 3.888398e-001 3.680803e-001 4.820682e-001 3.151340e-001 3.186657e-001 3.300215e-001 2.891757e-001 1.273619e-001
<GCONST> 1.137478e+002
<TRANSP> 5
 0.000000e+000 1.000000e+000 0.000000e+000 0.000000e+000 0.000000e+000
 0.000000e+000 8.842947e-001 1.157053e-001 0.000000e+000 0.000000e+000
 0.000000e+000 0.000000e+000 9.566790e-001 4.332102e-002 0.000000e+000
 0.000000e+000 0.000000e+000 0.000000e+000 9.821345e-001 1.786548e-002
 0.000000e+000 0.000000e+000 0.000000e+000 0.000000e+000 0.000000e+000
<ENDHMM>
~h "gyamalo"
<BEGINHMM>
<NUMSTATES> 5
<STATE> 2
<MEAN> 39
 -1.791108e+001 8.748773e-001 -1.644207e+000 7.015134e-002 -2.916621e-001 5.108227e-001 -6.888720e-001 3.572125e-002 -9.188212e-001 9.407582e-002 -6.393939e-001 9.491169e-001 4.427527e+001 1.360525e-002 -1.252160e-001 -1.943347e-001 -3.715013e-001 1.464703e-001 -7.365742e-002 -1.639744e-001 -1.767627e-001 -1.543408e-001 4.170997e-001 -6.262324e-002 9.647202e-002 5.108855e-001 2.973168e-002 -1.965297e-001 -2.457180e-001 -1.758706e-001 1.312671e-001 -1.331361e-001 -2.171559e-001 -7.787873e-002 -7.616533e-002 1.913590e-001 -1.301523e-001 -7.764501e-002 4.533824e-001
<VARIANCE> 39
 6.465455e+000 6.413454e+000 9.494257e+000 1.186417e+001 1.243844e+001 1.514083e+001 1.323667e+001 1.622968e+001 1.504669e+001 1.355178e+001 1.297985e+001 1.376248e+001 9.786427e+000 6.846815e-001 1.292315e+000 2.160084e+000 1.894807e+000 1.464584e+000 2.077295e+000 1.750495e+000 1.956675e+000 1.371188e+000 2.445938e+000 1.849167e+000 1.600764e+000 2.574066e+000 1.179737e-001 2.495366e-001 4.339023e-001 3.273403e-001 3.149231e-001 4.656542e-001 4.089687e-001 3.863990e-001 2.419011e-001 4.146541e-001 3.608924e-001 2.657927e-001 7.365892e-001
<GCONST> 9.619846e+001
<STATE> 3
<MEAN> 39
 -1.030467e+001 -4.597804e+000 -5.007723e-001 -6.117147e+000 -1.362659e+000 -5.713151e+000 -9.073325e+000 1.004761e+000 -4.754508e+000 4.595867e+000 -3.402664e+000 -2.058643e+000 6.810062e+001 7.433755e-001 -4.670679e-002 6.062772e-001 -1.372075e-001 -6.659967e-001 -2.580603e-001 -5.781397e-001 3.288593e-001 -3.082375e-001 -1.949595e-001 4.699778e-002 -2.925391e-001 1.496930e+000 -8.773988e-003 7.158503e-002 1.505966e-001 6.491172e-002 -1.560354e-001 6.272822e-002 8.392818e-002 5.871743e-002 5.561082e-002 -1.317777e-001 4.761038e-002 3.252947e-002 -1.611352e-001
<VARIANCE> 39
 4.172755e+001 3.327961e+001 1.371765e+002 4.987838e+001 8.548645e+001 4.511838e+001 4.382698e+001 5.819470e+001 4.549158e+001 5.795799e+001 4.849633e+001 3.529488e+001 9.370086e+001 1.753788e+000 3.988111e+000 1.301642e+001 5.555850e+000 8.048198e+000 4.969453e+000 4.784009e+000 5.463198e+000 5.520978e+000 5.267512e+000 4.553738e+000 2.531396e+000 8.408359e+000 3.728473e-001 6.852345e-001 2.060696e+000 1.150218e+000 1.149148e+000 8.864079e-001 8.511257e-001 9.519295e-001 1.060620e+000 9.720373e-001 8.100469e-001 5.474882e-001 1.457739e+000
<GCONST> 1.437314e+002
<STATE> 4
<MEAN> 39
 -4.066575e+000 -6.705574e-001 -2.403540e+000 -5.597531e+000 -5.628889e+000 3.797678e-001 -5.150421e+000 -9.302117e-001 -3.698273e+000 9.770061e-001 -1.250100e+000 -3.595200e+000 6.411332e+001 -1.756354e-001 3.755083e-002 -1.234653e-001 6.523025e-002 1.212157e-001 5.476766e-002 1.603193e-001 -6.632586e-002 7.371210e-002 -1.790847e-002 -6.341555e-003 5.497168e-002 -4.250962e-001 -3.023563e-003 5.982769e-003 -7.116984e-003 1.011211e-002 1.746323e-002 -5.819910e-003 7.307708e-003 -7.264548e-003 -4.507439e-003 8.345125e-003 8.273694e-005 -5.383109e-003 -1.726949e-002
<VARIANCE> 39
 5.531079e+001 2.776075e+001 3.608589e+001 9.422874e+001 4.707041e+001 9.224882e+001 6.967440e+001 7.145947e+001 5.450917e+001 4.481672e+001 6.571954e+001 4.789621e+001 1.560593e+002 7.421308e-001 1.092679e+000 2.208616e+000 4.676901e+000 2.875420e+000 3.804745e+000 2.849872e+000 3.442529e+000 3.240370e+000 2.388250e+000 2.770129e+000 2.049752e+000 1.076350e+000 9.233022e-002 1.611291e-001 3.573489e-001 6.352057e-001 4.997445e-001 5.132210e-001 4.502635e-001 5.229115e-001 5.254620e-001 4.265312e-001 3.976389e-001 3.482794e-001 1.186113e-001
<GCONST> 1.214957e+002
<TRANSP> 5
 0.000000e+000 1.000000e+000 0.000000e+000 0.000000e+000 0.000000e+000
 0.000000e+000 8.884779e-001 1.115221e-001 0.000000e+000 0.000000e+000
 0.000000e+000 0.000000e+000 9.437293e-001 5.627063e-002 0.000000e+000
 0.000000e+000 0.000000e+000 0.000000e+000 9.866776e-001 1.332234e-002
 0.000000e+000 0.000000e+000 0.000000e+000 0.000000e+000 0.000000e+000
<ENDHMM>
~h "uioero"
<BEGINHMM>
<NUMSTATES> 5
<STATE> 2
<MEAN> 39
 -1.755734e+001 4.823001e-001 -2.927572e+000 2.303356e-001 3.067207e-001 -6.161817e-001 -2.085461e+000 1.049499e+000 -5.428913e-001 7.169961e-001 -1.143858e+000 -1.006181e+000 4.507310e+001 1.053286e-001 1.677991e-001 2.483621e-002 -1.927990e-001 5.516980e-002 1.122942e-001 -2.621137e-001 -7.905049e-002 -4.134138e-001 2.794894e-001 2.353675e-001 -1.745506e-001 1.895473e-001 1.089222e-001 1.008513e-001 7.565852e-002 -8.133354e-002 3.872942e-002 8.229781e-002 -1.564968e-001 2.571839e-003 -8.654469e-002 5.652634e-002 1.167732e-001 -1.112290e-001 2.319179e-001
<VARIANCE> 39
 5.932496e+000 6.651464e+000 1.177312e+001 9.351501e+000 1.244227e+001 1.534852e+001 2.297852e+001 1.372909e+001 2.009657e+001 1.955108e+001 1.346218e+001 1.373573e+001 1.090269e+001 4.094935e-001 9.122909e-001 1.091140e+000 1.209474e+000 1.291573e+000 1.588657e+000 2.775569e+000 1.532914e+000 2.159666e+000 2.120345e+000 1.436202e+000 1.474053e+000 3.924702e-001 1.749949e-001 2.068816e-001 2.102632e-001 2.203865e-001 2.173340e-001 3.368534e-001 4.687072e-001 2.877582e-001 3.673734e-001 3.330916e-001 2.434087e-001 2.502580e-001 1.263879e-001
<GCONST> 8.946272e+001
<STATE> 3
<MEAN> 39
 -7.894362e+000 3.715379e+000 1.800743e+000 -3.177734e+000 -3.939926e+000 -4.602090e-001 -1.254335e+001 -1.951331e+000 -7.625724e+000 2.832417e+000 3.570921e+000 -6.566535e+000 5.984070e+001 1.760034e+000 9.627766e-003 1.193080e+000 -3.015479e-001 -1.501079e+000 -4.454382e-001 -1.455114e+000 -4.426661e-001 -1.128264e+000 -3.275239e-001 6.744110e-001 -6.290846e-001 3.146600e+000 -1.814475e-001 -1.251784e-001 6.385074e-002 8.619536e-002 -2.120121e-001 -9.615816e-002 2.315320e-001 -3.698891e-003 3.322513e-002 -1.816242e-001 -8.425770e-002 1.329421e-001 -1.008018e-001
<VARIANCE> 39
 5.882383e+001 2.687890e+001 5.263135e+001 2.947691e+001 6.272617e+001 7.084787e+001 6.120452e+001 8.053915e+001 5.365868e+001 3.617566e+001 4.760313e+001 4.547885e+001 1.111696e+002 4.565666e+000 3.612772e+000 3.060917e+000 2.656851e+000 3.662199e+000 3.168388e+000 5.822510e+000 4.702682e+000 3.678425e+000 2.970061e+000 2.781334e+000 3.068159e+000 4.555184e+000 9.452807e-001 6.648010e-001 4.265805e-001 4.568140e-001 7.469772e-001 5.360278e-001 1.197835e+000 8.114952e-001 6.321381e-001 4.037907e-001 5.338144e-001 5.806491e-001 1.167568e+000
<GCONST> 1.345404e+002
<STATE> 4
<MEAN> 39
 -4.699274e+000 2.748822e-001 1.208526e+000 -5.234406e+000 -9.031670e+000 -2.395093e-001 -6.692567e+000 -9.223025e-002 -7.116626e+000 -2.808480e-001 2.640292e+000 -2.242562e+000 6.403025e+001 -1.965368e-001 -8.837600e-003 -1.266384e-001 5.648998e-002 1.446171e-001 6.472138e-002 2.291801e-001 3.616383e-002 1.531652e-001 -2.442913e-002 -9.207014e-002 1.081679e-001 -3.843321e-001 2.321259e-003 1.610265e-003 -1.530290e-002 -4.306115e-003 1.995751e-002 4.483395e-003 -4.131645e-003 4.852935e-003 1.129215e-002 7.327993e-003 -4.844259e-003 -5.201416e-003 -1.554645e-002
<VARIANCE> 39
 5.839091e+001 2.690701e+001 7.008194e+001 6.794276e+001 6.646106e+001 9.526682e+001 8.647634e+001 6.574074e+001 5.789538e+001 4.192702e+001 6.099847e+001 3.082139e+001 1.497722e+002 9.753808e-001 9.790574e-001 1.571900e+000 2.902399e+000 2.274593e+000 2.715832e+000 2.797604e+000 2.898688e+000 2.464373e+000 2.174611e+000 2.556559e+000 1.480288e+000 8.513485e-001 1.287736e-001 1.420486e-001 2.230896e-001 4.111762e-001 3.933320e-001 3.868421e-001 4.513367e-001 4.492289e-001 4.005670e-001 3.967775e-001 4.184038e-001 2.651138e-001 9.959517e-002
<GCONST> 1.172675e+002
<TRANSP> 5
 0.000000e+000 1.000000e+000 0.000000e+000 0.000000e+000 0.000000e+000
 0.000000e+000 8.891764e-001 1.108237e-001 0.000000e+000 0.000000e+000
 0.000000e+000 0.000000e+000 8.752930e-001 1.247071e-001 0.000000e+000
 0.000000e+000 0.000000e+000 0.000000e+000 9.863122e-001 1.368778e-002
 0.000000e+000 0.000000e+000 0.000000e+000 0.000000e+000 0.000000e+000
<ENDHMM>
~h "jayuwa"
<BEGINHMM>
<NUMSTATES> 5
<STATE> 2
<MEAN> 39
 -1.774509e+001 1.648843e+000 -1.066409e+000 -4.938905e-001 -7.759206e-001 -1.606795e+000 -2.178240e+000 -1.403744e+000 -1.776028e+000 5.913680e-001 -3.372981e-001 6.082262e-001 4.493708e+001 -2.867646e-001 -1.936226e-001 -1.442186e-002 -5.634012e-001 2.532506e-001 -6.628840e-002 1.157758e-001 -5.122472e-002 -2.249343e-001 1.979107e-001 -8.194589e-002 -1.575602e-001 9.228303e-001 -1.719948e-001 -2.429326e-002 -4.757582e-002 -2.037708e-001 5.754872e-002 -1.942657e-001 -2.125419e-002 5.032137e-002 -3.876978e-002 -2.519221e-002 3.459913e-002 5.156512e-002 4.868493e-001
<VARIANCE> 39
 5.808005e+000 8.107123e+000 9.382086e+000 1.421519e+001 2.046099e+001 2.318429e+001 2.137205e+001 1.834400e+001 1.785715e+001 1.843987e+001 9.301486e+000 1.716940e+001 9.876392e+000 1.003579e+000 1.148436e+000 1.302682e+000 2.415985e+000 2.496063e+000 2.450126e+000 1.854668e+000 2.155086e+000 1.977096e+000 2.171108e+000 9.800296e-001 1.983957e+000 3.504359e+000 2.313605e-001 1.980637e-001 1.838195e-001 3.904035e-001 5.412360e-001 4.193043e-001 3.447721e-001 4.075012e-001 3.812593e-001 4.342178e-001 1.869012e-001 3.527420e-001 6.697067e-001
<GCONST> 9.949519e+001
<STATE> 3
<MEAN> 39
 -1.623105e+001 -4.137513e+000 -3.580686e+000 -9.367055e+000 8.233178e-001 -3.759828e+000 -1.009912e+000 3.450096e+000 4.240034e-001 -1.280985e+000 -4.339629e+000 -1.055139e+000 7.160970e+001 1.050925e+000 -4.571071e-001 1.076481e-001 -3.778836e-001 -3.924439e-001 -1.013388e-001 -1.886495e-001 5.509678e-001 3.959832e-001 -2.806758e-001 -4.207716e-001 -3.247190e-001 1.725136e+000 1.048383e-001 8.373822e-002 2.024714e-001 1.489068e-001 -2.046748e-001 2.769209e-002 -9.780458e-002 -9.553947e-003 -3.021353e-002 2.442691e-002 7.160240e-002 6.803390e-002 -3.429089e-001
<VARIANCE> 39
 9.650705e+001 3.530430e+001 2.702917e+001 3.557569e+001 3.329898e+001 3.617615e+001 3.268736e+001 3.679689e+001 3.067946e+001 3.082685e+001 3.862702e+001 3.535153e+001 6.843794e+001 6.104199e+000 3.591187e+000 3.006727e+000 4.788654e+000 3.808794e+000 4.636111e+000 4.058015e+000 4.120624e+000 2.678758e+000 2.759399e+000 3.231356e+000 2.792820e+000 5.364184e+000 9.565154e-001 8.382328e-001 5.524625e-001 1.002671e+000 6.871526e-001 9.565830e-001 6.872669e-001 8.693666e-001 5.260155e-001 5.118501e-001 6.232772e-001 5.478336e-001 7.476349e-001
<GCONST> 1.320617e+002
<STATE> 4
<MEAN> 39
 -5.410336e+000 -3.922822e-001 -2.742129e+000 -9.222010e+000 -2.954963e+000 2.428761e+000 -5.854099e+000 -3.856991e-001 -4.424732e+000 5.695146e-001 -3.350128e-001 -4.567740e+000 6.491341e+001 -1.991239e-001 1.245934e-001 -2.592175e-002 1.655419e-001 7.070215e-002 7.646247e-002 5.468607e-002 -1.195354e-001 -6.098563e-002 2.618543e-002 8.527984e-002 7.068401e-002 -5.238135e-001 1.958897e-003 -1.186463e-002 -3.903339e-002 -7.722183e-004 3.410161e-002 1.129068e-002 1.755454e-002 -6.272067e-003 1.883354e-002 -1.010528e-002 -2.042941e-002 -1.504109e-002 3.230583e-003
<VARIANCE> 39
 4.982212e+001 3.454618e+001 8.469468e+001 8.852776e+001 9.633336e+001 7.145731e+001 6.058133e+001 4.315427e+001 5.746364e+001 4.058403e+001 5.281815e+001 6.431324e+001 1.576113e+002 5.828178e-001 1.303578e+000 2.569316e+000 2.353802e+000 2.674474e+000 2.246912e+000 2.156673e+000 2.156968e+000 2.584352e+000 2.078266e+000 2.086568e+000 2.210613e+000 8.681951e-001 6.374591e-002 1.687235e-001 2.616106e-001 3.045119e-001 3.451138e-001 3.458540e-001 3.519857e-001 3.950790e-001 4.170616e-001 3.695542e-001 3.277027e-001 3.268069e-001 6.246888e-002
<GCONST> 1.155874e+002
<TRANSP> 5
 0.000000e+000 1.000000e+000 0.000000e+000 0.000000e+000 0.000000e+000
 0.000000e+000 8.983883e-001 1.016117e-001 0.000000e+000 0.000000e+000
 0.000000e+000 0.000000e+000 9.347923e-001 6.520773e-002 0.000000e+000
 0.000000e+000 0.000000e+000 0.000000e+000 9.855748e-001 1.442523e-002
 0.000000e+000 0.000000e+000 0.000000e+000 0.000000e+000 0.000000e+000
<ENDHMM>
~h "gwaeoni"
<BEGINHMM>
<NUMSTATES> 5
<STATE> 2
<MEAN> 39
 -1.735501e+001 6.353527e-001 -1.823866e+000 -9.761004e-001 -1.592720e+000 -2.794989e-001 -8.735971e-001 -4.527597e-001 -1.588917e+000 3.220446e-001 6.042154e-001 6.131482e-001 4.462704e+001 7.649315e-002 -1.956645e-002 -2.525592e-002 -1.950943e-001 -1.344894e-001 -8.512645e-002 6.281447e-002 -3.416061e-002 -3.903215e-002 7.465036e-003 -3.535090e-002 7.386971e-002 2.081864e-001 1.325358e-001 1.606121e-002 -1.619685e-001 -2.847127e-001 -9.238657e-002 5.058206e-003 -5.960659e-002 9.476037e-002 -5.810231e-002 9.413266e-002 -1.304947e-001 -7.116504e-002 2.754445e-001
<VARIANCE> 39
 3.737218e+000 9.000484e+000 7.098577e+000 1.417058e+001 1.664174e+001 1.358532e+001 1.591776e+001 1.877974e+001 1.723837e+001 1.869212e+001 1.335192e+001 1.060645e+001 9.510118e+000 3.857822e-001 1.360328e+000 1.072932e+000 1.495052e+000 1.947345e+000 1.702125e+000 1.875075e+000 2.095793e+000 2.147325e+000 2.208328e+000 1.302241e+000 1.068209e+000 9.135532e-001 9.828055e-002 2.130424e-001 3.372239e-001 4.457972e-001 3.302732e-001 2.509185e-001 2.870704e-001 4.031836e-001 4.906842e-001 4.261736e-001 2.383473e-001 2.269757e-001 3.477820e-001
<GCONST> 9.215063e+001
<STATE> 3
<MEAN> 39
 -1.010476e+001 -2.144388e-001 -9.131073e+000 -1.460460e+001 -1.824242e+000 4.524110e+000 -1.241943e+000 1.445148e+000 -5.139583e+000 3.460173e+000 2.959187e-001 -4.153955e+000 6.298821e+001 1.210269e+000 -3.473693e-001 -3.999102e-001 -1.367917e+000 2.378317e-001 6.850957e-001 1.242366e-002 -1.740008e-001 -4.170334e-001 2.155941e-001 1.114850e-001 -7.243257e-001 2.207902e+000 -3.355020e-002 -5.868711e-002 8.222332e-002 9.039669e-002 7.325828e-002 -3.471898e-002 9.140983e-003 -5.614066e-002 8.411520e-002 -5.258120e-002 3.447509e-002 8.396452e-004 -7.480292e-002
<VARIANCE> 39
 4.543527e+001 2.733015e+001 3.620066e+001 6.787592e+001 5.804901e+001 5.887824e+001 3.315968e+001 5.037774e+001 4.160841e+001 3.479560e+001 3.091064e+001 3.822712e+001 9.306347e+001 3.254031e+000 3.279928e+000 5.374827e+000 7.173108e+000 4.922400e+000 5.213459e+000 3.543995e+000 5.538103e+000 4.852605e+000 3.214547e+000 3.447663e+000 3.392085e+000 4.391074e+000 7.547402e-001 6.800376e-001 9.270766e-001 1.379910e+000 9.026518e-001 1.040675e+000 6.886836e-001 1.050285e+000 1.080597e+000 6.487802e-001 6.816455e-001 6.298738e-001 9.320478e-001
<GCONST> 1.379011e+002
<STATE> 4
<MEAN> 39
 -7.197472e+000 3.168980e+000 3.009987e+000 -1.081047e+001 -5.689178e+000 3.125563e+000 -3.564970e+000 -2.634376e+000 -6.014416e+000 1.985630e+000 -1.152022e+000 -4.724143e+000 6.421835e+001 -2.450406e-001 7.661341e-002 7.973901e-002 2.943461e-001 -2.434934e-002 -1.203752e-001 -7.180272e-004 1.567362e-002 7.297298e-002 -5.890193e-002 -1.662412e-002 1.305475e-001 -4.480915e-001 -9.626091e-003 9.890098e-003 -8.784102e-004 1.397879e-002 -5.134766e-003 1.228294e-002 3.875345e-003 -2.343213e-004 -5.387141e-003 1.858384e-003 4.740648e-003 4.928289e-003 -1.986387e-002
<VARIANCE> 39
 5.133570e+001 5.298057e+001 1.048906e+002 1.162786e+002 8.084472e+001 5.248858e+001 4.679293e+001 4.738958e+001 4.895767e+001 3.796249e+001 4.781705e+001 4.649659e+001 1.546245e+002 4.950462e-001 1.034528e+000 1.965013e+000 2.585171e+000 2.265206e+000 2.723856e+000 2.240719e+000 2.508436e+000 2.101789e+000 1.758082e+000 1.985417e+000 1.345835e+000 8.862450e-001 8.832899e-002 1.356926e-001 2.528089e-001 3.398213e-001 3.725987e-001 4.634793e-001 3.775991e-001 4.778731e-001 3.451174e-001 2.945768e-001 3.171708e-001 2.372751e-001 1.101421e-001
<GCONST> 1.145724e+002
<TRANSP> 5
 0.000000e+000 1.000000e+000 0.000000e+000 0.000000e+000 0.000000e+000
 0.000000e+000 8.795551e-001 1.204449e-001 0.000000e+000 0.000000e+000
 0.000000e+000 0.000000e+000 9.270006e-001 7.299940e-002 0.000000e+000
 0.000000e+000 0.000000e+000 0.000000e+000 9.864128e-001 1.358720e-002
 0.000000e+000 0.000000e+000 0.000000e+000 0.000000e+000 0.000000e+000
<ENDHMM>
~h "ijipteu"
<BEGINHMM>
<NUMSTATES> 5
<STATE> 2
<MEAN> 39
 -1.800675e+001 1.686254e+000 -7.222167e-001 -1.736833e-001 -7.776321e-001 -1.541553e-001 -9.300618e-001 3.078155e-001 -1.383700e+000 -2.003832e-001 -1.026732e+000 6.748597e-004 4.374101e+001 -2.333202e-001 1.316035e-001 6.361383e-001 -3.478516e-001 -1.240705e-001 3.459129e-002 -4.330824e-001 1.917730e-001 -2.828369e-001 1.759696e-001 2.130944e-001 -1.048481e-001 2.950828e-001 2.039524e-002 1.085810e-001 3.273849e-001 -7.776325e-002 -1.686334e-001 1.124797e-001 -1.461408e-001 -7.286575e-002 -2.035628e-001 -2.082844e-002 7.950570e-002 -1.072928e-001 2.594947e-001
<VARIANCE> 39
 3.922891e+000 3.655973e+000 7.188750e+000 9.208206e+000 1.084259e+001 1.179116e+001 1.492882e+001 1.556012e+001 1.348698e+001 1.180582e+001 1.163518e+001 1.076272e+001 8.122769e+000 3.584836e-001 3.782654e-001 1.336786e+000 8.957512e-001 1.406228e+000 1.429408e+000 1.748113e+000 2.061993e+000 1.565555e+000 1.443785e+000 1.451609e+000 1.239227e+000 3.109580e-001 1.360048e-001 9.526137e-002 2.773004e-001 1.275560e-001 3.305053e-001 2.615093e-001 3.918511e-001 3.854444e-001 2.464574e-001 2.467127e-001 2.775955e-001 2.373362e-001 1.945764e-001
<GCONST> 8.204046e+001
<STATE> 3
<MEAN> 39
 -1.561264e+001 7.611075e+000 1.233257e+001 -3.076264e+000 -6.892604e+000 -5.119760e+000 -6.751921e+000 -3.944952e+000 -8.788653e+000 -2.473644e+000 4.331739e-001 -1.405329e+000 6.541499e+001 3.276882e-001 1.202358e-001 1.555020e-001 1.445023e-001 -1.102925e-001 -2.885335e-001 -5.766160e-002 -1.009460e-001 -6.120662e-002 -7.283835e-002 7.882087e-003 1.761713e-002 3.330605e-001 -4.258153e-002 -3.310506e-002 -1.399336e-001 1.573209e-002 7.433752e-002 6.817932e-003 4.809576e-002 1.682310e-002 6.081372e-002 1.315913e-002 -2.344486e-002 1.979928e-002 -1.646313e-001
<VARIANCE> 39
 6.235032e+001 4.067428e+001 7.635765e+001 3.377608e+001 7.563013e+001 5.178936e+001 4.804495e+001 3.917703e+001 3.475683e+001 3.217548e+001 2.573331e+001 2.448858e+001 1.061811e+002 6.274004e+000 3.963393e+000 7.495100e+000 3.476802e+000 8.785641e+000 3.486583e+000 5.142745e+000 2.935087e+000 3.822699e+000 2.885040e+000 2.546836e+000 2.198676e+000 1.164650e+001 1.005860e+000 7.819827e-001 9.793057e-001 6.748182e-001 1.420407e+000 6.682271e-001 8.278602e-001 6.055825e-001 6.570808e-001 5.402831e-001 4.846591e-001 4.183544e-001 1.403025e+000
<GCONST> 1.368135e+002
<STATE> 4
<MEAN> 39
 -1.244552e+001 1.013581e+000 1.271693e-001 -4.275038e-001 -3.278092e+000 -4.435097e+000 -4.252032e+000 5.203727e-001 -2.321562e+000 1.113804e-001 -5.375075e-001 -1.012532e+000 5.649003e+001 -1.600629e-001 -9.253144e-002 -1.920424e-001 -5.061967e-002 8.233190e-002 1.667714e-001 9.472483e-002 1.888114e-002 9.839897e-002 5.359236e-003 -6.017232e-002 -3.615983e-003 -2.376434e-001 2.216646e-002 2.866488e-003 2.996064e-002 -5.144240e-003 -2.584605e-002 -1.763102e-002 3.799619e-003 -6.853642e-003 -1.508667e-002 -1.584244e-002 -9.074138e-003 -1.884675e-003 5.551173e-002
<VARIANCE> 39
 5.028141e+001 2.199256e+001 3.328767e+001 2.117960e+001 3.666871e+001 5.336936e+001 6.422204e+001 3.804718e+001 2.896432e+001 2.659870e+001 3.381436e+001 3.643194e+001 1.561882e+002 1.722701e+000 1.699626e+000 2.058036e+000 1.920262e+000 2.349984e+000 2.436421e+000 3.535779e+000 2.249329e+000 1.805633e+000 1.954507e+000 1.923029e+000 1.854043e+000 4.903096e+000 2.121216e-001 3.106022e-001 3.278321e-001 3.517515e-001 4.114422e-001 4.098397e-001 5.805212e-001 3.960282e-001 3.265407e-001 3.446828e-001 3.429217e-001 3.240437e-001 7.125779e-001
<GCONST> 1.169772e+002
<TRANSP> 5
 0.000000e+000 1.000000e+000 0.000000e+000 0.000000e+000 0.000000e+000
 0.000000e+000 8.810942e-001 1.189058e-001 0.000000e+000 0.000000e+000
 0.000000e+000 0.000000e+000 9.684506e-001 3.154934e-002 0.000000e+000
 0.000000e+000 0.000000e+000 0.000000e+000 9.814793e-001 1.852071e-002
 0.000000e+000 0.000000e+000 0.000000e+000 0.000000e+000 0.000000e+000
<ENDHMM>
~h "gege"
<BEGINHMM>
<NUMSTATES> 5
<STATE> 2
<MEAN> 39
 -1.779417e+001 5.742548e-001 -2.098340e+000 1.202487e-001 -5.761567e-001 -4.349503e-001 -6.906362e-001 -1.757788e-001 -6.283406e-001 2.600052e-001 -8.861853e-001 5.757062e-002 4.445935e+001 1.123349e-001 -2.298055e-001 -4.493393e-001 -3.625613e-001 4.298414e-001 -2.467299e-001 -4.082420e-001 -1.312834e-001 -1.705815e-001 3.539732e-001 -2.662649e-001 1.340091e-001 7.889044e-001 8.733498e-002 -2.117015e-001 -3.002920e-001 -2.323752e-001 1.500380e-001 -1.307401e-001 -2.157733e-001 2.976982e-002 -2.961133e-002 2.046623e-001 -8.983807e-002 -6.507985e-002 5.591524e-001
<VARIANCE> 39
 4.907499e+000 9.650250e+000 8.758821e+000 1.825581e+001 1.235469e+001 1.553390e+001 1.480807e+001 1.478596e+001 1.855819e+001 1.631689e+001 1.189532e+001 1.166612e+001 1.236060e+001 6.722342e-001 1.846709e+000 2.258417e+000 2.602932e+000 2.029424e+000 2.045326e+000 2.231092e+000 1.868287e+000 2.150535e+000 2.840206e+000 1.758619e+000 1.622653e+000 5.177628e+000 1.063151e-001 3.185639e-001 3.122559e-001 4.787518e-001 3.920679e-001 4.162616e-001 4.331121e-001 3.805656e-001 4.443427e-001 4.866140e-001 3.412802e-001 2.987972e-001 9.256796e-001
<GCONST> 1.009637e+002
<STATE> 3
<MEAN> 39
 -1.308191e+001 -4.944895e+000 -5.395647e+000 -3.145143e+000 2.285823e+000 -8.905926e+000 -1.085884e+001 7.917035e-001 -2.768990e+000 6.048711e+000 -3.572639e+000 -1.112860e+000 6.746359e+001 1.112153e+000 4.004247e-001 1.692028e+000 2.285446e-001 -1.409473e+000 -6.031582e-001 -1.096896e+000 3.404506e-001 -8.384576e-001 -4.635767e-001 3.668494e-001 -4.421208e-001 1.982085e+000 1.644700e-004 2.293526e-001 5.056221e-001 9.995172e-002 -4.936961e-001 1.920629e-001 1.612897e-001 2.913597e-002 -1.586753e-001 -2.727569e-001 2.286567e-001 -4.516060e-002 -3.992471e-001
<VARIANCE> 39
 3.689013e+001 3.295815e+001 9.489275e+001 4.979721e+001 6.004357e+001 4.437519e+001 4.293028e+001 2.144086e+001 3.766215e+001 5.948819e+001 3.209768e+001 3.197068e+001 3.730491e+001 4.051435e+000 4.682221e+000 8.871251e+000 6.913296e+000 6.943752e+000 5.148399e+000 4.081492e+000 2.616388e+000 5.003639e+000 6.514882e+000 3.717280e+000 2.516553e+000 9.959126e+000 9.553275e-001 7.975842e-001 1.226649e+000 1.365357e+000 6.751229e-001 8.032710e-001 7.881123e-001 4.987727e-001 7.670528e-001 9.117713e-001 5.349488e-001 4.115806e-001 1.775670e+000
<GCONST> 1.386449e+002
<STATE> 4
<MEAN> 39
 -1.030488e+001 5.066180e-001 8.100693e+000 -3.659078e+000 -1.197037e+001 -5.750951e+000 -3.613469e+000 1.995025e+000 -7.852847e+000 4.570028e-001 1.489608e+000 -1.979427e+000 6.471169e+001 -1.865801e-001 -3.369453e-003 -1.707152e-001 1.399969e-002 1.491288e-001 1.415126e-001 2.163810e-001 -5.554753e-002 1.388325e-001 -1.690331e-002 -2.287347e-002 6.467596e-002 -4.314060e-001 -1.182484e-002 -3.043053e-003 -2.719226e-002 1.837773e-002 4.710716e-002 9.958138e-004 9.784563e-003 -3.323631e-003 3.381631e-002 8.319696e-003 -1.660679e-002 3.631381e-003 -2.747526e-002
<VARIANCE> 39
 2.840649e+001 2.432970e+001 6.263374e+001 3.680631e+001 7.470178e+001 5.230076e+001 6.986063e+001 5.824137e+001 5.791580e+001 5.086475e+001 4.200012e+001 3.541243e+001 1.794469e+002 1.230637e+000 1.759692e+000 1.846070e+000 1.626181e+000 2.729864e+000 1.981901e+000 2.442749e+000 2.258169e+000 2.618299e+000 2.060858e+000 1.748878e+000 1.526469e+000 3.092029e+000 2.290165e-001 3.155295e-001 2.940848e-001 2.891082e-001 4.363371e-001 3.667552e-001 4.202295e-001 3.538646e-001 4.871765e-001 3.875085e-001 2.997083e-001 2.740757e-001 4.156590e-001
<GCONST> 1.182124e+002
<TRANSP> 5
 0.000000e+000 1.000000e+000 0.000000e+000 0.000000e+000 0.000000e+000
 0.000000e+000 9.049957e-001 9.500427e-002 0.000000e+000 0.000000e+000
 0.000000e+000 0.000000e+000 9.023458e-001 9.765419e-002 0.000000e+000
 0.000000e+000 0.000000e+000 0.000000e+000 9.856598e-001 1.434022e-002
 0.000000e+000 0.000000e+000 0.000000e+000 0.000000e+000 0.000000e+000
<ENDHMM>
~h "dwaesseubnida"
<BEGINHMM>
<NUMSTATES> 5
<STATE> 2
<MEAN> 39
 -1.795474e+001 8.291736e-001 -1.543321e+000 1.653627e-003 -4.761374e-001 2.078910e-001 -2.205717e-001 2.774146e-001 -8.930089e-001 8.732145e-001 1.295599e-001 9.200090e-001 4.417419e+001 -2.675563e-002 -1.408335e-001 -2.070531e-002 -2.648022e-001 1.148812e-001 -1.499316e-002 -2.845502e-002 8.206756e-002 -1.378952e-001 -9.425747e-002 2.556007e-002 -7.081352e-002 3.463404e-001 -7.098511e-003 -8.311709e-002 1.007524e-002 -2.465459e-001 -5.216486e-002 -1.748193e-001 7.547716e-003 -5.159291e-003 -3.981302e-002 -2.105837e-002 1.402377e-002 9.303914e-002 4.405121e-001
<VARIANCE> 39
 2.881327e+000 4.100719e+000 5.798490e+000 9.480375e+000 1.063512e+001 1.120462e+001 1.681203e+001 1.339190e+001 1.351864e+001 1.472069e+001 1.239646e+001 8.729156e+000 7.214053e+000 2.655028e-001 6.772332e-001 6.646314e-001 1.709032e+000 1.325585e+000 1.171149e+000 1.429742e+000 1.395667e+000 1.429011e+000 1.621228e+000 1.203272e+000 9.290669e-001 1.637271e+000 5.526887e-002 1.377018e-001 1.461297e-001 3.269191e-001 2.179048e-001 2.255178e-001 2.690462e-001 2.607420e-001 2.714187e-001 3.259211e-001 2.402588e-001 2.375517e-001 7.386138e-001
<GCONST> 8.210977e+001
<STATE> 3
<MEAN> 39
 -1.700578e+001 -2.506813e+000 -6.005285e-001 -5.785258e+000 -1.809664e+000 -7.183985e+000 -8.462659e-001 1.658682e+000 -2.044508e+000 1.091326e+000 -4.399206e-001 2.808962e+000 6.220236e+001 1.040018e+000 -1.729169e-001 6.843774e-001 2.773965e-002 -8.167621e-001 -1.214915e+000 -2.777536e-001 6.587611e-001 -2.814254e-001 1.958052e-001 -4.789162e-001 6.313670e-002 3.065152e+000 3.999204e-001 2.199090e-001 2.043069e-001 3.236344e-001 -2.332990e-001 6.934081e-002 -2.413605e-001 8.799369e-002 -6.300689e-002 1.631876e-002 -5.479058e-002 -2.537243e-001 -3.518769e-001
<VARIANCE> 39
 1.881855e+001 2.237469e+001 1.795038e+001 4.622975e+001 2.598111e+001 3.212715e+001 2.471935e+001 2.684739e+001 2.165630e+001 2.418404e+001 2.180161e+001 3.004724e+001 1.317960e+002 3.914133e+000 2.810676e+000 2.791224e+000 8.225445e+000 3.562124e+000 4.267391e+000 3.455640e+000 2.744579e+000 2.944552e+000 3.358428e+000 2.366079e+000 5.084276e+000 1.404528e+001 4.768958e-001 4.891574e-001 4.859891e-001 1.660896e+000 6.539933e-001 7.821987e-001 5.474462e-001 5.607260e-001 5.029889e-001 6.303553e-001 4.455311e-001 8.349546e-001 2.518273e+000
<GCONST> 1.284819e+002
<STATE> 4
<MEAN> 39
 -1.077667e+001 9.962181e-001 -6.137249e-001 -3.897756e+000 -2.613327e+000 -3.563319e+000 -3.251660e+000 3.715127e-001 -2.460139e+000 -2.003255e-001 -3.854842e+000 -2.905157e+000 6.431548e+001 -8.959754e-002 2.895977e-002 -7.642239e-002 2.954218e-002 7.843943e-002 1.188026e-001 1.795338e-002 -6.918931e-002 2.588516e-002 -3.954219e-002 3.502284e-002 -1.678935e-002 -3.238381e-001 -3.557098e-002 -1.056803e-002 -2.237115e-002 -3.894327e-003 2.814888e-002 7.791818e-003 1.922327e-002 -1.144174e-002 9.333878e-003 -2.057743e-003 8.333117e-003 1.132954e-002 -1.801421e-002
<VARIANCE> 39
 8.702496e+001 3.696529e+001 7.445033e+001 4.289508e+001 8.242676e+001 6.012297e+001 3.786944e+001 5.257501e+001 4.877288e+001 2.978124e+001 4.006278e+001 4.528164e+001 1.317630e+002 4.680990e+000 1.937446e+000 2.957752e+000 2.990760e+000 3.826177e+000 2.863879e+000 2.911180e+000 3.160488e+000 2.819889e+000 2.043523e+000 2.476137e+000 2.375680e+000 3.050857e+000 6.502931e-001 3.132931e-001 4.454803e-001 5.170505e-001 6.447768e-001 5.282668e-001 5.455998e-001 5.535506e-001 4.795797e-001 3.890325e-001 4.337143e-001 4.240136e-001 4.694497e-001
<GCONST> 1.277674e+002
<TRANSP> 5
 0.000000e+000 1.000000e+000 0.000000e+000 0.000000e+000 0.000000e+000
 0.000000e+000 8.943765e-001 1.056235e-001 0.000000e+000 0.000000e+000
 0.000000e+000 0.000000e+000 8.705103e-001 1.294897e-001 0.000000e+000
 0.000000e+000 0.000000e+000 0.000000e+000 9.881530e-001 1.184697e-002
 0.000000e+000 0.000000e+000 0.000000e+000 0.000000e+000 0.000000e+000
<ENDHMM>
~h "yadangui"
<BEGINHMM>
<NUMSTATES> 5
<STATE> 2
<MEAN> 39
 -1.851488e+001 1.853736e+000 -1.667483e-001 -1.994594e+000 -1.135814e+000 -8.276779e-001 -5.361111e-001 4.221434e-001 -3.576205e+000 4.035313e-001 -8.462284e-001 -4.336293e-001 4.458071e+001 -4.547219e-002 2.851845e-001 5.933928e-001 -4.143820e-001 -2.014536e-002 -4.762127e-002 -2.192606e-001 2.461130e-001 -4.501144e-001 2.156624e-001 -3.560876e-003 -5.979462e-002 4.846033e-001 1.935780e-001 1.484437e-001 2.310550e-001 -9.668656e-005 -7.642717e-002 -2.224780e-002 -8.136393e-002 8.175451e-002 -3.384890e-002 2.134707e-003 -3.175345e-002 2.023593e-002 2.604922e-001
<VARIANCE> 39
 5.982750e+000 5.486688e+000 1.144436e+001 1.804322e+001 2.332735e+001 1.189751e+001 1.593544e+001 2.062282e+001 1.830319e+001 1.521071e+001 1.389478e+001 1.578710e+001 1.330425e+001 5.657297e-001 8.076562e-001 1.311111e+000 2.075203e+000 1.672916e+000 1.414131e+000 1.845346e+000 2.121991e+000 1.448802e+000 1.210014e+000 1.444952e+000 1.597871e+000 5.804914e-001 1.894915e-001 1.268226e-001 1.800147e-001 3.071127e-001 2.657768e-001 3.589940e-001 3.757432e-001 3.919776e-001 2.870718e-001 1.936261e-001 2.743933e-001 3.047719e-001 2.244846e-001
<GCONST> 9.107169e+001
<STATE> 3
<MEAN> 39
 -5.971281e+000 -1.939049e+000 -3.455395e-001 -7.680083e+000 -4.374015e+000 -6.153272e+000 -5.325673e+000 4.723250e+000 -4.593243e-001 3.398918e-001 -7.015796e+000 -4.281430e+000 7.224908e+001 4.786579e-001 -2.941557e-001 -2.246495e-001 -1.465960e-001 -9.081843e-002 -1.374278e-001 -1.416641e-001 1.203629e-001 1.685303e-001 1.149497e-002 -2.570984e-001 -2.708672e-001 9.218202e-001 -4.533029e-002 -4.085111e-002 -5.401926e-002 -2.491559e-003 3.116633e-002 3.093824e-002 4.024296e-002 -3.486182e-002 -1.059243e-002 -1.244449e-003 9.865004e-003 -6.645878e-003 -9.860816e-002
<VARIANCE> 39
 2.641978e+001 5.117054e+001 6.368353e+001 4.404898e+001 6.230400e+001 5.889403e+001 4.744716e+001 4.523834e+001 5.098766e+001 3.369132e+001 5.532801e+001 4.567176e+001 1.033607e+002 2.902941e+000 4.420865e+000 4.510604e+000 3.256502e+000 4.597015e+000 3.979733e+000 3.911587e+000 3.813345e+000 3.420498e+000 2.913850e+000 3.826174e+000 3.191648e+000 1.129221e+001 5.154402e-001 6.752925e-001 7.624709e-001 6.015688e-001 7.724035e-001 7.623386e-001 7.226949e-001 6.735806e-001 6.476153e-001 5.906090e-001 6.929837e-001 5.805113e-001 1.635826e+000
<GCONST> 1.362371e+002
<STATE> 4
<MEAN> 39
 -8.793600e+000 2.367715e+000 4.889682e+000 -4.765083e+000 -8.279622e+000 -1.752536e+000 -3.340788e+000 -1.816496e-001 -6.267110e+000 1.975561e+000 -1.432233e+000 -4.277522e+000 6.086102e+001 -2.621976e-001 1.189830e-001 1.661048e-002 1.709819e-001 6.581709e-002 1.034926e-001 1.104641e-001 -1.305236e-001 -8.047201e-003 -5.109866e-002 1.771769e-001 1.771415e-001 -6.221640e-001 -2.390579e-003 2.092124e-003 -1.064761e-002 6.401117e-003 5.330489e-003 -5.687931e-003 -8.128290e-003 9.187788e-003 1.436050e-002 -5.925585e-003 -5.983152e-004 1.087530e-002 7.279768e-003
<VARIANCE> 39
 3.767196e+001 2.348481e+001 7.890280e+001 3.754390e+001 5.818513e+001 6.286797e+001 5.057457e+001 5.688874e+001 5.158180e+001 3.757345e+001 5.290306e+001 4.428750e+001 1.592699e+002 3.238998e-001 9.551356e-001 2.072187e+000 1.351434e+000 2.271048e+000 1.971030e+000 2.245720e+000 2.418293e+000 2.200989e+000 1.833757e+000 1.853676e+000 1.504072e+000 6.655379e-001 4.563107e-002 1.328028e-001 2.275241e-001 2.259594e-001 3.488067e-001 2.932295e-001 3.658698e-001 3.700943e-001 3.688703e-001 3.232433e-001 3.119853e-001 2.614596e-001 4.964111e-002
<GCONST> 1.080962e+002
<TRANSP> 5
 0.000000e+000 1.000000e+000 0.000000e+000 0.000000e+000 0.000000e+000
 0.000000e+000 8.968289e-001 1.031710e-001 0.000000e+000 0.000000e+000
 0.000000e+000 0.000000e+000 9.680812e-001 3.191880e-002 0.000000e+000
 0.000000e+000 0.000000e+000 0.000000e+000 9.812832e-001 1.871683e-002
 0.000000e+000 0.000000e+000 0.000000e+000 0.000000e+000 0.000000e+000
<ENDHMM>
~h "yokeondae"
<BEGINHMM>
<NUMSTATES> 5
<STATE> 2
<MEAN> 39
 -1.804442e+001 1.507923e+000 -6.213352e-001 -1.196166e+000 -1.905565e+000 -8.437796e-001 -1.132814e+000 -3.882651e-001 -1.679175e+000 -4.956594e-001 -3.595196e-001 3.225553e-001 4.424592e+001 2.448125e-002 9.036311e-002 5.183390e-001 -4.598457e-002 -6.048146e-003 1.778729e-001 -1.110983e-001 9.262578e-002 -3.146833e-001 2.060561e-001 7.040384e-002 -4.763738e-002 2.620970e-001 9.686179e-002 6.260015e-002 2.698236e-001 -8.108959e-005 -1.080614e-001 -5.451170e-003 -3.725353e-002 -1.404687e-002 -7.162973e-002 1.541262e-002 -1.280173e-002 -5.194499e-002 2.344827e-001
<VARIANCE> 39
 4.684544e+000 5.016228e+000 1.271776e+001 1.433558e+001 1.426494e+001 1.756271e+001 1.573396e+001 1.295781e+001 1.386857e+001 1.414036e+001 1.367200e+001 1.371410e+001 8.778511e+000 3.563602e-001 4.651552e-001 1.563308e+000 1.430854e+000 1.518904e+000 1.546814e+000 1.624400e+000 1.482324e+000 1.350921e+000 1.858161e+000 1.521985e+000 1.589844e+000 3.374158e-001 1.179762e-001 1.165398e-001 3.705927e-001 3.201310e-001 3.666085e-001 3.052203e-001 4.198721e-001 3.252541e-001 2.295766e-001 3.195361e-001 2.632270e-001 3.226900e-001 1.788536e-001
<GCONST> 8.762514e+001
<STATE> 3
<MEAN> 39
 -6.386230e+000 2.820026e+000 3.029432e-001 -6.186404e+000 -5.165845e+000 -8.034366e-001 -7.049129e+000 -2.306634e+000 -6.879489e+000 1.608360e+000 -1.435226e+000 -2.517360e+000 6.418853e+001 2.657115e-001 -6.693963e-002 3.504704e-002 -9.183908e-002 -1.990282e-001 -2.331875e-001 -1.142769e-001 7.020815e-002 2.251458e-002 -8.558343e-003 -9.439876e-003 -3.103305e-002 6.249307e-001 -1.052164e-003 -2.838996e-002 -3.184026e-002 -1.209600e-002 -2.864571e-002 -1.534356e-002 2.327093e-002 2.893197e-002 2.061027e-002 6.899459e-006 3.736848e-003 -8.334380e-003 -2.852325e-002
<VARIANCE> 39
 4.270580e+001 3.010372e+001 1.093474e+002 7.686271e+001 7.249097e+001 6.043634e+001 5.655315e+001 6.171947e+001 4.632420e+001 4.211098e+001 5.327777e+001 3.949328e+001 1.037462e+002 3.830128e+000 3.474366e+000 7.623304e+000 6.973110e+000 6.634388e+000 5.615813e+000 5.328825e+000 6.052122e+000 5.004909e+000 4.172655e+000 4.590141e+000 3.250577e+000 1.041142e+001 5.777358e-001 6.149731e-001 1.261226e+000 1.332049e+000 1.157820e+000 1.085242e+000 9.371887e-001 1.153578e+000 9.784796e-001 7.875129e-001 9.009168e-001 5.905737e-001 1.442475e+000
<GCONST> 1.452878e+002
<STATE> 4
<MEAN> 39
 -1.025326e+001 -6.593575e-001 1.909679e+000 -2.350736e+000 -7.754207e+000 -5.541960e+000 -2.170240e-001 4.379130e+000 -3.219926e+000 -3.902375e-001 -1.802938e+000 -1.339198e+000 5.970596e+001 -2.970038e-001 3.963730e-002 -1.660099e-001 1.285280e-001 2.495693e-001 2.454445e-001 1.384593e-001 -7.939554e-002 3.089727e-002 -1.976714e-002 4.688125e-003 8.018059e-002 -7.606195e-001 -1.961347e-002 2.009439e-002 -2.213290e-002 -3.584270e-004 3.689129e-002 4.267068e-003 -1.980567e-003 -1.748857e-002 -1.673815e-002 -3.826223e-003 7.802113e-003 2.643848e-002 -2.000954e-002
<VARIANCE> 39
 3.029960e+001 1.763868e+001 4.144288e+001 3.026885e+001 5.896072e+001 6.216235e+001 4.780412e+001 5.899457e+001 3.928686e+001 3.695498e+001 4.202718e+001 3.822277e+001 1.822531e+002 3.631623e-001 8.498862e-001 1.511760e+000 1.532545e+000 1.680911e+000 1.909163e+000 2.581309e+000 2.335452e+000 1.965100e+000 2.015369e+000 1.511442e+000 1.472034e+000 1.112831e+000 6.382195e-002 1.394753e-001 2.395679e-001 2.494130e-001 2.927563e-001 3.272038e-001 4.216101e-001 3.798711e-001 3.718827e-001 3.762815e-001 2.555272e-001 2.800188e-001 9.995225e-002
<GCONST> 1.073986e+002
<TRANSP> 5
 0.000000e+000 1.000000e+000 0.000000e+000 0.000000e+000 0.000000e+000
 0.000000e+000 8.864955e-001 1.135045e-001 0.000000e+000 0.000000e+000
 0.000000e+000 0.000000e+000 9.785600e-001 2.144002e-002 0.000000e+000
 0.000000e+000 0.000000e+000 0.000000e+000 9.758734e-001 2.412659e-002
 0.000000e+000 0.000000e+000 0.000000e+000 0.000000e+000 0.000000e+000
<ENDHMM>
~h "chungwadae"
<BEGINHMM>
<NUMSTATES> 5
<STATE> 2
<MEAN> 39
 -1.850455e+001 1.323765e+000 -1.422726e+000 -1.524832e+000 1.958840e-001 -7.981106e-001 -4.459026e-001 4.648996e-001 -1.261670e+000 5.352745e-001 3.024908e-001 1.523778e+000 4.511036e+001 -2.769241e-001 -1.317547e-001 7.929134e-002 -5.607727e-001 8.540463e-002 -2.403141e-001 -1.264512e-001 1.137154e-001 -1.572794e-001 1.689681e-001 7.846053e-002 -1.017817e-001 9.349895e-001 -1.569364e-001 -8.922248e-002 -3.608915e-002 -2.303719e-001 3.687515e-002 -2.036204e-002 -1.130831e-001 4.313942e-002 4.524135e-003 5.164381e-003 1.619303e-002 -2.451731e-002 5.015656e-001
<VARIANCE> 39
 8.338391e+000 1.344058e+001 1.049731e+001 2.145957e+001 2.117163e+001 2.246655e+001 2.621362e+001 2.102839e+001 1.828668e+001 1.813376e+001 1.433750e+001 1.556136e+001 3.239494e+001 1.124449e+000 1.935897e+000 1.426515e+000 2.964069e+000 2.260706e+000 2.069003e+000 3.206679e+000 1.996523e+000 1.940269e+000 1.836433e+000 1.156993e+000 1.400712e+000 4.582639e+000 2.477223e-001 3.130850e-001 2.810166e-001 4.748921e-001 4.025943e-001 3.799608e-001 5.630008e-001 4.023524e-001 3.729618e-001 3.329984e-001 2.128991e-001 2.750154e-001 7.112558e-001
<GCONST> 1.046773e+002
<STATE> 3
<MEAN> 39
 -1.013140e+001 -2.139396e+000 -3.683565e+000 -1.171752e+001 -1.817548e+000 6.296694e-001 -5.127785e+000 6.255870e-001 -1.688848e+000 -5.625831e-002 -4.304139e+000 -1.524866e+000 7.054128e+001 6.581153e-001 -2.680579e-002 9.819048e-002 -1.220602e-001 -4.172958e-001 -1.670839e-002 -5.028983e-002 1.161326e-002 -1.275351e-001 -6.376642e-002 -2.297581e-001 -1.719231e-001 7.611904e-001 9.448563e-002 8.333547e-003 4.571985e-002 7.735994e-002 -1.168982e-001 2.496301e-003 3.552671e-002 2.681179e-002 5.236370e-003 -1.119799e-002 -2.014735e-002 -1.665467e-002 -1.557011e-001
<VARIANCE> 39
 1.168479e+002 3.798698e+001 3.301333e+001 5.469283e+001 6.965918e+001 7.759351e+001 3.696607e+001 4.527702e+001 4.404132e+001 3.052349e+001 4.575240e+001 4.309098e+001 6.583812e+001 5.905507e+000 4.130505e+000 3.120775e+000 4.869251e+000 6.142301e+000 6.181294e+000 4.030047e+000 5.176198e+000 4.657884e+000 3.244688e+000 4.407668e+000 3.474800e+000 8.961630e+000 8.524792e-001 7.785341e-001 5.433036e-001 8.500016e-001 9.454271e-001 1.098076e+000 8.171233e-001 9.646860e-001 9.267045e-001 6.478408e-001 8.519784e-001 6.716797e-001 1.328166e+000
<GCONST> 1.406289e+002
<STATE> 4
<MEAN> 39
 -8.641394e+000 -1.056585e+000 1.072041e-001 -4.588662e+000 -6.898074e+000 -4.309235e+000 -2.023605e+000 3.689282e+000 -2.506121e+000 -3.512825e-001 -2.836715e+000 -2.664573e+000 6.422487e+001 -2.678760e-001 3.186800e-002 -5.371463e-002 1.797804e-001 1.727913e-001 3.137902e-002 5.422825e-002 -3.367644e-002 8.396070e-002 2.098374e-002 1.024429e-001 9.029484e-002 -5.501888e-001 -1.853505e-002 1.279271e-002 -2.061251e-002 8.313759e-003 5.330306e-002 9.559511e-003 5.070126e-003 -2.639457e-002 4.959397e-003 9.179025e-004 1.497278e-002 1.235675e-002 -2.249217e-002
<VARIANCE> 39
 4.286822e+001 1.914092e+001 4.443432e+001 4.211489e+001 6.504011e+001 7.196957e+001 5.233124e+001 5.287370e+001 3.844958e+001 3.709081e+001 4.571016e+001 4.855959e+001 1.968695e+002 8.582009e-001 1.400170e+000 1.645367e+000 1.769113e+000 2.824542e+000 2.536799e+000 2.882780e+000 2.470092e+000 1.872568e+000 1.861786e+000 2.156095e+000 2.024500e+000 2.877234e+000 1.708358e-001 2.306586e-001 2.571270e-001 3.013120e-001 4.816257e-001 4.248720e-001 4.882403e-001 4.245010e-001 3.527471e-001 3.179200e-001 3.676262e-001 3.578438e-001 4.494027e-001
<GCONST> 1.175442e+002
<TRANSP> 5
 0.000000e+000 1.000000e+000 0.000000e+000 0.000000e+000 0.000000e+000
 0.000000e+000 9.033623e-001 9.663762e-002 0.000000e+000 0.000000e+000
 0.000000e+000 0.000000e+000 9.613965e-001 3.860357e-002 0.000000e+000
 0.000000e+000 0.000000e+000 0.000000e+000 9.817344e-001 1.826560e-002
 0.000000e+000 0.000000e+000 0.000000e+000 0.000000e+000 0.000000e+000
<ENDHMM>
~h "computer"
<BEGINHMM>
<NUMSTATES> 5
<STATE> 2
<MEAN> 39
 -1.804197e+001 8.003824e-001 -1.772513e+000 3.307991e-001 -1.097443e-001 1.288598e-001 -1.585598e-001 -7.929265e-001 -8.328642e-001 5.341957e-001 -5.555549e-001 6.550629e-002 4.424179e+001 5.673777e-004 1.557717e-002 -1.368993e-002 -7.742825e-002 3.471784e-002 8.751742e-002 -9.616099e-002 -2.386093e-001 2.709515e-002 1.862222e-001 8.947738e-002 1.164741e-001 8.978913e-002 3.276786e-002 1.661225e-003 -1.808876e-001 -1.894536e-001 1.235372e-001 -5.928936e-002 -1.244122e-001 -1.552445e-002 -9.993726e-002 9.279843e-002 -3.658038e-002 -5.577132e-002 2.854410e-001
<VARIANCE> 39
 3.486038e+000 5.712214e+000 7.155710e+000 7.416923e+000 1.358659e+001 1.578355e+001 1.237809e+001 1.315121e+001 1.613036e+001 1.621067e+001 1.369937e+001 1.060776e+001 8.343278e+000 2.169394e-001 4.879870e-001 5.736194e-001 7.040829e-001 1.342212e+000 1.414206e+000 1.559631e+000 1.300760e+000 1.895909e+000 1.544924e+000 1.797259e+000 1.543849e+000 3.389061e-001 8.120010e-002 1.261889e-001 2.948744e-001 2.736943e-001 3.276022e-001 2.798618e-001 2.911766e-001 2.674265e-001 3.589891e-001 3.271998e-001 3.310543e-001 2.571791e-001 4.153025e-001
<GCONST> 8.345296e+001
<STATE> 3
<MEAN> 39
