~o
<STREAMINFO> 1 39
<VECSIZE> 39<NULLD><MFCC_D_A_0><DIAGC>
~h "dangnyobyung"
<BEGINHMM>
<NUMSTATES> 5
<STATE> 2
<MEAN> 39
 -1.802716e+001 1.051201e+000 -1.733124e+000 3.350631e-002 -7.799149e-001 -4.494977e-001 -4.843108e-001 -3.625691e-001 -1.315165e+000 2.890355e-001 -4.005693e-001 5.116166e-001 4.373718e+001 -8.177564e-002 -2.832309e-001 -1.957440e-001 -2.711680e-001 -1.622824e-002 -1.464102e-001 2.635180e-001 1.775766e-001 -6.249465e-002 -1.167292e-001 -1.214728e-001 -5.308875e-002 9.258376e-001 -1.998804e-002 -1.206817e-001 -9.730738e-002 -1.419297e-001 5.147949e-002 -1.333709e-001 -2.648456e-002 6.512432e-003 1.488836e-001 1.116433e-001 4.505055e-002 9.093639e-002 5.327541e-001
<VARIANCE> 39
 3.265513e+000 4.474437e+000 6.459728e+000 9.826271e+000 9.917931e+000 1.575355e+001 1.137982e+001 1.417808e+001 1.479917e+001 1.669841e+001 1.222097e+001 1.246566e+001 8.290638e+000 6.863288e-001 7.699525e-001 1.100991e+000 1.610469e+000 1.025599e+000 1.912346e+000 1.261865e+000 1.730213e+000 2.083687e+000 2.331282e+000 1.729842e+000 1.555788e+000 4.632277e+000 1.137793e-001 1.386954e-001 2.046853e-001 2.314334e-001 1.736428e-001 3.479431e-001 2.296535e-001 3.248396e-001 3.882040e-001 4.257921e-001 3.111391e-001 2.837349e-001 8.059090e-001
<GCONST> 8.974488e+001
<STATE> 3
<MEAN> 39
 -1.325918e+001 -4.710749e+000 -6.265831e+000 -5.447226e+000 3.047532e+000 -2.688347e+000 5.490211e-001 1.653498e+000 3.657806e-001 1.420017e+000 -3.790048e+000 -2.079190e+000 6.722158e+001 1.497083e+000 -5.246199e-002 7.710704e-002 -4.803463e-001 1.328927e-001 -1.663960e-002 -4.546013e-001 -6.940928e-002 -4.303809e-001 3.883215e-001 -5.689337e-001 -7.024375e-001 1.742038e+000 9.321400e-002 1.847044e-001 3.060062e-001 1.306365e-001 -3.042811e-001 1.090138e-001 -9.668384e-002 -1.829854e-001 -1.953346e-001 6.438284e-002 -5.439697e-002 -1.368247e-002 -5.362661e-001
<VARIANCE> 39
 6.101711e+001 2.378470e+001 1.950280e+001 3.710165e+001 3.767810e+001 4.886239e+001 3.838765e+001 3.838523e+001 4.250589e+001 2.153518e+001 4.392367e+001 5.376817e+001 7.280619e+001 3.115057e+000 3.365299e+000 3.487184e+000 3.962069e+000 5.214055e+000 5.133444e+000 3.832301e+000 4.348196e+000 4.955307e+000 3.097800e+000 4.701046e+000 4.388552e+000 9.552306e+000 6.979476e-001 6.174681e-001 5.828613e-001 9.192253e-001 1.019852e+000 1.006144e+000 6.840308e-001 8.920135e-001 8.244591e-001 6.541820e-001 1.034217e+000 9.203978e-001 1.324708e+000
<GCONST> 1.360006e+002
<STATE> 4
<MEAN> 39
 -7.290527e+000 4.767420e-001 7.545910e-001 -3.540260e+000 -5.513948e+000 -7.036728e-001 -4.396132e+000 -1.030183e+000 -4.136716e+000 -6.052677e-002 -2.594747e+000 -2.251059e+000 6.042309e+001 -1.989798e-001 3.737267e-002 -2.146596e-003 1.026129e-001 -2.142086e-002 3.184719e-002 3.959612e-002 -4.110051e-003 5.505401e-002 -5.019236e-002 9.583855e-002 8.420561e-002 -3.582551e-001 -9.135468e-003 -1.041483e-002 -2.863003e-002 2.068358e-003 4.016697e-002 -3.451280e-004 5.296396e-003 1.775615e-002 2.031877e-002 -9.756211e-003 8.017997e-003 -7.388331e-003 3.534787e-003
<VARIANCE> 39
 5.137273e+001 2.452245e+001 4.765619e+001 4.196848e+001 5.440133e+001 5.920795e+001 4.991299e+001 4.607952e+001 3.667149e+001 4.075053e+001 4.961934e+001 4.321875e+001 1.582690e+002 1.774683e+000 1.694938e+000 3.374188e+000 2.770819e+000 3.957598e+000 3.418810e+000 2.995100e+000 3.458451e+000 2.940620e+000 2.954393e+000 3.235790e+000 2.618650e+000 4.614372e+000 2.571998e-001 2.847540e-001 5.229291e-001 4.846608e-001 6.268495e-001 5.811282e-001 5.234093e-001 6.052099e-001 5.697584e-001 5.709931e-001 6.173837e-001 4.713466e-001 4.789372e-001
<GCONST> 1.271471e+002
<TRANSP> 5
 0.000000e+000 1.000000e+000 0.000000e+000 0.000000e+000 0.000000e+000
 0.000000e+000 9.010268e-001 9.897317e-002 0.000000e+000 0.000000e+000
 0.000000e+000 0.000000e+000 9.101149e-001 8.988515e-002 0.000000e+000
 0.000000e+000 0.000000e+000 0.000000e+000 9.873691e-001 1.263089e-002
 0.000000e+000 0.000000e+000 0.000000e+000 0.000000e+000 0.000000e+000
<ENDHMM>
~h "nuwoseo"
<BEGINHMM>
<NUMSTATES> 5
<STATE> 2
<MEAN> 39
 -1.767505e+001 1.696818e+000 -2.622997e-001 7.139471e-001 -1.342543e+000 -5.209129e-001 -1.606960e+000 -1.907085e+000 -2.264585e+000 2.937318e-001 -9.367341e-001 -3.038641e-001 4.424332e+001 -9.766574e-004 1.453096e-001 3.840410e-001 3.141025e-001 -6.905133e-002 1.326526e-001 2.868439e-002 -1.680652e-001 -3.636667e-002 -1.333905e-001 -1.866862e-001 -3.107387e-001 1.711721e-001 1.266625e-001 1.262993e-001 1.294269e-001 4.447279e-002 3.207582e-002 8.477771e-002 1.427707e-002 5.110953e-002 4.745230e-002 -2.918391e-002 -2.381158e-002 -3.067614e-002 1.270462e-001
<VARIANCE> 39
 3.843812e+000 4.411604e+000 7.027442e+000 9.054952e+000 1.431759e+001 1.118047e+001 1.486273e+001 1.500855e+001 1.359834e+001 1.465741e+001 1.781417e+001 1.133682e+001 7.991912e+000 6.312230e-001 7.656401e-001 6.695425e-001 1.193442e+000 1.223437e+000 1.302150e+000 1.801846e+000 1.679201e+000 1.663361e+000 1.448282e+000 1.949910e+000 1.460976e+000 1.740536e-001 1.488710e-001 1.609932e-001 1.406084e-001 2.351141e-001 2.426488e-001 2.198124e-001 3.530093e-001 2.418093e-001 3.110080e-001 3.076143e-001 3.971933e-001 2.673395e-001 6.708074e-002
<GCONST> 8.280083e+001
<STATE> 3
<MEAN> 39
 -1.019336e+001 4.847931e+000 4.927285e+000 -1.462392e+000 -1.920893e+000 -1.607188e+000 -6.104118e+000 -5.088530e+000 -4.317135e+000 -2.647242e-001 -1.183843e+000 -3.544795e+000 5.855674e+001 1.340324e+000 3.773288e-001 -9.769086e-002 -9.822004e-001 -1.802054e-001 1.413810e-001 -8.528940e-001 -9.011472e-001 -9.561861e-001 -1.352143e-001 7.500955e-001 -1.666942e-001 2.211729e+000 6.798690e-002 -7.195349e-003 -2.107447e-001 -2.043522e-001 -1.865233e-001 1.326872e-001 1.285914e-001 2.509055e-003 -1.695619e-001 -1.505657e-001 6.765106e-002 1.110370e-001 -1.140922e-001
<VARIANCE> 39
 5.357695e+001 3.960138e+001 2.834114e+001 4.732464e+001 3.625208e+001 4.818928e+001 5.441885e+001 4.942796e+001 4.006441e+001 2.574061e+001 3.816109e+001 2.749107e+001 1.213954e+002 4.790776e+000 4.440299e+000 4.422184e+000 4.964040e+000 5.293388e+000 6.036252e+000 6.099537e+000 4.646102e+000 3.785029e+000 3.922833e+000 4.659916e+000 2.850414e+000 6.901453e+000 9.768159e-001 8.389704e-001 6.995897e-001 9.603544e-001 1.084679e+000 1.141538e+000 1.326798e+000 1.093350e+000 6.549700e-001 8.275334e-001 9.076266e-001 5.253199e-001 1.449358e+000
<GCONST> 1.397724e+002
<STATE> 4
<MEAN> 39
 -7.454245e+000 2.253990e+000 -4.161873e+000 -1.146588e+001 -2.928786e+000 4.609252e+000 -3.772662e+000 -2.073946e+000 -4.286987e+000 2.175159e-001 1.398373e+000 -2.886520e+000 6.425726e+001 -2.118942e-001 -7.588129e-002 -2.983490e-002 1.319115e-001 4.341556e-002 -2.687600e-002 1.337935e-001 1.503604e-001 1.616054e-001 2.765705e-002 -8.596877e-002 6.011850e-002 -3.619671e-001 -1.811449e-002 -1.089638e-002 1.526810e-002 2.324408e-002 2.433747e-002 -2.558124e-002 -1.421515e-002 -8.557737e-004 2.489236e-002 2.689844e-002 -4.758457e-003 -1.051675e-002 3.163956e-003
<VARIANCE> 39
 9.910234e+001 2.727764e+001 2.253734e+001 8.723198e+001 6.205231e+001 6.612255e+001 6.038958e+001 3.981703e+001 5.253390e+001 5.207033e+001 5.898995e+001 4.072253e+001 1.450705e+002 4.173453e+000 1.296055e+000 1.335260e+000 3.119348e+000 2.596021e+000 3.200391e+000 3.327488e+000 2.307485e+000 2.272626e+000 2.590718e+000 2.683422e+000 2.045970e+000 9.769596e-001 4.857713e-001 2.151976e-001 2.267004e-001 3.813002e-001 3.571880e-001 4.493897e-001 5.566275e-001 4.050391e-001 3.808168e-001 3.990371e-001 4.687934e-001 3.399668e-001 9.499419e-002
<GCONST> 1.205661e+002
<TRANSP> 5
 0.000000e+000 1.000000e+000 0.000000e+000 0.000000e+000 0.000000e+000
 0.000000e+000 8.715598e-001 1.284402e-001 0.000000e+000 0.000000e+000
 0.000000e+000 0.000000e+000 9.100758e-001 8.992426e-002 0.000000e+000
 0.000000e+000 0.000000e+000 0.000000e+000 9.864579e-001 1.354210e-002
 0.000000e+000 0.000000e+000 0.000000e+000 0.000000e+000 0.000000e+000
<ENDHMM>
~h "teukyereul"
<BEGINHMM>
<NUMSTATES> 5
<STATE> 2
<MEAN> 39
 -1.831376e+001 7.441825e-001 -1.503449e+000 8.967149e-001 -3.208502e-003 6.093602e-001 -1.399304e-001 -3.806215e-001 -1.366098e+000 -4.987839e-001 -1.816895e-001 4.063894e-001 4.363480e+001 6.759241e-002 -2.688009e-002 -9.555208e-002 -3.404603e-001 -1.039205e-001 -2.540086e-001 -5.002145e-002 -2.972195e-002 -4.881860e-002 -1.969989e-001 -1.333005e-002 1.676699e-001 7.491798e-001 -9.647856e-003 -1.380121e-001 -7.033800e-002 -1.412800e-001 -2.632271e-002 -1.643062e-001 1.142617e-002 3.024248e-002 2.922296e-002 6.963297e-002 3.712552e-002 4.823954e-002 5.870513e-001
<VARIANCE> 39
 2.608087e+000 5.811200e+000 6.493629e+000 7.741308e+000 9.912107e+000 1.079584e+001 1.109528e+001 1.385573e+001 1.253208e+001 1.280934e+001 1.337267e+001 1.040691e+001 9.586413e+000 2.922399e-001 9.858186e-001 8.423782e-001 1.628246e+000 1.326547e+000 1.096285e+000 1.538601e+000 1.668359e+000 1.273663e+000 1.451123e+000 1.560369e+000 1.603743e+000 5.196063e+000 4.036408e-002 1.094347e-001 1.302194e-001 2.397235e-001 2.439606e-001 2.439235e-001 3.070064e-001 3.396805e-001 2.270277e-001 2.946999e-001 2.905675e-001 2.757480e-001 8.789078e-001
<GCONST> 8.453469e+001
<STATE> 3
<MEAN> 39
 -1.373680e+001 -1.399940e+000 4.182881e+000 -3.299828e+000 -6.961033e+000 -6.824884e+000 -3.230768e+000 -6.560460e-002 -3.133293e+000 1.801294e+000 -7.684917e-001 6.003895e-001 6.520477e+001 3.605246e-001 -1.243833e-001 2.685290e-001 2.374421e-003 -3.956746e-001 -1.786667e-001 -2.425374e-001 3.187609e-002 3.467945e-002 2.244254e-002 -8.100941e-003 -9.850920e-002 5.868056e-001 2.717061e-002 1.245270e-002 4.296493e-003 4.335362e-002 -1.029761e-002 2.906468e-002 -2.072658e-002 1.308494e-002 1.835592e-003 -1.473038e-003 4.938435e-003 -4.046108e-002 -1.360943e-001
<VARIANCE> 39
 5.991430e+001 3.003274e+001 4.350908e+001 3.933958e+001 6.253291e+001 5.173271e+001 5.073313e+001 4.417712e+001 4.392251e+001 3.355367e+001 3.182549e+001 3.065341e+001 1.592707e+002 4.000690e+000 3.205338e+000 2.885432e+000 4.048406e+000 3.722695e+000 4.422723e+000 4.154644e+000 4.319994e+000 4.117325e+000 3.546314e+000 2.911291e+000 3.012616e+000 1.544877e+001 6.860029e-001 6.248412e-001 5.690894e-001 7.974250e-001 7.039613e-001 7.313849e-001 7.870634e-001 8.000342e-001 7.982384e-001 6.774509e-001 5.655482e-001 5.914781e-001 2.441265e+000
<GCONST> 1.363704e+002
<STATE> 4
<MEAN> 39
 -8.186117e+000 -2.366859e+000 2.968013e+000 6.117188e-001 -8.495492e+000 -5.709623e+000 -4.828394e+000 8.505404e-001 8.227347e-001 -1.161183e+000 -2.775234e+000 9.771294e-002 5.975397e+001 -3.144410e-001 1.267059e-001 -2.043353e-001 5.693216e-002 3.182441e-001 1.436952e-001 2.025650e-001 -2.080613e-002 -2.248605e-002 2.595970e-002 7.479568e-003 6.488508e-002 -6.726727e-001 -2.554762e-002 8.840268e-003 1.234971e-002 3.745396e-003 2.088554e-002 3.001977e-003 1.920267e-002 -1.837464e-002 -8.698153e-003 6.803160e-003 -4.092587e-003 1.124492e-002 -7.353962e-003
<VARIANCE> 39
 5.517431e+001 2.447330e+001 3.632843e+001 3.034158e+001 5.882748e+001 4.156939e+001 5.766529e+001 4.112118e+001 3.372590e+001 2.897570e+001 3.855249e+001 2.333918e+001 1.705222e+002 8.434319e-001 1.108224e+000 1.334039e+000 1.859418e+000 1.688396e+000 1.628260e+000 2.549184e+000 2.098669e+000 1.903171e+000 2.004460e+000 1.625660e+000 1.525178e+000 8.835409e-001 1.264965e-001 2.016285e-001 2.137226e-001 3.130347e-001 3.108606e-001 2.953891e-001 4.352812e-001 3.575265e-001 3.330510e-001 3.846020e-001 2.758380e-001 2.731679e-001 1.023791e-001
<GCONST> 1.084005e+002
<TRANSP> 5
 0.000000e+000 1.000000e+000 0.000000e+000 0.000000e+000 0.000000e+000
 0.000000e+000 8.944977e-001 1.055023e-001 0.000000e+000 0.000000e+000
 0.000000e+000 0.000000e+000 9.736901e-001 2.630989e-002 0.000000e+000
 0.000000e+000 0.000000e+000 0.000000e+000 9.775094e-001 2.249061e-002
 0.000000e+000 0.000000e+000 0.000000e+000 0.000000e+000 0.000000e+000
<ENDHMM>
~h "uiyogeul"
<BEGINHMM>
<NUMSTATES> 5
<STATE> 2
<MEAN> 39
 -1.777415e+001 1.414747e+000 -2.322388e+000 -6.508694e-001 1.039111e-001 2.078691e-001 -1.625980e+000 2.102649e-001 -1.236876e+000 5.687470e-001 -6.912211e-002 -3.650294e-001 4.428843e+001 1.551065e-001 1.966248e-001 -1.167170e-003 -1.455301e-001 1.735039e-001 -5.895939e-002 -3.346006e-001 -1.518424e-001 -3.986069e-001 3.296507e-001 4.009106e-002 -3.500841e-001 2.830923e-001 1.810590e-001 8.461875e-002 5.756721e-002 -3.059015e-002 -8.418227e-003 2.128841e-002 -1.529569e-001 -2.700113e-002 -1.232313e-001 9.124330e-002 1.759090e-002 -9.291689e-002 2.293618e-001
<VARIANCE> 39
 4.127243e+000 3.473875e+000 9.271356e+000 1.287615e+001 1.216774e+001 1.250703e+001 1.617171e+001 1.618286e+001 1.684496e+001 1.833078e+001 1.499356e+001 1.366782e+001 8.746113e+000 5.814864e-001 4.911745e-001 1.222172e+000 1.484570e+000 1.514627e+000 1.245702e+000 1.630517e+000 2.071170e+000 1.699851e+000 1.649716e+000 1.498958e+000 1.473626e+000 4.903801e-001 1.956988e-001 1.317438e-001 1.835310e-001 2.137719e-001 3.032951e-001 1.974671e-001 3.282338e-001 3.674815e-001 2.738075e-001 2.780979e-001 2.733412e-001 3.057329e-001 1.541574e-001
<GCONST> 8.649056e+001
<STATE> 3
<MEAN> 39
 -6.948450e+000 4.056901e+000 6.559728e-001 -3.162000e+000 -2.658484e+000 -1.477600e+000 -1.289211e+001 -3.070761e+000 -6.691957e+000 4.098209e+000 2.428166e+000 -6.451704e+000 5.911683e+001 1.576331e+000 -1.493361e-001 1.123989e+000 3.831887e-002 -1.290274e+000 -6.984801e-001 -1.759974e+000 -3.543646e-002 -7.786614e-001 -2.102253e-001 4.391643e-001 -8.542538e-001 3.032784e+000 -2.926834e-001 -1.672617e-001 2.761462e-001 1.159603e-001 -3.039585e-001 -9.603951e-002 3.112619e-001 1.296004e-001 -1.115100e-001 -3.026126e-001 3.000285e-002 1.624395e-001 -4.961470e-002
<VARIANCE> 39
 5.886971e+001 2.834402e+001 3.471692e+001 4.364536e+001 4.928937e+001 4.610411e+001 7.584290e+001 8.215932e+001 5.194536e+001 3.931649e+001 4.947182e+001 4.012544e+001 1.094312e+002 5.061346e+000 3.301737e+000 2.683961e+000 4.615279e+000 3.921912e+000 3.418458e+000 5.145540e+000 6.554535e+000 4.164598e+000 3.669146e+000 2.822523e+000 3.440948e+000 3.816659e+000 9.057454e-001 5.476376e-001 5.190302e-001 8.439973e-001 7.949494e-001 6.125264e-001 1.210604e+000 1.182916e+000 6.771315e-001 4.659310e-001 4.437008e-001 6.270421e-001 9.173653e-001
<GCONST> 1.361766e+002
<STATE> 4
<MEAN> 39
 -6.217933e+000 1.335272e+000 4.261047e+000 -2.374838e+000 -8.657838e+000 -2.823101e+000 -9.317528e+000 -1.405877e+000 -6.181316e+000 -2.341050e-001 6.088692e-001 -2.577716e+000 6.301538e+001 -1.898162e-001 8.528075e-003 -1.148097e-001 1.990281e-002 1.109691e-001 7.307838e-002 2.305402e-001 -8.377142e-003 1.042420e-001 -1.376281e-002 -5.328203e-002 1.236202e-001 -3.785339e-001 1.087918e-002 6.463131e-003 -3.455935e-002 -1.450685e-002 3.297841e-002 9.715570e-003 -1.695609e-002 -7.577972e-003 1.820782e-002 2.466183e-002 -4.205493e-003 -1.138218e-002 -2.049021e-002
<VARIANCE> 39
 4.458567e+001 3.598948e+001 8.301931e+001 5.990237e+001 6.832249e+001 5.272693e+001 8.571253e+001 4.884365e+001 1.033232e+002 5.026439e+001 6.199962e+001 4.171785e+001 1.412864e+002 9.332638e-001 1.599840e+000 3.230288e+000 2.745326e+000 3.064669e+000 2.551439e+000 3.733116e+000 2.584094e+000 3.640634e+000 2.705447e+000 2.826854e+000 2.232213e+000 2.162688e+000 1.174237e-001 2.191319e-001 3.814886e-001 4.443915e-001 4.519258e-001 4.271339e-001 5.621238e-001 4.872286e-001 5.884667e-001 4.382844e-001 4.826660e-001 4.039287e-001 2.507015e-001
<GCONST> 1.245218e+002
<TRANSP> 5
 0.000000e+000 1.000000e+000 0.000000e+000 0.000000e+000 0.000000e+000
 0.000000e+000 8.794358e-001 1.205642e-001 0.000000e+000 0.000000e+000
 0.000000e+000 0.000000e+000 8.820817e-001 1.179183e-001 0.000000e+000
 0.000000e+000 0.000000e+000 0.000000e+000 9.867857e-001 1.321436e-002
 0.000000e+000 0.000000e+000 0.000000e+000 0.000000e+000 0.000000e+000
<ENDHMM>
~h "software"
<BEGINHMM>
<NUMSTATES> 5
<STATE> 2
<MEAN> 39
 -1.817568e+001 2.472670e-001 -2.630960e+000 -5.567683e-001 -1.176026e+000 -1.750351e+000 -9.952317e-001 7.293711e-001 5.460781e-001 -1.562030e-001 -1.024861e+000 3.063650e-001 4.634676e+001 -9.173313e-002 -2.484463e-001 -7.292034e-002 -3.602262e-001 3.517120e-001 -2.044638e-001 -2.149213e-001 2.871793e-002 -7.295178e-002 8.380277e-002 -1.138263e-001 -1.497920e-001 5.294207e-001 -4.643205e-002 6.302978e-004 3.686349e-002 -2.005507e-001 4.533221e-002 -1.308124e-001 -4.797081e-002 7.380016e-002 -2.728109e-002 2.539864e-002 5.543127e-002 -2.492975e-002 2.169492e-001
<VARIANCE> 39
 1.237328e+001 1.011195e+001 8.897483e+000 9.611242e+000 1.112614e+001 1.689924e+001 1.529634e+001 1.547951e+001 1.674590e+001 1.462721e+001 1.295847e+001 1.086492e+001 3.694983e+001 6.646719e-001 7.788770e-001 6.092747e-001 1.420655e+000 1.394969e+000 1.415236e+000 1.821558e+000 1.539754e+000 1.646200e+000 1.657639e+000 1.037259e+000 1.161989e+000 1.168977e+000 2.049932e-001 1.273009e-001 1.117548e-001 2.778186e-001 2.353224e-001 2.374943e-001 3.417351e-001 2.418956e-001 3.145842e-001 3.101084e-001 1.852586e-001 1.864236e-001 2.164949e-001
<GCONST> 8.825335e+001
<STATE> 3
<MEAN> 39
 -1.437185e+001 1.580472e+000 -8.505804e-001 -6.288662e+000 -4.868468e-001 -3.127513e+000 -6.386326e+000 -5.953606e-001 -2.302191e+000 1.192832e+000 1.528683e-001 -5.173302e-001 6.166019e+001 3.493639e-001 3.460303e-002 1.436476e-001 -5.523837e-002 -1.696049e-001 6.301136e-003 -3.336211e-001 -6.684198e-002 -1.497413e-001 5.139254e-002 7.365852e-002 -1.017922e-001 4.753215e-001 2.904538e-002 -3.939875e-003 -6.359293e-003 2.764439e-002 -2.988818e-002 1.795402e-002 -3.869698e-003 -1.260668e-002 1.568531e-003 -3.803992e-003 1.097474e-002 4.556631e-004 -3.842901e-002
<VARIANCE> 39
 1.032444e+002 3.286451e+001 2.430414e+001 5.125321e+001 4.780929e+001 5.415405e+001 5.802739e+001 4.619376e+001 3.689970e+001 2.725361e+001 3.255791e+001 2.801324e+001 1.266673e+002 8.302492e+000 4.114029e+000 2.305562e+000 5.432681e+000 4.160461e+000 5.077248e+000 6.000571e+000 3.761711e+000 3.607118e+000 3.132524e+000 3.358761e+000 3.214158e+000 1.376399e+001 1.120381e+000 7.766292e-001 4.329360e-001 1.092912e+000 7.361565e-001 9.625597e-001 1.036558e+000 6.323016e-001 6.956738e-001 6.360433e-001 6.445568e-001 6.225516e-001 2.350806e+000
<GCONST> 1.383812e+002
<STATE> 4
<MEAN> 39
 -6.065872e+000 -1.422339e+000 -1.971932e+000 -7.118475e+000 -3.847316e+000 2.899101e-001 -5.896508e+000 1.841250e+000 -3.685986e+000 1.775280e+000 1.322742e+000 -3.788568e+000 6.238407e+001 -2.986947e-001 1.326875e-002 -1.061099e-001 1.123003e-001 1.240058e-001 5.493674e-002 3.269441e-001 1.942094e-002 9.628286e-002 -8.146421e-002 -5.418174e-002 1.175409e-001 -5.015813e-001 -1.285558e-002 8.860516e-003 6.465230e-004 1.140147e-002 6.337551e-003 4.553330e-003 1.825500e-002 1.393856e-002 1.473926e-002 1.002950e-003 -1.588076e-002 3.409644e-003 -2.223575e-003
<VARIANCE> 39
 5.451320e+001 1.999187e+001 5.116113e+001 6.301360e+001 5.759922e+001 1.014140e+002 8.303304e+001 5.897667e+001 4.573183e+001 4.813971e+001 5.547106e+001 4.804255e+001 1.720152e+002 5.487261e-001 8.190903e-001 1.353080e+000 1.849064e+000 1.788725e+000 2.424197e+000 2.314013e+000 2.358484e+000 2.045959e+000 1.669341e+000 1.783379e+000 1.554841e+000 7.576880e-001 5.232482e-002 1.289583e-001 1.772792e-001 2.597757e-001 2.628129e-001 2.927292e-001 3.782850e-001 3.603080e-001 3.367908e-001 2.723133e-001 3.093357e-001 2.479412e-001 4.544429e-002
<GCONST> 1.092204e+002
<TRANSP> 5
 0.000000e+000 1.000000e+000 0.000000e+000 0.000000e+000 0.000000e+000
 0.000000e+000 8.899151e-001 1.100849e-001 0.000000e+000 0.000000e+000
 0.000000e+000 0.000000e+000 9.793026e-001 2.069733e-002 0.000000e+000
 0.000000e+000 0.000000e+000 0.000000e+000 9.823946e-001 1.760542e-002
 0.000000e+000 0.000000e+000 0.000000e+000 0.000000e+000 0.000000e+000
<ENDHMM>
~h "juwiui"
<BEGINHMM>
<NUMSTATES> 5
<STATE> 2
<MEAN> 39
 -1.801224e+001 3.539518e-001 -1.393796e+000 -4.784688e-001 -1.287284e+000 -4.676453e-001 -1.885984e+000 -7.973744e-001 -1.736528e+000 1.650166e-001 -1.339231e-002 5.036635e-001 4.457779e+001 -1.674624e-001 -3.979627e-001 5.490150e-002 -3.598193e-001 -1.673196e-001 2.059367e-001 -5.479848e-002 -1.029563e-001 -2.343873e-002 -8.622651e-003 -9.907095e-002 -3.873726e-002 7.034636e-001 -1.746156e-001 -1.096888e-001 1.811105e-001 -1.671163e-001 -1.798872e-001 1.016343e-001 -1.413410e-001 -9.574792e-002 7.214963e-002 -4.682504e-002 -6.570195e-002 5.800505e-002 4.313568e-001
<VARIANCE> 39
 3.402327e+000 6.447734e+000 1.011832e+001 9.752967e+000 1.277466e+001 1.624528e+001 1.649671e+001 1.549351e+001 1.490891e+001 1.755446e+001 1.355120e+001 1.121079e+001 1.083218e+001 6.042251e-001 1.644971e+000 1.518815e+000 1.753313e+000 2.457376e+000 1.762348e+000 1.930154e+000 2.086478e+000 1.645570e+000 2.177520e+000 1.609583e+000 1.370978e+000 3.469563e+000 2.481564e-001 2.302469e-001 2.923586e-001 3.058265e-001 3.557769e-001 3.333820e-001 2.566385e-001 3.693895e-001 2.976103e-001 4.509355e-001 3.071874e-001 2.669225e-001 5.304574e-001
<GCONST> 9.544505e+001
<STATE> 3
<MEAN> 39
 -1.932500e+001 -1.807190e+000 3.090346e+000 -2.872008e+000 -7.874711e+000 -2.104804e+000 -7.068360e+000 -3.072161e+000 -2.202927e+000 -1.867330e+000 4.580562e-001 -2.334202e-001 6.737566e+001 1.034989e+000 3.365569e-001 3.093702e-001 2.979848e-001 -2.732603e-001 -2.358782e-001 -9.190065e-001 -1.209249e-001 -7.412969e-001 -3.935147e-002 4.030572e-001 -4.564365e-001 1.184508e+000 1.521989e-001 7.233644e-002 -8.856414e-002 7.210943e-002 2.419522e-002 -1.533577e-002 3.985183e-002 6.125437e-002 -1.175895e-001 3.206652e-002 8.146205e-002 -4.414184e-002 -2.517760e-001
<VARIANCE> 39
 1.478809e+002 3.512182e+001 2.572628e+001 4.045055e+001 4.062571e+001 6.428094e+001 7.945576e+001 4.685291e+001 5.333836e+001 3.992310e+001 2.976334e+001 2.965628e+001 6.200459e+001 1.092776e+001 3.173974e+000 3.063977e+000 3.728034e+000 5.398211e+000 6.939027e+000 6.126933e+000 4.270730e+000 5.696909e+000 3.402281e+000 3.200431e+000 2.659613e+000 5.520359e+000 1.329808e+000 7.047827e-001 5.071955e-001 6.647606e-001 1.017355e+000 1.140172e+000 1.069766e+000 8.208681e-001 9.535179e-001 6.406316e-001 6.961700e-001 4.524578e-001 6.501007e-001
<GCONST> 1.383152e+002
<STATE> 4
<MEAN> 39
 -9.057574e+000 2.860976e+000 1.047976e+001 -1.050092e+000 -1.201908e+001 -2.701746e+000 -8.750087e+000 -7.132917e-001 -1.058864e+001 -1.076620e+000 2.090847e+000 -3.832472e+000 6.323816e+001 -2.346332e-001 -1.366305e-002 -9.370741e-002 -9.963638e-004 1.006152e-001 3.149362e-002 2.620035e-001 3.709096e-002 1.731664e-001 3.150822e-003 -1.003353e-001 1.182744e-001 -3.999257e-001 -7.331308e-003 2.551755e-003 -4.292601e-003 4.830409e-003 9.885151e-003 -1.134259e-002 2.204620e-005 -9.001235e-003 2.770549e-002 -5.742657e-003 -1.318272e-002 9.069434e-003 -6.684060e-004
<VARIANCE> 39
 3.099017e+001 1.992213e+001 8.612668e+001 3.484517e+001 7.365332e+001 5.537385e+001 8.998418e+001 3.613686e+001 7.118781e+001 4.294680e+001 3.865694e+001 3.430402e+001 1.441149e+002 3.330981e-001 7.864505e-001 2.275828e+000 1.217820e+000 2.057537e+000 1.970945e+000 2.277084e+000 1.885650e+000 1.980040e+000 1.675443e+000 1.533481e+000 1.249320e+000 6.022595e-001 4.640275e-002 1.111192e-001 2.139879e-001 1.946144e-001 2.952842e-001 3.240273e-001 3.554236e-001 3.437479e-001 3.428313e-001 3.012647e-001 2.767148e-001 2.293927e-001 4.499560e-002
<GCONST> 1.055514e+002
<TRANSP> 5
 0.000000e+000 1.000000e+000 0.000000e+000 0.000000e+000 0.000000e+000
 0.000000e+000 8.949676e-001 1.050325e-001 0.000000e+000 0.000000e+000
 0.000000e+000 0.000000e+000 9.396113e-001 6.038872e-002 0.000000e+000
 0.000000e+000 0.000000e+000 0.000000e+000 9.852984e-001 1.470161e-002
 0.000000e+000 0.000000e+000 0.000000e+000 0.000000e+000 0.000000e+000
<ENDHMM>
~h "mwolago"
<BEGINHMM>
<NUMSTATES> 5
<STATE> 2
<MEAN> 39
 -1.723358e+001 1.146612e+000 -8.710375e-001 6.178114e-001 -1.342227e+000 3.198696e-001 -6.265712e-001 -2.482559e+000 -2.542988e+000 1.050683e+000 -1.015421e+000 -1.446757e-002 4.454607e+001 3.035309e-001 1.102419e-001 3.406294e-001 1.712126e-001 -2.022120e-001 2.299815e-001 2.327043e-002 -6.542286e-001 -6.093834e-001 3.489910e-001 -1.616427e-001 -2.579458e-001 3.418350e-001 1.723754e-001 1.589775e-001 1.913682e-001 9.459293e-002 -8.707830e-003 6.877605e-002 3.848016e-003 -5.141657e-002 1.496734e-002 6.679452e-003 -6.570803e-002 -1.406763e-002 1.377063e-001
<VARIANCE> 39
 2.391007e+000 4.153704e+000 6.219208e+000 8.481738e+000 1.332604e+001 1.427481e+001 1.520638e+001 2.519971e+001 1.470398e+001 1.579370e+001 1.191278e+001 1.254125e+001 7.996186e+000 2.535991e-001 6.791154e-001 9.705200e-001 1.026913e+000 8.626682e-001 1.355540e+000 1.563454e+000 1.807769e+000 1.301066e+000 1.478920e+000 1.137363e+000 1.430504e+000 2.200302e-001 1.287055e-001 1.605191e-001 1.595570e-001 1.793703e-001 1.569807e-001 1.893526e-001 2.925555e-001 3.096142e-001 2.269192e-001 2.955004e-001 2.301270e-001 2.669973e-001 7.529392e-002
<GCONST> 7.930018e+001
<STATE> 3
<MEAN> 39
 -5.384913e+000 6.116737e+000 4.843483e+000 -3.432810e+000 -6.076548e+000 3.724451e+000 -2.211551e+000 -7.542790e+000 -8.107934e+000 1.366335e-001 -4.215373e+000 -1.672739e+000 5.768308e+001 2.197272e+000 3.068425e-001 -3.042065e-001 -3.079319e+000 -1.152985e+000 6.256454e-001 -6.594965e-001 5.249299e-001 -3.576147e-001 -8.324093e-001 4.915049e-001 5.411096e-002 2.948114e+000 -1.040073e-001 -2.959291e-001 -3.788312e-001 -5.451066e-001 -6.881224e-002 1.263263e-001 -7.037780e-002 1.977080e-001 1.000859e-001 1.423968e-002 3.570773e-001 4.357949e-002 8.739334e-002
<VARIANCE> 39
 4.398302e+001 2.038510e+001 2.868538e+001 1.209084e+002 4.794612e+001 3.552797e+001 3.087119e+001 5.990619e+001 3.392787e+001 3.163803e+001 3.810074e+001 2.734646e+001 7.764970e+001 2.911810e+000 3.102447e+000 4.389172e+000 1.039509e+001 4.049286e+000 4.086671e+000 2.533230e+000 5.901417e+000 4.743812e+000 3.093764e+000 6.361591e+000 2.944092e+000 2.926678e+000 7.434534e-001 4.165351e-001 5.410377e-001 1.825047e+000 9.077110e-001 8.129738e-001 5.146536e-001 9.856591e-001 7.111932e-001 6.196780e-001 7.777863e-001 5.109663e-001 7.701576e-001
<GCONST> 1.339217e+002
<STATE> 4
<MEAN> 39
 -3.641794e+000 2.722590e+000 -4.417917e+000 -1.283332e+001 -6.254775e+000 2.900052e+000 -3.347093e+000 1.041466e+000 -4.557545e+000 -3.414151e-001 -2.165337e-002 -3.782496e+000 6.276644e+001 -2.544372e-001 -4.673374e-002 -2.494263e-002 2.683010e-001 1.294781e-001 -9.350879e-002 5.778441e-002 2.520100e-002 9.201674e-002 3.215266e-002 -4.542648e-002 6.540792e-003 -3.357446e-001 -1.336435e-002 9.826064e-003 1.624717e-002 4.855239e-002 1.003173e-002 -1.840731e-002 4.441844e-003 -1.211290e-002 -3.112477e-003 -3.192084e-003 -3.177220e-002 2.206641e-003 -2.769819e-002
<VARIANCE> 39
 6.091227e+001 4.584009e+001 2.567834e+001 9.682660e+001 5.123231e+001 4.691195e+001 6.487537e+001 4.701199e+001 7.399163e+001 4.744902e+001 5.195023e+001 4.219136e+001 1.446078e+002 1.294485e+000 1.822543e+000 1.628570e+000 4.566971e+000 2.689341e+000 3.174090e+000 3.071194e+000 2.981117e+000 3.770837e+000 2.744673e+000 3.130392e+000 2.361201e+000 2.369229e+000 2.017940e-001 2.646473e-001 2.909722e-001 7.972531e-001 4.642958e-001 5.840712e-001 5.368490e-001 5.507360e-001 6.233350e-001 5.153245e-001 5.524887e-001 4.066583e-001 2.987882e-001
<GCONST> 1.257402e+002
<TRANSP> 5
 0.000000e+000 1.000000e+000 0.000000e+000 0.000000e+000 0.000000e+000
 0.000000e+000 8.918677e-001 1.081322e-001 0.000000e+000 0.000000e+000
 0.000000e+000 0.000000e+000 8.695854e-001 1.304146e-001 0.000000e+000
 0.000000e+000 0.000000e+000 0.000000e+000 9.866639e-001 1.333614e-002
 0.000000e+000 0.000000e+000 0.000000e+000 0.000000e+000 0.000000e+000
<ENDHMM>
~h "naghwaam"
<BEGINHMM>
<NUMSTATES> 5
<STATE> 2
<MEAN> 39
 -1.731627e+001 1.465906e+000 -1.302861e+000 6.314222e-001 -8.117844e-001 5.821819e-002 -2.781142e-001 -1.239561e+000 -1.674991e+000 1.677748e-001 -1.267971e+000 2.942132e-001 4.448908e+001 2.901318e-001 9.218003e-002 3.334024e-001 1.308701e-001 -2.794325e-001 1.829729e-001 2.362023e-001 -2.663513e-001 -1.185292e-001 1.714578e-001 -3.635841e-001 -1.616918e-001 2.873342e-001 1.277197e-001 8.465400e-002 9.254376e-002 -6.390734e-003 -7.589344e-002 -5.094687e-002 -2.575880e-002 -4.890065e-002 4.298523e-002 2.405708e-002 -8.636528e-002 -1.024479e-001 2.213206e-001
<VARIANCE> 39
 4.394291e+000 7.065146e+000 7.822824e+000 1.238418e+001 1.566059e+001 1.783611e+001 1.514687e+001 1.730264e+001 1.175944e+001 1.645218e+001 1.873802e+001 1.251452e+001 8.061344e+000 5.187561e-001 8.616701e-001 1.001348e+000 1.186247e+000 1.119310e+000 1.761902e+000 1.629966e+000 1.924325e+000 1.341002e+000 1.791529e+000 1.720098e+000 1.310619e+000 3.093380e-001 1.626955e-001 2.407129e-001 1.812096e-001 2.874833e-001 2.404791e-001 3.480025e-001 3.009991e-001 3.674516e-001 2.013268e-001 3.178737e-001 3.016524e-001 2.298214e-001 2.168661e-001
<GCONST> 8.757851e+001
<STATE> 3
<MEAN> 39
 -9.075565e+000 -6.818151e-001 -7.447426e+000 -9.030936e+000 1.623333e+000 4.573470e-001 -1.644505e+000 3.048434e-002 -2.818138e+000 3.277544e+000 -3.768619e+000 -5.691934e+000 6.547022e+001 4.280587e-001 -1.264699e-001 -2.989370e-001 -5.656732e-001 1.282000e-001 1.316925e-001 -8.666524e-002 8.215073e-004 -1.122011e-001 1.065671e-001 1.308309e-001 -3.335491e-001 9.377313e-001 -2.276965e-002 -4.470158e-002 -3.915616e-002 -3.146078e-002 1.030919e-003 8.895918e-003 -7.059216e-003 2.847336e-003 -2.150161e-003 -4.547108e-003 1.946418e-002 2.889023e-003 -4.685053e-002
<VARIANCE> 39
 3.662421e+001 3.494562e+001 6.190176e+001 7.701437e+001 5.596528e+001 5.088758e+001 3.751249e+001 4.579556e+001 3.868826e+001 3.368577e+001 4.503596e+001 4.306726e+001 1.466620e+002 3.948855e+000 3.858437e+000 4.922195e+000 6.262210e+000 5.241064e+000 4.469745e+000 4.317405e+000 4.786675e+000 3.881204e+000 3.835933e+000 3.635038e+000 3.595288e+000 1.403586e+001 6.195073e-001 6.825477e-001 9.466646e-001 1.202729e+000 9.286230e-001 8.641389e-001 9.015587e-001 9.571998e-001 7.932652e-001 8.057861e-001 6.636738e-001 5.548506e-001 1.789079e+000
<GCONST> 1.407189e+002
<STATE> 4
<MEAN> 39
 -6.950439e+000 -9.688361e-001 -2.017977e+000 -4.916936e+000 2.072471e+000 2.064841e+000 -4.290210e+000 -3.750815e+000 -4.041087e+000 1.347972e+000 -2.100908e+000 -4.721323e+000 6.149820e+001 -2.985467e-001 5.331647e-002 1.334186e-001 3.395173e-001 -9.411517e-003 -1.132598e-001 -3.133723e-002 4.870649e-002 7.355700e-002 -1.084773e-001 -1.609673e-002 2.267262e-001 -6.109113e-001 -1.639809e-002 6.561244e-003 3.582357e-003 1.448329e-002 1.102968e-002 -4.241246e-003 -7.139968e-003 7.787195e-003 -4.690220e-003 1.400388e-003 8.093153e-003 1.108094e-002 -1.326354e-002
<VARIANCE> 39
 5.227229e+001 2.370579e+001 7.141361e+001 1.359449e+002 4.838038e+001 4.354665e+001 4.352641e+001 4.742907e+001 3.770161e+001 3.905354e+001 4.337041e+001 8.292278e+001 1.844047e+002 4.460836e-001 7.081396e-001 2.111651e+000 2.091504e+000 1.714030e+000 1.558978e+000 2.044081e+000 2.516682e+000 1.857332e+000 1.683617e+000 1.421330e+000 1.686497e+000 5.972388e-001 6.401552e-002 9.878529e-002 2.595322e-001 2.682180e-001 2.827061e-001 2.659330e-001 3.408678e-001 4.123068e-001 3.106655e-001 3.100310e-001 2.285866e-001 2.770533e-001 5.213219e-002
<GCONST> 1.080859e+002
<TRANSP> 5
 0.000000e+000 1.000000e+000 0.000000e+000 0.000000e+000 0.000000e+000
 0.000000e+000 8.929002e-001 1.070998e-001 0.000000e+000 0.000000e+000
 0.000000e+000 0.000000e+000 9.692245e-001 3.077548e-002 0.000000e+000
 0.000000e+000 0.000000e+000 0.000000e+000 9.813675e-001 1.863254e-002
 0.000000e+000 0.000000e+000 0.000000e+000 0.000000e+000 0.000000e+000
<ENDHMM>
~h "noemureul"
<BEGINHMM>
<NUMSTATES> 5
<STATE> 2
<MEAN> 39
 -1.717952e+001 1.330061e+000 -1.461461e+000 5.658703e-001 -1.091944e+000 4.647313e-002 -5.315507e-001 -1.118479e+000 -1.644726e+000 6.614556e-001 -1.451797e+000 -7.014261e-003 4.413853e+001 1.132047e-001 3.037405e-001 4.465710e-001 2.611970e-001 -1.444533e-001 1.330529e-001 6.156218e-002 -4.984939e-001 -3.077398e-001 1.370375e-001 -1.094747e-001 -2.698988e-001 1.472366e-001 1.407700e-001 1.325049e-001 1.484244e-001 3.694035e-002 -1.768214e-002 -1.175800e-002 5.410332e-002 4.052840e-002 3.178084e-002 -7.901772e-003 -2.439031e-002 -6.898960e-002 1.571335e-001
<VARIANCE> 39
 3.871714e+000 4.707047e+000 6.731333e+000 7.321411e+000 1.417111e+001 1.383540e+001 1.137573e+001 1.462074e+001 1.044761e+001 1.313579e+001 1.285534e+001 1.398836e+001 7.552756e+000 4.369808e-001 8.004161e-001 6.850753e-001 9.425072e-001 1.344421e+000 1.418654e+000 1.325036e+000 1.153345e+000 8.750748e-001 1.241835e+000 1.247171e+000 1.469569e+000 1.732864e-001 1.567279e-001 1.897409e-001 1.737406e-001 1.851108e-001 2.792135e-001 2.475164e-001 2.092362e-001 2.285132e-001 1.788508e-001 1.956922e-001 2.427790e-001 2.663950e-001 9.456896e-002
<GCONST> 7.840948e+001
<STATE> 3
<MEAN> 39
 -8.683244e+000 5.273375e+000 7.459095e+000 -1.192520e-001 -5.791184e+000 -4.973458e+000 -2.811814e+000 -2.630780e+000 -6.260473e+000 -9.719635e-001 -2.359593e+000 -2.684026e+000 5.831334e+001 1.175989e+000 -4.390909e-001 1.008431e+000 -6.094140e-001 -1.386632e+000 -1.517155e+000 -9.812793e-001 8.227382e-001 -8.210433e-001 -2.781240e-001 5.516261e-001 7.785004e-002 3.415554e+000 -9.983788e-002 -3.093663e-001 -1.721386e-001 -4.610086e-002 -2.483146e-001 4.423610e-003 -8.629417e-002 2.422691e-001 6.548806e-002 1.243404e-001 1.472513e-001 6.556728e-002 5.852328e-002
<VARIANCE> 39
 4.491542e+001 3.288645e+001 3.223045e+001 4.733506e+001 4.102043e+001 6.324577e+001 4.321521e+001 4.636670e+001 3.094364e+001 2.303486e+001 2.753496e+001 2.387038e+001 1.349624e+002 5.211878e+000 4.856932e+000 3.261583e+000 5.082937e+000 4.884680e+000 4.099172e+000 4.015792e+000 6.228796e+000 2.860546e+000 2.683300e+000 4.719782e+000 2.908470e+000 4.642502e+000 1.014656e+000 6.572405e-001 5.594066e-001 1.090912e+000 8.459641e-001 1.076189e+000 8.302898e-001 9.927802e-001 5.403904e-001 4.637850e-001 8.379958e-001 5.359581e-001 1.250102e+000
<GCONST> 1.350327e+002
<STATE> 4
<MEAN> 39
 -5.281012e+000 -1.056579e+000 3.287279e+000 -4.646020e-003 -9.230426e+000 -3.150741e+000 -7.805377e+000 -1.956802e+000 -2.886847e+000 5.357749e-001 -1.750280e+000 -1.995041e+000 6.374180e+001 -1.475278e-001 2.987384e-002 -1.575765e-001 4.692696e-002 1.706548e-001 1.495302e-001 8.698609e-002 -6.810709e-002 1.279820e-001 2.368083e-002 -4.456845e-002 1.927142e-002 -4.162037e-001 -5.462199e-003 1.975639e-002 5.464658e-003 -6.320325e-004 3.455326e-002 1.112531e-003 3.928731e-003 -2.983247e-002 -5.714507e-003 -1.127603e-002 -1.221679e-002 -3.702516e-004 -2.403009e-002
<VARIANCE> 39
 4.990283e+001 2.811346e+001 4.189337e+001 4.791007e+001 5.707466e+001 5.573324e+001 7.221859e+001 7.331116e+001 6.426215e+001 3.635030e+001 4.851527e+001 3.331972e+001 1.355084e+002 1.158611e+000 1.213961e+000 1.830961e+000 2.941083e+000 2.827469e+000 2.881693e+000 3.382565e+000 3.795851e+000 2.763886e+000 2.325335e+000 3.140024e+000 1.990233e+000 1.314466e+000 1.895271e-001 1.897068e-001 2.772834e-001 4.488353e-001 5.440242e-001 4.976816e-001 6.053265e-001 6.547561e-001 4.824723e-001 4.270885e-001 5.472671e-001 3.736500e-001 1.905340e-001
<GCONST> 1.213959e+002
<TRANSP> 5
 0.000000e+000 1.000000e+000 0.000000e+000 0.000000e+000 0.000000e+000
 0.000000e+000 8.816350e-001 1.183651e-001 0.000000e+000 0.000000e+000
 0.000000e+000 0.000000e+000 8.867184e-001 1.132816e-001 0.000000e+000
 0.000000e+000 0.000000e+000 0.000000e+000 9.866353e-001 1.336469e-002
 0.000000e+000 0.000000e+000 0.000000e+000 0.000000e+000 0.000000e+000
<ENDHMM>
~h "eoduun"
<BEGINHMM>
<NUMSTATES> 5
<STATE> 2
<MEAN> 39
 -1.704035e+001 5.024703e-001 -4.684189e+000 -3.250947e+000 -4.560180e-001 2.903091e+000 3.346380e-001 -9.313765e-001 -2.433194e+000 -8.441521e-001 1.936081e-001 5.615548e-001 4.498098e+001 3.055442e-001 6.512121e-002 -3.094526e-001 -5.338500e-001 -9.476602e-002 5.223697e-001 3.736894e-001 -2.195785e-002 -1.982695e-001 -3.182151e-001 -8.285566e-002 -7.318608e-002 3.081624e-001 1.118324e-001 7.668166e-002 3.500926e-002 -1.232181e-001 -1.250039e-003 5.339558e-002 -4.864269e-002 -4.582235e-003 6.959397e-003 7.093899e-002 6.502698e-003 1.278709e-002 2.087954e-001
<VARIANCE> 39
 5.392603e+000 5.806283e+000 2.133817e+001 1.952528e+001 1.193746e+001 3.007331e+001 2.720821e+001 1.652835e+001 1.759314e+001 1.796321e+001 1.768433e+001 1.287038e+001 1.054824e+001 6.561878e-001 7.374911e-001 1.970554e+000 1.623047e+000 1.401209e+000 2.600335e+000 2.588418e+000 1.829656e+000 2.168992e+000 1.799544e+000 1.982205e+000 1.396993e+000 4.647629e-001 2.326768e-001 1.928702e-001 3.767450e-001 3.338211e-001 2.519715e-001 4.958727e-001 3.855327e-001 3.071173e-001 4.111003e-001 3.645570e-001 3.597347e-001 2.784683e-001 1.403634e-001
<GCONST> 9.603070e+001
<STATE> 3
<MEAN> 39
 -5.846999e+000 2.890703e+000 -1.122907e+000 -1.157769e+001 -1.905095e+000 1.725784e+000 -8.083578e+000 -3.335376e+000 -5.033647e+000 1.525025e+000 1.151537e+000 -3.298115e+000 6.603675e+001 4.284168e-001 8.118010e-002 1.994450e-001 -4.878775e-002 -1.234833e-001 -1.333827e-001 -5.983484e-001 -2.794694e-001 -2.471116e-001 1.001125e-001 1.918355e-001 -2.070133e-001 8.411257e-001 -1.482985e-002 -1.030386e-002 -3.236560e-002 -1.536155e-003 -3.107681e-003 4.469358e-002 2.979065e-002 -2.510720e-002 -4.666920e-002 -1.724158e-002 4.237943e-002 1.813577e-002 -6.945539e-002
<VARIANCE> 39
 5.644297e+001 3.537848e+001 3.638747e+001 1.112063e+002 3.618197e+001 8.399517e+001 6.999400e+001 5.810307e+001 4.352515e+001 4.577969e+001 4.783546e+001 3.771953e+001 1.120877e+002 5.748322e+000 4.567675e+000 2.639988e+000 8.412111e+000 3.324607e+000 5.563662e+000 6.034316e+000 4.577363e+000 3.547713e+000 3.345273e+000 3.726110e+000 2.913602e+000 1.172935e+001 9.825805e-001 9.285805e-001 4.579723e-001 1.252177e+000 5.906651e-001 9.537392e-001 1.112341e+000 8.686049e-001 6.121740e-001 5.892733e-001 6.311358e-001 5.482225e-001 1.951751e+000
<GCONST> 1.409836e+002
<STATE> 4
<MEAN> 39
 -7.423542e+000 3.487713e+000 2.562376e+000 -3.264101e+000 -4.739228e+000 3.255372e-001 -6.170464e+000 -4.665408e+000 -5.619758e+000 -3.568913e-001 -1.680015e+000 -3.613974e+000 5.894408e+001 -3.022639e-001 -7.911798e-002 -4.750597e-002 1.685432e-001 8.682521e-002 -3.923165e-002 3.063712e-001 1.871422e-001 2.134990e-001 -3.641120e-002 -1.549407e-001 1.109022e-001 -5.577881e-001 -2.114311e-002 -9.641234e-003 1.509343e-002 3.154835e-002 1.087690e-002 -3.847280e-002 -6.486141e-003 1.489524e-002 3.432343e-002 1.493434e-002 -3.767984e-002 -9.722930e-003 1.216267e-003
<VARIANCE> 39
 5.439671e+001 2.624087e+001 5.183546e+001 8.199190e+001 4.466607e+001 4.420364e+001 5.984161e+001 5.136689e+001 6.075037e+001 4.113073e+001 6.757499e+001 4.107871e+001 1.320950e+002 4.334967e-001 8.622762e-001 1.764184e+000 2.130457e+000 1.843099e+000 1.813400e+000 2.048399e+000 1.919779e+000 1.909439e+000 1.964629e+000 2.449460e+000 1.818623e+000 6.989231e-001 5.229555e-002 1.113104e-001 2.114247e-001 2.665056e-001 3.025698e-001 3.155520e-001 3.702412e-001 3.648300e-001 3.323005e-001 2.976387e-001 3.838974e-001 3.042221e-001 7.349444e-002
<GCONST> 1.094789e+002
<TRANSP> 5
 0.000000e+000 1.000000e+000 0.000000e+000 0.000000e+000 0.000000e+000
 0.000000e+000 8.850985e-001 1.149015e-001 0.000000e+000 0.000000e+000
 0.000000e+000 0.000000e+000 9.662772e-001 3.372278e-002 0.000000e+000
 0.000000e+000 0.000000e+000 0.000000e+000 9.796927e-001 2.030731e-002
 0.000000e+000 0.000000e+000 0.000000e+000 0.000000e+000 0.000000e+000
<ENDHMM>
~h "doepuri"
<BEGINHMM>
<NUMSTATES> 5
<STATE> 2
<MEAN> 39
 -1.754462e+001 1.235644e+000 -1.890486e+000 -2.334341e-001 -1.879705e+000 -6.846377e-001 -8.080469e-001 -2.970653e-001 -1.015867e+000 6.282626e-002 -2.959664e-001 6.873506e-001 4.370928e+001 3.005502e-002 -5.390952e-003 7.619973e-002 -1.077065e-001 6.814639e-002 -6.611729e-002 -7.956965e-002 -9.398704e-002 -1.527482e-001 -6.262083e-002 2.017857e-002 1.278341e-002 6.853469e-002 -4.237561e-002 -1.306420e-001 6.059029e-002 -1.971715e-001 4.554935e-002 -2.282647e-002 3.123004e-002 1.922610e-002 -2.709087e-002 -2.162613e-002 -4.304804e-002 3.487806e-002 2.990894e-001
<VARIANCE> 39
 3.115323e+000 4.702487e+000 5.979165e+000 1.246219e+001 1.438974e+001 1.388391e+001 1.150731e+001 1.261363e+001 1.548720e+001 1.087983e+001 1.307434e+001 9.728602e+000 5.418971e+000 1.883127e-001 4.351298e-001 6.085202e-001 1.469618e+000 1.277847e+000 1.250859e+000 1.248992e+000 1.259775e+000 1.655342e+000 1.245655e+000 1.416181e+000 1.065769e+000 1.634630e-001 4.175558e-002 1.621379e-001 1.256787e-001 3.614375e-001 2.481934e-001 2.335264e-001 2.288442e-001 2.248727e-001 3.006092e-001 2.371082e-001 2.918380e-001 1.848062e-001 4.460642e-001
<GCONST> 7.797278e+001
<STATE> 3
<MEAN> 39
 -9.998175e+000 -3.801820e-001 2.118866e+000 -2.139473e+000 -5.465621e+000 -4.439234e+000 -6.663793e+000 -1.744983e+000 -3.827661e+000 1.372818e+000 1.239166e+000 1.942962e-001 6.406877e+001 2.204820e-001 1.629681e-002 5.122132e-001 -3.789972e-002 -4.063269e-001 -8.897784e-002 -2.063956e-001 -6.680612e-002 -3.089453e-001 -1.482073e-002 8.538911e-002 -1.056333e-001 6.547165e-001 7.948239e-003 5.045966e-002 1.938467e-002 2.521011e-002 -3.597043e-002 1.826352e-002 -9.091321e-003 -3.323792e-003 -3.246024e-002 1.638307e-002 8.004720e-006 -2.560139e-002 -5.755009e-002
<VARIANCE> 39
 5.869405e+001 3.226179e+001 5.150188e+001 4.317329e+001 5.801926e+001 6.069503e+001 5.321003e+001 4.813547e+001 3.974229e+001 3.011131e+001 3.011160e+001 2.675611e+001 1.324395e+002 5.142852e+000 3.726420e+000 3.641136e+000 5.270425e+000 5.694536e+000 4.951586e+000 4.547303e+000 3.766629e+000 4.148261e+000 3.252815e+000 3.304063e+000 2.685371e+000 1.329255e+001 7.949368e-001 6.865103e-001 5.016835e-001 1.079283e+000 1.033734e+000 8.663091e-001 8.030857e-001 6.814554e-001 7.641510e-001 6.333422e-001 6.638183e-001 5.513231e-001 1.963361e+000
<GCONST> 1.380815e+002
<STATE> 4
<MEAN> 39
 -1.278714e+001 3.771203e+000 9.858416e+000 -2.985231e+000 -9.785495e+000 -8.913702e-001 -3.088756e+000 -2.331172e+000 -7.619906e+000 4.561247e-001 1.058553e-001 -1.786942e+000 5.687717e+001 -2.315251e-001 -2.328862e-002 -5.708618e-001 5.026580e-002 3.991796e-001 5.561681e-002 2.173753e-001 1.236420e-001 3.851808e-001 6.902181e-003 -1.001649e-001 8.233181e-002 -7.013553e-001 -4.989084e-003 -2.804522e-002 -4.367389e-002 1.092807e-002 3.110981e-002 -1.933426e-002 5.626356e-003 7.249053e-003 4.665782e-002 -1.685991e-002 -8.889534e-003 1.803953e-002 -5.716869e-003
<VARIANCE> 39
 1.861792e+001 2.253423e+001 1.147810e+002 2.988749e+001 7.269780e+001 3.993546e+001 5.790019e+001 2.957696e+001 6.492630e+001 3.667259e+001 3.027214e+001 2.740903e+001 1.342746e+002 3.844981e-001 1.110350e+000 1.658468e+000 1.537777e+000 1.959766e+000 2.056130e+000 2.605250e+000 1.710785e+000 1.933170e+000 1.990323e+000 1.575454e+000 1.407988e+000 7.755781e-001 7.150508e-002 1.705848e-001 2.430320e-001 2.909947e-001 3.857774e-001 3.711616e-001 4.295449e-001 3.244615e-001 3.865407e-001 3.629443e-001 2.981162e-001 2.799613e-001 6.779840e-002
<GCONST> 1.074273e+002
<TRANSP> 5
 0.000000e+000 1.000000e+000 0.000000e+000 0.000000e+000 0.000000e+000
 0.000000e+000 8.776648e-001 1.223352e-001 0.000000e+000 0.000000e+000
 0.000000e+000 0.000000e+000 9.767388e-001 2.326116e-002 0.000000e+000
 0.000000e+000 0.000000e+000 0.000000e+000 9.750223e-001 2.497775e-002
 0.000000e+000 0.000000e+000 0.000000e+000 0.000000e+000 0.000000e+000
<ENDHMM>
~h "choeagi"
<BEGINHMM>
<NUMSTATES> 5
<STATE> 2
<MEAN> 39
 -1.802922e+001 1.762963e+000 -6.305839e-001 -1.405676e-001 -8.045606e-001 -2.506889e-001 -1.747728e+000 -7.921537e-001 -1.452318e+000 1.579172e-001 4.200999e-001 6.344408e-001 4.422673e+001 -1.044895e-001 -4.627089e-001 7.497613e-002 -4.352139e-001 -9.816045e-002 1.668817e-001 -1.694424e-002 -6.403745e-002 5.394657e-002 -2.182826e-002 1.217285e-001 4.052528e-002 8.340524e-001 -2.057534e-001 -1.626102e-001 9.032193e-002 -3.472370e-001 -7.995689e-002 3.166635e-002 -7.304216e-002 5.836757e-002 1.924190e-002 -1.170671e-002 -3.133015e-002 -3.530094e-002 5.453754e-001
<VARIANCE> 39
 6.231649e+000 7.318255e+000 1.012405e+001 1.199857e+001 1.095169e+001 1.565289e+001 1.995050e+001 1.564432e+001 1.415279e+001 1.161308e+001 1.133749e+001 1.123847e+001 1.236614e+001 1.019191e+000 2.104922e+000 1.478826e+000 3.380186e+000 1.616606e+000 1.812568e+000 2.342073e+000 2.103329e+000 1.602811e+000 1.311358e+000 1.350962e+000 1.241902e+000 4.915233e+000 2.265978e-001 2.639656e-001 3.046072e-001 4.458270e-001 2.619207e-001 3.182119e-001 4.440479e-001 4.024504e-001 3.041328e-001 2.450076e-001 2.450241e-001 1.640194e-001 8.753808e-001
<GCONST> 9.657977e+001
<STATE> 3
<MEAN> 39
 -2.097010e+001 -4.573263e+000 4.886903e+000 -8.679212e+000 -8.568807e+000 -2.923887e+000 -2.683143e+000 1.061847e+000 -2.276536e+000 -6.898939e-001 6.162478e-001 8.030857e-001 7.123048e+001 1.024139e+000 -4.298459e-003 6.151260e-001 6.688792e-002 -9.874485e-001 -8.469259e-001 -1.210175e-001 4.422063e-001 -3.425181e-001 2.654925e-002 -1.105234e-001 -1.139672e-001 1.690817e+000 2.717631e-001 1.216647e-001 -8.942202e-002 2.064405e-001 -2.344570e-002 -8.041211e-002 4.320621e-003 7.529875e-002 3.286319e-002 4.437580e-003 -3.359712e-002 -2.692330e-002 -3.388326e-001
<VARIANCE> 39
 7.396869e+001 1.830398e+001 2.818472e+001 4.677908e+001 3.202556e+001 4.423738e+001 2.635642e+001 2.495911e+001 2.583519e+001 1.677928e+001 1.785208e+001 2.326107e+001 3.253752e+001 7.465367e+000 2.082556e+000 2.086032e+000 4.767153e+000 2.319314e+000 2.840784e+000 3.184702e+000 2.108254e+000 2.688745e+000 1.747378e+000 2.206369e+000 1.943376e+000 8.097531e+000 8.243651e-001 5.301836e-001 3.989072e-001 7.778960e-001 3.819455e-001 4.719756e-001 5.907245e-001 4.035965e-001 5.411374e-001 3.406062e-001 3.576522e-001 3.316757e-001 9.475561e-001
<GCONST> 1.203037e+002
<STATE> 4
<MEAN> 39
 -9.982704e+000 2.199549e+000 6.737606e+000 -6.087758e+000 -8.131546e+000 -4.232115e+000 -3.792207e+000 1.192031e-002 -5.267338e+000 7.001727e-001 -2.204560e+000 -3.679287e+000 6.389960e+001 -1.572367e-001 6.425075e-002 -1.521288e-001 7.167226e-002 2.013733e-001 1.340432e-001 4.635192e-002 -6.589854e-002 4.141106e-002 -6.791285e-003 2.280091e-002 2.997029e-002 -4.373823e-001 -2.351819e-002 -4.078578e-004 -7.226135e-004 9.083590e-003 2.404614e-002 9.869042e-003 1.238749e-002 -1.064146e-002 -6.384597e-003 -4.252232e-004 2.970165e-003 7.356496e-003 -2.074102e-002
<VARIANCE> 39
 3.751213e+001 5.653077e+001 1.046421e+002 4.268755e+001 6.224067e+001 5.970814e+001 5.224627e+001 4.911403e+001 6.169846e+001 4.289039e+001 5.265651e+001 5.093966e+001 1.680215e+002 1.299589e+000 2.032413e+000 2.707564e+000 2.181389e+000 2.561270e+000 2.259887e+000 2.824115e+000 2.313515e+000 3.152325e+000 2.157250e+000 2.043636e+000 2.005853e+000 2.510658e+000 2.284776e-001 3.379340e-001 3.116649e-001 3.723644e-001 4.003906e-001 3.873244e-001 4.786146e-001 4.321833e-001 5.375425e-001 3.632952e-001 3.223851e-001 3.047117e-001 3.611446e-001
<GCONST> 1.222128e+002
<TRANSP> 5
 0.000000e+000 1.000000e+000 0.000000e+000 0.000000e+000 0.000000e+000
 0.000000e+000 9.053162e-001 9.468378e-002 0.000000e+000 0.000000e+000
 0.000000e+000 0.000000e+000 9.237462e-001 7.625384e-002 0.000000e+000
 0.000000e+000 0.000000e+000 0.000000e+000 9.860868e-001 1.391315e-002
 0.000000e+000 0.000000e+000 0.000000e+000 0.000000e+000 0.000000e+000
<ENDHMM>
~h "nawaya"
<BEGINHMM>
<NUMSTATES> 5
<STATE> 2
<MEAN> 39
 -1.713723e+001 6.483324e-001 -1.672607e+000 -2.393516e-001 -1.871130e+000 -2.800216e-001 -5.802776e-001 -1.429191e+000 -1.148918e+000 1.580788e-001 -1.921221e+000 1.317741e-001 4.510778e+001 5.477035e-002 1.054063e-001 3.964336e-001 1.386182e-001 -2.243470e-001 1.527163e-001 1.790332e-001 -4.101911e-001 -1.065324e-001 1.007795e-001 -4.083625e-001 -1.132238e-001 2.048885e-001 1.017698e-001 1.217014e-001 1.194436e-001 8.775340e-002 3.019036e-002 -2.211543e-002 -4.886613e-002 -4.256688e-002 -2.382421e-002 7.171550e-002 -3.523612e-002 -2.249077e-002 1.515679e-001
<VARIANCE> 39
 2.969807e+000 1.027117e+001 6.394606e+000 1.093993e+001 1.471502e+001 1.184204e+001 1.293604e+001 1.759995e+001 1.422866e+001 1.126076e+001 1.651040e+001 1.215471e+001 1.004140e+001 2.294143e-001 5.590793e-001 9.247714e-001 1.171325e+000 1.373167e+000 1.371124e+000 1.636062e+000 1.577207e+000 1.307645e+000 1.213730e+000 1.610940e+000 1.145381e+000 2.566608e-001 1.021564e-001 1.471891e-001 1.890053e-001 2.105414e-001 2.712733e-001 2.622442e-001 3.018294e-001 2.549798e-001 2.443083e-001 2.175051e-001 2.824012e-001 2.173634e-001 1.331593e-001
<GCONST> 8.156719e+001
<STATE> 3
<MEAN> 39
 -9.033430e+000 2.214957e+000 1.962779e+000 -2.880831e+000 -2.018619e+000 -3.624332e+000 -5.057858e+000 -2.956917e+000 1.258058e-001 5.476527e-001 -8.230965e+000 -3.257169e+000 6.272569e+001 1.272602e+000 -8.560709e-001 -8.080788e-001 -1.367990e+000 7.547307e-001 -1.923708e-001 -4.652953e-001 6.303410e-001 2.491259e-001 -1.839160e-001 -6.258823e-001 -7.819169e-001 3.275674e+000 -4.627996e-002 -2.731335e-001 -2.099879e-001 -1.508126e-001 1.010231e-001 1.365294e-001 1.358483e-001 -1.663424e-002 -6.084792e-002 -3.247577e-002 1.483354e-001 -8.268955e-002 -7.252999e-002
<VARIANCE> 39
 3.761237e+001 4.206570e+001 6.927632e+001 6.955391e+001 5.474618e+001 4.250857e+001 4.979596e+001 6.318857e+001 2.834022e+001 2.300516e+001 3.559028e+001 3.759048e+001 1.578426e+002 3.080059e+000 5.109610e+000 8.082158e+000 5.357304e+000 5.133360e+000 5.694464e+000 4.653150e+000 6.769560e+000 2.670298e+000 2.399708e+000 3.288142e+000 2.791214e+000 6.389141e+000 6.274398e-001 6.946082e-001 1.421623e+000 1.017805e+000 9.045753e-001 1.055349e+000 8.747113e-001 1.569202e+000 4.763370e-001 4.672705e-001 6.525174e-001 4.295945e-001 1.559507e+000
<GCONST> 1.388285e+002
<STATE> 4
<MEAN> 39
 -5.796122e+000 -3.749066e+000 -4.328613e+000 -1.020157e+001 -2.710375e-001 3.956524e-001 -1.712249e+000 2.058730e+000 -9.554920e-001 1.234605e-001 -3.507104e+000 -6.234307e+000 6.737050e+001 -1.960900e-001 1.095871e-001 7.628959e-002 1.689071e-001 -6.043107e-002 6.543916e-003 4.769653e-002 -4.245369e-002 -2.243457e-002 9.758010e-003 1.447708e-001 1.383070e-001 -4.624687e-001 -9.827227e-003 1.887533e-002 1.174022e-002 1.462128e-002 -1.749690e-002 -1.901731e-002 -1.414306e-002 5.913841e-003 8.942106e-003 1.227665e-003 -5.871857e-003 2.137674e-002 -1.135589e-002
<VARIANCE> 39
 4.503300e+001 2.536801e+001 4.403598e+001 8.904370e+001 7.726933e+001 6.582417e+001 2.926446e+001 4.528420e+001 3.485352e+001 3.036927e+001 5.272098e+001 6.472567e+001 1.724033e+002 4.979781e-001 1.100365e+000 1.665555e+000 1.795106e+000 2.705903e+000 2.123293e+000 1.546183e+000 2.154988e+000 1.812222e+000 1.492504e+000 2.273417e+000 2.338931e+000 8.138379e-001 5.295199e-002 1.736094e-001 1.986544e-001 2.372530e-001 3.196336e-001 2.639353e-001 2.795915e-001 3.720137e-001 3.012148e-001 2.486469e-001 3.381843e-001 3.377581e-001 7.250730e-002
<GCONST> 1.090057e+002
<TRANSP> 5
 0.000000e+000 1.000000e+000 0.000000e+000 0.000000e+000 0.000000e+000
 0.000000e+000 8.864353e-001 1.135648e-001 0.000000e+000 0.000000e+000
 0.000000e+000 0.000000e+000 8.994835e-001 1.005165e-001 0.000000e+000
 0.000000e+000 0.000000e+000 0.000000e+000 9.864030e-001 1.359697e-002
 0.000000e+000 0.000000e+000 0.000000e+000 0.000000e+000 0.000000e+000
<ENDHMM>
~h "bunyaeseo"
<BEGINHMM>
<NUMSTATES> 5
<STATE> 2
<MEAN> 39
 -1.805653e+001 5.712259e-001 -1.421274e+000 2.425027e-001 -5.803058e-001 -4.465757e-001 -6.436259e-001 -1.169870e-001 -1.256967e+000 1.148960e-001 -6.139628e-001 3.152397e-001 4.436005e+001 -8.832276e-003 -3.446347e-001 -2.089366e-001 -2.380007e-001 -1.449460e-001 -1.037745e-001 -1.762113e-001 -1.890640e-001 -1.706020e-001 9.693328e-002 1.918275e-001 4.637538e-002 1.152064e+000 -1.978219e-002 -1.802176e-001 -1.084692e-001 6.501653e-003 7.271340e-002 -6.631985e-002 -9.343918e-002 -6.243702e-003 6.632842e-002 1.964743e-002 7.025489e-002 1.338942e-002 5.691227e-001
<VARIANCE> 39
 2.451896e+000 7.110332e+000 5.574189e+000 8.683842e+000 1.354056e+001 1.405381e+001 1.491097e+001 1.559232e+001 1.468893e+001 1.423388e+001 1.155606e+001 1.520927e+001 1.297561e+001 3.722693e-001 1.427933e+000 8.927295e-001 1.242307e+000 1.606399e+000 1.491647e+000 1.554590e+000 1.736984e+000 1.777442e+000 1.847683e+000 1.522067e+000 1.745110e+000 5.894764e+000 5.666883e-002 2.223881e-001 1.610286e-001 2.056385e-001 3.036046e-001 2.524944e-001 2.710671e-001 3.428275e-001 3.476886e-001 3.190679e-001 2.725972e-001 3.633490e-001 7.253924e-001
<GCONST> 8.990850e+001
<STATE> 3
<MEAN> 39
 -9.428622e+000 -2.070302e-001 3.307189e+000 -3.291086e+000 -5.723690e+000 -3.599693e+000 -8.113572e+000 -1.497528e+000 -4.986219e+000 -1.231014e-001 -6.435206e-001 -1.348065e+000 6.921206e+001 6.289487e-001 -1.478745e-002 4.857907e-001 -3.025353e-001 -6.235412e-001 -2.563051e-001 -1.999163e-001 4.968160e-001 -1.748689e-001 -1.956179e-001 -2.960806e-001 -7.004609e-002 1.121524e+000 2.961158e-002 1.100576e-003 -4.606510e-002 1.443821e-002 2.640773e-002 2.981273e-002 6.913525e-002 1.013602e-001 6.714347e-002 -4.250807e-002 -1.243090e-001 -4.153305e-002 -2.412910e-001
<VARIANCE> 39
 5.152953e+001 4.374419e+001 8.076023e+001 3.782249e+001 7.858062e+001 3.512329e+001 4.863541e+001 4.731386e+001 4.572745e+001 4.801862e+001 4.225294e+001 2.924720e+001 2.811822e+001 3.265435e+000 4.055060e+000 4.924868e+000 3.310111e+000 5.149803e+000 3.440289e+000 4.545372e+000 5.653440e+000 3.957815e+000 4.150065e+000 3.748965e+000 2.775398e+000 4.901867e+000 5.936552e-001 5.974472e-001 7.907090e-001 6.975348e-001 1.038874e+000 6.989308e-001 8.318245e-001 1.032740e+000 7.709714e-001 7.954711e-001 7.096059e-001 5.088840e-001 8.674609e-001
<GCONST> 1.357094e+002
<STATE> 4
<MEAN> 39
 -9.143364e+000 -8.530415e-001 -2.460447e+000 -7.272375e+000 -3.868261e+000 -6.017318e-001 -2.299773e+000 2.713042e+000 -3.098351e+000 3.411598e-001 -1.984671e+000 -2.225589e+000 6.532714e+001 -1.561812e-001 6.251840e-002 -1.147975e-001 9.536818e-002 1.628691e-001 8.350758e-002 6.630043e-002 -1.339545e-001 5.179649e-002 4.317024e-002 7.013103e-002 1.734010e-002 -4.659734e-001 -9.652100e-003 2.757365e-002 3.294643e-002 1.116808e-003 -1.720426e-002 -8.403217e-003 -9.634361e-003 -2.325276e-002 -1.928394e-002 8.522540e-003 2.583922e-002 6.140888e-003 -1.345862e-002
<VARIANCE> 39
 8.179269e+001 2.539240e+001 5.347528e+001 5.876838e+001 6.754314e+001 7.981244e+001 4.327199e+001 5.452781e+001 4.003425e+001 4.009032e+001 5.104370e+001 4.637365e+001 1.659783e+002 3.835917e+000 1.316656e+000 1.977795e+000 2.316977e+000 2.512305e+000 2.598344e+000 2.717755e+000 2.061024e+000 2.245433e+000 2.059287e+000 2.082900e+000 1.959986e+000 8.589271e-001 4.338773e-001 2.073539e-001 2.855407e-001 3.333369e-001 3.898210e-001 4.143415e-001 4.409183e-001 3.551613e-001 3.950030e-001 3.480338e-001 3.181007e-001 3.152575e-001 9.146020e-002
<GCONST> 1.184028e+002
<TRANSP> 5
 0.000000e+000 1.000000e+000 0.000000e+000 0.000000e+000 0.000000e+000
 0.000000e+000 9.004202e-001 9.957977e-002 0.000000e+000 0.000000e+000
 0.000000e+000 0.000000e+000 9.494404e-001 5.055960e-002 0.000000e+000
 0.000000e+000 0.000000e+000 0.000000e+000 9.863907e-001 1.360930e-002
 0.000000e+000 0.000000e+000 0.000000e+000 0.000000e+000 0.000000e+000
<ENDHMM>
~h "widaehan"
<BEGINHMM>
<NUMSTATES> 5
<STATE> 2
<MEAN> 39
 -1.726287e+001 1.041282e+000 -1.612607e+000 5.324622e-001 -1.535628e+000 -8.743275e-001 -5.383713e-001 -8.515511e-002 -1.195515e+000 7.841200e-002 -9.965543e-001 2.340131e-001 4.382711e+001 2.265157e-001 -2.991313e-002 1.460807e-001 2.501693e-001 -4.723883e-002 -1.311372e-001 6.314924e-003 -9.877006e-002 -4.678217e-001 1.348079e-001 5.694745e-002 -9.706339e-002 2.526456e-001 1.397279e-001 5.893544e-002 1.679295e-001 1.493889e-001 -7.805400e-002 -5.247035e-002 -2.883944e-002 7.970431e-002 -1.322609e-001 -4.246512e-002 -6.415851e-003 -6.685008e-002 1.700083e-001
<VARIANCE> 39
 3.983867e+000 3.856667e+000 5.112892e+000 8.881406e+000 1.156210e+001 1.479661e+001 1.109053e+001 1.558309e+001 1.394045e+001 1.569939e+001 1.389125e+001 8.740889e+000 7.124830e+000 2.206872e-001 4.582255e-001 7.026350e-001 1.076245e+000 1.426980e+000 1.329495e+000 1.103630e+000 1.458299e+000 1.870657e+000 1.753719e+000 1.495969e+000 1.139705e+000 1.759443e-001 1.115398e-001 9.913352e-002 2.116647e-001 2.011920e-001 2.327720e-001 2.624043e-001 1.948360e-001 2.619211e-001 3.521883e-001 3.018311e-001 2.770706e-001 1.705732e-001 9.997199e-002
<GCONST> 7.817184e+001
<STATE> 3
<MEAN> 39
 -9.276029e+000 3.688848e+000 1.158836e+001 8.994206e-001 -1.094106e+001 -7.117984e+000 -5.277784e+000 -1.171326e+000 -1.109685e+001 -2.578909e+000 1.689153e+000 -2.291269e+000 6.496990e+001 3.714072e-001 -7.155559e-002 4.620855e-001 -3.258544e-001 -6.597065e-001 -4.476036e-001 -2.786710e-001 9.847926e-002 -2.251005e-001 -1.923535e-002 1.799892e-001 1.392829e-002 1.411272e+000 -3.775720e-002 -4.689208e-002 -7.289644e-002 -9.576683e-002 5.396811e-003 3.821053e-002 2.493776e-002 4.184182e-002 9.169735e-002 1.815654e-002 -2.786527e-002 1.203977e-002 -3.552491e-002
<VARIANCE> 39
 2.913107e+001 3.318605e+001 7.317132e+001 5.144941e+001 7.197313e+001 4.838738e+001 4.291472e+001 3.887506e+001 4.485180e+001 3.607221e+001 2.565117e+001 2.325078e+001 1.135146e+002 4.284919e+000 3.931022e+000 7.417728e+000 4.077720e+000 8.152874e+000 3.732761e+000 4.882638e+000 3.786050e+000 5.160908e+000 3.372136e+000 2.596140e+000 2.251197e+000 1.044043e+001 8.349829e-001 7.106136e-001 1.101326e+000 7.445416e-001 1.370580e+000 7.799418e-001 9.205519e-001 6.502202e-001 8.179660e-001 6.251214e-001 4.386608e-001 4.154282e-001 1.862972e+000
<GCONST> 1.374872e+002
<STATE> 4
<MEAN> 39
 -9.013421e+000 -1.843789e-001 1.719330e+000 -1.541221e+000 -3.465507e+000 -3.793150e+000 -3.623414e+000 2.753656e+000 -1.832563e+000 1.381926e-001 -6.256589e+000 -2.700194e+000 6.250010e+001 -1.972915e-001 3.519811e-002 -2.158413e-001 8.937049e-002 2.977489e-001 1.648548e-001 9.001952e-002 -4.685763e-002 1.578478e-001 1.292587e-002 -7.198336e-002 2.139313e-002 -6.047829e-001 -8.097704e-003 1.390994e-002 1.010171e-002 2.345012e-002 1.622510e-002 -5.726318e-003 -3.806579e-003 -2.518384e-002 -9.142796e-003 -7.025461e-003 2.850149e-003 6.037367e-003 -1.108987e-002
<VARIANCE> 39
 3.961637e+001 2.272008e+001 6.116563e+001 5.202444e+001 7.714044e+001 4.496992e+001 4.358710e+001 6.352457e+001 3.079558e+001 2.760859e+001 5.868145e+001 4.672966e+001 2.027533e+002 7.698875e-001 8.951483e-001 2.722238e+000 2.421676e+000 2.979989e+000 2.259176e+000 2.141065e+000 2.812216e+000 1.819625e+000 1.711550e+000 2.201392e+000 1.696676e+000 1.065903e+000 1.051277e-001 1.329922e-001 3.272098e-001 4.005962e-001 4.058185e-001 3.887654e-001 3.678523e-001 4.821137e-001 3.149754e-001 3.186418e-001 3.300268e-001 2.892061e-001 1.273296e-001
<GCONST> 1.137428e+002
<TRANSP> 5
 0.000000e+000 1.000000e+000 0.000000e+000 0.000000e+000 0.000000e+000
 0.000000e+000 8.817554e-001 1.182446e-001 0.000000e+000 0.000000e+000
 0.000000e+000 0.000000e+000 9.570633e-001 4.293671e-002 0.000000e+000
 0.000000e+000 0.000000e+000 0.000000e+000 9.821278e-001 1.787218e-002
 0.000000e+000 0.000000e+000 0.000000e+000 0.000000e+000 0.000000e+000
<ENDHMM>
~h "gyamalo"
<BEGINHMM>
<NUMSTATES> 5
<STATE> 2
<MEAN> 39
 -1.793298e+001 8.351570e-001 -1.555880e+000 2.417774e-002 -3.296863e-001 4.530213e-001 -7.877619e-001 -1.156771e-001 -9.395077e-001 3.413466e-001 -6.427957e-001 9.113248e-001 4.434851e+001 9.730183e-002 -2.887225e-001 -4.190537e-001 -4.923778e-001 2.782144e-001 -1.375925e-001 -3.351929e-001 -1.872518e-001 -2.106194e-001 5.099301e-001 -1.144006e-001 7.548973e-002 8.434787e-001 4.884682e-002 -2.058482e-001 -2.767847e-001 -1.950902e-001 1.468546e-001 -1.522015e-001 -2.443889e-001 -4.752227e-002 -7.664969e-002 1.976694e-001 -1.305068e-001 -7.291341e-002 5.326632e-001
<VARIANCE> 39
 6.334486e+000 6.573070e+000 1.003926e+001 1.252468e+001 1.284161e+001 1.556260e+001 1.338097e+001 1.615667e+001 1.530673e+001 1.480025e+001 1.378152e+001 1.393147e+001 9.857796e+000 8.422695e-001 1.848649e+000 2.968676e+000 2.314350e+000 1.786768e+000 2.369598e+000 2.287357e+000 1.961170e+000 1.546431e+000 2.548158e+000 2.082371e+000 1.549947e+000 4.668720e+000 1.292919e-001 2.724231e-001 4.503911e-001 3.318236e-001 3.431184e-001 5.113192e-001 4.016155e-001 4.060411e-001 2.666629e-001 4.135869e-001 3.803995e-001 2.871533e-001 8.447758e-001
<GCONST> 9.989236e+001
<STATE> 3
<MEAN> 39
 -8.521563e+000 -4.251667e+000 2.599816e-001 -6.864841e+000 -2.453639e+000 -6.348351e+000 -9.538799e+000 1.363353e+000 -5.331803e+000 4.319754e+000 -3.689287e+000 -2.109309e+000 7.041531e+001 6.042615e-001 -7.378650e-002 4.018832e-001 -1.214087e-001 -5.574058e-001 -1.624499e-001 -2.766359e-001 3.564513e-001 -7.914861e-002 -1.978731e-001 5.158512e-003 -2.627321e-001 1.151907e+000 -2.063948e-002 5.899940e-002 9.100228e-002 9.915860e-002 -7.577588e-002 6.358844e-002 1.193950e-001 4.378223e-002 9.404456e-002 -9.967452e-002 -1.785684e-004 -2.772119e-003 -2.081113e-001
<VARIANCE> 39
 4.276564e+001 3.335335e+001 1.349892e+002 5.574924e+001 9.655138e+001 4.542258e+001 4.760039e+001 6.709166e+001 5.614920e+001 5.836342e+001 5.130464e+001 3.531310e+001 6.981393e+001 1.510788e+000 3.298800e+000 1.148272e+001 5.390766e+000 7.277782e+000 4.297244e+000 4.637058e+000 5.101236e+000 6.101821e+000 4.680681e+000 4.281710e+000 2.585547e+000 6.620992e+000 3.152857e-001 5.878171e-001 1.871668e+000 1.123572e+000 1.073472e+000 7.722181e-001 8.092035e-001 8.846025e-001 1.093976e+000 9.021078e-001 7.730017e-001 5.275155e-001 1.122256e+000
<GCONST> 1.418893e+002
<STATE> 4
<MEAN> 39
 -4.136690e+000 -5.765197e-001 -2.756892e+000 -5.391854e+000 -5.571703e+000 9.054025e-001 -4.829935e+000 -1.131794e+000 -3.490621e+000 8.430262e-001 -1.053373e+000 -3.701874e+000 6.338194e+001 -1.955922e-001 7.433288e-002 -6.855761e-002 9.212754e-002 1.117990e-001 5.233051e-002 1.344262e-001 -9.330020e-002 3.418062e-002 -2.462287e-002 1.123206e-002 6.688584e-002 -4.773017e-001 -2.041326e-003 9.616443e-003 9.282893e-003 1.224352e-003 -1.035221e-003 -5.860167e-003 -1.635579e-003 -9.683873e-003 -1.866268e-002 3.339804e-003 1.347432e-002 3.436804e-003 -1.080937e-002
<VARIANCE> 39
 5.796603e+001 2.758829e+001 3.014471e+001 9.482139e+001 4.320765e+001 9.064101e+001 6.826203e+001 6.933775e+001 5.145849e+001 4.404544e+001 6.550699e+001 4.863064e+001 1.559482e+002 7.622426e-001 1.055690e+000 2.024938e+000 4.631204e+000 2.816427e+000 3.932126e+000 2.786972e+000 3.442910e+000 2.959600e+000 2.382882e+000 2.734334e+000 2.018582e+000 9.877728e-001 9.279551e-002 1.581381e-001 3.214130e-001 6.151846e-001 4.900886e-001 5.211988e-001 4.383636e-001 5.199318e-001 4.838395e-001 4.197182e-001 3.848317e-001 3.419571e-001 1.092828e-001
<GCONST> 1.204039e+002
<TRANSP> 5
 0.000000e+000 1.000000e+000 0.000000e+000 0.000000e+000 0.000000e+000
 0.000000e+000 8.965924e-001 1.034075e-001 0.000000e+000 0.000000e+000
 0.000000e+000 0.000000e+000 9.535726e-001 4.642736e-002 0.000000e+000
 0.000000e+000 0.000000e+000 0.000000e+000 9.858338e-001 1.416620e-002
 0.000000e+000 0.000000e+000 0.000000e+000 0.000000e+000 0.000000e+000
<ENDHMM>
~h "uioero"
<BEGINHMM>
<NUMSTATES> 5
<STATE> 2
<MEAN> 39
 -1.760129e+001 5.212715e-001 -2.798234e+000 2.985939e-001 2.569729e-001 -6.387954e-001 -1.979396e+000 1.111567e+000 -5.291145e-001 6.603004e-001 -1.119941e+000 -9.022498e-001 4.504273e+001 9.953673e-002 1.367532e-001 4.478807e-003 -1.951795e-001 6.048488e-002 7.542419e-002 -2.638620e-001 -7.924664e-002 -3.748155e-001 2.925099e-001 2.056590e-001 -1.935232e-001 1.668243e-001 8.323252e-002 9.234073e-002 6.046310e-002 -9.208994e-002 4.645617e-002 8.814906e-002 -1.347440e-001 -1.008700e-002 -8.664612e-002 6.218990e-002 1.171962e-001 -1.025559e-001 2.067061e-001
<VARIANCE> 39
 5.875224e+000 6.330841e+000 1.052284e+001 9.062137e+000 1.210692e+001 1.538689e+001 2.303528e+001 1.360595e+001 2.001971e+001 1.930083e+001 1.306996e+001 1.322920e+001 1.091813e+001 3.845284e-001 8.907396e-001 1.080211e+000 1.193447e+000 1.307860e+000 1.564122e+000 2.823255e+000 1.455237e+000 2.131270e+000 2.118860e+000 1.416186e+000 1.455179e+000 3.753302e-001 1.528312e-001 1.890192e-001 2.041067e-001 2.195115e-001 2.164079e-001 3.391305e-001 4.433869e-001 2.660178e-001 3.674073e-001 3.272386e-001 2.469207e-001 2.417823e-001 1.001731e-001
<GCONST> 8.825111e+001
<STATE> 3
<MEAN> 39
 -8.151761e+000 3.575299e+000 1.472018e+000 -3.147425e+000 -3.711391e+000 -4.343602e-001 -1.231049e+001 -1.937668e+000 -7.381738e+000 2.841903e+000 3.382868e+000 -6.489331e+000 5.936852e+001 1.724340e+000 4.491391e-002 1.177636e+000 -2.976624e-001 -1.457648e+000 -3.924493e-001 -1.426593e+000 -4.292615e-001 -1.149263e+000 -3.210064e-001 6.946142e-001 -5.983551e-001 3.090760e+000 -1.461388e-001 -1.100701e-001 8.340100e-002 9.204058e-002 -2.150605e-001 -9.806620e-002 1.963963e-001 9.706323e-003 2.748473e-002 -1.817050e-001 -7.806279e-002 1.157162e-001 -6.189632e-002
<VARIANCE> 39
 5.932064e+001 2.717616e+001 5.380713e+001 2.898875e+001 6.183465e+001 6.908128e+001 6.084733e+001 7.844318e+001 5.334653e+001 3.569898e+001 4.777699e+001 4.467401e+001 1.133608e+002 4.522429e+000 3.569118e+000 3.008207e+000 2.632155e+000 3.636567e+000 3.189040e+000 5.710756e+000 4.698634e+000 3.623575e+000 2.944688e+000 2.744746e+000 3.068243e+000 4.553238e+000 9.640361e-001 6.769098e-001 4.216007e-001 4.482782e-001 7.279391e-001 5.270064e-001 1.224694e+000 8.185141e-001 6.222339e-001 4.068556e-001 5.228887e-001 5.871943e-001 1.185515e+000
<GCONST> 1.343659e+002
<STATE> 4
<MEAN> 39
 -4.699915e+000 2.762887e-001 1.213920e+000 -5.233284e+000 -9.034497e+000 -2.403487e-001 -6.697819e+000 -9.161874e-002 -7.121429e+000 -2.810924e-001 2.642670e+000 -2.246337e+000 6.403404e+001 -1.967023e-001 -8.533738e-003 -1.259303e-001 5.655787e-002 1.437619e-001 6.488283e-002 2.295761e-001 3.572813e-002 1.528206e-001 -2.475251e-002 -9.197096e-002 1.082341e-001 -3.840243e-001 2.349851e-003 1.656808e-003 -1.560816e-002 -4.216241e-003 2.014264e-002 4.571630e-003 -4.023603e-003 4.878492e-003 1.154549e-002 7.401306e-003 -4.930624e-003 -5.086741e-003 -1.579048e-002
<VARIANCE> 39
 5.837246e+001 2.691034e+001 7.016618e+001 6.793233e+001 6.649258e+001 9.525757e+001 8.651832e+001 6.574873e+001 5.797017e+001 4.193118e+001 6.100573e+001 3.086024e+001 1.497430e+002 9.751302e-001 9.793686e-001 1.573028e+000 2.901972e+000 2.275746e+000 2.716419e+000 2.798003e+000 2.899025e+000 2.464313e+000 2.174567e+000 2.555798e+000 1.480007e+000 8.513184e-001 1.288406e-001 1.420522e-001 2.236501e-001 4.111027e-001 3.935421e-001 3.867932e-001 4.515226e-001 4.493671e-001 4.009162e-001 3.967184e-001 4.183832e-001 2.650805e-001 9.976063e-002
<GCONST> 1.172792e+002
<TRANSP> 5
 0.000000e+000 1.000000e+000 0.000000e+000 0.000000e+000 0.000000e+000
 0.000000e+000 8.859708e-001 1.140292e-001 0.000000e+000 0.000000e+000
 0.000000e+000 0.000000e+000 8.786467e-001 1.213533e-001 0.000000e+000
 0.000000e+000 0.000000e+000 0.000000e+000 9.863182e-001 1.368178e-002
 0.000000e+000 0.000000e+000 0.000000e+000 0.000000e+000 0.000000e+000
<ENDHMM>
~h "jayuwa"
<BEGINHMM>
<NUMSTATES> 5
<STATE> 2
<MEAN> 39
 -1.774283e+001 1.664524e+000 -1.070940e+000 -5.331407e-001 -7.760445e-001 -1.637779e+000 -2.173303e+000 -1.401386e+000 -1.764051e+000 6.122435e-001 -3.341410e-001 6.038990e-001 4.498676e+001 -2.952915e-001 -1.907531e-001 -1.656829e-002 -5.725647e-001 2.584065e-001 -7.135871e-002 1.159797e-001 -4.109607e-002 -2.264023e-001 1.988803e-001 -8.070913e-002 -1.579354e-001 9.509100e-001 -1.752471e-001 -2.749200e-002 -4.724343e-002 -2.020237e-001 5.961856e-002 -1.933087e-001 -2.229473e-002 5.241281e-002 -4.009442e-002 -2.874491e-002 3.535319e-002 5.204395e-002 4.895946e-001
<VARIANCE> 39
 5.966087e+000 8.185463e+000 9.358963e+000 1.440045e+001 2.076321e+001 2.326104e+001 2.135340e+001 1.830416e+001 1.806266e+001 1.850217e+001 9.273637e+000 1.713900e+001 1.024151e+001 1.017022e+000 1.148801e+000 1.317209e+000 2.434658e+000 2.489272e+000 2.450066e+000 1.849994e+000 2.164787e+000 1.969784e+000 2.168710e+000 9.848743e-001 1.974951e+000 3.611522e+000 2.348754e-001 2.008380e-001 1.836476e-001 3.888057e-001 5.445316e-001 4.181493e-001 3.435919e-001 4.068997e-001 3.836120e-001 4.360815e-001 1.886361e-001 3.530151e-001 6.673831e-001
<GCONST> 9.970006e+001
<STATE> 3
<MEAN> 39
 -1.594270e+001 -4.215754e+000 -3.498491e+000 -9.438119e+000 6.747681e-001 -3.832058e+000 -1.153448e+000 3.605216e+000 4.927281e-001 -1.308512e+000 -4.404447e+000 -1.115782e+000 7.184905e+001 1.029631e+000 -4.239109e-001 1.712540e-001 -3.500557e-001 -4.407963e-001 -1.222439e-001 -2.274518e-001 5.378985e-001 3.581401e-001 -2.617937e-001 -3.749566e-001 -2.750237e-001 1.658974e+000 1.015805e-001 9.740109e-002 2.063479e-001 1.545647e-001 -2.025125e-001 3.336364e-002 -9.141586e-002 -3.189827e-002 -4.384901e-002 2.058979e-002 7.667005e-002 6.972490e-002 -3.494269e-001
<VARIANCE> 39
 9.829632e+001 3.481660e+001 2.729517e+001 3.584373e+001 3.442931e+001 3.617562e+001 3.431038e+001 3.829060e+001 3.133275e+001 3.058735e+001 3.903585e+001 3.569902e+001 6.708289e+001 6.013299e+000 3.609705e+000 3.133433e+000 4.731626e+000 3.890106e+000 4.612526e+000 4.115404e+000 4.086451e+000 2.754545e+000 2.759845e+000 3.295987e+000 2.881414e+000 5.332950e+000 9.372277e-001 8.294864e-001 5.491170e-001 9.929880e-001 6.789638e-001 9.493992e-001 6.904447e-001 8.812725e-001 5.336381e-001 5.129971e-001 6.207367e-001 5.427948e-001 7.281520e-001
<GCONST> 1.322620e+002
<STATE> 4
<MEAN> 39
 -5.420337e+000 -3.631912e-001 -2.758128e+000 -9.207467e+000 -2.938831e+000 2.478683e+000 -5.845558e+000 -4.360760e-001 -4.464372e+000 5.803627e-001 -3.042710e-001 -4.572486e+000 6.484227e+001 -1.981545e-001 1.193467e-001 -4.057809e-002 1.634469e-001 8.265838e-002 8.278495e-002 6.439260e-002 -1.208559e-001 -5.394337e-002 2.288273e-002 7.696337e-002 6.131852e-002 -5.234267e-001 2.894444e-003 -1.488256e-002 -4.094727e-002 -2.740456e-003 3.427870e-002 9.984661e-003 1.676751e-002 -1.549238e-003 2.236508e-002 -8.855284e-003 -2.211388e-002 -1.589476e-002 5.308667e-003
<VARIANCE> 39
 5.002466e+001 3.446008e+001 8.496888e+001 8.874915e+001 9.654755e+001 7.122031e+001 6.056270e+001 4.253163e+001 5.716603e+001 4.065162e+001 5.264134e+001 6.442757e+001 1.573648e+002 5.836041e-001 1.297280e+000 2.532818e+000 2.356985e+000 2.640517e+000 2.240044e+000 2.131816e+000 2.157075e+000 2.574896e+000 2.077688e+000 2.076437e+000 2.197182e+000 8.708881e-001 6.369164e-002 1.668250e-001 2.605920e-001 3.035558e-001 3.448922e-001 3.450294e-001 3.503155e-001 3.902961e-001 4.141874e-001 3.684154e-001 3.266662e-001 3.268681e-001 6.172667e-002
<GCONST> 1.154523e+002
<TRANSP> 5
 0.000000e+000 1.000000e+000 0.000000e+000 0.000000e+000 0.000000e+000
 0.000000e+000 8.990195e-001 1.009806e-001 0.000000e+000 0.000000e+000
 0.000000e+000 0.000000e+000 9.359798e-001 6.402025e-002 0.000000e+000
 0.000000e+000 0.000000e+000 0.000000e+000 9.855024e-001 1.449758e-002
 0.000000e+000 0.000000e+000 0.000000e+000 0.000000e+000 0.000000e+000
<ENDHMM>
~h "gwaeoni"
<BEGINHMM>
<NUMSTATES> 5
<STATE> 2
<MEAN> 39
 -1.736795e+001 6.896406e-001 -1.825528e+000 -7.889245e-001 -1.446333e+000 -2.271522e-001 -8.461052e-001 -5.776532e-001 -1.605721e+000 3.538674e-001 6.807207e-001 7.024373e-001 4.455387e+001 4.612054e-002 1.074478e-002 -3.056504e-002 -1.566416e-001 -9.633844e-002 -7.903331e-002 1.024072e-001 -1.312498e-002 -7.582381e-002 -9.361013e-005 4.165051e-003 9.807907e-002 1.067194e-001 1.159619e-001 -4.096415e-003 -1.371708e-001 -2.730368e-001 -9.359504e-002 1.727276e-003 -4.950453e-002 9.865799e-002 -4.374779e-002 7.722145e-002 -1.336266e-001 -7.064682e-002 2.439629e-001
<VARIANCE> 39
 3.739233e+000 8.787842e+000 6.980952e+000 1.265000e+001 1.674977e+001 1.380927e+001 1.586435e+001 1.843067e+001 1.729347e+001 1.897798e+001 1.363409e+001 9.864114e+000 9.680022e+000 3.506439e-001 1.231052e+000 9.863735e-001 1.243327e+000 1.651349e+000 1.557985e+000 1.707363e+000 1.693330e+000 2.126091e+000 2.117828e+000 1.195550e+000 1.002913e+000 6.857417e-001 8.713803e-002 1.974813e-001 3.188951e-001 3.909383e-001 3.363269e-001 2.437743e-001 2.750735e-001 3.657721e-001 4.846456e-001 4.234594e-001 2.346443e-001 2.023216e-001 3.271619e-001
<GCONST> 8.972615e+001
<STATE> 3
<MEAN> 39
 -1.033792e+001 -2.098947e-001 -8.909604e+000 -1.427829e+001 -1.902976e+000 4.338727e+000 -1.246786e+000 1.457734e+000 -5.011662e+000 3.344041e+000 2.577084e-001 -4.048092e+000 6.244686e+001 1.194754e+000 -3.528237e-001 -3.851061e-001 -1.354468e+000 2.039328e-001 6.591478e-001 -7.814816e-003 -1.819408e-001 -3.860670e-001 2.139545e-001 8.474688e-002 -7.137254e-001 2.205456e+000 -1.806632e-002 -4.575964e-002 6.107962e-002 7.152198e-002 6.861648e-002 -3.153159e-002 1.161683e-003 -5.370389e-002 7.145365e-002 -3.860828e-002 3.154891e-002 -1.996207e-003 -4.555491e-002
<VARIANCE> 39
 4.545365e+001 2.679383e+001 3.701258e+001 6.970211e+001 5.664137e+001 5.829585e+001 3.263232e+001 4.939033e+001 4.122652e+001 3.455285e+001 3.018447e+001 3.795926e+001 9.880078e+001 3.187828e+000 3.287321e+000 5.306036e+000 7.140267e+000 5.016916e+000 5.214588e+000 3.585789e+000 5.662094e+000 4.805349e+000 3.236914e+000 3.451522e+000 3.358359e+000 4.305952e+000 7.447504e-001 6.764432e-001 9.284919e-001 1.392199e+000 8.834211e-001 1.022301e+000 6.842183e-001 1.052567e+000 1.070054e+000 6.471519e-001 6.711533e-001 6.321140e-001 9.412181e-001
<GCONST> 1.377925e+002
<STATE> 4
<MEAN> 39
 -7.194795e+000 3.166217e+000 3.006705e+000 -1.081437e+001 -5.687170e+000 3.127791e+000 -3.564092e+000 -2.633266e+000 -6.016057e+000 1.986564e+000 -1.150617e+000 -4.725873e+000 6.422197e+001 -2.450031e-001 7.620428e-002 7.951332e-002 2.940038e-001 -2.403110e-002 -1.203125e-001 -7.739306e-004 1.570537e-002 7.303277e-002 -5.891228e-002 -1.654537e-002 1.303340e-001 -4.476508e-001 -9.855665e-003 9.984473e-003 -8.824237e-004 1.417396e-002 -5.061728e-003 1.224648e-002 3.923212e-003 -2.516864e-004 -5.300591e-003 1.831296e-003 4.679248e-003 4.993217e-003 -2.006799e-002
<VARIANCE> 39
 5.134495e+001 5.299976e+001 1.048946e+002 1.163047e+002 8.085359e+001 5.250062e+001 4.679531e+001 4.740445e+001 4.896014e+001 3.796155e+001 4.781586e+001 4.649995e+001 1.546195e+002 4.950202e-001 1.035089e+000 1.964671e+000 2.585055e+000 2.265771e+000 2.723507e+000 2.240618e+000 2.507904e+000 2.101484e+000 1.757916e+000 1.985059e+000 1.345961e+000 8.866994e-001 8.848502e-002 1.357461e-001 2.527448e-001 3.398940e-001 3.725736e-001 4.633573e-001 3.776362e-001 4.778314e-001 3.450747e-001 2.945771e-001 3.171375e-001 2.372820e-001 1.102541e-001
<GCONST> 1.145769e+002
<TRANSP> 5
 0.000000e+000 1.000000e+000 0.000000e+000 0.000000e+000 0.000000e+000
 0.000000e+000 8.729565e-001 1.270435e-001 0.000000e+000 0.000000e+000
 0.000000e+000 0.000000e+000 9.291121e-001 7.088788e-002 0.000000e+000
 0.000000e+000 0.000000e+000 0.000000e+000 9.864171e-001 1.358291e-002
 0.000000e+000 0.000000e+000 0.000000e+000 0.000000e+000 0.000000e+000
<ENDHMM>
~h "ijipteu"
<BEGINHMM>
<NUMSTATES> 5
<STATE> 2
<MEAN> 39
 -1.789458e+001 1.680812e+000 -9.422338e-001 -2.671357e-002 -9.099050e-001 -7.793669e-002 -8.141968e-001 8.890843e-002 -1.382990e+000 -1.792869e-001 -1.004238e+000 2.234157e-002 4.376166e+001 -2.042305e-001 1.008364e-001 4.560854e-001 -3.081208e-001 -3.330472e-002 -3.533864e-002 -3.837705e-001 2.290945e-001 -2.163801e-001 1.742431e-001 1.841680e-001 -4.457863e-002 1.787047e-001 -1.522754e-002 8.639327e-002 2.875801e-001 -8.369888e-002 -1.107549e-001 9.386186e-002 -1.381366e-001 -2.236242e-002 -1.880172e-001 -3.686257e-002 6.922848e-002 -1.130859e-001 1.932865e-001
<VARIANCE> 39
 3.811474e+000 3.866422e+000 6.697602e+000 8.468487e+000 1.018236e+001 1.162378e+001 1.454539e+001 1.372478e+001 1.289670e+001 1.103952e+001 1.126589e+001 1.107908e+001 8.098198e+000 2.863529e-001 2.877120e-001 8.836390e-001 8.854707e-001 1.274401e+000 1.313884e+000 1.757286e+000 2.022545e+000 1.505429e+000 1.289652e+000 1.447081e+000 1.199886e+000 1.104078e-001 9.717888e-002 8.832856e-002 2.536539e-001 1.184148e-001 2.654139e-001 2.590240e-001 3.888292e-001 3.554262e-001 2.240960e-001 2.230092e-001 2.695791e-001 2.408857e-001 1.011861e-001
<GCONST> 7.746541e+001
<STATE> 3
<MEAN> 39
 -1.575089e+001 6.105619e+000 9.408137e+000 -2.549536e+000 -6.106626e+000 -5.291151e+000 -5.720069e+000 -3.159132e+000 -7.312659e+000 -2.128016e+000 4.577570e-001 -5.650985e-001 6.314376e+001 2.369195e-001 3.583717e-003 1.029888e-001 2.872574e-002 -1.683254e-001 -2.381275e-001 -9.174290e-002 -1.352367e-003 -8.463646e-002 -2.451379e-002 2.129726e-002 -1.854834e-002 5.092226e-001 1.127277e-002 -2.465914e-002 -6.487199e-002 9.718212e-003 1.975151e-002 -7.913343e-003 3.425136e-003 -1.824467e-003 3.278825e-002 1.539112e-002 -9.851390e-003 4.760023e-003 -4.667404e-002
<VARIANCE> 39
 5.465089e+001 4.371180e+001 8.585611e+001 3.132662e+001 6.483307e+001 4.733163e+001 4.833890e+001 3.740860e+001 3.671515e+001 2.888183e+001 2.340279e+001 2.511497e+001 1.402758e+002 5.735898e+000 3.772544e+000 6.550258e+000 3.242085e+000 7.234877e+000 3.365525e+000 4.820171e+000 2.708098e+000 3.365130e+000 2.729749e+000 2.454033e+000 2.197710e+000 1.165464e+001 8.906986e-001 7.348261e-001 8.901737e-001 6.289809e-001 1.216291e+000 6.171477e-001 7.793162e-001 5.444691e-001 5.813443e-001 5.165716e-001 4.688980e-001 4.105296e-001 1.619755e+000
<GCONST> 1.349023e+002
<STATE> 4
<MEAN> 39
 -1.151094e+001 7.095535e-001 -2.836628e-001 -2.448276e-001 -3.006134e+000 -4.019423e+000 -4.580160e+000 1.009515e+000 -2.000282e+000 4.769001e-001 -8.473195e-001 -1.753384e+000 5.612009e+001 -2.107529e-001 -2.398847e-002 -1.913325e-001 1.665765e-003 1.765786e-001 2.542861e-001 1.560848e-001 -5.390406e-002 1.498099e-001 -1.943873e-002 -8.392408e-002 1.502100e-002 -5.502752e-001 -8.335868e-003 9.906724e-003 1.235164e-002 -4.802516e-003 -1.071138e-002 -4.145998e-003 3.354556e-002 -4.586642e-003 -1.325172e-002 -2.343728e-002 -1.582743e-002 6.995866e-003 1.156406e-002
<VARIANCE> 39
 5.018872e+001 1.901706e+001 3.337527e+001 2.065932e+001 3.816727e+001 5.739111e+001 7.019300e+001 4.024260e+001 3.068533e+001 2.803393e+001 3.783070e+001 3.809864e+001 1.493258e+002 9.995813e-001 1.277917e+000 1.627095e+000 1.734205e+000 2.098434e+000 2.245918e+000 3.377687e+000 2.296292e+000 1.706767e+000 1.876127e+000 1.836464e+000 1.757861e+000 2.562705e+000 1.144504e-001 2.254280e-001 2.565630e-001 3.062378e-001 3.551256e-001 3.890097e-001 5.598202e-001 4.062269e-001 3.175237e-001 3.163333e-001 3.202259e-001 3.037671e-001 3.335864e-001
<GCONST> 1.125190e+002
<TRANSP> 5
 0.000000e+000 1.000000e+000 0.000000e+000 0.000000e+000 0.000000e+000
 0.000000e+000 8.718628e-001 1.281372e-001 0.000000e+000 0.000000e+000
 0.000000e+000 0.000000e+000 9.771162e-001 2.288380e-002 0.000000e+000
 0.000000e+000 0.000000e+000 0.000000e+000 9.765241e-001 2.347592e-002
 0.000000e+000 0.000000e+000 0.000000e+000 0.000000e+000 0.000000e+000
<ENDHMM>
~h "gege"
<BEGINHMM>
<NUMSTATES> 5
<STATE> 2
<MEAN> 39
 -1.778335e+001 5.755768e-001 -2.140888e+000 3.551814e-002 -5.444629e-001 -4.856391e-001 -7.553625e-001 -2.197949e-001 -7.420916e-001 3.524982e-001 -8.576879e-001 5.036965e-002 4.453126e+001 1.327683e-001 -3.118824e-001 -5.740283e-001 -4.475192e-001 5.074059e-001 -2.892951e-001 -4.718543e-001 -1.588213e-001 -1.838298e-001 3.901823e-001 -2.982043e-001 1.400415e-001 9.757611e-001 8.764915e-002 -2.150434e-001 -2.974860e-001 -2.273061e-001 1.440158e-001 -1.446221e-001 -2.218269e-001 2.941732e-002 -1.384161e-002 1.989239e-001 -1.021094e-001 -6.118406e-002 5.864207e-001
<VARIANCE> 39
 4.940996e+000 9.532212e+000 9.000184e+000 1.871307e+001 1.340217e+001 1.587284e+001 1.535811e+001 1.504406e+001 1.893085e+001 1.662768e+001 1.172735e+001 1.150797e+001 1.268187e+001 6.923996e-001 2.033605e+000 2.728348e+000 2.813273e+000 2.273110e+000 2.165262e+000 2.414240e+000 1.867193e+000 2.213785e+000 3.001806e+000 1.833625e+000 1.646890e+000 6.223592e+000 1.076302e-001 3.128313e-001 3.082044e-001 4.703790e-001 4.034598e-001 4.292842e-001 4.405944e-001 3.841780e-001 4.514802e-001 4.898250e-001 3.412313e-001 2.993121e-001 9.299172e-001
<GCONST> 1.022478e+002
<STATE> 3
<MEAN> 39
 -1.290914e+001 -5.103121e+000 -5.395225e+000 -3.151877e+000 2.284894e+000 -9.140479e+000 -1.113430e+001 8.717965e-001 -2.732840e+000 6.101601e+000 -3.667759e+000 -1.149630e+000 6.815018e+001 1.117963e+000 5.088443e-001 1.898303e+000 3.320688e-001 -1.561920e+000 -5.657672e-001 -1.047558e+000 3.863025e-001 -8.511984e-001 -5.278199e-001 4.299534e-001 -4.662600e-001 1.816647e+000 -6.898240e-003 2.438136e-001 5.238414e-001 1.051310e-001 -5.035803e-001 2.171915e-001 1.819282e-001 2.832406e-002 -1.770236e-001 -2.783934e-001 2.502917e-001 -4.813069e-002 -4.596645e-001
<VARIANCE> 39
 3.740967e+001 3.287329e+001 9.804824e+001 5.060299e+001 6.124493e+001 4.354461e+001 4.122985e+001 2.122343e+001 3.832906e+001 6.090432e+001 3.279285e+001 3.277424e+001 2.379387e+001 4.144161e+000 4.414019e+000 7.753023e+000 6.680818e+000 6.391315e+000 5.130205e+000 4.014432e+000 2.598039e+000 5.025415e+000 6.357658e+000 3.656639e+000 2.494195e+000 9.312428e+000 9.816512e-001 8.106021e-001 1.246269e+000 1.401780e+000 6.700844e-001 7.874870e-001 7.798508e-001 4.978264e-001 7.643335e-001 9.217576e-001 5.302595e-001 4.144343e-001 1.701367e+000
<GCONST> 1.378735e+002
<STATE> 4
<MEAN> 39
 -1.030803e+001 5.064269e-001 8.099171e+000 -3.660267e+000 -1.196949e+001 -5.746977e+000 -3.607138e+000 1.995535e+000 -7.852870e+000 4.588084e-001 1.489037e+000 -1.978912e+000 6.470712e+001 -1.866630e-001 -3.387248e-003 -1.718769e-001 1.504891e-002 1.511689e-001 1.415452e-001 2.167502e-001 -5.584366e-002 1.401489e-001 -1.689861e-002 -2.420080e-002 6.479457e-002 -4.326262e-001 -1.127348e-002 -2.676243e-003 -2.679435e-002 1.833926e-002 4.677174e-002 9.554920e-004 9.438439e-003 -3.172912e-003 3.348897e-002 7.963593e-003 -1.644723e-002 3.567030e-003 -2.731493e-002
<VARIANCE> 39
 2.840086e+001 2.433458e+001 6.265641e+001 3.679348e+001 7.471755e+001 5.227838e+001 6.981422e+001 5.826312e+001 5.792731e+001 5.085579e+001 4.198618e+001 3.541514e+001 1.795007e+002 1.230709e+000 1.759862e+000 1.844197e+000 1.624321e+000 2.721941e+000 1.982379e+000 2.441907e+000 2.258584e+000 2.615825e+000 2.059778e+000 1.744036e+000 1.526804e+000 3.090719e+000 2.285481e-001 3.153290e-001 2.938714e-001 2.887354e-001 4.362557e-001 3.665458e-001 4.201631e-001 3.539162e-001 4.871438e-001 3.873005e-001 2.994901e-001 2.740623e-001 4.157601e-001
<GCONST> 1.181961e+002
<TRANSP> 5
 0.000000e+000 1.000000e+000 0.000000e+000 0.000000e+000 0.000000e+000
 0.000000e+000 9.078124e-001 9.218766e-002 0.000000e+000 0.000000e+000
 0.000000e+000 0.000000e+000 8.995524e-001 1.004475e-001 0.000000e+000
 0.000000e+000 0.000000e+000 0.000000e+000 9.856522e-001 1.434780e-002
 0.000000e+000 0.000000e+000 0.000000e+000 0.000000e+000 0.000000e+000
<ENDHMM>
~h "dwaesseubnida"
<BEGINHMM>
<NUMSTATES> 5
<STATE> 2
<MEAN> 39
 -1.797593e+001 8.359064e-001 -1.502186e+000 -6.096916e-003 -4.816619e-001 2.439338e-001 -1.911332e-001 2.787693e-001 -8.786180e-001 8.420093e-001 2.632792e-002 9.144425e-001 4.418662e+001 -1.313768e-002 -3.055774e-002 -9.909637e-003 -4.590179e-002 1.063715e-001 8.500885e-002 1.352234e-002 7.874376e-002 -1.009335e-001 -1.006847e-001 2.443580e-002 -9.634784e-002 3.791642e-002 -4.012700e-003 -6.469986e-002 2.469505e-003 -2.017552e-001 -3.899435e-002 -1.355374e-001 -8.980433e-003 -2.037697e-002 -2.855131e-002 -6.063910e-003 3.471192e-002 5.785464e-002 2.833812e-001
<VARIANCE> 39
 3.022255e+000 4.091580e+000 5.855457e+000 9.796997e+000 1.095269e+001 1.148187e+001 1.696752e+001 1.352783e+001 1.384796e+001 1.480727e+001 1.238264e+001 8.937736e+000 7.068620e+000 2.683526e-001 4.875515e-001 6.221759e-001 1.084972e+000 1.256115e+000 1.033274e+000 1.431857e+000 1.289898e+000 1.406190e+000 1.565462e+000 1.253688e+000 8.529946e-001 2.623863e-001 5.507338e-002 1.276282e-001 1.366540e-001 3.140245e-001 2.124147e-001 1.988925e-001 2.605762e-001 2.522843e-001 2.696190e-001 3.109297e-001 2.408582e-001 2.175520e-001 4.585754e-001
<GCONST> 7.826321e+001
<STATE> 3
<MEAN> 39
 -1.753308e+001 -2.292507e+000 -9.317612e-001 -5.692553e+000 -1.208778e+000 -6.275557e+000 -6.429120e-001 1.432639e+000 -2.082785e+000 1.338448e+000 -6.820066e-002 3.093665e+000 5.972532e+001 8.316322e-001 -4.196367e-001 5.733907e-001 -2.744678e-001 -6.540678e-001 -1.366299e+000 -1.756965e-001 6.842690e-001 -2.832580e-001 2.125167e-001 -4.979837e-001 2.199141e-001 3.448477e+000 4.206992e-001 1.953928e-001 2.015407e-001 3.058729e-001 -2.535256e-001 1.582127e-002 -2.183313e-001 1.071197e-001 -5.211008e-002 3.219144e-002 -1.166314e-001 -2.443955e-001 -1.611319e-001
<VARIANCE> 39
 9.839803e+000 2.148788e+001 1.471017e+001 4.497042e+001 2.263949e+001 3.337380e+001 2.144040e+001 2.565910e+001 1.941578e+001 2.093567e+001 1.867984e+001 2.458681e+001 1.533157e+002 3.109043e+000 2.700562e+000 2.538176e+000 8.832049e+000 3.372444e+000 3.778366e+000 2.911913e+000 2.834834e+000 2.828887e+000 3.164052e+000 1.925745e+000 4.619392e+000 1.362956e+001 3.918899e-001 4.948136e-001 4.097871e-001 1.644456e+000 6.403496e-001 8.062724e-001 5.148209e-001 5.669842e-001 4.648474e-001 6.100031e-001 3.618372e-001 7.893915e-001 3.173707e+000
<GCONST> 1.252299e+002
<STATE> 4
<MEAN> 39
 -1.080467e+001 9.655281e-001 -5.965019e-001 -3.878386e+000 -2.645644e+000 -3.625884e+000 -3.240880e+000 3.940346e-001 -2.444233e+000 -2.063473e-001 -3.834536e+000 -2.882104e+000 6.436013e+001 -6.903826e-002 3.730257e-002 -6.520682e-002 3.113180e-002 6.283459e-002 1.169590e-001 3.482574e-003 -6.779847e-002 2.004202e-002 -4.013505e-002 3.528867e-002 -2.813060e-002 -3.107464e-001 -3.625305e-002 -1.025841e-002 -2.044447e-002 -8.009571e-003 2.717597e-002 7.123174e-003 1.807439e-002 -1.122469e-002 6.615234e-003 -5.093889e-003 1.149926e-002 1.405200e-002 -1.577160e-002
<VARIANCE> 39
 8.681493e+001 3.689488e+001 7.401212e+001 4.287864e+001 8.186378e+001 6.013100e+001 3.791490e+001 5.232219e+001 4.858834e+001 2.987739e+001 4.007089e+001 4.531937e+001 1.308048e+002 4.753360e+000 1.947505e+000 2.980128e+000 3.006780e+000 3.853970e+000 2.880411e+000 2.952659e+000 3.146257e+000 2.822765e+000 2.065911e+000 2.497797e+000 2.415197e+000 3.075595e+000 6.512910e-001 3.142551e-001 4.510944e-001 5.252550e-001 6.425399e-001 5.290455e-001 5.481941e-001 5.511459e-001 4.817211e-001 3.924728e-001 4.383495e-001 4.308202e-001 4.709892e-001
<GCONST> 1.279152e+002
<TRANSP> 5
 0.000000e+000 1.000000e+000 0.000000e+000 0.000000e+000 0.000000e+000
 0.000000e+000 8.859372e-001 1.140628e-001 0.000000e+000 0.000000e+000
 0.000000e+000 0.000000e+000 8.663625e-001 1.336375e-001 0.000000e+000
 0.000000e+000 0.000000e+000 0.000000e+000 9.882835e-001 1.171646e-002
 0.000000e+000 0.000000e+000 0.000000e+000 0.000000e+000 0.000000e+000
<ENDHMM>
~h "yadangui"
<BEGINHMM>
<NUMSTATES> 5
<STATE> 2
<MEAN> 39
 -1.851583e+001 1.856686e+000 -1.581085e-001 -2.001769e+000 -1.149593e+000 -8.210260e-001 -5.410252e-001 4.325170e-001 -3.582007e+000 4.095260e-001 -8.409339e-001 -4.300638e-001 4.459595e+001 -4.239174e-002 2.895022e-001 5.983819e-001 -4.128038e-001 -2.429798e-002 -4.146256e-002 -2.151324e-001 2.483263e-001 -4.472553e-001 2.190385e-001 -3.737469e-003 -5.850283e-002 4.925404e-001 1.951685e-001 1.479829e-001 2.318039e-001 5.277403e-004 -7.823844e-002 -2.124659e-002 -7.954363e-002 8.154078e-002 -3.309146e-002 1.604912e-003 -3.235838e-002 1.834180e-002 2.631798e-001
<VARIANCE> 39
 5.976775e+000 5.495300e+000 1.158440e+001 1.804893e+001 2.336100e+001 1.192021e+001 1.594891e+001 2.069574e+001 1.828834e+001 1.520413e+001 1.388262e+001 1.580744e+001 1.341545e+001 5.704812e-001 8.157657e-001 1.317021e+000 2.078970e+000 1.689683e+000 1.426610e+000 1.852032e+000 2.119024e+000 1.453850e+000 1.211908e+000 1.449067e+000 1.596436e+000 6.023004e-001 1.906815e-001 1.266894e-001 1.799212e-001 3.089532e-001 2.667533e-001 3.599539e-001 3.781498e-001 3.938347e-001 2.878329e-001 1.941910e-001 2.746137e-001 3.055387e-001 2.264643e-001
<GCONST> 9.123524e+001
<STATE> 3
<MEAN> 39
 -5.743019e+000 -1.834637e+000 -7.324467e-001 -7.780033e+000 -3.955869e+000 -6.380561e+000 -5.310982e+000 4.594622e+000 -4.123853e-001 5.742870e-001 -7.369867e+000 -4.565278e+000 7.248209e+001 4.452703e-001 -2.498382e-001 -1.705955e-001 -1.119856e-001 -9.666093e-002 -1.119255e-001 -1.435114e-001 4.603843e-002 1.398647e-001 4.395505e-002 -2.086861e-001 -2.642308e-001 8.237349e-001 -4.747156e-002 -3.364947e-002 -3.359241e-002 2.806657e-003 4.035803e-003 3.171915e-002 4.193803e-002 -5.303644e-002 -1.123468e-002 6.613343e-003 1.923427e-002 3.309744e-004 -9.879194e-002
<VARIANCE> 39
 2.568994e+001 4.995647e+001 6.361970e+001 4.275893e+001 6.315112e+001 5.916157e+001 4.621503e+001 4.890105e+001 5.107749e+001 3.381798e+001 5.609430e+001 4.553745e+001 9.787774e+001 2.757027e+000 4.226629e+000 4.372599e+000 3.158678e+000 4.521688e+000 3.825040e+000 3.790509e+000 4.032150e+000 3.406535e+000 2.867731e+000 3.721329e+000 3.130738e+000 1.074862e+001 4.840652e-001 6.454094e-001 7.377100e-001 5.788860e-001 7.639256e-001 7.322633e-001 7.001440e-001 6.796783e-001 6.368846e-001 5.763867e-001 6.726485e-001 5.728047e-001 1.536067e+000
<GCONST> 1.354787e+002
<STATE> 4
<MEAN> 39
 -9.053642e+000 2.478377e+000 5.361403e+000 -4.579035e+000 -8.716790e+000 -1.423070e+000 -3.268686e+000 -3.039545e-001 -6.539787e+000 1.890419e+000 -9.703689e-001 -4.095178e+000 6.024282e+001 -2.719257e-001 1.063088e-001 -9.949513e-003 1.616622e-001 7.698422e-002 9.578943e-002 1.215755e-001 -9.309781e-002 3.057470e-003 -7.569589e-002 1.637789e-001 1.913391e-001 -6.245323e-001 3.674733e-004 -8.276390e-004 -2.247117e-002 3.198169e-003 2.235965e-002 -7.899831e-003 -1.154518e-002 2.287686e-002 1.570364e-002 -1.115354e-002 -7.014361e-003 7.403126e-003 1.113319e-002
<VARIANCE> 39
 3.730062e+001 2.293285e+001 7.548966e+001 3.735466e+001 5.441049e+001 6.063025e+001 5.139715e+001 5.478638e+001 4.973897e+001 3.801562e+001 4.815536e+001 4.422992e+001 1.558984e+002 3.192309e-001 9.514544e-001 2.070932e+000 1.344335e+000 2.218203e+000 1.991928e+000 2.251539e+000 2.234544e+000 2.163922e+000 1.814489e+000 1.857445e+000 1.469271e+000 6.626565e-001 4.591189e-002 1.300804e-001 2.220546e-001 2.247811e-001 3.366529e-001 2.930416e-001 3.651211e-001 3.516051e-001 3.641563e-001 3.212701e-001 3.091621e-001 2.531618e-001 4.752015e-002
<GCONST> 1.073425e+002
<TRANSP> 5
 0.000000e+000 1.000000e+000 0.000000e+000 0.000000e+000 0.000000e+000
 0.000000e+000 8.971703e-001 1.028297e-001 0.000000e+000 0.000000e+000
 0.000000e+000 0.000000e+000 9.701142e-001 2.988576e-002 0.000000e+000
 0.000000e+000 0.000000e+000 0.000000e+000 9.804932e-001 1.950670e-002
 0.000000e+000 0.000000e+000 0.000000e+000 0.000000e+000 0.000000e+000
<ENDHMM>
~h "yokeondae"
<BEGINHMM>
<NUMSTATES> 5
<STATE> 2
<MEAN> 39
 -1.804918e+001 1.512998e+000 -6.886942e-001 -1.167384e+000 -1.868591e+000 -8.445861e-001 -1.165360e+000 -3.952383e-001 -1.635649e+000 -5.149054e-001 -3.315314e-001 3.299884e-001 4.419074e+001 2.459215e-002 9.392361e-002 4.874915e-001 -5.260118e-002 -1.259666e-002 1.518708e-001 -1.153037e-001 8.943969e-002 -3.118575e-001 1.939927e-001 7.512745e-002 -4.842642e-002 2.441950e-001 9.051239e-002 6.517042e-002 2.717831e-001 -2.432673e-003 -1.127944e-001 -4.184111e-003 -2.595110e-002 -1.556855e-002 -7.623619e-002 1.396333e-002 -1.417394e-002 -5.373739e-002 2.225167e-001
<VARIANCE> 39
 4.656978e+000 5.034559e+000 1.206200e+001 1.407075e+001 1.420203e+001 1.767445e+001 1.553298e+001 1.308355e+001 1.382172e+001 1.418431e+001 1.362588e+001 1.376432e+001 8.603292e+000 3.569237e-001 4.503586e-001 1.480281e+000 1.374005e+000 1.493203e+000 1.495001e+000 1.556630e+000 1.485286e+000 1.360949e+000 1.846491e+000 1.510112e+000 1.588178e+000 3.112373e-001 1.106896e-001 1.150075e-001 3.714349e-001 3.182582e-001 3.591344e-001 3.065819e-001 4.041868e-001 3.233509e-001 2.270791e-001 3.229410e-001 2.646759e-001 3.192369e-001 1.672747e-001
<GCONST> 8.701048e+001
<STATE> 3
<MEAN> 39
 -6.322374e+000 2.759315e+000 7.504094e-001 -5.850190e+000 -5.632027e+000 -1.328393e+000 -7.022007e+000 -2.482963e+000 -6.752734e+000 1.642672e+000 -1.597584e+000 -2.728928e+000 6.458512e+001 2.485526e-001 -7.954369e-002 4.852211e-002 -8.822269e-002 -2.275966e-001 -2.417948e-001 -1.064772e-001 1.063607e-001 1.777476e-002 3.587629e-003 8.630812e-003 -2.420264e-002 6.072223e-001 -5.480482e-003 -2.640605e-002 -3.543755e-002 -1.284876e-002 -1.105290e-002 -4.087952e-003 2.360439e-002 2.713483e-002 1.118516e-002 6.367065e-003 4.036787e-003 -7.237912e-003 -3.105675e-002
<VARIANCE> 39
 4.077462e+001 2.937051e+001 1.083757e+002 7.537326e+001 7.405211e+001 6.309043e+001 5.503226e+001 6.391668e+001 4.696998e+001 4.145844e+001 5.264834e+001 4.044579e+001 1.024124e+002 3.630988e+000 3.335532e+000 7.395854e+000 6.654136e+000 6.427607e+000 5.385821e+000 5.135972e+000 6.044885e+000 4.829839e+000 4.098176e+000 4.487964e+000 3.155440e+000 9.896183e+000 5.562437e-001 5.890855e-001 1.226085e+000 1.265129e+000 1.134005e+000 1.041116e+000 9.072332e-001 1.136700e+000 9.474682e-001 7.737780e-001 8.733049e-001 5.781162e-001 1.384408e+000
<GCONST> 1.444046e+002
<STATE> 4
<MEAN> 39
 -1.068760e+001 -8.702328e-001 1.470884e+000 -2.465891e+000 -7.357317e+000 -5.246058e+000 3.323497e-001 5.163418e+000 -3.079416e+000 -6.005827e-001 -1.624643e+000 -9.602218e-001 5.877395e+001 -3.214771e-001 6.444890e-002 -1.915321e-001 1.434960e-001 3.255669e-001 3.029871e-001 1.499503e-001 -1.379298e-001 3.608079e-002 -3.310705e-002 -1.851605e-002 8.051548e-002 -8.480069e-001 -1.362456e-002 2.117478e-002 -1.617278e-002 2.152885e-003 2.017388e-002 -9.043459e-003 -7.231489e-003 -1.873383e-002 -6.758067e-003 -1.204683e-002 8.004848e-003 2.812936e-002 -1.249155e-002
<VARIANCE> 39
 2.975137e+001 1.697467e+001 3.814460e+001 3.020149e+001 5.779585e+001 6.288580e+001 4.519443e+001 4.826497e+001 3.778777e+001 3.672248e+001 4.188095e+001 3.582169e+001 1.830992e+002 3.255613e-001 8.046572e-001 1.307451e+000 1.495846e+000 1.477058e+000 1.870067e+000 2.610824e+000 2.005221e+000 1.931467e+000 1.931976e+000 1.385372e+000 1.446531e+000 9.021393e-001 5.048600e-002 1.330919e-001 1.986441e-001 2.452380e-001 2.539436e-001 3.201342e-001 4.204486e-001 3.364510e-001 3.613663e-001 3.581323e-001 2.363720e-001 2.707339e-001 6.586950e-002
<GCONST> 1.045037e+002
<TRANSP> 5
 0.000000e+000 1.000000e+000 0.000000e+000 0.000000e+000 0.000000e+000
 0.000000e+000 8.849609e-001 1.150391e-001 0.000000e+000 0.000000e+000
 0.000000e+000 0.000000e+000 9.799578e-001 2.004213e-002 0.000000e+000
 0.000000e+000 0.000000e+000 0.000000e+000 9.738988e-001 2.610120e-002
 0.000000e+000 0.000000e+000 0.000000e+000 0.000000e+000 0.000000e+000
<ENDHMM>
~h "chungwadae"
<BEGINHMM>
<NUMSTATES> 5
<STATE> 2
<MEAN> 39
 -1.840792e+001 1.188457e+000 -1.251042e+000 -1.881001e+000 6.829524e-002 -1.047754e+000 -7.935339e-001 4.669278e-001 -1.204356e+000 6.487606e-001 3.973776e-001 1.500898e+000 4.564125e+001 -3.499284e-001 -2.123726e-001 3.445150e-002 -6.729845e-001 9.291947e-002 -2.560260e-001 -1.683025e-001 1.511301e-001 -2.211862e-001 1.968861e-001 1.029501e-001 -1.207342e-001 1.197238e+000 -1.910209e-001 -6.797594e-002 -7.366457e-002 -2.125154e-001 3.901349e-002 -1.790856e-002 -8.069501e-002 4.679400e-002 1.577030e-002 -1.572281e-002 7.795680e-003 -1.732501e-002 5.010169e-001
<VARIANCE> 39
 9.620141e+000 1.459374e+001 1.120806e+001 2.254793e+001 2.168164e+001 2.320402e+001 2.816146e+001 2.089232e+001 1.844804e+001 1.862233e+001 1.416151e+001 1.589153e+001 3.585965e+001 1.348667e+000 2.133815e+000 1.751179e+000 3.313339e+000 2.234888e+000 2.187047e+000 3.318214e+000 2.049312e+000 2.094457e+000 2.105264e+000 1.171229e+000 1.460211e+000 5.869288e+000 2.838441e-001 3.559371e-001 3.170343e-001 4.686266e-001 4.127941e-001 3.928948e-001 5.792056e-001 4.082807e-001 4.241062e-001 3.695410e-001 2.129157e-001 2.805816e-001 6.922321e-001
<GCONST> 1.071976e+002
<STATE> 3
<MEAN> 39
 -7.165115e+000 -1.442450e+000 -3.693282e+000 -1.048136e+001 -4.297173e+000 -4.821809e-002 -4.928068e+000 -5.768611e-002 -1.976291e+000 3.574793e-002 -4.333295e+000 -3.759294e+000 7.224931e+001 3.743662e-001 -3.642584e-002 1.822031e-001 3.103020e-002 -3.358045e-001 -2.570409e-001 -1.233578e-001 1.068591e-001 -1.259326e-002 -4.672885e-003 -8.941446e-002 -5.783542e-002 4.982402e-001 6.331136e-002 -7.806614e-003 2.937666e-002 4.960583e-002 -3.725841e-002 2.286769e-002 2.541346e-002 2.499438e-002 -5.059703e-004 -2.251594e-003 6.956151e-003 -8.497520e-003 -1.197902e-001
<VARIANCE> 39
 9.469463e+001 3.642931e+001 3.782959e+001 5.258175e+001 7.771226e+001 8.730050e+001 4.138106e+001 4.529876e+001 4.554641e+001 3.492242e+001 4.841471e+001 5.438590e+001 5.409035e+001 4.533738e+000 3.550524e+000 2.820441e+000 3.723995e+000 5.720819e+000 5.332305e+000 3.808903e+000 4.623578e+000 3.879628e+000 3.082177e+000 4.083480e+000 3.647095e+000 7.776351e+000 6.902643e-001 6.389648e-001 4.749500e-001 6.625332e-001 9.092162e-001 9.370845e-001 7.486722e-001 8.465015e-001 7.553077e-001 5.836360e-001 7.444187e-001 6.785706e-001 1.343601e+000
<GCONST> 1.378679e+002
<STATE> 4
<MEAN> 39
 -1.100667e+001 -1.384434e+000 1.572339e+000 -3.090277e+000 -6.370664e+000 -5.514974e+000 -9.637306e-001 5.668632e+000 -2.563540e+000 -6.148152e-001 -2.331980e+000 -8.335960e-001 6.023343e+001 -3.066081e-001 9.157462e-002 -1.912775e-001 1.838062e-001 3.155413e-001 3.140530e-001 1.878708e-001 -1.657334e-001 6.841408e-002 -1.973714e-002 7.674558e-002 8.131143e-002 -8.894897e-001 -1.667562e-002 2.764566e-002 -1.794594e-002 1.083945e-002 3.506468e-002 -9.251678e-003 -2.846694e-003 -4.768846e-002 7.679376e-003 2.107590e-003 2.397875e-003 1.373678e-002 -1.990820e-002
<VARIANCE> 39
 2.993418e+001 1.383691e+001 3.660777e+001 3.500107e+001 6.478229e+001 5.628686e+001 5.027223e+001 4.383708e+001 3.515304e+001 3.502065e+001 4.204671e+001 3.530923e+001 2.032626e+002 4.097691e-001 8.676194e-001 1.241088e+000 1.621785e+000 1.940537e+000 1.824102e+000 2.582287e+000 1.957094e+000 1.575335e+000 1.419009e+000 1.676220e+000 1.295895e+000 9.388112e-001 6.336055e-002 1.514018e-001 2.068352e-001 2.867194e-001 3.489678e-001 3.302434e-001 4.282570e-001 3.367308e-001 2.956012e-001 2.467803e-001 2.970851e-001 2.291825e-001 8.792208e-002
<GCONST> 1.052530e+002
<TRANSP> 5
 0.000000e+000 1.000000e+000 0.000000e+000 0.000000e+000 0.000000e+000
 0.000000e+000 9.106441e-001 8.935591e-002 0.000000e+000 0.000000e+000
 0.000000e+000 0.000000e+000 9.755949e-001 2.440507e-002 0.000000e+000
 0.000000e+000 0.000000e+000 0.000000e+000 9.742492e-001 2.575082e-002
 0.000000e+000 0.000000e+000 0.000000e+000 0.000000e+000 0.000000e+000
<ENDHMM>
~h "computer"
<BEGINHMM>
<NUMSTATES> 5
<STATE> 2
<MEAN> 39
 -1.806401e+001 8.314831e-001 -1.664906e+000 3.718638e-001 -1.346823e-001 1.088331e-001 -1.098283e-001 -7.094344e-001 -8.534506e-001 4.442401e-001 -5.416005e-001 1.277413e-001 4.423270e+001 -2.555037e-003 1.538687e-002 -2.929497e-002 -4.710489e-002 1.353989e-002 1.049486e-001 -7.556410e-002 -2.300559e-001 7.173307e-002 1.851953e-001 1.080890e-001 9.446771e-002 5.968664e-002 2.084608e-002 -8.266214e-004 -1.796015e-001 -1.821567e-001 1.219614e-001 -5.917719e-002 -1.160988e-001 -2.366761e-002 -9.957471e-002 9.950402e-002 -3.998835e-002 -5.492064e-002 2.610611e-001
<VARIANCE> 39
 3.443399e+000 5.708282e+000 6.540176e+000 7.121371e+000 1.340838e+001 1.582578e+001 1.235620e+001 1.286387e+001 1.606772e+001 1.601525e+001 1.369023e+001 1.063416e+001 8.487079e+000 2.141632e-001 4.841693e-001 5.294730e-001 6.385766e-001 1.324658e+000 1.402897e+000 1.307175e+000 1.297090e+000 1.735770e+000 1.490001e+000 1.801844e+000 1.516044e+000 2.902780e-001 7.259790e-002 1.200879e-001 2.862511e-001 2.518204e-001 3.286642e-001 2.697105e-001 2.832507e-001 2.674570e-001 3.525924e-001 3.251423e-001 3.278324e-001 2.589342e-001 3.757875e-001
<GCONST> 8.212086e+001
<STATE> 3
<MEAN> 39
