~o
<STREAMINFO> 1 39
<VECSIZE> 39<NULLD><MFCC_D_A_0><DIAGC>
~h "dangnyobyung"
<BEGINHMM>
<NUMSTATES> 5
<STATE> 2
<MEAN> 39
 -1.801862e+001 1.064245e+000 -1.727754e+000 3.559428e-002 -7.901596e-001 -4.407898e-001 -4.870386e-001 -3.569305e-001 -1.313813e+000 3.021096e-001 -3.885761e-001 5.079706e-001 4.372148e+001 -7.806389e-002 -2.794070e-001 -1.920746e-001 -2.667880e-001 -1.573868e-002 -1.395148e-001 2.645133e-001 1.809623e-001 -6.333164e-002 -1.230051e-001 -1.234878e-001 -5.710594e-002 9.057449e-001 -2.113499e-002 -1.213372e-001 -9.779836e-002 -1.424248e-001 5.213832e-002 -1.329189e-001 -2.784104e-002 3.939172e-003 1.486494e-001 1.101113e-001 4.418141e-002 9.043246e-002 5.322397e-001
<VARIANCE> 39
 3.242638e+000 4.405695e+000 6.452497e+000 9.755899e+000 9.909895e+000 1.563791e+001 1.134945e+001 1.414910e+001 1.478791e+001 1.668464e+001 1.220306e+001 1.238827e+001 8.246123e+000 6.824461e-001 7.644774e-001 1.098403e+000 1.597493e+000 1.017652e+000 1.896797e+000 1.258676e+000 1.722663e+000 2.087109e+000 2.324749e+000 1.731730e+000 1.553732e+000 4.515262e+000 1.128457e-001 1.385286e-001 2.046544e-001 2.305263e-001 1.738087e-001 3.471234e-001 2.285607e-001 3.207133e-001 3.872589e-001 4.252038e-001 3.117842e-001 2.826891e-001 8.076684e-001
<GCONST> 8.957767e+001
<STATE> 3
<MEAN> 39
 -1.355005e+001 -4.757301e+000 -6.311845e+000 -5.345609e+000 3.059388e+000 -2.675091e+000 7.155343e-001 1.620969e+000 5.003900e-001 1.333552e+000 -3.734440e+000 -1.924988e+000 6.702826e+001 1.511820e+000 -7.454594e-002 2.497829e-002 -5.056469e-001 2.053117e-001 -2.822804e-002 -4.627523e-001 -2.783079e-002 -3.973809e-001 3.622708e-001 -5.595352e-001 -7.314441e-001 1.814023e+000 1.109286e-001 1.896365e-001 3.047388e-001 1.168986e-001 -2.955550e-001 1.034940e-001 -1.155662e-001 -1.697917e-001 -2.084362e-001 7.405907e-002 -5.056286e-002 -2.256589e-002 -5.346956e-001
<VARIANCE> 39
 5.900534e+001 2.386244e+001 1.912053e+001 3.700117e+001 3.783464e+001 4.843979e+001 3.648791e+001 3.779826e+001 4.092841e+001 2.104191e+001 4.252428e+001 5.222435e+001 7.455045e+001 3.151812e+000 3.374268e+000 3.403485e+000 3.962083e+000 5.007149e+000 5.155248e+000 3.818493e+000 4.271670e+000 4.904734e+000 3.086107e+000 4.752207e+000 4.388627e+000 9.650975e+000 6.943259e-001 6.201636e-001 5.834469e-001 9.211265e-001 1.022811e+000 1.011639e+000 6.629369e-001 8.906465e-001 8.098949e-001 6.514371e-001 1.027439e+000 9.146681e-001 1.351404e+000
<GCONST> 1.356806e+002
<STATE> 4
<MEAN> 39
 -7.272401e+000 4.681650e-001 7.406442e-001 -3.557784e+000 -5.489575e+000 -7.116795e-001 -4.403845e+000 -1.019072e+000 -4.142241e+000 -4.624905e-002 -2.605994e+000 -2.270024e+000 6.046150e+001 -1.969745e-001 3.953520e-002 4.669469e-003 1.038289e-001 -3.103100e-002 3.235362e-002 3.940215e-002 -1.033931e-002 4.929536e-002 -4.469821e-002 9.295546e-002 8.657503e-002 -3.594847e-001 -1.116224e-002 -1.055096e-002 -2.754929e-002 4.287792e-003 3.798656e-002 5.794697e-004 7.781462e-003 1.573707e-002 2.164566e-002 -1.063987e-002 7.455165e-003 -6.072785e-003 2.222157e-003
<VARIANCE> 39
 5.133697e+001 2.451097e+001 4.766239e+001 4.202841e+001 5.450230e+001 5.924967e+001 4.997318e+001 4.617033e+001 3.678147e+001 4.079675e+001 4.979835e+001 4.344910e+001 1.582817e+002 1.773645e+000 1.698095e+000 3.386157e+000 2.772257e+000 3.985121e+000 3.421711e+000 2.998259e+000 3.471774e+000 2.956832e+000 2.960317e+000 3.234406e+000 2.618126e+000 4.605154e+000 2.583813e-001 2.850262e-001 5.232603e-001 4.860227e-001 6.283550e-001 5.816953e-001 5.261611e-001 6.073366e-001 5.717965e-001 5.714519e-001 6.192634e-001 4.733432e-001 4.786153e-001
<GCONST> 1.272213e+002
<TRANSP> 5
 0.000000e+000 1.000000e+000 0.000000e+000 0.000000e+000 0.000000e+000
 0.000000e+000 9.006535e-001 9.934647e-002 0.000000e+000 0.000000e+000
 0.000000e+000 0.000000e+000 9.084009e-001 9.159910e-002 0.000000e+000
 0.000000e+000 0.000000e+000 0.000000e+000 9.874082e-001 1.259175e-002
 0.000000e+000 0.000000e+000 0.000000e+000 0.000000e+000 0.000000e+000
<ENDHMM>
~h "nuwoseo"
<BEGINHMM>
<NUMSTATES> 5
<STATE> 2
<MEAN> 39
 -1.767214e+001 1.725466e+000 -2.443276e-001 7.614524e-001 -1.302846e+000 -5.009884e-001 -1.597924e+000 -1.891070e+000 -2.281344e+000 2.457092e-001 -9.924724e-001 -3.823648e-001 4.421350e+001 1.959823e-002 1.681705e-001 4.125517e-001 3.179955e-001 -6.415724e-002 1.547173e-001 3.764152e-002 -1.641917e-001 -2.141513e-002 -1.014908e-001 -1.889420e-001 -3.207493e-001 1.838228e-001 1.342369e-001 1.249861e-001 1.361523e-001 3.014044e-002 1.935891e-002 8.229435e-002 4.431881e-003 4.450950e-002 4.415200e-002 -2.645507e-002 -1.669755e-002 -2.512911e-002 1.481131e-001
<VARIANCE> 39
 3.833506e+000 4.398276e+000 6.926920e+000 9.042376e+000 1.435157e+001 1.115574e+001 1.484359e+001 1.481008e+001 1.354726e+001 1.469567e+001 1.795149e+001 1.173100e+001 8.035534e+000 6.911425e-001 8.389683e-001 7.225173e-001 1.251681e+000 1.233029e+000 1.339256e+000 1.809603e+000 1.672464e+000 1.669705e+000 1.526752e+000 1.919492e+000 1.450183e+000 1.858730e-001 1.613982e-001 1.642950e-001 1.453121e-001 2.468756e-001 2.530114e-001 2.293797e-001 3.579424e-001 2.403208e-001 3.062431e-001 3.061805e-001 3.955005e-001 2.700895e-001 9.095126e-002
<GCONST> 8.381750e+001
<STATE> 3
<MEAN> 39
 -1.003789e+001 4.892159e+000 4.974234e+000 -1.580762e+000 -1.975229e+000 -1.610961e+000 -6.218379e+000 -5.190055e+000 -4.391880e+000 -2.330763e-001 -1.104171e+000 -3.534916e+000 5.886706e+001 1.345780e+000 3.675206e-001 -1.309347e-001 -1.009257e+000 -1.921428e-001 1.345678e-001 -8.596508e-001 -9.054347e-001 -9.848533e-001 -1.714525e-001 7.612097e-001 -1.475227e-001 2.220742e+000 5.936791e-002 -9.105115e-003 -2.180285e-001 -1.977407e-001 -1.802222e-001 1.303676e-001 1.389502e-001 1.436280e-002 -1.668474e-001 -1.564669e-001 5.726408e-002 1.095181e-001 -1.327451e-001
<VARIANCE> 39
 5.355580e+001 4.019873e+001 2.846129e+001 4.805044e+001 3.645782e+001 4.884138e+001 5.489911e+001 5.019770e+001 4.101209e+001 2.600856e+001 3.862769e+001 2.766393e+001 1.193796e+002 4.800753e+000 4.432925e+000 4.402667e+000 4.939717e+000 5.338610e+000 6.080591e+000 6.160316e+000 4.689444e+000 3.772261e+000 3.924217e+000 4.701482e+000 2.888150e+000 6.970181e+000 9.764459e-001 8.445008e-001 6.988057e-001 9.642333e-001 1.088993e+000 1.149358e+000 1.333000e+000 1.115076e+000 6.648581e-001 8.343289e-001 9.236085e-001 5.271562e-001 1.437388e+000
<GCONST> 1.400202e+002
<STATE> 4
<MEAN> 39
 -7.458116e+000 2.249596e+000 -4.165923e+000 -1.146637e+001 -2.927112e+000 4.610068e+000 -3.765235e+000 -2.065559e+000 -4.278795e+000 2.170548e-001 1.393974e+000 -2.886568e+000 6.425212e+001 -2.130297e-001 -7.670233e-002 -2.902102e-002 1.333875e-001 4.458673e-002 -2.835263e-002 1.325617e-001 1.497065e-001 1.630105e-001 2.974745e-002 -8.586121e-002 5.885454e-002 -3.619582e-001 -1.785103e-002 -1.078435e-002 1.501494e-002 2.340364e-002 2.442639e-002 -2.498127e-002 -1.454520e-002 -2.028305e-003 2.449135e-002 2.734204e-002 -3.820338e-003 -1.065421e-002 3.204766e-003
<VARIANCE> 39
 9.915632e+001 2.724077e+001 2.252429e+001 8.728000e+001 6.208749e+001 6.614167e+001 6.032875e+001 3.971674e+001 5.246586e+001 5.207824e+001 5.899903e+001 4.073256e+001 1.451496e+002 4.174804e+000 1.295691e+000 1.334900e+000 3.116606e+000 2.594938e+000 3.198079e+000 3.325084e+000 2.307191e+000 2.270353e+000 2.585779e+000 2.683471e+000 2.044294e+000 9.775558e-001 4.859479e-001 2.150997e-001 2.266174e-001 3.812502e-001 3.572764e-001 4.489700e-001 5.564536e-001 4.034277e-001 3.806690e-001 3.988062e-001 4.676731e-001 3.399484e-001 9.502567e-002
<GCONST> 1.205475e+002
<TRANSP> 5
 0.000000e+000 1.000000e+000 0.000000e+000 0.000000e+000 0.000000e+000
 0.000000e+000 8.743389e-001 1.256611e-001 0.000000e+000 0.000000e+000
 0.000000e+000 0.000000e+000 9.091478e-001 9.085224e-002 0.000000e+000
 0.000000e+000 0.000000e+000 0.000000e+000 9.864472e-001 1.355285e-002
 0.000000e+000 0.000000e+000 0.000000e+000 0.000000e+000 0.000000e+000
<ENDHMM>
~h "teukyereul"
<BEGINHMM>
<NUMSTATES> 5
<STATE> 2
<MEAN> 39
 -1.831451e+001 7.390988e-001 -1.513202e+000 9.038909e-001 -2.392535e-002 6.163983e-001 -1.497739e-001 -3.935035e-001 -1.360510e+000 -5.001336e-001 -1.683881e-001 3.904249e-001 4.363332e+001 6.791701e-002 -1.408437e-002 -9.583506e-002 -3.283735e-001 -1.057153e-001 -2.425789e-001 -3.788108e-002 -3.042116e-002 -4.889670e-002 -1.988346e-001 -1.633894e-002 1.538027e-001 7.015077e-001 -8.396559e-003 -1.372070e-001 -7.042003e-002 -1.391454e-001 -2.043362e-002 -1.585870e-001 1.332624e-002 3.153436e-002 2.883451e-002 7.071499e-002 3.404621e-002 4.722359e-002 5.770123e-001
<VARIANCE> 39
 2.604960e+000 5.837683e+000 6.449660e+000 7.735787e+000 9.894419e+000 1.057806e+001 1.086183e+001 1.376920e+001 1.254237e+001 1.277584e+001 1.342641e+001 1.035461e+001 9.639522e+000 2.911080e-001 9.678465e-001 8.437230e-001 1.602544e+000 1.333507e+000 1.073178e+000 1.497398e+000 1.672399e+000 1.276688e+000 1.447671e+000 1.534786e+000 1.539871e+000 4.869889e+000 4.015899e-002 1.096410e-001 1.306846e-001 2.391331e-001 2.401723e-001 2.380467e-001 3.032425e-001 3.373925e-001 2.281557e-001 2.928003e-001 2.905104e-001 2.764736e-001 8.672279e-001
<GCONST> 8.421043e+001
<STATE> 3
<MEAN> 39
 -1.448944e+001 -1.021229e+000 3.749822e+000 -3.213253e+000 -6.361301e+000 -6.878974e+000 -2.642603e+000 -2.870883e-001 -3.504424e+000 2.139800e+000 -5.289245e-001 6.292672e-001 6.457048e+001 3.853018e-001 -1.315406e-001 3.267120e-001 -4.913538e-002 -4.558339e-001 -2.122940e-001 -2.207379e-001 3.213860e-002 -4.703052e-002 5.681567e-002 -1.179774e-002 -9.931991e-002 6.975424e-001 3.529784e-002 1.264082e-002 8.837618e-003 4.446279e-002 -2.317471e-002 3.008019e-002 -2.793698e-002 1.347535e-002 1.022005e-002 -6.496395e-003 2.229236e-003 -4.489328e-002 -1.359463e-001
<VARIANCE> 39
 5.633969e+001 2.920292e+001 4.263227e+001 3.880517e+001 5.888408e+001 5.086559e+001 4.427984e+001 4.352047e+001 4.064079e+001 3.185491e+001 3.006689e+001 3.052571e+001 1.657025e+002 4.141997e+000 3.353164e+000 2.967140e+000 4.091804e+000 3.649907e+000 4.642699e+000 4.044446e+000 4.360260e+000 4.092381e+000 3.667317e+000 2.912246e+000 3.071742e+000 1.652782e+001 7.002944e-001 6.493755e-001 6.004741e-001 8.030188e-001 6.816664e-001 7.703525e-001 7.586614e-001 8.068975e-001 8.043243e-001 7.068959e-001 5.647387e-001 6.026428e-001 2.615569e+000
<GCONST> 1.363598e+002
<STATE> 4
<MEAN> 39
 -7.990878e+000 -2.580663e+000 3.358970e+000 3.029415e-001 -8.826333e+000 -5.731717e+000 -5.154284e+000 9.576927e-001 8.457903e-001 -1.225098e+000 -2.825900e+000 1.113395e-001 6.053945e+001 -2.901711e-001 1.135812e-001 -2.175833e-001 8.858884e-002 3.178921e-001 1.455879e-001 1.559653e-001 -1.758911e-002 4.135727e-002 4.227885e-004 9.803077e-003 5.818991e-002 -6.644197e-001 -2.848436e-002 8.559916e-003 8.395834e-003 4.768763e-003 2.721098e-002 2.507980e-003 2.164695e-002 -1.688908e-002 -1.409854e-002 9.868538e-003 -8.617881e-004 1.154576e-002 -1.266138e-002
<VARIANCE> 39
 5.347454e+001 2.478688e+001 3.797801e+001 3.261832e+001 6.027079e+001 4.286724e+001 6.043608e+001 4.147592e+001 3.546954e+001 2.947791e+001 3.887710e+001 2.387708e+001 1.712351e+002 9.382665e-001 1.135110e+000 1.340189e+000 1.963802e+000 1.832712e+000 1.635608e+000 2.762766e+000 2.206172e+000 2.056225e+000 2.009751e+000 1.709973e+000 1.589012e+000 9.791924e-001 1.502257e-001 2.098137e-001 2.125399e-001 3.393021e-001 3.518896e-001 2.953200e-001 4.783740e-001 3.804970e-001 3.569914e-001 3.812718e-001 2.946053e-001 2.844638e-001 1.268494e-001
<GCONST> 1.103417e+002
<TRANSP> 5
 0.000000e+000 1.000000e+000 0.000000e+000 0.000000e+000 0.000000e+000
 0.000000e+000 8.937466e-001 1.062534e-001 0.000000e+000 0.000000e+000
 0.000000e+000 0.000000e+000 9.714676e-001 2.853250e-002 0.000000e+000
 0.000000e+000 0.000000e+000 0.000000e+000 9.789433e-001 2.105670e-002
 0.000000e+000 0.000000e+000 0.000000e+000 0.000000e+000 0.000000e+000
<ENDHMM>
~h "uiyogeul"
<BEGINHMM>
<NUMSTATES> 5
<STATE> 2
<MEAN> 39
 -1.777596e+001 1.415111e+000 -2.329916e+000 -6.598190e-001 1.201785e-001 2.047568e-001 -1.620744e+000 2.026901e-001 -1.232929e+000 5.854447e-001 -5.955720e-002 -3.637784e-001 4.429753e+001 1.563157e-001 1.995999e-001 1.424113e-003 -1.468843e-001 1.731556e-001 -5.714469e-002 -3.341243e-001 -1.482443e-001 -3.985195e-001 3.299839e-001 3.847958e-002 -3.509134e-001 2.870089e-001 1.840663e-001 8.644645e-002 5.889253e-002 -2.966871e-002 -1.026641e-002 2.194162e-002 -1.552357e-001 -2.695660e-002 -1.241808e-001 9.079622e-002 1.677597e-002 -9.378674e-002 2.318260e-001
<VARIANCE> 39
 4.136942e+000 3.469691e+000 9.443698e+000 1.295607e+001 1.231408e+001 1.249395e+001 1.620208e+001 1.617433e+001 1.684784e+001 1.849385e+001 1.506026e+001 1.369139e+001 8.782437e+000 5.823159e-001 4.936385e-001 1.224754e+000 1.483136e+000 1.520492e+000 1.245089e+000 1.644470e+000 2.070885e+000 1.698967e+000 1.649992e+000 1.500514e+000 1.470758e+000 4.949698e-001 1.989430e-001 1.327603e-001 1.849315e-001 2.143029e-001 3.045740e-001 1.979399e-001 3.317292e-001 3.665064e-001 2.737293e-001 2.786165e-001 2.732352e-001 3.073855e-001 1.567366e-001
<GCONST> 8.664720e+001
<STATE> 3
<MEAN> 39
 -6.904087e+000 4.059378e+000 6.829728e-001 -3.151915e+000 -2.700097e+000 -1.497539e+000 -1.294422e+001 -3.070697e+000 -6.714020e+000 4.079291e+000 2.428705e+000 -6.477533e+000 5.918481e+001 1.573167e+000 -1.542670e-001 1.129100e+000 4.413510e-002 -1.298740e+000 -7.035243e-001 -1.756605e+000 -3.523176e-002 -7.829161e-001 -2.176336e-001 4.425020e-001 -8.500549e-001 3.033243e+000 -2.969014e-001 -1.683343e-001 2.759170e-001 1.144221e-001 -3.029871e-001 -9.458194e-002 3.162304e-001 1.281311e-001 -1.109823e-001 -3.019738e-001 3.108719e-002 1.640487e-001 -5.422971e-002
<VARIANCE> 39
 5.854131e+001 2.840572e+001 3.455956e+001 4.372787e+001 4.925888e+001 4.640905e+001 7.545497e+001 8.235205e+001 5.193997e+001 3.940360e+001 4.961465e+001 4.006310e+001 1.094477e+002 5.077918e+000 3.300321e+000 2.694339e+000 4.625622e+000 3.924865e+000 3.422085e+000 5.157493e+000 6.565908e+000 4.175272e+000 3.682352e+000 2.819548e+000 3.457730e+000 3.820570e+000 8.994707e-001 5.468361e-001 5.183350e-001 8.454072e-001 7.947611e-001 6.157432e-001 1.205378e+000 1.186113e+000 6.778769e-001 4.663487e-001 4.446722e-001 6.250148e-001 9.144189e-001
<GCONST> 1.361961e+002
<STATE> 4
<MEAN> 39
 -6.218733e+000 1.335169e+000 4.260829e+000 -2.375655e+000 -8.657493e+000 -2.821464e+000 -9.315270e+000 -1.405764e+000 -6.181051e+000 -2.337178e-001 6.081548e-001 -2.576077e+000 6.301295e+001 -1.895582e-001 8.673569e-003 -1.155969e-001 1.945964e-002 1.118096e-001 7.342128e-002 2.301310e-001 -8.748133e-003 1.048061e-001 -1.310716e-002 -5.346730e-002 1.233195e-001 -3.789442e-001 1.093448e-002 6.339495e-003 -3.468403e-002 -1.441867e-002 3.305741e-002 9.466998e-003 -1.718530e-002 -7.399349e-003 1.829104e-002 2.458711e-002 -4.241844e-003 -1.142289e-002 -2.033413e-002
<VARIANCE> 39
 4.459268e+001 3.599280e+001 8.303639e+001 5.990349e+001 6.832836e+001 5.271269e+001 8.570561e+001 4.883947e+001 1.033337e+002 5.026365e+001 6.199287e+001 4.170839e+001 1.412992e+002 9.332012e-001 1.599954e+000 3.228139e+000 2.744842e+000 3.061821e+000 2.550858e+000 3.732900e+000 2.583490e+000 3.639409e+000 2.703993e+000 2.827160e+000 2.231859e+000 2.162436e+000 1.174082e-001 2.190965e-001 3.814880e-001 4.443410e-001 4.519537e-001 4.268511e-001 5.620300e-001 4.871282e-001 5.884905e-001 4.382999e-001 4.826340e-001 4.039503e-001 2.506504e-001
<GCONST> 1.245169e+002
<TRANSP> 5
 0.000000e+000 1.000000e+000 0.000000e+000 0.000000e+000 0.000000e+000
 0.000000e+000 8.798185e-001 1.201815e-001 0.000000e+000 0.000000e+000
 0.000000e+000 0.000000e+000 8.819881e-001 1.180118e-001 0.000000e+000
 0.000000e+000 0.000000e+000 0.000000e+000 9.867822e-001 1.321780e-002
 0.000000e+000 0.000000e+000 0.000000e+000 0.000000e+000 0.000000e+000
<ENDHMM>
~h "software"
<BEGINHMM>
<NUMSTATES> 5
<STATE> 2
<MEAN> 39
 -1.817319e+001 2.472753e-001 -2.626607e+000 -5.618159e-001 -1.175101e+000 -1.750971e+000 -9.991944e-001 7.288582e-001 5.463602e-001 -1.515505e-001 -1.021517e+000 3.015051e-001 4.635265e+001 -9.153698e-002 -2.510329e-001 -6.972036e-002 -3.668080e-001 3.529093e-001 -2.058651e-001 -2.183447e-001 3.129784e-002 -7.305518e-002 8.457387e-002 -1.120904e-001 -1.496662e-001 5.373754e-001 -4.786291e-002 1.041518e-003 3.713899e-002 -2.010669e-001 4.624351e-002 -1.306824e-001 -4.766124e-002 7.412200e-002 -2.707474e-002 2.438849e-002 5.472748e-002 -2.416061e-002 2.183598e-001
<VARIANCE> 39
 1.238740e+001 1.010102e+001 8.909541e+000 9.623905e+000 1.112650e+001 1.688336e+001 1.530676e+001 1.547347e+001 1.672973e+001 1.462324e+001 1.293985e+001 1.086271e+001 3.694610e+001 6.684533e-001 7.831897e-001 6.180682e-001 1.442460e+000 1.399969e+000 1.415801e+000 1.825484e+000 1.542414e+000 1.650934e+000 1.655633e+000 1.039737e+000 1.160385e+000 1.192454e+000 2.073113e-001 1.273412e-001 1.122450e-001 2.780911e-001 2.362351e-001 2.379520e-001 3.422883e-001 2.418950e-001 3.144957e-001 3.104213e-001 1.852595e-001 1.863346e-001 2.173574e-001
<GCONST> 8.835221e+001
<STATE> 3
<MEAN> 39
 -1.437385e+001 1.581451e+000 -8.511721e-001 -6.291275e+000 -4.850482e-001 -3.128054e+000 -6.385190e+000 -5.939114e-001 -2.304006e+000 1.193462e+000 1.512807e-001 -5.155332e-001 6.166559e+001 3.495575e-001 3.532711e-002 1.432706e-001 -5.381554e-002 -1.704013e-001 6.965572e-003 -3.329553e-001 -6.742444e-002 -1.498980e-001 5.141221e-002 7.330498e-002 -1.018734e-001 4.739763e-001 2.947404e-002 -3.959941e-003 -6.430011e-003 2.774562e-002 -3.012427e-002 1.825571e-002 -4.041585e-003 -1.295252e-002 1.437685e-003 -3.639203e-003 1.120865e-002 3.505471e-004 -3.887887e-002
<VARIANCE> 39
 1.032585e+002 3.288321e+001 2.431224e+001 5.127279e+001 4.782461e+001 5.417943e+001 5.800517e+001 4.619232e+001 3.691017e+001 2.726455e+001 3.256509e+001 2.802234e+001 1.266284e+002 8.308100e+000 4.115514e+000 2.305423e+000 5.431171e+000 4.160603e+000 5.079350e+000 6.003376e+000 3.762731e+000 3.607989e+000 3.134156e+000 3.360338e+000 3.216196e+000 1.376962e+001 1.120627e+000 7.771130e-001 4.330720e-001 1.093409e+000 7.362223e-001 9.627128e-001 1.036944e+000 6.323830e-001 6.959693e-001 6.362896e-001 6.448532e-001 6.229234e-001 2.352216e+000
<GCONST> 1.383929e+002
<STATE> 4
<MEAN> 39
 -6.064532e+000 -1.421879e+000 -1.971025e+000 -7.118039e+000 -3.847933e+000 2.890656e-001 -5.899549e+000 1.838935e+000 -3.685569e+000 1.774526e+000 1.323872e+000 -3.789007e+000 6.238579e+001 -2.985373e-001 1.320992e-002 -1.061443e-001 1.122584e-001 1.241751e-001 5.468849e-002 3.267275e-001 1.943702e-002 9.634219e-002 -8.159167e-002 -5.404143e-002 1.175656e-001 -5.015295e-001 -1.294473e-002 8.806641e-003 6.400155e-004 1.151221e-002 6.347765e-003 4.351048e-003 1.836791e-002 1.413321e-002 1.482839e-002 1.009710e-003 -1.598231e-002 3.387262e-003 -2.198991e-003
<VARIANCE> 39
 5.451231e+001 1.999146e+001 5.115667e+001 6.300645e+001 5.759520e+001 1.014056e+002 8.306126e+001 5.900026e+001 4.572996e+001 4.813458e+001 5.547015e+001 4.803492e+001 1.719953e+002 5.487759e-001 8.191831e-001 1.352986e+000 1.848874e+000 1.789204e+000 2.424569e+000 2.314135e+000 2.358481e+000 2.045701e+000 1.669257e+000 1.783228e+000 1.554697e+000 7.577819e-001 5.237263e-002 1.289950e-001 1.772910e-001 2.598239e-001 2.629299e-001 2.930109e-001 3.783453e-001 3.604629e-001 3.368146e-001 2.722996e-001 3.093817e-001 2.479372e-001 4.549111e-002
<GCONST> 1.092252e+002
<TRANSP> 5
 0.000000e+000 1.000000e+000 0.000000e+000 0.000000e+000 0.000000e+000
 0.000000e+000 8.902472e-001 1.097528e-001 0.000000e+000 0.000000e+000
 0.000000e+000 0.000000e+000 9.792857e-001 2.071436e-002 0.000000e+000
 0.000000e+000 0.000000e+000 0.000000e+000 9.823984e-001 1.760162e-002
 0.000000e+000 0.000000e+000 0.000000e+000 0.000000e+000 0.000000e+000
<ENDHMM>
~h "juwiui"
<BEGINHMM>
<NUMSTATES> 5
<STATE> 2
<MEAN> 39
 -1.801448e+001 3.520352e-001 -1.395122e+000 -4.728198e-001 -1.282350e+000 -4.672695e-001 -1.883161e+000 -7.992043e-001 -1.734005e+000 1.658070e-001 -1.463117e-002 5.052325e-001 4.457594e+001 -1.638889e-001 -3.956662e-001 5.091080e-002 -3.566834e-001 -1.658721e-001 2.036464e-001 -5.096986e-002 -1.017981e-001 -2.359628e-002 -6.676497e-003 -9.827532e-002 -3.881825e-002 6.965315e-001 -1.724782e-001 -1.096735e-001 1.803173e-001 -1.671750e-001 -1.800028e-001 1.010024e-001 -1.419652e-001 -9.573737e-002 7.172812e-002 -4.639567e-002 -6.612272e-002 5.776850e-002 4.299839e-001
<VARIANCE> 39
 3.382570e+000 6.437089e+000 1.011184e+001 9.717462e+000 1.276888e+001 1.618616e+001 1.647270e+001 1.546778e+001 1.490839e+001 1.756545e+001 1.356647e+001 1.121192e+001 1.082353e+001 5.958146e-001 1.638632e+000 1.507339e+000 1.748916e+000 2.449008e+000 1.756234e+000 1.922088e+000 2.085362e+000 1.643550e+000 2.176996e+000 1.610701e+000 1.372442e+000 3.437598e+000 2.456024e-001 2.299126e-001 2.919515e-001 3.062208e-001 3.560999e-001 3.327122e-001 2.565261e-001 3.693207e-001 2.978235e-001 4.509789e-001 3.075769e-001 2.671614e-001 5.298806e-001
<GCONST> 9.536679e+001
<STATE> 3
<MEAN> 39
 -2.006768e+001 -1.935574e+000 2.958696e+000 -3.000257e+000 -7.863568e+000 -2.268797e+000 -6.684338e+000 -2.968467e+000 -1.947393e+000 -1.670073e+000 2.401968e-001 4.260352e-002 6.728990e+001 1.094590e+000 3.665242e-001 2.594866e-001 2.370482e-001 -2.303126e-001 -2.042620e-001 -9.244472e-001 -1.943328e-001 -7.396234e-001 -3.926183e-002 4.267980e-001 -4.730770e-001 1.230798e+000 1.669009e-001 7.563455e-002 -1.036155e-001 7.676265e-002 4.041019e-002 -1.721582e-002 2.704445e-002 5.854738e-002 -1.141952e-001 3.656214e-002 8.070363e-002 -5.067526e-002 -2.618862e-001
<VARIANCE> 39
 1.391098e+002 3.461456e+001 2.492785e+001 3.921610e+001 4.102824e+001 6.441748e+001 7.711327e+001 4.630806e+001 5.276250e+001 3.823005e+001 2.886609e+001 2.766682e+001 6.460968e+001 1.124596e+001 3.252010e+000 3.027882e+000 3.707547e+000 5.362712e+000 7.138030e+000 6.202241e+000 4.123106e+000 5.840928e+000 3.354604e+000 3.241194e+000 2.669690e+000 5.700328e+000 1.374526e+000 7.241765e-001 5.156938e-001 6.564469e-001 1.027873e+000 1.166727e+000 1.074316e+000 8.046021e-001 9.773735e-001 6.235538e-001 7.016705e-001 4.431161e-001 6.730984e-001
<GCONST> 1.382292e+002
<STATE> 4
<MEAN> 39
 -8.980473e+000 2.847975e+000 1.044036e+001 -1.037530e+000 -1.198200e+001 -2.657753e+000 -8.822603e+000 -7.585694e-001 -1.056985e+001 -1.129390e+000 2.126212e+000 -3.862950e+000 6.329128e+001 -2.374017e-001 -1.784808e-002 -7.787630e-002 1.534054e-002 8.698155e-002 2.208588e-002 2.519205e-001 5.249622e-002 1.644376e-001 2.471082e-003 -1.013787e-001 1.168839e-001 -3.950300e-001 -9.630785e-003 2.390591e-003 -1.409441e-003 4.327348e-003 6.220574e-003 -1.082690e-002 3.407735e-003 -7.757377e-003 2.566618e-002 -6.511976e-003 -1.210107e-002 1.014697e-002 -3.069069e-004
<VARIANCE> 39
 3.138364e+001 2.009228e+001 8.581493e+001 3.509827e+001 7.339268e+001 5.546311e+001 9.011006e+001 3.651870e+001 7.078779e+001 4.337080e+001 3.862321e+001 3.435843e+001 1.431248e+002 3.354279e-001 7.874337e-001 2.302922e+000 1.254620e+000 2.105642e+000 1.975090e+000 2.305584e+000 1.935204e+000 1.988838e+000 1.702428e+000 1.535663e+000 1.258132e+000 6.010132e-001 4.728809e-002 1.120296e-001 2.142210e-001 2.006865e-001 2.992009e-001 3.253971e-001 3.610352e-001 3.520086e-001 3.432259e-001 3.082789e-001 2.793133e-001 2.334221e-001 4.494157e-002
<GCONST> 1.058897e+002
<TRANSP> 5
 0.000000e+000 1.000000e+000 0.000000e+000 0.000000e+000 0.000000e+000
 0.000000e+000 8.947782e-001 1.052218e-001 0.000000e+000 0.000000e+000
 0.000000e+000 0.000000e+000 9.372458e-001 6.275421e-002 0.000000e+000
 0.000000e+000 0.000000e+000 0.000000e+000 9.854357e-001 1.456430e-002
 0.000000e+000 0.000000e+000 0.000000e+000 0.000000e+000 0.000000e+000
<ENDHMM>
~h "mwolago"
<BEGINHMM>
<NUMSTATES> 5
<STATE> 2
<MEAN> 39
 -1.722329e+001 1.151299e+000 -8.579462e-001 6.205231e-001 -1.339449e+000 3.337795e-001 -6.261278e-001 -2.507724e+000 -2.556124e+000 1.073895e+000 -1.026722e+000 -1.961355e-002 4.455935e+001 3.072312e-001 1.178395e-001 3.491516e-001 1.767953e-001 -1.980213e-001 2.359821e-001 2.705135e-002 -6.495728e-001 -6.063142e-001 3.499868e-001 -1.618699e-001 -2.558506e-001 3.439826e-001 1.744462e-001 1.603019e-001 1.920460e-001 9.354436e-002 -1.075336e-002 6.701984e-002 1.481391e-003 -5.156613e-002 1.396590e-002 3.613308e-003 -6.608442e-002 -1.420009e-002 1.391074e-001
<VARIANCE> 39
 2.419886e+000 4.174161e+000 6.256600e+000 8.473982e+000 1.330333e+001 1.430648e+001 1.524426e+001 2.555124e+001 1.481885e+001 1.595277e+001 1.192910e+001 1.255643e+001 8.037078e+000 2.572527e-001 6.950226e-001 9.880942e-001 1.034339e+000 8.680499e-001 1.363950e+000 1.563883e+000 1.808072e+000 1.300992e+000 1.476211e+000 1.134979e+000 1.430290e+000 2.208458e-001 1.294900e-001 1.613766e-001 1.595195e-001 1.794120e-001 1.587711e-001 1.905756e-001 2.940364e-001 3.115080e-001 2.276580e-001 2.986336e-001 2.302327e-001 2.662050e-001 7.564770e-002
<GCONST> 7.949583e+001
<STATE> 3
<MEAN> 39
 -5.333039e+000 6.129806e+000 4.848392e+000 -3.498559e+000 -6.110221e+000 3.733553e+000 -2.230445e+000 -7.515675e+000 -8.119898e+000 1.028600e-001 -4.205621e+000 -1.674458e+000 5.774877e+001 2.197571e+000 2.957655e-001 -3.189669e-001 -3.101335e+000 -1.158146e+000 6.226224e-001 -6.665952e-001 5.247794e-001 -3.595389e-001 -8.353196e-001 4.965262e-001 5.278115e-002 2.955562e+000 -1.088607e-001 -2.992525e-001 -3.817435e-001 -5.418163e-001 -6.448526e-002 1.276282e-001 -6.705707e-002 1.968508e-001 1.021360e-001 1.840962e-002 3.580256e-001 4.370931e-002 8.422649e-002
<VARIANCE> 39
 4.380992e+001 2.036623e+001 2.875718e+001 1.221976e+002 4.806299e+001 3.576945e+001 3.092531e+001 6.000156e+001 3.398849e+001 3.147269e+001 3.832638e+001 2.743502e+001 7.772667e+001 2.924130e+000 3.096743e+000 4.362154e+000 1.032644e+001 4.055530e+000 4.090598e+000 2.525528e+000 5.922044e+000 4.758299e+000 3.103374e+000 6.383539e+000 2.950551e+000 2.918182e+000 7.432808e-001 4.138283e-001 5.401716e-001 1.842504e+000 9.105819e-001 8.143424e-001 5.139899e-001 9.875215e-001 7.122408e-001 6.165633e-001 7.788259e-001 5.123005e-001 7.722610e-001
<GCONST> 1.339603e+002
<STATE> 4
<MEAN> 39
 -3.642650e+000 2.722306e+000 -4.419160e+000 -1.283053e+001 -6.253869e+000 2.898796e+000 -3.346152e+000 1.041109e+000 -4.556569e+000 -3.413476e-001 -2.192497e-002 -3.782829e+000 6.276501e+001 -2.545200e-001 -4.652061e-002 -2.473332e-002 2.689994e-001 1.292914e-001 -9.389710e-002 5.786303e-002 2.508314e-002 9.203105e-002 3.194949e-002 -4.571328e-002 6.549987e-003 -3.361950e-001 -1.323449e-002 9.851051e-003 1.627444e-002 4.816593e-002 9.830830e-003 -1.832341e-002 4.376201e-003 -1.193264e-002 -3.178118e-003 -3.237672e-003 -3.170226e-002 2.228305e-003 -2.759286e-002
<VARIANCE> 39
 6.091805e+001 4.584634e+001 2.567256e+001 9.680083e+001 5.122631e+001 4.689973e+001 6.487968e+001 4.701174e+001 7.398687e+001 4.745065e+001 5.194944e+001 4.219026e+001 1.446228e+002 1.294497e+000 1.822528e+000 1.628509e+000 4.564278e+000 2.688613e+000 3.173769e+000 3.071592e+000 2.980947e+000 3.770940e+000 2.744262e+000 3.129738e+000 2.361264e+000 2.368457e+000 2.016920e-001 2.646629e-001 2.909553e-001 7.965271e-001 4.640995e-001 5.840221e-001 5.368885e-001 5.505843e-001 6.233041e-001 5.153717e-001 5.525379e-001 4.067113e-001 2.987652e-001
<GCONST> 1.257362e+002
<TRANSP> 5
 0.000000e+000 1.000000e+000 0.000000e+000 0.000000e+000 0.000000e+000
 0.000000e+000 8.922649e-001 1.077352e-001 0.000000e+000 0.000000e+000
 0.000000e+000 0.000000e+000 8.692415e-001 1.307585e-001 0.000000e+000
 0.000000e+000 0.000000e+000 0.000000e+000 9.866614e-001 1.333862e-002
 0.000000e+000 0.000000e+000 0.000000e+000 0.000000e+000 0.000000e+000
<ENDHMM>
~h "naghwaam"
<BEGINHMM>
<NUMSTATES> 5
<STATE> 2
<MEAN> 39
 -1.731596e+001 1.465790e+000 -1.302781e+000 6.306850e-001 -8.125139e-001 5.808199e-002 -2.782256e-001 -1.239127e+000 -1.674892e+000 1.686438e-001 -1.267812e+000 2.937541e-001 4.448924e+001 2.900435e-001 9.205743e-002 3.334832e-001 1.306712e-001 -2.791138e-001 1.829396e-001 2.365358e-001 -2.660117e-001 -1.183969e-001 1.713294e-001 -3.637577e-001 -1.620813e-001 2.876448e-001 1.277385e-001 8.461127e-002 9.252098e-002 -6.326201e-003 -7.566816e-002 -5.122514e-002 -2.595117e-002 -4.895067e-002 4.303525e-002 2.396828e-002 -8.644886e-002 -1.024016e-001 2.217294e-001
<VARIANCE> 39
 4.393663e+000 7.064126e+000 7.821939e+000 1.238928e+001 1.566123e+001 1.783250e+001 1.514400e+001 1.730133e+001 1.175895e+001 1.645155e+001 1.873401e+001 1.251241e+001 8.061170e+000 5.189378e-001 8.622465e-001 1.001307e+000 1.187025e+000 1.119719e+000 1.761936e+000 1.630365e+000 1.924409e+000 1.340816e+000 1.791321e+000 1.719849e+000 1.310993e+000 3.097979e-001 1.627693e-001 2.409494e-001 1.812180e-001 2.877528e-001 2.406946e-001 3.483169e-001 3.011120e-001 3.675267e-001 2.012947e-001 3.179286e-001 3.016285e-001 2.298302e-001 2.175152e-001
<GCONST> 8.758905e+001
<STATE> 3
<MEAN> 39
 -9.075400e+000 -6.818461e-001 -7.447817e+000 -9.031041e+000 1.623895e+000 4.570298e-001 -1.644408e+000 3.052733e-002 -2.818179e+000 3.277545e+000 -3.769199e+000 -5.691746e+000 6.547109e+001 4.281049e-001 -1.264230e-001 -2.990170e-001 -5.656460e-001 1.281448e-001 1.316757e-001 -8.676594e-002 7.475945e-004 -1.122940e-001 1.066431e-001 1.309080e-001 -3.334275e-001 9.377204e-001 -2.275495e-002 -4.469231e-002 -3.915896e-002 -3.150231e-002 9.433270e-004 8.975836e-003 -7.029459e-003 2.879844e-003 -2.187526e-003 -4.527950e-003 1.951163e-002 2.844289e-003 -4.695986e-002
<VARIANCE> 39
 3.662236e+001 3.494879e+001 6.190471e+001 7.701377e+001 5.596645e+001 5.088898e+001 3.751294e+001 4.579932e+001 3.869038e+001 3.368868e+001 4.503501e+001 4.306305e+001 1.466400e+002 3.949246e+000 3.858678e+000 4.922691e+000 6.262678e+000 5.241534e+000 4.470114e+000 4.317500e+000 4.787112e+000 3.881552e+000 3.836297e+000 3.635354e+000 3.595535e+000 1.403761e+001 6.195307e-001 6.825426e-001 9.467632e-001 1.202763e+000 9.286412e-001 8.641120e-001 9.015722e-001 9.572538e-001 7.933369e-001 8.058227e-001 6.637148e-001 5.548573e-001 1.789024e+000
<GCONST> 1.407205e+002
<STATE> 4
<MEAN> 39
 -6.950284e+000 -9.688866e-001 -2.018217e+000 -4.917325e+000 2.072355e+000 2.065020e+000 -4.290226e+000 -3.750734e+000 -4.041093e+000 1.348027e+000 -2.100755e+000 -4.721664e+000 6.149874e+001 -2.985291e-001 5.329345e-002 1.334097e-001 3.394735e-001 -9.410221e-003 -1.132382e-001 -3.135096e-002 4.870288e-002 7.358441e-002 -1.084969e-001 -1.608552e-002 2.266940e-001 -6.108778e-001 -1.641741e-002 6.555404e-003 3.580512e-003 1.449452e-002 1.104674e-002 -4.237982e-003 -7.123672e-003 7.778470e-003 -4.678308e-003 1.402708e-003 8.084267e-003 1.110452e-002 -1.328194e-002
<VARIANCE> 39
 5.227149e+001 2.370554e+001 7.141397e+001 1.359462e+002 4.838091e+001 4.354753e+001 4.352713e+001 4.742849e+001 3.770152e+001 3.905307e+001 4.337197e+001 8.292571e+001 1.844080e+002 4.460943e-001 7.081529e-001 2.111598e+000 2.091533e+000 1.714020e+000 1.558980e+000 2.044113e+000 2.516636e+000 1.857327e+000 1.683591e+000 1.421306e+000 1.686498e+000 5.972577e-001 6.402578e-002 9.878887e-002 2.595297e-001 2.682222e-001 2.827168e-001 2.659322e-001 3.408853e-001 4.123057e-001 3.106704e-001 3.100384e-001 2.285931e-001 2.770726e-001 5.214220e-002
<GCONST> 1.080867e+002
<TRANSP> 5
 0.000000e+000 1.000000e+000 0.000000e+000 0.000000e+000 0.000000e+000
 0.000000e+000 8.929286e-001 1.070714e-001 0.000000e+000 0.000000e+000
 0.000000e+000 0.000000e+000 9.692205e-001 3.077951e-002 0.000000e+000
 0.000000e+000 0.000000e+000 0.000000e+000 9.813681e-001 1.863194e-002
 0.000000e+000 0.000000e+000 0.000000e+000 0.000000e+000 0.000000e+000
<ENDHMM>
~h "noemureul"
<BEGINHMM>
<NUMSTATES> 5
<STATE> 2
<MEAN> 39
 -1.717731e+001 1.335937e+000 -1.454509e+000 5.690541e-001 -1.091889e+000 5.254745e-002 -5.284421e-001 -1.128918e+000 -1.652778e+000 6.467456e-001 -1.465671e+000 -1.942596e-002 4.413997e+001 1.188061e-001 3.116903e-001 4.535959e-001 2.643580e-001 -1.454395e-001 1.350713e-001 6.289011e-002 -4.984835e-001 -3.073085e-001 1.351106e-001 -1.091609e-001 -2.725118e-001 1.502643e-001 1.440552e-001 1.342229e-001 1.506894e-001 3.516573e-002 -1.836325e-002 -1.385643e-002 5.064205e-002 4.233835e-002 3.058925e-002 -8.990892e-003 -2.385167e-002 -6.734884e-002 1.604662e-001
<VARIANCE> 39
 3.872269e+000 4.723707e+000 6.744635e+000 7.344793e+000 1.420469e+001 1.385764e+001 1.136570e+001 1.464800e+001 1.047619e+001 1.318641e+001 1.287838e+001 1.399405e+001 7.538141e+000 4.478244e-001 8.166102e-001 6.981533e-001 9.474171e-001 1.343780e+000 1.420943e+000 1.329261e+000 1.153659e+000 8.754448e-001 1.239390e+000 1.247447e+000 1.469027e+000 1.754634e-001 1.590802e-001 1.901741e-001 1.771881e-001 1.864509e-001 2.795913e-001 2.480428e-001 2.120876e-001 2.292328e-001 1.803765e-001 1.957210e-001 2.427039e-001 2.671635e-001 9.757976e-002
<GCONST> 7.862089e+001
<STATE> 3
<MEAN> 39
 -8.650630e+000 5.272574e+000 7.491330e+000 -1.332181e-001 -5.820955e+000 -5.015492e+000 -2.831733e+000 -2.615785e+000 -6.278217e+000 -9.599864e-001 -2.342635e+000 -2.675705e+000 5.839462e+001 1.173537e+000 -4.510228e-001 1.002723e+000 -6.149303e-001 -1.392094e+000 -1.523321e+000 -9.848621e-001 8.291385e-001 -8.215163e-001 -2.744356e-001 5.535085e-001 8.303234e-002 3.421956e+000 -1.034659e-001 -3.117104e-001 -1.754159e-001 -4.454231e-002 -2.474590e-001 8.131999e-003 -8.239748e-002 2.395447e-001 6.725869e-002 1.254942e-001 1.460805e-001 6.365898e-002 5.311109e-002
<VARIANCE> 39
 4.477868e+001 3.299641e+001 3.213964e+001 4.749199e+001 4.107439e+001 6.338612e+001 4.332903e+001 4.653838e+001 3.102903e+001 2.307514e+001 2.761574e+001 2.395494e+001 1.350500e+002 5.219413e+000 4.837124e+000 3.262416e+000 5.082465e+000 4.891145e+000 4.088043e+000 4.014723e+000 6.237834e+000 2.867897e+000 2.697941e+000 4.727149e+000 2.910899e+000 4.634848e+000 1.012722e+000 6.560611e-001 5.552441e-001 1.092192e+000 8.475062e-001 1.079289e+000 8.310584e-001 9.966442e-001 5.398557e-001 4.641572e-001 8.413359e-001 5.365041e-001 1.250966e+000
<GCONST> 1.350660e+002
<STATE> 4
<MEAN> 39
 -5.280693e+000 -1.056648e+000 3.285814e+000 -3.640556e-003 -9.229669e+000 -3.148337e+000 -7.805364e+000 -1.957919e+000 -2.885221e+000 5.356054e-001 -1.750986e+000 -1.995659e+000 6.373937e+001 -1.476639e-001 3.014170e-002 -1.576808e-001 4.696254e-002 1.711659e-001 1.496252e-001 8.700611e-002 -6.845319e-002 1.279476e-001 2.334071e-002 -4.465053e-002 1.909932e-002 -4.166076e-001 -5.495086e-003 1.970701e-002 5.487161e-003 -6.422015e-004 3.448325e-002 9.201723e-004 3.817953e-003 -2.968101e-002 -5.786960e-003 -1.125660e-002 -1.209534e-002 -2.850775e-004 -2.383011e-002
<VARIANCE> 39
 4.991031e+001 2.811544e+001 4.188570e+001 4.790572e+001 5.707720e+001 5.570819e+001 7.222704e+001 7.331118e+001 6.425458e+001 3.635200e+001 4.851706e+001 3.332063e+001 1.355033e+002 1.158638e+000 1.213720e+000 1.831005e+000 2.941065e+000 2.826416e+000 2.881951e+000 3.382655e+000 3.795285e+000 2.763909e+000 2.324782e+000 3.140172e+000 1.990186e+000 1.313739e+000 1.895059e-001 1.897060e-001 2.772838e-001 4.488374e-001 5.440571e-001 4.974982e-001 6.052628e-001 6.546516e-001 4.824907e-001 4.271206e-001 5.471393e-001 3.736392e-001 1.903443e-001
<GCONST> 1.213923e+002
<TRANSP> 5
 0.000000e+000 1.000000e+000 0.000000e+000 0.000000e+000 0.000000e+000
 0.000000e+000 8.820952e-001 1.179048e-001 0.000000e+000 0.000000e+000
 0.000000e+000 0.000000e+000 8.864821e-001 1.135180e-001 0.000000e+000
 0.000000e+000 0.000000e+000 0.000000e+000 9.866326e-001 1.336730e-002
 0.000000e+000 0.000000e+000 0.000000e+000 0.000000e+000 0.000000e+000
<ENDHMM>
~h "eoduun"
<BEGINHMM>
<NUMSTATES> 5
<STATE> 2
<MEAN> 39
 -1.704623e+001 5.035902e-001 -4.662909e+000 -3.242068e+000 -4.659981e-001 2.883407e+000 3.041787e-001 -9.497637e-001 -2.440206e+000 -8.475518e-001 2.139573e-001 5.789610e-001 4.497993e+001 3.234022e-001 6.658804e-002 -3.193838e-001 -5.424852e-001 -9.989923e-002 5.149711e-001 3.773764e-001 -2.363310e-002 -1.994753e-001 -3.126032e-001 -9.611285e-002 -7.885802e-002 3.156372e-001 1.133965e-001 7.583053e-002 3.148862e-002 -1.263133e-001 4.635054e-004 5.540150e-002 -4.609077e-002 -1.364505e-003 6.492154e-003 7.409236e-002 5.351253e-003 1.157823e-002 2.109828e-001
<VARIANCE> 39
 5.407185e+000 5.790964e+000 2.139787e+001 1.950232e+001 1.194079e+001 3.012338e+001 2.728465e+001 1.654478e+001 1.753362e+001 1.788631e+001 1.772616e+001 1.288737e+001 1.052266e+001 7.351391e-001 7.567185e-001 2.004029e+000 1.628587e+000 1.430619e+000 2.645336e+000 2.591510e+000 1.821848e+000 2.162382e+000 1.797080e+000 2.019465e+000 1.404180e+000 4.732058e-001 2.324737e-001 1.928155e-001 3.792474e-001 3.355176e-001 2.519616e-001 4.959089e-001 3.854958e-001 3.078010e-001 4.098280e-001 3.653069e-001 3.590695e-001 2.787614e-001 1.407250e-001
<GCONST> 9.627690e+001
<STATE> 3
<MEAN> 39
 -5.826987e+000 2.894263e+000 -1.123477e+000 -1.159436e+001 -1.904363e+000 1.729534e+000 -8.087991e+000 -3.333374e+000 -5.035439e+000 1.530005e+000 1.146589e+000 -3.309314e+000 6.607137e+001 4.233208e-001 8.073232e-002 2.032891e-001 -4.532304e-002 -1.220420e-001 -1.323927e-001 -6.011577e-001 -2.794124e-001 -2.467335e-001 9.920954e-002 1.961674e-001 -2.056255e-001 8.398850e-001 -1.547697e-002 -1.020672e-002 -3.144104e-002 -4.137008e-004 -3.640280e-003 4.415926e-002 2.912379e-002 -2.615529e-002 -4.665012e-002 -1.829687e-002 4.284747e-002 1.846213e-002 -7.055728e-002
<VARIANCE> 39
 5.627916e+001 3.542523e+001 3.641933e+001 1.112098e+002 3.622723e+001 8.407936e+001 7.007462e+001 5.817776e+001 4.358300e+001 4.583560e+001 4.788058e+001 3.769056e+001 1.115207e+002 5.734908e+000 4.568579e+000 2.627815e+000 8.419098e+000 3.319314e+000 5.557447e+000 6.035445e+000 4.584553e+000 3.551947e+000 3.349685e+000 3.715685e+000 2.914400e+000 1.174797e+001 9.837842e-001 9.298946e-001 4.575177e-001 1.253015e+000 5.912505e-001 9.544213e-001 1.113678e+000 8.692423e-001 6.128925e-001 5.892523e-001 6.317102e-001 5.485647e-001 1.954270e+000
<GCONST> 1.409898e+002
<STATE> 4
<MEAN> 39
 -7.423357e+000 3.487720e+000 2.562324e+000 -3.264254e+000 -4.739220e+000 3.256689e-001 -6.170828e+000 -4.665676e+000 -5.619990e+000 -3.568582e-001 -1.679593e+000 -3.614153e+000 5.894464e+001 -3.022232e-001 -7.908716e-002 -4.753681e-002 1.684678e-001 8.683426e-002 -3.916635e-002 3.064039e-001 1.871314e-001 2.134191e-001 -3.644512e-002 -1.549023e-001 1.109306e-001 -5.577859e-001 -2.115750e-002 -9.634737e-003 1.509459e-002 3.154310e-002 1.089009e-002 -3.851342e-002 -6.459578e-003 1.493142e-002 3.433855e-002 1.491955e-002 -3.771781e-002 -9.697810e-003 1.210989e-003
<VARIANCE> 39
 5.439582e+001 2.624046e+001 5.183415e+001 8.199051e+001 4.466475e+001 4.420622e+001 5.984428e+001 5.136973e+001 6.075074e+001 4.113010e+001 6.757752e+001 4.107870e+001 1.320978e+002 4.335240e-001 8.622797e-001 1.764155e+000 2.130545e+000 1.843061e+000 1.813501e+000 2.048439e+000 1.919762e+000 1.909588e+000 1.964651e+000 2.449494e+000 1.818639e+000 6.989024e-001 5.230191e-002 1.113119e-001 2.114206e-001 2.664999e-001 3.025651e-001 3.156010e-001 3.702601e-001 3.648734e-001 3.323088e-001 2.976448e-001 3.839266e-001 3.042402e-001 7.349397e-002
<GCONST> 1.094798e+002
<TRANSP> 5
 0.000000e+000 1.000000e+000 0.000000e+000 0.000000e+000 0.000000e+000
 0.000000e+000 8.857400e-001 1.142599e-001 0.000000e+000 0.000000e+000
 0.000000e+000 0.000000e+000 9.662193e-001 3.378068e-002 0.000000e+000
 0.000000e+000 0.000000e+000 0.000000e+000 9.796935e-001 2.030650e-002
 0.000000e+000 0.000000e+000 0.000000e+000 0.000000e+000 0.000000e+000
<ENDHMM>
~h "doepuri"
<BEGINHMM>
<NUMSTATES> 5
<STATE> 2
<MEAN> 39
 -1.752305e+001 1.255953e+000 -1.877195e+000 -2.264143e-001 -1.873626e+000 -6.538902e-001 -7.843556e-001 -2.964233e-001 -1.063363e+000 -1.620878e-002 -2.804497e-001 7.472056e-001 4.379108e+001 2.344247e-002 -4.324046e-002 8.954702e-002 -2.005857e-001 7.713405e-002 -1.093525e-001 -7.555704e-002 -8.689349e-002 -1.652141e-001 -3.716677e-002 1.765794e-002 3.210396e-002 1.563371e-001 -4.746997e-002 -1.463196e-001 6.386360e-002 -2.231272e-001 4.275414e-002 -5.077708e-002 2.710968e-002 2.188589e-002 -2.356546e-002 -5.198262e-003 -4.399236e-002 2.974489e-002 3.534264e-001
<VARIANCE> 39
 3.137715e+000 4.724072e+000 5.952771e+000 1.235500e+001 1.425453e+001 1.396599e+001 1.159472e+001 1.239027e+001 1.529114e+001 1.102455e+001 1.332809e+001 1.017638e+001 5.602187e+000 2.043702e-001 4.644984e-001 6.075364e-001 1.706332e+000 1.301957e+000 1.283324e+000 1.219289e+000 1.233225e+000 1.667653e+000 1.254963e+000 1.405882e+000 1.080355e+000 3.983910e-001 4.425328e-002 1.733846e-001 1.261580e-001 3.915211e-001 2.438342e-001 2.582613e-001 2.400002e-001 2.221282e-001 3.018568e-001 2.466593e-001 2.919817e-001 1.916529e-001 5.331452e-001
<GCONST> 7.984740e+001
<STATE> 3
<MEAN> 39
 -9.953102e+000 -3.957274e-001 2.135034e+000 -2.152160e+000 -5.486006e+000 -4.469601e+000 -6.707108e+000 -1.754502e+000 -3.832486e+000 1.396774e+000 1.247716e+000 1.802395e-001 6.418707e+001 2.229645e-001 2.364696e-002 5.120304e-001 -1.877306e-002 -4.110301e-001 -8.062134e-002 -2.080141e-001 -6.794707e-002 -3.070763e-001 -2.021795e-002 8.667701e-002 -1.099836e-001 6.416104e-001 9.432819e-003 5.476541e-002 1.883277e-002 3.164769e-002 -3.620242e-002 2.384008e-002 -8.405745e-003 -3.882400e-003 -3.357833e-002 1.362861e-002 6.954822e-004 -2.508788e-002 -7.058057e-002
<VARIANCE> 39
 5.875624e+001 3.242064e+001 5.159134e+001 4.336771e+001 5.819603e+001 6.085780e+001 5.318803e+001 4.840470e+001 3.989671e+001 3.015121e+001 3.016721e+001 2.676856e+001 1.311257e+002 5.174491e+000 3.743564e+000 3.663634e+000 5.245986e+000 5.718120e+000 4.971938e+000 4.576342e+000 3.790185e+000 4.163474e+000 3.263245e+000 3.318763e+000 2.692751e+000 1.335723e+001 7.996496e-001 6.866787e-001 5.039139e-001 1.075649e+000 1.040206e+000 8.651098e-001 8.049594e-001 6.849842e-001 7.669826e-001 6.340520e-001 6.663101e-001 5.527261e-001 1.947867e+000
<GCONST> 1.381769e+002
<STATE> 4
<MEAN> 39
 -1.278380e+001 3.769769e+000 9.863597e+000 -2.986564e+000 -9.788881e+000 -8.943855e-001 -3.091690e+000 -2.331348e+000 -7.623211e+000 4.572171e-001 1.051186e-001 -1.787212e+000 5.688454e+001 -2.311759e-001 -2.294668e-002 -5.698071e-001 4.997332e-002 3.984686e-001 5.561266e-002 2.171286e-001 1.234627e-001 3.843559e-001 7.609717e-003 -1.004427e-001 8.193707e-002 -7.010441e-001 -5.124283e-003 -2.797264e-002 -4.404462e-002 1.116800e-002 3.132546e-002 -1.905487e-002 5.467773e-003 7.114000e-003 4.702688e-002 -1.710516e-002 -9.106892e-003 1.811852e-002 -5.918155e-003
<VARIANCE> 39
 1.863790e+001 2.253479e+001 1.147862e+002 2.989678e+001 7.270544e+001 3.995660e+001 5.791055e+001 2.958709e+001 6.493293e+001 3.667889e+001 3.027291e+001 2.740580e+001 1.343245e+002 3.849411e-001 1.110265e+000 1.660356e+000 1.538164e+000 1.960657e+000 2.055689e+000 2.605159e+000 1.710537e+000 1.934980e+000 1.992669e+000 1.576239e+000 1.408338e+000 7.754627e-001 7.161562e-002 1.705717e-001 2.432784e-001 2.911070e-001 3.858148e-001 3.713534e-001 4.295845e-001 3.247288e-001 3.867221e-001 3.633380e-001 2.982633e-001 2.798924e-001 6.790623e-002
<GCONST> 1.074435e+002
<TRANSP> 5
 0.000000e+000 1.000000e+000 0.000000e+000 0.000000e+000 0.000000e+000
 0.000000e+000 8.818509e-001 1.181490e-001 0.000000e+000 0.000000e+000
 0.000000e+000 0.000000e+000 9.765704e-001 2.342965e-002 0.000000e+000
 0.000000e+000 0.000000e+000 0.000000e+000 9.750344e-001 2.496557e-002
 0.000000e+000 0.000000e+000 0.000000e+000 0.000000e+000 0.000000e+000
<ENDHMM>
~h "choeagi"
<BEGINHMM>
<NUMSTATES> 5
<STATE> 2
<MEAN> 39
 -1.801496e+001 1.776842e+000 -6.367691e-001 -9.293514e-002 -8.123291e-001 -2.520437e-001 -1.759750e+000 -7.824357e-001 -1.461655e+000 1.677481e-001 4.268916e-001 6.415109e-001 4.419219e+001 -8.870326e-002 -4.562564e-001 7.945959e-002 -4.204165e-001 -9.175491e-002 1.837543e-001 -9.277766e-003 -6.238682e-002 5.332578e-002 -3.262942e-002 1.132746e-001 5.360435e-002 7.971910e-001 -2.023740e-001 -1.697132e-001 9.135929e-002 -3.509803e-001 -7.996526e-002 3.134175e-002 -7.482271e-002 5.611100e-002 2.160134e-002 -1.317836e-002 -3.289696e-002 -3.452528e-002 5.403483e-001
<VARIANCE> 39
 6.215698e+000 7.262049e+000 1.011751e+001 1.166460e+001 1.099425e+001 1.564902e+001 2.001602e+001 1.571651e+001 1.417488e+001 1.165325e+001 1.137957e+001 1.127954e+001 1.222061e+001 9.794316e-001 2.105606e+000 1.473092e+000 3.360521e+000 1.615388e+000 1.757891e+000 2.342784e+000 2.109731e+000 1.607630e+000 1.294910e+000 1.341704e+000 1.209659e+000 4.691068e+000 2.252384e-001 2.559067e-001 3.048636e-001 4.452942e-001 2.631830e-001 3.189779e-001 4.448287e-001 4.038385e-001 3.041331e-001 2.458175e-001 2.457036e-001 1.643446e-001 8.758340e-001
<GCONST> 9.636955e+001
<STATE> 3
<MEAN> 39
 -2.150940e+001 -4.589380e+000 4.724631e+000 -8.784487e+000 -8.281726e+000 -2.566831e+000 -2.581202e+000 9.503350e-001 -2.122620e+000 -7.283389e-001 7.122000e-001 8.483038e-001 7.097575e+001 9.790959e-001 -2.621217e-003 6.336927e-001 8.826752e-002 -9.565163e-001 -8.324742e-001 -8.062861e-002 4.163702e-001 -3.697036e-001 2.819433e-002 -9.266911e-002 -1.143671e-001 1.715856e+000 3.094551e-001 1.422502e-001 -7.358973e-002 2.223289e-001 -3.283348e-002 -1.050256e-001 -1.069157e-002 7.568960e-002 1.055485e-002 1.231316e-002 -4.070757e-002 -3.218517e-002 -3.376988e-001
<VARIANCE> 39
 6.737222e+001 1.841355e+001 2.788482e+001 4.606331e+001 3.083753e+001 3.990220e+001 2.597333e+001 2.423003e+001 2.510751e+001 1.634416e+001 1.670151e+001 2.203907e+001 3.448622e+001 7.695517e+000 2.105316e+000 2.113933e+000 4.873242e+000 2.286808e+000 2.806800e+000 3.153471e+000 2.107991e+000 2.615087e+000 1.742533e+000 2.162873e+000 1.966652e+000 8.443536e+000 7.967535e-001 5.330501e-001 3.957200e-001 7.774414e-001 3.838836e-001 4.486287e-001 5.864360e-001 4.011385e-001 5.292200e-001 3.408439e-001 3.553125e-001 3.321401e-001 9.826816e-001
<GCONST> 1.198447e+002
<STATE> 4
<MEAN> 39
 -9.955966e+000 2.163439e+000 6.750882e+000 -6.085157e+000 -8.177138e+000 -4.284329e+000 -3.800693e+000 3.512078e-002 -5.273715e+000 6.975498e-001 -2.204996e+000 -3.660451e+000 6.397251e+001 -1.451825e-001 6.220689e-002 -1.517136e-001 6.531201e-002 1.883323e-001 1.237829e-001 3.717682e-002 -5.884845e-002 4.422129e-002 -5.344983e-003 2.025078e-002 2.737358e-002 -4.238802e-001 -2.919827e-002 -2.474998e-003 -4.060976e-003 7.598718e-003 2.535524e-002 1.377693e-002 1.517178e-002 -9.860830e-003 -2.569176e-003 -1.580283e-003 4.222432e-003 7.948636e-003 -2.145324e-002
<VARIANCE> 39
 3.744810e+001 5.648179e+001 1.041440e+002 4.274370e+001 6.232753e+001 6.018542e+001 5.211281e+001 4.912054e+001 6.149440e+001 4.278707e+001 5.257693e+001 5.100916e+001 1.678954e+002 1.323404e+000 2.029915e+000 2.696954e+000 2.182822e+000 2.585923e+000 2.286405e+000 2.833345e+000 2.317188e+000 3.157769e+000 2.157487e+000 2.054041e+000 2.005482e+000 2.534686e+000 2.332257e-001 3.383730e-001 3.131141e-001 3.735504e-001 3.994981e-001 3.908620e-001 4.797032e-001 4.323105e-001 5.396588e-001 3.628834e-001 3.227141e-001 3.045589e-001 3.602600e-001
<GCONST> 1.223031e+002
<TRANSP> 5
 0.000000e+000 1.000000e+000 0.000000e+000 0.000000e+000 0.000000e+000
 0.000000e+000 9.047694e-001 9.523064e-002 0.000000e+000 0.000000e+000
 0.000000e+000 0.000000e+000 9.214061e-001 7.859387e-002 0.000000e+000
 0.000000e+000 0.000000e+000 0.000000e+000 9.861736e-001 1.382638e-002
 0.000000e+000 0.000000e+000 0.000000e+000 0.000000e+000 0.000000e+000
<ENDHMM>
~h "nawaya"
<BEGINHMM>
<NUMSTATES> 5
<STATE> 2
<MEAN> 39
 -1.713881e+001 6.615779e-001 -1.651803e+000 -2.298793e-001 -1.884632e+000 -3.100648e-001 -5.620388e-001 -1.460391e+000 -1.162873e+000 1.552748e-001 -1.981823e+000 1.009963e-001 4.510752e+001 6.579147e-002 1.214210e-001 4.114421e-001 1.500220e-001 -1.959948e-001 1.675652e-001 1.856599e-001 -4.055587e-001 -1.098537e-001 1.171246e-001 -4.048529e-001 -1.136340e-001 2.167712e-001 1.114325e-001 1.262646e-001 1.217382e-001 8.570023e-002 3.061479e-002 -2.840874e-002 -5.686159e-002 -4.228388e-002 -2.335816e-002 6.944027e-002 -3.299983e-002 -2.216615e-002 1.633235e-001
<VARIANCE> 39
 2.954290e+000 1.020397e+001 6.464037e+000 1.090717e+001 1.469745e+001 1.192007e+001 1.292340e+001 1.765801e+001 1.412786e+001 1.140405e+001 1.689203e+001 1.235383e+001 1.005659e+001 2.422534e-001 5.806531e-001 9.525982e-001 1.191953e+000 1.440885e+000 1.377059e+000 1.630924e+000 1.566891e+000 1.301645e+000 1.239170e+000 1.606429e+000 1.141673e+000 2.700573e-001 1.098636e-001 1.482154e-001 1.910139e-001 2.113069e-001 2.709608e-001 2.633665e-001 3.059471e-001 2.584638e-001 2.434968e-001 2.171211e-001 2.853957e-001 2.232599e-001 1.448098e-001
<GCONST> 8.210039e+001
<STATE> 3
<MEAN> 39
 -8.951057e+000 2.217586e+000 1.978701e+000 -2.917439e+000 -2.006360e+000 -3.629366e+000 -5.119235e+000 -2.943231e+000 1.520860e-001 5.536841e-001 -8.237937e+000 -3.264964e+000 6.290341e+001 1.274493e+000 -8.801119e-001 -8.335608e-001 -1.393140e+000 7.389128e-001 -2.090419e-001 -4.771186e-001 6.362085e-001 2.554914e-001 -2.015125e-001 -6.308517e-001 -7.881334e-001 3.294971e+000 -5.652383e-002 -2.810338e-001 -2.151788e-001 -1.511556e-001 1.012613e-001 1.436447e-001 1.449608e-001 -1.679646e-002 -6.174258e-002 -3.134929e-002 1.481428e-001 -8.348957e-002 -8.546832e-002
<VARIANCE> 39
 3.728460e+001 4.245825e+001 6.984454e+001 7.006394e+001 5.517652e+001 4.281453e+001 4.981599e+001 6.364500e+001 2.853057e+001 2.298823e+001 3.573142e+001 3.775650e+001 1.561958e+002 3.106119e+000 5.096663e+000 8.078869e+000 5.325133e+000 5.148519e+000 5.720495e+000 4.677172e+000 6.827773e+000 2.685649e+000 2.378454e+000 3.307584e+000 2.806656e+000 6.409847e+000 6.226240e-001 6.942671e-001 1.429526e+000 1.025452e+000 9.111221e-001 1.060022e+000 8.734158e-001 1.579046e+000 4.793730e-001 4.704365e-001 6.538462e-001 4.263319e-001 1.557401e+000
<GCONST> 1.389305e+002
<STATE> 4
<MEAN> 39
 -5.796125e+000 -3.749071e+000 -4.328573e+000 -1.020148e+001 -2.712030e-001 3.956086e-001 -1.712111e+000 2.058753e+000 -9.556535e-001 1.234995e-001 -3.507114e+000 -6.234105e+000 6.737023e+001 -1.960917e-001 1.096127e-001 7.630523e-002 1.689276e-001 -6.046112e-002 6.525473e-003 4.763331e-002 -4.243264e-002 -2.241872e-002 9.762491e-003 1.447394e-001 1.383211e-001 -4.624941e-001 -9.820572e-003 1.886305e-002 1.172496e-002 1.460238e-002 -1.748869e-002 -1.900129e-002 -1.415375e-002 5.936262e-003 8.957906e-003 1.214482e-003 -5.876237e-003 2.136691e-002 -1.134216e-002
<VARIANCE> 39
 4.503400e+001 2.536792e+001 4.403653e+001 8.904457e+001 7.726861e+001 6.582510e+001 2.926422e+001 4.528482e+001 3.485220e+001 3.036952e+001 5.272149e+001 6.472492e+001 1.724042e+002 4.979714e-001 1.100352e+000 1.665567e+000 1.795116e+000 2.705898e+000 2.123299e+000 1.545991e+000 2.154998e+000 1.812235e+000 1.492519e+000 2.273371e+000 2.338948e+000 8.138252e-001 5.294812e-002 1.736015e-001 1.986399e-001 2.372409e-001 3.196257e-001 2.639291e-001 2.795902e-001 3.719931e-001 3.012027e-001 2.486394e-001 3.381822e-001 3.377538e-001 7.249638e-002
<GCONST> 1.090050e+002
<TRANSP> 5
 0.000000e+000 1.000000e+000 0.000000e+000 0.000000e+000 0.000000e+000
 0.000000e+000 8.876818e-001 1.123182e-001 0.000000e+000 0.000000e+000
 0.000000e+000 0.000000e+000 8.985029e-001 1.014970e-001 0.000000e+000
 0.000000e+000 0.000000e+000 0.000000e+000 9.864027e-001 1.359726e-002
 0.000000e+000 0.000000e+000 0.000000e+000 0.000000e+000 0.000000e+000
<ENDHMM>
~h "bunyaeseo"
<BEGINHMM>
<NUMSTATES> 5
<STATE> 2
<MEAN> 39
 -1.805654e+001 5.710889e-001 -1.421358e+000 2.424155e-001 -5.805551e-001 -4.468282e-001 -6.433373e-001 -1.169347e-001 -1.256811e+000 1.149141e-001 -6.137710e-001 3.151445e-001 4.436084e+001 -8.888789e-003 -3.447352e-001 -2.090319e-001 -2.379843e-001 -1.448920e-001 -1.037978e-001 -1.761501e-001 -1.890728e-001 -1.704539e-001 9.700161e-002 1.919337e-001 4.633496e-002 1.152434e+000 -1.978974e-002 -1.802210e-001 -1.085031e-001 6.502949e-003 7.274515e-002 -6.629135e-002 -9.348283e-002 -6.289236e-003 6.631599e-002 1.962313e-002 7.021495e-002 1.336997e-002 5.690866e-001
<VARIANCE> 39
 2.451892e+000 7.110352e+000 5.574116e+000 8.683621e+000 1.354112e+001 1.405437e+001 1.491198e+001 1.559165e+001 1.468876e+001 1.423318e+001 1.155627e+001 1.520873e+001 1.298741e+001 3.723176e-001 1.428070e+000 8.928676e-001 1.242288e+000 1.606387e+000 1.491586e+000 1.554614e+000 1.736900e+000 1.777811e+000 1.847695e+000 1.522215e+000 1.745058e+000 5.897197e+000 5.666750e-002 2.223792e-001 1.610515e-001 2.056308e-001 3.036102e-001 2.524984e-001 2.710927e-001 3.428631e-001 3.476757e-001 3.190672e-001 2.726241e-001 3.633392e-001 7.253829e-001
<GCONST> 8.991068e+001
<STATE> 3
<MEAN> 39
 -9.456098e+000 -1.809396e-001 3.277756e+000 -3.248757e+000 -5.652903e+000 -3.572617e+000 -8.135630e+000 -1.597603e+000 -4.988441e+000 -9.627410e-002 -6.045662e-001 -1.348315e+000 6.913235e+001 6.298161e-001 1.332406e-003 5.129887e-001 -3.051849e-001 -6.450089e-001 -2.594433e-001 -2.042230e-001 4.884275e-001 -1.915282e-001 -1.966996e-001 -2.765089e-001 -6.739725e-002 1.122881e+000 2.899195e-002 -2.073337e-003 -4.626865e-002 1.604581e-002 2.234065e-002 2.609175e-002 7.186997e-002 1.080967e-001 6.868746e-002 -4.360504e-002 -1.254573e-001 -4.027007e-002 -2.397783e-001
<VARIANCE> 39
 5.187119e+001 4.390791e+001 8.106321e+001 3.764867e+001 7.834258e+001 3.508920e+001 4.871880e+001 4.651091e+001 4.575511e+001 4.808669e+001 4.210250e+001 2.911476e+001 2.763832e+001 3.293398e+000 4.058784e+000 4.881019e+000 3.326166e+000 5.132469e+000 3.455399e+000 4.570765e+000 5.679785e+000 3.953002e+000 4.171044e+000 3.714155e+000 2.784092e+000 4.943677e+000 5.983168e-001 6.002278e-001 7.951821e-001 7.003735e-001 1.044073e+000 7.011499e-001 8.356321e-001 1.034428e+000 7.748212e-001 8.005010e-001 7.122864e-001 5.106342e-001 8.750049e-001
<GCONST> 1.357625e+002
<STATE> 4
<MEAN> 39
 -9.136685e+000 -8.584026e-001 -2.438570e+000 -7.273985e+000 -3.891601e+000 -6.162014e-001 -2.308109e+000 2.729432e+000 -3.102390e+000 3.328907e-001 -1.991805e+000 -2.223390e+000 6.535785e+001 -1.544939e-001 5.805767e-002 -1.205586e-001 9.510447e-002 1.666615e-001 8.351978e-002 6.679154e-002 -1.301852e-001 5.565860e-002 4.286699e-002 6.401656e-002 1.642782e-002 -4.625312e-001 -9.390546e-003 2.835560e-002 3.281390e-002 7.212202e-004 -1.602091e-002 -7.323565e-003 -1.016371e-002 -2.473573e-002 -1.948327e-002 8.693412e-003 2.578442e-002 5.691375e-003 -1.441484e-002
<VARIANCE> 39
 8.162389e+001 2.538550e+001 5.363209e+001 5.871221e+001 6.771017e+001 7.977782e+001 4.327664e+001 5.454028e+001 4.004730e+001 4.009869e+001 5.103857e+001 4.636944e+001 1.659704e+002 3.828244e+000 1.322890e+000 1.988576e+000 2.314957e+000 2.515737e+000 2.596102e+000 2.715012e+000 2.066527e+000 2.248870e+000 2.058794e+000 2.100203e+000 1.959807e+000 8.620737e-001 4.330451e-001 2.075181e-001 2.855834e-001 3.334580e-001 3.901103e-001 4.145193e-001 4.407521e-001 3.559339e-001 3.948426e-001 3.477610e-001 3.183005e-001 3.153009e-001 9.165078e-002
<GCONST> 1.184316e+002
<TRANSP> 5
 0.000000e+000 1.000000e+000 0.000000e+000 0.000000e+000 0.000000e+000
 0.000000e+000 9.004253e-001 9.957475e-002 0.000000e+000 0.000000e+000
 0.000000e+000 0.000000e+000 9.489778e-001 5.102219e-002 0.000000e+000
 0.000000e+000 0.000000e+000 0.000000e+000 9.864237e-001 1.357626e-002
 0.000000e+000 0.000000e+000 0.000000e+000 0.000000e+000 0.000000e+000
<ENDHMM>
~h "widaehan"
<BEGINHMM>
<NUMSTATES> 5
<STATE> 2
<MEAN> 39
 -1.725905e+001 1.042157e+000 -1.621037e+000 5.444366e-001 -1.517617e+000 -8.666236e-001 -5.230770e-001 -8.528252e-002 -1.217570e+000 8.636837e-002 -1.032359e+000 2.211383e-001 4.383994e+001 2.321559e-001 -2.954845e-002 1.462136e-001 2.614096e-001 -3.859818e-002 -1.304829e-001 -7.387763e-003 -9.273219e-002 -4.674922e-001 1.417053e-001 5.764362e-002 -1.046962e-001 2.623283e-001 1.464407e-001 6.060274e-002 1.739638e-001 1.514582e-001 -8.480214e-002 -5.940009e-002 -3.345818e-002 8.426338e-002 -1.336912e-001 -4.613750e-002 -2.508195e-003 -6.701005e-002 1.754648e-001
<VARIANCE> 39
 4.005595e+000 3.845068e+000 5.113513e+000 8.969995e+000 1.166544e+001 1.482233e+001 1.123297e+001 1.553663e+001 1.406930e+001 1.570649e+001 1.430954e+001 8.703068e+000 7.118576e+000 2.260263e-001 4.759172e-001 7.168916e-001 1.085852e+000 1.439235e+000 1.342836e+000 1.130641e+000 1.463266e+000 1.861623e+000 1.764075e+000 1.494558e+000 1.151125e+000 1.874542e-001 1.170144e-001 9.921829e-002 2.158076e-001 2.033028e-001 2.397898e-001 2.687615e-001 2.002980e-001 2.646838e-001 3.508641e-001 3.049183e-001 2.820483e-001 1.701376e-001 1.043788e-001
<GCONST> 7.868433e+001
<STATE> 3
<MEAN> 39
 -9.252802e+000 3.696274e+000 1.163182e+001 8.955324e-001 -1.097734e+001 -7.141145e+000 -5.298200e+000 -1.174637e+000 -1.111910e+001 -2.589639e+000 1.711018e+000 -2.293923e+000 6.503112e+001 3.697639e-001 -7.186371e-002 4.630170e-001 -3.318679e-001 -6.648621e-001 -4.488211e-001 -2.744730e-001 9.692233e-002 -2.243175e-001 -2.209238e-002 1.801390e-001 1.704128e-002 1.411194e+000 -4.080126e-002 -4.777954e-002 -7.589155e-002 -9.722704e-002 8.261354e-003 4.108622e-002 2.687499e-002 4.005181e-002 9.298170e-002 1.964061e-002 -2.941705e-002 1.231188e-002 -3.821870e-002
<VARIANCE> 39
 2.902510e+001 3.326055e+001 7.275565e+001 5.155163e+001 7.172173e+001 4.833641e+001 4.283374e+001 3.896455e+001 4.475445e+001 3.609550e+001 2.543668e+001 2.332024e+001 1.126803e+002 4.295444e+000 3.934745e+000 7.431821e+000 4.077173e+000 8.162573e+000 3.734510e+000 4.886363e+000 3.792001e+000 5.174061e+000 3.372154e+000 2.599773e+000 2.249516e+000 1.047066e+001 8.341050e-001 7.122304e-001 1.101163e+000 7.447834e-001 1.370995e+000 7.785902e-001 9.205279e-001 6.502316e-001 8.194252e-001 6.247072e-001 4.372248e-001 4.162999e-001 1.865605e+000
<GCONST> 1.374801e+002
<STATE> 4
<MEAN> 39
 -9.013512e+000 -1.844000e-001 1.718897e+000 -1.541068e+000 -3.464802e+000 -3.792486e+000 -3.623209e+000 2.753836e+000 -1.832130e+000 1.381784e-001 -6.257134e+000 -2.700347e+000 6.249943e+001 -1.973091e-001 3.522209e-002 -2.158760e-001 8.944038e-002 2.978354e-001 1.648849e-001 9.002008e-002 -4.688768e-002 1.577961e-001 1.286648e-002 -7.200623e-002 2.140534e-002 -6.048417e-001 -8.081103e-003 1.389253e-002 1.012331e-002 2.343504e-002 1.617094e-002 -5.750548e-003 -3.839658e-003 -2.518657e-002 -9.178259e-003 -7.005849e-003 2.872685e-003 6.048520e-003 -1.106295e-002
<VARIANCE> 39
 3.961763e+001 2.271993e+001 6.116377e+001 5.202465e+001 7.713320e+001 4.496141e+001 4.358806e+001 6.352281e+001 3.079253e+001 2.760822e+001 5.867814e+001 4.672763e+001 2.027506e+002 7.699190e-001 8.951707e-001 2.722391e+000 2.421695e+000 2.980165e+000 2.259192e+000 2.141137e+000 2.812199e+000 1.819570e+000 1.711587e+000 2.201477e+000 1.696735e+000 1.065856e+000 1.051293e-001 1.329928e-001 3.272119e-001 4.006207e-001 4.057891e-001 3.887827e-001 3.678406e-001 4.821140e-001 3.149718e-001 3.186661e-001 3.300338e-001 2.892046e-001 1.273230e-001
<GCONST> 1.137426e+002
<TRANSP> 5
 0.000000e+000 1.000000e+000 0.000000e+000 0.000000e+000 0.000000e+000
 0.000000e+000 8.827384e-001 1.172616e-001 0.000000e+000 0.000000e+000
 0.000000e+000 0.000000e+000 9.569365e-001 4.306352e-002 0.000000e+000
 0.000000e+000 0.000000e+000 0.000000e+000 9.821271e-001 1.787293e-002
 0.000000e+000 0.000000e+000 0.000000e+000 0.000000e+000 0.000000e+000
<ENDHMM>
~h "gyamalo"
<BEGINHMM>
<NUMSTATES> 5
<STATE> 2
<MEAN> 39
 -1.791116e+001 8.767834e-001 -1.613063e+000 1.403691e-001 -2.711754e-001 5.279214e-001 -7.045257e-001 -3.723418e-002 -9.363883e-001 1.008957e-001 -6.120905e-001 9.108680e-001 4.425627e+001 2.373149e-002 -2.028665e-001 -2.919943e-001 -4.356771e-001 1.972100e-001 -1.376130e-001 -2.417477e-001 -1.823986e-001 -1.498826e-001 4.614145e-001 -1.034969e-001 9.557130e-002 6.703257e-001 3.166083e-002 -2.011212e-001 -2.541330e-001 -1.852937e-001 1.289303e-001 -1.515425e-001 -2.260513e-001 -6.064253e-002 -6.761462e-002 1.978837e-001 -1.324291e-001 -6.767625e-002 4.851017e-001
<VARIANCE> 39
 6.403958e+000 6.361719e+000 9.535027e+000 1.210479e+001 1.263773e+001 1.520147e+001 1.355360e+001 1.632725e+001 1.501554e+001 1.354157e+001 1.292873e+001 1.371887e+001 9.709118e+000 7.135438e-001 1.513429e+000 2.528010e+000 2.074484e+000 1.588869e+000 2.216360e+000 1.970154e+000 2.013633e+000 1.382717e+000 2.499567e+000 2.002446e+000 1.571955e+000 3.565403e+000 1.172172e-001 2.482677e-001 4.342270e-001 3.265449e-001 3.155353e-001 4.845710e-001 4.070950e-001 4.066051e-001 2.469532e-001 4.095968e-001 3.641984e-001 2.743501e-001 7.629298e-001
<GCONST> 9.755370e+001
<STATE> 3
<MEAN> 39
 -9.012625e+000 -4.230196e+000 -5.105231e-003 -6.814120e+000 -1.941889e+000 -6.190587e+000 -9.338785e+000 1.088516e+000 -4.978849e+000 4.304038e+000 -3.664465e+000 -1.928045e+000 6.955438e+001 6.482469e-001 -8.369247e-002 4.102830e-001 -1.434516e-001 -5.428821e-001 -1.847502e-001 -3.567038e-001 3.263209e-001 -1.789843e-001 -1.749748e-001 5.101514e-002 -2.730544e-001 1.254638e+000 -1.301428e-002 5.536599e-002 9.458239e-002 8.635359e-002 -9.312471e-002 5.403934e-002 1.069175e-001 4.532219e-002 7.303974e-002 -9.251240e-002 1.348878e-002 8.591736e-003 -1.724661e-001
<VARIANCE> 39
 4.382597e+001 3.375698e+001 1.341556e+002 5.563442e+001 9.239793e+001 4.630785e+001 4.807075e+001 6.584138e+001 5.367352e+001 5.744567e+001 5.096552e+001 3.568602e+001 8.160552e+001 1.572837e+000 3.535130e+000 1.187400e+001 5.549941e+000 7.517134e+000 4.446088e+000 4.843798e+000 5.061597e+000 6.034855e+000 4.809754e+000 4.243252e+000 2.585523e+000 7.258660e+000 3.291016e-001 6.161835e-001 1.916392e+000 1.144320e+000 1.086310e+000 8.048292e-001 8.346403e-001 8.951540e-001 1.091417e+000 9.142663e-001 7.779119e-001 5.364221e-001 1.244705e+000
<GCONST> 1.427219e+002
<STATE> 4
<MEAN> 39
 -4.122710e+000 -6.100090e-001 -2.638826e+000 -5.398852e+000 -5.668319e+000 7.854873e-001 -4.912567e+000 -1.033909e+000 -3.593104e+000 9.046103e-001 -1.084165e+000 -3.711345e+000 6.358103e+001 -1.903324e-001 6.258875e-002 -8.563542e-002 8.568256e-002 1.133900e-001 5.579946e-002 1.392894e-001 -8.193326e-002 5.299550e-002 -2.307109e-002 -4.431590e-003 6.459347e-002 -4.627285e-001 -1.887687e-003 9.088096e-003 4.159361e-003 3.258392e-003 6.664530e-003 -3.519410e-003 -9.009176e-004 -8.242643e-003 -1.311208e-002 1.612473e-003 8.678025e-003 -1.103892e-003 -1.324866e-002
<VARIANCE> 39
 5.733116e+001 2.756627e+001 3.174419e+001 9.413270e+001 4.386374e+001 9.065981e+001 6.830933e+001 6.972364e+001 5.242544e+001 4.449955e+001 6.535323e+001 4.819304e+001 1.564468e+002 7.571479e-001 1.060891e+000 2.062676e+000 4.614657e+000 2.815117e+000 3.898929e+000 2.771587e+000 3.461535e+000 3.011519e+000 2.382535e+000 2.764413e+000 2.016302e+000 1.002284e+000 9.269921e-002 1.580077e-001 3.263433e-001 6.137489e-001 4.937781e-001 5.177248e-001 4.355662e-001 5.189509e-001 4.923382e-001 4.214506e-001 3.888244e-001 3.423314e-001 1.096894e-001
<GCONST> 1.205646e+002
<TRANSP> 5
 0.000000e+000 1.000000e+000 0.000000e+000 0.000000e+000 0.000000e+000
 0.000000e+000 8.913625e-001 1.086375e-001 0.000000e+000 0.000000e+000
 0.000000e+000 0.000000e+000 9.522302e-001 4.776980e-002 0.000000e+000
 0.000000e+000 0.000000e+000 0.000000e+000 9.860455e-001 1.395452e-002
 0.000000e+000 0.000000e+000 0.000000e+000 0.000000e+000 0.000000e+000
<ENDHMM>
~h "uioero"
<BEGINHMM>
<NUMSTATES> 5
<STATE> 2
<MEAN> 39
 -1.757379e+001 4.868017e-001 -2.887220e+000 2.465898e-001 2.944051e-001 -6.172314e-001 -2.048466e+000 1.079198e+000 -5.353408e-001 7.036769e-001 -1.142708e+000 -9.762733e-001 4.506649e+001 1.030981e-001 1.559029e-001 1.868660e-002 -1.926178e-001 5.719357e-002 9.851511e-002 -2.627068e-001 -7.514139e-002 -3.970218e-001 2.891967e-001 2.229277e-001 -1.799501e-001 1.814207e-001 9.900628e-002 9.917293e-002 7.004083e-002 -8.570522e-002 4.081388e-002 8.473261e-002 -1.467974e-001 -3.816196e-003 -8.660499e-002 5.822182e-002 1.172161e-001 -1.058255e-001 2.216089e-001
<VARIANCE> 39
 5.933944e+000 6.529630e+000 1.141690e+001 9.253189e+000 1.237419e+001 1.534763e+001 2.304761e+001 1.363457e+001 2.005002e+001 1.951908e+001 1.328667e+001 1.364866e+001 1.090645e+001 4.022479e-001 9.032795e-001 1.090499e+000 1.199806e+000 1.297152e+000 1.581269e+000 2.793888e+000 1.498826e+000 2.147820e+000 2.113671e+000 1.419603e+000 1.465809e+000 3.864653e-001 1.669174e-001 1.994157e-001 2.072562e-001 2.201056e-001 2.177143e-001 3.373565e-001 4.551417e-001 2.794490e-001 3.668881e-001 3.319759e-001 2.448599e-001 2.450605e-001 1.148926e-001
<GCONST> 8.900648e+001
<STATE> 3
<MEAN> 39
 -7.996460e+000 3.672550e+000 1.671955e+000 -3.155894e+000 -3.847259e+000 -4.572296e-001 -1.244378e+001 -1.955733e+000 -7.524930e+000 2.830901e+000 3.503704e+000 -6.523304e+000 5.963927e+001 1.748629e+000 2.294976e-002 1.185187e+000 -3.016959e-001 -1.483931e+000 -4.258045e-001 -1.447021e+000 -4.414936e-001 -1.138772e+000 -3.299090e-001 6.842366e-001 -6.201167e-001 3.127416e+000 -1.676593e-001 -1.212636e-001 7.202397e-002 8.874910e-002 -2.129534e-001 -9.748777e-002 2.161901e-001 3.278993e-003 3.058734e-002 -1.815688e-001 -8.216918e-002 1.238696e-001 -8.422534e-002
<VARIANCE> 39
 5.904929e+001 2.692601e+001 5.274662e+001 2.934085e+001 6.212708e+001 7.019356e+001 6.106087e+001 7.971305e+001 5.341451e+001 3.593570e+001 4.760935e+001 4.514544e+001 1.121645e+002 4.545817e+000 3.599666e+000 3.042248e+000 2.651685e+000 3.655616e+000 3.175071e+000 5.773736e+000 4.705957e+000 3.657873e+000 2.961523e+000 2.778049e+000 3.069493e+000 4.553820e+000 9.536323e-001 6.701267e-001 4.246233e-001 4.536095e-001 7.389560e-001 5.330586e-001 1.214872e+000 8.146343e-001 6.285928e-001 4.039764e-001 5.294642e-001 5.870546e-001 1.178259e+000
<GCONST> 1.344830e+002
<STATE> 4
<MEAN> 39
 -4.699633e+000 2.757729e-001 1.211778e+000 -5.233725e+000 -9.033379e+000 -2.399793e-001 -6.695938e+000 -9.192650e-002 -7.119491e+000 -2.809730e-001 2.641625e+000 -2.244872e+000 6.403265e+001 -1.966372e-001 -8.645683e-003 -1.261855e-001 5.652713e-002 1.440639e-001 6.482335e-002 2.294584e-001 3.590221e-002 1.529106e-001 -2.463358e-002 -9.200334e-002 1.082273e-001 -3.841286e-001 2.337340e-003 1.644735e-003 -1.548407e-002 -4.250995e-003 2.007335e-002 4.540853e-003 -4.063679e-003 4.866201e-003 1.143955e-002 7.376400e-003 -4.886297e-003 -5.140422e-003 -1.570738e-002
<VARIANCE> 39
 5.837882e+001 2.690986e+001 7.013148e+001 6.793565e+001 6.647916e+001 9.525935e+001 8.650480e+001 6.574758e+001 5.793745e+001 4.192941e+001 6.100278e+001 3.084576e+001 1.497531e+002 9.752131e-001 9.792458e-001 1.572605e+000 2.902117e+000 2.275356e+000 2.716079e+000 2.797904e+000 2.898820e+000 2.464387e+000 2.174610e+000 2.556065e+000 1.480106e+000 8.513356e-001 1.288133e-001 1.420575e-001 2.234199e-001 4.111287e-001 3.934592e-001 3.868091e-001 4.514501e-001 4.493054e-001 4.007568e-001 3.967497e-001 4.183926e-001 2.650914e-001 9.970583e-002
<GCONST> 1.172746e+002
<TRANSP> 5
 0.000000e+000 1.000000e+000 0.000000e+000 0.000000e+000 0.000000e+000
 0.000000e+000 8.879766e-001 1.120234e-001 0.000000e+000 0.000000e+000
 0.000000e+000 0.000000e+000 8.764642e-001 1.235359e-001 0.000000e+000
 0.000000e+000 0.000000e+000 0.000000e+000 9.863160e-001 1.368392e-002
 0.000000e+000 0.000000e+000 0.000000e+000 0.000000e+000 0.000000e+000
<ENDHMM>
~h "jayuwa"
<BEGINHMM>
<NUMSTATES> 5
<STATE> 2
<MEAN> 39
 -1.774278e+001 1.661006e+000 -1.069763e+000 -5.236366e-001 -7.774456e-001 -1.630626e+000 -2.174645e+000 -1.401707e+000 -1.765542e+000 6.077796e-001 -3.350045e-001 6.047024e-001 4.497438e+001 -2.929659e-001 -1.916513e-001 -1.618551e-002 -5.699692e-001 2.572065e-001 -6.977430e-002 1.160403e-001 -4.332004e-002 -2.258054e-001 1.987983e-001 -8.095059e-002 -1.580223e-001 9.440141e-001 -1.745366e-001 -2.669752e-002 -4.740064e-002 -2.024029e-001 5.927331e-002 -1.936926e-001 -2.212249e-002 5.181262e-002 -4.005136e-002 -2.797056e-002 3.514016e-002 5.199373e-002 4.890109e-001
<VARIANCE> 39
 5.932660e+000 8.167304e+000 9.362881e+000 1.435526e+001 2.070074e+001 2.325020e+001 2.135401e+001 1.831254e+001 1.801533e+001 1.849353e+001 9.281766e+000 1.714709e+001 1.014926e+001 1.013125e+000 1.148728e+000 1.312876e+000 2.428915e+000 2.491162e+000 2.448524e+000 1.851132e+000 2.163172e+000 1.971068e+000 2.169595e+000 9.839963e-001 1.977175e+000 3.584943e+000 2.340136e-001 2.000737e-001 1.836687e-001 3.892071e-001 5.439666e-001 4.183362e-001 3.439025e-001 4.069031e-001 3.830061e-001 4.357979e-001 1.882419e-001 3.529679e-001 6.680147e-001
<GCONST> 9.965053e+001
<STATE> 3
<MEAN> 39
 -1.601409e+001 -4.199540e+000 -3.524388e+000 -9.423839e+000 7.234549e-001 -3.818047e+000 -1.103977e+000 3.556887e+000 4.781079e-001 -1.306502e+000 -4.398593e+000 -1.102425e+000 7.179369e+001 1.035683e+000 -4.344504e-001 1.550891e-001 -3.584248e-001 -4.286756e-001 -1.178004e-001 -2.168741e-001 5.436335e-001 3.692836e-001 -2.648535e-001 -3.878294e-001 -2.879981e-001 1.675897e+000 1.023590e-001 9.390765e-002 2.058826e-001 1.533076e-001 -2.038848e-001 3.184905e-002 -9.371839e-002 -2.531415e-002 -4.089759e-002 2.299939e-002 7.605186e-002 7.032316e-002 -3.480465e-001
<VARIANCE> 39
 9.786614e+001 3.496685e+001 2.722719e+001 3.578840e+001 3.398446e+001 3.619853e+001 3.364821e+001 3.774724e+001 3.118163e+001 3.065136e+001 3.897760e+001 3.565947e+001 6.745042e+001 6.033522e+000 3.596335e+000 3.098675e+000 4.744219e+000 3.870317e+000 4.621653e+000 4.099157e+000 4.092333e+000 2.731145e+000 2.762267e+000 3.274267e+000 2.856460e+000 5.338312e+000 9.419711e-001 8.313918e-001 5.503473e-001 9.953453e-001 6.806675e-001 9.511730e-001 6.895568e-001 8.765439e-001 5.320999e-001 5.114971e-001 6.216549e-001 5.440955e-001 7.327672e-001
<GCONST> 1.321895e+002
<STATE> 4
<MEAN> 39
 -5.417747e+000 -3.698520e-001 -2.752860e+000 -9.210398e+000 -2.945412e+000 2.467134e+000 -5.850892e+000 -4.212112e-001 -4.455192e+000 5.786167e-001 -3.096800e-001 -4.570939e+000 6.485940e+001 -1.986109e-001 1.212231e-001 -3.677091e-002 1.642725e-001 7.960227e-002 8.131388e-002 6.171427e-002 -1.211351e-001 -5.615208e-002 2.332934e-002 7.939787e-002 6.385908e-002 -5.236894e-001 2.680080e-003 -1.409722e-002 -4.056752e-002 -2.284902e-003 3.439945e-002 1.036051e-002 1.714171e-002 -2.965059e-003 2.161289e-002 -9.482738e-003 -2.183032e-002 -1.591958e-002 4.822355e-003
<VARIANCE> 39
 4.997369e+001 3.446974e+001 8.489974e+001 8.869187e+001 9.651200e+001 7.126296e+001 6.059796e+001 4.274728e+001 5.723228e+001 4.062874e+001 5.265791e+001 6.439165e+001 1.574099e+002 5.835351e-001 1.300279e+000 2.543129e+000 2.356411e+000 2.649112e+000 2.241212e+000 2.138730e+000 2.156749e+000 2.578143e+000 2.077435e+000 2.080007e+000 2.201244e+000 8.702316e-001 6.369936e-002 1.673822e-001 2.607055e-001 3.037943e-001 3.448891e-001 3.452419e-001 3.507191e-001 3.919568e-001 4.148281e-001 3.689282e-001 3.268292e-001 3.267953e-001 6.189344e-002
<GCONST> 1.154900e+002
<TRANSP> 5
 0.000000e+000 1.000000e+000 0.000000e+000 0.000000e+000 0.000000e+000
 0.000000e+000 8.988664e-001 1.011336e-001 0.000000e+000 0.000000e+000
 0.000000e+000 0.000000e+000 9.356879e-001 6.431211e-002 0.000000e+000
 0.000000e+000 0.000000e+000 0.000000e+000 9.855204e-001 1.447955e-002
 0.000000e+000 0.000000e+000 0.000000e+000 0.000000e+000 0.000000e+000
<ENDHMM>
~h "gwaeoni"
<BEGINHMM>
<NUMSTATES> 5
<STATE> 2
<MEAN> 39
 -1.736622e+001 6.353883e-001 -1.795082e+000 -8.878872e-001 -1.533552e+000 -2.637413e-001 -8.638602e-001 -5.298440e-001 -1.639523e+000 3.046730e-001 6.285297e-001 6.132876e-001 4.460570e+001 6.412026e-002 3.808089e-003 -2.657669e-002 -1.613135e-001 -1.211694e-001 -8.283140e-002 8.476496e-002 -3.169157e-002 -5.901627e-002 5.228711e-003 -2.754641e-002 8.234273e-002 1.486280e-001 1.257291e-001 1.091288e-002 -1.542941e-001 -2.790437e-001 -9.393016e-002 2.827385e-003 -5.553412e-002 9.468511e-002 -4.413270e-002 9.039224e-002 -1.291852e-001 -6.612458e-002 2.574647e-001
<VARIANCE> 39
 3.700833e+000 8.999145e+000 7.028571e+000 1.342816e+001 1.677884e+001 1.373225e+001 1.597982e+001 1.839575e+001 1.734556e+001 1.890923e+001 1.350981e+001 1.059434e+001 9.595739e+000 3.691362e-001 1.285278e+000 1.010991e+000 1.387027e+000 1.808105e+000 1.620283e+000 1.798492e+000 1.906743e+000 2.111228e+000 2.162954e+000 1.277184e+000 1.042658e+000 7.602869e-001 9.157263e-002 2.089182e-001 3.297408e-001 4.285215e-001 3.334216e-001 2.451111e-001 2.844130e-001 3.925899e-001 4.868744e-001 4.269778e-001 2.349601e-001 2.198424e-001 3.355129e-001
<GCONST> 9.106635e+001
<STATE> 3
<MEAN> 39
 -1.021092e+001 -1.987154e-001 -9.042433e+000 -1.445260e+001 -1.856531e+000 4.441156e+000 -1.242348e+000 1.462379e+000 -5.054206e+000 3.423682e+000 2.838380e-001 -4.080491e+000 6.272584e+001 1.201805e+000 -3.557501e-001 -3.935122e-001 -1.370944e+000 2.241893e-001 6.729302e-001 3.833883e-004 -1.736217e-001 -4.002628e-001 2.141368e-001 1.046348e-001 -7.176933e-001 2.214369e+000 -2.673754e-002 -5.484239e-002 7.423104e-002 8.129260e-002 7.163124e-002 -3.277600e-002 5.668970e-003 -5.388213e-002 7.379055e-002 -4.826218e-002 3.147206e-002 -3.310463e-003 -5.886745e-002
<VARIANCE> 39
 4.544547e+001 2.705138e+001 3.635865e+001 6.877058e+001 5.734382e+001 5.854142e+001 3.285852e+001 4.999472e+001 4.155325e+001 3.451454e+001 3.055511e+001 3.813679e+001 9.613260e+001 3.224834e+000 3.288934e+000 5.354021e+000 7.130033e+000 4.968884e+000 5.222717e+000 3.563756e+000 5.600885e+000 4.846763e+000 3.227546e+000 3.434493e+000 3.375760e+000 4.348347e+000 7.508743e-001 6.763352e-001 9.263651e-001 1.381363e+000 8.929664e-001 1.033327e+000 6.848359e-001 1.047806e+000 1.077179e+000 6.461976e-001 6.781009e-001 6.288589e-001 9.397167e-001
<GCONST> 1.378372e+002
<STATE> 4
<MEAN> 39
 -7.196444e+000 3.167953e+000 3.008758e+000 -1.081188e+001 -5.688515e+000 3.126455e+000 -3.564687e+000 -2.633887e+000 -6.015110e+000 1.985982e+000 -1.151405e+000 -4.724869e+000 6.421966e+001 -2.450274e-001 7.647414e-002 7.965036e-002 2.942291e-001 -2.423254e-002 -1.203540e-001 -7.214293e-004 1.569248e-002 7.298862e-002 -5.892071e-002 -1.657856e-002 1.304566e-001 -4.479433e-001 -9.709495e-003 9.928415e-003 -8.755113e-004 1.405193e-002 -5.103702e-003 1.226553e-002 3.894310e-003 -2.443783e-004 -5.356054e-003 1.851465e-003 4.713735e-003 4.958644e-003 -1.993735e-002
<VARIANCE> 39
 5.133990e+001 5.298757e+001 1.048921e+002 1.162876e+002 8.084639e+001 5.249329e+001 4.679431e+001 4.739681e+001 4.895972e+001 3.796262e+001 4.781674e+001 4.649854e+001 1.546224e+002 4.950363e-001 1.034708e+000 1.964880e+000 2.585128e+000 2.265365e+000 2.723707e+000 2.240668e+000 2.508254e+000 2.101664e+000 1.758022e+000 1.985245e+000 1.345898e+000 8.863754e-001 8.838546e-002 1.357141e-001 2.527818e-001 3.398489e-001 3.725913e-001 4.634278e-001 3.776211e-001 4.778605e-001 3.451022e-001 2.945802e-001 3.171555e-001 2.372782e-001 1.101821e-001
<GCONST> 1.145740e+002
<TRANSP> 5
 0.000000e+000 1.000000e+000 0.000000e+000 0.000000e+000 0.000000e+000
 0.000000e+000 8.765497e-001 1.234502e-001 0.000000e+000 0.000000e+000
 0.000000e+000 0.000000e+000 9.280182e-001 7.198177e-002 0.000000e+000
 0.000000e+000 0.000000e+000 0.000000e+000 9.864144e-001 1.358563e-002
 0.000000e+000 0.000000e+000 0.000000e+000 0.000000e+000 0.000000e+000
<ENDHMM>
~h "ijipteu"
<BEGINHMM>
<NUMSTATES> 5
<STATE> 2
<MEAN> 39
 -1.798040e+001 1.675715e+000 -8.147922e-001 -1.627012e-001 -8.001623e-001 -1.184789e-001 -8.944260e-001 2.404099e-001 -1.386358e+000 -1.204693e-001 -1.017541e+000 3.098488e-002 4.380091e+001 -2.293793e-001 1.125393e-001 5.314481e-001 -3.346485e-001 -6.329630e-002 -8.467440e-003 -4.074926e-001 2.216538e-001 -2.534501e-001 1.810796e-001 1.941330e-001 -7.907941e-002 2.271100e-001 4.591083e-003 9.628186e-002 3.009359e-001 -7.628399e-002 -1.373600e-001 1.067624e-001 -1.407430e-001 -4.656183e-002 -1.981019e-001 -2.699156e-002 7.679259e-002 -1.092618e-001 2.168312e-001
<VARIANCE> 39
 3.981763e+000 3.751380e+000 7.019054e+000 9.194485e+000 1.082390e+001 1.182147e+001 1.476219e+001 1.540540e+001 1.346992e+001 1.172183e+001 1.136741e+001 1.094254e+001 8.127100e+000 3.185264e-001 3.278235e-001 1.036036e+000 8.937746e-001 1.275616e+000 1.397066e+000 1.738991e+000 2.027361e+000 1.525222e+000 1.300349e+000 1.454541e+000 1.249696e+000 1.765908e-001 1.271886e-001 9.175458e-002 2.590439e-001 1.242539e-001 2.924432e-001 2.643052e-001 3.946567e-001 3.769214e-001 2.439799e-001 2.390473e-001 2.681714e-001 2.378123e-001 1.209169e-001
<GCONST> 7.979801e+001
<STATE> 3
<MEAN> 39
 -1.566357e+001 7.123082e+000 1.171112e+001 -2.905479e+000 -6.649485e+000 -5.057121e+000 -6.409424e+000 -3.630963e+000 -8.451196e+000 -2.316207e+000 4.533264e-001 -1.266966e+000 6.469241e+001 2.690706e-001 9.402873e-002 1.302679e-001 1.049308e-001 -1.145239e-001 -2.525765e-001 -6.842614e-002 -9.019381e-002 -6.443071e-002 -4.896539e-002 1.272127e-002 1.416847e-002 3.362797e-001 -3.220917e-002 -3.468724e-002 -1.158465e-001 7.241437e-003 4.956565e-002 2.350429e-003 3.087530e-002 6.443242e-003 4.876302e-002 1.555930e-002 -2.203547e-002 1.900105e-002 -1.158518e-001
<VARIANCE> 39
 5.954038e+001 4.444177e+001 7.806464e+001 3.414104e+001 7.326225e+001 4.977812e+001 4.837956e+001 3.916666e+001 3.463168e+001 3.173498e+001 2.533037e+001 2.416318e+001 1.164237e+002 6.012983e+000 4.148746e+000 7.340581e+000 3.479331e+000 8.390282e+000 3.426339e+000 5.031570e+000 2.884503e+000 3.668453e+000 2.840068e+000 2.504778e+000 2.179353e+000 1.168067e+001 9.553111e-001 8.180100e-001 9.632059e-001 6.826456e-001 1.384010e+000 6.496850e-001 8.282689e-001 5.921915e-001 6.370987e-001 5.279323e-001 4.746713e-001 4.120652e-001 1.464319e+000
<GCONST> 1.365358e+002
<STATE> 4
<MEAN> 39
 -1.228890e+001 1.012393e+000 -6.200996e-002 -4.084462e-001 -3.240647e+000 -4.423670e+000 -4.340759e+000 5.450613e-001 -2.215863e+000 1.220669e-001 -6.036825e-001 -1.083636e+000 5.644068e+001 -1.466423e-001 -8.153857e-002 -1.715711e-001 -3.790500e-002 8.406830e-002 1.717294e-001 1.024799e-001 1.403931e-002 1.017500e-001 -6.391996e-003 -6.226063e-002 -7.011773e-003 -2.546540e-001 2.100049e-002 8.247262e-003 2.833229e-002 -1.203091e-003 -2.015379e-002 -1.425644e-002 1.130372e-002 -5.659625e-003 -1.282168e-002 -1.794674e-002 -8.360916e-003 -2.729804e-003 4.203950e-002
<VARIANCE> 39
 5.074743e+001 2.037789e+001 3.216667e+001 2.046972e+001 3.666887e+001 5.462800e+001 6.531873e+001 3.868461e+001 2.939206e+001 2.673695e+001 3.432730e+001 3.711435e+001 1.564371e+002 1.690160e+000 1.469930e+000 1.965585e+000 1.843999e+000 2.305789e+000 2.431635e+000 3.522588e+000 2.252218e+000 1.814144e+000 1.958906e+000 1.917863e+000 1.845298e+000 4.531106e+000 2.074212e-001 2.627183e-001 3.149325e-001 3.298478e-001 3.943007e-001 4.083351e-001 5.673937e-001 3.963822e-001 3.245228e-001 3.435708e-001 3.436924e-001 3.229221e-001 6.587306e-001
<GCONST> 1.161485e+002
<TRANSP> 5
 0.000000e+000 1.000000e+000 0.000000e+000 0.000000e+000 0.000000e+000
 0.000000e+000 8.767965e-001 1.232035e-001 0.000000e+000 0.000000e+000
 0.000000e+000 0.000000e+000 9.708323e-001 2.916773e-002 0.000000e+000
 0.000000e+000 0.000000e+000 0.000000e+000 9.806572e-001 1.934277e-002
 0.000000e+000 0.000000e+000 0.000000e+000 0.000000e+000 0.000000e+000
<ENDHMM>
~h "gege"
<BEGINHMM>
<NUMSTATES> 5
<STATE> 2
<MEAN> 39
 -1.778708e+001 5.786321e-001 -2.135113e+000 4.574284e-002 -5.441014e-001 -4.831551e-001 -7.539313e-001 -2.220261e-001 -7.350479e-001 3.469317e-001 -8.590716e-001 5.049713e-002 4.452314e+001 1.315718e-001 -3.102213e-001 -5.717793e-001 -4.450140e-001 5.036301e-001 -2.877944e-001 -4.703223e-001 -1.579461e-001 -1.837928e-001 3.883939e-001 -2.982543e-001 1.387742e-001 9.725561e-001 8.738314e-002 -2.151560e-001 -2.977356e-001 -2.275891e-001 1.437461e-001 -1.448555e-001 -2.222789e-001 3.040401e-002 -1.444191e-002 1.996872e-001 -1.020007e-001 -6.114141e-002 5.862828e-001
<VARIANCE> 39
 4.926710e+000 9.529389e+000 8.969080e+000 1.859985e+001 1.340105e+001 1.587760e+001 1.536630e+001 1.504830e+001 1.888969e+001 1.660576e+001 1.173459e+001 1.151783e+001 1.261384e+001 6.912414e-001 2.032115e+000 2.724682e+000 2.808428e+000 2.258233e+000 2.164372e+000 2.413263e+000 1.867741e+000 2.215559e+000 3.000335e+000 1.835158e+000 1.646444e+000 6.216843e+000 1.076335e-001 3.130859e-001 3.083976e-001 4.706922e-001 4.034591e-001 4.295139e-001 4.407360e-001 3.833047e-001 4.514503e-001 4.895713e-001 3.415049e-001 2.995686e-001 9.306550e-001
<GCONST> 1.022185e+002
<STATE> 3
<MEAN> 39
 -1.291526e+001 -5.106402e+000 -5.409852e+000 -3.162415e+000 2.295208e+000 -9.132847e+000 -1.112361e+001 8.748028e-001 -2.736408e+000 6.111400e+000 -3.671105e+000 -1.146370e+000 6.813350e+001 1.119112e+000 5.062320e-001 1.893588e+000 3.303558e-001 -1.554139e+000 -5.676722e-001 -1.048673e+000 3.850329e-001 -8.497025e-001 -5.248042e-001 4.272349e-001 -4.644678e-001 1.819271e+000 -5.769675e-003 2.443208e-001 5.242715e-001 1.052153e-001 -5.036713e-001 2.173868e-001 1.817182e-001 2.731540e-002 -1.767446e-001 -2.795756e-001 2.505865e-001 -4.848749e-002 -4.586206e-001
<VARIANCE> 39
 3.735592e+001 3.281992e+001 9.783928e+001 5.063500e+001 6.097777e+001 4.352234e+001 4.127742e+001 2.121011e+001 3.833054e+001 6.074225e+001 3.269373e+001 3.273998e+001 2.396441e+001 4.141891e+000 4.419378e+000 7.774999e+000 6.686800e+000 6.422849e+000 5.130118e+000 4.011761e+000 2.599052e+000 5.022558e+000 6.361991e+000 3.647736e+000 2.497006e+000 9.317938e+000 9.807478e-001 8.094029e-001 1.244897e+000 1.400988e+000 6.694968e-001 7.865082e-001 7.794663e-001 4.988572e-001 7.642748e-001 9.205495e-001 5.291538e-001 4.139725e-001 1.702301e+000
<GCONST> 1.378648e+002
<STATE> 4
<MEAN> 39
 -1.030749e+001 5.066264e-001 8.099460e+000 -3.659873e+000 -1.196999e+001 -5.747629e+000 -3.608240e+000 1.995194e+000 -7.852679e+000 4.580619e-001 1.489597e+000 -1.979154e+000 6.470793e+001 -1.866440e-001 -3.331691e-003 -1.716795e-001 1.483091e-002 1.507522e-001 1.415509e-001 2.166231e-001 -5.582769e-002 1.399207e-001 -1.697879e-002 -2.385734e-002 6.476425e-002 -4.323923e-001 -1.138021e-002 -2.768328e-003 -2.687265e-002 1.833519e-002 4.685903e-002 9.367534e-004 9.501615e-003 -3.178942e-003 3.354346e-002 8.049473e-003 -1.652709e-002 3.604482e-003 -2.734505e-002
<VARIANCE> 39
 2.840137e+001 2.433391e+001 6.265231e+001 3.679517e+001 7.471521e+001 5.228289e+001 6.982059e+001 5.825992e+001 5.792446e+001 5.086025e+001 4.198931e+001 3.541505e+001 1.794897e+002 1.230684e+000 1.759819e+000 1.844478e+000 1.624740e+000 2.723692e+000 1.982266e+000 2.442313e+000 2.258469e+000 2.616225e+000 2.060041e+000 1.745366e+000 1.526746e+000 3.090985e+000 2.286420e-001 3.154036e-001 2.939167e-001 2.887691e-001 4.363117e-001 3.666222e-001 4.201701e-001 3.539033e-001 4.871493e-001 3.873673e-001 2.995819e-001 2.740830e-001 4.157354e-001
<GCONST> 1.182001e+002
<TRANSP> 5
 0.000000e+000 1.000000e+000 0.000000e+000 0.000000e+000 0.000000e+000
 0.000000e+000 9.077327e-001 9.226730e-002 0.000000e+000 0.000000e+000
 0.000000e+000 0.000000e+000 8.995771e-001 1.004229e-001 0.000000e+000
 0.000000e+000 0.000000e+000 0.000000e+000 9.856536e-001 1.434637e-002
 0.000000e+000 0.000000e+000 0.000000e+000 0.000000e+000 0.000000e+000
<ENDHMM>
~h "dwaesseubnida"
<BEGINHMM>
<NUMSTATES> 5
<STATE> 2
<MEAN> 39
 -1.796731e+001 8.255134e-001 -1.547300e+000 -2.877846e-002 -4.713552e-001 2.503080e-001 -2.221262e-001 2.364988e-001 -9.428906e-001 8.327053e-001 5.553268e-002 9.184991e-001 4.419663e+001 -2.432837e-002 -7.249369e-002 -5.917248e-003 -1.356811e-001 1.155993e-001 5.224046e-002 -8.042229e-004 9.442529e-002 -9.467513e-002 -1.011830e-001 2.317931e-002 -1.018999e-001 1.441270e-001 -5.970303e-003 -7.733171e-002 1.193052e-002 -2.274272e-001 -4.667009e-002 -1.538181e-001 6.563992e-004 -6.173018e-003 -3.887574e-002 -2.168472e-002 2.052432e-002 7.392518e-002 3.643677e-001
<VARIANCE> 39
 2.973337e+000 4.215939e+000 6.001688e+000 9.896564e+000 1.095259e+001 1.118222e+001 1.700674e+001 1.357287e+001 1.376553e+001 1.511869e+001 1.228853e+001 8.870067e+000 7.220660e+000 2.656934e-001 5.410699e-001 6.157401e-001 1.267541e+000 1.273992e+000 1.055993e+000 1.413378e+000 1.313096e+000 1.389798e+000 1.586467e+000 1.224281e+000 8.612987e-001 5.598179e-001 5.520513e-002 1.367223e-001 1.487600e-001 3.241955e-001 2.199673e-001 2.119088e-001 2.692629e-001 2.618985e-001 2.703895e-001 3.237098e-001 2.430840e-001 2.257640e-001 6.081221e-001
<GCONST> 8.006520e+001
<STATE> 3
<MEAN> 39
 -1.739221e+001 -2.501565e+000 -8.432182e-001 -5.757544e+000 -1.345829e+000 -6.632158e+000 -7.145898e-001 1.643890e+000 -1.943064e+000 1.461844e+000 -2.924987e-001 3.015166e+000 6.068505e+001 9.455709e-001 -3.284367e-001 6.178750e-001 -1.390918e-001 -7.672382e-001 -1.331329e+000 -2.270823e-001 6.978683e-001 -3.174752e-001 2.420029e-001 -5.008850e-001 1.796817e-001 3.401988e+000 4.361586e-001 2.296388e-001 2.138725e-001 3.355108e-001 -2.526263e-001 4.765723e-002 -2.389411e-001 9.134672e-002 -5.603220e-002 2.919243e-002 -7.950871e-002 -2.555982e-001 -2.605071e-001
<VARIANCE> 39
 1.065269e+001 2.222411e+001 1.507638e+001 4.560654e+001 2.330887e+001 3.218576e+001 2.223388e+001 2.608087e+001 2.104145e+001 2.154887e+001 2.043075e+001 2.649986e+001 1.454225e+002 3.258671e+000 2.853588e+000 2.645194e+000 8.846143e+000 3.484687e+000 4.034228e+000 3.123803e+000 2.836316e+000 2.904748e+000 3.272885e+000 2.105706e+000 4.838884e+000 1.412904e+001 3.919669e-001 4.872029e-001 4.367700e-001 1.662432e+000 6.439522e-001 8.081329e-001 5.048390e-001 5.699490e-001 4.858144e-001 6.258637e-001 3.987387e-001 8.000472e-001 2.936442e+000
<GCONST> 1.263497e+002
<STATE> 4
<MEAN> 39
 -1.079885e+001 9.799060e-001 -5.960823e-001 -3.889431e+000 -2.641594e+000 -3.616236e+000 -3.239841e+000 3.825126e-001 -2.455329e+000 -2.178431e-001 -3.828254e+000 -2.881837e+000 6.435271e+001 -7.643331e-002 3.346606e-002 -6.866157e-002 2.889505e-002 7.025900e-002 1.151689e-001 9.116607e-003 -7.003610e-002 2.233265e-002 -4.196149e-002 3.484995e-002 -2.337666e-002 -3.134406e-001 -3.676644e-002 -1.129745e-002 -2.225560e-002 -6.497303e-003 2.773888e-002 6.943755e-003 1.854720e-002 -1.115487e-002 8.110502e-003 -3.096800e-003 9.511407e-003 1.269299e-002 -1.735858e-002
<VARIANCE> 39
 8.700827e+001 3.682495e+001 7.414417e+001 4.289514e+001 8.201626e+001 6.019429e+001 3.792672e+001 5.235771e+001 4.855471e+001 2.980637e+001 4.008858e+001 4.535463e+001 1.310929e+002 4.739276e+000 1.941855e+000 2.976203e+000 3.006835e+000 3.837985e+000 2.877147e+000 2.940838e+000 3.149388e+000 2.822237e+000 2.056864e+000 2.489868e+000 2.407026e+000 3.072900e+000 6.524391e-001 3.135836e-001 4.482458e-001 5.225033e-001 6.432453e-001 5.285026e-001 5.485238e-001 5.514604e-001 4.805534e-001 3.904176e-001 4.363967e-001 4.299042e-001 4.703121e-001
<GCONST> 1.278680e+002
<TRANSP> 5
 0.000000e+000 1.000000e+000 0.000000e+000 0.000000e+000 0.000000e+000
 0.000000e+000 8.903701e-001 1.096299e-001 0.000000e+000 0.000000e+000
 0.000000e+000 0.000000e+000 8.638374e-001 1.361626e-001 0.000000e+000
 0.000000e+000 0.000000e+000 0.000000e+000 9.882539e-001 1.174616e-002
 0.000000e+000 0.000000e+000 0.000000e+000 0.000000e+000 0.000000e+000
<ENDHMM>
~h "yadangui"
<BEGINHMM>
<NUMSTATES> 5
<STATE> 2
<MEAN> 39
 -1.851568e+001 1.855369e+000 -1.621769e-001 -1.998396e+000 -1.141579e+000 -8.254412e-001 -5.394500e-001 4.272813e-001 -3.579183e+000 4.067611e-001 -8.439096e-001 -4.316615e-001 4.458773e+001 -4.395146e-002 2.872971e-001 5.957451e-001 -4.137215e-001 -2.160826e-002 -4.497684e-002 -2.176694e-001 2.470954e-001 -4.487542e-001 2.171446e-001 -3.546539e-003 -5.900899e-002 4.880300e-001 1.943863e-001 1.482157e-001 2.314330e-001 5.761138e-005 -7.738649e-002 -2.181513e-002 -8.053949e-002 8.158001e-002 -3.354283e-002 1.839156e-003 -3.205356e-002 1.940854e-002 2.618341e-001
<VARIANCE> 39
 5.979935e+000 5.491519e+000 1.151629e+001 1.805365e+001 2.334297e+001 1.190577e+001 1.593994e+001 2.065942e+001 1.829897e+001 1.521135e+001 1.389281e+001 1.580179e+001 1.335628e+001 5.679175e-001 8.116689e-001 1.314116e+000 2.076981e+000 1.679667e+000 1.418450e+000 1.847505e+000 2.120587e+000 1.451272e+000 1.210867e+000 1.446647e+000 1.597300e+000 5.891586e-001 1.901354e-001 1.267774e-001 1.799979e-001 3.077797e-001 2.662667e-001 3.595066e-001 3.768482e-001 3.928647e-001 2.873682e-001 1.939226e-001 2.745624e-001 3.050624e-001 2.255304e-001
<GCONST> 9.114682e+001
<STATE> 3
<MEAN> 39
 -5.789176e+000 -1.819850e+000 -6.249053e-001 -7.736669e+000 -4.070505e+000 -6.286770e+000 -5.332997e+000 4.612474e+000 -4.160794e-001 5.325572e-001 -7.302619e+000 -4.501533e+000 7.238399e+001 4.520090e-001 -2.630568e-001 -1.883336e-001 -1.116507e-001 -9.503927e-002 -1.204613e-001 -1.388815e-001 6.932181e-002 1.515278e-001 3.234441e-002 -2.215800e-001 -2.716936e-001 8.521869e-001 -4.725113e-002 -3.590832e-002 -3.958503e-002 1.206322e-004 1.293272e-002 3.268527e-002 4.123854e-002 -4.701136e-002 -1.159428e-002 3.553916e-003 1.634324e-002 -4.062219e-004 -9.779429e-002
<VARIANCE> 39
 2.603316e+001 5.042915e+001 6.329970e+001 4.302834e+001 6.279569e+001 5.787337e+001 4.625800e+001 4.827043e+001 5.127562e+001 3.371476e+001 5.613236e+001 4.568678e+001 9.919066e+001 2.799419e+000 4.277925e+000 4.400865e+000 3.192628e+000 4.536184e+000 3.873805e+000 3.818311e+000 3.983600e+000 3.427877e+000 2.874442e+000 3.762099e+000 3.147296e+000 1.089159e+001 4.925141e-001 6.537779e-001 7.448783e-001 5.839560e-001 7.656753e-001 7.416411e-001 7.064056e-001 6.772307e-001 6.418414e-001 5.785142e-001 6.794943e-001 5.772834e-001 1.562833e+000
<GCONST> 1.356900e+002
<STATE> 4
<MEAN> 39
 -8.990490e+000 2.420771e+000 5.223952e+000 -4.642130e+000 -8.589821e+000 -1.536991e+000 -3.276977e+000 -2.592225e-001 -6.468416e+000 1.902171e+000 -1.084028e+000 -4.139340e+000 6.043835e+001 -2.678030e-001 1.111770e-001 1.935501e-004 1.583687e-001 7.347558e-002 9.948854e-002 1.160368e-001 -1.059587e-001 -2.674472e-003 -6.654339e-002 1.676941e-001 1.909835e-001 -6.251473e-001 -9.669358e-005 2.428084e-004 -1.864242e-002 4.983745e-003 1.632111e-002 -7.966964e-003 -1.033913e-002 1.821939e-002 1.569847e-002 -9.054694e-003 -4.953276e-003 7.595560e-003 9.605769e-003
<VARIANCE> 39
 3.728334e+001 2.321598e+001 7.677330e+001 3.752154e+001 5.564423e+001 6.226430e+001 5.129206e+001 5.527287e+001 5.005953e+001 3.797281e+001 4.919529e+001 4.418409e+001 1.575680e+002 3.199366e-001 9.517908e-001 2.076158e+000 1.344588e+000 2.237277e+000 1.980867e+000 2.253870e+000 2.280908e+000 2.162430e+000 1.824009e+000 1.848137e+000 1.475199e+000 6.603497e-001 4.571773e-002 1.304329e-001 2.231888e-001 2.257674e-001 3.405520e-001 2.920831e-001 3.652023e-001 3.576240e-001 3.641158e-001 3.228460e-001 3.089855e-001 2.539953e-001 4.786356e-002
<GCONST> 1.075457e+002
<TRANSP> 5
 0.000000e+000 1.000000e+000 0.000000e+000 0.000000e+000 0.000000e+000
 0.000000e+000 8.969883e-001 1.030118e-001 0.000000e+000 0.000000e+000
 0.000000e+000 0.000000e+000 9.695867e-001 3.041332e-002 0.000000e+000
 0.000000e+000 0.000000e+000 0.000000e+000 9.807181e-001 1.928192e-002
 0.000000e+000 0.000000e+000 0.000000e+000 0.000000e+000 0.000000e+000
<ENDHMM>
~h "yokeondae"
<BEGINHMM>
<NUMSTATES> 5
<STATE> 2
<MEAN> 39
 -1.804856e+001 1.511512e+000 -6.618296e-001 -1.181752e+000 -1.881741e+000 -8.464297e-001 -1.160273e+000 -3.927803e-001 -1.649337e+000 -5.050519e-001 -3.420235e-001 3.295670e-001 4.421111e+001 2.382779e-002 9.182962e-002 4.988119e-001 -5.250125e-002 -1.128322e-002 1.609006e-001 -1.130120e-001 9.194123e-002 -3.135052e-001 1.993656e-001 7.418217e-002 -4.691951e-002 2.509550e-001 9.271865e-002 6.456149e-002 2.710534e-001 -1.181434e-003 -1.113160e-001 -4.462775e-003 -2.963847e-002 -1.443013e-002 -7.516721e-002 1.431227e-002 -1.363258e-002 -5.314048e-002 2.262443e-001
<VARIANCE> 39
 4.660782e+000 5.023665e+000 1.234140e+001 1.415417e+001 1.421408e+001 1.762831e+001 1.557758e+001 1.303900e+001 1.382394e+001 1.416883e+001 1.364975e+001 1.374404e+001 8.671926e+000 3.562998e-001 4.571506e-001 1.511690e+000 1.392356e+000 1.503202e+000 1.510707e+000 1.585275e+000 1.485059e+000 1.356809e+000 1.849548e+000 1.513306e+000 1.588794e+000 3.215351e-001 1.132398e-001 1.153262e-001 3.706013e-001 3.183134e-001 3.611319e-001 3.062983e-001 4.098357e-001 3.245042e-001 2.272850e-001 3.216686e-001 2.641213e-001 3.198196e-001 1.705449e-001
<GCONST> 8.722085e+001
<STATE> 3
<MEAN> 39
 -6.314143e+000 2.763893e+000 7.427519e-001 -5.851175e+000 -5.622406e+000 -1.323418e+000 -7.022594e+000 -2.494239e+000 -6.761870e+000 1.645477e+000 -1.600652e+000 -2.733794e+000 6.458773e+001 2.489175e-001 -7.838168e-002 4.616319e-002 -8.771876e-002 -2.273951e-001 -2.449648e-001 -1.074472e-001 1.049149e-001 1.831944e-002 2.344268e-003 8.536703e-003 -2.403591e-002 6.062671e-001 -5.333998e-003 -2.659304e-002 -3.529530e-002 -1.283638e-002 -1.243985e-002 -4.058726e-003 2.341786e-002 2.765886e-002 1.148531e-002 6.291323e-003 4.105229e-003 -7.310467e-003 -3.166331e-002
<VARIANCE> 39
 4.072564e+001 2.938943e+001 1.084694e+002 7.546072e+001 7.403089e+001 6.315509e+001 5.502054e+001 6.391209e+001 4.695475e+001 4.149571e+001 5.268930e+001 4.046114e+001 1.022497e+002 3.636930e+000 3.338909e+000 7.399556e+000 6.660412e+000 6.434838e+000 5.387003e+000 5.137358e+000 6.052903e+000 4.837234e+000 4.102221e+000 4.493319e+000 3.159010e+000 9.911959e+000 5.561353e-001 5.898593e-001 1.227703e+000 1.266693e+000 1.133494e+000 1.042050e+000 9.062770e-001 1.137546e+000 9.483840e-001 7.748680e-001 8.743054e-001 5.787085e-001 1.385583e+000
<GCONST> 1.444293e+002
<STATE> 4
<MEAN> 39
 -1.068066e+001 -8.701453e-001 1.475380e+000 -2.470405e+000 -7.368755e+000 -5.247903e+000 3.168601e-001 5.166076e+000 -3.074312e+000 -6.014684e-001 -1.619588e+000 -9.591981e-001 5.879467e+001 -3.208524e-001 6.305867e-002 -1.912262e-001 1.425019e-001 3.241114e-001 3.039721e-001 1.503891e-001 -1.363102e-001 3.607812e-002 -3.287484e-002 -1.821689e-002 7.985574e-002 -8.461681e-001 -1.440970e-002 2.140127e-002 -1.654234e-002 1.822748e-003 2.170911e-002 -9.011907e-003 -6.059940e-003 -1.957269e-002 -7.276423e-003 -1.201387e-002 7.807336e-003 2.809476e-002 -1.284549e-002
<VARIANCE> 39
 2.975998e+001 1.697571e+001 3.815467e+001 3.021258e+001 5.786820e+001 6.282822e+001 4.536585e+001 4.823600e+001 3.780351e+001 3.670707e+001 4.188136e+001 3.582359e+001 1.832428e+002 3.256420e-001 8.053522e-001 1.306705e+000 1.495749e+000 1.477670e+000 1.870090e+000 2.609064e+000 2.005324e+000 1.929625e+000 1.930541e+000 1.384640e+000 1.445620e+000 9.041209e-001 5.100874e-002 1.330602e-001 1.988956e-001 2.454333e-001 2.559931e-001 3.206363e-001 4.215075e-001 3.368591e-001 3.616187e-001 3.579869e-001 2.366200e-001 2.704896e-001 6.599402e-002
<GCONST> 1.045365e+002
<TRANSP> 5
 0.000000e+000 1.000000e+000 0.000000e+000 0.000000e+000 0.000000e+000
 0.000000e+000 8.855000e-001 1.145001e-001 0.000000e+000 0.000000e+000
 0.000000e+000 0.000000e+000 9.799228e-001 2.007717e-002 0.000000e+000
 0.000000e+000 0.000000e+000 0.000000e+000 9.739302e-001 2.606980e-002
 0.000000e+000 0.000000e+000 0.000000e+000 0.000000e+000 0.000000e+000
<ENDHMM>
~h "chungwadae"
<BEGINHMM>
<NUMSTATES> 5
<STATE> 2
<MEAN> 39
 -1.841749e+001 1.207452e+000 -1.276227e+000 -1.808458e+000 9.216405e-002 -9.684207e-001 -7.235002e-001 4.871091e-001 -1.247826e+000 6.014834e-001 3.622597e-001 1.478398e+000 4.553951e+001 -3.422801e-001 -1.905490e-001 5.415365e-002 -6.683893e-001 9.429395e-002 -2.667030e-001 -1.777644e-001 1.463781e-001 -2.084393e-001 1.944701e-001 1.066064e-001 -1.121400e-001 1.168143e+000 -1.866088e-001 -7.186358e-002 -6.754553e-002 -2.194243e-001 3.781267e-002 -2.131061e-002 -8.869293e-002 4.712494e-002 2.116941e-002 -4.239976e-003 1.280080e-002 -1.595455e-002 5.037137e-001
<VARIANCE> 39
 9.540397e+000 1.439972e+001 1.107211e+001 2.218815e+001 2.158866e+001 2.271628e+001 2.756222e+001 2.085598e+001 1.834022e+001 1.845385e+001 1.415714e+001 1.591015e+001 3.482199e+001 1.332591e+000 2.078913e+000 1.626837e+000 3.304121e+000 2.218866e+000 2.155432e+000 3.285255e+000 2.013575e+000 2.056734e+000 2.068298e+000 1.156215e+000 1.457767e+000 5.812980e+000 2.821757e-001 3.457915e-001 3.106607e-001 4.684312e-001 4.076695e-001 3.875850e-001 5.707018e-001 4.070900e-001 4.139841e-001 3.586167e-001 2.120972e-001 2.805852e-001 6.973418e-001
<GCONST> 1.066814e+002
<STATE> 3
<MEAN> 39
 -7.211081e+000 -1.431616e+000 -3.724631e+000 -1.050020e+001 -4.220876e+000 1.755637e-002 -4.919046e+000 -9.691611e-002 -1.965062e+000 4.232242e-002 -4.321430e+000 -3.748167e+000 7.213511e+001 3.710227e-001 -3.845911e-002 1.747924e-001 3.146118e-002 -3.304850e-001 -2.577808e-001 -1.261029e-001 9.563427e-002 -1.539235e-002 -2.141034e-003 -9.282421e-002 -6.018003e-002 5.089003e-001 6.409872e-002 -1.027397e-002 2.901207e-002 5.054800e-002 -4.453132e-002 2.005492e-002 2.661048e-002 2.833598e-002 -2.486306e-003 -4.104421e-003 6.043450e-003 -9.946778e-003 -1.139122e-001
<VARIANCE> 39
 9.535313e+001 3.654585e+001 3.759364e+001 5.245631e+001 7.708873e+001 8.609426e+001 4.139279e+001 4.503313e+001 4.548925e+001 3.498254e+001 4.847480e+001 5.417781e+001 5.543137e+001 4.557498e+000 3.578500e+000 2.865960e+000 3.744852e+000 5.740345e+000 5.350234e+000 3.829808e+000 4.618258e+000 3.898301e+000 3.101833e+000 4.089819e+000 3.653833e+000 7.843198e+000 6.922455e-001 6.422831e-001 4.781760e-001 6.638085e-001 9.014674e-001 9.381731e-001 7.515213e-001 8.473446e-001 7.596448e-001 5.879008e-001 7.453817e-001 6.775571e-001 1.344774e+000
<GCONST> 1.379609e+002
<STATE> 4
<MEAN> 39
 -1.097484e+001 -1.391351e+000 1.588200e+000 -3.104863e+000 -6.427189e+000 -5.575292e+000 -1.002198e+000 5.669593e+000 -2.556294e+000 -6.018366e-001 -2.328938e+000 -8.371793e-001 6.035533e+001 -3.037375e-001 8.604387e-002 -1.872883e-001 1.783705e-001 3.071033e-001 3.142177e-001 1.912635e-001 -1.507472e-001 6.642142e-002 -2.082932e-002 7.896537e-002 8.020864e-002 -8.809043e-001 -1.921828e-002 3.086719e-002 -1.939012e-002 1.104101e-002 4.284559e-002 -5.301819e-003 -2.068942e-003 -5.073130e-002 8.236356e-003 7.219569e-004 1.970696e-003 1.469017e-002 -2.505802e-002
<VARIANCE> 39
 2.992570e+001 1.382815e+001 3.651107e+001 3.502897e+001 6.507021e+001 5.682543e+001 5.042618e+001 4.381424e+001 3.523169e+001 3.497306e+001 4.203552e+001 3.563415e+001 2.043170e+002 4.094660e-001 8.688870e-001 1.238151e+000 1.619562e+000 1.943790e+000 1.822154e+000 2.572629e+000 1.987229e+000 1.576110e+000 1.416083e+000 1.676708e+000 1.296522e+000 9.454188e-001 6.460050e-002 1.524282e-001 2.065900e-001 2.863149e-001 3.589628e-001 3.325101e-001 4.286452e-001 3.372355e-001 2.954979e-001 2.467781e-001 2.970877e-001 2.315200e-001 9.216152e-002
<GCONST> 1.054149e+002
<TRANSP> 5
 0.000000e+000 1.000000e+000 0.000000e+000 0.000000e+000 0.000000e+000
 0.000000e+000 9.094238e-001 9.057624e-002 0.000000e+000 0.000000e+000
 0.000000e+000 0.000000e+000 9.755366e-001 2.446335e-002 0.000000e+000
 0.000000e+000 0.000000e+000 0.000000e+000 9.744129e-001 2.558716e-002
 0.000000e+000 0.000000e+000 0.000000e+000 0.000000e+000 0.000000e+000
<ENDHMM>
~h "computer"
<BEGINHMM>
<NUMSTATES> 5
<STATE> 2
<MEAN> 39
 -1.806362e+001 8.253574e-001 -1.684820e+000 3.749759e-001 -1.179923e-001 1.202251e-001 -1.247683e-001 -7.121434e-001 -8.245167e-001 4.771193e-001 -5.484568e-001 1.193320e-001 4.423420e+001 -2.751138e-003 1.529852e-002 -3.282638e-002 -4.796774e-002 2.222611e-002 9.670214e-002 -9.016994e-002 -2.337053e-001 7.083689e-002 1.930719e-001 1.071539e-001 9.574837e-002 6.675602e-002 2.522237e-002 -1.821159e-003 -1.819965e-001 -1.868604e-001 1.211431e-001 -5.951711e-002 -1.164421e-001 -2.312651e-002 -1.038257e-001 9.686547e-002 -3.880386e-002 -5.320245e-002 2.703597e-001
<VARIANCE> 39
 3.460880e+000 5.715681e+000 6.591063e+000 7.202322e+000 1.351259e+001 1.584622e+001 1.239578e+001 1.281064e+001 1.614408e+001 1.618364e+001 1.366109e+001 1.059562e+001 8.457936e+000 2.142244e-001 4.866533e-001 5.323098e-001 6.417090e-001 1.331800e+000 1.409881e+000 1.359156e+000 1.296303e+000 1.769780e+000 1.509527e+000 1.799389e+000 1.515825e+000 3.067830e-001 7.621684e-002 1.214976e-001 2.873347e-001 2.554232e-001 3.273479e-001 2.728868e-001 2.843369e-001 2.661165e-001 3.538468e-001 3.268578e-001 3.268771e-001 2.584984e-001 3.886315e-001
<GCONST> 8.243357e+001
<STATE> 3
<MEAN> 39
