~o
<STREAMINFO> 1 39
<VECSIZE> 39<NULLD><MFCC_D_A_0><DIAGC>
~h "dangnyobyung"
<BEGINHMM>
<NUMSTATES> 5
<STATE> 2
<MEAN> 39
 -1.697092e+001 9.883796e-002 -2.232120e+000 -1.067830e+000 -5.909100e-001 -1.027059e+000 -4.729927e-001 -2.474172e-001 -1.127756e+000 7.790020e-001 -1.012483e+000 1.368948e-001 4.858125e+001 1.506729e-001 -2.203756e-001 -8.679279e-002 -1.428273e-001 -2.941753e-002 -2.664353e-002 2.379554e-001 2.350537e-001 -1.805544e-001 -1.247359e-001 -2.246295e-001 -1.642927e-001 8.276766e-001 4.325725e-002 -2.950135e-002 2.623411e-003 -4.374677e-002 3.594574e-002 -1.901928e-002 -9.377359e-002 -1.794299e-002 8.877213e-002 7.530650e-002 3.499939e-002 2.694352e-002 9.234708e-002
<VARIANCE> 39
 2.130511e+001 1.304511e+001 1.443637e+001 2.072105e+001 1.905016e+001 2.360707e+001 1.783967e+001 1.979601e+001 2.153769e+001 1.876175e+001 2.073082e+001 2.002550e+001 1.081414e+002 1.208906e+000 1.127240e+000 1.424496e+000 1.807387e+000 1.917788e+000 2.471224e+000 1.715456e+000 2.181724e+000 2.364107e+000 2.557480e+000 2.266753e+000 2.181206e+000 4.772284e+000 2.057320e-001 2.101331e-001 2.621270e-001 3.384327e-001 3.188615e-001 4.684726e-001 2.945582e-001 4.003723e-001 4.457992e-001 4.541458e-001 3.986804e-001 3.835194e-001 8.053653e-001
<GCONST> 1.074919e+002
<STATE> 3
<MEAN> 39
 -1.395042e+001 -1.340058e+000 -2.225821e+000 -2.813960e+000 -9.567927e-001 -1.904942e+000 -7.831702e-001 3.991759e-002 -1.762386e+000 1.245721e+000 -2.427948e+000 -1.254441e+000 5.703698e+001 4.551516e-001 -2.002593e-001 1.007128e-002 -2.552375e-001 -5.474576e-002 -1.335295e-001 -7.164741e-002 2.029337e-002 -8.209945e-002 8.330238e-002 -1.994098e-001 -2.004748e-001 1.230457e+000 4.268059e-002 6.129682e-003 1.459253e-002 -1.291219e-002 -7.919150e-003 -1.428453e-002 -3.774450e-002 -3.075507e-002 5.695196e-003 2.439021e-002 8.824472e-005 -8.438489e-003 5.315864e-002
<VARIANCE> 39
 5.522543e+001 2.192994e+001 3.209486e+001 3.302325e+001 4.207647e+001 3.610793e+001 3.302465e+001 3.056894e+001 3.722533e+001 2.464298e+001 3.572254e+001 3.422717e+001 1.759104e+002 2.233699e+000 2.002404e+000 2.522905e+000 3.012935e+000 3.518042e+000 3.502929e+000 2.667195e+000 3.297941e+000 3.274142e+000 2.987297e+000 3.238809e+000 2.907767e+000 7.963827e+000 3.786747e-001 3.786668e-001 4.489854e-001 6.089136e-001 6.195796e-001 7.014084e-001 4.811920e-001 6.485380e-001 6.239697e-001 6.432303e-001 6.406516e-001 5.706397e-001 1.359912e+000
<GCONST> 1.270473e+002
<STATE> 4
<MEAN> 39
 -7.990864e+000 5.375288e-002 4.311490e-002 -3.627025e+000 -4.625952e+000 -8.060140e-001 -3.912453e+000 -7.566617e-001 -3.663116e+000 -2.824657e-003 -2.633759e+000 -2.180058e+000 6.058089e+001 -4.819920e-002 2.844518e-002 -8.713132e-003 3.271182e-002 2.402805e-003 2.289450e-002 -4.911333e-003 -1.262420e-002 8.999099e-003 -6.284638e-003 3.470860e-002 1.005355e-002 -1.624262e-001 -5.667851e-003 2.020783e-003 3.943667e-004 6.709482e-003 1.374619e-003 8.225614e-004 -3.846622e-005 -2.584636e-003 3.223871e-003 4.328926e-003 2.768455e-003 6.032179e-004 -1.529973e-002
<VARIANCE> 39
 5.550491e+001 2.626863e+001 4.828695e+001 4.144535e+001 5.853298e+001 5.792854e+001 5.028939e+001 4.550637e+001 3.817306e+001 3.864775e+001 4.851905e+001 4.393713e+001 1.585539e+002 2.133366e+000 1.825960e+000 3.354384e+000 2.886918e+000 3.979794e+000 3.534825e+000 3.061594e+000 3.487016e+000 3.143337e+000 2.950945e+000 3.369923e+000 2.799097e+000 5.372258e+000 2.924211e-001 3.150713e-001 5.344476e-001 5.171304e-001 6.635954e-001 6.115335e-001 5.321841e-001 6.269351e-001 5.942068e-001 5.698928e-001 6.516483e-001 5.072758e-001 5.973455e-001
<GCONST> 1.288754e+002
<TRANSP> 5
 0.000000e+000 1.000000e+000 0.000000e+000 0.000000e+000 0.000000e+000
 0.000000e+000 8.571380e-001 1.428620e-001 0.000000e+000 0.000000e+000
 0.000000e+000 0.000000e+000 8.571379e-001 1.428621e-001 0.000000e+000
 0.000000e+000 0.000000e+000 0.000000e+000 9.884260e-001 1.157402e-002
 0.000000e+000 0.000000e+000 0.000000e+000 0.000000e+000 0.000000e+000
<ENDHMM>
~h "nuwoseo"
<BEGINHMM>
<NUMSTATES> 5
<STATE> 2
<MEAN> 39
 -1.527582e+001 2.590588e+000 7.374277e-001 -5.592679e-001 -1.911557e+000 -4.368043e-001 -2.651504e+000 -2.388139e+000 -2.822771e+000 -1.253468e-001 -8.943211e-001 -1.089267e+000 4.824567e+001 2.815940e-001 1.470481e-001 3.201632e-001 -3.416483e-002 -8.719381e-002 2.501043e-002 -2.638615e-001 -2.609189e-001 -1.915003e-001 -1.107426e-001 -6.604788e-002 -2.393391e-001 6.494106e-001 8.448715e-002 3.041245e-002 -3.051302e-003 -4.376508e-002 -2.842363e-002 1.934228e-002 -3.821991e-003 7.098832e-003 -2.174101e-002 -4.963097e-002 1.408726e-002 2.490494e-002 9.155194e-002
<VARIANCE> 39
 3.843530e+001 1.922846e+001 1.785709e+001 3.248917e+001 2.538123e+001 2.423882e+001 2.864103e+001 2.467576e+001 2.735675e+001 1.984830e+001 2.521373e+001 1.798964e+001 8.387424e+001 2.065976e+000 1.807907e+000 1.555864e+000 2.383852e+000 2.163084e+000 2.196126e+000 2.865038e+000 2.442833e+000 2.282944e+000 1.994887e+000 2.557830e+000 1.765113e+000 2.616760e+000 3.548356e-001 3.543906e-001 2.833580e-001 4.174202e-001 3.965566e-001 4.046326e-001 5.610352e-001 4.075382e-001 4.046997e-001 3.904379e-001 4.872962e-001 3.137518e-001 3.851095e-001
<GCONST> 1.123991e+002
<STATE> 3
<MEAN> 39
 -1.075146e+001 4.027592e+000 1.858348e+000 -3.582491e+000 -3.472287e+000 5.044271e-001 -4.703749e+000 -3.962383e+000 -4.848291e+000 -1.090503e+000 -2.282992e-001 -2.282477e+000 5.621658e+001 6.754795e-001 2.078422e-001 1.411916e-001 -4.676099e-001 -2.349840e-001 1.442368e-001 -2.911600e-001 -2.181052e-001 -2.968743e-001 -1.381421e-001 1.105572e-001 -1.623171e-001 1.173858e+000 5.209989e-002 6.064379e-003 -2.786489e-002 -6.275975e-002 -1.973751e-002 1.649605e-002 -4.300588e-003 5.704977e-003 -1.460513e-002 1.132479e-004 2.581201e-002 9.284558e-003 7.171343e-002
<VARIANCE> 39
 7.609021e+001 3.081207e+001 2.749510e+001 7.735881e+001 4.523050e+001 4.570197e+001 4.608487e+001 4.056673e+001 4.834668e+001 3.393173e+001 3.936194e+001 2.574824e+001 1.558954e+002 3.314502e+000 2.612443e+000 2.500688e+000 3.545380e+000 3.489246e+000 3.538663e+000 4.197403e+000 3.320520e+000 3.106833e+000 2.838593e+000 3.247163e+000 2.098898e+000 4.407978e+000 5.836825e-001 4.955689e-001 4.481536e-001 6.223879e-001 6.391481e-001 6.725793e-001 8.425226e-001 6.343608e-001 5.294112e-001 5.502404e-001 6.308910e-001 3.828074e-001 7.114560e-001
<GCONST> 1.297256e+002
<STATE> 4
<MEAN> 39
 -7.863327e+000 2.377658e+000 -3.463327e+000 -1.051910e+001 -2.671756e+000 4.037502e+000 -3.904688e+000 -2.287388e+000 -4.171544e+000 3.036838e-001 1.151217e+000 -2.937561e+000 6.361131e+001 -9.457531e-002 -3.504455e-002 -4.480566e-002 6.063970e-002 3.706916e-002 -7.161863e-003 5.718176e-002 3.969611e-002 5.631950e-002 1.577251e-002 2.898472e-003 3.780784e-002 -1.722057e-001 -7.002022e-003 -1.988648e-003 1.008008e-004 6.802937e-003 3.933435e-003 -5.389384e-005 6.962338e-003 3.467087e-003 7.318624e-003 5.475983e-003 -8.093141e-004 -2.530393e-004 -1.509387e-002
<VARIANCE> 39
 9.550986e+001 2.783442e+001 2.912567e+001 9.141594e+001 5.865200e+001 6.766734e+001 6.016348e+001 4.091537e+001 4.970619e+001 4.899280e+001 5.744138e+001 3.969868e+001 1.478933e+002 4.413307e+000 1.545732e+000 1.586036e+000 3.356024e+000 2.800178e+000 3.475645e+000 3.634480e+000 2.600350e+000 2.490360e+000 2.698822e+000 2.939408e+000 2.129987e+000 1.910417e+000 5.263622e-001 2.622393e-001 2.683247e-001 4.300112e-001 4.254827e-001 5.123255e-001 6.219455e-001 4.657348e-001 4.020486e-001 4.415470e-001 5.082784e-001 3.593577e-001 2.049256e-001
<GCONST> 1.246554e+002
<TRANSP> 5
 0.000000e+000 1.000000e+000 0.000000e+000 0.000000e+000 0.000000e+000
 0.000000e+000 8.571262e-001 1.428737e-001 0.000000e+000 0.000000e+000
 0.000000e+000 0.000000e+000 8.571260e-001 1.428740e-001 0.000000e+000
 0.000000e+000 0.000000e+000 0.000000e+000 9.873018e-001 1.269815e-002
 0.000000e+000 0.000000e+000 0.000000e+000 0.000000e+000 0.000000e+000
<ENDHMM>
~h "teukyereul"
<BEGINHMM>
<NUMSTATES> 5
<STATE> 2
<MEAN> 39
 -1.780862e+001 2.778592e-001 -1.429307e+000 -1.114360e-001 -4.818534e-001 -9.850032e-001 -3.799973e-001 -3.479373e-001 -1.629913e+000 3.433310e-002 -8.510606e-002 8.211300e-001 4.804500e+001 7.945293e-002 7.175653e-002 3.545864e-002 -1.648417e-001 -1.480688e-001 -3.093638e-001 -7.500476e-002 -3.133201e-002 -1.164123e-001 -7.126340e-002 -1.809431e-002 1.305688e-001 5.558316e-001 -1.313065e-003 -4.472800e-002 6.904720e-003 2.918013e-002 1.977182e-002 -5.322691e-002 -9.819247e-003 1.193946e-002 1.380341e-002 8.222155e-002 1.394781e-002 -7.516696e-002 1.008116e-001
<VARIANCE> 39
 1.075699e+001 1.164179e+001 1.446538e+001 1.716885e+001 1.879578e+001 3.072092e+001 1.859188e+001 2.128260e+001 1.842348e+001 1.732210e+001 1.550835e+001 1.648249e+001 9.631568e+001 1.065967e+000 1.448650e+000 1.714721e+000 2.433477e+000 2.056637e+000 2.255467e+000 2.026454e+000 2.610946e+000 2.049981e+000 1.939080e+000 1.858833e+000 2.340145e+000 7.613033e+000 2.002115e-001 2.288740e-001 3.096251e-001 4.747154e-001 3.772459e-001 3.738417e-001 3.689426e-001 4.962739e-001 3.854480e-001 3.896657e-001 3.374291e-001 4.315576e-001 1.283006e+000
<GCONST> 1.079516e+002
<STATE> 3
<MEAN> 39
 -1.705058e+001 1.030675e-002 -3.202070e-001 -9.468281e-001 -1.844464e+000 -3.962839e+000 -1.216406e+000 -6.960078e-002 -2.376481e+000 8.664826e-001 -8.118708e-002 1.011642e+000 5.439931e+001 1.095747e-001 -4.860837e-002 1.707223e-001 -1.140049e-001 -1.981121e-001 -4.311380e-001 -1.232383e-001 4.990518e-002 -1.031991e-001 1.333947e-001 1.092874e-003 1.727074e-002 9.315419e-001 4.933340e-003 -1.360666e-002 2.029490e-002 4.953334e-003 -9.860662e-003 -1.322552e-002 -6.548834e-003 1.098445e-002 3.522377e-004 2.301707e-002 1.579110e-003 -9.465740e-003 4.739193e-002
<VARIANCE> 39
 2.525134e+001 1.660772e+001 2.468867e+001 2.621019e+001 3.178670e+001 5.005384e+001 3.159400e+001 2.920847e+001 2.720534e+001 2.325880e+001 1.961281e+001 2.265224e+001 1.765301e+002 2.333730e+000 1.946159e+000 2.344003e+000 3.290145e+000 2.514933e+000 3.816107e+000 2.951113e+000 3.092182e+000 2.947461e+000 2.754980e+000 2.319046e+000 2.744942e+000 1.512031e+001 4.428301e-001 3.637047e-001 4.807034e-001 6.795412e-001 5.074040e-001 6.491208e-001 5.779657e-001 6.255958e-001 6.132756e-001 5.687207e-001 4.827129e-001 5.807415e-001 2.511341e+000
<GCONST> 1.243210e+002
<STATE> 4
<MEAN> 39
 -1.046415e+001 -1.968021e+000 3.706736e+000 -1.056004e+000 -8.031397e+000 -6.066130e+000 -4.203044e+000 4.443627e-001 -8.648794e-001 7.444332e-002 -1.964825e+000 2.333294e-001 6.198385e+001 -1.231654e-002 6.275317e-003 -1.574891e-002 1.727037e-002 7.040037e-003 3.044630e-002 8.998155e-003 -1.606859e-003 1.786604e-002 -3.781505e-003 2.222292e-004 -3.909178e-003 -1.400117e-001 -2.822262e-003 -4.294953e-004 -1.855869e-003 3.031724e-003 2.801366e-003 1.872139e-003 3.706308e-003 -2.481815e-003 -1.784311e-003 2.180088e-003 3.193693e-003 1.501416e-004 -1.247769e-002
<VARIANCE> 39
 6.470478e+001 2.711144e+001 3.910818e+001 3.795838e+001 6.067279e+001 4.605162e+001 5.504993e+001 4.237038e+001 4.198646e+001 3.311012e+001 3.680364e+001 2.600480e+001 1.778146e+002 2.280602e+000 2.026148e+000 1.962946e+000 2.730676e+000 2.658906e+000 2.682354e+000 3.270395e+000 2.994781e+000 2.797953e+000 2.630734e+000 2.161446e+000 2.086282e+000 6.996276e+000 3.545455e-001 3.820145e-001 3.449134e-001 4.961444e-001 4.711234e-001 4.663397e-001 5.847641e-001 5.349506e-001 5.172436e-001 4.994320e-001 3.949455e-001 3.874879e-001 1.064622e+000
<GCONST> 1.247151e+002
<TRANSP> 5
 0.000000e+000 1.000000e+000 0.000000e+000 0.000000e+000 0.000000e+000
 0.000000e+000 8.571275e-001 1.428726e-001 0.000000e+000 0.000000e+000
 0.000000e+000 0.000000e+000 8.571271e-001 1.428729e-001 0.000000e+000
 0.000000e+000 0.000000e+000 0.000000e+000 9.871715e-001 1.282849e-002
 0.000000e+000 0.000000e+000 0.000000e+000 0.000000e+000 0.000000e+000
<ENDHMM>
~h "uiyogeul"
<BEGINHMM>
<NUMSTATES> 5
<STATE> 2
<MEAN> 39
 -1.525735e+001 1.755776e+000 -6.413401e-001 -7.091179e-001 -1.434562e+000 -6.038587e-001 -4.316036e+000 -1.149997e-001 -2.933708e+000 7.062032e-001 5.020994e-001 -1.673083e+000 4.869194e+001 4.419776e-001 1.778274e-001 2.013289e-001 -6.796923e-002 -1.952471e-001 -1.500671e-001 -5.370098e-001 -1.402412e-001 -3.211820e-001 1.938965e-001 1.114573e-001 -3.859981e-001 7.501534e-001 6.183295e-002 -6.424642e-003 5.226748e-002 -6.179394e-002 -2.861439e-002 -2.818543e-003 -7.126083e-002 9.676250e-003 -8.327147e-002 1.756019e-002 2.204262e-002 -4.661634e-002 1.282997e-001
<VARIANCE> 39
 3.671317e+001 1.169783e+001 3.861386e+001 2.296016e+001 3.863402e+001 2.478852e+001 5.202137e+001 3.421091e+001 4.036425e+001 2.806825e+001 2.483526e+001 2.648539e+001 9.776260e+001 2.058765e+000 1.110807e+000 1.946544e+000 2.104861e+000 2.405411e+000 1.770651e+000 2.969296e+000 3.102479e+000 2.388654e+000 2.016322e+000 1.828849e+000 1.934636e+000 2.486777e+000 3.223802e-001 2.209183e-001 2.639006e-001 3.684177e-001 4.157473e-001 2.948349e-001 5.057896e-001 5.912653e-001 3.894988e-001 3.301921e-001 2.878021e-001 3.541095e-001 3.004090e-001
<GCONST> 1.128174e+002
<STATE> 3
<MEAN> 39
 -1.055940e+001 2.678310e+000 3.025544e+000 -2.026283e+000 -5.066411e+000 -1.692702e+000 -8.913005e+000 -1.380930e+000 -6.847422e+000 1.252307e+000 2.013304e+000 -4.314707e+000 5.750747e+001 6.863119e-001 1.254744e-001 5.513164e-001 -1.964232e-001 -5.456701e-001 -1.547651e-001 -6.599626e-001 -1.848319e-001 -5.770838e-001 6.343023e-002 2.232273e-001 -3.704818e-001 1.293877e+000 3.135463e-002 -7.702770e-003 4.862366e-002 -1.310599e-002 -5.129872e-002 -5.562357e-004 -1.169793e-002 -7.212947e-003 -3.057182e-002 -2.211540e-002 1.487406e-002 6.813195e-003 7.104736e-002
<VARIANCE> 39
 5.700389e+001 2.070734e+001 8.399043e+001 3.803513e+001 8.089879e+001 4.231736e+001 7.502384e+001 5.635187e+001 7.129697e+001 4.669060e+001 4.239960e+001 3.700893e+001 1.721581e+002 3.091664e+000 1.783650e+000 3.039645e+000 2.892064e+000 3.557904e+000 2.716743e+000 4.462758e+000 3.869868e+000 3.267597e+000 2.727027e+000 2.216323e+000 2.486889e+000 3.859840e+000 5.042586e-001 3.349244e-001 3.944417e-001 5.294350e-001 5.819578e-001 4.804146e-001 7.779032e-001 7.588106e-001 5.549365e-001 4.327179e-001 3.770292e-001 4.467150e-001 5.010246e-001
<GCONST> 1.291231e+002
<STATE> 4
<MEAN> 39
 -6.324885e+000 1.480551e+000 3.722911e+000 -2.457384e+000 -8.047835e+000 -2.656036e+000 -9.373068e+000 -1.532381e+000 -5.944107e+000 1.025955e-001 6.181039e-001 -2.688308e+000 6.238335e+001 -9.696050e-002 -1.418912e-002 -5.651544e-002 3.154287e-002 5.200946e-002 1.594898e-002 1.035424e-001 1.036626e-003 5.437739e-002 -2.410587e-002 -2.954414e-002 5.737815e-002 -1.897257e-001 -1.031543e-002 -1.639466e-003 -6.400171e-003 1.989370e-003 5.193481e-003 1.541675e-003 8.520464e-003 3.625060e-003 2.637207e-003 1.130535e-003 -2.247162e-003 3.074401e-004 -1.866379e-002
<VARIANCE> 39
 4.664061e+001 3.585949e+001 7.729345e+001 5.853600e+001 6.768407e+001 5.176581e+001 8.663935e+001 5.003868e+001 9.867677e+001 4.971160e+001 6.096922e+001 4.214475e+001 1.422698e+002 1.286387e+000 1.695974e+000 3.205827e+000 2.856153e+000 3.170627e+000 2.615887e+000 3.989180e+000 2.795947e+000 3.688022e+000 2.769720e+000 2.846835e+000 2.364257e+000 2.889743e+000 1.704238e-001 2.387237e-001 3.940135e-001 4.637927e-001 4.756278e-001 4.310753e-001 6.059573e-001 5.181826e-001 5.880882e-001 4.457716e-001 4.832119e-001 4.219858e-001 2.897584e-001
<GCONST> 1.263613e+002
<TRANSP> 5
 0.000000e+000 1.000000e+000 0.000000e+000 0.000000e+000 0.000000e+000
 0.000000e+000 8.571289e-001 1.428711e-001 0.000000e+000 0.000000e+000
 0.000000e+000 0.000000e+000 8.571285e-001 1.428715e-001 0.000000e+000
 0.000000e+000 0.000000e+000 0.000000e+000 9.872532e-001 1.274675e-002
 0.000000e+000 0.000000e+000 0.000000e+000 0.000000e+000 0.000000e+000
<ENDHMM>
~h "software"
<BEGINHMM>
<NUMSTATES> 5
<STATE> 2
<MEAN> 39
 -1.807779e+001 3.205757e-001 -2.575603e+000 -2.427787e+000 -5.904892e-001 -2.477046e+000 -2.290997e+000 9.224523e-001 2.246282e-001 1.437162e-001 -9.097121e-001 2.472890e-001 4.846929e+001 -1.963100e-001 -6.748438e-002 -2.516409e-002 -3.633591e-001 3.737713e-001 -8.664668e-002 -1.455484e-001 -7.333358e-002 -1.386956e-001 -1.251977e-002 -1.062679e-001 -3.643792e-002 6.484398e-001 2.693565e-003 4.264568e-002 3.607953e-003 -6.733914e-002 -3.691119e-002 -5.069491e-002 2.307747e-002 3.848833e-002 -1.858556e-003 1.566333e-002 3.480088e-002 -3.663233e-003 9.448303e-002
<VARIANCE> 39
 3.253799e+001 1.484291e+001 1.444922e+001 2.901833e+001 2.204644e+001 2.630417e+001 3.040159e+001 2.168256e+001 2.498078e+001 1.744015e+001 1.663139e+001 1.465084e+001 7.160909e+001 2.674952e+000 1.551328e+000 1.048113e+000 2.272428e+000 2.011917e+000 2.244853e+000 2.607135e+000 2.077526e+000 2.252502e+000 1.876091e+000 1.394969e+000 1.681260e+000 2.619323e+000 4.170548e-001 2.848693e-001 1.836687e-001 4.464909e-001 3.834530e-001 4.029466e-001 5.170645e-001 3.241887e-001 4.453902e-001 3.665565e-001 2.406628e-001 2.930062e-001 3.798574e-001
<GCONST> 1.076211e+002
<STATE> 3
<MEAN> 39
 -1.845234e+001 7.348459e-001 -2.438109e+000 -5.657329e+000 4.930062e-001 -3.359331e+000 -3.831660e+000 4.071659e-001 -9.667681e-001 6.220995e-001 -8.163304e-001 -7.788575e-002 5.520915e+001 -3.759197e-002 7.095973e-002 2.400004e-002 -4.649607e-001 1.301370e-001 -1.275501e-001 -2.273157e-001 -7.383160e-002 -1.719824e-001 7.608781e-002 2.639138e-002 -4.588271e-002 9.817280e-001 2.456787e-002 1.709636e-002 7.294730e-003 -8.512226e-003 -3.375600e-002 -6.154269e-004 -1.494589e-002 -4.004251e-003 -4.925681e-003 1.200956e-002 1.696972e-002 -1.170785e-003 4.152388e-002
<VARIANCE> 39
 7.990004e+001 2.006360e+001 1.944838e+001 4.520950e+001 3.291658e+001 3.995887e+001 4.737193e+001 3.421116e+001 3.216410e+001 2.272396e+001 2.341957e+001 2.084933e+001 1.197016e+002 6.465604e+000 2.378512e+000 1.538566e+000 3.968858e+000 3.082299e+000 3.725583e+000 4.173466e+000 2.947608e+000 3.100190e+000 2.434153e+000 2.197260e+000 2.298460e+000 5.522256e+000 9.073802e-001 4.697950e-001 2.706913e-001 8.153620e-001 5.696145e-001 6.976125e-001 7.573980e-001 5.066990e-001 6.301723e-001 4.886101e-001 4.218216e-001 4.511382e-001 8.544074e-001
<GCONST> 1.255822e+002
<STATE> 4
<MEAN> 39
 -9.464401e+000 -9.549851e-002 -1.416243e+000 -6.553208e+000 -2.515463e+000 -1.094684e+000 -6.084458e+000 7.298997e-001 -3.098205e+000 1.513851e+000 8.511863e-001 -2.381111e+000 6.205434e+001 7.162365e-003 1.440217e-003 2.586546e-003 6.223097e-002 -1.480381e-002 3.060444e-002 3.102681e-002 -8.337047e-003 -2.534317e-003 -1.824144e-002 6.397625e-005 9.717466e-003 -1.210169e-001 6.042939e-004 -9.931708e-004 -1.194840e-004 6.910013e-003 -1.772930e-003 2.963619e-003 3.565486e-003 6.104189e-003 7.112302e-003 -8.960899e-004 -2.301618e-003 2.298692e-004 -9.623226e-003
<VARIANCE> 39
 8.816586e+001 2.796061e+001 3.945560e+001 5.834960e+001 5.513452e+001 8.313033e+001 7.205471e+001 5.474182e+001 4.185936e+001 3.910511e+001 4.579005e+001 4.184581e+001 1.549118e+002 3.843502e+000 2.249743e+000 1.769994e+000 3.352736e+000 2.813337e+000 3.536538e+000 4.009012e+000 2.940970e+000 2.687551e+000 2.310862e+000 2.478205e+000 2.273078e+000 6.769200e+000 4.966129e-001 4.063096e-001 2.877804e-001 6.150039e-001 4.591639e-001 5.762535e-001 6.565437e-001 4.735610e-001 4.798844e-001 4.294703e-001 4.570358e-001 4.057159e-001 1.096846e+000
<GCONST> 1.291085e+002
<TRANSP> 5
 0.000000e+000 1.000000e+000 0.000000e+000 0.000000e+000 0.000000e+000
 0.000000e+000 8.571422e-001 1.428578e-001 0.000000e+000 0.000000e+000
 0.000000e+000 0.000000e+000 8.571422e-001 1.428578e-001 0.000000e+000
 0.000000e+000 0.000000e+000 0.000000e+000 9.900199e-001 9.980028e-003
 0.000000e+000 0.000000e+000 0.000000e+000 0.000000e+000 0.000000e+000
<ENDHMM>
~h "juwiui"
<BEGINHMM>
<NUMSTATES> 5
<STATE> 2
<MEAN> 39
 -1.889551e+001 -3.767805e-001 1.910009e-001 -1.444840e+000 -2.854610e+000 -4.289896e-001 -3.118889e+000 -1.382034e+000 -1.835218e+000 -2.316685e-001 -3.573568e-001 6.253829e-001 4.907824e+001 -2.270590e-001 -1.693668e-001 7.168071e-002 -1.871815e-001 -1.345901e-001 -2.171689e-003 7.200094e-002 -2.131920e-002 -1.401150e-001 6.155335e-002 -9.049470e-003 -8.395521e-002 7.211670e-001 1.941335e-002 4.403872e-003 -5.762905e-003 -5.213603e-002 -8.550992e-002 -2.644028e-002 -3.677677e-002 -1.200056e-002 6.612552e-002 -3.079285e-002 1.964378e-002 1.664532e-002 9.352077e-002
<VARIANCE> 39
 3.114250e+001 1.468621e+001 2.219082e+001 1.966702e+001 3.285473e+001 2.753825e+001 3.388994e+001 2.211009e+001 2.428557e+001 2.098881e+001 1.720498e+001 1.441312e+001 9.769811e+001 2.714779e+000 1.579540e+000 2.187281e+000 1.960844e+000 3.492905e+000 2.833808e+000 2.717514e+000 2.391798e+000 2.278751e+000 2.469781e+000 1.885448e+000 1.519534e+000 3.581064e+000 4.376932e-001 3.216107e-001 3.810583e-001 3.422072e-001 6.207025e-001 5.095282e-001 4.478437e-001 4.419447e-001 4.367600e-001 4.799843e-001 3.658257e-001 2.719246e-001 5.180957e-001
<GCONST> 1.134726e+002
<STATE> 3
<MEAN> 39
 -1.891473e+001 -1.177186e+000 1.973604e+000 -2.286976e+000 -5.783254e+000 -1.006561e+000 -4.919296e+000 -1.784075e+000 -2.872476e+000 -8.167907e-001 2.170877e-001 -6.819605e-004 5.754202e+001 2.070328e-002 -1.066666e-001 2.720955e-001 -1.100795e-001 -4.412488e-001 -9.067824e-002 -2.893184e-001 -6.006581e-002 -1.472520e-001 -9.573399e-002 9.127414e-002 -8.775865e-002 1.243221e+000 3.657300e-002 9.156055e-003 3.125982e-002 1.725924e-002 -3.847145e-002 -1.063400e-002 -5.201507e-002 -4.616656e-003 -8.366283e-003 -2.139245e-002 1.329904e-002 -2.770207e-003 7.118070e-002
<VARIANCE> 39
 8.580183e+001 2.375623e+001 3.683215e+001 2.876225e+001 4.803666e+001 4.445424e+001 6.383612e+001 3.124871e+001 5.061357e+001 3.123056e+001 2.406786e+001 2.279281e+001 1.652539e+002 5.952341e+000 2.540187e+000 2.562100e+000 2.662190e+000 3.783314e+000 4.435129e+000 4.018981e+000 2.923375e+000 3.138259e+000 2.768676e+000 2.375735e+000 1.846544e+000 5.290777e+000 8.294230e-001 5.129123e-001 4.749449e-001 4.814499e-001 7.163603e-001 7.896569e-001 6.932061e-001 5.839749e-001 5.884613e-001 5.497797e-001 4.993263e-001 3.410869e-001 8.113368e-001
<GCONST> 1.286223e+002
<STATE> 4
<MEAN> 39
 -1.052355e+001 2.233697e+000 9.183162e+000 -1.216215e+000 -1.123242e+001 -2.659525e+000 -8.413377e+000 -1.058938e+000 -9.242013e+000 -1.189044e+000 1.880853e+000 -3.297398e+000 6.361060e+001 1.284815e-002 3.479304e-002 -3.912706e-002 4.396183e-002 5.937476e-002 1.057086e-002 4.497350e-002 1.372045e-003 1.612174e-002 -3.498070e-003 -2.083762e-002 1.647528e-002 -1.827610e-001 -4.086371e-004 2.898566e-003 -2.655115e-003 2.192808e-003 2.848083e-003 2.517558e-003 -7.837365e-004 -4.908944e-003 2.746193e-003 7.471197e-004 -5.041579e-003 4.258302e-003 -1.573783e-002
<VARIANCE> 39
 5.930155e+001 2.410299e+001 8.529136e+001 3.542952e+001 7.127751e+001 5.591365e+001 8.827759e+001 3.844382e+001 7.684483e+001 4.247767e+001 3.718642e+001 3.494923e+001 1.379404e+002 2.123273e+000 1.197215e+000 2.350657e+000 1.636968e+000 2.524708e+000 2.699046e+000 3.064496e+000 2.272784e+000 2.716631e+000 1.926367e+000 1.824916e+000 1.533105e+000 1.560610e+000 2.414006e-001 1.970054e-001 2.519571e-001 2.712126e-001 3.897942e-001 4.382737e-001 4.561146e-001 4.177562e-001 4.377668e-001 3.522582e-001 3.417710e-001 2.673215e-001 1.532562e-001
<GCONST> 1.175405e+002
<TRANSP> 5
 0.000000e+000 1.000000e+000 0.000000e+000 0.000000e+000 0.000000e+000
 0.000000e+000 8.571317e-001 1.428683e-001 0.000000e+000 0.000000e+000
 0.000000e+000 0.000000e+000 8.571316e-001 1.428684e-001 0.000000e+000
 0.000000e+000 0.000000e+000 0.000000e+000 9.875157e-001 1.248423e-002
 0.000000e+000 0.000000e+000 0.000000e+000 0.000000e+000 0.000000e+000
<ENDHMM>
~h "mwolago"
<BEGINHMM>
<NUMSTATES> 5
<STATE> 2
<MEAN> 39
 -1.436873e+001 1.878338e+000 -3.810579e-001 -1.128371e+000 -2.103251e+000 1.281304e+000 -1.268462e+000 -2.565109e+000 -3.007696e+000 7.943586e-001 -1.036159e+000 -5.894317e-001 4.816336e+001 5.754025e-001 8.306076e-002 1.184313e-001 -3.620362e-001 -2.904919e-001 1.733868e-001 -1.255151e-001 -3.883989e-001 -5.248794e-001 9.921573e-002 -9.354083e-002 -2.627566e-001 7.495309e-001 7.274897e-002 1.542564e-002 4.716860e-002 -1.917074e-002 -6.375342e-002 8.304106e-003 -3.033868e-002 -4.501841e-002 2.588098e-002 2.286338e-002 -2.333303e-003 2.800581e-002 1.056858e-001
<VARIANCE> 39
 4.410719e+001 1.321282e+001 1.680587e+001 5.388603e+001 2.541930e+001 2.324321e+001 2.245201e+001 3.330236e+001 2.739412e+001 2.066073e+001 2.104833e+001 1.894518e+001 8.748041e+001 1.387924e+000 1.127535e+000 1.506407e+000 3.860381e+000 1.595292e+000 1.866530e+000 1.774920e+000 2.470374e+000 1.970365e+000 1.994166e+000 1.944493e+000 1.787282e+000 1.789416e+000 2.179986e-001 2.015060e-001 2.493750e-001 6.242315e-001 3.139486e-001 3.189323e-001 3.386671e-001 4.198900e-001 3.210129e-001 3.695926e-001 3.441384e-001 3.058411e-001 2.112663e-001
<GCONST> 1.074494e+002
<STATE> 3
<MEAN> 39
 -8.431359e+000 2.284893e+000 -1.633214e-001 -5.262228e+000 -4.606174e+000 2.956023e+000 -3.290469e+000 -3.957234e+000 -4.789821e+000 1.145594e+000 -1.104945e+000 -2.127013e+000 5.673317e+001 8.648258e-001 5.419636e-002 2.078771e-002 -6.069122e-001 -3.574482e-001 2.437113e-001 -3.027774e-001 -1.747814e-001 -2.234932e-001 4.206965e-002 -2.237558e-003 -2.130293e-001 1.256318e+000 3.726286e-002 -6.427359e-003 -2.009813e-002 -3.669792e-002 -4.091101e-003 9.920692e-003 -2.428832e-002 3.779234e-002 4.364492e-002 -1.152759e-002 1.422673e-002 4.640820e-003 6.781720e-002
<VARIANCE> 39
 7.381011e+001 2.961580e+001 3.393093e+001 1.213987e+002 4.244055e+001 3.910042e+001 3.884938e+001 5.293759e+001 4.742232e+001 3.299112e+001 4.224106e+001 2.994727e+001 1.674085e+002 2.358572e+000 1.981191e+000 2.350787e+000 8.325322e+000 2.917685e+000 3.175590e+000 2.447014e+000 3.876284e+000 3.447476e+000 2.885745e+000 3.522682e+000 2.163479e+000 3.055866e+000 3.925912e-001 3.282444e-001 3.843891e-001 1.299586e+000 5.548956e-001 5.812372e-001 4.684322e-001 6.645392e-001 5.357333e-001 5.224885e-001 6.050786e-001 4.170222e-001 4.059199e-001
<GCONST> 1.281958e+002
<STATE> 4
<MEAN> 39
 -4.032829e+000 2.984754e+000 -3.830188e+000 -1.204303e+001 -6.175149e+000 2.815300e+000 -3.104224e+000 5.512892e-001 -4.786233e+000 -3.647271e-001 -3.639269e-001 -3.563138e+000 6.195716e+001 -1.219884e-001 -1.402430e-002 -2.602219e-002 6.253003e-002 4.534592e-002 -3.859504e-002 3.194638e-002 4.885761e-002 4.826309e-002 -2.224858e-002 -5.929711e-003 2.374533e-002 -1.726142e-001 -1.252184e-002 -1.605883e-003 -1.363848e-003 9.327980e-003 7.944561e-003 1.243663e-003 2.713153e-003 2.346564e-003 2.386037e-003 -1.896743e-003 -4.304713e-003 1.810502e-003 -1.729913e-002
<VARIANCE> 39
 6.232742e+001 4.405371e+001 3.022030e+001 1.024536e+002 5.058702e+001 4.535968e+001 6.233976e+001 5.146498e+001 7.103337e+001 4.577808e+001 5.101596e+001 4.131226e+001 1.437535e+002 1.662764e+000 1.872708e+000 1.789775e+000 5.403532e+000 2.814852e+000 3.209070e+000 3.047214e+000 3.154597e+000 3.797486e+000 2.765652e+000 3.311190e+000 2.374804e+000 2.915164e+000 2.318431e-001 2.788814e-001 3.138197e-001 8.278219e-001 4.769694e-001 5.862618e-001 5.299813e-001 5.704407e-001 6.207418e-001 5.119235e-001 5.643884e-001 4.086129e-001 3.189183e-001
<GCONST> 1.271925e+002
<TRANSP> 5
 0.000000e+000 1.000000e+000 0.000000e+000 0.000000e+000 0.000000e+000
 0.000000e+000 8.571243e-001 1.428757e-001 0.000000e+000 0.000000e+000
 0.000000e+000 0.000000e+000 8.571241e-001 1.428759e-001 0.000000e+000
 0.000000e+000 0.000000e+000 0.000000e+000 9.871633e-001 1.283668e-002
 0.000000e+000 0.000000e+000 0.000000e+000 0.000000e+000 0.000000e+000
<ENDHMM>
~h "naghwaam"
<BEGINHMM>
<NUMSTATES> 5
<STATE> 2
<MEAN> 39
 -1.541557e+001 1.398426e+000 -1.514280e+000 -4.223382e-001 -5.874923e-001 -4.152729e-001 -6.499665e-001 -1.074937e+000 -1.399161e+000 4.001420e-001 -2.205155e+000 -9.630988e-001 4.862867e+001 4.118377e-001 9.467689e-003 8.777554e-002 -1.031924e-001 -4.760565e-002 7.917832e-004 5.995770e-002 -9.586701e-002 -5.025006e-002 9.608217e-002 -2.774765e-001 -1.858601e-001 7.723897e-001 3.515931e-002 -2.102733e-002 -3.805029e-002 -7.888708e-002 -7.553703e-002 -4.745324e-002 -4.813602e-002 -5.146922e-002 1.784256e-002 3.864441e-002 -5.933753e-002 -5.195268e-002 9.909778e-002
<VARIANCE> 39
 2.630537e+001 1.631892e+001 2.363416e+001 3.255207e+001 2.540906e+001 2.604528e+001 2.395366e+001 2.526393e+001 1.577937e+001 1.989242e+001 2.710639e+001 2.457609e+001 1.077183e+002 1.429868e+000 1.871078e+000 2.260663e+000 2.778941e+000 2.250569e+000 2.628739e+000 2.722600e+000 2.882327e+000 1.762553e+000 2.214224e+000 2.227432e+000 1.809152e+000 4.300381e+000 2.485892e-001 3.707816e-001 3.740109e-001 5.050616e-001 4.117197e-001 4.855855e-001 5.011585e-001 5.528665e-001 2.652010e-001 3.780478e-001 3.675455e-001 2.885981e-001 5.129544e-001
<GCONST> 1.129340e+002
<STATE> 3
<MEAN> 39
 -1.167376e+001 7.149323e-001 -2.695766e+000 -3.242329e+000 -4.991658e-001 -8.625043e-001 -1.263970e+000 -1.379209e+000 -1.480685e+000 1.520830e+000 -4.251236e+000 -3.417760e+000 5.678547e+001 5.404286e-001 -1.067817e-001 -1.936124e-001 -4.293862e-001 2.113326e-002 -6.739815e-002 -9.985273e-002 -3.349745e-002 -7.650460e-003 1.647557e-001 -2.891564e-001 -3.601806e-001 1.189476e+000 1.601281e-002 -1.576343e-002 -3.953106e-002 -4.213631e-002 1.888548e-002 -5.686233e-003 -1.973300e-002 1.501565e-002 4.542429e-003 6.353002e-003 4.442599e-003 -2.151987e-002 5.436792e-002
<VARIANCE> 39
 4.290597e+001 3.088640e+001 4.956877e+001 6.532100e+001 4.442198e+001 3.850175e+001 3.256675e+001 3.724457e+001 2.440872e+001 2.700158e+001 3.734903e+001 4.174387e+001 1.996316e+002 2.640929e+000 3.385443e+000 4.078455e+000 4.922121e+000 3.806874e+000 3.820680e+000 3.822703e+000 4.310173e+000 2.293836e+000 2.826158e+000 2.928988e+000 2.570399e+000 9.665784e+000 4.466214e-001 6.447842e-001 7.472135e-001 9.514853e-001 7.089871e-001 7.657965e-001 8.186811e-001 8.675616e-001 4.319231e-001 5.894077e-001 5.201352e-001 4.311485e-001 1.174272e+000
<GCONST> 1.322179e+002
<STATE> 4
<MEAN> 39
 -7.852620e+000 -9.233818e-001 -4.085773e+000 -6.451338e+000 2.012263e+000 1.658466e+000 -3.348268e+000 -2.389030e+000 -3.729213e+000 2.048619e+000 -2.476754e+000 -4.968417e+000 6.264315e+001 -7.447407e-002 3.605366e-003 1.596055e-002 5.877936e-002 1.517532e-002 4.604086e-003 -2.470285e-002 1.299615e-002 -4.902210e-003 -3.170443e-002 4.856944e-002 4.468828e-002 -1.639929e-001 -9.638944e-003 -6.433582e-004 4.012926e-003 6.655908e-003 3.844685e-003 -5.193696e-004 -4.638809e-003 3.791466e-003 -9.437178e-004 -1.999080e-003 7.909714e-003 3.021960e-003 -1.523707e-002
<VARIANCE> 39
 4.880954e+001 2.628347e+001 7.378987e+001 1.191836e+002 4.982291e+001 4.552634e+001 4.232265e+001 4.957520e+001 3.812519e+001 3.807810e+001 4.377542e+001 6.935143e+001 1.764255e+002 1.674135e+000 1.660135e+000 2.979219e+000 3.533709e+000 2.841362e+000 2.475392e+000 2.700220e+000 3.177043e+000 2.585672e+000 2.421906e+000 2.145419e+000 2.383096e+000 5.231400e+000 2.501103e-001 2.791207e-001 4.741224e-001 5.637903e-001 4.879034e-001 4.521846e-001 5.049150e-001 5.732980e-001 4.842346e-001 4.786866e-001 3.741308e-001 3.691763e-001 6.328310e-001
<GCONST> 1.257289e+002
<TRANSP> 5
 0.000000e+000 1.000000e+000 0.000000e+000 0.000000e+000 0.000000e+000
 0.000000e+000 8.571326e-001 1.428674e-001 0.000000e+000 0.000000e+000
 0.000000e+000 0.000000e+000 8.571327e-001 1.428673e-001 0.000000e+000
 0.000000e+000 0.000000e+000 0.000000e+000 9.877302e-001 1.226979e-002
 0.000000e+000 0.000000e+000 0.000000e+000 0.000000e+000 0.000000e+000
<ENDHMM>
~h "noemureul"
<BEGINHMM>
<NUMSTATES> 5
<STATE> 2
<MEAN> 39
 -1.490395e+001 1.815675e+000 4.886380e-001 3.087702e-001 -2.530242e+000 -1.212618e+000 -1.401622e+000 -7.996427e-001 -2.601541e+000 2.301742e-001 -1.272460e+000 -5.303830e-001 4.824850e+001 4.001404e-001 1.551603e-001 4.659587e-001 9.480269e-002 -3.261957e-001 -1.389454e-001 -1.592585e-001 -3.369669e-001 -4.409215e-001 1.357515e-002 -7.083338e-002 -1.500994e-001 7.133166e-001 5.426871e-002 -1.686188e-003 4.676222e-002 -3.571456e-002 -3.643845e-002 -4.202820e-002 1.667891e-003 4.399662e-002 2.186047e-002 2.209492e-002 -8.938962e-004 -3.098266e-002 1.147422e-001
<VARIANCE> 39
 3.184877e+001 1.647095e+001 2.752263e+001 1.860750e+001 3.350821e+001 3.324917e+001 2.649015e+001 2.826085e+001 2.247463e+001 1.729859e+001 1.857016e+001 1.896342e+001 1.009486e+002 1.688529e+000 1.753086e+000 1.469573e+000 1.858102e+000 2.145307e+000 2.551258e+000 2.215272e+000 2.625221e+000 1.371935e+000 1.628448e+000 1.951513e+000 1.845252e+000 2.841344e+000 3.097053e-001 3.089333e-001 2.738977e-001 3.666273e-001 3.776767e-001 4.196180e-001 3.901118e-001 4.475208e-001 2.388764e-001 2.563017e-001 3.617015e-001 3.274458e-001 3.331563e-001
<GCONST> 1.086753e+002
<STATE> 3
<MEAN> 39
 -1.030842e+001 2.176478e+000 4.089691e+000 -3.270821e-001 -6.280802e+000 -3.198331e+000 -3.552593e+000 -1.501366e+000 -5.216718e+000 3.662587e-001 -1.108294e+000 -2.043226e+000 5.697776e+001 6.743720e-001 4.040441e-002 5.121388e-001 -1.080786e-001 -5.503554e-001 -2.952432e-001 -3.202220e-001 -7.532457e-002 -3.629514e-001 2.014172e-002 3.148577e-002 -2.206300e-001 1.285167e+000 3.700234e-002 -1.746681e-002 2.197524e-003 -2.745073e-002 -3.078398e-002 -1.946341e-002 -2.496491e-002 3.602315e-002 9.694221e-003 -1.541539e-003 1.598590e-002 -7.722212e-003 7.673147e-002
<VARIANCE> 39
 5.408638e+001 2.901164e+001 3.832166e+001 3.507856e+001 5.878356e+001 5.565300e+001 4.838534e+001 5.761810e+001 3.731636e+001 2.646336e+001 3.104738e+001 2.693410e+001 1.904019e+002 2.630396e+000 2.520216e+000 2.329114e+000 3.089797e+000 3.260659e+000 3.784304e+000 3.138511e+000 4.710416e+000 2.396827e+000 1.945397e+000 2.843340e+000 2.163102e+000 4.991517e+000 5.141431e-001 4.274711e-001 3.990341e-001 5.957606e-001 5.933127e-001 6.366138e-001 6.041319e-001 7.830594e-001 4.292830e-001 3.558101e-001 5.356208e-001 4.169206e-001 6.121120e-001
<GCONST> 1.266307e+002
<STATE> 4
<MEAN> 39
 -5.639721e+000 -6.300865e-001 3.424021e+000 4.491767e-002 -8.826131e+000 -3.180325e+000 -7.409160e+000 -2.086823e+000 -2.950585e+000 4.215424e-001 -1.887200e+000 -1.984819e+000 6.300236e+001 -9.246345e-002 -5.679264e-003 -7.632864e-002 5.522199e-003 6.969112e-002 2.507768e-002 2.205049e-002 1.076635e-002 6.856132e-002 3.054715e-003 1.133485e-002 3.128938e-002 -1.758532e-001 -9.469167e-003 1.022585e-005 -2.552752e-003 3.840316e-003 9.148420e-003 5.804751e-003 1.950943e-003 -3.984811e-003 2.537094e-003 5.543769e-004 9.484584e-004 3.062112e-003 -1.656849e-002
<VARIANCE> 39
 5.153331e+001 3.037092e+001 4.223372e+001 4.724654e+001 5.611348e+001 5.521601e+001 7.168167e+001 6.933257e+001 6.179012e+001 3.516216e+001 4.651100e+001 3.230808e+001 1.385246e+002 1.474190e+000 1.445894e+000 1.967964e+000 3.100294e+000 3.127830e+000 3.083095e+000 3.462594e+000 3.904986e+000 2.796333e+000 2.356340e+000 3.283851e+000 2.036767e+000 2.363158e+000 2.422033e-001 2.236256e-001 2.929208e-001 4.872724e-001 5.678572e-001 5.303463e-001 6.084151e-001 6.612878e-001 4.833393e-001 4.297301e-001 5.674993e-001 3.815570e-001 2.509818e-001
<GCONST> 1.237356e+002
<TRANSP> 5
 0.000000e+000 1.000000e+000 0.000000e+000 0.000000e+000 0.000000e+000
 0.000000e+000 8.571295e-001 1.428705e-001 0.000000e+000 0.000000e+000
 0.000000e+000 0.000000e+000 8.571292e-001 1.428708e-001 0.000000e+000
 0.000000e+000 0.000000e+000 0.000000e+000 9.871961e-001 1.280388e-002
 0.000000e+000 0.000000e+000 0.000000e+000 0.000000e+000 0.000000e+000
<ENDHMM>
~h "eoduun"
<BEGINHMM>
<NUMSTATES> 5
<STATE> 2
<MEAN> 39
 -1.471293e+001 9.291623e-001 -4.227633e+000 -5.800959e+000 -1.030684e+000 3.074593e+000 -1.208608e+000 -9.400607e-001 -2.767873e+000 -2.358035e-001 3.877132e-001 -2.105801e-001 4.900167e+001 5.883806e-001 5.912167e-002 -1.976926e-001 -6.492509e-001 -1.185231e-001 4.107200e-001 9.700540e-002 -3.485313e-002 -2.922775e-001 -2.136893e-001 -3.475872e-002 -1.586242e-001 7.278016e-001 3.473983e-002 -5.785718e-003 -2.468555e-002 -7.607858e-002 2.371862e-002 7.287344e-002 -1.194601e-002 -5.200358e-002 -7.243690e-003 7.450414e-002 2.104626e-002 2.638086e-002 1.288673e-001
<VARIANCE> 39
 4.187135e+001 1.268621e+001 2.478957e+001 6.754460e+001 1.949407e+001 4.167912e+001 4.217632e+001 2.818025e+001 2.551089e+001 2.375616e+001 2.196194e+001 2.067207e+001 9.682324e+001 2.004783e+000 1.546789e+000 2.574274e+000 4.249438e+000 1.884691e+000 3.141881e+000 3.737823e+000 2.513994e+000 2.386856e+000 2.102294e+000 2.351987e+000 1.667436e+000 3.588571e+000 3.495400e-001 3.168377e-001 4.613735e-001 7.181268e-001 3.263163e-001 5.892704e-001 5.020967e-001 4.273926e-001 4.230270e-001 3.808085e-001 3.869066e-001 3.063362e-001 4.973571e-001
<GCONST> 1.169046e+002
<STATE> 3
<MEAN> 39
 -9.939666e+000 1.701494e+000 -4.066017e+000 -1.065210e+001 -1.698791e+000 4.600567e+000 -3.134146e+000 -1.627536e+000 -4.166675e+000 3.337203e-001 7.040976e-001 -1.448654e+000 5.716887e+001 6.819786e-001 1.143720e-001 4.853233e-002 -6.860682e-001 -9.130055e-002 1.906265e-001 -3.121915e-001 -1.008635e-001 -1.879939e-001 1.108731e-001 5.584284e-002 -1.780013e-001 1.194650e+000 1.099161e-002 9.150976e-003 4.031176e-002 2.303647e-003 1.318594e-003 -4.169948e-002 -6.204451e-002 -5.045497e-003 1.684676e-002 4.188046e-002 1.150954e-002 -5.816063e-003 5.885420e-002
<VARIANCE> 39
 6.868808e+001 2.389469e+001 3.395893e+001 1.066934e+002 2.875784e+001 6.094355e+001 6.689664e+001 4.861695e+001 3.989186e+001 3.646196e+001 3.133137e+001 3.306385e+001 1.702337e+002 3.664391e+000 2.745352e+000 2.868155e+000 7.370458e+000 2.510024e+000 4.323554e+000 4.338510e+000 3.334940e+000 2.844820e+000 2.763104e+000 2.800542e+000 2.093156e+000 7.313150e+000 6.328304e-001 5.603988e-001 5.292147e-001 1.156493e+000 4.617174e-001 7.416578e-001 6.977262e-001 6.146898e-001 5.283615e-001 4.984172e-001 5.240087e-001 3.816074e-001 1.125886e+000
<GCONST> 1.321591e+002
<STATE> 4
<MEAN> 39
 -6.993151e+000 3.307319e+000 1.496615e+000 -5.668312e+000 -3.732654e+000 5.265927e-001 -6.932540e+000 -4.331103e+000 -5.416174e+000 2.665106e-001 -7.409554e-001 -3.522480e+000 6.126474e+001 -1.142815e-001 -2.902171e-002 2.616408e-002 1.569475e-001 1.708324e-002 -7.539563e-002 2.855624e-002 2.291781e-002 6.550169e-002 -1.187781e-002 -3.817644e-002 1.414839e-002 -1.806566e-001 -1.124513e-002 -1.854521e-003 -2.875099e-004 1.293314e-002 3.496425e-003 -4.383797e-003 8.946355e-003 4.732631e-003 4.071029e-003 3.672076e-004 -1.046176e-002 3.584193e-004 -2.032921e-002
<VARIANCE> 39
 5.535619e+001 2.925693e+001 4.826084e+001 1.016644e+002 4.348951e+001 5.629147e+001 6.376201e+001 5.248020e+001 5.436502e+001 4.337989e+001 6.332260e+001 3.963852e+001 1.376267e+002 2.200397e+000 2.101165e+000 1.983673e+000 3.845723e+000 2.330185e+000 3.067677e+000 3.552315e+000 2.842111e+000 2.509807e+000 2.423586e+000 2.914274e+000 2.218712e+000 4.497291e+000 3.665744e-001 3.887631e-001 2.768273e-001 5.457571e-001 3.952837e-001 5.288910e-001 6.275606e-001 5.313863e-001 4.287288e-001 3.962179e-001 4.685547e-001 3.920676e-001 7.025346e-001
<GCONST> 1.266981e+002
<TRANSP> 5
 0.000000e+000 1.000000e+000 0.000000e+000 0.000000e+000 0.000000e+000
 0.000000e+000 8.571135e-001 1.428865e-001 0.000000e+000 0.000000e+000
 0.000000e+000 0.000000e+000 8.571131e-001 1.428868e-001 0.000000e+000
 0.000000e+000 0.000000e+000 0.000000e+000 9.864136e-001 1.358642e-002
 0.000000e+000 0.000000e+000 0.000000e+000 0.000000e+000 0.000000e+000
<ENDHMM>
~h "doepuri"
<BEGINHMM>
<NUMSTATES> 5
<STATE> 2
<MEAN> 39
 -1.649284e+001 4.113367e-001 -1.000540e+000 -1.648221e+000 -2.610997e+000 -1.998105e+000 -1.305270e+000 2.426309e-001 -1.263302e+000 1.857455e-001 -1.970996e-001 1.018448e+000 4.846927e+001 1.810272e-001 -1.316463e-001 2.314647e-001 -1.747224e-001 -1.245114e-001 -3.088730e-001 -1.331859e-001 8.923315e-003 -1.124274e-001 7.378738e-002 1.313708e-001 2.562665e-002 7.662414e-001 4.853783e-003 -1.211448e-002 2.149957e-002 -2.437844e-002 4.827950e-003 -1.334805e-002 1.986138e-002 1.819665e-002 -4.284477e-002 -2.063945e-002 -4.853481e-002 3.079972e-004 1.025446e-001
<VARIANCE> 39
 1.635796e+001 1.212870e+001 1.674503e+001 2.665520e+001 2.337244e+001 2.984849e+001 1.814228e+001 1.769816e+001 1.957951e+001 1.414151e+001 1.564550e+001 1.337933e+001 1.071693e+002 1.114652e+000 1.355156e+000 1.386489e+000 3.104690e+000 2.224560e+000 2.268369e+000 1.861597e+000 1.782175e+000 2.113033e+000 1.536109e+000 1.745796e+000 1.490554e+000 5.905912e+000 1.772861e-001 2.818553e-001 2.450391e-001 5.929351e-001 3.697127e-001 3.749282e-001 3.411039e-001 3.042963e-001 3.552130e-001 2.916441e-001 3.420821e-001 2.789991e-001 9.642000e-001
<GCONST> 1.058099e+002
<STATE> 3
<MEAN> 39
 -1.423179e+001 -3.128322e-001 9.203344e-001 -2.742870e+000 -3.904478e+000 -4.579749e+000 -2.597947e+000 7.299343e-001 -2.275951e+000 5.901998e-001 2.957036e-001 1.142445e+000 5.613127e+001 3.336372e-001 -9.902157e-002 2.750496e-001 -1.505394e-001 -1.872679e-001 -3.688189e-001 -1.901300e-001 7.363889e-002 -1.439778e-001 5.534415e-002 6.368192e-002 1.617656e-002 1.112783e+000 2.343916e-002 6.283257e-003 4.574555e-003 6.296159e-003 -1.048721e-002 -8.165808e-003 -1.081103e-002 8.105259e-003 -5.812563e-004 -7.479339e-004 -5.544224e-003 -1.575493e-003 4.305751e-002
<VARIANCE> 39
 3.883110e+001 2.171404e+001 2.739351e+001 3.687817e+001 3.867815e+001 4.725440e+001 3.327692e+001 2.930857e+001 2.520291e+001 2.086963e+001 2.000178e+001 2.009595e+001 1.857539e+002 2.595480e+000 2.388302e+000 2.113447e+000 4.503019e+000 3.622336e+000 3.520859e+000 2.986873e+000 2.558349e+000 2.429106e+000 2.065285e+000 1.982010e+000 2.071795e+000 1.215235e+001 3.956220e-001 4.870756e-001 3.833834e-001 9.643273e-001 6.642245e-001 6.300636e-001 5.447922e-001 4.661567e-001 4.825754e-001 4.167386e-001 4.110482e-001 4.184871e-001 1.904860e+000
<GCONST> 1.237886e+002
<STATE> 4
<MEAN> 39
 -1.127090e+001 1.865866e+000 6.099382e+000 -2.366085e+000 -7.726470e+000 -2.410419e+000 -5.044239e+000 -2.300225e+000 -5.869685e+000 9.372988e-001 7.046567e-001 -9.416022e-001 6.031748e+001 -4.076372e-002 1.733943e-002 -4.865915e-002 2.304444e-002 1.622157e-002 3.373142e-002 1.867986e-002 9.479888e-003 3.478039e-002 -2.301047e-002 -1.994083e-002 -1.856313e-002 -1.622168e-001 -5.213094e-003 2.508699e-004 -7.802465e-003 4.677491e-004 1.439025e-003 -3.223836e-004 3.416681e-004 1.559644e-003 7.189174e-003 2.905007e-005 -4.261019e-003 -1.093305e-003 -1.654364e-002
<VARIANCE> 39
 4.066020e+001 3.119239e+001 1.007423e+002 3.574938e+001 7.087399e+001 5.235003e+001 5.974675e+001 3.839494e+001 5.669079e+001 3.400776e+001 3.098104e+001 2.773631e+001 1.462639e+002 2.787035e+000 2.355247e+000 2.936387e+000 3.196208e+000 3.962765e+000 3.415534e+000 3.619570e+000 2.735285e+000 3.204292e+000 2.648141e+000 2.475849e+000 2.024721e+000 6.486874e+000 4.323865e-001 4.218217e-001 3.632141e-001 6.534727e-001 7.096678e-001 6.089118e-001 6.139904e-001 5.017263e-001 5.834254e-001 5.020874e-001 4.868729e-001 4.091845e-001 9.255300e-001
<GCONST> 1.288382e+002
<TRANSP> 5
 0.000000e+000 1.000000e+000 0.000000e+000 0.000000e+000 0.000000e+000
 0.000000e+000 8.571252e-001 1.428749e-001 0.000000e+000 0.000000e+000
 0.000000e+000 0.000000e+000 8.571245e-001 1.428754e-001 0.000000e+000
 0.000000e+000 0.000000e+000 0.000000e+000 9.870469e-001 1.295307e-002
 0.000000e+000 0.000000e+000 0.000000e+000 0.000000e+000 0.000000e+000
<ENDHMM>
~h "choeagi"
<BEGINHMM>
<NUMSTATES> 5
<STATE> 2
<MEAN> 39
 -1.860462e+001 3.687865e-001 3.603157e-001 -2.523654e+000 -2.373354e+000 -8.417346e-001 -2.555496e+000 -5.547900e-001 -1.694749e+000 -1.348479e-001 1.635727e-001 2.830289e-001 4.972350e+001 -3.696542e-002 -1.816656e-001 1.145065e-001 -1.508953e-001 -1.604328e-001 4.891395e-002 2.180101e-002 -2.088580e-002 -6.466687e-002 5.191067e-002 2.291241e-001 1.039643e-001 8.364669e-001 -4.875551e-002 -2.240972e-002 1.470892e-002 -6.726346e-002 1.176485e-002 8.061616e-003 5.699249e-002 1.017640e-001 3.730219e-002 2.090987e-002 -2.646660e-002 -1.467485e-002 1.026446e-001
<VARIANCE> 39
 2.526403e+001 1.762855e+001 1.925566e+001 3.513887e+001 2.534710e+001 2.273859e+001 2.251799e+001 1.918932e+001 1.646401e+001 1.257169e+001 1.485991e+001 1.515260e+001 1.318427e+002 2.141760e+000 1.705271e+000 1.707776e+000 3.166723e+000 1.724640e+000 1.782919e+000 2.272559e+000 1.890517e+000 1.734010e+000 1.291448e+000 1.520638e+000 1.354995e+000 4.886582e+000 3.253195e-001 3.099171e-001 3.314941e-001 5.203402e-001 2.711031e-001 3.202583e-001 4.524264e-001 3.640241e-001 3.207658e-001 2.412007e-001 2.655087e-001 1.897206e-001 7.301731e-001
<GCONST> 1.068683e+002
<STATE> 3
<MEAN> 39
 -1.817595e+001 -1.655775e+000 1.875253e+000 -5.076154e+000 -4.978850e+000 -1.917357e+000 -2.587170e+000 6.835495e-001 -1.687900e+000 -2.170491e-001 1.585806e-001 -1.035586e-001 5.926579e+001 7.297292e-002 -2.973434e-001 2.238198e-001 -3.815461e-001 -3.914864e-001 -1.733368e-001 -9.370303e-003 1.934887e-001 6.775408e-003 -1.932800e-002 -2.448075e-002 -7.069300e-002 1.399677e+000 2.236785e-002 -1.563263e-002 1.512597e-002 -2.884036e-002 -3.692999e-002 -3.530030e-002 -1.080967e-002 2.228102e-002 6.847394e-003 -1.274130e-002 -3.583574e-002 -2.514742e-002 7.671368e-002
<VARIANCE> 39
 6.305535e+001 2.673642e+001 2.883256e+001 5.140401e+001 4.702727e+001 4.048837e+001 2.651568e+001 2.690838e+001 2.411967e+001 1.819864e+001 2.558619e+001 2.702712e+001 2.209935e+002 3.982067e+000 2.169496e+000 2.047395e+000 4.093196e+000 2.358179e+000 2.407616e+000 2.645640e+000 2.139189e+000 2.125752e+000 1.551967e+000 1.720592e+000 1.538746e+000 7.300359e+000 5.689542e-001 4.519840e-001 3.486781e-001 7.109815e-001 3.638176e-001 4.056334e-001 5.334239e-001 4.147751e-001 4.102321e-001 2.964855e-001 3.040602e-001 2.485267e-001 1.171651e+000
<GCONST> 1.197533e+002
<STATE> 4
<MEAN> 39
 -1.134844e+001 1.541887e+000 6.450414e+000 -6.127010e+000 -8.017759e+000 -3.995792e+000 -3.558668e+000 6.762942e-002 -4.906143e+000 5.567963e-001 -1.817116e+000 -3.046803e+000 6.414513e+001 9.490015e-003 3.712450e-002 -5.448387e-002 6.325757e-002 5.334278e-002 1.423570e-002 1.812817e-002 -1.007688e-002 -6.629751e-003 -7.339903e-003 5.238014e-004 1.047906e-002 -1.974875e-001 -1.407711e-003 1.411188e-003 -5.880031e-003 4.481626e-003 9.227378e-003 2.205889e-003 -1.810573e-003 -3.574700e-004 -1.639632e-003 -1.878372e-003 -1.495171e-003 1.000224e-003 -1.753074e-002
<VARIANCE> 39
 5.197403e+001 5.531160e+001 9.592078e+001 4.375171e+001 5.848331e+001 5.716325e+001 4.908899e+001 4.556110e+001 5.787912e+001 3.955844e+001 4.833695e+001 4.926694e+001 1.642481e+002 2.143484e+000 2.085752e+000 2.664538e+000 2.515130e+000 2.664835e+000 2.455428e+000 2.886237e+000 2.337010e+000 3.107292e+000 2.107950e+000 2.052500e+000 1.994447e+000 3.556718e+000 3.041224e-001 3.576250e-001 3.221721e-001 4.273898e-001 3.949400e-001 3.973093e-001 4.902470e-001 4.316014e-001 5.375564e-001 3.605070e-001 3.246364e-001 3.057707e-001 4.764517e-001
<GCONST> 1.238694e+002
<TRANSP> 5
 0.000000e+000 1.000000e+000 0.000000e+000 0.000000e+000 0.000000e+000
 0.000000e+000 8.571331e-001 1.428670e-001 0.000000e+000 0.000000e+000
 0.000000e+000 0.000000e+000 8.571328e-001 1.428672e-001 0.000000e+000
 0.000000e+000 0.000000e+000 0.000000e+000 9.877377e-001 1.226227e-002
 0.000000e+000 0.000000e+000 0.000000e+000 0.000000e+000 0.000000e+000
<ENDHMM>
~h "nawaya"
<BEGINHMM>
<NUMSTATES> 5
<STATE> 2
<MEAN> 39
 -1.487057e+001 7.164649e-001 -1.440373e+000 -1.418008e+000 -1.584910e+000 -5.266379e-001 -1.263060e+000 -1.348168e+000 -9.228805e-001 3.291044e-001 -2.825564e+000 -8.439508e-001 4.957803e+001 3.780011e-001 1.968892e-002 2.220875e-001 -1.856363e-001 -6.563476e-002 1.139407e-002 -6.634276e-002 -2.576806e-001 -5.435434e-002 -5.375892e-002 -3.704377e-001 -1.937388e-001 8.159327e-001 3.936530e-002 -2.321039e-002 -1.019643e-002 -3.757378e-003 2.065416e-003 -3.230657e-002 -5.010409e-002 -2.792238e-002 -2.322900e-002 5.179916e-002 2.065269e-003 -3.039651e-002 9.620610e-002
<VARIANCE> 39
 2.894612e+001 2.029127e+001 2.215273e+001 3.914239e+001 2.423002e+001 2.110895e+001 2.230766e+001 2.645437e+001 1.847541e+001 1.452725e+001 2.798195e+001 2.506741e+001 1.182031e+002 1.134650e+000 1.577070e+000 2.204901e+000 2.285133e+000 2.256578e+000 2.169448e+000 2.432136e+000 2.575013e+000 1.620659e+000 1.412660e+000 2.083597e+000 1.505303e+000 3.271749e+000 1.886226e-001 2.729124e-001 3.700251e-001 3.661734e-001 4.080503e-001 4.105663e-001 4.163865e-001 4.836963e-001 2.886595e-001 2.497068e-001 3.231677e-001 2.491812e-001 4.100185e-001
<GCONST> 1.087372e+002
<STATE> 3
<MEAN> 39
 -1.040779e+001 -7.629129e-002 -1.447232e+000 -4.963741e+000 -1.292662e+000 -6.281703e-001 -2.538459e+000 -1.884274e+000 -1.165443e+000 4.100789e-001 -4.586844e+000 -3.447747e+000 5.905837e+001 6.559613e-001 -1.243938e-001 -2.511883e-002 -5.338130e-001 5.294839e-002 -1.566107e-002 -1.901645e-001 -5.381852e-002 -3.144290e-002 1.730940e-002 -2.367666e-001 -3.853814e-001 1.392235e+000 3.919914e-002 -2.013632e-002 -3.722418e-002 -5.372186e-002 1.843109e-002 -4.775690e-004 -1.384233e-002 3.433007e-002 6.023869e-003 5.485891e-003 2.050869e-002 -2.629976e-002 7.946331e-002
<VARIANCE> 39
 5.589531e+001 3.685065e+001 4.420745e+001 9.225884e+001 4.517064e+001 3.863581e+001 3.248084e+001 3.878263e+001 2.601709e+001 1.997227e+001 4.405214e+001 5.021676e+001 2.204656e+002 1.826792e+000 2.740628e+000 3.566249e+000 3.360034e+000 3.429840e+000 3.175279e+000 2.910953e+000 3.862772e+000 1.954871e+000 1.656311e+000 2.882884e+000 2.283219e+000 5.555386e+000 3.265697e-001 4.450953e-001 6.225770e-001 5.506573e-001 6.062704e-001 5.886766e-001 5.669679e-001 7.693299e-001 3.546963e-001 3.180206e-001 4.637373e-001 3.643081e-001 7.455447e-001
<GCONST> 1.261378e+002
<STATE> 4
<MEAN> 39
 -6.259491e+000 -3.224223e+000 -3.746273e+000 -9.404427e+000 -4.642796e-001 -1.714534e-002 -1.976331e+000 1.686194e+000 -8.240108e-001 1.372460e-001 -3.893349e+000 -5.871028e+000 6.661015e+001 -1.087472e-001 1.537413e-002 -4.039061e-003 6.473250e-002 1.503743e-002 -7.405748e-004 2.874217e-002 2.192809e-002 6.268881e-003 3.894010e-004 6.480574e-002 6.959018e-002 -1.925165e-001 -1.068795e-002 5.865596e-004 2.017769e-003 9.577990e-003 -2.035687e-003 -7.199585e-005 4.196486e-003 -1.918734e-003 -4.734596e-004 -2.861598e-005 7.351068e-003 1.211058e-002 -1.853882e-002
<VARIANCE> 39
 4.614669e+001 2.864958e+001 4.894611e+001 8.994357e+001 7.537404e+001 6.498283e+001 3.178865e+001 4.870855e+001 3.409180e+001 2.964180e+001 5.228168e+001 6.246817e+001 1.762706e+002 7.993215e-001 1.463651e+000 2.281031e+000 2.227857e+000 2.920504e+000 2.401616e+000 1.778664e+000 2.550548e+000 1.878119e+000 1.574155e+000 2.357070e+000 2.417284e+000 2.115114e+000 9.603039e-002 2.150848e-001 3.069424e-001 2.974902e-001 3.566431e-001 3.248347e-001 3.223324e-001 4.655576e-001 3.139652e-001 2.670976e-001 3.648445e-001 3.424948e-001 1.795694e-001
<GCONST> 1.154920e+002
<TRANSP> 5
 0.000000e+000 1.000000e+000 0.000000e+000 0.000000e+000 0.000000e+000
 0.000000e+000 8.571246e-001 1.428753e-001 0.000000e+000 0.000000e+000
 0.000000e+000 0.000000e+000 8.571242e-001 1.428758e-001 0.000000e+000
 0.000000e+000 0.000000e+000 0.000000e+000 9.872289e-001 1.277110e-002
 0.000000e+000 0.000000e+000 0.000000e+000 0.000000e+000 0.000000e+000
<ENDHMM>
~h "bunyaeseo"
<BEGINHMM>
<NUMSTATES> 5
<STATE> 2
<MEAN> 39
 -1.696784e+001 -3.409088e-001 -1.541632e+000 -2.585284e-001 -6.101102e-001 -9.746827e-001 -1.764085e+000 -4.535404e-001 -1.439416e+000 2.012960e-001 -3.922433e-001 1.108816e-001 4.926138e+001 1.834168e-001 -1.641035e-001 -3.007964e-002 -2.416272e-001 -1.827016e-001 -7.104307e-002 -2.009115e-001 -2.400699e-001 -2.315530e-001 1.164490e-001 1.014957e-001 4.387428e-002 8.096294e-001 -1.065950e-003 -3.276851e-003 1.232399e-002 9.951739e-003 2.481925e-003 -4.253152e-002 -2.652676e-002 5.450070e-002 2.496527e-002 -5.627034e-002 -1.369054e-002 -3.181086e-002 1.242157e-001
<VARIANCE> 39
 1.753418e+001 1.620605e+001 1.661576e+001 1.597342e+001 2.414493e+001 1.923746e+001 2.788258e+001 2.100819e+001 2.061867e+001 1.970602e+001 1.752183e+001 1.704694e+001 1.086440e+002 1.017165e+000 1.895829e+000 1.668967e+000 1.863644e+000 2.354650e+000 1.872120e+000 2.206252e+000 2.471930e+000 2.244449e+000 2.293454e+000 2.069128e+000 2.070766e+000 4.469459e+000 1.681581e-001 3.072090e-001 2.699345e-001 3.586589e-001 4.343277e-001 3.133881e-001 3.780162e-001 4.462055e-001 4.490667e-001 4.103009e-001 3.792319e-001 3.988935e-001 7.529503e-001
<GCONST> 1.084425e+002
<STATE> 3
<MEAN> 39
 -1.427353e+001 -1.205343e+000 -6.840103e-001 -1.711474e+000 -2.263880e+000 -2.188117e+000 -4.163740e+000 -8.015859e-001 -2.582494e+000 3.035305e-001 -3.399769e-001 -5.078173e-001 5.836525e+001 4.024917e-001 -1.168313e-001 1.356651e-001 -2.025638e-001 -2.398183e-001 -1.809154e-001 -3.515386e-001 -2.945480e-002 -1.542266e-001 5.566095e-003 -3.125210e-003 -1.008975e-001 1.332679e+000 3.426341e-002 7.471698e-003 2.476548e-002 5.113557e-003 -9.649203e-003 -1.277259e-002 -2.117034e-002 2.650088e-002 9.166897e-003 -1.149063e-002 -1.475376e-002 -1.870775e-002 6.825939e-002
<VARIANCE> 39
 4.450792e+001 2.804217e+001 4.081610e+001 2.537735e+001 4.519685e+001 2.649942e+001 4.171870e+001 3.513521e+001 2.928684e+001 3.001460e+001 2.996548e+001 2.399932e+001 1.756242e+002 2.143163e+000 2.807715e+000 3.197265e+000 2.230974e+000 3.449662e+000 2.386151e+000 2.977016e+000 3.312623e+000 2.746270e+000 3.001614e+000 2.566421e+000 2.208257e+000 6.695185e+000 3.671390e-001 4.741707e-001 5.152828e-001 4.727569e-001 6.763634e-001 4.732792e-001 5.458596e-001 6.608449e-001 5.707011e-001 5.880185e-001 4.862553e-001 4.303420e-001 1.242929e+000
<GCONST> 1.247968e+002
<STATE> 4
<MEAN> 39
 -9.193467e+000 -5.623320e-001 -1.277382e+000 -6.531119e+000 -4.290627e+000 -1.094742e+000 -3.297086e+000 1.985929e+000 -3.479878e+000 2.267914e-001 -1.787228e+000 -2.063276e+000 6.563474e+001 -3.612576e-002 3.143103e-002 -1.863606e-002 1.951726e-002 1.272763e-002 2.002397e-002 3.376151e-002 -3.193978e-004 1.494293e-002 -6.467266e-003 5.989184e-003 8.437781e-003 -1.733768e-001 -6.209780e-003 2.337263e-003 1.801733e-003 3.666621e-003 4.314842e-004 -3.434267e-003 6.156649e-004 -3.734836e-003 3.787205e-003 5.118202e-003 3.858952e-003 1.319383e-003 -1.560274e-002
<VARIANCE> 39
 7.621449e+001 2.811929e+001 6.378933e+001 5.750058e+001 6.983420e+001 7.298848e+001 4.910370e+001 5.524353e+001 4.159779e+001 4.136489e+001 4.909563e+001 4.333915e+001 1.506315e+002 3.764734e+000 1.785869e+000 2.503288e+000 2.484311e+000 3.036499e+000 2.752059e+000 3.013477e+000 2.758806e+000 2.538851e+000 2.416305e+000 2.378777e+000 2.088833e+000 1.966063e+000 4.530906e-001 2.709712e-001 3.692641e-001 3.867558e-001 4.989175e-001 4.630504e-001 5.071279e-001 4.751737e-001 4.566725e-001 4.204030e-001 3.862042e-001 3.482996e-001 2.401665e-001
<GCONST> 1.241774e+002
<TRANSP> 5
 0.000000e+000 1.000000e+000 0.000000e+000 0.000000e+000 0.000000e+000
 0.000000e+000 8.571393e-001 1.428606e-001 0.000000e+000 0.000000e+000
 0.000000e+000 0.000000e+000 8.571395e-001 1.428605e-001 0.000000e+000
 0.000000e+000 0.000000e+000 0.000000e+000 9.888018e-001 1.119817e-002
 0.000000e+000 0.000000e+000 0.000000e+000 0.000000e+000 0.000000e+000
<ENDHMM>
~h "widaehan"
<BEGINHMM>
<NUMSTATES> 5
<STATE> 2
<MEAN> 39
 -1.535668e+001 1.486001e+000 1.440642e+000 1.147925e+000 -3.575427e+000 -2.207987e+000 -1.571557e+000 1.487730e-001 -3.687079e+000 -5.777255e-001 -3.523396e-001 -4.638485e-001 4.786912e+001 4.176308e-001 5.572210e-005 5.040531e-001 1.351138e-001 -3.622246e-001 -3.271660e-001 -2.241137e-001 -1.347935e-001 -5.849265e-001 3.781463e-002 1.891901e-001 -1.032671e-001 7.264092e-001 6.195599e-002 1.598945e-002 7.697316e-002 1.848662e-002 -8.259979e-002 -3.429940e-003 -1.176952e-002 2.278152e-002 -5.460408e-002 -4.377178e-002 -3.479217e-002 -4.396898e-002 1.098911e-001
<VARIANCE> 39
 2.365482e+001 1.038957e+001 5.286427e+001 1.898849e+001 4.108490e+001 2.896721e+001 2.484865e+001 2.313811e+001 4.597241e+001 2.206278e+001 1.850405e+001 1.429002e+001 8.636369e+001 1.456873e+000 1.192631e+000 2.520404e+000 1.844135e+000 3.127090e+000 2.077144e+000 2.135464e+000 2.234648e+000 3.065476e+000 2.303198e+000 1.719759e+000 1.464130e+000 2.798892e+000 2.778043e-001 2.345129e-001 3.417205e-001 3.307030e-001 5.014521e-001 3.881927e-001 3.808584e-001 3.778980e-001 4.970618e-001 3.840666e-001 2.958132e-001 2.279346e-001 3.948463e-001
<GCONST> 1.101489e+002
<STATE> 3
<MEAN> 39
 -1.181238e+001 2.172776e+000 6.555121e+000 1.568964e+000 -7.223836e+000 -4.614386e+000 -3.549025e+000 -6.243921e-002 -7.801582e+000 -1.406296e+000 5.105186e-001 -1.580498e+000 5.610173e+001 5.079191e-001 1.069870e-001 7.431214e-001 5.134903e-002 -5.291588e-001 -3.410704e-001 -2.831829e-001 -1.753237e-002 -5.773020e-001 -1.317908e-001 1.170317e-001 -1.621179e-001 1.206124e+000 7.569493e-003 1.496231e-002 2.885121e-002 -1.507520e-002 -1.717453e-002 -1.613174e-003 -8.057264e-003 1.495298e-002 6.894892e-003 -2.162996e-002 -7.301508e-003 -4.399332e-003 6.288660e-002
<VARIANCE> 39
 3.655547e+001 2.204788e+001 9.052702e+001 3.676314e+001 7.289160e+001 4.408518e+001 3.952588e+001 3.602446e+001 6.056702e+001 3.175578e+001 2.606524e+001 2.086535e+001 1.625347e+002 2.898276e+000 2.357108e+000 4.729267e+000 3.051568e+000 5.581628e+000 3.074498e+000 3.650498e+000 3.059971e+000 4.200608e+000 2.751730e+000 2.111309e+000 1.733325e+000 6.121499e+000 5.665705e-001 4.608679e-001 6.494043e-001 5.567329e-001 9.257258e-001 6.037751e-001 6.762288e-001 5.676371e-001 6.906397e-001 5.464725e-001 3.781357e-001 3.305340e-001 9.920475e-001
<GCONST> 1.292092e+002
<STATE> 4
<MEAN> 39
 -9.174862e+000 7.977483e-001 4.022894e+000 -1.082736e+000 -5.239036e+000 -4.581428e+000 -3.994106e+000 1.702395e+000 -3.944093e+000 -5.126325e-001 -4.345394e+000 -2.552969e+000 6.313486e+001 -9.430604e-002 -9.486633e-003 -1.195048e-001 -2.412259e-002 9.679653e-002 3.211540e-002 2.917493e-002 -1.323342e-003 1.053821e-001 2.812675e-002 -2.031628e-002 3.470420e-002 -1.676847e-001 -8.647639e-003 -4.343174e-004 -6.145758e-003 4.358392e-003 1.454098e-002 2.185476e-003 3.564215e-003 -3.343694e-004 1.138920e-002 1.741353e-003 -3.380961e-003 5.310098e-003 -1.654428e-002
<VARIANCE> 39
 3.726048e+001 2.825343e+001 8.104520e+001 5.203879e+001 8.540895e+001 4.773807e+001 4.323002e+001 5.997101e+001 4.803474e+001 3.068395e+001 6.183080e+001 4.091283e+001 1.842969e+002 1.579355e+000 1.638768e+000 3.817306e+000 2.829867e+000 4.332087e+000 2.621693e+000 2.763027e+000 3.000005e+000 2.521735e+000 2.085937e+000 2.308910e+000 1.823373e+000 3.979530e+000 2.785800e-001 2.720568e-001 5.309138e-001 4.840166e-001 6.323991e-001 4.783115e-001 4.924065e-001 5.134373e-001 4.295382e-001 3.858337e-001 3.570845e-001 3.177463e-001 5.671540e-001
<GCONST> 1.248091e+002
<TRANSP> 5
 0.000000e+000 1.000000e+000 0.000000e+000 0.000000e+000 0.000000e+000
 0.000000e+000 8.571174e-001 1.428826e-001 0.000000e+000 0.000000e+000
 0.000000e+000 0.000000e+000 8.571169e-001 1.428831e-001 0.000000e+000
 0.000000e+000 0.000000e+000 0.000000e+000 9.864320e-001 1.356806e-002
 0.000000e+000 0.000000e+000 0.000000e+000 0.000000e+000 0.000000e+000
<ENDHMM>
~h "gyamalo"
<BEGINHMM>
<NUMSTATES> 5
<STATE> 2
<MEAN> 39
 -1.669444e+001 -5.400178e-001 -2.414641e+000 -1.585533e+000 -3.972798e-001 -9.571577e-001 -2.722080e+000 2.634010e-001 -1.616330e+000 1.620004e+000 -1.300446e+000 3.963033e-001 4.933782e+001 1.712754e-001 -1.628899e-001 -5.485567e-002 -3.037795e-001 4.453678e-002 -1.449317e-001 -2.233002e-001 2.779205e-002 -1.538439e-001 2.918876e-001 -2.883889e-002 5.233959e-002 8.088943e-001 1.357708e-002 -2.644745e-002 2.028731e-002 6.463336e-003 -7.970867e-003 -5.754355e-002 -6.725496e-002 -5.398786e-002 -2.968085e-002 2.383805e-002 -5.985091e-002 -8.950586e-002 1.296027e-001
<VARIANCE> 39
 1.956833e+001 1.655434e+001 3.602807e+001 2.692610e+001 3.175589e+001 2.750878e+001 3.235284e+001 2.483490e+001 2.308908e+001 3.169092e+001 2.027231e+001 1.887902e+001 1.119516e+002 9.895961e-001 1.878417e+000 4.290264e+000 2.673496e+000 3.067674e+000 2.751831e+000 2.589241e+000 2.700333e+000 2.256278e+000 3.440716e+000 2.207066e+000 1.833107e+000 4.828467e+000 1.732006e-001 3.408327e-001 7.640865e-001 4.975080e-001 5.424092e-001 5.412225e-001 4.651344e-001 4.766900e-001 4.099082e-001 6.872194e-001 4.043717e-001 3.258631e-001 9.349213e-001
<GCONST> 1.173269e+002
<STATE> 3
<MEAN> 39
 -1.369883e+001 -2.082063e+000 -1.911009e+000 -3.518677e+000 -1.403348e+000 -3.163406e+000 -5.982935e+000 1.042056e+000 -3.066464e+000 3.089648e+000 -1.946816e+000 -8.875484e-001 5.849584e+001 4.496879e-001 -2.228984e-001 8.393865e-002 -2.709065e-001 -1.611802e-001 -3.273448e-001 -4.839782e-001 1.210994e-001 -2.101546e-001 1.986255e-001 -9.633333e-002 -2.022640e-001 1.341659e+000 4.179581e-002 -6.655660e-003 1.960859e-002 4.426986e-003 -3.116540e-002 -2.187675e-002 -3.340444e-002 2.012344e-002 -5.625343e-003 -1.710997e-002 -4.008554e-003 -3.038541e-002 6.915470e-002
<VARIANCE> 39
 4.241027e+001 2.500675e+001 7.784218e+001 4.147327e+001 6.733589e+001 4.167376e+001 5.421046e+001 4.199739e+001 3.670801e+001 4.650725e+001 3.262198e+001 3.071350e+001 1.952020e+002 1.401515e+000 2.835017e+000 8.338397e+000 4.102441e+000 5.557971e+000 3.729414e+000 3.888296e+000 3.526648e+000 3.648897e+000 4.348204e+000 3.047733e+000 2.161023e+000 7.351993e+000 2.641249e-001 5.321723e-001 1.382347e+000 8.398896e-001 8.854151e-001 7.381883e-001 7.465475e-001 6.565261e-001 7.319555e-001 8.597915e-001 5.872961e-001 4.384935e-001 1.497527e+000
<GCONST> 1.348587e+002
<STATE> 4
<MEAN> 39
 -4.968505e+000 -1.205520e+000 -1.979228e+000 -5.609425e+000 -4.974251e+000 -4.510649e-001 -5.616031e+000 -6.922919e-001 -3.844539e+000 1.399635e+000 -1.563887e+000 -3.354170e+000 6.452014e+001 -4.780169e-002 4.061564e-002 -5.004719e-003 3.586864e-002 -6.915140e-003 2.471633e-002 5.967770e-002 -2.006336e-002 1.388454e-002 -5.127685e-002 7.674391e-003 9.588384e-003 -1.796994e-001 -5.738766e-003 2.171815e-003 -3.878430e-003 2.953355e-003 -1.266753e-004 4.557740e-004 9.082036e-003 4.201397e-004 2.438610e-003 -5.315571e-004 1.506470e-003 3.610399e-003 -1.692080e-002
<VARIANCE> 39
 5.797943e+001 3.072992e+001 5.109951e+001 8.811860e+001 5.347372e+001 8.970971e+001 6.729260e+001 6.957276e+001 5.319369e+001 4.735814e+001 6.394746e+001 4.621703e+001 1.522194e+002 9.862279e-001 1.493099e+000 3.827055e+000 4.783239e+000 3.651402e+000 3.959786e+000 3.133227e+000 3.779457e+000 3.577680e+000 2.749933e+000 3.059863e+000 2.127071e+000 2.320654e+000 1.315114e-001 2.372819e-001 6.065165e-001 7.067516e-001 5.850310e-001 5.660645e-001 5.081319e-001 5.899368e-001 5.987294e-001 4.876536e-001 4.636032e-001 3.749007e-001 3.022614e-001
<GCONST> 1.279875e+002
<TRANSP> 5
 0.000000e+000 1.000000e+000 0.000000e+000 0.000000e+000 0.000000e+000
 0.000000e+000 8.571389e-001 1.428611e-001 0.000000e+000 0.000000e+000
 0.000000e+000 0.000000e+000 8.571390e-001 1.428611e-001 0.000000e+000
 0.000000e+000 0.000000e+000 0.000000e+000 9.886105e-001 1.138947e-002
 0.000000e+000 0.000000e+000 0.000000e+000 0.000000e+000 0.000000e+000
<ENDHMM>
~h "uioero"
<BEGINHMM>
<NUMSTATES> 5
<STATE> 2
<MEAN> 39
 -1.505157e+001 1.134455e+000 -1.403004e+000 -5.118423e-001 -1.098212e+000 -9.423478e-001 -4.881242e+000 2.701367e-001 -2.313106e+000 7.063385e-001 -1.287186e-001 -2.235690e+000 4.909915e+001 4.905369e-001 7.767089e-002 1.631885e-001 -1.148034e-001 -2.661549e-001 -2.826167e-002 -3.870324e-001 -1.536256e-001 -4.339174e-001 1.186650e-001 2.034639e-001 -1.653039e-001 6.720777e-001 3.198622e-002 9.511206e-003 4.136115e-002 -6.025619e-002 -2.419412e-002 3.766856e-003 -2.643872e-002 1.528171e-002 -2.318921e-002 3.139692e-003 4.618884e-002 -6.306132e-002 1.310626e-001
<VARIANCE> 39
 3.792091e+001 1.409976e+001 3.251622e+001 1.820214e+001 3.476606e+001 2.944079e+001 5.465668e+001 3.252425e+001 4.166722e+001 2.633573e+001 2.669285e+001 2.509825e+001 9.741373e+001 1.676757e+000 1.382339e+000 1.663304e+000 1.421427e+000 2.133118e+000 2.086666e+000 3.786533e+000 2.073435e+000 2.427835e+000 2.370120e+000 1.722030e+000 1.930396e+000 2.655341e+000 2.830060e-001 2.621779e-001 2.481699e-001 2.557144e-001 3.443209e-001 3.610417e-001 6.171157e-001 3.553471e-001 3.883191e-001 3.427118e-001 3.249260e-001 3.268674e-001 2.977399e-001
<GCONST> 1.115943e+002
<STATE> 3
<MEAN> 39
 -1.027556e+001 1.465266e+000 1.601435e+000 -1.839966e+000 -4.559235e+000 -1.970054e+000 -9.015467e+000 -7.276426e-001 -6.094134e+000 1.050182e+000 2.104045e+000 -4.108542e+000 5.770832e+001 6.934016e-001 4.331912e-002 4.520358e-001 -1.932463e-001 -5.113364e-001 -1.571564e-001 -6.028139e-001 -1.404546e-001 -5.463367e-001 3.988222e-002 3.248457e-001 -2.738882e-001 1.269701e+000 2.828253e-002 -6.304563e-003 4.040411e-002 -5.795155e-003 -3.562387e-002 -2.040845e-002 -3.058316e-002 3.599342e-004 -1.512311e-002 -1.274420e-002 1.412855e-002 -9.639518e-003 7.877422e-002
<VARIANCE> 39
 6.344460e+001 2.283906e+001 6.333971e+001 3.214510e+001 6.619215e+001 5.388398e+001 7.069773e+001 6.279851e+001 6.315947e+001 3.707619e+001 4.394990e+001 3.495077e+001 1.722540e+002 2.609808e+000 1.820394e+000 2.105247e+000 1.856394e+000 2.875471e+000 2.336845e+000 4.204567e+000 2.845492e+000 2.919372e+000 2.398205e+000 2.216605e+000 2.088547e+000 3.892393e+000 4.540249e-001 3.548386e-001 2.894193e-001 3.212787e-001 4.735696e-001 4.114545e-001 7.586385e-001 4.543368e-001 4.685091e-001 3.951807e-001 3.945606e-001 3.767923e-001 5.276925e-001
<GCONST> 1.244093e+002
<STATE> 4
<MEAN> 39
 -5.095654e+000 4.734662e-001 9.845722e-001 -5.116197e+000 -8.528813e+000 -8.367746e-002 -6.715795e+000 -1.276406e-001 -6.926616e+000 -4.767637e-002 2.593645e+000 -2.380620e+000 6.329561e+001 -9.960674e-002 1.299840e-003 -4.949201e-002 2.792213e-002 5.870395e-002 4.556452e-002 1.266382e-001 5.745069e-003 6.928138e-002 -3.940401e-002 -3.800125e-002 5.724685e-002 -1.934951e-001 -9.518090e-003 1.893384e-005 -6.511377e-003 1.379112e-003 6.912770e-003 5.460497e-003 7.118205e-003 3.135769e-003 7.603240e-003 -4.516972e-003 -5.230071e-003 2.512007e-003 -1.734473e-002
<VARIANCE> 39
 6.144059e+001 2.706889e+001 6.677809e+001 6.567086e+001 6.779319e+001 9.275419e+001 8.598694e+001 6.492677e+001 5.687253e+001 4.138032e+001 5.972876e+001 3.229863e+001 1.517294e+002 1.360315e+000 1.136888e+000 1.756105e+000 2.919814e+000 2.485855e+000 2.744589e+000 3.111832e+000 3.026250e+000 2.645042e+000 2.231599e+000 2.603089e+000 1.593385e+000 1.703734e+000 1.808165e-001 1.770487e-001 2.355875e-001 4.171735e-001 4.119333e-001 3.984706e-001 4.969166e-001 4.764127e-001 4.169084e-001 3.989551e-001 4.227498e-001 2.836255e-001 1.629409e-001
<GCONST> 1.204297e+002
<TRANSP> 5
 0.000000e+000 1.000000e+000 0.000000e+000 0.000000e+000 0.000000e+000
 0.000000e+000 8.571165e-001 1.428834e-001 0.000000e+000 0.000000e+000
 0.000000e+000 0.000000e+000 8.571161e-001 1.428839e-001 0.000000e+000
 0.000000e+000 0.000000e+000 0.000000e+000 9.868599e-001 1.314016e-002
 0.000000e+000 0.000000e+000 0.000000e+000 0.000000e+000 0.000000e+000
<ENDHMM>
~h "jayuwa"
<BEGINHMM>
<NUMSTATES> 5
<STATE> 2
<MEAN> 39
 -1.782371e+001 6.412285e-001 -1.570627e+000 -2.077043e+000 -8.827110e-001 -2.744315e+000 -2.454200e+000 -5.238378e-001 -1.577951e+000 3.101661e-001 -5.414830e-001 7.028033e-001 4.990963e+001 -1.068290e-001 -1.745714e-001 6.163024e-002 -3.871599e-001 1.884109e-001 1.259304e-001 1.595674e-001 3.427982e-002 -9.632287e-002 1.066822e-001 -1.073000e-001 -1.691622e-001 8.969131e-001 -1.007240e-003 1.689987e-002 2.140122e-002 -5.317924e-002 -6.288126e-003 -6.755286e-002 2.474152e-003 7.421128e-003 2.022355e-002 -3.929088e-002 -1.364577e-002 2.085895e-002 1.080341e-001
<VARIANCE> 39
 2.278283e+001 1.894177e+001 1.793987e+001 3.206459e+001 2.606933e+001 3.011659e+001 2.576148e+001 2.622750e+001 2.108313e+001 1.973259e+001 1.537451e+001 2.035676e+001 1.207994e+002 2.067982e+000 1.832333e+000 1.471078e+000 2.750385e+000 2.629843e+000 3.176094e+000 2.140986e+000 2.933366e+000 2.220016e+000 2.083261e+000 1.474758e+000 2.025348e+000 3.857998e+000 3.660037e-001 4.004673e-001 2.414853e-001 5.340766e-001 5.730968e-001 6.148486e-001 3.582364e-001 5.598242e-001 3.855373e-001 4.190590e-001 2.663032e-001 3.462936e-001 6.406437e-001
<GCONST> 1.132477e+002
<STATE> 3
<MEAN> 39
 -1.693727e+001 -8.504612e-001 -1.072562e+000 -5.443785e+000 -9.846049e-001 -3.261735e+000 -2.511436e+000 8.248316e-001 -1.764210e+000 -7.402968e-002 -1.591912e+000 -1.250588e-001 5.969949e+001 1.491167e-001 -2.159362e-001 6.984077e-002 -4.837015e-001 -3.546968e-002 -9.230201e-002 -2.629368e-002 2.067453e-001 -1.895489e-002 -6.962303e-002 -1.520599e-001 -1.113910e-001 1.432135e+000 4.020553e-002 -8.152504e-003 -8.997781e-004 -8.980339e-003 -3.431457e-002 -2.671943e-002 -2.898309e-002 2.592047e-002 1.015795e-002 -2.328524e-002 -5.297989e-003 6.396438e-003 7.155699e-002
<VARIANCE> 39
 6.209574e+001 2.906047e+001 3.619292e+001 4.785201e+001 4.512449e+001 3.602539e+001 3.495562e+001 3.550444e+001 3.324407e+001 2.738600e+001 2.779959e+001 2.625368e+001 2.016199e+002 4.004605e+000 2.604429e+000 2.634467e+000 4.014150e+000 3.392251e+000 3.570714e+000 2.781905e+000 3.307094e+000 2.685933e+000 2.632154e+000 2.199273e+000 2.391897e+000 5.649050e+000 6.357400e-001 5.480324e-001 4.211723e-001 7.992369e-001 6.708446e-001 7.480047e-001 5.168567e-001 6.725327e-001 4.846607e-001 5.045165e-001 3.998082e-001 4.554607e-001 9.600654e-001
<GCONST> 1.275850e+002
<STATE> 4
<MEAN> 39
 -6.898113e+000 -9.062377e-001 -2.944013e+000 -9.132354e+000 -2.320333e+000 1.700999e+000 -5.068157e+000 1.273271e-001 -3.656084e+000 2.981617e-001 -9.709302e-001 -4.110335e+000 6.550481e+001 -1.000253e-002 3.049424e-002 -1.500976e-002 7.740551e-002 3.786050e-003 3.551237e-002 1.371944e-002 -2.519587e-002 5.442615e-003 -9.946090e-003 5.812702e-003 4.137650e-003 -2.121151e-001 -2.776155e-003 2.004691e-003 -2.640865e-003 8.195210e-003 9.414426e-004 -5.544821e-004 -3.808526e-003 -3.968048e-003 3.081253e-003 -1.687866e-003 1.924622e-003 3.942214e-003 -1.863927e-002
<VARIANCE> 39
 6.836055e+001 3.609834e+001 7.459822e+001 8.143067e+001 8.779755e+001 6.912506e+001 5.925767e+001 4.358434e+001 5.621382e+001 3.951556e+001 5.273521e+001 6.144865e+001 1.569778e+002 1.511020e+000 1.611451e+000 2.589456e+000 2.696645e+000 2.848507e+000 2.535164e+000 2.437501e+000 2.429317e+000 2.589338e+000 2.189660e+000 2.250538e+000 2.318004e+000 1.985410e+000 1.838635e-001 2.482190e-001 3.047369e-001 3.940194e-001 3.953865e-001 4.172359e-001 4.021527e-001 4.487854e-001 4.309125e-001 3.886236e-001 3.673260e-001 3.605493e-001 1.884961e-001
<GCONST> 1.220769e+002
<TRANSP> 5
 0.000000e+000 1.000000e+000 0.000000e+000 0.000000e+000 0.000000e+000
 0.000000e+000 8.571319e-001 1.428681e-001 0.000000e+000 0.000000e+000
 0.000000e+000 0.000000e+000 8.571317e-001 1.428683e-001 0.000000e+000
 0.000000e+000 0.000000e+000 0.000000e+000 9.875779e-001 1.242220e-002
 0.000000e+000 0.000000e+000 0.000000e+000 0.000000e+000 0.000000e+000
<ENDHMM>
~h "gwaeoni"
<BEGINHMM>
<NUMSTATES> 5
<STATE> 2
<MEAN> 39
 -1.565363e+001 2.329198e-001 -3.565632e+000 -4.324054e+000 -1.647233e+000 7.563955e-001 -1.233575e+000 1.279480e-001 -2.453440e+000 1.102555e+000 3.360584e-001 -5.906321e-001 4.913599e+001 2.585626e-001 -1.039116e-001 -2.854216e-001 -5.521020e-001 -2.549880e-002 1.379993e-001 2.636028e-002 -3.384253e-002 -2.249280e-001 7.330813e-002 1.080026e-001 -7.506415e-002 7.461848e-001 6.118108e-002 1.963910e-002 -4.581973e-002 -1.110169e-001 -2.775687e-002 1.737917e-002 -2.659268e-002 3.530793e-002 -2.497296e-003 3.130854e-002 -3.712444e-002 -3.447313e-002 1.032241e-001
<VARIANCE> 39
 2.558008e+001 1.503461e+001 2.640668e+001 6.644495e+001 3.117054e+001 2.920495e+001 2.214522e+001 2.938297e+001 2.670850e+001 2.642715e+001 2.018851e+001 2.246721e+001 9.433897e+001 1.215283e+000 1.850582e+000 2.668428e+000 3.793706e+000 3.325002e+000 2.907799e+000 2.406969e+000 3.077223e+000 2.792983e+000 2.341881e+000 1.929732e+000 1.629445e+000 3.020128e+000 2.225225e-001 3.314763e-001 5.028611e-001 7.109565e-001 6.162243e-001 5.018492e-001 3.888624e-001 5.902811e-001 5.952500e-001 4.507505e-001 3.752308e-001 2.923206e-001 4.879802e-001
<GCONST> 1.166162e+002
<STATE> 3
<MEAN> 39
 -1.162493e+001 -4.211025e-001 -6.130234e+000 -1.059021e+001 -1.475218e+000 2.613431e+000 -1.463089e+000 3.472797e-001 -3.846306e+000 2.173743e+000 2.826030e-001 -2.799839e+000 5.780055e+001 6.002538e-001 -9.167189e-002 -3.692474e-001 -9.165266e-001 3.162430e-002 2.763288e-001 -3.865559e-002 3.795459e-002 -1.914702e-001 1.621224e-001 -1.767089e-002 -3.353089e-001 1.271069e+000 4.645909e-002 -5.934434e-004 -8.156908e-003 -4.518513e-002 1.130326e-002 1.997077e-002 -7.132194e-003 6.836083e-003 5.202887e-003 1.029175e-002 -1.486983e-002 -3.644796e-002 7.103527e-002
<VARIANCE> 39
 5.408582e+001 2.436913e+001 3.850653e+001 1.094552e+002 4.759548e+001 4.634933e+001 2.911077e+001 4.109815e+001 3.868517e+001 3.184840e+001 2.831628e+001 4.159056e+001 1.742033e+002 1.990386e+000 2.216837e+000 3.611458e+000 5.404731e+000 3.656934e+000 3.754966e+000 2.715542e+000 4.129429e+000 3.726359e+000 2.666026e+000 2.446612e+000 2.400398e+000 4.137844e+000 4.122095e-001 4.590760e-001 7.021741e-001 1.071359e+000 6.866062e-001 7.043773e-001 5.165702e-001 8.169753e-001 8.205113e-001 5.347785e-001 4.878010e-001 4.453464e-001 7.287065e-001
<GCONST> 1.301151e+002
<STATE> 4
<MEAN> 39
 -7.613899e+000 2.902964e+000 1.827975e+000 -1.102210e+001 -5.331686e+000 3.261039e+000 -3.281426e+000 -2.220244e+000 -5.908689e+000 2.123519e+000 -9.809497e-001 -4.604998e+000 6.386273e+001 -8.371712e-002 2.557279e-002 5.837129e-002 1.419616e-001 3.753053e-003 -3.776096e-002 8.882732e-003 -1.890236e-002 2.755115e-002 -3.636682e-002 -7.623398e-003 3.886385e-002 -1.853411e-001 -1.006234e-002 -9.313105e-004 1.161213e-003 1.221317e-002 -3.216613e-004 2.561252e-003 1.857685e-003 -3.609520e-003 3.118238e-003 -1.141351e-003 1.245916e-003 3.428587e-003 -1.739511e-002
<VARIANCE> 39
 5.140392e+001 5.056795e+001 1.106864e+002 1.112230e+002 7.876109e+001 5.311248e+001 4.571113e+001 4.875407e+001 4.790523e+001 3.754173e+001 4.578483e+001 4.509441e+001 1.491515e+002 1.014052e+000 1.296503e+000 2.255668e+000 3.176746e+000 2.480377e+000 3.016612e+000 2.367475e+000 2.792079e+000 2.395496e+000 1.927344e+000 2.127979e+000 1.638686e+000 1.798633e+000 1.633766e-001 1.910716e-001 3.182156e-001 4.390421e-001 4.111606e-001 5.150697e-001 4.080457e-001 5.289590e-001 4.227103e-001 3.347040e-001 3.525345e-001 2.798757e-001 1.941978e-001
<GCONST> 1.202178e+002
<TRANSP> 5
 0.000000e+000 1.000000e+000 0.000000e+000 0.000000e+000 0.000000e+000
 0.000000e+000 8.571333e-001 1.428668e-001 0.000000e+000 0.000000e+000
 0.000000e+000 0.000000e+000 8.571332e-001 1.428668e-001 0.000000e+000
 0.000000e+000 0.000000e+000 0.000000e+000 9.877452e-001 1.225477e-002
 0.000000e+000 0.000000e+000 0.000000e+000 0.000000e+000 0.000000e+000
<ENDHMM>
~h "ijipteu"
<BEGINHMM>
<NUMSTATES> 5
<STATE> 2
<MEAN> 39
 -1.739783e+001 3.228665e+000 3.204498e+000 -1.123036e+000 -2.883993e+000 -1.581296e-001 -2.742471e+000 -5.870660e-001 -3.450106e+000 -7.677234e-001 -3.600462e-001 -9.046229e-001 4.835029e+001 5.827555e-002 2.883797e-001 7.709672e-001 -2.719573e-001 -3.450580e-001 -6.912107e-002 -4.374966e-001 -3.440093e-002 -2.972250e-001 1.011847e-002 1.298518e-001 -1.312739e-001 7.776869e-001 9.505404e-004 1.894821e-002 1.001504e-001 -4.770571e-002 -4.778326e-002 2.940204e-002 -3.318565e-002 -4.902718e-002 -1.156321e-001 -2.937615e-002 4.025476e-003 -4.214298e-002 1.243603e-001
<VARIANCE> 39
 1.468056e+001 1.870306e+001 7.262760e+001 1.905433e+001 3.867064e+001 2.126147e+001 3.439760e+001 2.473467e+001 3.193964e+001 2.176145e+001 1.753577e+001 1.663553e+001 9.746999e+001 1.539028e+000 1.084291e+000 3.421381e+000 1.515209e+000 3.344873e+000 1.886622e+000 2.758527e+000 2.245779e+000 2.305046e+000 2.057599e+000 1.651397e+000 1.628471e+000 3.434332e+000 2.850749e-001 1.900463e-001 4.702036e-001 2.374839e-001 5.624771e-001 3.505939e-001 4.876077e-001 4.190486e-001 3.479751e-001 3.677109e-001 3.186537e-001 3.086480e-001 4.672553e-001
<GCONST> 1.109305e+002
<STATE> 3
<MEAN> 39
 -1.649513e+001 5.948392e+000 9.322026e+000 -2.921382e+000 -5.720731e+000 -1.304101e+000 -5.745870e+000 -2.136972e+000 -6.698685e+000 -1.638290e+000 3.385005e-001 -1.957059e+000 5.659626e+001 1.342651e-001 3.926434e-001 8.702328e-001 -2.507319e-001 -4.044612e-001 -1.724111e-001 -4.223588e-001 -2.377668e-001 -4.717068e-001 -1.339113e-001 9.673335e-002 -1.488930e-001 1.202061e+000 1.179316e-002 1.430386e-002 4.631505e-003 8.382394e-003 -3.983876e-003 -1.928709e-002 6.077130e-003 -2.626901e-002 -1.505859e-002 -1.970330e-002 -5.645018e-003 1.719015e-003 5.268837e-002
<VARIANCE> 39
 3.192091e+001 3.381091e+001 1.029417e+002 2.782907e+001 6.611743e+001 3.650844e+001 4.729055e+001 3.826133e+001 4.262700e+001 3.354185e+001 2.458255e+001 2.240667e+001 1.603461e+002 3.370742e+000 2.206029e+000 6.189220e+000 2.455670e+000 6.228588e+000 2.671601e+000 4.062806e+000 2.643745e+000 3.117892e+000 2.742106e+000 2.285292e+000 2.115342e+000 6.809541e+000 5.780354e-001 3.997265e-001 8.310254e-001 4.441594e-001 1.006843e+000 5.047074e-001 6.946606e-001 5.300787e-001 5.276565e-001 5.077850e-001 4.285178e-001 4.149118e-001 9.848709e-001
<GCONST> 1.289214e+002
<STATE> 4
<MEAN> 39
 -1.349608e+001 3.070110e+000 3.795388e+000 -1.170291e+000 -4.266842e+000 -4.903871e+000 -4.893838e+000 -9.399289e-001 -4.301069e+000 -7.145592e-001 -2.968162e-001 -9.884734e-001 5.938509e+001 -1.954473e-002 -6.048543e-002 -1.445332e-001 3.220985e-002 6.431987e-002 2.297558e-002 7.069556e-002 1.670099e-002 7.960028e-002 4.083504e-003 -3.486621e-002 1.800519e-002 -1.703976e-001 -8.798534e-004 -2.672952e-003 -9.959744e-003 -1.970825e-003 -1.188171e-003 1.739459e-003 8.617785e-003 9.660389e-004 3.942153e-003 -3.370168e-003 -6.904997e-003 -1.168458e-003 -1.595199e-002
<VARIANCE> 39
 5.744168e+001 3.719993e+001 7.542020e+001 2.615739e+001 5.093984e+001 5.209250e+001 5.955636e+001 4.231589e+001 3.911575e+001 2.870551e+001 3.078726e+001 3.205547e+001 1.600354e+002 3.315709e+000 2.455113e+000 3.591586e+000 2.426935e+000 4.353840e+000 2.822011e+000 3.995584e+000 2.469673e+000 2.403196e+000 2.195050e+000 2.116186e+000 1.920265e+000 6.934088e+000 4.809479e-001 4.788887e-001 5.425374e-001 4.585037e-001 7.423941e-001 4.948441e-001 6.597260e-001 4.645432e-001 4.342459e-001 3.956954e-001 3.876749e-001 3.468740e-001 9.470752e-001
<GCONST> 1.268366e+002
<TRANSP> 5
 0.000000e+000 1.000000e+000 0.000000e+000 0.000000e+000 0.000000e+000
 0.000000e+000 8.571315e-001 1.428685e-001 0.000000e+000 0.000000e+000
 0.000000e+000 0.000000e+000 8.571312e-001 1.428688e-001 0.000000e+000
 0.000000e+000 0.000000e+000 0.000000e+000 9.875158e-001 1.248422e-002
 0.000000e+000 0.000000e+000 0.000000e+000 0.000000e+000 0.000000e+000
<ENDHMM>
~h "gege"
<BEGINHMM>
<NUMSTATES> 5
<STATE> 2
<MEAN> 39
 -1.677569e+001 -6.703354e-001 -2.608828e+000 -8.173884e-001 -6.654155e-001 -2.004142e+000 -2.564782e+000 9.981120e-002 -1.385038e+000 1.337766e+000 -1.142360e+000 -2.381437e-001 4.931615e+001 1.095934e-001 -3.209023e-002 1.242126e-003 -1.528622e-001 1.389846e-001 -2.769047e-001 -3.615296e-001 -1.591715e-001 -2.284797e-001 9.836332e-002 -1.646790e-001 1.605589e-001 7.113379e-001 4.193664e-002 -1.482408e-002 -1.817070e-003 -4.969038e-002 -2.570686e-002 5.663440e-003 -3.757607e-002 4.891506e-002 8.537359e-003 1.817278e-002 8.942839e-003 -9.098111e-002 1.022136e-001
<VARIANCE> 39
 1.508120e+001 1.977992e+001 3.602723e+001 2.802128e+001 3.331934e+001 3.212464e+001 3.743348e+001 1.745153e+001 2.744168e+001 3.101109e+001 1.899238e+001 1.591239e+001 1.120537e+002 1.100223e+000 1.918175e+000 3.159376e+000 2.957552e+000 2.776410e+000 2.519780e+000 2.548958e+000 1.956807e+000 2.526465e+000 3.143495e+000 1.911543e+000 1.721153e+000 5.074150e+000 2.129569e-001 3.749882e-001 5.189769e-001 6.077067e-001 4.500747e-001 4.409280e-001 4.485957e-001 3.765781e-001 4.562353e-001 5.246690e-001 3.347340e-001 2.771768e-001 9.215592e-001
<GCONST> 1.153821e+002
<STATE> 3
<MEAN> 39
 -1.441482e+001 -1.570339e+000 -1.234325e+000 -2.279053e+000 -2.087202e+000 -4.871302e+000 -6.244874e+000 3.942917e-001 -3.362247e+000 2.591725e+000 -1.313846e+000 -8.205054e-001 5.823545e+001 3.563506e-001 -1.383565e-001 2.128678e-001 -2.118607e-001 -2.352351e-001 -4.180199e-001 -5.371083e-001 6.015310e-002 -2.844744e-001 1.853161e-001 -9.680725e-003 -1.052530e-001 1.315847e+000 3.389609e-002 -1.443903e-002 3.346144e-002 -4.026472e-003 -5.544790e-002 -2.215048e-002 -2.274477e-002 2.885780e-002 -1.031806e-002 1.109760e-002 2.336419e-002 -3.157788e-002 8.288489e-002
<VARIANCE> 39
 3.115005e+001 2.811148e+001 8.588966e+001 3.587777e+001 8.357151e+001 4.829604e+001 5.664198e+001 2.333006e+001 4.604734e+001 5.010473e+001 3.122533e+001 2.602467e+001 1.953188e+002 1.962513e+000 2.873996e+000 5.746705e+000 3.981750e+000 4.270799e+000 3.190342e+000 3.153649e+000 2.062798e+000 3.084365e+000 4.078878e+000 2.372364e+000 1.891995e+000 7.948809e+000 4.106730e-001 5.221359e-001 8.925663e-001 8.117144e-001 6.324537e-001 5.684105e-001 6.045994e-001 4.036016e-001 5.881501e-001 6.905740e-001 4.381219e-001 3.393939e-001 1.544851e+000
<GCONST> 1.304776e+002
<STATE> 4
<MEAN> 39
 -1.073904e+001 8.390169e-002 6.724688e+000 -3.456530e+000 -1.043283e+001 -5.865116e+000 -4.036382e+000 1.855095e+000 -7.180892e+000 9.025088e-001 9.823940e-001 -1.848497e+000 6.429456e+001 -4.837533e-002 3.450182e-002 -1.053549e-002 2.683404e-002 1.521375e-002 7.788450e-002 7.645619e-002 -1.406518e-002 3.777410e-002 -5.470920e-002 7.572033e-003 1.315151e-002 -2.048370e-001 -5.678099e-003 1.475614e-003 -1.318507e-003 3.072785e-003 4.923933e-003 1.013624e-002 6.339035e-003 -2.148718e-003 5.673611e-003 -3.444912e-003 1.525687e-004 -4.767712e-004 -1.848673e-002
<VARIANCE> 39
 3.046201e+001 2.681387e+001 7.818074e+001 3.792811e+001 8.921126e+001 5.224579e+001 7.014641e+001 5.452160e+001 5.818077e+001 5.265584e+001 4.222004e+001 3.458135e+001 1.738958e+002 1.660343e+000 2.072123e+000 2.799470e+000 2.149267e+000 3.356865e+000 2.300973e+000 2.740695e+000 2.315772e+000 2.941064e+000 2.519863e+000 1.967478e+000 1.649886e+000 4.207016e+000 2.950847e-001 3.693066e-001 3.932838e-001 3.911421e-001 4.803897e-001 4.139014e-001 4.615418e-001 3.702526e-001 5.168245e-001 4.467764e-001 3.293519e-001 2.896428e-001 5.814057e-001
<GCONST> 1.232567e+002
<TRANSP> 5
 0.000000e+000 1.000000e+000 0.000000e+000 0.000000e+000 0.000000e+000
 0.000000e+000 8.571247e-001 1.428753e-001 0.000000e+000 0.000000e+000
 0.000000e+000 0.000000e+000 8.571243e-001 1.428757e-001 0.000000e+000
 0.000000e+000 0.000000e+000 0.000000e+000 9.869284e-001 1.307159e-002
 0.000000e+000 0.000000e+000 0.000000e+000 0.000000e+000 0.000000e+000
<ENDHMM>
~h "dwaesseubnida"
<BEGINHMM>
<NUMSTATES> 5
<STATE> 2
<MEAN> 39
 -1.735392e+001 5.034041e-001 -1.179424e+000 -1.373043e+000 -1.160574e+000 -1.944755e+000 -1.017894e+000 4.589403e-001 -1.146592e+000 1.149439e+000 -6.712569e-002 1.192337e+000 4.877697e+001 4.443597e-002 -6.505302e-002 1.179262e-001 -1.191659e-001 5.030894e-002 -1.312679e-001 2.466657e-002 1.553140e-001 -1.584773e-001 -7.592978e-002 -5.189447e-002 2.987674e-002 7.441596e-001 1.435163e-002 1.187806e-002 2.678822e-002 -3.643271e-002 -4.264647e-002 -7.177888e-002 3.084614e-002 9.287621e-004 -1.959876e-003 -1.347446e-002 4.535394e-003 2.562451e-002 1.032993e-001
<VARIANCE> 39
 1.620518e+001 1.179024e+001 1.310497e+001 2.239565e+001 2.151968e+001 3.039802e+001 2.310311e+001 1.956719e+001 1.730907e+001 1.630424e+001 1.578245e+001 1.388923e+001 1.091474e+002 1.712429e+000 1.253009e+000 1.307680e+000 2.596607e+000 2.380955e+000 2.098132e+000 2.008491e+000 1.856087e+000 1.867758e+000 1.867957e+000 1.430961e+000 1.646695e+000 4.926857e+000 2.895488e-001 2.467126e-001 2.388290e-001 5.361882e-001 4.197192e-001 3.240996e-001 3.628350e-001 3.387318e-001 3.244399e-001 3.742296e-001 2.804448e-001 3.401295e-001 8.470894e-001
<GCONST> 1.061362e+002
<STATE> 3
<MEAN> 39
 -1.659420e+001 4.752316e-001 -2.911508e-002 -2.584641e+000 -2.333785e+000 -4.719412e+000 -1.348655e+000 1.232778e+000 -2.155653e+000 6.736889e-001 -6.620125e-001 1.338018e+000 5.739714e+001 1.136817e-001 2.107257e-003 1.661153e-001 -1.753250e-001 -1.878682e-001 -4.161156e-001 -5.374234e-002 1.035015e-001 -1.411720e-001 -6.624997e-002 -8.759405e-002 1.866553e-002 1.264463e+000 9.138314e-003 9.196957e-003 4.232396e-003 -5.323830e-003 -3.207013e-002 -3.650112e-002 -1.506181e-002 -7.508566e-003 3.273544e-003 3.219346e-003 -5.922749e-003 -4.335921e-003 7.006112e-002
<VARIANCE> 39
 4.620495e+001 2.345883e+001 2.607672e+001 3.331120e+001 3.377732e+001 4.738431e+001 2.986386e+001 2.786341e+001 2.375266e+001 2.186174e+001 2.210183e+001 2.333586e+001 1.884342e+002 4.551159e+000 2.070240e+000 2.476456e+000 4.157162e+000 3.071458e+000 3.362188e+000 2.958610e+000 2.404376e+000 2.429177e+000 2.327152e+000 1.981109e+000 2.674747e+000 8.257386e+000 6.999363e-001 3.727024e-001 4.345791e-001 8.936542e-001 5.732786e-001 5.874434e-001 5.647986e-001 4.571977e-001 4.622224e-001 4.783802e-001 3.732733e-001 5.544926e-001 1.456962e+000
<GCONST> 1.242139e+002
<STATE> 4
<MEAN> 39
 -1.111123e+001 7.503747e-001 -7.145083e-001 -3.949360e+000 -2.449948e+000 -3.511907e+000 -3.042557e+000 3.989996e-001 -2.383436e+000 -1.481249e-001 -3.680919e+000 -2.654430e+000 6.374676e+001 -1.017280e-002 2.470011e-003 -3.823869e-002 2.582238e-002 2.698509e-002 4.948664e-002 -7.939976e-003 -2.040325e-002 9.172212e-003 -1.966690e-002 5.434885e-003 -2.214462e-002 -1.648853e-001 -1.663339e-003 -1.463528e-003 -4.935081e-003 1.468866e-003 6.889071e-003 3.379002e-003 -3.200201e-003 -3.299559e-003 -9.681417e-004 -2.000581e-003 4.825966e-003 -3.096599e-003 -1.462110e-002
<VARIANCE> 39
 8.355514e+001 3.620115e+001 7.084701e+001 4.328902e+001 7.879460e+001 5.813480e+001 3.702520e+001 5.077045e+001 4.721487e+001 2.943201e+001 3.959063e+001 4.586674e+001 1.363811e+002 4.485635e+000 1.927550e+000 2.907735e+000 3.256232e+000 3.770836e+000 2.952121e+000 2.874267e+000 3.138131e+000 2.793858e+000 2.109818e+000 2.472550e+000 2.493049e+000 4.044482e+000 6.108577e-001 3.154905e-001 4.381724e-001 5.814266e-001 6.287316e-001 5.327755e-001 5.343370e-001 5.481979e-001 4.735327e-001 3.975863e-001 4.312488e-001 4.430374e-001 6.008229e-001
<GCONST> 1.281798e+002
<TRANSP> 5
 0.000000e+000 1.000000e+000 0.000000e+000 0.000000e+000 0.000000e+000
 0.000000e+000 8.571386e-001 1.428614e-001 0.000000e+000 0.000000e+000
 0.000000e+000 0.000000e+000 8.571386e-001 1.428614e-001 0.000000e+000
 0.000000e+000 0.000000e+000 0.000000e+000 9.885845e-001 1.141547e-002
 0.000000e+000 0.000000e+000 0.000000e+000 0.000000e+000 0.000000e+000
<ENDHMM>
~h "yadangui"
<BEGINHMM>
<NUMSTATES> 5
<STATE> 2
<MEAN> 39
 -1.622648e+001 1.469753e+000 5.282338e-001 -2.509086e+000 -2.317099e+000 -1.756207e+000 -1.470691e+000 1.311276e+000 -3.254640e+000 2.203235e-001 -1.269759e+000 -8.659132e-001 4.928510e+001 2.370858e-001 -4.790591e-002 2.763373e-001 -3.467049e-001 -1.849724e-001 -2.304580e-001 -2.183484e-001 1.784495e-001 -1.825457e-001 7.611511e-002 -5.755895e-002 -1.422796e-001 9.224731e-001 8.521341e-002 2.285970e-002 4.867078e-002 -4.425674e-002 -1.715276e-002 -6.376006e-004 -7.561845e-003 6.101421e-002 2.482854e-002 -1.048382e-002 -6.516009e-002 1.936961e-002 1.105981e-001
<VARIANCE> 39
 2.853736e+001 1.828457e+001 2.682595e+001 2.663627e+001 3.583772e+001 2.497032e+001 2.702726e+001 2.875401e+001 2.361494e+001 1.947342e+001 2.217113e+001 1.869359e+001 1.345638e+002 1.446002e+000 1.768403e+000 2.220001e+000 2.151204e+000 2.732365e+000 2.054761e+000 2.520316e+000 2.257719e+000 1.891521e+000 1.545991e+000 1.725647e+000 1.647061e+000 3.603351e+000 2.318969e-001 3.029369e-001 3.518429e-001 3.606319e-001 4.425890e-001 4.242164e-001 4.539115e-001 4.163921e-001 3.283910e-001 2.600761e-001 2.931271e-001 2.987091e-001 4.282658e-001
<GCONST> 1.105818e+002
<STATE> 3
<MEAN> 39
 -1.214278e+001 4.395799e-001 1.905353e+000 -5.277393e+000 -4.136910e+000 -3.900213e+000 -3.261729e+000 3.335113e+000 -3.145719e+000 3.027405e-001 -3.024743e+000 -2.167856e+000 5.935398e+001 6.098671e-001 -1.565385e-001 1.853518e-001 -3.934834e-001 -2.641495e-001 -3.094350e-001 -2.552642e-001 2.940637e-001 3.462934e-002 6.256519e-003 -2.647298e-001 -1.881689e-001 1.472499e+000 4.906126e-002 -1.954589e-002 -2.002713e-002 -2.474457e-003 -9.639106e-003 -1.187194e-002 -5.133301e-003 1.132173e-002 3.125762e-002 -9.931867e-003 -2.530374e-002 -8.664760e-003 7.352605e-002
<VARIANCE> 39
 5.183025e+001 3.950625e+001 5.089178e+001 4.064513e+001 5.789472e+001 4.453497e+001 4.248447e+001 4.258504e+001 4.061324e+001 2.677678e+001 4.254675e+001 3.206155e+001 2.361326e+002 2.181510e+000 3.409226e+000 4.093433e+000 2.982574e+000 4.290596e+000 3.030553e+000 3.437820e+000 3.044727e+000 2.924592e+000 2.114012e+000 2.551847e+000 2.162015e+000 7.073891e+000 3.862181e-001 5.352889e-001 6.277053e-001 5.485657e-001 7.342803e-001 6.160582e-001 6.374748e-001 5.722944e-001 5.123188e-001 4.011233e-001 4.543792e-001 4.028066e-001 9.247300e-001
<GCONST> 1.290714e+002
<STATE> 4
<MEAN> 39
 -7.927682e+000 8.745003e-001 2.880841e+000 -5.718169e+000 -6.777162e+000 -3.167698e+000 -3.945431e+000 1.365335e+000 -4.214869e+000 1.447443e+000 -3.411591e+000 -4.296294e+000 6.447260e+001 -6.688683e-002 1.661177e-002 -4.512502e-002 7.093283e-002 4.498661e-002 5.644435e-002 3.297884e-002 -5.126583e-002 1.892266e-002 -1.064167e-002 4.515486e-002 3.370247e-002 -2.041754e-001 -7.600059e-003 3.077122e-003 -2.762067e-003 7.334479e-003 8.799899e-003 6.678914e-003 1.575133e-003 -3.918000e-003 -3.545655e-003 -2.386372e-003 7.488781e-003 6.140948e-003 -1.820056e-002
<VARIANCE> 39
 3.699056e+001 3.578804e+001 7.910452e+001 4.126665e+001 6.280425e+001 6.531251e+001 4.974737e+001 5.742435e+001 5.888733e+001 3.643069e+001 6.076370e+001 4.506323e+001 1.729113e+002 1.191543e+000 2.053031e+000 2.791951e+000 1.988533e+000 2.884007e+000 2.585308e+000 2.729413e+000 2.896666e+000 2.581397e+000 2.186646e+000 2.561135e+000 2.146737e+000 4.292350e+000 2.045013e-001 2.967419e-001 3.918843e-001 3.420295e-001 4.630566e-001 4.447496e-001 4.761887e-001 4.702802e-001 4.587750e-001 4.104668e-001 4.447570e-001 3.754543e-001 5.894610e-001
<GCONST> 1.236728e+002
<TRANSP> 5
 0.000000e+000 1.000000e+000 0.000000e+000 0.000000e+000 0.000000e+000
 0.000000e+000 8.571311e-001 1.428689e-001 0.000000e+000 0.000000e+000
 0.000000e+000 0.000000e+000 8.571311e-001 1.428690e-001 0.000000e+000
 0.000000e+000 0.000000e+000 0.000000e+000 9.875700e-001 1.242990e-002
 0.000000e+000 0.000000e+000 0.000000e+000 0.000000e+000 0.000000e+000
<ENDHMM>
~h "yokeondae"
<BEGINHMM>
<NUMSTATES> 5
<STATE> 2
<MEAN> 39
 -1.569597e+001 1.656918e+000 5.610746e-001 -1.633200e+000 -3.163748e+000 -1.155525e+000 -3.028351e+000 -4.595242e-001 -2.901285e+000 -2.813348e-001 3.234294e-003 7.714095e-002 4.826608e+001 3.212424e-001 4.460125e-003 3.268006e-001 -1.102612e-001 -7.136518e-002 1.009704e-001 -3.909475e-001 1.659254e-002 -3.231624e-001 1.206339e-001 5.233392e-002 1.113588e-003 6.735718e-001 4.693067e-002 2.023771e-002 4.620791e-002 -4.269383e-002 -4.420398e-002 -4.540907e-002 9.665602e-003 1.177265e-002 -5.069318e-002 5.214550e-003 9.531016e-003 -5.294282e-002 1.010043e-001
<VARIANCE> 39
 3.176466e+001 1.376989e+001 4.136678e+001 2.756220e+001 3.388496e+001 2.868761e+001 3.887307e+001 2.092560e+001 3.151510e+001 2.015828e+001 1.866123e+001 1.654726e+001 8.418873e+001 1.593274e+000 1.706035e+000 3.924874e+000 2.806453e+000 3.648256e+000 3.023401e+000 3.301667e+000 2.330289e+000 2.627826e+000 2.384640e+000 2.186479e+000 1.784182e+000 3.847663e+000 2.273958e-001 3.475794e-001 6.925570e-001 5.669899e-001 7.135674e-001 6.473312e-001 6.473928e-001 4.764371e-001 4.795151e-001 4.091007e-001 4.255056e-001 3.448587e-001 5.213375e-001
<GCONST> 1.177613e+002
<STATE> 3
<MEAN> 39
 -1.178614e+001 2.085265e+000 1.852702e+000 -3.446522e+000 -4.733541e+000 -1.124328e+000 -5.623866e+000 -4.390367e-001 -5.933184e+000 2.501704e-001 6.583570e-001 -5.872172e-001 5.520947e+001 5.753981e-001 6.609267e-002 1.660398e-001 -2.712142e-001 -2.371152e-001 -2.893211e-003 -3.649298e-001 2.370862e-003 -4.350023e-001 7.224934e-002 9.810706e-002 -1.006170e-001 1.010556e+000 3.465851e-002 7.521293e-003 -3.026023e-002 -2.026310e-002 -2.081026e-002 -1.123640e-002 3.148188e-003 -3.706628e-003 -1.207276e-002 -7.767600e-003 5.974384e-003 -1.043301e-002 4.141500e-002
<VARIANCE> 39
 5.920027e+001 2.354790e+001 7.947433e+001 5.635788e+001 5.479068e+001 4.230221e+001 5.822303e+001 3.738797e+001 4.982372e+001 3.060756e+001 2.962944e+001 2.301292e+001 1.482708e+002 3.069910e+000 3.076488e+000 7.300147e+000 5.498310e+000 5.798864e+000 5.154350e+000 5.322073e+000 4.047859e+000 4.523233e+000 3.092935e+000 3.456628e+000 2.536451e+000 8.441624e+000 4.375372e-001 6.106924e-001 1.269549e+000 1.122080e+000 1.145286e+000 1.120799e+000 9.952645e-001 8.596396e-001 9.198180e-001 6.113840e-001 7.373452e-001 5.161325e-001 1.142081e+000
<GCONST> 1.386788e+002
<STATE> 4
<MEAN> 39
 -8.316640e+000 1.101248e+000 8.553847e-001 -4.354127e+000 -6.318993e+000 -3.120010e+000 -3.464372e+000 9.262496e-001 -4.912948e+000 6.597474e-001 -1.802961e+000 -2.008528e+000 6.193046e+001 -7.209823e-002 -1.419790e-002 -4.980418e-002 3.990899e-002 3.819982e-002 2.139447e-003 5.694154e-002 8.048631e-003 5.868457e-002 -9.083963e-003 -8.186334e-003 2.596578e-002 -1.430206e-001 -6.992796e-003 -1.616860e-003 -1.650752e-003 -1.677676e-003 -3.667165e-003 -2.295928e-003 7.061400e-003 5.360274e-003 9.138308e-004 -5.541309e-005 3.333638e-003 8.359683e-003 -1.315700e-002
<VARIANCE> 39
 4.040806e+001 2.625966e+001 7.425803e+001 5.707687e+001 6.708765e+001 6.679518e+001 6.186282e+001 7.237868e+001 4.460213e+001 4.049575e+001 4.787365e+001 3.985647e+001 1.497976e+002 2.022662e+000 2.028909e+000 4.292463e+000 4.144721e+000 3.983634e+000 3.651232e+000 3.724052e+000 4.198475e+000 3.321193e+000 3.093239e+000 3.022955e+000 2.371449e+000 5.783616e+000 3.142066e-001 3.482372e-001 7.113828e-001 7.654410e-001 6.819664e-001 6.572788e-001 6.443993e-001 7.613138e-001 6.433876e-001 5.790228e-001 5.644586e-001 4.342282e-001 7.454250e-001
<GCONST> 1.326222e+002
<TRANSP> 5
 0.000000e+000 1.000000e+000 0.000000e+000 0.000000e+000 0.000000e+000
 0.000000e+000 8.571342e-001 1.428658e-001 0.000000e+000 0.000000e+000
 0.000000e+000 0.000000e+000 8.571341e-001 1.428659e-001 0.000000e+000
 0.000000e+000 0.000000e+000 0.000000e+000 9.879374e-001 1.206261e-002
 0.000000e+000 0.000000e+000 0.000000e+000 0.000000e+000 0.000000e+000
<ENDHMM>
~h "chungwadae"
<BEGINHMM>
<NUMSTATES> 5
<STATE> 2
<MEAN> 39
 -1.801093e+001 6.175283e-001 -1.772004e+000 -3.340904e+000 -3.282104e-001 -1.382763e+000 -1.521474e+000 5.277305e-001 -1.084695e+000 4.608977e-001 1.702602e-002 1.439636e+000 4.948452e+001 -7.274774e-002 -1.267629e-001 7.458813e-002 -3.296972e-001 -1.839132e-002 -1.434672e-001 -1.949595e-002 9.297516e-002 -1.859968e-001 1.202415e-001 -5.280665e-002 -9.679866e-002 7.676903e-001 -2.862788e-002 -3.163796e-002 -3.861814e-002 -1.453629e-002 3.569846e-002 8.208682e-002 9.253848e-003 -4.305063e-003 4.972238e-002 -5.257351e-002 -1.820790e-002 -4.674364e-002 1.207234e-001
<VARIANCE> 39
 2.723934e+001 1.940504e+001 1.437056e+001 3.866960e+001 2.951910e+001 3.116651e+001 3.143994e+001 2.607780e+001 2.235860e+001 2.064042e+001 1.951571e+001 1.767329e+001 1.288405e+002 2.286798e+000 2.489258e+000 1.838467e+000 3.141819e+000 2.809169e+000 2.810949e+000 3.362446e+000 2.475356e+000 2.624545e+000 2.314210e+000 1.670083e+000 1.567289e+000 4.790642e+000 3.874709e-001 4.441901e-001 3.366461e-001 5.242333e-001 5.329545e-001 5.087766e-001 5.810944e-001 5.025933e-001 5.023568e-001 4.236322e-001 3.083479e-001 3.042626e-001 7.244292e-001
<GCONST> 1.163826e+002
<STATE> 3
<MEAN> 39
 -1.668431e+001 -7.018218e-001 -2.291735e+000 -6.672014e+000 -8.613616e-001 -8.337222e-001 -2.429271e+000 9.765719e-001 -1.529070e+000 4.421452e-001 -1.080686e+000 5.820831e-002 5.851226e+001 2.161047e-001 -1.914160e-001 -8.817819e-002 -4.847813e-001 -8.196986e-002 1.008606e-001 -1.388370e-001 6.236575e-002 -5.077148e-002 -1.409698e-002 -1.668033e-001 -2.051424e-001 1.325262e+000 4.816336e-002 -6.948845e-003 -2.117341e-002 -2.236135e-002 -1.399323e-002 2.935273e-002 -1.962976e-002 -4.443139e-003 1.557461e-002 -1.548214e-002 -1.588877e-002 -1.167147e-002 7.372191e-002
<VARIANCE> 39
 7.818693e+001 2.632534e+001 2.128377e+001 5.218536e+001 4.918930e+001 4.167300e+001 3.353187e+001 3.061013e+001 3.133570e+001 2.577628e+001 3.058863e+001 2.805558e+001 1.985418e+002 4.575173e+000 2.788778e+000 2.220935e+000 4.201008e+000 4.110137e+000 3.704052e+000 3.436449e+000 3.331254e+000 3.559807e+000 2.635845e+000 2.619827e+000 2.212028e+000 7.525565e+000 7.080563e-001 5.897019e-001 4.545736e-001 8.126573e-001 7.506697e-001 7.043396e-001 6.852793e-001 6.570923e-001 7.389586e-001 5.585323e-001 5.203379e-001 4.554326e-001 1.250071e+000
<GCONST> 1.301675e+002
<STATE> 4
<MEAN> 39
 -8.885413e+000 -1.285382e+000 -9.848046e-001 -6.499229e+000 -5.381471e+000 -2.757785e+000 -2.864654e+000 2.759222e+000 -2.281950e+000 -2.788274e-001 -3.327510e+000 -2.338850e+000 6.564015e+001 -1.930290e-002 2.485448e-002 6.735159e-003 8.543015e-002 3.066631e-003 -1.173453e-002 1.903547e-002 -1.887362e-002 1.717398e-002 6.527370e-003 2.604838e-002 2.012785e-002 -1.996882e-001 -4.257977e-003 3.416168e-003 1.310184e-003 4.331163e-003 1.555224e-003 -5.228798e-003 1.303311e-003 -3.153740e-003 -3.961502e-005 3.765251e-003 9.142716e-003 5.197535e-003 -1.864211e-002
<VARIANCE> 39
 6.122730e+001 2.487525e+001 4.398063e+001 5.714024e+001 7.127872e+001 7.925105e+001 5.009086e+001 5.261015e+001 3.984239e+001 3.487011e+001 4.605105e+001 4.743992e+001 1.745202e+002 2.326190e+000 2.163368e+000 2.047315e+000 2.658516e+000 3.829590e+000 3.574598e+000 3.221277e+000 3.239158e+000 2.607103e+000 2.216269e+000 2.803901e+000 2.465136e+000 4.831409e+000 3.482155e-001 3.751069e-001 3.324386e-001 4.515948e-001 6.045786e-001 6.116872e-001 5.846936e-001 5.759842e-001 4.996306e-001 3.992164e-001 5.014772e-001 4.483367e-001 7.226032e-001
<GCONST> 1.275288e+002
<TRANSP> 5
 0.000000e+000 1.000000e+000 0.000000e+000 0.000000e+000 0.000000e+000
 0.000000e+000 8.571267e-001 1.428733e-001 0.000000e+000 0.000000e+000
 0.000000e+000 0.000000e+000 8.571262e-001 1.428737e-001 0.000000e+000
 0.000000e+000 0.000000e+000 0.000000e+000 9.870132e-001 1.298674e-002
 0.000000e+000 0.000000e+000 0.000000e+000 0.000000e+000 0.000000e+000
<ENDHMM>
~h "computer"
<BEGINHMM>
<NUMSTATES> 5
<STATE> 2
<MEAN> 39
 -1.686223e+001 4.167906e-001 -3.301185e+000 -1.958392e+000 6.333248e-001 1.395287e-001 -1.273934e+000 -1.392895e+000 -1.917822e+000 1.427895e+000 -5.060039e-001 -6.498900e-001 4.876835e+001 2.181761e-001 -9.750547e-002 -1.637643e-001 -3.649810e-001 1.293813e-001 1.577221e-001 -8.528449e-002 -1.637816e-001 -1.637022e-001 1.795452e-001 1.183864e-001 4.780276e-002 7.209889e-001 2.249187e-002 4.763751e-003 -1.499577e-002 -4.594466e-002 9.320146e-003 1.084995e-004 -5.227362e-002 -5.097446e-003 -2.585515e-002 -8.018202e-004 -3.691532e-002 -8.642454e-002 9.943590e-002
<VARIANCE> 39
 2.210053e+001 1.143776e+001 3.083186e+001 3.544900e+001 2.634700e+001 2.448505e+001 2.134972e+001 1.932345e+001 2.523360e+001 2.827952e+001 1.875683e+001 1.699642e+001 9.316442e+001 1.520199e+000 1.139104e+000 2.911153e+000 2.857795e+000 2.758362e+000 2.259435e+000 2.197932e+000 1.885895e+000 2.790412e+000 2.844734e+000 2.206382e+000 1.858397e+000 4.546530e+000 2.935184e-001 2.132273e-001 5.059075e-001 5.059749e-001 4.916379e-001 4.046450e-001 4.426751e-001 3.598138e-001 5.093915e-001 5.199835e-001 4.346657e-001 3.153623e-001 7.854939e-001
<GCONST> 1.133410e+002
<STATE> 3
<MEAN> 39
