~o
<STREAMINFO> 1 39
<VECSIZE> 39<NULLD><MFCC_D_A_0><DIAGC>
~h "chungwadae"
<BEGINHMM>
<NUMSTATES> 5
<STATE> 2
<MEAN> 39
 -9.276057e+000 5.719490e-001 7.676244e-001 -4.960926e+000 -4.860048e+000 -1.545354e+000 -4.318652e+000 -2.035741e-001 -4.062080e+000 4.842599e-001 -1.199822e+000 -2.438675e+000 6.164189e+001 7.525467e-004 2.684386e-003 -3.082093e-004 2.228037e-003 -8.813801e-007 -4.186013e-004 1.654850e-003 -5.377145e-003 -4.984015e-003 -6.059816e-003 -1.231459e-003 -1.197991e-004 -3.570544e-003 -5.839384e-004 -2.781982e-005 -2.220918e-004 5.145682e-004 -3.237322e-005 -7.526280e-004 -3.609654e-004 6.755789e-004 1.646860e-003 -2.126306e-005 -1.789731e-004 -7.762628e-004 -1.141438e-003
<VARIANCE> 39
 6.460498e+001 3.289322e+001 7.372739e+001 7.115416e+001 7.165265e+001 6.585312e+001 5.799174e+001 5.230029e+001 5.224282e+001 3.836693e+001 4.914096e+001 4.146418e+001 1.714429e+002 2.200324e+000 1.865560e+000 2.776090e+000 3.123700e+000 3.217412e+000 3.001430e+000 3.089631e+000 3.018445e+000 2.794454e+000 2.426971e+000 2.518615e+000 2.111325e+000 4.410639e+000 3.185133e-001 3.145674e-001 4.136566e-001 5.147737e-001 5.254533e-001 5.061446e-001 5.311490e-001 5.318173e-001 4.926673e-001 4.417985e-001 4.393213e-001 3.691663e-001 5.788727e-001
<GCONST> 1.275629e+002
<STATE> 3
<MEAN> 39
 -9.276057e+000 5.719490e-001 7.676244e-001 -4.960926e+000 -4.860048e+000 -1.545354e+000 -4.318652e+000 -2.035741e-001 -4.062080e+000 4.842599e-001 -1.199822e+000 -2.438675e+000 6.164189e+001 7.525467e-004 2.684386e-003 -3.082093e-004 2.228037e-003 -8.813801e-007 -4.186013e-004 1.654850e-003 -5.377145e-003 -4.984015e-003 -6.059816e-003 -1.231459e-003 -1.197991e-004 -3.570544e-003 -5.839384e-004 -2.781982e-005 -2.220918e-004 5.145682e-004 -3.237322e-005 -7.526280e-004 -3.609654e-004 6.755789e-004 1.646860e-003 -2.126306e-005 -1.789731e-004 -7.762628e-004 -1.141438e-003
<VARIANCE> 39
 6.460498e+001 3.289322e+001 7.372739e+001 7.115416e+001 7.165265e+001 6.585312e+001 5.799174e+001 5.230029e+001 5.224282e+001 3.836693e+001 4.914096e+001 4.146418e+001 1.714429e+002 2.200324e+000 1.865560e+000 2.776090e+000 3.123700e+000 3.217412e+000 3.001430e+000 3.089631e+000 3.018445e+000 2.794454e+000 2.426971e+000 2.518615e+000 2.111325e+000 4.410639e+000 3.185133e-001 3.145674e-001 4.136566e-001 5.147737e-001 5.254533e-001 5.061446e-001 5.311490e-001 5.318173e-001 4.926673e-001 4.417985e-001 4.393213e-001 3.691663e-001 5.788727e-001
<GCONST> 1.275629e+002
<STATE> 4
<MEAN> 39
 -9.276057e+000 5.719490e-001 7.676244e-001 -4.960926e+000 -4.860048e+000 -1.545354e+000 -4.318652e+000 -2.035741e-001 -4.062080e+000 4.842599e-001 -1.199822e+000 -2.438675e+000 6.164189e+001 7.525467e-004 2.684386e-003 -3.082093e-004 2.228037e-003 -8.813801e-007 -4.186013e-004 1.654850e-003 -5.377145e-003 -4.984015e-003 -6.059816e-003 -1.231459e-003 -1.197991e-004 -3.570544e-003 -5.839384e-004 -2.781982e-005 -2.220918e-004 5.145682e-004 -3.237322e-005 -7.526280e-004 -3.609654e-004 6.755789e-004 1.646860e-003 -2.126306e-005 -1.789731e-004 -7.762628e-004 -1.141438e-003
<VARIANCE> 39
 6.460498e+001 3.289322e+001 7.372739e+001 7.115416e+001 7.165265e+001 6.585312e+001 5.799174e+001 5.230029e+001 5.224282e+001 3.836693e+001 4.914096e+001 4.146418e+001 1.714429e+002 2.200324e+000 1.865560e+000 2.776090e+000 3.123700e+000 3.217412e+000 3.001430e+000 3.089631e+000 3.018445e+000 2.794454e+000 2.426971e+000 2.518615e+000 2.111325e+000 4.410639e+000 3.185133e-001 3.145674e-001 4.136566e-001 5.147737e-001 5.254533e-001 5.061446e-001 5.311490e-001 5.318173e-001 4.926673e-001 4.417985e-001 4.393213e-001 3.691663e-001 5.788727e-001
<GCONST> 1.275629e+002
<TRANSP> 5
 0.000000e+000 1.000000e+000 0.000000e+000 0.000000e+000 0.000000e+000
 0.000000e+000 6.000000e-001 4.000000e-001 0.000000e+000 0.000000e+000
 0.000000e+000 0.000000e+000 6.000000e-001 4.000000e-001 0.000000e+000
 0.000000e+000 0.000000e+000 0.000000e+000 7.000000e-001 3.000000e-001
 0.000000e+000 0.000000e+000 0.000000e+000 0.000000e+000 0.000000e+000
<ENDHMM>
~h "computer"
<BEGINHMM>
<NUMSTATES> 5
<STATE> 2
<MEAN> 39
 -9.276057e+000 5.719490e-001 7.676244e-001 -4.960926e+000 -4.860048e+000 -1.545354e+000 -4.318652e+000 -2.035741e-001 -4.062080e+000 4.842599e-001 -1.199822e+000 -2.438675e+000 6.164189e+001 7.525467e-004 2.684386e-003 -3.082093e-004 2.228037e-003 -8.813801e-007 -4.186013e-004 1.654850e-003 -5.377145e-003 -4.984015e-003 -6.059816e-003 -1.231459e-003 -1.197991e-004 -3.570544e-003 -5.839384e-004 -2.781982e-005 -2.220918e-004 5.145682e-004 -3.237322e-005 -7.526280e-004 -3.609654e-004 6.755789e-004 1.646860e-003 -2.126306e-005 -1.789731e-004 -7.762628e-004 -1.141438e-003
<VARIANCE> 39
 6.460498e+001 3.289322e+001 7.372739e+001 7.115416e+001 7.165265e+001 6.585312e+001 5.799174e+001 5.230029e+001 5.224282e+001 3.836693e+001 4.914096e+001 4.146418e+001 1.714429e+002 2.200324e+000 1.865560e+000 2.776090e+000 3.123700e+000 3.217412e+000 3.001430e+000 3.089631e+000 3.018445e+000 2.794454e+000 2.426971e+000 2.518615e+000 2.111325e+000 4.410639e+000 3.185133e-001 3.145674e-001 4.136566e-001 5.147737e-001 5.254533e-001 5.061446e-001 5.311490e-001 5.318173e-001 4.926673e-001 4.417985e-001 4.393213e-001 3.691663e-001 5.788727e-001
<GCONST> 1.275629e+002
<STATE> 3
<MEAN> 39
 -9.276057e+000 5.719490e-001 7.676244e-001 -4.960926e+000 -4.860048e+000 -1.545354e+000 -4.318652e+000 -2.035741e-001 -4.062080e+000 4.842599e-001 -1.199822e+000 -2.438675e+000 6.164189e+001 7.525467e-004 2.684386e-003 -3.082093e-004 2.228037e-003 -8.813801e-007 -4.186013e-004 1.654850e-003 -5.377145e-003 -4.984015e-003 -6.059816e-003 -1.231459e-003 -1.197991e-004 -3.570544e-003 -5.839384e-004 -2.781982e-005 -2.220918e-004 5.145682e-004 -3.237322e-005 -7.526280e-004 -3.609654e-004 6.755789e-004 1.646860e-003 -2.126306e-005 -1.789731e-004 -7.762628e-004 -1.141438e-003
<VARIANCE> 39
 6.460498e+001 3.289322e+001 7.372739e+001 7.115416e+001 7.165265e+001 6.585312e+001 5.799174e+001 5.230029e+001 5.224282e+001 3.836693e+001 4.914096e+001 4.146418e+001 1.714429e+002 2.200324e+000 1.865560e+000 2.776090e+000 3.123700e+000 3.217412e+000 3.001430e+000 3.089631e+000 3.018445e+000 2.794454e+000 2.426971e+000 2.518615e+000 2.111325e+000 4.410639e+000 3.185133e-001 3.145674e-001 4.136566e-001 5.147737e-001 5.254533e-001 5.061446e-001 5.311490e-001 5.318173e-001 4.926673e-001 4.417985e-001 4.393213e-001 3.691663e-001 5.788727e-001
<GCONST> 1.275629e+002
<STATE> 4
<MEAN> 39
 -9.276057e+000 5.719490e-001 7.676244e-001 -4.960926e+000 -4.860048e+000 -1.545354e+000 -4.318652e+000 -2.035741e-001 -4.062080e+000 4.842599e-001 -1.199822e+000 -2.438675e+000 6.164189e+001 7.525467e-004 2.684386e-003 -3.082093e-004 2.228037e-003 -8.813801e-007 -4.186013e-004 1.654850e-003 -5.377145e-003 -4.984015e-003 -6.059816e-003 -1.231459e-003 -1.197991e-004 -3.570544e-003 -5.839384e-004 -2.781982e-005 -2.220918e-004 5.145682e-004 -3.237322e-005 -7.526280e-004 -3.609654e-004 6.755789e-004 1.646860e-003 -2.126306e-005 -1.789731e-004 -7.762628e-004 -1.141438e-003
<VARIANCE> 39
 6.460498e+001 3.289322e+001 7.372739e+001 7.115416e+001 7.165265e+001 6.585312e+001 5.799174e+001 5.230029e+001 5.224282e+001 3.836693e+001 4.914096e+001 4.146418e+001 1.714429e+002 2.200324e+000 1.865560e+000 2.776090e+000 3.123700e+000 3.217412e+000 3.001430e+000 3.089631e+000 3.018445e+000 2.794454e+000 2.426971e+000 2.518615e+000 2.111325e+000 4.410639e+000 3.185133e-001 3.145674e-001 4.136566e-001 5.147737e-001 5.254533e-001 5.061446e-001 5.311490e-001 5.318173e-001 4.926673e-001 4.417985e-001 4.393213e-001 3.691663e-001 5.788727e-001
<GCONST> 1.275629e+002
<TRANSP> 5
 0.000000e+000 1.000000e+000 0.000000e+000 0.000000e+000 0.000000e+000
 0.000000e+000 6.000000e-001 4.000000e-001 0.000000e+000 0.000000e+000
 0.000000e+000 0.000000e+000 6.000000e-001 4.000000e-001 0.000000e+000
 0.000000e+000 0.000000e+000 0.000000e+000 7.000000e-001 3.000000e-001
 0.000000e+000 0.000000e+000 0.000000e+000 0.000000e+000 0.000000e+000
<ENDHMM>
~h "gege"
<BEGINHMM>
<NUMSTATES> 5
<STATE> 2
<MEAN> 39
 -9.276057e+000 5.719490e-001 7.676244e-001 -4.960926e+000 -4.860048e+000 -1.545354e+000 -4.318652e+000 -2.035741e-001 -4.062080e+000 4.842599e-001 -1.199822e+000 -2.438675e+000 6.164189e+001 7.525467e-004 2.684386e-003 -3.082093e-004 2.228037e-003 -8.813801e-007 -4.186013e-004 1.654850e-003 -5.377145e-003 -4.984015e-003 -6.059816e-003 -1.231459e-003 -1.197991e-004 -3.570544e-003 -5.839384e-004 -2.781982e-005 -2.220918e-004 5.145682e-004 -3.237322e-005 -7.526280e-004 -3.609654e-004 6.755789e-004 1.646860e-003 -2.126306e-005 -1.789731e-004 -7.762628e-004 -1.141438e-003
<VARIANCE> 39
 6.460498e+001 3.289322e+001 7.372739e+001 7.115416e+001 7.165265e+001 6.585312e+001 5.799174e+001 5.230029e+001 5.224282e+001 3.836693e+001 4.914096e+001 4.146418e+001 1.714429e+002 2.200324e+000 1.865560e+000 2.776090e+000 3.123700e+000 3.217412e+000 3.001430e+000 3.089631e+000 3.018445e+000 2.794454e+000 2.426971e+000 2.518615e+000 2.111325e+000 4.410639e+000 3.185133e-001 3.145674e-001 4.136566e-001 5.147737e-001 5.254533e-001 5.061446e-001 5.311490e-001 5.318173e-001 4.926673e-001 4.417985e-001 4.393213e-001 3.691663e-001 5.788727e-001
<GCONST> 1.275629e+002
<STATE> 3
<MEAN> 39
 -9.276057e+000 5.719490e-001 7.676244e-001 -4.960926e+000 -4.860048e+000 -1.545354e+000 -4.318652e+000 -2.035741e-001 -4.062080e+000 4.842599e-001 -1.199822e+000 -2.438675e+000 6.164189e+001 7.525467e-004 2.684386e-003 -3.082093e-004 2.228037e-003 -8.813801e-007 -4.186013e-004 1.654850e-003 -5.377145e-003 -4.984015e-003 -6.059816e-003 -1.231459e-003 -1.197991e-004 -3.570544e-003 -5.839384e-004 -2.781982e-005 -2.220918e-004 5.145682e-004 -3.237322e-005 -7.526280e-004 -3.609654e-004 6.755789e-004 1.646860e-003 -2.126306e-005 -1.789731e-004 -7.762628e-004 -1.141438e-003
<VARIANCE> 39
 6.460498e+001 3.289322e+001 7.372739e+001 7.115416e+001 7.165265e+001 6.585312e+001 5.799174e+001 5.230029e+001 5.224282e+001 3.836693e+001 4.914096e+001 4.146418e+001 1.714429e+002 2.200324e+000 1.865560e+000 2.776090e+000 3.123700e+000 3.217412e+000 3.001430e+000 3.089631e+000 3.018445e+000 2.794454e+000 2.426971e+000 2.518615e+000 2.111325e+000 4.410639e+000 3.185133e-001 3.145674e-001 4.136566e-001 5.147737e-001 5.254533e-001 5.061446e-001 5.311490e-001 5.318173e-001 4.926673e-001 4.417985e-001 4.393213e-001 3.691663e-001 5.788727e-001
<GCONST> 1.275629e+002
<STATE> 4
<MEAN> 39
 -9.276057e+000 5.719490e-001 7.676244e-001 -4.960926e+000 -4.860048e+000 -1.545354e+000 -4.318652e+000 -2.035741e-001 -4.062080e+000 4.842599e-001 -1.199822e+000 -2.438675e+000 6.164189e+001 7.525467e-004 2.684386e-003 -3.082093e-004 2.228037e-003 -8.813801e-007 -4.186013e-004 1.654850e-003 -5.377145e-003 -4.984015e-003 -6.059816e-003 -1.231459e-003 -1.197991e-004 -3.570544e-003 -5.839384e-004 -2.781982e-005 -2.220918e-004 5.145682e-004 -3.237322e-005 -7.526280e-004 -3.609654e-004 6.755789e-004 1.646860e-003 -2.126306e-005 -1.789731e-004 -7.762628e-004 -1.141438e-003
<VARIANCE> 39
 6.460498e+001 3.289322e+001 7.372739e+001 7.115416e+001 7.165265e+001 6.585312e+001 5.799174e+001 5.230029e+001 5.224282e+001 3.836693e+001 4.914096e+001 4.146418e+001 1.714429e+002 2.200324e+000 1.865560e+000 2.776090e+000 3.123700e+000 3.217412e+000 3.001430e+000 3.089631e+000 3.018445e+000 2.794454e+000 2.426971e+000 2.518615e+000 2.111325e+000 4.410639e+000 3.185133e-001 3.145674e-001 4.136566e-001 5.147737e-001 5.254533e-001 5.061446e-001 5.311490e-001 5.318173e-001 4.926673e-001 4.417985e-001 4.393213e-001 3.691663e-001 5.788727e-001
<GCONST> 1.275629e+002
<TRANSP> 5
 0.000000e+000 1.000000e+000 0.000000e+000 0.000000e+000 0.000000e+000
 0.000000e+000 6.000000e-001 4.000000e-001 0.000000e+000 0.000000e+000
 0.000000e+000 0.000000e+000 6.000000e-001 4.000000e-001 0.000000e+000
 0.000000e+000 0.000000e+000 0.000000e+000 7.000000e-001 3.000000e-001
 0.000000e+000 0.000000e+000 0.000000e+000 0.000000e+000 0.000000e+000
<ENDHMM>
~h "widaehan"
<BEGINHMM>
<NUMSTATES> 5
<STATE> 2
<MEAN> 39
 -9.276057e+000 5.719490e-001 7.676244e-001 -4.960926e+000 -4.860048e+000 -1.545354e+000 -4.318652e+000 -2.035741e-001 -4.062080e+000 4.842599e-001 -1.199822e+000 -2.438675e+000 6.164189e+001 7.525467e-004 2.684386e-003 -3.082093e-004 2.228037e-003 -8.813801e-007 -4.186013e-004 1.654850e-003 -5.377145e-003 -4.984015e-003 -6.059816e-003 -1.231459e-003 -1.197991e-004 -3.570544e-003 -5.839384e-004 -2.781982e-005 -2.220918e-004 5.145682e-004 -3.237322e-005 -7.526280e-004 -3.609654e-004 6.755789e-004 1.646860e-003 -2.126306e-005 -1.789731e-004 -7.762628e-004 -1.141438e-003
<VARIANCE> 39
 6.460498e+001 3.289322e+001 7.372739e+001 7.115416e+001 7.165265e+001 6.585312e+001 5.799174e+001 5.230029e+001 5.224282e+001 3.836693e+001 4.914096e+001 4.146418e+001 1.714429e+002 2.200324e+000 1.865560e+000 2.776090e+000 3.123700e+000 3.217412e+000 3.001430e+000 3.089631e+000 3.018445e+000 2.794454e+000 2.426971e+000 2.518615e+000 2.111325e+000 4.410639e+000 3.185133e-001 3.145674e-001 4.136566e-001 5.147737e-001 5.254533e-001 5.061446e-001 5.311490e-001 5.318173e-001 4.926673e-001 4.417985e-001 4.393213e-001 3.691663e-001 5.788727e-001
<GCONST> 1.275629e+002
<STATE> 3
<MEAN> 39
 -9.276057e+000 5.719490e-001 7.676244e-001 -4.960926e+000 -4.860048e+000 -1.545354e+000 -4.318652e+000 -2.035741e-001 -4.062080e+000 4.842599e-001 -1.199822e+000 -2.438675e+000 6.164189e+001 7.525467e-004 2.684386e-003 -3.082093e-004 2.228037e-003 -8.813801e-007 -4.186013e-004 1.654850e-003 -5.377145e-003 -4.984015e-003 -6.059816e-003 -1.231459e-003 -1.197991e-004 -3.570544e-003 -5.839384e-004 -2.781982e-005 -2.220918e-004 5.145682e-004 -3.237322e-005 -7.526280e-004 -3.609654e-004 6.755789e-004 1.646860e-003 -2.126306e-005 -1.789731e-004 -7.762628e-004 -1.141438e-003
<VARIANCE> 39
 6.460498e+001 3.289322e+001 7.372739e+001 7.115416e+001 7.165265e+001 6.585312e+001 5.799174e+001 5.230029e+001 5.224282e+001 3.836693e+001 4.914096e+001 4.146418e+001 1.714429e+002 2.200324e+000 1.865560e+000 2.776090e+000 3.123700e+000 3.217412e+000 3.001430e+000 3.089631e+000 3.018445e+000 2.794454e+000 2.426971e+000 2.518615e+000 2.111325e+000 4.410639e+000 3.185133e-001 3.145674e-001 4.136566e-001 5.147737e-001 5.254533e-001 5.061446e-001 5.311490e-001 5.318173e-001 4.926673e-001 4.417985e-001 4.393213e-001 3.691663e-001 5.788727e-001
<GCONST> 1.275629e+002
<STATE> 4
<MEAN> 39
 -9.276057e+000 5.719490e-001 7.676244e-001 -4.960926e+000 -4.860048e+000 -1.545354e+000 -4.318652e+000 -2.035741e-001 -4.062080e+000 4.842599e-001 -1.199822e+000 -2.438675e+000 6.164189e+001 7.525467e-004 2.684386e-003 -3.082093e-004 2.228037e-003 -8.813801e-007 -4.186013e-004 1.654850e-003 -5.377145e-003 -4.984015e-003 -6.059816e-003 -1.231459e-003 -1.197991e-004 -3.570544e-003 -5.839384e-004 -2.781982e-005 -2.220918e-004 5.145682e-004 -3.237322e-005 -7.526280e-004 -3.609654e-004 6.755789e-004 1.646860e-003 -2.126306e-005 -1.789731e-004 -7.762628e-004 -1.141438e-003
<VARIANCE> 39
 6.460498e+001 3.289322e+001 7.372739e+001 7.115416e+001 7.165265e+001 6.585312e+001 5.799174e+001 5.230029e+001 5.224282e+001 3.836693e+001 4.914096e+001 4.146418e+001 1.714429e+002 2.200324e+000 1.865560e+000 2.776090e+000 3.123700e+000 3.217412e+000 3.001430e+000 3.089631e+000 3.018445e+000 2.794454e+000 2.426971e+000 2.518615e+000 2.111325e+000 4.410639e+000 3.185133e-001 3.145674e-001 4.136566e-001 5.147737e-001 5.254533e-001 5.061446e-001 5.311490e-001 5.318173e-001 4.926673e-001 4.417985e-001 4.393213e-001 3.691663e-001 5.788727e-001
<GCONST> 1.275629e+002
<TRANSP> 5
 0.000000e+000 1.000000e+000 0.000000e+000 0.000000e+000 0.000000e+000
 0.000000e+000 6.000000e-001 4.000000e-001 0.000000e+000 0.000000e+000
 0.000000e+000 0.000000e+000 6.000000e-001 4.000000e-001 0.000000e+000
 0.000000e+000 0.000000e+000 0.000000e+000 7.000000e-001 3.000000e-001
 0.000000e+000 0.000000e+000 0.000000e+000 0.000000e+000 0.000000e+000
<ENDHMM>
~h "dangnyobyung"
<BEGINHMM>
<NUMSTATES> 5
<STATE> 2
<MEAN> 39
 -9.276057e+000 5.719490e-001 7.676244e-001 -4.960926e+000 -4.860048e+000 -1.545354e+000 -4.318652e+000 -2.035741e-001 -4.062080e+000 4.842599e-001 -1.199822e+000 -2.438675e+000 6.164189e+001 7.525467e-004 2.684386e-003 -3.082093e-004 2.228037e-003 -8.813801e-007 -4.186013e-004 1.654850e-003 -5.377145e-003 -4.984015e-003 -6.059816e-003 -1.231459e-003 -1.197991e-004 -3.570544e-003 -5.839384e-004 -2.781982e-005 -2.220918e-004 5.145682e-004 -3.237322e-005 -7.526280e-004 -3.609654e-004 6.755789e-004 1.646860e-003 -2.126306e-005 -1.789731e-004 -7.762628e-004 -1.141438e-003
<VARIANCE> 39
 6.460498e+001 3.289322e+001 7.372739e+001 7.115416e+001 7.165265e+001 6.585312e+001 5.799174e+001 5.230029e+001 5.224282e+001 3.836693e+001 4.914096e+001 4.146418e+001 1.714429e+002 2.200324e+000 1.865560e+000 2.776090e+000 3.123700e+000 3.217412e+000 3.001430e+000 3.089631e+000 3.018445e+000 2.794454e+000 2.426971e+000 2.518615e+000 2.111325e+000 4.410639e+000 3.185133e-001 3.145674e-001 4.136566e-001 5.147737e-001 5.254533e-001 5.061446e-001 5.311490e-001 5.318173e-001 4.926673e-001 4.417985e-001 4.393213e-001 3.691663e-001 5.788727e-001
<GCONST> 1.275629e+002
<STATE> 3
<MEAN> 39
 -9.276057e+000 5.719490e-001 7.676244e-001 -4.960926e+000 -4.860048e+000 -1.545354e+000 -4.318652e+000 -2.035741e-001 -4.062080e+000 4.842599e-001 -1.199822e+000 -2.438675e+000 6.164189e+001 7.525467e-004 2.684386e-003 -3.082093e-004 2.228037e-003 -8.813801e-007 -4.186013e-004 1.654850e-003 -5.377145e-003 -4.984015e-003 -6.059816e-003 -1.231459e-003 -1.197991e-004 -3.570544e-003 -5.839384e-004 -2.781982e-005 -2.220918e-004 5.145682e-004 -3.237322e-005 -7.526280e-004 -3.609654e-004 6.755789e-004 1.646860e-003 -2.126306e-005 -1.789731e-004 -7.762628e-004 -1.141438e-003
<VARIANCE> 39
 6.460498e+001 3.289322e+001 7.372739e+001 7.115416e+001 7.165265e+001 6.585312e+001 5.799174e+001 5.230029e+001 5.224282e+001 3.836693e+001 4.914096e+001 4.146418e+001 1.714429e+002 2.200324e+000 1.865560e+000 2.776090e+000 3.123700e+000 3.217412e+000 3.001430e+000 3.089631e+000 3.018445e+000 2.794454e+000 2.426971e+000 2.518615e+000 2.111325e+000 4.410639e+000 3.185133e-001 3.145674e-001 4.136566e-001 5.147737e-001 5.254533e-001 5.061446e-001 5.311490e-001 5.318173e-001 4.926673e-001 4.417985e-001 4.393213e-001 3.691663e-001 5.788727e-001
<GCONST> 1.275629e+002
<STATE> 4
<MEAN> 39
 -9.276057e+000 5.719490e-001 7.676244e-001 -4.960926e+000 -4.860048e+000 -1.545354e+000 -4.318652e+000 -2.035741e-001 -4.062080e+000 4.842599e-001 -1.199822e+000 -2.438675e+000 6.164189e+001 7.525467e-004 2.684386e-003 -3.082093e-004 2.228037e-003 -8.813801e-007 -4.186013e-004 1.654850e-003 -5.377145e-003 -4.984015e-003 -6.059816e-003 -1.231459e-003 -1.197991e-004 -3.570544e-003 -5.839384e-004 -2.781982e-005 -2.220918e-004 5.145682e-004 -3.237322e-005 -7.526280e-004 -3.609654e-004 6.755789e-004 1.646860e-003 -2.126306e-005 -1.789731e-004 -7.762628e-004 -1.141438e-003
<VARIANCE> 39
 6.460498e+001 3.289322e+001 7.372739e+001 7.115416e+001 7.165265e+001 6.585312e+001 5.799174e+001 5.230029e+001 5.224282e+001 3.836693e+001 4.914096e+001 4.146418e+001 1.714429e+002 2.200324e+000 1.865560e+000 2.776090e+000 3.123700e+000 3.217412e+000 3.001430e+000 3.089631e+000 3.018445e+000 2.794454e+000 2.426971e+000 2.518615e+000 2.111325e+000 4.410639e+000 3.185133e-001 3.145674e-001 4.136566e-001 5.147737e-001 5.254533e-001 5.061446e-001 5.311490e-001 5.318173e-001 4.926673e-001 4.417985e-001 4.393213e-001 3.691663e-001 5.788727e-001
<GCONST> 1.275629e+002
<TRANSP> 5
 0.000000e+000 1.000000e+000 0.000000e+000 0.000000e+000 0.000000e+000
 0.000000e+000 6.000000e-001 4.000000e-001 0.000000e+000 0.000000e+000
 0.000000e+000 0.000000e+000 6.000000e-001 4.000000e-001 0.000000e+000
 0.000000e+000 0.000000e+000 0.000000e+000 7.000000e-001 3.000000e-001
 0.000000e+000 0.000000e+000 0.000000e+000 0.000000e+000 0.000000e+000
<ENDHMM>
~h"gyamalo"
<BEGINHMM>
<NUMSTATES> 5
<STATE> 2
<MEAN> 39
 -9.276057e+000 5.719490e-001 7.676244e-001 -4.960926e+000 -4.860048e+000 -1.545354e+000 -4.318652e+000 -2.035741e-001 -4.062080e+000 4.842599e-001 -1.199822e+000 -2.438675e+000 6.164189e+001 7.525467e-004 2.684386e-003 -3.082093e-004 2.228037e-003 -8.813801e-007 -4.186013e-004 1.654850e-003 -5.377145e-003 -4.984015e-003 -6.059816e-003 -1.231459e-003 -1.197991e-004 -3.570544e-003 -5.839384e-004 -2.781982e-005 -2.220918e-004 5.145682e-004 -3.237322e-005 -7.526280e-004 -3.609654e-004 6.755789e-004 1.646860e-003 -2.126306e-005 -1.789731e-004 -7.762628e-004 -1.141438e-003
<VARIANCE> 39
 6.460498e+001 3.289322e+001 7.372739e+001 7.115416e+001 7.165265e+001 6.585312e+001 5.799174e+001 5.230029e+001 5.224282e+001 3.836693e+001 4.914096e+001 4.146418e+001 1.714429e+002 2.200324e+000 1.865560e+000 2.776090e+000 3.123700e+000 3.217412e+000 3.001430e+000 3.089631e+000 3.018445e+000 2.794454e+000 2.426971e+000 2.518615e+000 2.111325e+000 4.410639e+000 3.185133e-001 3.145674e-001 4.136566e-001 5.147737e-001 5.254533e-001 5.061446e-001 5.311490e-001 5.318173e-001 4.926673e-001 4.417985e-001 4.393213e-001 3.691663e-001 5.788727e-001
<GCONST> 1.275629e+002
<STATE> 3
<MEAN> 39
 -9.276057e+000 5.719490e-001 7.676244e-001 -4.960926e+000 -4.860048e+000 -1.545354e+000 -4.318652e+000 -2.035741e-001 -4.062080e+000 4.842599e-001 -1.199822e+000 -2.438675e+000 6.164189e+001 7.525467e-004 2.684386e-003 -3.082093e-004 2.228037e-003 -8.813801e-007 -4.186013e-004 1.654850e-003 -5.377145e-003 -4.984015e-003 -6.059816e-003 -1.231459e-003 -1.197991e-004 -3.570544e-003 -5.839384e-004 -2.781982e-005 -2.220918e-004 5.145682e-004 -3.237322e-005 -7.526280e-004 -3.609654e-004 6.755789e-004 1.646860e-003 -2.126306e-005 -1.789731e-004 -7.762628e-004 -1.141438e-003
<VARIANCE> 39
 6.460498e+001 3.289322e+001 7.372739e+001 7.115416e+001 7.165265e+001 6.585312e+001 5.799174e+001 5.230029e+001 5.224282e+001 3.836693e+001 4.914096e+001 4.146418e+001 1.714429e+002 2.200324e+000 1.865560e+000 2.776090e+000 3.123700e+000 3.217412e+000 3.001430e+000 3.089631e+000 3.018445e+000 2.794454e+000 2.426971e+000 2.518615e+000 2.111325e+000 4.410639e+000 3.185133e-001 3.145674e-001 4.136566e-001 5.147737e-001 5.254533e-001 5.061446e-001 5.311490e-001 5.318173e-001 4.926673e-001 4.417985e-001 4.393213e-001 3.691663e-001 5.788727e-001
<GCONST> 1.275629e+002
<STATE> 4
<MEAN> 39
 -9.276057e+000 5.719490e-001 7.676244e-001 -4.960926e+000 -4.860048e+000 -1.545354e+000 -4.318652e+000 -2.035741e-001 -4.062080e+000 4.842599e-001 -1.199822e+000 -2.438675e+000 6.164189e+001 7.525467e-004 2.684386e-003 -3.082093e-004 2.228037e-003 -8.813801e-007 -4.186013e-004 1.654850e-003 -5.377145e-003 -4.984015e-003 -6.059816e-003 -1.231459e-003 -1.197991e-004 -3.570544e-003 -5.839384e-004 -2.781982e-005 -2.220918e-004 5.145682e-004 -3.237322e-005 -7.526280e-004 -3.609654e-004 6.755789e-004 1.646860e-003 -2.126306e-005 -1.789731e-004 -7.762628e-004 -1.141438e-003
<VARIANCE> 39
 6.460498e+001 3.289322e+001 7.372739e+001 7.115416e+001 7.165265e+001 6.585312e+001 5.799174e+001 5.230029e+001 5.224282e+001 3.836693e+001 4.914096e+001 4.146418e+001 1.714429e+002 2.200324e+000 1.865560e+000 2.776090e+000 3.123700e+000 3.217412e+000 3.001430e+000 3.089631e+000 3.018445e+000 2.794454e+000 2.426971e+000 2.518615e+000 2.111325e+000 4.410639e+000 3.185133e-001 3.145674e-001 4.136566e-001 5.147737e-001 5.254533e-001 5.061446e-001 5.311490e-001 5.318173e-001 4.926673e-001 4.417985e-001 4.393213e-001 3.691663e-001 5.788727e-001
<GCONST> 1.275629e+002
<TRANSP> 5
 0.000000e+000 1.000000e+000 0.000000e+000 0.000000e+000 0.000000e+000
 0.000000e+000 6.000000e-001 4.000000e-001 0.000000e+000 0.000000e+000
 0.000000e+000 0.000000e+000 6.000000e-001 4.000000e-001 0.000000e+000
 0.000000e+000 0.000000e+000 0.000000e+000 7.000000e-001 3.000000e-001
 0.000000e+000 0.000000e+000 0.000000e+000 0.000000e+000 0.000000e+000
<ENDHMM>
~h "yekeondae"
<BEGINHMM>
<NUMSTATES> 5
<STATE> 2
<MEAN> 39
 -9.276057e+000 5.719490e-001 7.676244e-001 -4.960926e+000 -4.860048e+000 -1.545354e+000 -4.318652e+000 -2.035741e-001 -4.062080e+000 4.842599e-001 -1.199822e+000 -2.438675e+000 6.164189e+001 7.525467e-004 2.684386e-003 -3.082093e-004 2.228037e-003 -8.813801e-007 -4.186013e-004 1.654850e-003 -5.377145e-003 -4.984015e-003 -6.059816e-003 -1.231459e-003 -1.197991e-004 -3.570544e-003 -5.839384e-004 -2.781982e-005 -2.220918e-004 5.145682e-004 -3.237322e-005 -7.526280e-004 -3.609654e-004 6.755789e-004 1.646860e-003 -2.126306e-005 -1.789731e-004 -7.762628e-004 -1.141438e-003
<VARIANCE> 39
 6.460498e+001 3.289322e+001 7.372739e+001 7.115416e+001 7.165265e+001 6.585312e+001 5.799174e+001 5.230029e+001 5.224282e+001 3.836693e+001 4.914096e+001 4.146418e+001 1.714429e+002 2.200324e+000 1.865560e+000 2.776090e+000 3.123700e+000 3.217412e+000 3.001430e+000 3.089631e+000 3.018445e+000 2.794454e+000 2.426971e+000 2.518615e+000 2.111325e+000 4.410639e+000 3.185133e-001 3.145674e-001 4.136566e-001 5.147737e-001 5.254533e-001 5.061446e-001 5.311490e-001 5.318173e-001 4.926673e-001 4.417985e-001 4.393213e-001 3.691663e-001 5.788727e-001
<GCONST> 1.275629e+002
<STATE> 3
<MEAN> 39
 -9.276057e+000 5.719490e-001 7.676244e-001 -4.960926e+000 -4.860048e+000 -1.545354e+000 -4.318652e+000 -2.035741e-001 -4.062080e+000 4.842599e-001 -1.199822e+000 -2.438675e+000 6.164189e+001 7.525467e-004 2.684386e-003 -3.082093e-004 2.228037e-003 -8.813801e-007 -4.186013e-004 1.654850e-003 -5.377145e-003 -4.984015e-003 -6.059816e-003 -1.231459e-003 -1.197991e-004 -3.570544e-003 -5.839384e-004 -2.781982e-005 -2.220918e-004 5.145682e-004 -3.237322e-005 -7.526280e-004 -3.609654e-004 6.755789e-004 1.646860e-003 -2.126306e-005 -1.789731e-004 -7.762628e-004 -1.141438e-003
<VARIANCE> 39
 6.460498e+001 3.289322e+001 7.372739e+001 7.115416e+001 7.165265e+001 6.585312e+001 5.799174e+001 5.230029e+001 5.224282e+001 3.836693e+001 4.914096e+001 4.146418e+001 1.714429e+002 2.200324e+000 1.865560e+000 2.776090e+000 3.123700e+000 3.217412e+000 3.001430e+000 3.089631e+000 3.018445e+000 2.794454e+000 2.426971e+000 2.518615e+000 2.111325e+000 4.410639e+000 3.185133e-001 3.145674e-001 4.136566e-001 5.147737e-001 5.254533e-001 5.061446e-001 5.311490e-001 5.318173e-001 4.926673e-001 4.417985e-001 4.393213e-001 3.691663e-001 5.788727e-001
<GCONST> 1.275629e+002
<STATE> 4
<MEAN> 39
 -9.276057e+000 5.719490e-001 7.676244e-001 -4.960926e+000 -4.860048e+000 -1.545354e+000 -4.318652e+000 -2.035741e-001 -4.062080e+000 4.842599e-001 -1.199822e+000 -2.438675e+000 6.164189e+001 7.525467e-004 2.684386e-003 -3.082093e-004 2.228037e-003 -8.813801e-007 -4.186013e-004 1.654850e-003 -5.377145e-003 -4.984015e-003 -6.059816e-003 -1.231459e-003 -1.197991e-004 -3.570544e-003 -5.839384e-004 -2.781982e-005 -2.220918e-004 5.145682e-004 -3.237322e-005 -7.526280e-004 -3.609654e-004 6.755789e-004 1.646860e-003 -2.126306e-005 -1.789731e-004 -7.762628e-004 -1.141438e-003
<VARIANCE> 39
 6.460498e+001 3.289322e+001 7.372739e+001 7.115416e+001 7.165265e+001 6.585312e+001 5.799174e+001 5.230029e+001 5.224282e+001 3.836693e+001 4.914096e+001 4.146418e+001 1.714429e+002 2.200324e+000 1.865560e+000 2.776090e+000 3.123700e+000 3.217412e+000 3.001430e+000 3.089631e+000 3.018445e+000 2.794454e+000 2.426971e+000 2.518615e+000 2.111325e+000 4.410639e+000 3.185133e-001 3.145674e-001 4.136566e-001 5.147737e-001 5.254533e-001 5.061446e-001 5.311490e-001 5.318173e-001 4.926673e-001 4.417985e-001 4.393213e-001 3.691663e-001 5.788727e-001
<GCONST> 1.275629e+002
<TRANSP> 5
 0.000000e+000 1.000000e+000 0.000000e+000 0.000000e+000 0.000000e+000
 0.000000e+000 6.000000e-001 4.000000e-001 0.000000e+000 0.000000e+000
 0.000000e+000 0.000000e+000 6.000000e-001 4.000000e-001 0.000000e+000
 0.000000e+000 0.000000e+000 0.000000e+000 7.000000e-001 3.000000e-001
 0.000000e+000 0.000000e+000 0.000000e+000 0.000000e+000 0.000000e+000
<ENDHMM>
~h "bunyaeseo"
<BEGINHMM>
<NUMSTATES> 5
<STATE> 2
<MEAN> 39
 -9.276057e+000 5.719490e-001 7.676244e-001 -4.960926e+000 -4.860048e+000 -1.545354e+000 -4.318652e+000 -2.035741e-001 -4.062080e+000 4.842599e-001 -1.199822e+000 -2.438675e+000 6.164189e+001 7.525467e-004 2.684386e-003 -3.082093e-004 2.228037e-003 -8.813801e-007 -4.186013e-004 1.654850e-003 -5.377145e-003 -4.984015e-003 -6.059816e-003 -1.231459e-003 -1.197991e-004 -3.570544e-003 -5.839384e-004 -2.781982e-005 -2.220918e-004 5.145682e-004 -3.237322e-005 -7.526280e-004 -3.609654e-004 6.755789e-004 1.646860e-003 -2.126306e-005 -1.789731e-004 -7.762628e-004 -1.141438e-003
<VARIANCE> 39
 6.460498e+001 3.289322e+001 7.372739e+001 7.115416e+001 7.165265e+001 6.585312e+001 5.799174e+001 5.230029e+001 5.224282e+001 3.836693e+001 4.914096e+001 4.146418e+001 1.714429e+002 2.200324e+000 1.865560e+000 2.776090e+000 3.123700e+000 3.217412e+000 3.001430e+000 3.089631e+000 3.018445e+000 2.794454e+000 2.426971e+000 2.518615e+000 2.111325e+000 4.410639e+000 3.185133e-001 3.145674e-001 4.136566e-001 5.147737e-001 5.254533e-001 5.061446e-001 5.311490e-001 5.318173e-001 4.926673e-001 4.417985e-001 4.393213e-001 3.691663e-001 5.788727e-001
<GCONST> 1.275629e+002
<STATE> 3
<MEAN> 39
 -9.276057e+000 5.719490e-001 7.676244e-001 -4.960926e+000 -4.860048e+000 -1.545354e+000 -4.318652e+000 -2.035741e-001 -4.062080e+000 4.842599e-001 -1.199822e+000 -2.438675e+000 6.164189e+001 7.525467e-004 2.684386e-003 -3.082093e-004 2.228037e-003 -8.813801e-007 -4.186013e-004 1.654850e-003 -5.377145e-003 -4.984015e-003 -6.059816e-003 -1.231459e-003 -1.197991e-004 -3.570544e-003 -5.839384e-004 -2.781982e-005 -2.220918e-004 5.145682e-004 -3.237322e-005 -7.526280e-004 -3.609654e-004 6.755789e-004 1.646860e-003 -2.126306e-005 -1.789731e-004 -7.762628e-004 -1.141438e-003
<VARIANCE> 39
 6.460498e+001 3.289322e+001 7.372739e+001 7.115416e+001 7.165265e+001 6.585312e+001 5.799174e+001 5.230029e+001 5.224282e+001 3.836693e+001 4.914096e+001 4.146418e+001 1.714429e+002 2.200324e+000 1.865560e+000 2.776090e+000 3.123700e+000 3.217412e+000 3.001430e+000 3.089631e+000 3.018445e+000 2.794454e+000 2.426971e+000 2.518615e+000 2.111325e+000 4.410639e+000 3.185133e-001 3.145674e-001 4.136566e-001 5.147737e-001 5.254533e-001 5.061446e-001 5.311490e-001 5.318173e-001 4.926673e-001 4.417985e-001 4.393213e-001 3.691663e-001 5.788727e-001
<GCONST> 1.275629e+002
<STATE> 4
<MEAN> 39
 -9.276057e+000 5.719490e-001 7.676244e-001 -4.960926e+000 -4.860048e+000 -1.545354e+000 -4.318652e+000 -2.035741e-001 -4.062080e+000 4.842599e-001 -1.199822e+000 -2.438675e+000 6.164189e+001 7.525467e-004 2.684386e-003 -3.082093e-004 2.228037e-003 -8.813801e-007 -4.186013e-004 1.654850e-003 -5.377145e-003 -4.984015e-003 -6.059816e-003 -1.231459e-003 -1.197991e-004 -3.570544e-003 -5.839384e-004 -2.781982e-005 -2.220918e-004 5.145682e-004 -3.237322e-005 -7.526280e-004 -3.609654e-004 6.755789e-004 1.646860e-003 -2.126306e-005 -1.789731e-004 -7.762628e-004 -1.141438e-003
<VARIANCE> 39
 6.460498e+001 3.289322e+001 7.372739e+001 7.115416e+001 7.165265e+001 6.585312e+001 5.799174e+001 5.230029e+001 5.224282e+001 3.836693e+001 4.914096e+001 4.146418e+001 1.714429e+002 2.200324e+000 1.865560e+000 2.776090e+000 3.123700e+000 3.217412e+000 3.001430e+000 3.089631e+000 3.018445e+000 2.794454e+000 2.426971e+000 2.518615e+000 2.111325e+000 4.410639e+000 3.185133e-001 3.145674e-001 4.136566e-001 5.147737e-001 5.254533e-001 5.061446e-001 5.311490e-001 5.318173e-001 4.926673e-001 4.417985e-001 4.393213e-001 3.691663e-001 5.788727e-001
<GCONST> 1.275629e+002
<TRANSP> 5
 0.000000e+000 1.000000e+000 0.000000e+000 0.000000e+000 0.000000e+000
 0.000000e+000 6.000000e-001 4.000000e-001 0.000000e+000 0.000000e+000
 0.000000e+000 0.000000e+000 6.000000e-001 4.000000e-001 0.000000e+000
 0.000000e+000 0.000000e+000 0.000000e+000 7.000000e-001 3.000000e-001
 0.000000e+000 0.000000e+000 0.000000e+000 0.000000e+000 0.000000e+000
<ENDHMM>
~h"eoduun"
<BEGINHMM>
<NUMSTATES> 5
<STATE> 2
<MEAN> 39
 -9.276057e+000 5.719490e-001 7.676244e-001 -4.960926e+000 -4.860048e+000 -1.545354e+000 -4.318652e+000 -2.035741e-001 -4.062080e+000 4.842599e-001 -1.199822e+000 -2.438675e+000 6.164189e+001 7.525467e-004 2.684386e-003 -3.082093e-004 2.228037e-003 -8.813801e-007 -4.186013e-004 1.654850e-003 -5.377145e-003 -4.984015e-003 -6.059816e-003 -1.231459e-003 -1.197991e-004 -3.570544e-003 -5.839384e-004 -2.781982e-005 -2.220918e-004 5.145682e-004 -3.237322e-005 -7.526280e-004 -3.609654e-004 6.755789e-004 1.646860e-003 -2.126306e-005 -1.789731e-004 -7.762628e-004 -1.141438e-003
<VARIANCE> 39
 6.460498e+001 3.289322e+001 7.372739e+001 7.115416e+001 7.165265e+001 6.585312e+001 5.799174e+001 5.230029e+001 5.224282e+001 3.836693e+001 4.914096e+001 4.146418e+001 1.714429e+002 2.200324e+000 1.865560e+000 2.776090e+000 3.123700e+000 3.217412e+000 3.001430e+000 3.089631e+000 3.018445e+000 2.794454e+000 2.426971e+000 2.518615e+000 2.111325e+000 4.410639e+000 3.185133e-001 3.145674e-001 4.136566e-001 5.147737e-001 5.254533e-001 5.061446e-001 5.311490e-001 5.318173e-001 4.926673e-001 4.417985e-001 4.393213e-001 3.691663e-001 5.788727e-001
<GCONST> 1.275629e+002
<STATE> 3
<MEAN> 39
 -9.276057e+000 5.719490e-001 7.676244e-001 -4.960926e+000 -4.860048e+000 -1.545354e+000 -4.318652e+000 -2.035741e-001 -4.062080e+000 4.842599e-001 -1.199822e+000 -2.438675e+000 6.164189e+001 7.525467e-004 2.684386e-003 -3.082093e-004 2.228037e-003 -8.813801e-007 -4.186013e-004 1.654850e-003 -5.377145e-003 -4.984015e-003 -6.059816e-003 -1.231459e-003 -1.197991e-004 -3.570544e-003 -5.839384e-004 -2.781982e-005 -2.220918e-004 5.145682e-004 -3.237322e-005 -7.526280e-004 -3.609654e-004 6.755789e-004 1.646860e-003 -2.126306e-005 -1.789731e-004 -7.762628e-004 -1.141438e-003
<VARIANCE> 39
 6.460498e+001 3.289322e+001 7.372739e+001 7.115416e+001 7.165265e+001 6.585312e+001 5.799174e+001 5.230029e+001 5.224282e+001 3.836693e+001 4.914096e+001 4.146418e+001 1.714429e+002 2.200324e+000 1.865560e+000 2.776090e+000 3.123700e+000 3.217412e+000 3.001430e+000 3.089631e+000 3.018445e+000 2.794454e+000 2.426971e+000 2.518615e+000 2.111325e+000 4.410639e+000 3.185133e-001 3.145674e-001 4.136566e-001 5.147737e-001 5.254533e-001 5.061446e-001 5.311490e-001 5.318173e-001 4.926673e-001 4.417985e-001 4.393213e-001 3.691663e-001 5.788727e-001
<GCONST> 1.275629e+002
<STATE> 4
<MEAN> 39
 -9.276057e+000 5.719490e-001 7.676244e-001 -4.960926e+000 -4.860048e+000 -1.545354e+000 -4.318652e+000 -2.035741e-001 -4.062080e+000 4.842599e-001 -1.199822e+000 -2.438675e+000 6.164189e+001 7.525467e-004 2.684386e-003 -3.082093e-004 2.228037e-003 -8.813801e-007 -4.186013e-004 1.654850e-003 -5.377145e-003 -4.984015e-003 -6.059816e-003 -1.231459e-003 -1.197991e-004 -3.570544e-003 -5.839384e-004 -2.781982e-005 -2.220918e-004 5.145682e-004 -3.237322e-005 -7.526280e-004 -3.609654e-004 6.755789e-004 1.646860e-003 -2.126306e-005 -1.789731e-004 -7.762628e-004 -1.141438e-003
<VARIANCE> 39
 6.460498e+001 3.289322e+001 7.372739e+001 7.115416e+001 7.165265e+001 6.585312e+001 5.799174e+001 5.230029e+001 5.224282e+001 3.836693e+001 4.914096e+001 4.146418e+001 1.714429e+002 2.200324e+000 1.865560e+000 2.776090e+000 3.123700e+000 3.217412e+000 3.001430e+000 3.089631e+000 3.018445e+000 2.794454e+000 2.426971e+000 2.518615e+000 2.111325e+000 4.410639e+000 3.185133e-001 3.145674e-001 4.136566e-001 5.147737e-001 5.254533e-001 5.061446e-001 5.311490e-001 5.318173e-001 4.926673e-001 4.417985e-001 4.393213e-001 3.691663e-001 5.788727e-001
<GCONST> 1.275629e+002
<TRANSP> 5
 0.000000e+000 1.000000e+000 0.000000e+000 0.000000e+000 0.000000e+000
 0.000000e+000 6.000000e-001 4.000000e-001 0.000000e+000 0.000000e+000
 0.000000e+000 0.000000e+000 6.000000e-001 4.000000e-001 0.000000e+000
 0.000000e+000 0.000000e+000 0.000000e+000 7.000000e-001 3.000000e-001
 0.000000e+000 0.000000e+000 0.000000e+000 0.000000e+000 0.000000e+000
<ENDHMM>
~h "software"
<BEGINHMM>
<NUMSTATES> 5
<STATE> 2
<MEAN> 39
 -9.276057e+000 5.719490e-001 7.676244e-001 -4.960926e+000 -4.860048e+000 -1.545354e+000 -4.318652e+000 -2.035741e-001 -4.062080e+000 4.842599e-001 -1.199822e+000 -2.438675e+000 6.164189e+001 7.525467e-004 2.684386e-003 -3.082093e-004 2.228037e-003 -8.813801e-007 -4.186013e-004 1.654850e-003 -5.377145e-003 -4.984015e-003 -6.059816e-003 -1.231459e-003 -1.197991e-004 -3.570544e-003 -5.839384e-004 -2.781982e-005 -2.220918e-004 5.145682e-004 -3.237322e-005 -7.526280e-004 -3.609654e-004 6.755789e-004 1.646860e-003 -2.126306e-005 -1.789731e-004 -7.762628e-004 -1.141438e-003
<VARIANCE> 39
 6.460498e+001 3.289322e+001 7.372739e+001 7.115416e+001 7.165265e+001 6.585312e+001 5.799174e+001 5.230029e+001 5.224282e+001 3.836693e+001 4.914096e+001 4.146418e+001 1.714429e+002 2.200324e+000 1.865560e+000 2.776090e+000 3.123700e+000 3.217412e+000 3.001430e+000 3.089631e+000 3.018445e+000 2.794454e+000 2.426971e+000 2.518615e+000 2.111325e+000 4.410639e+000 3.185133e-001 3.145674e-001 4.136566e-001 5.147737e-001 5.254533e-001 5.061446e-001 5.311490e-001 5.318173e-001 4.926673e-001 4.417985e-001 4.393213e-001 3.691663e-001 5.788727e-001
<GCONST> 1.275629e+002
<STATE> 3
<MEAN> 39
 -9.276057e+000 5.719490e-001 7.676244e-001 -4.960926e+000 -4.860048e+000 -1.545354e+000 -4.318652e+000 -2.035741e-001 -4.062080e+000 4.842599e-001 -1.199822e+000 -2.438675e+000 6.164189e+001 7.525467e-004 2.684386e-003 -3.082093e-004 2.228037e-003 -8.813801e-007 -4.186013e-004 1.654850e-003 -5.377145e-003 -4.984015e-003 -6.059816e-003 -1.231459e-003 -1.197991e-004 -3.570544e-003 -5.839384e-004 -2.781982e-005 -2.220918e-004 5.145682e-004 -3.237322e-005 -7.526280e-004 -3.609654e-004 6.755789e-004 1.646860e-003 -2.126306e-005 -1.789731e-004 -7.762628e-004 -1.141438e-003
<VARIANCE> 39
 6.460498e+001 3.289322e+001 7.372739e+001 7.115416e+001 7.165265e+001 6.585312e+001 5.799174e+001 5.230029e+001 5.224282e+001 3.836693e+001 4.914096e+001 4.146418e+001 1.714429e+002 2.200324e+000 1.865560e+000 2.776090e+000 3.123700e+000 3.217412e+000 3.001430e+000 3.089631e+000 3.018445e+000 2.794454e+000 2.426971e+000 2.518615e+000 2.111325e+000 4.410639e+000 3.185133e-001 3.145674e-001 4.136566e-001 5.147737e-001 5.254533e-001 5.061446e-001 5.311490e-001 5.318173e-001 4.926673e-001 4.417985e-001 4.393213e-001 3.691663e-001 5.788727e-001
<GCONST> 1.275629e+002
<STATE> 4
<MEAN> 39
 -9.276057e+000 5.719490e-001 7.676244e-001 -4.960926e+000 -4.860048e+000 -1.545354e+000 -4.318652e+000 -2.035741e-001 -4.062080e+000 4.842599e-001 -1.199822e+000 -2.438675e+000 6.164189e+001 7.525467e-004 2.684386e-003 -3.082093e-004 2.228037e-003 -8.813801e-007 -4.186013e-004 1.654850e-003 -5.377145e-003 -4.984015e-003 -6.059816e-003 -1.231459e-003 -1.197991e-004 -3.570544e-003 -5.839384e-004 -2.781982e-005 -2.220918e-004 5.145682e-004 -3.237322e-005 -7.526280e-004 -3.609654e-004 6.755789e-004 1.646860e-003 -2.126306e-005 -1.789731e-004 -7.762628e-004 -1.141438e-003
<VARIANCE> 39
 6.460498e+001 3.289322e+001 7.372739e+001 7.115416e+001 7.165265e+001 6.585312e+001 5.799174e+001 5.230029e+001 5.224282e+001 3.836693e+001 4.914096e+001 4.146418e+001 1.714429e+002 2.200324e+000 1.865560e+000 2.776090e+000 3.123700e+000 3.217412e+000 3.001430e+000 3.089631e+000 3.018445e+000 2.794454e+000 2.426971e+000 2.518615e+000 2.111325e+000 4.410639e+000 3.185133e-001 3.145674e-001 4.136566e-001 5.147737e-001 5.254533e-001 5.061446e-001 5.311490e-001 5.318173e-001 4.926673e-001 4.417985e-001 4.393213e-001 3.691663e-001 5.788727e-001
<GCONST> 1.275629e+002
<TRANSP> 5
 0.000000e+000 1.000000e+000 0.000000e+000 0.000000e+000 0.000000e+000
 0.000000e+000 6.000000e-001 4.000000e-001 0.000000e+000 0.000000e+000
 0.000000e+000 0.000000e+000 6.000000e-001 4.000000e-001 0.000000e+000
 0.000000e+000 0.000000e+000 0.000000e+000 7.000000e-001 3.000000e-001
 0.000000e+000 0.000000e+000 0.000000e+000 0.000000e+000 0.000000e+000
<ENDHMM>
~h "dwaesseubnida"
<BEGINHMM>
<NUMSTATES> 5
<STATE> 2
<MEAN> 39
 -9.276057e+000 5.719490e-001 7.676244e-001 -4.960926e+000 -4.860048e+000 -1.545354e+000 -4.318652e+000 -2.035741e-001 -4.062080e+000 4.842599e-001 -1.199822e+000 -2.438675e+000 6.164189e+001 7.525467e-004 2.684386e-003 -3.082093e-004 2.228037e-003 -8.813801e-007 -4.186013e-004 1.654850e-003 -5.377145e-003 -4.984015e-003 -6.059816e-003 -1.231459e-003 -1.197991e-004 -3.570544e-003 -5.839384e-004 -2.781982e-005 -2.220918e-004 5.145682e-004 -3.237322e-005 -7.526280e-004 -3.609654e-004 6.755789e-004 1.646860e-003 -2.126306e-005 -1.789731e-004 -7.762628e-004 -1.141438e-003
<VARIANCE> 39
 6.460498e+001 3.289322e+001 7.372739e+001 7.115416e+001 7.165265e+001 6.585312e+001 5.799174e+001 5.230029e+001 5.224282e+001 3.836693e+001 4.914096e+001 4.146418e+001 1.714429e+002 2.200324e+000 1.865560e+000 2.776090e+000 3.123700e+000 3.217412e+000 3.001430e+000 3.089631e+000 3.018445e+000 2.794454e+000 2.426971e+000 2.518615e+000 2.111325e+000 4.410639e+000 3.185133e-001 3.145674e-001 4.136566e-001 5.147737e-001 5.254533e-001 5.061446e-001 5.311490e-001 5.318173e-001 4.926673e-001 4.417985e-001 4.393213e-001 3.691663e-001 5.788727e-001
<GCONST> 1.275629e+002
<STATE> 3
<MEAN> 39
 -9.276057e+000 5.719490e-001 7.676244e-001 -4.960926e+000 -4.860048e+000 -1.545354e+000 -4.318652e+000 -2.035741e-001 -4.062080e+000 4.842599e-001 -1.199822e+000 -2.438675e+000 6.164189e+001 7.525467e-004 2.684386e-003 -3.082093e-004 2.228037e-003 -8.813801e-007 -4.186013e-004 1.654850e-003 -5.377145e-003 -4.984015e-003 -6.059816e-003 -1.231459e-003 -1.197991e-004 -3.570544e-003 -5.839384e-004 -2.781982e-005 -2.220918e-004 5.145682e-004 -3.237322e-005 -7.526280e-004 -3.609654e-004 6.755789e-004 1.646860e-003 -2.126306e-005 -1.789731e-004 -7.762628e-004 -1.141438e-003
<VARIANCE> 39
 6.460498e+001 3.289322e+001 7.372739e+001 7.115416e+001 7.165265e+001 6.585312e+001 5.799174e+001 5.230029e+001 5.224282e+001 3.836693e+001 4.914096e+001 4.146418e+001 1.714429e+002 2.200324e+000 1.865560e+000 2.776090e+000 3.123700e+000 3.217412e+000 3.001430e+000 3.089631e+000 3.018445e+000 2.794454e+000 2.426971e+000 2.518615e+000 2.111325e+000 4.410639e+000 3.185133e-001 3.145674e-001 4.136566e-001 5.147737e-001 5.254533e-001 5.061446e-001 5.311490e-001 5.318173e-001 4.926673e-001 4.417985e-001 4.393213e-001 3.691663e-001 5.788727e-001
<GCONST> 1.275629e+002
<STATE> 4
<MEAN> 39
 -9.276057e+000 5.719490e-001 7.676244e-001 -4.960926e+000 -4.860048e+000 -1.545354e+000 -4.318652e+000 -2.035741e-001 -4.062080e+000 4.842599e-001 -1.199822e+000 -2.438675e+000 6.164189e+001 7.525467e-004 2.684386e-003 -3.082093e-004 2.228037e-003 -8.813801e-007 -4.186013e-004 1.654850e-003 -5.377145e-003 -4.984015e-003 -6.059816e-003 -1.231459e-003 -1.197991e-004 -3.570544e-003 -5.839384e-004 -2.781982e-005 -2.220918e-004 5.145682e-004 -3.237322e-005 -7.526280e-004 -3.609654e-004 6.755789e-004 1.646860e-003 -2.126306e-005 -1.789731e-004 -7.762628e-004 -1.141438e-003
<VARIANCE> 39
 6.460498e+001 3.289322e+001 7.372739e+001 7.115416e+001 7.165265e+001 6.585312e+001 5.799174e+001 5.230029e+001 5.224282e+001 3.836693e+001 4.914096e+001 4.146418e+001 1.714429e+002 2.200324e+000 1.865560e+000 2.776090e+000 3.123700e+000 3.217412e+000 3.001430e+000 3.089631e+000 3.018445e+000 2.794454e+000 2.426971e+000 2.518615e+000 2.111325e+000 4.410639e+000 3.185133e-001 3.145674e-001 4.136566e-001 5.147737e-001 5.254533e-001 5.061446e-001 5.311490e-001 5.318173e-001 4.926673e-001 4.417985e-001 4.393213e-001 3.691663e-001 5.788727e-001
<GCONST> 1.275629e+002
<TRANSP> 5
 0.000000e+000 1.000000e+000 0.000000e+000 0.000000e+000 0.000000e+000
 0.000000e+000 6.000000e-001 4.000000e-001 0.000000e+000 0.000000e+000
 0.000000e+000 0.000000e+000 6.000000e-001 4.000000e-001 0.000000e+000
 0.000000e+000 0.000000e+000 0.000000e+000 7.000000e-001 3.000000e-001
 0.000000e+000 0.000000e+000 0.000000e+000 0.000000e+000 0.000000e+000
<ENDHMM>
~h "aninyaneun"
<BEGINHMM>
<NUMSTATES> 5
<STATE> 2
<MEAN> 39
 -9.276057e+000 5.719490e-001 7.676244e-001 -4.960926e+000 -4.860048e+000 -1.545354e+000 -4.318652e+000 -2.035741e-001 -4.062080e+000 4.842599e-001 -1.199822e+000 -2.438675e+000 6.164189e+001 7.525467e-004 2.684386e-003 -3.082093e-004 2.228037e-003 -8.813801e-007 -4.186013e-004 1.654850e-003 -5.377145e-003 -4.984015e-003 -6.059816e-003 -1.231459e-003 -1.197991e-004 -3.570544e-003 -5.839384e-004 -2.781982e-005 -2.220918e-004 5.145682e-004 -3.237322e-005 -7.526280e-004 -3.609654e-004 6.755789e-004 1.646860e-003 -2.126306e-005 -1.789731e-004 -7.762628e-004 -1.141438e-003
<VARIANCE> 39
 6.460498e+001 3.289322e+001 7.372739e+001 7.115416e+001 7.165265e+001 6.585312e+001 5.799174e+001 5.230029e+001 5.224282e+001 3.836693e+001 4.914096e+001 4.146418e+001 1.714429e+002 2.200324e+000 1.865560e+000 2.776090e+000 3.123700e+000 3.217412e+000 3.001430e+000 3.089631e+000 3.018445e+000 2.794454e+000 2.426971e+000 2.518615e+000 2.111325e+000 4.410639e+000 3.185133e-001 3.145674e-001 4.136566e-001 5.147737e-001 5.254533e-001 5.061446e-001 5.311490e-001 5.318173e-001 4.926673e-001 4.417985e-001 4.393213e-001 3.691663e-001 5.788727e-001
<GCONST> 1.275629e+002
<STATE> 3
<MEAN> 39
 -9.276057e+000 5.719490e-001 7.676244e-001 -4.960926e+000 -4.860048e+000 -1.545354e+000 -4.318652e+000 -2.035741e-001 -4.062080e+000 4.842599e-001 -1.199822e+000 -2.438675e+000 6.164189e+001 7.525467e-004 2.684386e-003 -3.082093e-004 2.228037e-003 -8.813801e-007 -4.186013e-004 1.654850e-003 -5.377145e-003 -4.984015e-003 -6.059816e-003 -1.231459e-003 -1.197991e-004 -3.570544e-003 -5.839384e-004 -2.781982e-005 -2.220918e-004 5.145682e-004 -3.237322e-005 -7.526280e-004 -3.609654e-004 6.755789e-004 1.646860e-003 -2.126306e-005 -1.789731e-004 -7.762628e-004 -1.141438e-003
<VARIANCE> 39
 6.460498e+001 3.289322e+001 7.372739e+001 7.115416e+001 7.165265e+001 6.585312e+001 5.799174e+001 5.230029e+001 5.224282e+001 3.836693e+001 4.914096e+001 4.146418e+001 1.714429e+002 2.200324e+000 1.865560e+000 2.776090e+000 3.123700e+000 3.217412e+000 3.001430e+000 3.089631e+000 3.018445e+000 2.794454e+000 2.426971e+000 2.518615e+000 2.111325e+000 4.410639e+000 3.185133e-001 3.145674e-001 4.136566e-001 5.147737e-001 5.254533e-001 5.061446e-001 5.311490e-001 5.318173e-001 4.926673e-001 4.417985e-001 4.393213e-001 3.691663e-001 5.788727e-001
<GCONST> 1.275629e+002
<STATE> 4
<MEAN> 39
 -9.276057e+000 5.719490e-001 7.676244e-001 -4.960926e+000 -4.860048e+000 -1.545354e+000 -4.318652e+000 -2.035741e-001 -4.062080e+000 4.842599e-001 -1.199822e+000 -2.438675e+000 6.164189e+001 7.525467e-004 2.684386e-003 -3.082093e-004 2.228037e-003 -8.813801e-007 -4.186013e-004 1.654850e-003 -5.377145e-003 -4.984015e-003 -6.059816e-003 -1.231459e-003 -1.197991e-004 -3.570544e-003 -5.839384e-004 -2.781982e-005 -2.220918e-004 5.145682e-004 -3.237322e-005 -7.526280e-004 -3.609654e-004 6.755789e-004 1.646860e-003 -2.126306e-005 -1.789731e-004 -7.762628e-004 -1.141438e-003
<VARIANCE> 39
 6.460498e+001 3.289322e+001 7.372739e+001 7.115416e+001 7.165265e+001 6.585312e+001 5.799174e+001 5.230029e+001 5.224282e+001 3.836693e+001 4.914096e+001 4.146418e+001 1.714429e+002 2.200324e+000 1.865560e+000 2.776090e+000 3.123700e+000 3.217412e+000 3.001430e+000 3.089631e+000 3.018445e+000 2.794454e+000 2.426971e+000 2.518615e+000 2.111325e+000 4.410639e+000 3.185133e-001 3.145674e-001 4.136566e-001 5.147737e-001 5.254533e-001 5.061446e-001 5.311490e-001 5.318173e-001 4.926673e-001 4.417985e-001 4.393213e-001 3.691663e-001 5.788727e-001
<GCONST> 1.275629e+002
<TRANSP> 5
 0.000000e+000 1.000000e+000 0.000000e+000 0.000000e+000 0.000000e+000
 0.000000e+000 6.000000e-001 4.000000e-001 0.000000e+000 0.000000e+000
 0.000000e+000 0.000000e+000 6.000000e-001 4.000000e-001 0.000000e+000
 0.000000e+000 0.000000e+000 0.000000e+000 7.000000e-001 3.000000e-001
 0.000000e+000 0.000000e+000 0.000000e+000 0.000000e+000 0.000000e+000
<ENDHMM>
~h "yadangui"
<BEGINHMM>
<NUMSTATES> 5
<STATE> 2
<MEAN> 39
 -9.276057e+000 5.719490e-001 7.676244e-001 -4.960926e+000 -4.860048e+000 -1.545354e+000 -4.318652e+000 -2.035741e-001 -4.062080e+000 4.842599e-001 -1.199822e+000 -2.438675e+000 6.164189e+001 7.525467e-004 2.684386e-003 -3.082093e-004 2.228037e-003 -8.813801e-007 -4.186013e-004 1.654850e-003 -5.377145e-003 -4.984015e-003 -6.059816e-003 -1.231459e-003 -1.197991e-004 -3.570544e-003 -5.839384e-004 -2.781982e-005 -2.220918e-004 5.145682e-004 -3.237322e-005 -7.526280e-004 -3.609654e-004 6.755789e-004 1.646860e-003 -2.126306e-005 -1.789731e-004 -7.762628e-004 -1.141438e-003
<VARIANCE> 39
 6.460498e+001 3.289322e+001 7.372739e+001 7.115416e+001 7.165265e+001 6.585312e+001 5.799174e+001 5.230029e+001 5.224282e+001 3.836693e+001 4.914096e+001 4.146418e+001 1.714429e+002 2.200324e+000 1.865560e+000 2.776090e+000 3.123700e+000 3.217412e+000 3.001430e+000 3.089631e+000 3.018445e+000 2.794454e+000 2.426971e+000 2.518615e+000 2.111325e+000 4.410639e+000 3.185133e-001 3.145674e-001 4.136566e-001 5.147737e-001 5.254533e-001 5.061446e-001 5.311490e-001 5.318173e-001 4.926673e-001 4.417985e-001 4.393213e-001 3.691663e-001 5.788727e-001
<GCONST> 1.275629e+002
<STATE> 3
<MEAN> 39
 -9.276057e+000 5.719490e-001 7.676244e-001 -4.960926e+000 -4.860048e+000 -1.545354e+000 -4.318652e+000 -2.035741e-001 -4.062080e+000 4.842599e-001 -1.199822e+000 -2.438675e+000 6.164189e+001 7.525467e-004 2.684386e-003 -3.082093e-004 2.228037e-003 -8.813801e-007 -4.186013e-004 1.654850e-003 -5.377145e-003 -4.984015e-003 -6.059816e-003 -1.231459e-003 -1.197991e-004 -3.570544e-003 -5.839384e-004 -2.781982e-005 -2.220918e-004 5.145682e-004 -3.237322e-005 -7.526280e-004 -3.609654e-004 6.755789e-004 1.646860e-003 -2.126306e-005 -1.789731e-004 -7.762628e-004 -1.141438e-003
<VARIANCE> 39
 6.460498e+001 3.289322e+001 7.372739e+001 7.115416e+001 7.165265e+001 6.585312e+001 5.799174e+001 5.230029e+001 5.224282e+001 3.836693e+001 4.914096e+001 4.146418e+001 1.714429e+002 2.200324e+000 1.865560e+000 2.776090e+000 3.123700e+000 3.217412e+000 3.001430e+000 3.089631e+000 3.018445e+000 2.794454e+000 2.426971e+000 2.518615e+000 2.111325e+000 4.410639e+000 3.185133e-001 3.145674e-001 4.136566e-001 5.147737e-001 5.254533e-001 5.061446e-001 5.311490e-001 5.318173e-001 4.926673e-001 4.417985e-001 4.393213e-001 3.691663e-001 5.788727e-001
<GCONST> 1.275629e+002
<STATE> 4
<MEAN> 39
 -9.276057e+000 5.719490e-001 7.676244e-001 -4.960926e+000 -4.860048e+000 -1.545354e+000 -4.318652e+000 -2.035741e-001 -4.062080e+000 4.842599e-001 -1.199822e+000 -2.438675e+000 6.164189e+001 7.525467e-004 2.684386e-003 -3.082093e-004 2.228037e-003 -8.813801e-007 -4.186013e-004 1.654850e-003 -5.377145e-003 -4.984015e-003 -6.059816e-003 -1.231459e-003 -1.197991e-004 -3.570544e-003 -5.839384e-004 -2.781982e-005 -2.220918e-004 5.145682e-004 -3.237322e-005 -7.526280e-004 -3.609654e-004 6.755789e-004 1.646860e-003 -2.126306e-005 -1.789731e-004 -7.762628e-004 -1.141438e-003
<VARIANCE> 39
 6.460498e+001 3.289322e+001 7.372739e+001 7.115416e+001 7.165265e+001 6.585312e+001 5.799174e+001 5.230029e+001 5.224282e+001 3.836693e+001 4.914096e+001 4.146418e+001 1.714429e+002 2.200324e+000 1.865560e+000 2.776090e+000 3.123700e+000 3.217412e+000 3.001430e+000 3.089631e+000 3.018445e+000 2.794454e+000 2.426971e+000 2.518615e+000 2.111325e+000 4.410639e+000 3.185133e-001 3.145674e-001 4.136566e-001 5.147737e-001 5.254533e-001 5.061446e-001 5.311490e-001 5.318173e-001 4.926673e-001 4.417985e-001 4.393213e-001 3.691663e-001 5.788727e-001
<GCONST> 1.275629e+002
<TRANSP> 5
 0.000000e+000 1.000000e+000 0.000000e+000 0.000000e+000 0.000000e+000
 0.000000e+000 6.000000e-001 4.000000e-001 0.000000e+000 0.000000e+000
 0.000000e+000 0.000000e+000 6.000000e-001 4.000000e-001 0.000000e+000
 0.000000e+000 0.000000e+000 0.000000e+000 7.000000e-001 3.000000e-001
 0.000000e+000 0.000000e+000 0.000000e+000 0.000000e+000 0.000000e+000
<ENDHMM>
~h "naghwaam"
<BEGINHMM>
<NUMSTATES> 5
<STATE> 2
<MEAN> 39
 -9.276057e+000 5.719490e-001 7.676244e-001 -4.960926e+000 -4.860048e+000 -1.545354e+000 -4.318652e+000 -2.035741e-001 -4.062080e+000 4.842599e-001 -1.199822e+000 -2.438675e+000 6.164189e+001 7.525467e-004 2.684386e-003 -3.082093e-004 2.228037e-003 -8.813801e-007 -4.186013e-004 1.654850e-003 -5.377145e-003 -4.984015e-003 -6.059816e-003 -1.231459e-003 -1.197991e-004 -3.570544e-003 -5.839384e-004 -2.781982e-005 -2.220918e-004 5.145682e-004 -3.237322e-005 -7.526280e-004 -3.609654e-004 6.755789e-004 1.646860e-003 -2.126306e-005 -1.789731e-004 -7.762628e-004 -1.141438e-003
<VARIANCE> 39
 6.460498e+001 3.289322e+001 7.372739e+001 7.115416e+001 7.165265e+001 6.585312e+001 5.799174e+001 5.230029e+001 5.224282e+001 3.836693e+001 4.914096e+001 4.146418e+001 1.714429e+002 2.200324e+000 1.865560e+000 2.776090e+000 3.123700e+000 3.217412e+000 3.001430e+000 3.089631e+000 3.018445e+000 2.794454e+000 2.426971e+000 2.518615e+000 2.111325e+000 4.410639e+000 3.185133e-001 3.145674e-001 4.136566e-001 5.147737e-001 5.254533e-001 5.061446e-001 5.311490e-001 5.318173e-001 4.926673e-001 4.417985e-001 4.393213e-001 3.691663e-001 5.788727e-001
<GCONST> 1.275629e+002
<STATE> 3
<MEAN> 39
 -9.276057e+000 5.719490e-001 7.676244e-001 -4.960926e+000 -4.860048e+000 -1.545354e+000 -4.318652e+000 -2.035741e-001 -4.062080e+000 4.842599e-001 -1.199822e+000 -2.438675e+000 6.164189e+001 7.525467e-004 2.684386e-003 -3.082093e-004 2.228037e-003 -8.813801e-007 -4.186013e-004 1.654850e-003 -5.377145e-003 -4.984015e-003 -6.059816e-003 -1.231459e-003 -1.197991e-004 -3.570544e-003 -5.839384e-004 -2.781982e-005 -2.220918e-004 5.145682e-004 -3.237322e-005 -7.526280e-004 -3.609654e-004 6.755789e-004 1.646860e-003 -2.126306e-005 -1.789731e-004 -7.762628e-004 -1.141438e-003
<VARIANCE> 39
 6.460498e+001 3.289322e+001 7.372739e+001 7.115416e+001 7.165265e+001 6.585312e+001 5.799174e+001 5.230029e+001 5.224282e+001 3.836693e+001 4.914096e+001 4.146418e+001 1.714429e+002 2.200324e+000 1.865560e+000 2.776090e+000 3.123700e+000 3.217412e+000 3.001430e+000 3.089631e+000 3.018445e+000 2.794454e+000 2.426971e+000 2.518615e+000 2.111325e+000 4.410639e+000 3.185133e-001 3.145674e-001 4.136566e-001 5.147737e-001 5.254533e-001 5.061446e-001 5.311490e-001 5.318173e-001 4.926673e-001 4.417985e-001 4.393213e-001 3.691663e-001 5.788727e-001
<GCONST> 1.275629e+002
<STATE> 4
<MEAN> 39
 -9.276057e+000 5.719490e-001 7.676244e-001 -4.960926e+000 -4.860048e+000 -1.545354e+000 -4.318652e+000 -2.035741e-001 -4.062080e+000 4.842599e-001 -1.199822e+000 -2.438675e+000 6.164189e+001 7.525467e-004 2.684386e-003 -3.082093e-004 2.228037e-003 -8.813801e-007 -4.186013e-004 1.654850e-003 -5.377145e-003 -4.984015e-003 -6.059816e-003 -1.231459e-003 -1.197991e-004 -3.570544e-003 -5.839384e-004 -2.781982e-005 -2.220918e-004 5.145682e-004 -3.237322e-005 -7.526280e-004 -3.609654e-004 6.755789e-004 1.646860e-003 -2.126306e-005 -1.789731e-004 -7.762628e-004 -1.141438e-003
<VARIANCE> 39
 6.460498e+001 3.289322e+001 7.372739e+001 7.115416e+001 7.165265e+001 6.585312e+001 5.799174e+001 5.230029e+001 5.224282e+001 3.836693e+001 4.914096e+001 4.146418e+001 1.714429e+002 2.200324e+000 1.865560e+000 2.776090e+000 3.123700e+000 3.217412e+000 3.001430e+000 3.089631e+000 3.018445e+000 2.794454e+000 2.426971e+000 2.518615e+000 2.111325e+000 4.410639e+000 3.185133e-001 3.145674e-001 4.136566e-001 5.147737e-001 5.254533e-001 5.061446e-001 5.311490e-001 5.318173e-001 4.926673e-001 4.417985e-001 4.393213e-001 3.691663e-001 5.788727e-001
<GCONST> 1.275629e+002
<TRANSP> 5
 0.000000e+000 1.000000e+000 0.000000e+000 0.000000e+000 0.000000e+000
 0.000000e+000 6.000000e-001 4.000000e-001 0.000000e+000 0.000000e+000
 0.000000e+000 0.000000e+000 6.000000e-001 4.000000e-001 0.000000e+000
 0.000000e+000 0.000000e+000 0.000000e+000 7.000000e-001 3.000000e-001
 0.000000e+000 0.000000e+000 0.000000e+000 0.000000e+000 0.000000e+000
<ENDHMM>
~h "yokeondae"
<BEGINHMM>
<NUMSTATES> 5
<STATE> 2
<MEAN> 39
 -9.276057e+000 5.719490e-001 7.676244e-001 -4.960926e+000 -4.860048e+000 -1.545354e+000 -4.318652e+000 -2.035741e-001 -4.062080e+000 4.842599e-001 -1.199822e+000 -2.438675e+000 6.164189e+001 7.525467e-004 2.684386e-003 -3.082093e-004 2.228037e-003 -8.813801e-007 -4.186013e-004 1.654850e-003 -5.377145e-003 -4.984015e-003 -6.059816e-003 -1.231459e-003 -1.197991e-004 -3.570544e-003 -5.839384e-004 -2.781982e-005 -2.220918e-004 5.145682e-004 -3.237322e-005 -7.526280e-004 -3.609654e-004 6.755789e-004 1.646860e-003 -2.126306e-005 -1.789731e-004 -7.762628e-004 -1.141438e-003
<VARIANCE> 39
 6.460498e+001 3.289322e+001 7.372739e+001 7.115416e+001 7.165265e+001 6.585312e+001 5.799174e+001 5.230029e+001 5.224282e+001 3.836693e+001 4.914096e+001 4.146418e+001 1.714429e+002 2.200324e+000 1.865560e+000 2.776090e+000 3.123700e+000 3.217412e+000 3.001430e+000 3.089631e+000 3.018445e+000 2.794454e+000 2.426971e+000 2.518615e+000 2.111325e+000 4.410639e+000 3.185133e-001 3.145674e-001 4.136566e-001 5.147737e-001 5.254533e-001 5.061446e-001 5.311490e-001 5.318173e-001 4.926673e-001 4.417985e-001 4.393213e-001 3.691663e-001 5.788727e-001
<GCONST> 1.275629e+002
<STATE> 3
<MEAN> 39
 -9.276057e+000 5.719490e-001 7.676244e-001 -4.960926e+000 -4.860048e+000 -1.545354e+000 -4.318652e+000 -2.035741e-001 -4.062080e+000 4.842599e-001 -1.199822e+000 -2.438675e+000 6.164189e+001 7.525467e-004 2.684386e-003 -3.082093e-004 2.228037e-003 -8.813801e-007 -4.186013e-004 1.654850e-003 -5.377145e-003 -4.984015e-003 -6.059816e-003 -1.231459e-003 -1.197991e-004 -3.570544e-003 -5.839384e-004 -2.781982e-005 -2.220918e-004 5.145682e-004 -3.237322e-005 -7.526280e-004 -3.609654e-004 6.755789e-004 1.646860e-003 -2.126306e-005 -1.789731e-004 -7.762628e-004 -1.141438e-003
<VARIANCE> 39
 6.460498e+001 3.289322e+001 7.372739e+001 7.115416e+001 7.165265e+001 6.585312e+001 5.799174e+001 5.230029e+001 5.224282e+001 3.836693e+001 4.914096e+001 4.146418e+001 1.714429e+002 2.200324e+000 1.865560e+000 2.776090e+000 3.123700e+000 3.217412e+000 3.001430e+000 3.089631e+000 3.018445e+000 2.794454e+000 2.426971e+000 2.518615e+000 2.111325e+000 4.410639e+000 3.185133e-001 3.145674e-001 4.136566e-001 5.147737e-001 5.254533e-001 5.061446e-001 5.311490e-001 5.318173e-001 4.926673e-001 4.417985e-001 4.393213e-001 3.691663e-001 5.788727e-001
<GCONST> 1.275629e+002
<STATE> 4
<MEAN> 39
 -9.276057e+000 5.719490e-001 7.676244e-001 -4.960926e+000 -4.860048e+000 -1.545354e+000 -4.318652e+000 -2.035741e-001 -4.062080e+000 4.842599e-001 -1.199822e+000 -2.438675e+000 6.164189e+001 7.525467e-004 2.684386e-003 -3.082093e-004 2.228037e-003 -8.813801e-007 -4.186013e-004 1.654850e-003 -5.377145e-003 -4.984015e-003 -6.059816e-003 -1.231459e-003 -1.197991e-004 -3.570544e-003 -5.839384e-004 -2.781982e-005 -2.220918e-004 5.145682e-004 -3.237322e-005 -7.526280e-004 -3.609654e-004 6.755789e-004 1.646860e-003 -2.126306e-005 -1.789731e-004 -7.762628e-004 -1.141438e-003
<VARIANCE> 39
 6.460498e+001 3.289322e+001 7.372739e+001 7.115416e+001 7.165265e+001 6.585312e+001 5.799174e+001 5.230029e+001 5.224282e+001 3.836693e+001 4.914096e+001 4.146418e+001 1.714429e+002 2.200324e+000 1.865560e+000 2.776090e+000 3.123700e+000 3.217412e+000 3.001430e+000 3.089631e+000 3.018445e+000 2.794454e+000 2.426971e+000 2.518615e+000 2.111325e+000 4.410639e+000 3.185133e-001 3.145674e-001 4.136566e-001 5.147737e-001 5.254533e-001 5.061446e-001 5.311490e-001 5.318173e-001 4.926673e-001 4.417985e-001 4.393213e-001 3.691663e-001 5.788727e-001
<GCONST> 1.275629e+002
<TRANSP> 5
 0.000000e+000 1.000000e+000 0.000000e+000 0.000000e+000 0.000000e+000
 0.000000e+000 6.000000e-001 4.000000e-001 0.000000e+000 0.000000e+000
 0.000000e+000 0.000000e+000 6.000000e-001 4.000000e-001 0.000000e+000
 0.000000e+000 0.000000e+000 0.000000e+000 7.000000e-001 3.000000e-001
 0.000000e+000 0.000000e+000 0.000000e+000 0.000000e+000 0.000000e+000
<ENDHMM>
~h "jayuwa"
<BEGINHMM>
<NUMSTATES> 5
<STATE> 2
<MEAN> 39
 -9.276057e+000 5.719490e-001 7.676244e-001 -4.960926e+000 -4.860048e+000 -1.545354e+000 -4.318652e+000 -2.035741e-001 -4.062080e+000 4.842599e-001 -1.199822e+000 -2.438675e+000 6.164189e+001 7.525467e-004 2.684386e-003 -3.082093e-004 2.228037e-003 -8.813801e-007 -4.186013e-004 1.654850e-003 -5.377145e-003 -4.984015e-003 -6.059816e-003 -1.231459e-003 -1.197991e-004 -3.570544e-003 -5.839384e-004 -2.781982e-005 -2.220918e-004 5.145682e-004 -3.237322e-005 -7.526280e-004 -3.609654e-004 6.755789e-004 1.646860e-003 -2.126306e-005 -1.789731e-004 -7.762628e-004 -1.141438e-003
<VARIANCE> 39
 6.460498e+001 3.289322e+001 7.372739e+001 7.115416e+001 7.165265e+001 6.585312e+001 5.799174e+001 5.230029e+001 5.224282e+001 3.836693e+001 4.914096e+001 4.146418e+001 1.714429e+002 2.200324e+000 1.865560e+000 2.776090e+000 3.123700e+000 3.217412e+000 3.001430e+000 3.089631e+000 3.018445e+000 2.794454e+000 2.426971e+000 2.518615e+000 2.111325e+000 4.410639e+000 3.185133e-001 3.145674e-001 4.136566e-001 5.147737e-001 5.254533e-001 5.061446e-001 5.311490e-001 5.318173e-001 4.926673e-001 4.417985e-001 4.393213e-001 3.691663e-001 5.788727e-001
<GCONST> 1.275629e+002
<STATE> 3
<MEAN> 39
 -9.276057e+000 5.719490e-001 7.676244e-001 -4.960926e+000 -4.860048e+000 -1.545354e+000 -4.318652e+000 -2.035741e-001 -4.062080e+000 4.842599e-001 -1.199822e+000 -2.438675e+000 6.164189e+001 7.525467e-004 2.684386e-003 -3.082093e-004 2.228037e-003 -8.813801e-007 -4.186013e-004 1.654850e-003 -5.377145e-003 -4.984015e-003 -6.059816e-003 -1.231459e-003 -1.197991e-004 -3.570544e-003 -5.839384e-004 -2.781982e-005 -2.220918e-004 5.145682e-004 -3.237322e-005 -7.526280e-004 -3.609654e-004 6.755789e-004 1.646860e-003 -2.126306e-005 -1.789731e-004 -7.762628e-004 -1.141438e-003
<VARIANCE> 39
 6.460498e+001 3.289322e+001 7.372739e+001 7.115416e+001 7.165265e+001 6.585312e+001 5.799174e+001 5.230029e+001 5.224282e+001 3.836693e+001 4.914096e+001 4.146418e+001 1.714429e+002 2.200324e+000 1.865560e+000 2.776090e+000 3.123700e+000 3.217412e+000 3.001430e+000 3.089631e+000 3.018445e+000 2.794454e+000 2.426971e+000 2.518615e+000 2.111325e+000 4.410639e+000 3.185133e-001 3.145674e-001 4.136566e-001 5.147737e-001 5.254533e-001 5.061446e-001 5.311490e-001 5.318173e-001 4.926673e-001 4.417985e-001 4.393213e-001 3.691663e-001 5.788727e-001
<GCONST> 1.275629e+002
<STATE> 4
<MEAN> 39
 -9.276057e+000 5.719490e-001 7.676244e-001 -4.960926e+000 -4.860048e+000 -1.545354e+000 -4.318652e+000 -2.035741e-001 -4.062080e+000 4.842599e-001 -1.199822e+000 -2.438675e+000 6.164189e+001 7.525467e-004 2.684386e-003 -3.082093e-004 2.228037e-003 -8.813801e-007 -4.186013e-004 1.654850e-003 -5.377145e-003 -4.984015e-003 -6.059816e-003 -1.231459e-003 -1.197991e-004 -3.570544e-003 -5.839384e-004 -2.781982e-005 -2.220918e-004 5.145682e-004 -3.237322e-005 -7.526280e-004 -3.609654e-004 6.755789e-004 1.646860e-003 -2.126306e-005 -1.789731e-004 -7.762628e-004 -1.141438e-003
<VARIANCE> 39
 6.460498e+001 3.289322e+001 7.372739e+001 7.115416e+001 7.165265e+001 6.585312e+001 5.799174e+001 5.230029e+001 5.224282e+001 3.836693e+001 4.914096e+001 4.146418e+001 1.714429e+002 2.200324e+000 1.865560e+000 2.776090e+000 3.123700e+000 3.217412e+000 3.001430e+000 3.089631e+000 3.018445e+000 2.794454e+000 2.426971e+000 2.518615e+000 2.111325e+000 4.410639e+000 3.185133e-001 3.145674e-001 4.136566e-001 5.147737e-001 5.254533e-001 5.061446e-001 5.311490e-001 5.318173e-001 4.926673e-001 4.417985e-001 4.393213e-001 3.691663e-001 5.788727e-001
<GCONST> 1.275629e+002
<TRANSP> 5
 0.000000e+000 1.000000e+000 0.000000e+000 0.000000e+000 0.000000e+000
 0.000000e+000 6.000000e-001 4.000000e-001 0.000000e+000 0.000000e+000
 0.000000e+000 0.000000e+000 6.000000e-001 4.000000e-001 0.000000e+000
 0.000000e+000 0.000000e+000 0.000000e+000 7.000000e-001 3.000000e-001
 0.000000e+000 0.000000e+000 0.000000e+000 0.000000e+000 0.000000e+000
<ENDHMM>
~h "juwiui"
<BEGINHMM>
<NUMSTATES> 5
<STATE> 2
<MEAN> 39
 -9.276057e+000 5.719490e-001 7.676244e-001 -4.960926e+000 -4.860048e+000 -1.545354e+000 -4.318652e+000 -2.035741e-001 -4.062080e+000 4.842599e-001 -1.199822e+000 -2.438675e+000 6.164189e+001 7.525467e-004 2.684386e-003 -3.082093e-004 2.228037e-003 -8.813801e-007 -4.186013e-004 1.654850e-003 -5.377145e-003 -4.984015e-003 -6.059816e-003 -1.231459e-003 -1.197991e-004 -3.570544e-003 -5.839384e-004 -2.781982e-005 -2.220918e-004 5.145682e-004 -3.237322e-005 -7.526280e-004 -3.609654e-004 6.755789e-004 1.646860e-003 -2.126306e-005 -1.789731e-004 -7.762628e-004 -1.141438e-003
<VARIANCE> 39
 6.460498e+001 3.289322e+001 7.372739e+001 7.115416e+001 7.165265e+001 6.585312e+001 5.799174e+001 5.230029e+001 5.224282e+001 3.836693e+001 4.914096e+001 4.146418e+001 1.714429e+002 2.200324e+000 1.865560e+000 2.776090e+000 3.123700e+000 3.217412e+000 3.001430e+000 3.089631e+000 3.018445e+000 2.794454e+000 2.426971e+000 2.518615e+000 2.111325e+000 4.410639e+000 3.185133e-001 3.145674e-001 4.136566e-001 5.147737e-001 5.254533e-001 5.061446e-001 5.311490e-001 5.318173e-001 4.926673e-001 4.417985e-001 4.393213e-001 3.691663e-001 5.788727e-001
<GCONST> 1.275629e+002
<STATE> 3
<MEAN> 39
 -9.276057e+000 5.719490e-001 7.676244e-001 -4.960926e+000 -4.860048e+000 -1.545354e+000 -4.318652e+000 -2.035741e-001 -4.062080e+000 4.842599e-001 -1.199822e+000 -2.438675e+000 6.164189e+001 7.525467e-004 2.684386e-003 -3.082093e-004 2.228037e-003 -8.813801e-007 -4.186013e-004 1.654850e-003 -5.377145e-003 -4.984015e-003 -6.059816e-003 -1.231459e-003 -1.197991e-004 -3.570544e-003 -5.839384e-004 -2.781982e-005 -2.220918e-004 5.145682e-004 -3.237322e-005 -7.526280e-004 -3.609654e-004 6.755789e-004 1.646860e-003 -2.126306e-005 -1.789731e-004 -7.762628e-004 -1.141438e-003
<VARIANCE> 39
 6.460498e+001 3.289322e+001 7.372739e+001 7.115416e+001 7.165265e+001 6.585312e+001 5.799174e+001 5.230029e+001 5.224282e+001 3.836693e+001 4.914096e+001 4.146418e+001 1.714429e+002 2.200324e+000 1.865560e+000 2.776090e+000 3.123700e+000 3.217412e+000 3.001430e+000 3.089631e+000 3.018445e+000 2.794454e+000 2.426971e+000 2.518615e+000 2.111325e+000 4.410639e+000 3.185133e-001 3.145674e-001 4.136566e-001 5.147737e-001 5.254533e-001 5.061446e-001 5.311490e-001 5.318173e-001 4.926673e-001 4.417985e-001 4.393213e-001 3.691663e-001 5.788727e-001
<GCONST> 1.275629e+002
<STATE> 4
<MEAN> 39
 -9.276057e+000 5.719490e-001 7.676244e-001 -4.960926e+000 -4.860048e+000 -1.545354e+000 -4.318652e+000 -2.035741e-001 -4.062080e+000 4.842599e-001 -1.199822e+000 -2.438675e+000 6.164189e+001 7.525467e-004 2.684386e-003 -3.082093e-004 2.228037e-003 -8.813801e-007 -4.186013e-004 1.654850e-003 -5.377145e-003 -4.984015e-003 -6.059816e-003 -1.231459e-003 -1.197991e-004 -3.570544e-003 -5.839384e-004 -2.781982e-005 -2.220918e-004 5.145682e-004 -3.237322e-005 -7.526280e-004 -3.609654e-004 6.755789e-004 1.646860e-003 -2.126306e-005 -1.789731e-004 -7.762628e-004 -1.141438e-003
<VARIANCE> 39
 6.460498e+001 3.289322e+001 7.372739e+001 7.115416e+001 7.165265e+001 6.585312e+001 5.799174e+001 5.230029e+001 5.224282e+001 3.836693e+001 4.914096e+001 4.146418e+001 1.714429e+002 2.200324e+000 1.865560e+000 2.776090e+000 3.123700e+000 3.217412e+000 3.001430e+000 3.089631e+000 3.018445e+000 2.794454e+000 2.426971e+000 2.518615e+000 2.111325e+000 4.410639e+000 3.185133e-001 3.145674e-001 4.136566e-001 5.147737e-001 5.254533e-001 5.061446e-001 5.311490e-001 5.318173e-001 4.926673e-001 4.417985e-001 4.393213e-001 3.691663e-001 5.788727e-001
<GCONST> 1.275629e+002
<TRANSP> 5
 0.000000e+000 1.000000e+000 0.000000e+000 0.000000e+000 0.000000e+000
 0.000000e+000 6.000000e-001 4.000000e-001 0.000000e+000 0.000000e+000
 0.000000e+000 0.000000e+000 6.000000e-001 4.000000e-001 0.000000e+000
 0.000000e+000 0.000000e+000 0.000000e+000 7.000000e-001 3.000000e-001
 0.000000e+000 0.000000e+000 0.000000e+000 0.000000e+000 0.000000e+000
<ENDHMM>
~h "choeagi"
<BEGINHMM>
<NUMSTATES> 5
<STATE> 2
<MEAN> 39
 -9.276057e+000 5.719490e-001 7.676244e-001 -4.960926e+000 -4.860048e+000 -1.545354e+000 -4.318652e+000 -2.035741e-001 -4.062080e+000 4.842599e-001 -1.199822e+000 -2.438675e+000 6.164189e+001 7.525467e-004 2.684386e-003 -3.082093e-004 2.228037e-003 -8.813801e-007 -4.186013e-004 1.654850e-003 -5.377145e-003 -4.984015e-003 -6.059816e-003 -1.231459e-003 -1.197991e-004 -3.570544e-003 -5.839384e-004 -2.781982e-005 -2.220918e-004 5.145682e-004 -3.237322e-005 -7.526280e-004 -3.609654e-004 6.755789e-004 1.646860e-003 -2.126306e-005 -1.789731e-004 -7.762628e-004 -1.141438e-003
<VARIANCE> 39
 6.460498e+001 3.289322e+001 7.372739e+001 7.115416e+001 7.165265e+001 6.585312e+001 5.799174e+001 5.230029e+001 5.224282e+001 3.836693e+001 4.914096e+001 4.146418e+001 1.714429e+002 2.200324e+000 1.865560e+000 2.776090e+000 3.123700e+000 3.217412e+000 3.001430e+000 3.089631e+000 3.018445e+000 2.794454e+000 2.426971e+000 2.518615e+000 2.111325e+000 4.410639e+000 3.185133e-001 3.145674e-001 4.136566e-001 5.147737e-001 5.254533e-001 5.061446e-001 5.311490e-001 5.318173e-001 4.926673e-001 4.417985e-001 4.393213e-001 3.691663e-001 5.788727e-001
<GCONST> 1.275629e+002
<STATE> 3
<MEAN> 39
 -9.276057e+000 5.719490e-001 7.676244e-001 -4.960926e+000 -4.860048e+000 -1.545354e+000 -4.318652e+000 -2.035741e-001 -4.062080e+000 4.842599e-001 -1.199822e+000 -2.438675e+000 6.164189e+001 7.525467e-004 2.684386e-003 -3.082093e-004 2.228037e-003 -8.813801e-007 -4.186013e-004 1.654850e-003 -5.377145e-003 -4.984015e-003 -6.059816e-003 -1.231459e-003 -1.197991e-004 -3.570544e-003 -5.839384e-004 -2.781982e-005 -2.220918e-004 5.145682e-004 -3.237322e-005 -7.526280e-004 -3.609654e-004 6.755789e-004 1.646860e-003 -2.126306e-005 -1.789731e-004 -7.762628e-004 -1.141438e-003
<VARIANCE> 39
 6.460498e+001 3.289322e+001 7.372739e+001 7.115416e+001 7.165265e+001 6.585312e+001 5.799174e+001 5.230029e+001 5.224282e+001 3.836693e+001 4.914096e+001 4.146418e+001 1.714429e+002 2.200324e+000 1.865560e+000 2.776090e+000 3.123700e+000 3.217412e+000 3.001430e+000 3.089631e+000 3.018445e+000 2.794454e+000 2.426971e+000 2.518615e+000 2.111325e+000 4.410639e+000 3.185133e-001 3.145674e-001 4.136566e-001 5.147737e-001 5.254533e-001 5.061446e-001 5.311490e-001 5.318173e-001 4.926673e-001 4.417985e-001 4.393213e-001 3.691663e-001 5.788727e-001
<GCONST> 1.275629e+002
<STATE> 4
<MEAN> 39
 -9.276057e+000 5.719490e-001 7.676244e-001 -4.960926e+000 -4.860048e+000 -1.545354e+000 -4.318652e+000 -2.035741e-001 -4.062080e+000 4.842599e-001 -1.199822e+000 -2.438675e+000 6.164189e+001 7.525467e-004 2.684386e-003 -3.082093e-004 2.228037e-003 -8.813801e-007 -4.186013e-004 1.654850e-003 -5.377145e-003 -4.984015e-003 -6.059816e-003 -1.231459e-003 -1.197991e-004 -3.570544e-003 -5.839384e-004 -2.781982e-005 -2.220918e-004 5.145682e-004 -3.237322e-005 -7.526280e-004 -3.609654e-004 6.755789e-004 1.646860e-003 -2.126306e-005 -1.789731e-004 -7.762628e-004 -1.141438e-003
<VARIANCE> 39
 6.460498e+001 3.289322e+001 7.372739e+001 7.115416e+001 7.165265e+001 6.585312e+001 5.799174e+001 5.230029e+001 5.224282e+001 3.836693e+001 4.914096e+001 4.146418e+001 1.714429e+002 2.200324e+000 1.865560e+000 2.776090e+000 3.123700e+000 3.217412e+000 3.001430e+000 3.089631e+000 3.018445e+000 2.794454e+000 2.426971e+000 2.518615e+000 2.111325e+000 4.410639e+000 3.185133e-001 3.145674e-001 4.136566e-001 5.147737e-001 5.254533e-001 5.061446e-001 5.311490e-001 5.318173e-001 4.926673e-001 4.417985e-001 4.393213e-001 3.691663e-001 5.788727e-001
<GCONST> 1.275629e+002
<TRANSP> 5
 0.000000e+000 1.000000e+000 0.000000e+000 0.000000e+000 0.000000e+000
 0.000000e+000 6.000000e-001 4.000000e-001 0.000000e+000 0.000000e+000
 0.000000e+000 0.000000e+000 6.000000e-001 4.000000e-001 0.000000e+000
 0.000000e+000 0.000000e+000 0.000000e+000 7.000000e-001 3.000000e-001
 0.000000e+000 0.000000e+000 0.000000e+000 0.000000e+000 0.000000e+000
<ENDHMM>
~h "uiyogeul"
<BEGINHMM>
<NUMSTATES> 5
<STATE> 2
<MEAN> 39
 -9.276057e+000 5.719490e-001 7.676244e-001 -4.960926e+000 -4.860048e+000 -1.545354e+000 -4.318652e+000 -2.035741e-001 -4.062080e+000 4.842599e-001 -1.199822e+000 -2.438675e+000 6.164189e+001 7.525467e-004 2.684386e-003 -3.082093e-004 2.228037e-003 -8.813801e-007 -4.186013e-004 1.654850e-003 -5.377145e-003 -4.984015e-003 -6.059816e-003 -1.231459e-003 -1.197991e-004 -3.570544e-003 -5.839384e-004 -2.781982e-005 -2.220918e-004 5.145682e-004 -3.237322e-005 -7.526280e-004 -3.609654e-004 6.755789e-004 1.646860e-003 -2.126306e-005 -1.789731e-004 -7.762628e-004 -1.141438e-003
<VARIANCE> 39
 6.460498e+001 3.289322e+001 7.372739e+001 7.115416e+001 7.165265e+001 6.585312e+001 5.799174e+001 5.230029e+001 5.224282e+001 3.836693e+001 4.914096e+001 4.146418e+001 1.714429e+002 2.200324e+000 1.865560e+000 2.776090e+000 3.123700e+000 3.217412e+000 3.001430e+000 3.089631e+000 3.018445e+000 2.794454e+000 2.426971e+000 2.518615e+000 2.111325e+000 4.410639e+000 3.185133e-001 3.145674e-001 4.136566e-001 5.147737e-001 5.254533e-001 5.061446e-001 5.311490e-001 5.318173e-001 4.926673e-001 4.417985e-001 4.393213e-001 3.691663e-001 5.788727e-001
<GCONST> 1.275629e+002
<STATE> 3
<MEAN> 39
 -9.276057e+000 5.719490e-001 7.676244e-001 -4.960926e+000 -4.860048e+000 -1.545354e+000 -4.318652e+000 -2.035741e-001 -4.062080e+000 4.842599e-001 -1.199822e+000 -2.438675e+000 6.164189e+001 7.525467e-004 2.684386e-003 -3.082093e-004 2.228037e-003 -8.813801e-007 -4.186013e-004 1.654850e-003 -5.377145e-003 -4.984015e-003 -6.059816e-003 -1.231459e-003 -1.197991e-004 -3.570544e-003 -5.839384e-004 -2.781982e-005 -2.220918e-004 5.145682e-004 -3.237322e-005 -7.526280e-004 -3.609654e-004 6.755789e-004 1.646860e-003 -2.126306e-005 -1.789731e-004 -7.762628e-004 -1.141438e-003
<VARIANCE> 39
 6.460498e+001 3.289322e+001 7.372739e+001 7.115416e+001 7.165265e+001 6.585312e+001 5.799174e+001 5.230029e+001 5.224282e+001 3.836693e+001 4.914096e+001 4.146418e+001 1.714429e+002 2.200324e+000 1.865560e+000 2.776090e+000 3.123700e+000 3.217412e+000 3.001430e+000 3.089631e+000 3.018445e+000 2.794454e+000 2.426971e+000 2.518615e+000 2.111325e+000 4.410639e+000 3.185133e-001 3.145674e-001 4.136566e-001 5.147737e-001 5.254533e-001 5.061446e-001 5.311490e-001 5.318173e-001 4.926673e-001 4.417985e-001 4.393213e-001 3.691663e-001 5.788727e-001
<GCONST> 1.275629e+002
<STATE> 4
<MEAN> 39
 -9.276057e+000 5.719490e-001 7.676244e-001 -4.960926e+000 -4.860048e+000 -1.545354e+000 -4.318652e+000 -2.035741e-001 -4.062080e+000 4.842599e-001 -1.199822e+000 -2.438675e+000 6.164189e+001 7.525467e-004 2.684386e-003 -3.082093e-004 2.228037e-003 -8.813801e-007 -4.186013e-004 1.654850e-003 -5.377145e-003 -4.984015e-003 -6.059816e-003 -1.231459e-003 -1.197991e-004 -3.570544e-003 -5.839384e-004 -2.781982e-005 -2.220918e-004 5.145682e-004 -3.237322e-005 -7.526280e-004 -3.609654e-004 6.755789e-004 1.646860e-003 -2.126306e-005 -1.789731e-004 -7.762628e-004 -1.141438e-003
<VARIANCE> 39
 6.460498e+001 3.289322e+001 7.372739e+001 7.115416e+001 7.165265e+001 6.585312e+001 5.799174e+001 5.230029e+001 5.224282e+001 3.836693e+001 4.914096e+001 4.146418e+001 1.714429e+002 2.200324e+000 1.865560e+000 2.776090e+000 3.123700e+000 3.217412e+000 3.001430e+000 3.089631e+000 3.018445e+000 2.794454e+000 2.426971e+000 2.518615e+000 2.111325e+000 4.410639e+000 3.185133e-001 3.145674e-001 4.136566e-001 5.147737e-001 5.254533e-001 5.061446e-001 5.311490e-001 5.318173e-001 4.926673e-001 4.417985e-001 4.393213e-001 3.691663e-001 5.788727e-001
<GCONST> 1.275629e+002
<TRANSP> 5
 0.000000e+000 1.000000e+000 0.000000e+000 0.000000e+000 0.000000e+000
 0.000000e+000 6.000000e-001 4.000000e-001 0.000000e+000 0.000000e+000
 0.000000e+000 0.000000e+000 6.000000e-001 4.000000e-001 0.000000e+000
 0.000000e+000 0.000000e+000 0.000000e+000 7.000000e-001 3.000000e-001
 0.000000e+000 0.000000e+000 0.000000e+000 0.000000e+000 0.000000e+000
<ENDHMM>
~h "mwolago"
<BEGINHMM>
<NUMSTATES> 5
<STATE> 2
<MEAN> 39
 -9.276057e+000 5.719490e-001 7.676244e-001 -4.960926e+000 -4.860048e+000 -1.545354e+000 -4.318652e+000 -2.035741e-001 -4.062080e+000 4.842599e-001 -1.199822e+000 -2.438675e+000 6.164189e+001 7.525467e-004 2.684386e-003 -3.082093e-004 2.228037e-003 -8.813801e-007 -4.186013e-004 1.654850e-003 -5.377145e-003 -4.984015e-003 -6.059816e-003 -1.231459e-003 -1.197991e-004 -3.570544e-003 -5.839384e-004 -2.781982e-005 -2.220918e-004 5.145682e-004 -3.237322e-005 -7.526280e-004 -3.609654e-004 6.755789e-004 1.646860e-003 -2.126306e-005 -1.789731e-004 -7.762628e-004 -1.141438e-003
<VARIANCE> 39
 6.460498e+001 3.289322e+001 7.372739e+001 7.115416e+001 7.165265e+001 6.585312e+001 5.799174e+001 5.230029e+001 5.224282e+001 3.836693e+001 4.914096e+001 4.146418e+001 1.714429e+002 2.200324e+000 1.865560e+000 2.776090e+000 3.123700e+000 3.217412e+000 3.001430e+000 3.089631e+000 3.018445e+000 2.794454e+000 2.426971e+000 2.518615e+000 2.111325e+000 4.410639e+000 3.185133e-001 3.145674e-001 4.136566e-001 5.147737e-001 5.254533e-001 5.061446e-001 5.311490e-001 5.318173e-001 4.926673e-001 4.417985e-001 4.393213e-001 3.691663e-001 5.788727e-001
<GCONST> 1.275629e+002
<STATE> 3
<MEAN> 39
 -9.276057e+000 5.719490e-001 7.676244e-001 -4.960926e+000 -4.860048e+000 -1.545354e+000 -4.318652e+000 -2.035741e-001 -4.062080e+000 4.842599e-001 -1.199822e+000 -2.438675e+000 6.164189e+001 7.525467e-004 2.684386e-003 -3.082093e-004 2.228037e-003 -8.813801e-007 -4.186013e-004 1.654850e-003 -5.377145e-003 -4.984015e-003 -6.059816e-003 -1.231459e-003 -1.197991e-004 -3.570544e-003 -5.839384e-004 -2.781982e-005 -2.220918e-004 5.145682e-004 -3.237322e-005 -7.526280e-004 -3.609654e-004 6.755789e-004 1.646860e-003 -2.126306e-005 -1.789731e-004 -7.762628e-004 -1.141438e-003
<VARIANCE> 39
 6.460498e+001 3.289322e+001 7.372739e+001 7.115416e+001 7.165265e+001 6.585312e+001 5.799174e+001 5.230029e+001 5.224282e+001 3.836693e+001 4.914096e+001 4.146418e+001 1.714429e+002 2.200324e+000 1.865560e+000 2.776090e+000 3.123700e+000 3.217412e+000 3.001430e+000 3.089631e+000 3.018445e+000 2.794454e+000 2.426971e+000 2.518615e+000 2.111325e+000 4.410639e+000 3.185133e-001 3.145674e-001 4.136566e-001 5.147737e-001 5.254533e-001 5.061446e-001 5.311490e-001 5.318173e-001 4.926673e-001 4.417985e-001 4.393213e-001 3.691663e-001 5.788727e-001
<GCONST> 1.275629e+002
<STATE> 4
<MEAN> 39
 -9.276057e+000 5.719490e-001 7.676244e-001 -4.960926e+000 -4.860048e+000 -1.545354e+000 -4.318652e+000 -2.035741e-001 -4.062080e+000 4.842599e-001 -1.199822e+000 -2.438675e+000 6.164189e+001 7.525467e-004 2.684386e-003 -3.082093e-004 2.228037e-003 -8.813801e-007 -4.186013e-004 1.654850e-003 -5.377145e-003 -4.984015e-003 -6.059816e-003 -1.231459e-003 -1.197991e-004 -3.570544e-003 -5.839384e-004 -2.781982e-005 -2.220918e-004 5.145682e-004 -3.237322e-005 -7.526280e-004 -3.609654e-004 6.755789e-004 1.646860e-003 -2.126306e-005 -1.789731e-004 -7.762628e-004 -1.141438e-003
<VARIANCE> 39
 6.460498e+001 3.289322e+001 7.372739e+001 7.115416e+001 7.165265e+001 6.585312e+001 5.799174e+001 5.230029e+001 5.224282e+001 3.836693e+001 4.914096e+001 4.146418e+001 1.714429e+002 2.200324e+000 1.865560e+000 2.776090e+000 3.123700e+000 3.217412e+000 3.001430e+000 3.089631e+000 3.018445e+000 2.794454e+000 2.426971e+000 2.518615e+000 2.111325e+000 4.410639e+000 3.185133e-001 3.145674e-001 4.136566e-001 5.147737e-001 5.254533e-001 5.061446e-001 5.311490e-001 5.318173e-001 4.926673e-001 4.417985e-001 4.393213e-001 3.691663e-001 5.788727e-001
<GCONST> 1.275629e+002
<TRANSP> 5
 0.000000e+000 1.000000e+000 0.000000e+000 0.000000e+000 0.000000e+000
 0.000000e+000 6.000000e-001 4.000000e-001 0.000000e+000 0.000000e+000
 0.000000e+000 0.000000e+000 6.000000e-001 4.000000e-001 0.000000e+000
 0.000000e+000 0.000000e+000 0.000000e+000 7.000000e-001 3.000000e-001
 0.000000e+000 0.000000e+000 0.000000e+000 0.000000e+000 0.000000e+000
<ENDHMM>
~h "gwaeoni"
<BEGINHMM>
<NUMSTATES> 5
<STATE> 2
<MEAN> 39
 -9.276057e+000 5.719490e-001 7.676244e-001 -4.960926e+000 -4.860048e+000 -1.545354e+000 -4.318652e+000 -2.035741e-001 -4.062080e+000 4.842599e-001 -1.199822e+000 -2.438675e+000 6.164189e+001 7.525467e-004 2.684386e-003 -3.082093e-004 2.228037e-003 -8.813801e-007 -4.186013e-004 1.654850e-003 -5.377145e-003 -4.984015e-003 -6.059816e-003 -1.231459e-003 -1.197991e-004 -3.570544e-003 -5.839384e-004 -2.781982e-005 -2.220918e-004 5.145682e-004 -3.237322e-005 -7.526280e-004 -3.609654e-004 6.755789e-004 1.646860e-003 -2.126306e-005 -1.789731e-004 -7.762628e-004 -1.141438e-003
<VARIANCE> 39
 6.460498e+001 3.289322e+001 7.372739e+001 7.115416e+001 7.165265e+001 6.585312e+001 5.799174e+001 5.230029e+001 5.224282e+001 3.836693e+001 4.914096e+001 4.146418e+001 1.714429e+002 2.200324e+000 1.865560e+000 2.776090e+000 3.123700e+000 3.217412e+000 3.001430e+000 3.089631e+000 3.018445e+000 2.794454e+000 2.426971e+000 2.518615e+000 2.111325e+000 4.410639e+000 3.185133e-001 3.145674e-001 4.136566e-001 5.147737e-001 5.254533e-001 5.061446e-001 5.311490e-001 5.318173e-001 4.926673e-001 4.417985e-001 4.393213e-001 3.691663e-001 5.788727e-001
<GCONST> 1.275629e+002
<STATE> 3
<MEAN> 39
 -9.276057e+000 5.719490e-001 7.676244e-001 -4.960926e+000 -4.860048e+000 -1.545354e+000 -4.318652e+000 -2.035741e-001 -4.062080e+000 4.842599e-001 -1.199822e+000 -2.438675e+000 6.164189e+001 7.525467e-004 2.684386e-003 -3.082093e-004 2.228037e-003 -8.813801e-007 -4.186013e-004 1.654850e-003 -5.377145e-003 -4.984015e-003 -6.059816e-003 -1.231459e-003 -1.197991e-004 -3.570544e-003 -5.839384e-004 -2.781982e-005 -2.220918e-004 5.145682e-004 -3.237322e-005 -7.526280e-004 -3.609654e-004 6.755789e-004 1.646860e-003 -2.126306e-005 -1.789731e-004 -7.762628e-004 -1.141438e-003
<VARIANCE> 39
 6.460498e+001 3.289322e+001 7.372739e+001 7.115416e+001 7.165265e+001 6.585312e+001 5.799174e+001 5.230029e+001 5.224282e+001 3.836693e+001 4.914096e+001 4.146418e+001 1.714429e+002 2.200324e+000 1.865560e+000 2.776090e+000 3.123700e+000 3.217412e+000 3.001430e+000 3.089631e+000 3.018445e+000 2.794454e+000 2.426971e+000 2.518615e+000 2.111325e+000 4.410639e+000 3.185133e-001 3.145674e-001 4.136566e-001 5.147737e-001 5.254533e-001 5.061446e-001 5.311490e-001 5.318173e-001 4.926673e-001 4.417985e-001 4.393213e-001 3.691663e-001 5.788727e-001
<GCONST> 1.275629e+002
<STATE> 4
<MEAN> 39
 -9.276057e+000 5.719490e-001 7.676244e-001 -4.960926e+000 -4.860048e+000 -1.545354e+000 -4.318652e+000 -2.035741e-001 -4.062080e+000 4.842599e-001 -1.199822e+000 -2.438675e+000 6.164189e+001 7.525467e-004 2.684386e-003 -3.082093e-004 2.228037e-003 -8.813801e-007 -4.186013e-004 1.654850e-003 -5.377145e-003 -4.984015e-003 -6.059816e-003 -1.231459e-003 -1.197991e-004 -3.570544e-003 -5.839384e-004 -2.781982e-005 -2.220918e-004 5.145682e-004 -3.237322e-005 -7.526280e-004 -3.609654e-004 6.755789e-004 1.646860e-003 -2.126306e-005 -1.789731e-004 -7.762628e-004 -1.141438e-003
<VARIANCE> 39
 6.460498e+001 3.289322e+001 7.372739e+001 7.115416e+001 7.165265e+001 6.585312e+001 5.799174e+001 5.230029e+001 5.224282e+001 3.836693e+001 4.914096e+001 4.146418e+001 1.714429e+002 2.200324e+000 1.865560e+000 2.776090e+000 3.123700e+000 3.217412e+000 3.001430e+000 3.089631e+000 3.018445e+000 2.794454e+000 2.426971e+000 2.518615e+000 2.111325e+000 4.410639e+000 3.185133e-001 3.145674e-001 4.136566e-001 5.147737e-001 5.254533e-001 5.061446e-001 5.311490e-001 5.318173e-001 4.926673e-001 4.417985e-001 4.393213e-001 3.691663e-001 5.788727e-001
<GCONST> 1.275629e+002
<TRANSP> 5
 0.000000e+000 1.000000e+000 0.000000e+000 0.000000e+000 0.000000e+000
 0.000000e+000 6.000000e-001 4.000000e-001 0.000000e+000 0.000000e+000
 0.000000e+000 0.000000e+000 6.000000e-001 4.000000e-001 0.000000e+000
 0.000000e+000 0.000000e+000 0.000000e+000 7.000000e-001 3.000000e-001
 0.000000e+000 0.000000e+000 0.000000e+000 0.000000e+000 0.000000e+000
<ENDHMM>
~h "doepuri"
<BEGINHMM>
<NUMSTATES> 5
<STATE> 2
<MEAN> 39
 -9.276057e+000 5.719490e-001 7.676244e-001 -4.960926e+000 -4.860048e+000 -1.545354e+000 -4.318652e+000 -2.035741e-001 -4.062080e+000 4.842599e-001 -1.199822e+000 -2.438675e+000 6.164189e+001 7.525467e-004 2.684386e-003 -3.082093e-004 2.228037e-003 -8.813801e-007 -4.186013e-004 1.654850e-003 -5.377145e-003 -4.984015e-003 -6.059816e-003 -1.231459e-003 -1.197991e-004 -3.570544e-003 -5.839384e-004 -2.781982e-005 -2.220918e-004 5.145682e-004 -3.237322e-005 -7.526280e-004 -3.609654e-004 6.755789e-004 1.646860e-003 -2.126306e-005 -1.789731e-004 -7.762628e-004 -1.141438e-003
<VARIANCE> 39
 6.460498e+001 3.289322e+001 7.372739e+001 7.115416e+001 7.165265e+001 6.585312e+001 5.799174e+001 5.230029e+001 5.224282e+001 3.836693e+001 4.914096e+001 4.146418e+001 1.714429e+002 2.200324e+000 1.865560e+000 2.776090e+000 3.123700e+000 3.217412e+000 3.001430e+000 3.089631e+000 3.018445e+000 2.794454e+000 2.426971e+000 2.518615e+000 2.111325e+000 4.410639e+000 3.185133e-001 3.145674e-001 4.136566e-001 5.147737e-001 5.254533e-001 5.061446e-001 5.311490e-001 5.318173e-001 4.926673e-001 4.417985e-001 4.393213e-001 3.691663e-001 5.788727e-001
<GCONST> 1.275629e+002
<STATE> 3
<MEAN> 39
 -9.276057e+000 5.719490e-001 7.676244e-001 -4.960926e+000 -4.860048e+000 -1.545354e+000 -4.318652e+000 -2.035741e-001 -4.062080e+000 4.842599e-001 -1.199822e+000 -2.438675e+000 6.164189e+001 7.525467e-004 2.684386e-003 -3.082093e-004 2.228037e-003 -8.813801e-007 -4.186013e-004 1.654850e-003 -5.377145e-003 -4.984015e-003 -6.059816e-003 -1.231459e-003 -1.197991e-004 -3.570544e-003 -5.839384e-004 -2.781982e-005 -2.220918e-004 5.145682e-004 -3.237322e-005 -7.526280e-004 -3.609654e-004 6.755789e-004 1.646860e-003 -2.126306e-005 -1.789731e-004 -7.762628e-004 -1.141438e-003
<VARIANCE> 39
 6.460498e+001 3.289322e+001 7.372739e+001 7.115416e+001 7.165265e+001 6.585312e+001 5.799174e+001 5.230029e+001 5.224282e+001 3.836693e+001 4.914096e+001 4.146418e+001 1.714429e+002 2.200324e+000 1.865560e+000 2.776090e+000 3.123700e+000 3.217412e+000 3.001430e+000 3.089631e+000 3.018445e+000 2.794454e+000 2.426971e+000 2.518615e+000 2.111325e+000 4.410639e+000 3.185133e-001 3.145674e-001 4.136566e-001 5.147737e-001 5.254533e-001 5.061446e-001 5.311490e-001 5.318173e-001 4.926673e-001 4.417985e-001 4.393213e-001 3.691663e-001 5.788727e-001
<GCONST> 1.275629e+002
<STATE> 4
<MEAN> 39
 -9.276057e+000 5.719490e-001 7.676244e-001 -4.960926e+000 -4.860048e+000 -1.545354e+000 -4.318652e+000 -2.035741e-001 -4.062080e+000 4.842599e-001 -1.199822e+000 -2.438675e+000 6.164189e+001 7.525467e-004 2.684386e-003 -3.082093e-004 2.228037e-003 -8.813801e-007 -4.186013e-004 1.654850e-003 -5.377145e-003 -4.984015e-003 -6.059816e-003 -1.231459e-003 -1.197991e-004 -3.570544e-003 -5.839384e-004 -2.781982e-005 -2.220918e-004 5.145682e-004 -3.237322e-005 -7.526280e-004 -3.609654e-004 6.755789e-004 1.646860e-003 -2.126306e-005 -1.789731e-004 -7.762628e-004 -1.141438e-003
<VARIANCE> 39
 6.460498e+001 3.289322e+001 7.372739e+001 7.115416e+001 7.165265e+001 6.585312e+001 5.799174e+001 5.230029e+001 5.224282e+001 3.836693e+001 4.914096e+001 4.146418e+001 1.714429e+002 2.200324e+000 1.865560e+000 2.776090e+000 3.123700e+000 3.217412e+000 3.001430e+000 3.089631e+000 3.018445e+000 2.794454e+000 2.426971e+000 2.518615e+000 2.111325e+000 4.410639e+000 3.185133e-001 3.145674e-001 4.136566e-001 5.147737e-001 5.254533e-001 5.061446e-001 5.311490e-001 5.318173e-001 4.926673e-001 4.417985e-001 4.393213e-001 3.691663e-001 5.788727e-001
<GCONST> 1.275629e+002
<TRANSP> 5
 0.000000e+000 1.000000e+000 0.000000e+000 0.000000e+000 0.000000e+000
 0.000000e+000 6.000000e-001 4.000000e-001 0.000000e+000 0.000000e+000
 0.000000e+000 0.000000e+000 6.000000e-001 4.000000e-001 0.000000e+000
 0.000000e+000 0.000000e+000 0.000000e+000 7.000000e-001 3.000000e-001
 0.000000e+000 0.000000e+000 0.000000e+000 0.000000e+000 0.000000e+000
<ENDHMM>
~h "noemureul"
<BEGINHMM>
<NUMSTATES> 5
<STATE> 2
<MEAN> 39
 -9.276057e+000 5.719490e-001 7.676244e-001 -4.960926e+000 -4.860048e+000 -1.545354e+000 -4.318652e+000 -2.035741e-001 -4.062080e+000 4.842599e-001 -1.199822e+000 -2.438675e+000 6.164189e+001 7.525467e-004 2.684386e-003 -3.082093e-004 2.228037e-003 -8.813801e-007 -4.186013e-004 1.654850e-003 -5.377145e-003 -4.984015e-003 -6.059816e-003 -1.231459e-003 -1.197991e-004 -3.570544e-003 -5.839384e-004 -2.781982e-005 -2.220918e-004 5.145682e-004 -3.237322e-005 -7.526280e-004 -3.609654e-004 6.755789e-004 1.646860e-003 -2.126306e-005 -1.789731e-004 -7.762628e-004 -1.141438e-003
<VARIANCE> 39
 6.460498e+001 3.289322e+001 7.372739e+001 7.115416e+001 7.165265e+001 6.585312e+001 5.799174e+001 5.230029e+001 5.224282e+001 3.836693e+001 4.914096e+001 4.146418e+001 1.714429e+002 2.200324e+000 1.865560e+000 2.776090e+000 3.123700e+000 3.217412e+000 3.001430e+000 3.089631e+000 3.018445e+000 2.794454e+000 2.426971e+000 2.518615e+000 2.111325e+000 4.410639e+000 3.185133e-001 3.145674e-001 4.136566e-001 5.147737e-001 5.254533e-001 5.061446e-001 5.311490e-001 5.318173e-001 4.926673e-001 4.417985e-001 4.393213e-001 3.691663e-001 5.788727e-001
<GCONST> 1.275629e+002
<STATE> 3
<MEAN> 39
 -9.276057e+000 5.719490e-001 7.676244e-001 -4.960926e+000 -4.860048e+000 -1.545354e+000 -4.318652e+000 -2.035741e-001 -4.062080e+000 4.842599e-001 -1.199822e+000 -2.438675e+000 6.164189e+001 7.525467e-004 2.684386e-003 -3.082093e-004 2.228037e-003 -8.813801e-007 -4.186013e-004 1.654850e-003 -5.377145e-003 -4.984015e-003 -6.059816e-003 -1.231459e-003 -1.197991e-004 -3.570544e-003 -5.839384e-004 -2.781982e-005 -2.220918e-004 5.145682e-004 -3.237322e-005 -7.526280e-004 -3.609654e-004 6.755789e-004 1.646860e-003 -2.126306e-005 -1.789731e-004 -7.762628e-004 -1.141438e-003
<VARIANCE> 39
 6.460498e+001 3.289322e+001 7.372739e+001 7.115416e+001 7.165265e+001 6.585312e+001 5.799174e+001 5.230029e+001 5.224282e+001 3.836693e+001 4.914096e+001 4.146418e+001 1.714429e+002 2.200324e+000 1.865560e+000 2.776090e+000 3.123700e+000 3.217412e+000 3.001430e+000 3.089631e+000 3.018445e+000 2.794454e+000 2.426971e+000 2.518615e+000 2.111325e+000 4.410639e+000 3.185133e-001 3.145674e-001 4.136566e-001 5.147737e-001 5.254533e-001 5.061446e-001 5.311490e-001 5.318173e-001 4.926673e-001 4.417985e-001 4.393213e-001 3.691663e-001 5.788727e-001
<GCONST> 1.275629e+002
<STATE> 4
<MEAN> 39
 -9.276057e+000 5.719490e-001 7.676244e-001 -4.960926e+000 -4.860048e+000 -1.545354e+000 -4.318652e+000 -2.035741e-001 -4.062080e+000 4.842599e-001 -1.199822e+000 -2.438675e+000 6.164189e+001 7.525467e-004 2.684386e-003 -3.082093e-004 2.228037e-003 -8.813801e-007 -4.186013e-004 1.654850e-003 -5.377145e-003 -4.984015e-003 -6.059816e-003 -1.231459e-003 -1.197991e-004 -3.570544e-003 -5.839384e-004 -2.781982e-005 -2.220918e-004 5.145682e-004 -3.237322e-005 -7.526280e-004 -3.609654e-004 6.755789e-004 1.646860e-003 -2.126306e-005 -1.789731e-004 -7.762628e-004 -1.141438e-003
<VARIANCE> 39
 6.460498e+001 3.289322e+001 7.372739e+001 7.115416e+001 7.165265e+001 6.585312e+001 5.799174e+001 5.230029e+001 5.224282e+001 3.836693e+001 4.914096e+001 4.146418e+001 1.714429e+002 2.200324e+000 1.865560e+000 2.776090e+000 3.123700e+000 3.217412e+000 3.001430e+000 3.089631e+000 3.018445e+000 2.794454e+000 2.426971e+000 2.518615e+000 2.111325e+000 4.410639e+000 3.185133e-001 3.145674e-001 4.136566e-001 5.147737e-001 5.254533e-001 5.061446e-001 5.311490e-001 5.318173e-001 4.926673e-001 4.417985e-001 4.393213e-001 3.691663e-001 5.788727e-001
<GCONST> 1.275629e+002
<TRANSP> 5
 0.000000e+000 1.000000e+000 0.000000e+000 0.000000e+000 0.000000e+000
 0.000000e+000 6.000000e-001 4.000000e-001 0.000000e+000 0.000000e+000
 0.000000e+000 0.000000e+000 6.000000e-001 4.000000e-001 0.000000e+000
 0.000000e+000 0.000000e+000 0.000000e+000 7.000000e-001 3.000000e-001
 0.000000e+000 0.000000e+000 0.000000e+000 0.000000e+000 0.000000e+000
<ENDHMM>
~h "uioero"
<BEGINHMM>
<NUMSTATES> 5
<STATE> 2
<MEAN> 39
 -9.276057e+000 5.719490e-001 7.676244e-001 -4.960926e+000 -4.860048e+000 -1.545354e+000 -4.318652e+000 -2.035741e-001 -4.062080e+000 4.842599e-001 -1.199822e+000 -2.438675e+000 6.164189e+001 7.525467e-004 2.684386e-003 -3.082093e-004 2.228037e-003 -8.813801e-007 -4.186013e-004 1.654850e-003 -5.377145e-003 -4.984015e-003 -6.059816e-003 -1.231459e-003 -1.197991e-004 -3.570544e-003 -5.839384e-004 -2.781982e-005 -2.220918e-004 5.145682e-004 -3.237322e-005 -7.526280e-004 -3.609654e-004 6.755789e-004 1.646860e-003 -2.126306e-005 -1.789731e-004 -7.762628e-004 -1.141438e-003
<VARIANCE> 39
 6.460498e+001 3.289322e+001 7.372739e+001 7.115416e+001 7.165265e+001 6.585312e+001 5.799174e+001 5.230029e+001 5.224282e+001 3.836693e+001 4.914096e+001 4.146418e+001 1.714429e+002 2.200324e+000 1.865560e+000 2.776090e+000 3.123700e+000 3.217412e+000 3.001430e+000 3.089631e+000 3.018445e+000 2.794454e+000 2.426971e+000 2.518615e+000 2.111325e+000 4.410639e+000 3.185133e-001 3.145674e-001 4.136566e-001 5.147737e-001 5.254533e-001 5.061446e-001 5.311490e-001 5.318173e-001 4.926673e-001 4.417985e-001 4.393213e-001 3.691663e-001 5.788727e-001
<GCONST> 1.275629e+002
<STATE> 3
<MEAN> 39
 -9.276057e+000 5.719490e-001 7.676244e-001 -4.960926e+000 -4.860048e+000 -1.545354e+000 -4.318652e+000 -2.035741e-001 -4.062080e+000 4.842599e-001 -1.199822e+000 -2.438675e+000 6.164189e+001 7.525467e-004 2.684386e-003 -3.082093e-004 2.228037e-003 -8.813801e-007 -4.186013e-004 1.654850e-003 -5.377145e-003 -4.984015e-003 -6.059816e-003 -1.231459e-003 -1.197991e-004 -3.570544e-003 -5.839384e-004 -2.781982e-005 -2.220918e-004 5.145682e-004 -3.237322e-005 -7.526280e-004 -3.609654e-004 6.755789e-004 1.646860e-003 -2.126306e-005 -1.789731e-004 -7.762628e-004 -1.141438e-003
<VARIANCE> 39
 6.460498e+001 3.289322e+001 7.372739e+001 7.115416e+001 7.165265e+001 6.585312e+001 5.799174e+001 5.230029e+001 5.224282e+001 3.836693e+001 4.914096e+001 4.146418e+001 1.714429e+002 2.200324e+000 1.865560e+000 2.776090e+000 3.123700e+000 3.217412e+000 3.001430e+000 3.089631e+000 3.018445e+000 2.794454e+000 2.426971e+000 2.518615e+000 2.111325e+000 4.410639e+000 3.185133e-001 3.145674e-001 4.136566e-001 5.147737e-001 5.254533e-001 5.061446e-001 5.311490e-001 5.318173e-001 4.926673e-001 4.417985e-001 4.393213e-001 3.691663e-001 5.788727e-001
<GCONST> 1.275629e+002
<STATE> 4
<MEAN> 39
 -9.276057e+000 5.719490e-001 7.676244e-001 -4.960926e+000 -4.860048e+000 -1.545354e+000 -4.318652e+000 -2.035741e-001 -4.062080e+000 4.842599e-001 -1.199822e+000 -2.438675e+000 6.164189e+001 7.525467e-004 2.684386e-003 -3.082093e-004 2.228037e-003 -8.813801e-007 -4.186013e-004 1.654850e-003 -5.377145e-003 -4.984015e-003 -6.059816e-003 -1.231459e-003 -1.197991e-004 -3.570544e-003 -5.839384e-004 -2.781982e-005 -2.220918e-004 5.145682e-004 -3.237322e-005 -7.526280e-004 -3.609654e-004 6.755789e-004 1.646860e-003 -2.126306e-005 -1.789731e-004 -7.762628e-004 -1.141438e-003
<VARIANCE> 39
 6.460498e+001 3.289322e+001 7.372739e+001 7.115416e+001 7.165265e+001 6.585312e+001 5.799174e+001 5.230029e+001 5.224282e+001 3.836693e+001 4.914096e+001 4.146418e+001 1.714429e+002 2.200324e+000 1.865560e+000 2.776090e+000 3.123700e+000 3.217412e+000 3.001430e+000 3.089631e+000 3.018445e+000 2.794454e+000 2.426971e+000 2.518615e+000 2.111325e+000 4.410639e+000 3.185133e-001 3.145674e-001 4.136566e-001 5.147737e-001 5.254533e-001 5.061446e-001 5.311490e-001 5.318173e-001 4.926673e-001 4.417985e-001 4.393213e-001 3.691663e-001 5.788727e-001
<GCONST> 1.275629e+002
<TRANSP> 5
 0.000000e+000 1.000000e+000 0.000000e+000 0.000000e+000 0.000000e+000
 0.000000e+000 6.000000e-001 4.000000e-001 0.000000e+000 0.000000e+000
 0.000000e+000 0.000000e+000 6.000000e-001 4.000000e-001 0.000000e+000
 0.000000e+000 0.000000e+000 0.000000e+000 7.000000e-001 3.000000e-001
 0.000000e+000 0.000000e+000 0.000000e+000 0.000000e+000 0.000000e+000
<ENDHMM>
~h "geoyeyo"
<BEGINHMM>
<NUMSTATES> 5
<STATE> 2
<MEAN> 39
 -9.276057e+000 5.719490e-001 7.676244e-001 -4.960926e+000 -4.860048e+000 -1.545354e+000 -4.318652e+000 -2.035741e-001 -4.062080e+000 4.842599e-001 -1.199822e+000 -2.438675e+000 6.164189e+001 7.525467e-004 2.684386e-003 -3.082093e-004 2.228037e-003 -8.813801e-007 -4.186013e-004 1.654850e-003 -5.377145e-003 -4.984015e-003 -6.059816e-003 -1.231459e-003 -1.197991e-004 -3.570544e-003 -5.839384e-004 -2.781982e-005 -2.220918e-004 5.145682e-004 -3.237322e-005 -7.526280e-004 -3.609654e-004 6.755789e-004 1.646860e-003 -2.126306e-005 -1.789731e-004 -7.762628e-004 -1.141438e-003
<VARIANCE> 39
 6.460498e+001 3.289322e+001 7.372739e+001 7.115416e+001 7.165265e+001 6.585312e+001 5.799174e+001 5.230029e+001 5.224282e+001 3.836693e+001 4.914096e+001 4.146418e+001 1.714429e+002 2.200324e+000 1.865560e+000 2.776090e+000 3.123700e+000 3.217412e+000 3.001430e+000 3.089631e+000 3.018445e+000 2.794454e+000 2.426971e+000 2.518615e+000 2.111325e+000 4.410639e+000 3.185133e-001 3.145674e-001 4.136566e-001 5.147737e-001 5.254533e-001 5.061446e-001 5.311490e-001 5.318173e-001 4.926673e-001 4.417985e-001 4.393213e-001 3.691663e-001 5.788727e-001
<GCONST> 1.275629e+002
<STATE> 3
<MEAN> 39
 -9.276057e+000 5.719490e-001 7.676244e-001 -4.960926e+000 -4.860048e+000 -1.545354e+000 -4.318652e+000 -2.035741e-001 -4.062080e+000 4.842599e-001 -1.199822e+000 -2.438675e+000 6.164189e+001 7.525467e-004 2.684386e-003 -3.082093e-004 2.228037e-003 -8.813801e-007 -4.186013e-004 1.654850e-003 -5.377145e-003 -4.984015e-003 -6.059816e-003 -1.231459e-003 -1.197991e-004 -3.570544e-003 -5.839384e-004 -2.781982e-005 -2.220918e-004 5.145682e-004 -3.237322e-005 -7.526280e-004 -3.609654e-004 6.755789e-004 1.646860e-003 -2.126306e-005 -1.789731e-004 -7.762628e-004 -1.141438e-003
<VARIANCE> 39
 6.460498e+001 3.289322e+001 7.372739e+001 7.115416e+001 7.165265e+001 6.585312e+001 5.799174e+001 5.230029e+001 5.224282e+001 3.836693e+001 4.914096e+001 4.146418e+001 1.714429e+002 2.200324e+000 1.865560e+000 2.776090e+000 3.123700e+000 3.217412e+000 3.001430e+000 3.089631e+000 3.018445e+000 2.794454e+000 2.426971e+000 2.518615e+000 2.111325e+000 4.410639e+000 3.185133e-001 3.145674e-001 4.136566e-001 5.147737e-001 5.254533e-001 5.061446e-001 5.311490e-001 5.318173e-001 4.926673e-001 4.417985e-001 4.393213e-001 3.691663e-001 5.788727e-001
<GCONST> 1.275629e+002
<STATE> 4
<MEAN> 39
 -9.276057e+000 5.719490e-001 7.676244e-001 -4.960926e+000 -4.860048e+000 -1.545354e+000 -4.318652e+000 -2.035741e-001 -4.062080e+000 4.842599e-001 -1.199822e+000 -2.438675e+000 6.164189e+001 7.525467e-004 2.684386e-003 -3.082093e-004 2.228037e-003 -8.813801e-007 -4.186013e-004 1.654850e-003 -5.377145e-003 -4.984015e-003 -6.059816e-003 -1.231459e-003 -1.197991e-004 -3.570544e-003 -5.839384e-004 -2.781982e-005 -2.220918e-004 5.145682e-004 -3.237322e-005 -7.526280e-004 -3.609654e-004 6.755789e-004 1.646860e-003 -2.126306e-005 -1.789731e-004 -7.762628e-004 -1.141438e-003
<VARIANCE> 39
 6.460498e+001 3.289322e+001 7.372739e+001 7.115416e+001 7.165265e+001 6.585312e+001 5.799174e+001 5.230029e+001 5.224282e+001 3.836693e+001 4.914096e+001 4.146418e+001 1.714429e+002 2.200324e+000 1.865560e+000 2.776090e+000 3.123700e+000 3.217412e+000 3.001430e+000 3.089631e+000 3.018445e+000 2.794454e+000 2.426971e+000 2.518615e+000 2.111325e+000 4.410639e+000 3.185133e-001 3.145674e-001 4.136566e-001 5.147737e-001 5.254533e-001 5.061446e-001 5.311490e-001 5.318173e-001 4.926673e-001 4.417985e-001 4.393213e-001 3.691663e-001 5.788727e-001
<GCONST> 1.275629e+002
<TRANSP> 5
 0.000000e+000 1.000000e+000 0.000000e+000 0.000000e+000 0.000000e+000
 0.000000e+000 6.000000e-001 4.000000e-001 0.000000e+000 0.000000e+000
 0.000000e+000 0.000000e+000 6.000000e-001 4.000000e-001 0.000000e+000
 0.000000e+000 0.000000e+000 0.000000e+000 7.000000e-001 3.000000e-001
 0.000000e+000 0.000000e+000 0.000000e+000 0.000000e+000 0.000000e+000
<ENDHMM>
~h "nuwoseo"
<BEGINHMM>
<NUMSTATES> 5
<STATE> 2
<MEAN> 39
 -9.276057e+000 5.719490e-001 7.676244e-001 -4.960926e+000 -4.860048e+000 -1.545354e+000 -4.318652e+000 -2.035741e-001 -4.062080e+000 4.842599e-001 -1.199822e+000 -2.438675e+000 6.164189e+001 7.525467e-004 2.684386e-003 -3.082093e-004 2.228037e-003 -8.813801e-007 -4.186013e-004 1.654850e-003 -5.377145e-003 -4.984015e-003 -6.059816e-003 -1.231459e-003 -1.197991e-004 -3.570544e-003 -5.839384e-004 -2.781982e-005 -2.220918e-004 5.145682e-004 -3.237322e-005 -7.526280e-004 -3.609654e-004 6.755789e-004 1.646860e-003 -2.126306e-005 -1.789731e-004 -7.762628e-004 -1.141438e-003
<VARIANCE> 39
